-0.053900 0.000000 0.000000 0.000000 0.000000 0.000000 0.000000 0.053900 0.000000 0.000000 0.053900 -0.053900 0.000000 0.000000 0.000000 0.000000 -0.053900 0.000000 0.000000 0.000000 0.053900 0.000000 0.053900 0.000000 0.000000 0.000000 0.000000 0.000000 0.053900 0.000000 0.000000 0.000000 0.000000 0.000000 0.000000 -0.053900 0.000000 0.053900 0.000000 -0.053900 0.000000 0.053900 -0.053900 -0.053900 0.000000 0.053900 0.053900 0.000000 0.053900 0.000000 0.000000 0.000000 0.053900 0.000000 0.053900 0.000000 -0.053900 0.000000 0.000000 0.000000 0.053900 0.053900 0.000000 -0.053900 0.000000 0.053900 0.000000 0.000000 0.053900 0.000000 -0.053900 0.053900 -0.053900 0.000000 -0.053900 0.000000 -0.053900 0.000000 0.053900 0.053900 0.000000 -0.053900 0.000000 0.000000 0.000000 0.053900 0.000000 -0.053900 0.000000 0.053900 -0.053900 0.053900 -0.053900 0.000000 -0.053900 -0.053900 0.000000 -0.053900 0.000000 0.000000 -0.053900 0.053900 -0.053900 0.053900 -0.053900 -0.053900 -0.053900 0.000000 0.000000 0.000000 0.053900 0.000000 0.000000 0.000000 0.000000 -0.053900 0.000000 -0.053900 0.000000 0.000000 0.000000 0.000000 0.053900 0.053900 0.000000 -0.053900 -0.053900 -0.053900 0.053900 0.053900 0.053900 0.053900 0.000000 0.053900 -0.053900 0.000000 0.000000 0.053900 -0.053900 0.053900 0.000000 0.053900 0.000000 0.053900 0.053900 0.053900 -0.053900 -0.053900 0.053900 0.000000 0.000000 -0.053900 0.000000 0.000000 0.000000 0.000000 -0.053900 0.000000 0.000000 -0.053900 0.053900 0.000000 0.000000 0.000000 0.000000 -0.053900 0.000000 0.000000 0.000000 0.000000 0.053900 0.053900 0.000000 0.053900 0.000000 -0.053900 -0.053900 0.053900 0.053900 -0.053900 -0.053900 0.053900 -0.053900 0.000000 0.000000 0.000000 0.053900 -0.053900 0.000000 -0.053900 0.000000 0.053900 -0.053900 0.000000 0.053900 0.000000 0.053900 0.000000 0.053900 0.053900 0.000000 0.000000 0.053900 0.000000 0.000000 0.000000 -0.053900 0.000000 0.000000 0.000000 0.000000 0.000000 0.053900 0.000000 0.000000 -0.053900 -0.053900 -0.053900 -0.053900 0.000000 -0.053900 0.000000 0.053900 0.000000 0.000000 0.000000 0.000000 -0.053900 0.053900 0.000000 0.000000 0.000000 -0.053900 0.053900 0.000000 0.000000 -0.053900 0.000000 0.000000 0.053900 -0.053900 0.000000 -0.053900 0.000000 0.000000 0.000000 0.000000 0.053900 -0.053900 0.000000 -0.053900 -0.053900 0.000000 0.000000 0.000000 0.053900 0.000000 0.000000 0.000000 0.000000 0.000000 0.000000 0.000000 0.053900 -0.053900 0.000000 0.000000 -0.053900 0.053900 0.053900 0.000000 -0.053900 0.000000 -0.053900 0.000000 0.000000 -0.053900 -0.053900 0.000000 0.000000 -0.053900 0.053900 0.000000 0.000000 0.000000 -0.053900 0.000000 0.053900 0.000000 0.053900 0.000000 -0.053900 0.000000 0.000000 0.000000 -0.053900 0.000000 0.000000 -0.053900 0.000000 0.053900 0.000000 0.053900 0.053900 0.000000 0.053900 0.000000 0.000000 -0.053900 0.000000 -0.053900 0.000000 0.000000 -0.053900 0.053900 0.000000 0.000000 0.000000 0.053900 0.000000 -0.053900 0.000000 0.000000 0.053900 0.000000 0.000000 0.000000 -0.053900 0.000000 0.053900 0.053900 0.000000 0.000000 -0.053900 0.000000 0.053900 0.053900 0.000000 0.053900 -0.053900 0.000000 0.053900 0.053900 -0.053900 0.000000 0.053900 0.000000 0.000000 -0.053900 0.000000 -0.053900 0.000000 -0.053900 -0.053900 0.000000 0.000000 0.000000 0.000000 0.000000 -0.053900 0.000000 0.000000 0.000000 0.000000 0.053900 -0.053900 0.000000 0.000000 0.000000 0.053900 0.053900 0.053900 0.053900 0.053900 -0.053900 0.000000 0.000000 0.000000 -0.053900 -0.053900 0.000000 0.000000 0.000000 0.000000 -0.053900 -0.053900 0.000000 0.000000 0.000000 -0.053900 0.000000 0.000000 0.053900 0.000000 0.053900 0.000000 0.000000 0.053900 0.053900 -0.053900 0.000000 0.000000 0.036600 0.000000 -0.036600 0.000000 0.000000 0.036600 0.000000 0.000000 0.000000 0.036600 0.036600 0.000000 0.000000 0.000000 0.000000 0.000000 0.000000 -0.036600 0.036600 0.000000 0.000000 -0.036600 0.000000 0.036600 0.000000 0.000000 0.000000 -0.036600 -0.036600 0.000000 0.000000 0.000000 0.000000 0.000000 -0.036600 0.000000 -0.036600 0.036600 0.000000 0.000000 0.000000 0.036600 0.000000 0.036600 0.000000 0.000000 0.000000 0.000000 0.000000 0.000000 0.000000 0.000000 0.000000 0.000000 0.000000 0.036600 -0.036600 0.000000 0.000000 0.000000 -0.036600 0.000000 -0.036600 -0.036600 0.000000 -0.036600 -0.036600 0.036600 -0.036600 0.036600 0.000000 0.000000 0.000000 0.000000 0.000000 0.036600 -0.036600 0.000000 0.000000 -0.036600 0.036600 0.000000 0.036600 -0.036600 0.036600 0.000000 -0.036600 0.036600 -0.036600 0.000000 0.000000 -0.036600 0.036600 0.000000 0.000000 -0.036600 0.000000 -0.036600 0.000000 0.000000 0.036600 0.036600 0.000000 -0.036600 -0.036600 0.000000 0.000000 -0.036600 0.000000 0.036600 0.036600 -0.036600 -0.036600 0.000000 -0.036600 0.000000 0.036600 0.000000 0.000000 0.036600 0.000000 0.000000 0.000000 0.000000 0.036600 0.000000 0.000000 0.000000 0.036600 -0.036600 0.000000 0.000000 0.000000 0.000000 -0.036600 0.000000 -0.036600 0.000000 0.000000 0.000000 0.000000 -0.036600 0.036600 0.036600 0.000000 0.000000 0.000000 0.000000 0.000000 -0.036600 0.036600 0.036600 0.000000 0.000000 0.036600 0.036600 -0.036600 0.000000 -0.036600 0.000000 0.036600 -0.036600 0.000000 0.036600 -0.036600 -0.036600 0.036600 0.000000 0.000000 0.000000 0.000000 -0.036600 0.036600 0.000000 -0.036600 -0.036600 -0.036600 0.000000 -0.036600 0.000000 0.000000 -0.036600 0.036600 0.000000 0.036600 0.000000 0.000000 0.036600 0.000000 -0.036600 0.000000 -0.036600 -0.036600 0.000000 -0.036600 0.000000 0.036600 0.000000 -0.036600 0.036600 0.000000 0.036600 0.000000 0.036600 0.000000 0.000000 -0.036600 0.000000 0.000000 0.036600 0.000000 0.000000 0.000000 0.036600 0.000000 -0.036600 0.000000 0.000000 0.036600 0.036600 0.036600 0.036600 0.000000 0.000000 0.000000 0.036600 -0.036600 -0.036600 -0.036600 0.000000 0.036600 -0.036600 0.036600 0.000000 0.036600 0.036600 0.000000 0.000000 0.036600 0.036600 0.000000 0.000000 0.036600 0.000000 0.000000 0.000000 0.000000 0.036600 -0.036600 0.036600 0.000000 0.036600 0.000000 -0.036600 0.036600 -0.036600 0.000000 0.000000 -0.036600 0.000000 0.000000 -0.036600 0.000000 0.000000 0.000000 0.000000 0.000000 0.000000 -0.036600 0.000000 0.036600 0.036600 0.000000 0.036600 0.036600 0.000000 0.036600 0.036600 0.036600 0.036600 -0.036600 0.000000 -0.036600 0.036600 0.000000 0.000000 -0.036600 0.000000 0.000000 0.000000 0.036600 -0.036600 0.000000 0.000000 0.000000 -0.036600 -0.036600 0.000000 0.036600 -0.036600 0.000000 0.000000 -0.036600 -0.036600 0.000000 -0.036600 0.000000 0.000000 0.000000 -0.036600 0.036600 -0.036600 -0.036600 0.036600 0.000000 0.036600 -0.036600 -0.036600 0.036600 0.000000 0.000000 0.000000 0.000000 0.000000 0.036600 0.000000 0.000000 0.000000 -0.036600 0.000000 0.000000 0.000000 0.000000 -0.036600 0.000000 0.036600 0.000000 0.000000 -0.036600 0.036600 0.000000 0.000000 0.000000 -0.036600 -0.036600 0.000000 0.000000 -0.036600 -0.036600 0.000000 -0.036600 0.000000 0.036600 0.000000 -0.036600 0.000000 -0.036600 -0.036600 0.000000 0.036600 0.000000 -0.036600 0.000000 -0.036600 0.000000 0.000000 -0.036600 0.000000 0.000000 0.036600 0.000000 0.000000 0.000000 -0.036600 0.000000 0.000000 0.036600 0.000000 0.000000 0.000000 0.000000 -0.036600 0.000000 0.036600 0.000000 0.000000 0.036600 0.000000 0.000000 -0.036600 -0.036600 0.000000 0.000000 0.000000 0.036600 0.036600 0.036600 0.000000 -0.103800 -0.103800 0.000000 -0.103800 0.000000 0.103800 -0.103800 0.000000 0.000000 -0.103800 0.000000 -0.103800 0.000000 0.000000 0.000000 0.000000 0.000000 0.000000 0.000000 0.000000 0.000000 0.103800 0.000000 0.103800 0.000000 0.000000 0.000000 0.000000 0.103800 0.000000 0.103800 0.000000 0.000000 -0.103800 0.000000 -0.103800 0.000000 0.000000 0.000000 0.103800 0.000000 0.000000 -0.103800 0.000000 0.000000 -0.103800 0.000000 0.000000 0.000000 0.000000 0.000000 0.000000 0.103800 -0.103800 0.103800 0.103800 0.000000 -0.103800 0.103800 0.000000 0.000000 0.000000 0.103800 0.103800 0.103800 0.000000 0.000000 0.103800 -0.103800 0.000000 0.103800 -0.103800 -0.103800 0.103800 0.000000 0.000000 -0.103800 0.103800 0.000000 0.000000 0.000000 0.000000 0.000000 0.000000 0.103800 0.000000 0.000000 0.000000 0.000000 0.000000 0.103800 0.000000 0.103800 -0.103800 0.000000 -0.103800 0.103800 0.103800 0.103800 0.103800 0.000000 0.000000 0.000000 0.000000 0.000000 0.103800 0.000000 -0.103800 -0.103800 0.000000 -0.103800 0.000000 0.000000 0.103800 -0.103800 0.000000 0.000000 0.000000 0.103800 0.000000 0.000000 -0.103800 0.000000 0.000000 -0.103800 0.000000 0.000000 0.000000 0.103800 -0.103800 0.000000 0.000000 0.103800 -0.103800 -0.103800 0.103800 0.000000 0.000000 0.000000 0.103800 0.103800 -0.103800 0.000000 -0.103800 0.000000 -0.103800 0.000000 0.000000 0.000000 0.000000 0.103800 -0.103800 -0.103800 -0.103800 0.000000 0.103800 0.000000 -0.103800 -0.103800 -0.103800 0.000000 0.103800 -0.103800 0.000000 0.103800 0.000000 0.000000 -0.103800 0.000000 0.000000 0.000000 -0.103800 0.000000 0.103800 -0.103800 0.000000 0.103800 -0.103800 -0.103800 0.000000 -0.103800 0.103800 -0.103800 0.103800 -0.103800 0.000000 0.000000 0.000000 -0.103800 0.000000 0.000000 0.000000 0.000000 0.000000 0.000000 -0.103800 0.103800 0.000000 0.000000 -0.103800 0.103800 0.000000 -0.103800 0.000000 0.000000 -0.103800 0.103800 -0.103800 0.103800 -0.103800 0.000000 -0.103800 0.000000 0.000000 0.103800 -0.103800 0.103800 0.103800 0.000000 -0.103800 0.000000 0.103800 0.103800 0.103800 0.103800 0.103800 0.000000 -0.103800 0.103800 -0.103800 0.103800 0.000000 0.000000 0.000000 0.103800 0.000000 0.000000 0.000000 0.103800 -0.103800 0.000000 0.103800 0.000000 0.103800 0.103800 -0.103800 -0.103800 0.000000 0.000000 -0.103800 0.000000 0.000000 -0.103800 0.000000 0.000000 -0.103800 0.103800 0.103800 -0.103800 -0.103800 0.000000 0.103800 0.103800 0.000000 0.000000 0.000000 0.000000 0.000000 0.000000 0.000000 0.000000 0.103800 0.000000 0.000000 0.000000 0.000000 -0.103800 0.000000 0.000000 0.000000 0.103800 0.000000 0.000000 0.103800 0.103800 0.103800 -0.103800 0.103800 0.103800 0.000000 0.000000 -0.103800 0.000000 0.000000 0.000000 -0.103800 -0.103800 -0.103800 0.000000 0.000000 0.103800 -0.103800 -0.103800 0.000000 0.000000 -0.103800 0.000000 0.000000 0.000000 0.000000 -0.103800 0.000000 0.000000 0.000000 0.103800 -0.103800 0.000000 0.103800 0.000000 0.000000 0.000000 0.000000 0.000000 -0.103800 0.000000 -0.103800 0.000000 0.103800 0.103800 0.103800 -0.103800 0.000000 0.000000 0.103800 0.000000 -0.103800 0.000000 0.000000 0.103800 -0.103800 0.000000 0.000000 0.103800 0.000000 0.000000 0.103800 0.000000 0.000000 0.000000 0.000000 0.000000 0.103800 0.103800 0.000000 0.103800 0.000000 0.000000 0.000000 0.000000 0.103800 -0.103800 0.103800 0.000000 0.000000 0.000000 -0.103800 0.000000 0.103800 0.000000 0.000000 0.000000 -0.103800 0.000000 0.000000 0.000000 0.000000 0.000000 -0.103800 0.000000 0.000000 0.103800 -0.103800 0.000000 0.103800 0.000000 0.103800 -0.103800 0.103800 0.000000 0.000000 -0.103800 -0.103800 0.103800 -0.103800 0.103800 0.000000 0.000000 -0.103800 0.000000 0.000000 -0.019100 0.019100 0.000000 0.019100 0.000000 0.019100 0.019100 0.019100 0.000000 -0.019100 0.000000 0.000000 0.000000 0.000000 0.000000 0.000000 -0.019100 0.000000 -0.019100 0.000000 0.000000 0.000000 0.000000 0.000000 -0.019100 0.000000 0.019100 0.000000 0.000000 0.000000 0.000000 0.019100 -0.019100 0.000000 0.019100 -0.019100 0.000000 0.019100 -0.019100 0.019100 0.000000 -0.019100 0.000000 0.000000 0.000000 0.000000 -0.019100 0.000000 0.019100 0.000000 0.000000 0.000000 0.000000 0.019100 0.000000 0.000000 0.000000 0.000000 -0.019100 0.000000 0.019100 0.000000 -0.019100 0.019100 0.000000 0.000000 0.000000 -0.019100 0.019100 -0.019100 0.000000 -0.019100 0.019100 0.000000 0.000000 0.000000 0.000000 0.019100 0.000000 0.000000 0.000000 0.000000 -0.019100 -0.019100 -0.019100 0.019100 0.019100 0.000000 0.000000 0.000000 0.000000 0.000000 -0.019100 -0.019100 0.000000 0.000000 0.000000 0.019100 0.019100 0.019100 0.000000 -0.019100 0.000000 -0.019100 0.000000 0.000000 0.000000 -0.019100 0.000000 0.000000 0.000000 0.000000 0.019100 -0.019100 0.000000 0.000000 0.000000 0.019100 -0.019100 0.000000 0.019100 0.000000 0.000000 0.000000 0.019100 0.000000 -0.019100 0.019100 0.000000 0.000000 -0.019100 0.000000 0.000000 0.000000 0.000000 0.019100 0.019100 -0.019100 -0.019100 0.019100 0.019100 0.000000 0.019100 0.000000 0.000000 0.000000 -0.019100 0.000000 0.000000 0.000000 0.000000 -0.019100 0.000000 0.000000 0.019100 0.000000 0.019100 -0.019100 0.019100 0.000000 0.000000 0.019100 0.000000 0.000000 0.000000 0.019100 0.000000 -0.019100 0.000000 0.019100 0.000000 0.000000 0.000000 0.000000 -0.019100 -0.019100 0.000000 0.000000 0.000000 -0.019100 -0.019100 0.019100 -0.019100 0.019100 -0.019100 0.000000 -0.019100 -0.019100 0.000000 -0.019100 0.000000 0.000000 0.000000 0.000000 0.000000 0.000000 0.000000 0.000000 0.000000 0.000000 0.000000 0.000000 0.019100 0.019100 -0.019100 0.019100 0.000000 0.000000 0.000000 -0.019100 0.000000 0.019100 0.000000 -0.019100 -0.019100 0.000000 0.000000 -0.019100 0.000000 0.019100 -0.019100 0.019100 0.000000 0.000000 0.000000 0.000000 0.000000 0.000000 -0.019100 -0.019100 0.000000 0.000000 -0.019100 0.019100 0.019100 0.000000 0.000000 0.000000 0.000000 -0.019100 0.000000 0.000000 0.000000 -0.019100 0.000000 0.000000 0.019100 -0.019100 -0.019100 0.019100 -0.019100 0.000000 0.000000 -0.019100 0.000000 0.000000 0.019100 0.000000 0.000000 -0.019100 0.000000 0.019100 0.000000 0.000000 0.000000 0.000000 0.000000 0.000000 0.000000 0.000000 -0.019100 0.000000 0.019100 -0.019100 -0.019100 -0.019100 0.019100 0.000000 0.019100 -0.019100 0.019100 0.019100 0.019100 0.000000 0.019100 0.000000 0.000000 0.000000 0.000000 0.000000 0.000000 0.000000 0.000000 0.019100 -0.019100 -0.019100 0.000000 0.000000 0.019100 0.019100 -0.019100 0.019100 0.019100 0.000000 -0.019100 -0.019100 0.000000 0.000000 0.000000 -0.019100 0.000000 0.019100 0.019100 0.019100 0.000000 -0.019100 -0.019100 0.000000 0.000000 0.000000 0.019100 -0.019100 0.019100 0.000000 0.000000 0.000000 -0.019100 0.000000 0.019100 0.000000 0.000000 -0.019100 0.000000 -0.019100 0.000000 0.019100 0.000000 0.000000 0.019100 0.019100 0.000000 0.019100 0.000000 0.000000 0.000000 -0.019100 -0.019100 0.000000 0.000000 -0.019100 0.000000 0.019100 0.000000 0.000000 -0.019100 0.000000 -0.019100 0.000000 0.000000 0.000000 0.019100 0.000000 -0.019100 0.000000 0.019100 0.000000 0.019100 0.000000 0.000000 0.000000 0.000000 -0.019100 0.019100 0.019100 0.019100 -0.019100 0.000000 0.000000 0.000000 -0.019100 -0.019100 0.000000 0.000000 0.000000 0.000000 0.000000 0.000000 -0.019100 0.000000 0.000000 0.000000 0.000000 0.000000 -0.019100 0.000000 0.019100 0.019100 0.000000 0.000000 0.000000 -0.077100 -0.077100 0.077100 -0.077100 -0.077100 0.000000 0.077100 0.000000 -0.077100 0.000000 0.000000 0.077100 0.077100 -0.077100 0.000000 0.077100 0.077100 0.000000 0.000000 -0.077100 0.077100 0.000000 0.077100 0.000000 -0.077100 -0.077100 0.077100 -0.077100 -0.077100 0.000000 0.077100 -0.077100 0.000000 -0.077100 0.000000 0.077100 0.000000 0.000000 0.000000 -0.077100 0.000000 -0.077100 0.000000 0.000000 -0.077100 0.077100 0.000000 0.077100 0.000000 -0.077100 0.077100 0.000000 0.000000 0.000000 0.000000 0.000000 0.000000 -0.077100 0.000000 -0.077100 0.000000 0.077100 0.077100 -0.077100 0.000000 0.077100 0.077100 0.077100 0.077100 0.000000 -0.077100 -0.077100 0.000000 0.077100 0.000000 0.077100 0.000000 -0.077100 0.077100 0.000000 -0.077100 0.000000 -0.077100 0.000000 -0.077100 0.000000 0.000000 0.000000 -0.077100 -0.077100 0.077100 0.077100 0.000000 0.000000 0.000000 0.000000 0.000000 0.000000 0.000000 -0.077100 0.000000 -0.077100 0.000000 0.000000 0.077100 0.000000 0.000000 0.077100 0.077100 0.000000 0.000000 0.000000 0.000000 0.000000 -0.077100 -0.077100 0.000000 -0.077100 -0.077100 0.000000 -0.077100 0.000000 0.077100 0.077100 -0.077100 -0.077100 -0.077100 0.077100 0.000000 0.000000 -0.077100 0.000000 0.000000 0.000000 0.000000 -0.077100 -0.077100 0.000000 0.000000 0.077100 0.000000 0.000000 0.077100 0.077100 0.077100 -0.077100 -0.077100 -0.077100 -0.077100 0.000000 0.000000 0.000000 0.077100 0.077100 0.000000 0.000000 0.000000 0.000000 -0.077100 0.000000 0.000000 0.000000 0.000000 0.000000 0.000000 0.000000 0.000000 0.000000 0.077100 0.000000 0.000000 0.000000 0.000000 0.000000 -0.077100 0.000000 0.000000 0.077100 0.000000 0.000000 0.000000 0.000000 0.000000 0.000000 -0.077100 0.077100 -0.077100 -0.077100 -0.077100 0.000000 0.000000 0.000000 0.077100 0.000000 0.000000 0.077100 0.000000 0.000000 0.000000 0.077100 0.077100 0.077100 0.000000 0.000000 0.000000 0.000000 0.000000 0.000000 0.000000 -0.077100 0.000000 0.000000 0.077100 0.000000 0.000000 0.000000 0.000000 0.077100 0.000000 0.000000 0.000000 0.077100 0.077100 0.000000 0.077100 -0.077100 -0.077100 -0.077100 0.000000 -0.077100 -0.077100 -0.077100 0.000000 -0.077100 0.000000 0.000000 0.000000 -0.077100 0.077100 0.000000 0.000000 0.000000 0.077100 0.077100 0.000000 0.077100 0.000000 0.000000 0.000000 -0.077100 -0.077100 0.077100 -0.077100 0.077100 0.000000 0.000000 0.000000 0.000000 0.000000 -0.077100 0.000000 0.077100 0.000000 -0.077100 0.000000 0.000000 0.000000 0.000000 -0.077100 0.000000 0.077100 0.077100 0.000000 -0.077100 -0.077100 0.000000 -0.077100 0.000000 0.000000 0.000000 0.000000 0.077100 0.077100 0.077100 -0.077100 0.077100 0.000000 0.000000 0.077100 0.077100 -0.077100 0.000000 0.000000 0.077100 -0.077100 0.077100 0.077100 0.077100 0.077100 0.000000 0.000000 0.077100 0.000000 0.000000 0.000000 0.077100 0.000000 0.077100 0.000000 0.077100 0.000000 0.000000 0.000000 0.000000 -0.077100 0.000000 0.000000 0.000000 -0.077100 0.000000 -0.077100 0.000000 0.077100 0.000000 0.000000 0.000000 0.000000 -0.077100 0.000000 0.000000 0.000000 0.000000 0.000000 0.000000 0.077100 -0.077100 -0.077100 0.000000 0.000000 0.000000 -0.077100 0.000000 0.000000 -0.077100 -0.077100 0.000000 0.000000 0.077100 0.077100 0.000000 0.000000 0.077100 0.000000 -0.077100 -0.077100 0.077100 0.077100 -0.077100 0.000000 -0.077100 0.077100 -0.077100 0.000000 0.077100 -0.077100 0.077100 0.077100 -0.077100 0.077100 0.077100 -0.077100 0.000000 0.000000 -0.077100 0.000000 -0.077100 -0.077100 0.000000 0.000000 0.077100 0.077100 -0.077100 0.000000 -0.077100 0.000000 0.000000 -0.077100 -0.077100 0.077100 0.077100 0.000000 0.077100 0.077100 0.077100 0.000000 0.000000 0.000000 0.000000 -0.077100 -0.077100 0.000000 0.000000 0.037000 -0.037000 0.000000 0.037000 0.000000 0.000000 -0.037000 0.000000 0.000000 -0.037000 0.037000 0.000000 0.000000 0.000000 0.037000 0.037000 -0.037000 0.037000 0.000000 0.037000 -0.037000 -0.037000 0.037000 0.000000 0.037000 0.000000 0.000000 0.000000 -0.037000 0.000000 0.000000 0.037000 -0.037000 0.000000 -0.037000 0.000000 0.000000 -0.037000 0.000000 0.000000 0.000000 0.000000 0.037000 0.037000 0.000000 0.000000 0.037000 0.000000 0.037000 0.000000 -0.037000 0.037000 -0.037000 0.037000 0.000000 0.037000 0.037000 0.000000 0.037000 0.000000 0.000000 0.037000 -0.037000 0.000000 0.000000 -0.037000 0.000000 0.000000 0.037000 0.000000 -0.037000 0.000000 0.000000 0.000000 0.037000 0.000000 0.037000 -0.037000 0.000000 -0.037000 0.000000 0.037000 0.000000 0.000000 0.000000 0.000000 0.000000 0.000000 0.000000 0.037000 -0.037000 0.037000 0.000000 0.037000 0.037000 0.000000 0.000000 0.037000 -0.037000 0.000000 -0.037000 -0.037000 0.000000 0.000000 0.000000 0.000000 0.000000 0.000000 0.037000 -0.037000 0.037000 -0.037000 0.000000 0.000000 0.037000 0.000000 0.000000 -0.037000 0.000000 0.000000 -0.037000 0.000000 0.000000 0.037000 0.037000 0.037000 0.037000 0.000000 0.000000 -0.037000 -0.037000 0.037000 0.000000 -0.037000 -0.037000 0.037000 0.037000 0.000000 -0.037000 -0.037000 0.037000 0.037000 0.000000 0.037000 -0.037000 -0.037000 0.000000 0.000000 0.037000 0.000000 0.037000 0.000000 0.037000 0.037000 -0.037000 0.037000 0.000000 0.037000 0.000000 -0.037000 0.000000 -0.037000 -0.037000 0.000000 -0.037000 -0.037000 -0.037000 0.037000 0.000000 0.000000 0.000000 0.000000 0.037000 0.037000 0.000000 0.037000 0.000000 0.000000 0.000000 -0.037000 0.037000 0.000000 0.000000 0.000000 0.000000 0.037000 0.037000 0.000000 0.037000 0.000000 0.037000 0.000000 0.000000 0.000000 0.037000 -0.037000 0.000000 -0.037000 0.037000 0.000000 0.000000 0.000000 0.037000 0.000000 0.000000 0.000000 0.000000 0.000000 0.000000 -0.037000 0.000000 0.000000 0.037000 -0.037000 0.037000 0.000000 0.000000 0.037000 0.000000 0.037000 0.000000 0.037000 0.037000 0.000000 0.000000 0.000000 0.037000 0.000000 0.037000 -0.037000 0.000000 0.037000 0.000000 0.037000 -0.037000 0.000000 -0.037000 0.000000 0.000000 0.000000 0.000000 0.037000 0.000000 0.000000 0.000000 0.000000 0.000000 -0.037000 -0.037000 0.000000 0.037000 -0.037000 0.037000 0.037000 0.000000 0.037000 0.000000 0.000000 0.000000 0.037000 0.000000 0.000000 0.000000 0.000000 0.000000 0.000000 -0.037000 0.037000 0.037000 0.000000 -0.037000 0.000000 -0.037000 0.000000 0.000000 0.000000 -0.037000 0.037000 0.000000 0.000000 0.000000 0.037000 0.037000 0.000000 -0.037000 0.000000 -0.037000 0.037000 0.037000 -0.037000 0.000000 0.037000 -0.037000 0.000000 0.000000 0.000000 -0.037000 0.000000 -0.037000 0.000000 0.000000 -0.037000 0.000000 0.000000 0.000000 -0.037000 -0.037000 0.037000 0.000000 0.000000 0.000000 0.000000 -0.037000 0.000000 0.000000 0.037000 0.000000 0.000000 0.000000 0.000000 0.000000 0.000000 0.000000 -0.037000 0.000000 0.000000 0.000000 0.000000 -0.037000 0.000000 0.000000 -0.037000 0.000000 0.037000 -0.037000 0.000000 0.000000 -0.037000 0.000000 0.000000 -0.037000 0.000000 -0.037000 0.037000 0.000000 0.000000 0.000000 0.000000 0.000000 0.000000 -0.037000 0.000000 0.037000 -0.037000 -0.037000 0.000000 0.000000 0.037000 0.000000 0.000000 0.000000 -0.037000 0.037000 0.037000 0.000000 -0.037000 0.000000 0.000000 -0.037000 0.037000 -0.037000 0.000000 -0.037000 -0.037000 0.037000 0.000000 0.000000 0.037000 0.037000 0.000000 -0.037000 0.000000 0.000000 0.000000 0.000000 0.037000 0.000000 0.037000 -0.037000 -0.037000 0.000000 -0.037000 0.037000 0.000000 0.000000 -0.037000 0.000000 -0.037000 -0.072400 0.000000 0.072400 -0.072400 -0.072400 -0.072400 0.000000 0.000000 0.072400 0.000000 0.000000 0.072400 0.000000 0.000000 0.072400 0.072400 0.000000 0.072400 0.000000 0.000000 0.000000 -0.072400 -0.072400 0.000000 0.000000 -0.072400 -0.072400 0.072400 0.072400 0.000000 0.000000 -0.072400 -0.072400 0.000000 0.000000 0.000000 0.072400 -0.072400 0.072400 0.000000 0.000000 0.000000 -0.072400 0.072400 -0.072400 0.072400 0.000000 0.072400 0.072400 0.000000 0.000000 0.072400 0.072400 0.072400 0.000000 0.072400 0.000000 0.000000 -0.072400 0.000000 -0.072400 -0.072400 -0.072400 0.072400 -0.072400 -0.072400 0.000000 0.072400 0.000000 0.000000 0.072400 0.000000 0.072400 0.000000 0.072400 0.000000 -0.072400 0.000000 0.000000 -0.072400 0.072400 0.072400 0.072400 0.000000 -0.072400 0.000000 0.072400 0.000000 0.000000 -0.072400 0.072400 -0.072400 0.072400 0.000000 -0.072400 0.072400 0.000000 0.000000 -0.072400 -0.072400 0.000000 0.000000 0.000000 0.072400 0.072400 0.072400 0.000000 0.072400 0.000000 -0.072400 0.000000 0.000000 0.000000 0.072400 0.072400 -0.072400 0.000000 0.000000 0.000000 0.072400 0.072400 0.072400 -0.072400 0.072400 0.000000 -0.072400 -0.072400 -0.072400 -0.072400 -0.072400 0.000000 0.072400 0.072400 -0.072400 0.000000 0.072400 0.000000 0.000000 0.072400 -0.072400 0.000000 0.000000 0.000000 0.000000 0.000000 0.072400 0.000000 0.072400 0.000000 0.072400 -0.072400 -0.072400 0.000000 0.072400 0.000000 0.000000 0.072400 0.000000 0.000000 -0.072400 -0.072400 0.072400 0.000000 0.000000 -0.072400 0.072400 0.072400 0.000000 0.000000 0.072400 0.072400 0.072400 0.000000 0.000000 0.000000 -0.072400 0.000000 0.072400 0.000000 0.072400 0.000000 0.072400 0.072400 0.072400 0.000000 0.000000 0.000000 0.000000 0.072400 -0.072400 -0.072400 0.000000 0.000000 -0.072400 -0.072400 0.000000 0.000000 0.000000 0.072400 0.072400 0.000000 0.000000 0.000000 0.000000 0.000000 -0.072400 0.000000 0.000000 -0.072400 0.000000 -0.072400 -0.072400 -0.072400 0.000000 -0.072400 0.000000 0.000000 -0.072400 0.000000 -0.072400 0.000000 0.072400 -0.072400 0.000000 0.000000 0.000000 0.072400 0.000000 0.000000 0.000000 0.000000 -0.072400 0.072400 0.072400 -0.072400 0.072400 0.000000 0.000000 0.000000 0.000000 0.000000 -0.072400 0.000000 0.000000 0.000000 0.000000 0.072400 0.000000 -0.072400 0.000000 -0.072400 0.072400 0.000000 0.072400 -0.072400 0.000000 0.072400 0.000000 0.000000 0.000000 -0.072400 -0.072400 0.000000 0.000000 0.000000 0.000000 0.072400 0.072400 0.072400 -0.072400 0.000000 0.000000 -0.072400 -0.072400 0.072400 0.000000 0.000000 0.000000 0.072400 -0.072400 -0.072400 0.000000 0.000000 0.000000 -0.072400 0.000000 0.000000 0.072400 0.000000 -0.072400 0.000000 0.000000 0.072400 0.072400 -0.072400 0.000000 0.072400 0.000000 0.000000 0.000000 0.000000 0.000000 -0.072400 0.000000 -0.072400 0.000000 0.072400 0.000000 0.000000 0.072400 -0.072400 -0.072400 0.000000 0.072400 0.072400 0.000000 0.072400 0.000000 0.000000 0.000000 -0.072400 0.072400 -0.072400 -0.072400 -0.072400 0.000000 -0.072400 -0.072400 0.000000 -0.072400 0.072400 0.000000 0.072400 0.000000 0.072400 0.000000 0.000000 0.000000 -0.072400 0.072400 -0.072400 -0.072400 -0.072400 0.000000 0.000000 -0.072400 0.072400 0.000000 0.000000 -0.072400 0.000000 0.000000 0.000000 -0.072400 0.000000 0.072400 0.072400 -0.072400 0.072400 0.000000 -0.072400 -0.072400 0.000000 0.000000 -0.072400 0.072400 0.000000 0.000000 0.000000 -0.072400 0.000000 0.000000 0.000000 0.000000 0.000000 -0.072400 0.072400 0.000000 0.000000 -0.072400 0.072400 0.072400 0.072400 0.000000 0.072400 0.072400 0.000000 0.000000 -0.072400 0.000000 0.000000 -0.072400 -0.072400 0.072400 0.000000 0.072400 0.000000 0.000000 0.000000 0.000000 -0.073100 0.000000 0.073100 0.000000 0.000000 0.000000 0.000000 0.073100 0.000000 0.000000 -0.073100 0.000000 -0.073100 0.073100 -0.073100 -0.073100 0.073100 0.073100 0.000000 -0.073100 0.073100 -0.073100 0.000000 0.000000 -0.073100 0.073100 -0.073100 -0.073100 -0.073100 -0.073100 -0.073100 -0.073100 0.000000 0.000000 -0.073100 0.073100 0.000000 0.000000 0.000000 0.000000 -0.073100 0.073100 -0.073100 0.000000 -0.073100 0.073100 0.000000 0.000000 0.000000 0.000000 0.073100 0.073100 0.000000 0.000000 0.000000 0.000000 -0.073100 0.000000 -0.073100 0.000000 0.000000 0.000000 0.000000 -0.073100 0.000000 -0.073100 -0.073100 0.073100 0.073100 0.000000 0.073100 0.000000 0.000000 0.000000 0.000000 0.000000 0.000000 -0.073100 -0.073100 0.000000 0.000000 0.073100 0.000000 0.073100 -0.073100 -0.073100 0.000000 -0.073100 0.073100 0.073100 0.000000 0.073100 0.000000 0.000000 -0.073100 -0.073100 0.073100 0.073100 0.000000 -0.073100 0.073100 0.000000 0.000000 0.000000 0.000000 0.073100 0.073100 0.000000 -0.073100 0.000000 0.000000 0.000000 -0.073100 -0.073100 0.000000 -0.073100 0.000000 -0.073100 0.000000 -0.073100 0.000000 0.000000 0.000000 0.073100 0.000000 -0.073100 0.000000 0.000000 -0.073100 0.000000 0.000000 0.000000 0.000000 0.000000 0.000000 0.073100 0.000000 0.000000 -0.073100 0.073100 0.000000 0.000000 0.000000 0.000000 0.073100 0.073100 0.000000 0.073100 0.000000 -0.073100 0.000000 -0.073100 -0.073100 0.000000 0.000000 0.000000 0.000000 0.000000 0.000000 0.000000 -0.073100 0.000000 -0.073100 0.000000 0.000000 -0.073100 -0.073100 0.000000 -0.073100 -0.073100 0.000000 0.000000 0.073100 0.000000 0.000000 0.000000 0.000000 0.000000 0.073100 0.000000 -0.073100 0.000000 0.000000 0.000000 0.073100 0.000000 0.000000 0.000000 0.000000 0.073100 0.073100 0.000000 0.000000 0.000000 0.000000 0.073100 0.000000 0.000000 0.000000 0.000000 0.000000 0.000000 0.000000 0.000000 0.073100 -0.073100 0.073100 0.073100 0.073100 0.000000 0.000000 0.000000 -0.073100 0.000000 0.000000 0.000000 0.000000 0.000000 0.000000 0.000000 0.000000 0.000000 -0.073100 0.000000 0.000000 -0.073100 0.073100 0.000000 0.000000 -0.073100 0.073100 0.073100 0.073100 0.000000 0.000000 -0.073100 -0.073100 0.073100 0.000000 0.000000 0.073100 -0.073100 0.073100 0.000000 0.000000 -0.073100 0.073100 0.000000 0.000000 0.073100 -0.073100 0.000000 0.000000 0.000000 -0.073100 0.000000 0.000000 0.000000 0.000000 0.000000 0.000000 0.073100 0.000000 0.000000 0.000000 0.000000 -0.073100 0.000000 0.000000 0.000000 0.073100 0.073100 0.000000 0.000000 0.000000 -0.073100 0.000000 -0.073100 0.000000 0.073100 0.073100 0.073100 -0.073100 -0.073100 0.000000 -0.073100 0.073100 0.000000 0.000000 0.000000 -0.073100 0.073100 0.073100 0.000000 0.073100 -0.073100 -0.073100 0.000000 0.000000 -0.073100 0.000000 0.000000 0.000000 0.000000 0.000000 0.000000 0.000000 0.073100 0.000000 0.000000 0.000000 0.073100 0.000000 0.000000 -0.073100 0.000000 0.000000 0.000000 -0.073100 -0.073100 0.000000 -0.073100 0.000000 0.000000 0.000000 0.000000 0.073100 0.073100 0.073100 0.000000 0.000000 0.000000 0.000000 0.073100 0.000000 0.073100 0.000000 0.000000 -0.073100 0.073100 0.000000 -0.073100 0.000000 0.000000 0.000000 0.000000 -0.073100 0.000000 0.000000 0.000000 0.000000 -0.073100 0.073100 0.000000 0.073100 0.000000 0.000000 -0.073100 0.000000 0.000000 0.073100 0.000000 0.000000 0.000000 0.000000 0.000000 -0.073100 0.000000 0.000000 -0.073100 0.000000 0.000000 0.000000 0.073100 0.000000 0.073100 0.000000 0.000000 0.000000 0.000000 0.000000 0.073100 -0.073100 0.000000 0.000000 0.073100 0.073100 0.000000 0.000000 0.000000 0.073100 0.073100 0.000000 0.073100 0.000000 0.000000 0.073100 0.073100 0.000000 0.073100 -0.087300 0.000000 0.000000 -0.087300 0.000000 0.000000 -0.087300 0.000000 0.000000 0.000000 0.087300 -0.087300 0.000000 -0.087300 0.000000 0.000000 0.087300 0.000000 -0.087300 0.000000 0.087300 0.000000 -0.087300 0.000000 0.087300 0.087300 0.000000 -0.087300 0.087300 -0.087300 -0.087300 0.000000 0.000000 0.000000 0.000000 0.087300 -0.087300 0.000000 0.000000 -0.087300 0.000000 0.000000 0.000000 0.000000 0.000000 0.087300 0.000000 -0.087300 -0.087300 0.000000 -0.087300 -0.087300 0.000000 0.000000 0.000000 0.087300 -0.087300 0.000000 0.000000 0.000000 0.000000 0.000000 0.087300 -0.087300 0.000000 0.000000 0.000000 0.000000 0.000000 0.000000 0.000000 0.087300 0.000000 0.000000 0.000000 0.000000 0.000000 -0.087300 -0.087300 0.087300 -0.087300 0.000000 0.000000 0.000000 -0.087300 0.000000 0.000000 0.000000 -0.087300 0.000000 0.000000 -0.087300 0.000000 0.000000 -0.087300 0.000000 0.000000 -0.087300 -0.087300 0.000000 -0.087300 0.000000 0.000000 0.000000 0.000000 0.000000 0.087300 0.087300 0.000000 0.000000 0.000000 0.087300 0.000000 0.087300 0.087300 0.087300 -0.087300 0.000000 -0.087300 0.000000 -0.087300 0.000000 0.000000 0.087300 0.087300 0.000000 0.087300 0.087300 0.000000 -0.087300 0.087300 0.087300 0.000000 0.000000 -0.087300 0.000000 0.000000 0.087300 0.087300 -0.087300 0.087300 0.000000 0.000000 -0.087300 0.087300 0.000000 0.087300 0.000000 0.000000 -0.087300 0.000000 0.000000 0.000000 0.000000 0.000000 0.000000 0.087300 -0.087300 0.000000 -0.087300 0.087300 0.087300 0.000000 0.087300 0.000000 0.000000 -0.087300 0.000000 0.000000 0.000000 0.000000 0.000000 0.000000 0.087300 -0.087300 0.000000 -0.087300 0.087300 -0.087300 0.000000 0.000000 0.000000 -0.087300 -0.087300 0.000000 0.000000 0.087300 0.087300 -0.087300 0.000000 0.000000 -0.087300 -0.087300 0.087300 0.087300 0.000000 0.087300 0.087300 -0.087300 0.000000 0.000000 0.000000 0.000000 0.000000 0.087300 0.000000 0.087300 0.000000 0.000000 0.000000 0.087300 0.087300 0.087300 0.000000 0.000000 0.000000 -0.087300 -0.087300 0.000000 0.000000 -0.087300 0.000000 0.087300 0.000000 0.000000 0.000000 -0.087300 0.000000 -0.087300 -0.087300 0.000000 -0.087300 0.087300 -0.087300 0.000000 0.000000 0.087300 0.087300 -0.087300 0.000000 0.000000 -0.087300 0.000000 0.000000 0.000000 0.087300 0.000000 0.000000 0.087300 -0.087300 -0.087300 0.000000 0.000000 0.000000 0.000000 0.000000 0.087300 0.000000 -0.087300 0.000000 0.000000 -0.087300 0.000000 0.000000 -0.087300 0.000000 0.087300 0.000000 0.000000 0.000000 0.000000 0.087300 0.087300 -0.087300 0.000000 0.000000 -0.087300 0.000000 0.000000 0.087300 0.000000 -0.087300 -0.087300 0.087300 0.000000 0.000000 0.087300 0.000000 -0.087300 0.087300 0.000000 0.000000 0.000000 0.000000 0.000000 0.000000 -0.087300 0.000000 0.000000 0.000000 0.087300 -0.087300 0.087300 0.087300 0.087300 0.000000 0.000000 0.087300 -0.087300 -0.087300 -0.087300 0.087300 -0.087300 0.000000 0.087300 0.087300 -0.087300 0.000000 0.087300 0.000000 0.000000 -0.087300 0.087300 0.000000 0.000000 -0.087300 0.000000 0.000000 0.087300 0.000000 0.000000 0.000000 -0.087300 0.087300 0.087300 0.087300 0.000000 -0.087300 0.000000 0.000000 0.087300 0.000000 0.087300 -0.087300 0.087300 0.000000 0.000000 0.087300 -0.087300 -0.087300 0.000000 0.087300 0.000000 -0.087300 0.087300 0.000000 0.000000 0.000000 -0.087300 0.087300 0.000000 0.000000 0.087300 -0.087300 0.087300 0.000000 0.000000 0.087300 0.087300 0.000000 0.000000 0.087300 -0.087300 0.087300 0.000000 -0.087300 -0.087300 -0.087300 -0.087300 0.087300 0.000000 -0.087300 0.087300 -0.087300 -0.087300 -0.087300 0.000000 0.000000 -0.087300 0.000000 0.000000 0.000000 0.000000 0.087300 0.000000 -0.087300 0.087300 -0.087300 0.087300 -0.087300 -0.066500 0.000000 0.000000 0.000000 0.000000 0.000000 -0.066500 -0.066500 0.000000 0.000000 -0.066500 -0.066500 0.000000 -0.066500 -0.066500 0.066500 0.000000 0.000000 0.000000 0.000000 0.000000 0.066500 0.066500 -0.066500 0.000000 0.066500 0.066500 0.000000 0.000000 -0.066500 -0.066500 0.000000 0.000000 -0.066500 -0.066500 0.066500 0.000000 -0.066500 -0.066500 -0.066500 0.066500 0.000000 0.000000 0.000000 0.000000 0.000000 0.000000 0.066500 -0.066500 -0.066500 0.000000 0.000000 -0.066500 0.000000 0.000000 0.000000 0.066500 0.000000 -0.066500 0.066500 0.000000 -0.066500 0.000000 0.000000 -0.066500 0.066500 -0.066500 0.000000 0.066500 0.000000 0.000000 -0.066500 -0.066500 -0.066500 0.000000 0.066500 -0.066500 -0.066500 0.000000 0.066500 0.000000 0.066500 0.000000 0.000000 0.066500 0.000000 0.066500 0.066500 -0.066500 0.000000 0.000000 0.000000 0.000000 0.000000 -0.066500 0.066500 0.000000 -0.066500 0.000000 0.066500 -0.066500 0.066500 0.000000 -0.066500 0.000000 0.000000 0.000000 0.000000 0.066500 0.000000 -0.066500 0.000000 0.000000 0.000000 0.000000 0.000000 -0.066500 0.000000 0.000000 0.000000 0.066500 0.066500 0.000000 0.066500 0.000000 0.000000 0.000000 0.000000 0.000000 0.066500 0.000000 0.000000 0.000000 0.066500 0.000000 -0.066500 0.066500 0.000000 0.000000 0.066500 0.000000 0.000000 0.000000 0.066500 0.000000 0.000000 -0.066500 0.000000 0.000000 0.066500 0.000000 0.000000 0.000000 -0.066500 0.000000 -0.066500 0.000000 -0.066500 0.000000 0.000000 0.000000 0.066500 0.000000 -0.066500 0.000000 -0.066500 0.000000 0.000000 0.000000 0.066500 0.000000 0.000000 0.066500 0.000000 0.066500 0.000000 -0.066500 0.000000 -0.066500 0.066500 0.066500 0.066500 0.000000 -0.066500 -0.066500 0.066500 0.000000 0.000000 0.066500 0.000000 0.000000 0.000000 0.000000 0.000000 0.066500 0.000000 0.066500 -0.066500 0.066500 0.000000 0.000000 0.000000 0.000000 0.000000 0.000000 0.000000 0.000000 0.000000 0.000000 -0.066500 -0.066500 0.000000 0.066500 0.066500 0.000000 0.000000 0.000000 -0.066500 0.000000 0.000000 0.066500 0.066500 0.000000 0.000000 -0.066500 0.000000 0.000000 -0.066500 0.066500 0.000000 -0.066500 0.000000 0.000000 0.000000 0.000000 -0.066500 0.066500 0.066500 0.000000 0.000000 0.000000 0.000000 0.000000 0.000000 0.000000 -0.066500 -0.066500 -0.066500 0.066500 0.000000 0.066500 0.000000 0.066500 -0.066500 0.000000 0.000000 0.000000 0.066500 -0.066500 0.066500 0.066500 0.000000 0.066500 0.066500 0.000000 0.000000 0.000000 0.000000 0.000000 0.000000 0.000000 -0.066500 -0.066500 -0.066500 0.066500 0.000000 0.000000 -0.066500 0.000000 0.066500 -0.066500 0.000000 0.000000 0.066500 0.000000 0.000000 0.000000 0.000000 0.000000 -0.066500 0.000000 0.066500 0.066500 0.066500 0.066500 0.000000 0.000000 0.000000 0.000000 0.000000 0.000000 0.066500 0.000000 -0.066500 0.000000 0.000000 -0.066500 0.000000 0.066500 0.000000 0.066500 0.066500 -0.066500 0.066500 0.066500 0.066500 0.000000 -0.066500 0.066500 0.000000 -0.066500 0.000000 -0.066500 0.000000 0.000000 -0.066500 0.066500 0.000000 0.000000 -0.066500 0.066500 -0.066500 0.000000 -0.066500 -0.066500 0.066500 0.000000 -0.066500 0.066500 0.000000 0.000000 0.000000 0.000000 0.000000 0.000000 0.000000 0.066500 0.000000 0.000000 0.000000 0.000000 0.000000 0.066500 0.066500 0.066500 0.000000 0.000000 0.000000 0.066500 0.000000 -0.066500 0.000000 0.000000 -0.066500 0.000000 0.066500 0.066500 -0.066500 0.000000 0.066500 0.000000 -0.066500 -0.066500 0.066500 0.000000 0.000000 -0.066500 0.000000 0.000000 0.066500 -0.066500 0.000000 0.000000 0.000000 0.000000 -0.066500 0.000000 0.066500 0.000000 -0.066500 0.066500 0.066500 0.000000 0.000000 0.066500 0.066500 0.000000 -0.066500 -0.066500 0.000000 0.000000 0.027600 -0.027600 0.000000 0.000000 0.000000 0.000000 -0.027600 -0.027600 0.000000 0.027600 0.000000 0.000000 -0.027600 0.000000 -0.027600 -0.027600 0.000000 0.000000 0.000000 -0.027600 0.027600 0.027600 0.000000 0.000000 0.027600 -0.027600 -0.027600 0.000000 -0.027600 0.000000 0.000000 0.000000 0.027600 0.000000 0.000000 0.000000 0.000000 -0.027600 0.027600 0.000000 0.000000 -0.027600 -0.027600 0.000000 0.000000 0.000000 -0.027600 0.000000 0.000000 0.000000 0.000000 0.000000 -0.027600 0.000000 -0.027600 0.000000 0.027600 -0.027600 0.000000 0.000000 0.000000 0.000000 0.000000 0.000000 0.027600 0.000000 -0.027600 0.000000 0.000000 -0.027600 -0.027600 0.000000 -0.027600 0.000000 0.000000 0.000000 0.000000 -0.027600 0.027600 0.000000 0.027600 0.000000 0.027600 0.000000 0.000000 -0.027600 0.000000 0.027600 0.000000 0.000000 -0.027600 0.000000 -0.027600 0.027600 0.027600 0.000000 0.000000 0.027600 0.000000 -0.027600 0.000000 -0.027600 -0.027600 0.000000 0.027600 0.000000 -0.027600 -0.027600 0.000000 0.000000 0.000000 0.000000 0.000000 0.000000 0.000000 0.000000 -0.027600 0.000000 0.000000 -0.027600 0.000000 0.000000 0.000000 -0.027600 0.000000 0.000000 -0.027600 0.000000 -0.027600 -0.027600 0.000000 0.027600 0.000000 0.027600 0.000000 -0.027600 -0.027600 0.000000 -0.027600 0.027600 0.000000 0.000000 0.027600 0.000000 0.000000 0.000000 -0.027600 0.027600 0.000000 -0.027600 0.000000 0.000000 0.000000 -0.027600 0.000000 -0.027600 -0.027600 -0.027600 0.000000 0.000000 -0.027600 -0.027600 0.000000 0.027600 0.000000 0.000000 0.000000 0.000000 -0.027600 0.000000 0.027600 -0.027600 0.000000 0.000000 0.027600 0.000000 0.027600 0.000000 -0.027600 0.000000 0.000000 -0.027600 0.000000 0.027600 -0.027600 -0.027600 -0.027600 0.000000 0.000000 0.000000 -0.027600 0.000000 -0.027600 0.000000 0.000000 -0.027600 0.000000 0.000000 0.000000 -0.027600 0.027600 -0.027600 0.000000 0.027600 0.000000 0.000000 -0.027600 0.027600 0.027600 -0.027600 -0.027600 0.027600 -0.027600 0.000000 0.000000 0.000000 0.000000 -0.027600 0.000000 -0.027600 0.000000 -0.027600 0.000000 -0.027600 0.000000 0.000000 0.000000 0.000000 0.000000 0.000000 0.000000 0.000000 0.000000 0.000000 0.000000 0.000000 0.000000 -0.027600 -0.027600 -0.027600 0.027600 0.027600 -0.027600 0.027600 -0.027600 0.000000 0.000000 0.000000 0.000000 0.000000 0.000000 0.000000 0.027600 0.027600 0.000000 -0.027600 0.000000 -0.027600 0.000000 0.000000 0.000000 -0.027600 0.000000 -0.027600 0.000000 0.000000 -0.027600 -0.027600 -0.027600 0.000000 0.000000 0.000000 0.000000 -0.027600 0.027600 -0.027600 0.000000 0.000000 0.000000 0.000000 -0.027600 0.000000 0.000000 -0.027600 0.000000 -0.027600 0.000000 0.000000 -0.027600 0.000000 0.027600 -0.027600 -0.027600 0.000000 0.027600 0.000000 -0.027600 0.000000 0.000000 0.027600 0.000000 -0.027600 0.027600 -0.027600 -0.027600 0.000000 0.000000 0.027600 -0.027600 0.000000 -0.027600 0.000000 -0.027600 0.000000 -0.027600 0.000000 0.000000 0.000000 0.000000 0.000000 -0.027600 -0.027600 0.000000 0.027600 -0.027600 0.000000 0.027600 -0.027600 0.000000 0.027600 0.000000 0.000000 -0.027600 0.000000 -0.027600 0.000000 0.000000 -0.027600 0.000000 0.000000 -0.027600 0.000000 -0.027600 0.000000 0.000000 -0.027600 -0.027600 -0.027600 0.027600 0.000000 -0.027600 0.000000 0.027600 0.000000 0.000000 0.000000 0.027600 0.000000 0.000000 0.000000 0.000000 0.000000 0.027600 0.000000 -0.027600 0.000000 -0.027600 0.000000 0.000000 0.027600 0.000000 -0.027600 0.000000 0.000000 0.027600 0.000000 -0.027600 0.000000 0.000000 0.000000 -0.027600 0.000000 0.000000 0.000000 0.000000 0.000000 0.000000 0.000000 -0.027600 0.000000 0.000000 0.000000 0.027600 0.000000 0.000000 0.000000 0.000000 -0.027600 -0.027600 0.000000 0.006100 0.006100 -0.006100 -0.006100 0.000000 -0.006100 0.006100 0.000000 0.000000 0.006100 0.000000 -0.006100 0.006100 0.000000 0.000000 0.006100 -0.006100 -0.006100 0.000000 -0.006100 0.000000 0.006100 0.006100 0.006100 0.006100 0.006100 0.000000 0.006100 0.000000 -0.006100 0.000000 0.006100 0.006100 0.000000 0.000000 0.006100 0.006100 0.000000 0.000000 0.000000 0.000000 0.006100 0.006100 0.000000 0.000000 -0.006100 0.000000 0.000000 -0.006100 -0.006100 0.000000 0.000000 0.006100 -0.006100 0.006100 0.006100 0.000000 0.000000 0.000000 0.000000 0.000000 0.006100 0.000000 0.000000 -0.006100 -0.006100 0.000000 0.000000 0.000000 0.000000 0.006100 0.000000 -0.006100 0.000000 0.000000 -0.006100 -0.006100 0.000000 0.000000 0.006100 0.000000 -0.006100 0.000000 0.000000 0.000000 0.006100 0.000000 0.006100 -0.006100 -0.006100 -0.006100 0.006100 -0.006100 -0.006100 -0.006100 0.000000 -0.006100 -0.006100 0.000000 -0.006100 0.000000 0.000000 -0.006100 -0.006100 0.006100 0.006100 0.000000 0.006100 0.000000 0.000000 0.000000 0.000000 0.000000 0.006100 0.000000 0.000000 -0.006100 0.006100 0.006100 -0.006100 0.000000 0.000000 0.000000 0.000000 0.000000 0.000000 -0.006100 0.000000 0.000000 0.000000 0.000000 0.000000 -0.006100 -0.006100 0.006100 0.000000 0.006100 0.000000 0.006100 0.000000 -0.006100 0.000000 0.000000 0.000000 0.006100 0.000000 -0.006100 0.000000 0.000000 -0.006100 0.006100 0.000000 0.006100 -0.006100 0.006100 0.000000 0.006100 0.000000 0.000000 0.006100 0.006100 0.000000 0.006100 -0.006100 0.000000 -0.006100 0.006100 0.000000 0.000000 -0.006100 0.006100 0.006100 0.006100 0.000000 0.000000 0.006100 -0.006100 0.000000 0.000000 -0.006100 -0.006100 0.000000 0.006100 0.000000 0.000000 -0.006100 0.000000 0.000000 0.000000 0.006100 -0.006100 0.000000 0.000000 0.000000 0.006100 -0.006100 0.006100 0.000000 0.000000 -0.006100 0.000000 -0.006100 0.000000 0.000000 -0.006100 -0.006100 0.000000 0.000000 0.000000 0.000000 -0.006100 0.006100 0.000000 0.006100 -0.006100 0.000000 0.006100 0.000000 0.006100 0.000000 0.000000 0.000000 0.000000 0.006100 0.006100 0.000000 0.000000 0.000000 0.000000 0.006100 0.000000 0.006100 0.006100 0.000000 0.000000 0.006100 0.000000 0.000000 0.006100 0.006100 0.000000 0.000000 0.006100 0.000000 0.000000 -0.006100 0.000000 0.000000 0.006100 -0.006100 0.000000 0.006100 0.000000 0.006100 0.000000 0.000000 0.000000 -0.006100 -0.006100 -0.006100 0.006100 0.000000 -0.006100 0.006100 0.000000 -0.006100 0.000000 -0.006100 -0.006100 -0.006100 0.000000 0.006100 0.000000 -0.006100 -0.006100 0.000000 0.000000 0.000000 -0.006100 0.006100 0.000000 0.006100 0.006100 0.006100 0.000000 0.006100 0.000000 -0.006100 0.000000 0.000000 -0.006100 0.006100 0.000000 -0.006100 0.000000 -0.006100 0.006100 0.000000 -0.006100 0.000000 0.000000 0.000000 0.000000 0.000000 -0.006100 0.000000 0.000000 0.006100 0.000000 0.000000 0.006100 -0.006100 0.006100 0.000000 -0.006100 0.000000 0.000000 0.006100 0.000000 0.006100 -0.006100 0.000000 0.006100 0.000000 0.000000 -0.006100 0.000000 0.000000 0.000000 0.000000 0.000000 -0.006100 -0.006100 0.006100 0.000000 0.000000 0.006100 0.000000 0.006100 0.006100 0.006100 -0.006100 0.000000 0.000000 -0.006100 -0.006100 0.006100 0.000000 0.000000 0.000000 -0.006100 0.000000 -0.006100 0.006100 0.000000 0.000000 0.006100 -0.006100 0.000000 0.000000 0.000000 0.000000 0.000000 0.000000 -0.006100 -0.006100 0.000000 0.000000 -0.006100 0.000000 0.006100 0.000000 0.000000 0.006100 0.000000 0.000000 0.006100 0.006100 0.000000 0.000000 0.000000 -0.006100 0.000000 0.000000 0.006100 0.006100 0.006100 0.000000 0.006100 0.000000 0.006100 0.006100 0.000000 0.000000 0.000000 0.000000 -0.006100 0.006100 0.000000 -0.030000 0.000000 0.030000 -0.030000 -0.030000 0.000000 0.030000 0.000000 0.000000 0.000000 -0.030000 0.030000 0.000000 -0.030000 -0.030000 -0.030000 0.000000 0.030000 0.030000 -0.030000 0.000000 0.000000 0.030000 0.000000 0.030000 0.030000 -0.030000 0.000000 -0.030000 0.000000 0.000000 0.030000 0.000000 -0.030000 0.030000 0.000000 -0.030000 0.030000 0.000000 -0.030000 0.030000 0.000000 0.000000 0.000000 0.000000 0.000000 -0.030000 0.030000 0.000000 0.000000 0.000000 0.000000 0.000000 0.000000 0.000000 -0.030000 0.000000 0.030000 0.000000 0.030000 0.000000 0.030000 0.000000 0.000000 0.030000 -0.030000 0.000000 0.030000 0.000000 0.030000 0.030000 0.000000 0.000000 0.000000 0.000000 0.030000 0.000000 0.030000 0.030000 0.000000 0.000000 -0.030000 0.000000 0.030000 0.000000 0.000000 0.000000 0.000000 -0.030000 -0.030000 0.000000 0.000000 -0.030000 0.000000 0.000000 0.000000 0.030000 0.000000 0.030000 0.000000 0.000000 0.030000 0.000000 0.030000 0.000000 -0.030000 0.000000 0.000000 -0.030000 -0.030000 0.030000 0.000000 0.000000 0.000000 -0.030000 0.000000 -0.030000 0.030000 0.030000 0.000000 0.000000 0.000000 -0.030000 0.000000 0.000000 0.000000 0.030000 0.000000 0.000000 0.000000 -0.030000 0.000000 0.000000 -0.030000 0.000000 0.000000 0.000000 -0.030000 -0.030000 0.000000 0.000000 0.000000 0.000000 0.000000 0.000000 0.000000 0.000000 0.000000 -0.030000 0.000000 -0.030000 0.000000 0.000000 -0.030000 0.000000 0.030000 -0.030000 0.030000 0.000000 -0.030000 -0.030000 0.000000 -0.030000 -0.030000 0.030000 0.000000 0.000000 0.000000 0.000000 0.000000 0.000000 0.000000 0.000000 0.000000 0.000000 0.030000 0.030000 0.000000 0.000000 0.000000 0.000000 0.000000 0.000000 0.000000 0.000000 0.030000 0.030000 0.000000 0.030000 0.000000 -0.030000 0.030000 0.000000 0.000000 -0.030000 0.000000 0.030000 0.000000 -0.030000 0.030000 0.000000 0.000000 0.030000 0.000000 0.030000 0.030000 0.000000 -0.030000 0.000000 0.000000 0.000000 0.030000 0.000000 0.030000 0.030000 0.000000 0.000000 0.000000 0.000000 0.030000 0.030000 0.000000 0.030000 -0.030000 0.000000 -0.030000 0.030000 0.000000 0.000000 -0.030000 0.030000 0.000000 0.000000 -0.030000 0.000000 0.000000 0.000000 -0.030000 0.000000 0.000000 0.030000 0.000000 -0.030000 0.000000 0.030000 0.000000 0.000000 -0.030000 0.000000 0.000000 -0.030000 0.030000 -0.030000 0.000000 0.000000 0.000000 0.030000 -0.030000 0.000000 -0.030000 -0.030000 0.000000 -0.030000 0.000000 0.000000 -0.030000 -0.030000 0.000000 -0.030000 0.030000 0.030000 0.000000 0.000000 0.030000 -0.030000 0.000000 0.030000 -0.030000 0.000000 0.030000 0.000000 -0.030000 -0.030000 0.000000 -0.030000 0.000000 -0.030000 0.000000 0.000000 0.000000 0.000000 0.000000 0.000000 0.000000 0.000000 0.000000 -0.030000 0.030000 0.030000 0.000000 0.000000 0.030000 0.030000 -0.030000 -0.030000 0.000000 0.000000 0.000000 -0.030000 0.000000 0.030000 0.030000 0.000000 0.000000 0.030000 0.000000 0.030000 0.000000 0.000000 0.030000 0.000000 0.030000 0.000000 0.000000 0.000000 0.000000 0.000000 0.000000 0.000000 0.030000 0.000000 0.030000 0.000000 0.030000 0.030000 0.000000 -0.030000 -0.030000 -0.030000 0.000000 0.000000 0.030000 0.000000 0.000000 0.030000 0.000000 0.000000 0.030000 -0.030000 0.000000 0.000000 0.000000 -0.030000 0.030000 -0.030000 -0.030000 0.030000 0.000000 0.000000 -0.030000 -0.030000 0.000000 0.000000 0.000000 0.000000 0.000000 -0.030000 0.000000 0.000000 0.030000 0.000000 0.030000 0.000000 0.000000 0.030000 0.000000 0.000000 0.030000 0.030000 -0.030000 0.030000 0.000000 0.000000 0.000000 0.030000 0.000000 0.000000 0.000000 0.000000 0.000000 0.030000 0.000000 -0.030000 0.000000 0.000000 0.000000 0.000000 -0.030000 0.000000 -0.030000 0.000000 0.000000 0.081400 -0.081400 0.000000 0.000000 0.081400 0.000000 0.000000 0.000000 0.000000 0.000000 0.000000 0.081400 -0.081400 0.000000 0.000000 0.000000 -0.081400 0.000000 0.081400 0.081400 0.000000 0.081400 0.000000 0.000000 0.000000 0.000000 0.000000 0.081400 0.000000 0.000000 0.000000 0.000000 0.081400 -0.081400 0.000000 -0.081400 0.000000 0.081400 0.000000 -0.081400 0.000000 0.000000 0.081400 0.081400 0.000000 0.000000 0.000000 -0.081400 0.000000 0.000000 0.081400 -0.081400 0.000000 0.000000 0.081400 -0.081400 -0.081400 0.000000 0.000000 0.000000 0.000000 -0.081400 0.000000 0.081400 -0.081400 0.081400 0.000000 0.081400 -0.081400 0.081400 0.000000 0.000000 0.081400 -0.081400 0.081400 0.000000 -0.081400 0.081400 0.000000 -0.081400 0.000000 0.000000 -0.081400 0.000000 0.081400 -0.081400 0.081400 -0.081400 0.000000 -0.081400 -0.081400 0.081400 -0.081400 0.000000 -0.081400 0.000000 0.000000 0.000000 0.081400 0.000000 0.000000 0.000000 0.081400 0.000000 0.000000 0.000000 0.000000 0.081400 0.081400 -0.081400 0.000000 0.000000 0.000000 0.081400 0.000000 -0.081400 0.000000 0.000000 0.000000 0.000000 0.000000 -0.081400 0.000000 0.000000 -0.081400 -0.081400 0.000000 -0.081400 0.000000 -0.081400 0.000000 0.000000 0.000000 -0.081400 0.000000 0.000000 0.081400 0.000000 0.081400 0.000000 -0.081400 -0.081400 0.000000 0.000000 0.000000 0.000000 -0.081400 0.000000 0.000000 0.000000 -0.081400 0.000000 0.000000 0.000000 0.081400 0.000000 -0.081400 0.000000 -0.081400 0.081400 0.081400 0.000000 0.000000 0.000000 0.081400 0.081400 0.000000 -0.081400 -0.081400 -0.081400 0.081400 0.000000 0.081400 0.081400 0.081400 0.000000 0.000000 0.000000 0.000000 0.000000 -0.081400 0.000000 0.081400 0.000000 0.000000 0.000000 0.000000 0.000000 -0.081400 0.081400 -0.081400 -0.081400 -0.081400 0.000000 0.000000 -0.081400 0.081400 0.000000 -0.081400 0.081400 0.000000 0.081400 0.000000 0.000000 -0.081400 0.081400 0.000000 0.081400 -0.081400 0.000000 0.000000 0.000000 0.000000 -0.081400 -0.081400 -0.081400 0.000000 0.000000 0.000000 0.081400 0.000000 0.081400 -0.081400 -0.081400 0.000000 -0.081400 0.000000 0.081400 0.000000 0.000000 0.000000 -0.081400 0.000000 0.000000 -0.081400 0.000000 0.000000 -0.081400 0.000000 0.081400 0.000000 0.000000 0.081400 0.000000 -0.081400 0.000000 0.000000 -0.081400 0.081400 0.081400 -0.081400 0.000000 0.000000 0.000000 0.081400 0.000000 0.081400 -0.081400 0.000000 0.000000 0.000000 0.000000 0.000000 0.000000 0.000000 -0.081400 0.081400 0.081400 -0.081400 -0.081400 -0.081400 0.081400 0.000000 0.000000 -0.081400 -0.081400 0.081400 0.000000 0.000000 0.081400 0.081400 0.000000 0.000000 0.081400 0.000000 -0.081400 0.081400 0.000000 0.000000 0.000000 0.000000 0.000000 0.081400 0.000000 0.000000 0.081400 0.000000 0.000000 0.000000 -0.081400 0.000000 0.000000 0.000000 0.000000 0.000000 0.000000 0.000000 -0.081400 0.000000 -0.081400 -0.081400 -0.081400 -0.081400 -0.081400 0.000000 0.081400 -0.081400 0.000000 0.081400 0.081400 0.081400 0.000000 0.000000 0.000000 0.081400 0.081400 -0.081400 0.000000 0.000000 0.081400 0.000000 0.000000 0.081400 0.000000 -0.081400 0.000000 0.000000 0.081400 0.000000 0.000000 0.000000 0.000000 0.000000 0.081400 0.081400 0.000000 -0.081400 0.000000 0.000000 -0.081400 0.000000 0.000000 0.000000 -0.081400 0.081400 0.000000 0.081400 -0.081400 -0.081400 -0.081400 -0.081400 -0.081400 0.000000 0.000000 -0.081400 0.000000 0.000000 0.000000 0.000000 -0.081400 0.000000 0.000000 0.000000 0.000000 -0.081400 0.000000 0.000000 0.000000 0.000000 0.000000 0.000000 0.000000 0.000000 0.081400 0.000000 0.000000 0.081400 -0.081400 0.000000 0.081400 0.081400 0.081400 0.000000 0.000000 0.000000 0.081400 0.000000 0.081400 0.111900 -0.111900 -0.111900 0.000000 0.000000 0.000000 0.111900 0.111900 0.000000 0.111900 0.000000 0.000000 0.111900 0.000000 -0.111900 -0.111900 0.111900 0.000000 -0.111900 0.111900 0.111900 -0.111900 0.000000 0.111900 0.000000 0.111900 0.000000 0.111900 0.111900 0.000000 0.000000 0.111900 0.000000 0.000000 0.111900 0.111900 0.111900 0.000000 0.000000 0.000000 0.000000 -0.111900 0.000000 -0.111900 0.111900 -0.111900 -0.111900 -0.111900 0.111900 0.000000 0.111900 0.000000 0.111900 0.000000 0.000000 -0.111900 -0.111900 -0.111900 0.000000 0.111900 -0.111900 0.000000 0.111900 0.111900 0.000000 0.000000 -0.111900 0.111900 -0.111900 0.000000 0.000000 0.111900 0.000000 -0.111900 0.000000 0.000000 0.000000 0.111900 0.000000 0.000000 -0.111900 0.000000 0.000000 0.000000 0.000000 0.000000 0.000000 0.000000 0.111900 0.111900 0.111900 0.000000 0.000000 0.000000 -0.111900 0.111900 0.000000 0.000000 -0.111900 -0.111900 0.000000 0.000000 -0.111900 0.000000 -0.111900 0.000000 -0.111900 0.111900 0.000000 -0.111900 0.000000 -0.111900 0.000000 -0.111900 -0.111900 0.000000 0.111900 0.000000 0.000000 0.000000 0.000000 -0.111900 0.000000 0.000000 0.000000 0.000000 0.000000 0.000000 -0.111900 0.000000 0.000000 0.111900 -0.111900 -0.111900 0.111900 0.000000 0.000000 0.111900 0.111900 0.000000 0.000000 0.000000 0.000000 0.111900 0.111900 0.000000 -0.111900 0.000000 0.000000 0.111900 0.000000 0.000000 0.000000 0.111900 0.111900 0.111900 0.111900 0.111900 -0.111900 0.000000 0.111900 0.000000 -0.111900 0.000000 0.000000 0.000000 0.000000 0.000000 0.000000 0.111900 -0.111900 -0.111900 0.111900 0.000000 0.000000 0.000000 0.000000 0.111900 0.000000 0.111900 0.000000 0.000000 -0.111900 0.000000 -0.111900 0.111900 0.111900 0.000000 0.000000 -0.111900 0.000000 0.000000 -0.111900 0.111900 0.000000 0.000000 -0.111900 0.000000 -0.111900 0.000000 0.000000 0.000000 -0.111900 -0.111900 0.111900 -0.111900 0.000000 0.111900 0.000000 0.111900 -0.111900 0.000000 0.111900 0.000000 0.000000 -0.111900 0.000000 0.111900 0.000000 0.000000 0.000000 -0.111900 0.000000 0.111900 -0.111900 -0.111900 -0.111900 -0.111900 0.000000 -0.111900 -0.111900 0.000000 0.000000 0.000000 0.111900 0.000000 -0.111900 0.000000 0.000000 0.111900 0.000000 0.000000 -0.111900 0.000000 0.000000 0.111900 0.111900 0.000000 0.000000 0.111900 0.111900 -0.111900 0.111900 -0.111900 -0.111900 0.000000 -0.111900 0.000000 -0.111900 0.000000 0.111900 0.000000 0.000000 -0.111900 0.000000 -0.111900 0.000000 -0.111900 0.000000 0.000000 0.000000 -0.111900 0.000000 0.000000 0.111900 0.000000 0.111900 -0.111900 -0.111900 0.000000 0.111900 -0.111900 -0.111900 -0.111900 0.000000 0.111900 0.111900 0.000000 0.111900 0.000000 0.000000 0.000000 -0.111900 -0.111900 0.111900 0.000000 0.111900 0.000000 0.000000 0.111900 0.000000 0.111900 0.111900 0.000000 0.000000 0.000000 0.000000 0.000000 0.000000 -0.111900 0.000000 0.000000 0.000000 0.111900 0.111900 0.000000 -0.111900 0.000000 0.111900 -0.111900 0.111900 0.000000 0.000000 0.111900 0.000000 0.000000 0.000000 0.111900 -0.111900 -0.111900 0.000000 -0.111900 0.111900 -0.111900 0.000000 0.000000 0.000000 0.000000 0.000000 0.000000 0.000000 0.000000 0.000000 -0.111900 0.000000 0.000000 0.111900 0.000000 -0.111900 0.111900 0.000000 0.000000 0.000000 0.000000 -0.111900 -0.111900 0.000000 0.000000 0.000000 0.111900 0.000000 0.000000 0.000000 0.000000 -0.111900 0.000000 0.111900 0.000000 -0.111900 -0.111900 0.000000 0.111900 0.000000 0.111900 0.111900 0.000000 0.000000 -0.111900 -0.111900 0.111900 0.000000 -0.111900 -0.111900 0.000000 -0.111900 -0.111900 0.000000 0.000000 -0.111900 0.000000 0.000000 -0.111900 0.000000 0.000000 0.000000 -0.111900 0.000000 0.111900 0.111900 0.000000 0.012100 0.012100 -0.012100 0.000000 -0.012100 0.000000 0.000000 -0.012100 0.000000 0.000000 0.012100 0.000000 0.000000 0.000000 0.000000 0.012100 0.000000 -0.012100 0.000000 0.000000 -0.012100 -0.012100 -0.012100 -0.012100 0.000000 0.000000 0.000000 0.000000 0.012100 0.012100 -0.012100 0.000000 0.000000 0.012100 0.000000 -0.012100 0.000000 0.012100 0.000000 0.000000 0.000000 0.012100 0.000000 0.000000 0.000000 0.000000 0.012100 0.012100 -0.012100 0.012100 -0.012100 0.000000 0.000000 0.000000 0.012100 0.000000 0.000000 0.000000 -0.012100 -0.012100 0.000000 0.012100 -0.012100 0.000000 0.000000 0.000000 0.000000 0.000000 0.012100 -0.012100 0.000000 -0.012100 0.000000 -0.012100 0.012100 0.000000 -0.012100 0.000000 0.000000 0.000000 0.000000 -0.012100 0.012100 0.000000 0.012100 0.000000 0.000000 0.000000 -0.012100 0.012100 -0.012100 -0.012100 0.000000 0.012100 0.000000 0.012100 -0.012100 0.012100 -0.012100 0.000000 0.000000 -0.012100 -0.012100 0.000000 0.000000 -0.012100 0.000000 0.012100 -0.012100 0.000000 0.000000 -0.012100 0.000000 0.000000 0.000000 -0.012100 0.012100 0.012100 0.000000 0.000000 -0.012100 0.000000 0.000000 0.000000 0.000000 -0.012100 0.000000 0.000000 0.000000 -0.012100 0.000000 -0.012100 -0.012100 0.000000 0.000000 -0.012100 0.000000 0.000000 0.000000 0.000000 0.000000 -0.012100 0.012100 0.000000 0.000000 -0.012100 0.012100 -0.012100 0.012100 -0.012100 0.000000 0.000000 0.000000 0.000000 -0.012100 0.000000 -0.012100 0.000000 0.000000 -0.012100 0.000000 -0.012100 -0.012100 -0.012100 0.012100 -0.012100 0.012100 0.000000 -0.012100 0.012100 0.000000 0.000000 0.012100 -0.012100 -0.012100 0.000000 0.000000 0.000000 0.000000 0.000000 0.000000 0.000000 0.000000 0.000000 0.000000 0.012100 0.012100 -0.012100 0.012100 0.000000 0.000000 0.000000 0.000000 0.000000 0.000000 0.000000 -0.012100 0.000000 0.000000 -0.012100 0.000000 0.012100 0.000000 0.000000 -0.012100 0.000000 0.012100 0.012100 0.000000 0.000000 0.000000 -0.012100 -0.012100 0.000000 -0.012100 0.000000 -0.012100 0.000000 -0.012100 0.000000 0.000000 0.000000 0.000000 0.000000 0.000000 -0.012100 0.000000 -0.012100 0.012100 0.012100 0.012100 0.000000 0.000000 -0.012100 -0.012100 0.000000 0.000000 0.000000 -0.012100 0.000000 0.000000 0.000000 -0.012100 0.012100 -0.012100 0.000000 -0.012100 0.012100 -0.012100 0.000000 0.000000 0.000000 -0.012100 -0.012100 0.000000 0.012100 0.000000 0.012100 0.000000 -0.012100 0.000000 -0.012100 -0.012100 0.000000 -0.012100 0.000000 0.000000 -0.012100 0.000000 0.000000 0.000000 -0.012100 0.000000 -0.012100 0.012100 -0.012100 0.012100 0.000000 0.000000 0.012100 0.000000 0.000000 0.000000 0.012100 0.012100 0.000000 0.000000 -0.012100 0.000000 -0.012100 0.000000 0.000000 0.012100 -0.012100 0.000000 0.000000 0.012100 0.012100 0.000000 -0.012100 0.000000 0.000000 0.012100 0.012100 0.012100 0.000000 0.000000 0.000000 0.000000 0.000000 -0.012100 0.012100 0.012100 0.000000 0.000000 0.000000 0.000000 -0.012100 0.000000 0.012100 -0.012100 0.000000 0.000000 -0.012100 0.000000 0.000000 0.000000 0.012100 0.000000 0.000000 0.012100 0.012100 0.012100 0.012100 0.000000 0.000000 0.012100 0.012100 0.000000 0.000000 0.000000 -0.012100 0.000000 0.000000 0.000000 0.012100 0.000000 0.000000 0.000000 0.000000 -0.012100 -0.012100 0.000000 0.000000 0.000000 0.012100 0.000000 0.012100 0.012100 0.012100 -0.012100 0.000000 -0.012100 0.012100 0.000000 0.012100 -0.012100 -0.012100 0.000000 0.012100 0.000000 -0.012100 0.000000 0.000000 0.000000 0.000000 0.012100 0.000000 -0.012100 -0.012100 -0.012100 -0.012100 0.000000 0.000000 0.000000 0.000000 -0.012100 -0.012100 0.000000 0.000000 -0.012100 0.000000 0.000000 -0.012100 0.000000 0.012100 0.000000 0.000000 0.000000 0.012100 0.000000 0.000000 0.000000 0.000000 0.000000 -0.034200 -0.034200 0.000000 -0.034200 0.000000 0.034200 -0.034200 0.000000 0.000000 0.034200 0.000000 -0.034200 0.000000 0.034200 0.000000 0.000000 0.000000 0.000000 0.034200 0.000000 0.034200 0.034200 0.000000 -0.034200 0.000000 0.000000 -0.034200 0.000000 0.000000 0.000000 0.034200 0.000000 0.000000 -0.034200 0.034200 0.000000 0.034200 -0.034200 0.000000 0.000000 0.000000 0.034200 0.000000 0.000000 0.000000 0.000000 0.000000 0.000000 0.034200 0.000000 0.000000 0.034200 0.000000 0.000000 0.000000 -0.034200 0.000000 0.034200 0.000000 -0.034200 -0.034200 0.034200 -0.034200 0.000000 0.000000 0.000000 0.000000 0.000000 0.034200 0.034200 -0.034200 0.000000 0.000000 0.000000 -0.034200 0.000000 0.000000 0.000000 0.000000 0.000000 0.034200 0.034200 -0.034200 0.000000 0.034200 0.034200 0.000000 0.000000 0.034200 0.000000 0.000000 0.000000 0.000000 0.000000 0.000000 0.000000 0.034200 -0.034200 0.000000 0.000000 0.000000 0.034200 0.000000 0.034200 0.000000 0.000000 0.000000 0.000000 0.000000 0.000000 -0.034200 0.000000 -0.034200 0.034200 -0.034200 0.000000 0.000000 0.000000 -0.034200 0.000000 0.000000 0.000000 -0.034200 0.034200 0.034200 0.000000 0.000000 0.000000 0.000000 0.000000 0.000000 0.034200 0.034200 0.000000 0.000000 0.000000 0.034200 0.000000 0.000000 0.000000 0.000000 0.000000 0.000000 0.000000 0.000000 0.000000 0.000000 0.000000 0.000000 0.034200 -0.034200 0.000000 0.000000 0.000000 -0.034200 -0.034200 0.000000 -0.034200 0.000000 -0.034200 0.000000 0.000000 -0.034200 -0.034200 0.000000 0.000000 0.000000 0.000000 0.000000 0.000000 0.000000 0.034200 -0.034200 0.000000 0.000000 -0.034200 0.000000 -0.034200 -0.034200 0.000000 -0.034200 0.000000 0.000000 0.034200 -0.034200 0.034200 0.000000 0.000000 0.000000 0.034200 0.000000 0.034200 0.034200 0.034200 0.000000 0.000000 0.000000 -0.034200 0.034200 0.000000 0.000000 0.034200 0.000000 0.000000 0.034200 0.034200 0.000000 -0.034200 0.000000 0.000000 0.000000 0.000000 0.000000 -0.034200 0.034200 0.000000 0.000000 0.034200 0.000000 0.000000 0.000000 0.000000 -0.034200 0.034200 0.000000 -0.034200 0.034200 -0.034200 0.000000 0.000000 -0.034200 0.034200 -0.034200 -0.034200 0.000000 0.000000 0.000000 0.000000 -0.034200 0.000000 0.000000 -0.034200 0.034200 0.000000 0.000000 0.000000 0.034200 0.000000 -0.034200 0.034200 0.000000 0.034200 0.000000 0.034200 0.034200 0.000000 0.034200 0.034200 0.034200 0.000000 0.034200 0.000000 0.000000 -0.034200 0.034200 0.000000 0.034200 0.034200 0.000000 0.034200 0.000000 -0.034200 0.034200 0.034200 0.000000 -0.034200 0.034200 0.034200 0.034200 -0.034200 0.000000 0.000000 0.034200 -0.034200 0.000000 0.000000 0.000000 0.000000 0.034200 0.000000 -0.034200 0.000000 -0.034200 0.034200 0.000000 0.000000 -0.034200 0.000000 0.034200 0.034200 0.034200 0.000000 0.000000 0.000000 0.034200 -0.034200 -0.034200 0.000000 -0.034200 0.000000 0.000000 -0.034200 0.034200 -0.034200 -0.034200 -0.034200 0.000000 0.000000 0.034200 0.000000 0.000000 0.000000 0.000000 0.000000 -0.034200 0.000000 0.000000 0.034200 0.000000 -0.034200 0.000000 0.000000 -0.034200 0.034200 0.000000 0.000000 -0.034200 0.034200 -0.034200 0.000000 0.000000 0.000000 0.000000 -0.034200 0.000000 0.000000 -0.034200 0.000000 0.000000 0.034200 -0.034200 -0.034200 0.000000 0.000000 0.000000 0.000000 0.000000 0.000000 0.000000 -0.034200 -0.034200 0.000000 -0.034200 0.000000 0.000000 0.000000 0.000000 -0.034200 0.000000 0.000000 0.000000 -0.034200 0.034200 0.034200 -0.034200 0.034200 0.000000 0.000000 -0.034200 0.000000 0.034200 0.000000 0.000000 0.000000 0.000000 0.000000 -0.034200 0.034200 0.000000 0.000000 0.034200 0.000000 0.000000 -0.034200 0.000000 0.000000 0.000000 0.016900 0.016900 -0.016900 -0.016900 0.000000 0.000000 0.000000 0.000000 0.000000 0.000000 0.000000 -0.016900 0.000000 0.000000 -0.016900 -0.016900 -0.016900 0.000000 -0.016900 0.000000 -0.016900 0.000000 0.000000 0.000000 -0.016900 0.016900 0.000000 0.000000 0.000000 0.000000 0.000000 0.016900 0.016900 0.016900 0.000000 0.016900 0.016900 -0.016900 0.000000 0.000000 0.000000 -0.016900 0.016900 0.000000 0.016900 0.000000 0.000000 -0.016900 0.000000 0.000000 0.000000 0.000000 -0.016900 0.016900 0.016900 0.000000 0.016900 0.000000 0.016900 0.000000 -0.016900 0.000000 0.000000 0.016900 0.016900 0.000000 -0.016900 0.000000 0.000000 0.000000 0.000000 0.016900 0.016900 -0.016900 0.016900 -0.016900 0.000000 0.000000 0.016900 0.016900 0.016900 0.016900 0.016900 0.000000 -0.016900 0.000000 0.000000 0.000000 0.000000 0.016900 -0.016900 0.000000 0.000000 0.016900 0.000000 0.016900 0.000000 0.016900 0.000000 0.000000 0.000000 0.016900 -0.016900 -0.016900 0.016900 0.016900 0.016900 0.016900 0.016900 0.000000 0.016900 -0.016900 0.000000 0.000000 0.000000 0.000000 0.000000 0.000000 0.000000 0.000000 0.016900 0.000000 0.000000 0.000000 0.000000 0.016900 0.000000 -0.016900 0.000000 0.000000 0.016900 0.016900 -0.016900 0.000000 0.000000 -0.016900 -0.016900 0.016900 0.016900 0.000000 0.000000 0.000000 0.000000 0.000000 0.000000 -0.016900 0.000000 0.000000 0.000000 0.000000 -0.016900 -0.016900 0.000000 0.000000 0.000000 0.000000 0.016900 0.016900 0.000000 0.000000 0.016900 0.000000 0.016900 0.016900 0.000000 0.000000 0.016900 0.000000 0.000000 0.000000 0.000000 0.000000 -0.016900 0.000000 0.000000 -0.016900 0.016900 0.000000 0.000000 0.000000 0.000000 0.000000 0.000000 0.000000 -0.016900 0.016900 0.000000 0.000000 0.000000 -0.016900 0.000000 0.000000 0.000000 0.000000 -0.016900 0.000000 0.000000 0.016900 0.000000 0.000000 0.000000 0.000000 0.000000 0.016900 0.000000 0.000000 0.000000 0.016900 0.016900 0.000000 0.000000 0.016900 -0.016900 0.000000 0.000000 0.000000 -0.016900 0.000000 0.000000 -0.016900 0.000000 -0.016900 0.000000 0.016900 0.000000 0.000000 0.000000 -0.016900 -0.016900 0.000000 0.000000 0.000000 0.000000 -0.016900 0.016900 0.000000 0.000000 -0.016900 0.000000 0.016900 -0.016900 0.000000 0.000000 0.000000 0.000000 -0.016900 0.016900 -0.016900 -0.016900 0.000000 -0.016900 0.016900 0.000000 0.000000 0.000000 0.000000 0.016900 0.016900 -0.016900 0.016900 0.000000 0.000000 -0.016900 0.000000 0.000000 0.016900 0.000000 0.000000 0.000000 -0.016900 -0.016900 0.000000 0.000000 -0.016900 -0.016900 0.016900 0.000000 0.000000 0.000000 0.000000 0.016900 0.000000 0.000000 -0.016900 -0.016900 0.000000 0.000000 -0.016900 -0.016900 0.000000 0.000000 0.000000 0.000000 0.000000 0.000000 0.000000 0.016900 0.000000 0.000000 0.000000 -0.016900 -0.016900 -0.016900 0.000000 0.000000 0.000000 0.000000 0.000000 -0.016900 -0.016900 -0.016900 0.016900 0.000000 0.000000 0.000000 0.000000 0.000000 -0.016900 0.016900 0.000000 -0.016900 0.000000 0.000000 -0.016900 0.016900 0.000000 0.016900 0.000000 0.016900 0.000000 0.000000 0.000000 0.000000 0.000000 0.016900 -0.016900 -0.016900 0.000000 0.016900 0.016900 0.016900 0.000000 -0.016900 -0.016900 -0.016900 -0.016900 0.000000 0.000000 -0.016900 0.000000 0.016900 0.016900 0.000000 0.000000 0.000000 -0.016900 0.016900 -0.016900 0.000000 0.000000 -0.016900 0.000000 0.000000 0.000000 0.000000 0.016900 0.000000 0.000000 -0.016900 0.000000 0.000000 0.000000 0.016900 -0.016900 0.000000 0.016900 0.000000 0.016900 0.000000 0.016900 0.016900 -0.016900 -0.016900 -0.016900 0.000000 0.000000 0.000000 0.000000 0.016900 -0.016900 0.000000 0.000000 0.000000 -0.016900 0.000000 0.000000 0.016900 0.016900 0.000000 -0.040600 -0.040600 0.000000 0.040600 0.040600 0.000000 -0.040600 0.040600 0.040600 0.000000 0.000000 0.000000 0.040600 0.040600 0.000000 0.000000 0.000000 0.000000 0.040600 -0.040600 0.000000 0.040600 0.040600 0.040600 0.040600 0.000000 -0.040600 0.000000 0.000000 -0.040600 -0.040600 0.040600 0.000000 0.000000 0.000000 0.040600 0.000000 0.040600 0.000000 0.000000 0.000000 0.000000 0.000000 -0.040600 -0.040600 0.000000 0.000000 -0.040600 -0.040600 0.000000 0.000000 0.000000 0.040600 0.040600 0.000000 0.040600 -0.040600 -0.040600 0.040600 0.000000 0.040600 0.000000 0.000000 0.000000 0.000000 0.040600 0.000000 0.000000 0.000000 0.000000 -0.040600 -0.040600 -0.040600 0.000000 -0.040600 0.000000 0.040600 0.000000 0.000000 0.000000 -0.040600 0.000000 0.000000 0.040600 0.040600 0.000000 0.040600 0.000000 0.000000 0.000000 0.000000 0.000000 0.000000 0.040600 0.000000 0.040600 0.040600 0.000000 0.000000 0.000000 0.040600 -0.040600 -0.040600 0.040600 0.000000 -0.040600 -0.040600 -0.040600 0.000000 -0.040600 0.000000 0.040600 0.000000 0.040600 -0.040600 0.000000 -0.040600 -0.040600 -0.040600 0.000000 -0.040600 0.000000 0.040600 0.000000 0.000000 0.000000 0.000000 0.000000 0.000000 0.000000 0.000000 0.000000 -0.040600 -0.040600 -0.040600 0.000000 0.000000 -0.040600 0.000000 -0.040600 0.000000 0.000000 0.040600 -0.040600 -0.040600 0.000000 -0.040600 0.040600 0.000000 0.000000 0.000000 -0.040600 0.040600 -0.040600 0.000000 -0.040600 0.000000 -0.040600 0.000000 0.000000 0.000000 -0.040600 0.000000 0.000000 -0.040600 0.000000 0.000000 -0.040600 0.000000 0.040600 0.040600 0.000000 0.000000 0.040600 0.040600 0.000000 0.000000 -0.040600 0.040600 -0.040600 0.000000 -0.040600 -0.040600 -0.040600 0.000000 0.000000 0.040600 0.000000 0.000000 0.000000 0.000000 -0.040600 -0.040600 -0.040600 0.000000 0.040600 0.000000 -0.040600 -0.040600 -0.040600 0.000000 0.000000 -0.040600 0.000000 0.000000 0.000000 0.040600 0.040600 0.040600 -0.040600 0.000000 0.040600 0.000000 0.040600 0.000000 0.000000 0.000000 0.040600 0.000000 0.000000 0.000000 0.000000 0.000000 -0.040600 -0.040600 -0.040600 0.040600 -0.040600 0.000000 0.000000 0.040600 0.040600 0.000000 -0.040600 -0.040600 -0.040600 0.040600 -0.040600 0.000000 0.040600 0.000000 -0.040600 -0.040600 -0.040600 0.000000 0.000000 0.040600 0.000000 0.040600 0.040600 -0.040600 -0.040600 -0.040600 0.000000 0.000000 0.040600 0.000000 0.040600 0.000000 0.040600 0.040600 -0.040600 0.040600 0.000000 0.040600 0.000000 -0.040600 0.040600 0.040600 0.000000 0.000000 -0.040600 -0.040600 -0.040600 0.040600 0.040600 -0.040600 -0.040600 0.000000 -0.040600 0.040600 -0.040600 0.000000 -0.040600 0.000000 -0.040600 0.000000 0.040600 0.000000 0.000000 -0.040600 -0.040600 -0.040600 0.040600 0.040600 0.000000 0.000000 0.000000 0.000000 0.000000 0.000000 0.000000 -0.040600 0.000000 0.000000 0.000000 0.000000 -0.040600 0.000000 -0.040600 0.000000 0.000000 -0.040600 0.000000 0.000000 0.040600 -0.040600 0.040600 0.000000 -0.040600 -0.040600 0.000000 0.000000 0.000000 0.000000 0.000000 0.040600 0.040600 0.040600 0.040600 -0.040600 0.000000 0.040600 -0.040600 -0.040600 0.000000 0.000000 0.000000 0.000000 0.040600 0.040600 -0.040600 0.000000 0.000000 0.040600 0.000000 0.000000 0.000000 -0.040600 0.040600 0.000000 0.000000 -0.040600 0.000000 -0.040600 -0.040600 0.040600 0.000000 -0.040600 0.000000 0.000000 0.040600 0.000000 0.000000 0.040600 -0.040600 -0.040600 0.000000 0.000000 0.040600 0.000000 0.000000 0.000000 0.000000 -0.040600 0.040600 0.000000 -0.040600 0.040600 0.040600 0.040600 0.000000 0.000000 0.000000 -0.040600 -0.040600 0.040600 0.000000 0.000000 -0.040600 -0.040600 0.000000 -0.040600 0.000000 0.040600 0.000000 -0.040600 0.040600 -0.040600 0.000000 0.000000 -0.030500 0.030500 0.000000 0.000000 -0.030500 -0.030500 0.000000 0.000000 0.030500 0.000000 0.000000 0.000000 0.000000 0.030500 -0.030500 0.000000 0.000000 0.000000 0.000000 0.000000 0.000000 0.000000 0.000000 0.000000 -0.030500 0.000000 0.030500 0.000000 0.000000 0.000000 0.000000 -0.030500 0.000000 -0.030500 0.000000 0.030500 -0.030500 -0.030500 0.000000 0.030500 -0.030500 0.000000 0.000000 0.030500 0.030500 0.030500 -0.030500 0.000000 0.030500 0.000000 -0.030500 0.030500 0.000000 0.000000 0.000000 0.030500 -0.030500 0.000000 0.000000 -0.030500 0.000000 0.000000 0.000000 0.000000 0.030500 -0.030500 0.030500 0.000000 0.000000 0.000000 0.000000 -0.030500 0.030500 0.000000 0.000000 -0.030500 0.030500 0.000000 0.000000 0.000000 0.000000 -0.030500 0.000000 0.030500 0.000000 0.000000 0.000000 -0.030500 0.000000 0.030500 0.000000 0.000000 0.000000 -0.030500 -0.030500 0.000000 -0.030500 -0.030500 0.000000 0.000000 0.000000 -0.030500 0.000000 0.030500 0.030500 -0.030500 -0.030500 0.000000 0.000000 0.030500 0.030500 -0.030500 0.000000 0.000000 0.000000 0.000000 0.000000 0.000000 0.000000 0.030500 0.000000 0.000000 0.030500 0.030500 0.000000 0.000000 -0.030500 0.000000 0.030500 0.000000 0.000000 0.000000 0.030500 0.030500 0.000000 0.030500 0.000000 0.000000 0.000000 0.030500 0.000000 0.030500 0.000000 0.000000 0.030500 0.030500 -0.030500 0.000000 0.000000 0.000000 0.000000 0.030500 0.000000 0.000000 0.000000 0.030500 -0.030500 -0.030500 0.030500 0.000000 -0.030500 0.000000 0.030500 0.000000 0.000000 0.030500 0.000000 0.000000 0.000000 0.000000 0.000000 0.000000 0.000000 -0.030500 0.000000 0.000000 -0.030500 0.000000 0.000000 0.000000 0.000000 -0.030500 0.000000 0.030500 0.030500 0.000000 -0.030500 0.030500 -0.030500 0.000000 0.000000 0.030500 0.030500 0.000000 -0.030500 0.000000 0.000000 -0.030500 0.000000 -0.030500 0.000000 0.030500 0.000000 -0.030500 0.030500 0.000000 -0.030500 0.030500 0.000000 0.030500 -0.030500 0.030500 0.000000 0.000000 0.000000 0.030500 0.000000 0.000000 0.000000 0.000000 0.000000 -0.030500 0.000000 0.030500 0.030500 0.000000 0.000000 0.030500 0.030500 -0.030500 0.000000 0.030500 0.000000 0.030500 -0.030500 0.030500 -0.030500 -0.030500 -0.030500 0.000000 0.030500 -0.030500 0.000000 0.030500 0.000000 0.000000 0.000000 0.000000 0.000000 -0.030500 -0.030500 0.030500 0.000000 0.000000 -0.030500 -0.030500 -0.030500 -0.030500 0.000000 0.030500 0.000000 0.000000 -0.030500 0.000000 0.000000 -0.030500 0.000000 0.000000 0.030500 -0.030500 0.000000 0.030500 0.030500 0.030500 0.000000 0.030500 0.030500 0.030500 -0.030500 0.000000 0.030500 -0.030500 -0.030500 -0.030500 0.000000 -0.030500 0.000000 0.030500 -0.030500 -0.030500 0.000000 0.000000 0.000000 -0.030500 -0.030500 0.000000 -0.030500 0.000000 0.030500 0.000000 -0.030500 0.030500 0.030500 0.000000 0.000000 -0.030500 0.000000 0.000000 0.030500 0.000000 0.000000 0.000000 0.030500 0.000000 0.030500 0.000000 0.030500 0.000000 -0.030500 -0.030500 0.000000 -0.030500 -0.030500 0.000000 0.000000 0.030500 -0.030500 0.000000 0.000000 -0.030500 0.000000 0.000000 0.000000 -0.030500 0.000000 0.030500 0.030500 0.000000 0.000000 0.000000 0.000000 0.000000 0.000000 -0.030500 -0.030500 -0.030500 0.000000 -0.030500 0.000000 -0.030500 0.000000 0.000000 0.030500 -0.030500 0.030500 0.000000 0.000000 0.030500 -0.030500 0.000000 -0.030500 0.000000 -0.030500 -0.030500 -0.030500 0.030500 0.030500 0.030500 0.000000 -0.030500 0.000000 -0.030500 0.000000 0.000000 -0.030500 0.030500 0.000000 0.000000 0.000000 0.030500 0.000000 0.000000 0.000000 0.000000 0.000000 0.000000 0.000000 -0.030500 0.000000 0.030500 0.030500 0.000000 0.000000 -0.030500 0.000000 -0.030500 0.000000 0.000000 -0.090400 0.000000 0.000000 -0.090400 -0.090400 0.000000 0.090400 -0.090400 0.090400 0.000000 0.000000 0.000000 0.000000 0.000000 0.000000 -0.090400 0.000000 0.090400 0.000000 -0.090400 0.000000 0.000000 -0.090400 0.090400 0.090400 0.000000 0.090400 0.090400 0.090400 0.090400 -0.090400 0.000000 0.090400 0.000000 0.000000 0.000000 0.090400 -0.090400 -0.090400 0.000000 0.000000 -0.090400 -0.090400 -0.090400 0.000000 -0.090400 0.000000 0.000000 0.090400 0.000000 0.000000 0.000000 0.090400 0.090400 -0.090400 0.000000 0.000000 0.000000 0.090400 0.000000 -0.090400 0.000000 0.000000 0.000000 0.090400 0.000000 0.000000 0.090400 0.000000 0.000000 0.000000 -0.090400 0.090400 0.090400 0.000000 0.000000 -0.090400 -0.090400 0.000000 0.000000 -0.090400 0.090400 0.000000 -0.090400 0.000000 0.090400 0.090400 0.000000 0.000000 -0.090400 0.090400 -0.090400 0.000000 -0.090400 0.000000 -0.090400 0.000000 0.090400 0.000000 -0.090400 -0.090400 0.090400 0.090400 0.000000 -0.090400 0.000000 0.090400 0.000000 0.000000 0.000000 0.090400 0.000000 0.090400 0.000000 0.090400 0.000000 0.000000 -0.090400 0.090400 -0.090400 0.000000 0.000000 0.000000 0.090400 -0.090400 0.000000 0.000000 -0.090400 0.000000 0.000000 0.000000 0.000000 -0.090400 0.000000 0.090400 0.090400 0.000000 0.000000 0.090400 -0.090400 0.000000 0.000000 0.090400 0.000000 0.090400 0.000000 -0.090400 -0.090400 0.090400 -0.090400 0.000000 -0.090400 0.000000 0.090400 0.000000 0.000000 0.000000 0.090400 0.000000 0.090400 0.000000 -0.090400 0.000000 0.000000 0.090400 0.090400 0.000000 0.090400 0.000000 -0.090400 0.000000 0.000000 0.000000 -0.090400 0.000000 0.000000 0.000000 0.090400 0.000000 0.090400 0.000000 0.000000 0.000000 0.000000 0.000000 0.000000 0.000000 0.000000 0.000000 -0.090400 -0.090400 -0.090400 0.000000 0.090400 -0.090400 0.000000 0.000000 0.000000 0.090400 0.090400 0.090400 0.000000 0.000000 0.000000 0.090400 0.000000 0.000000 0.090400 -0.090400 0.000000 0.000000 0.000000 0.000000 0.000000 0.000000 0.090400 0.090400 0.000000 0.000000 -0.090400 0.090400 0.000000 0.000000 0.000000 0.090400 0.090400 0.000000 0.000000 0.090400 -0.090400 0.090400 0.000000 0.000000 0.090400 0.000000 0.000000 0.000000 0.090400 0.000000 0.090400 0.000000 0.000000 0.000000 0.090400 -0.090400 0.000000 0.000000 0.000000 -0.090400 -0.090400 0.090400 0.000000 0.090400 0.090400 0.000000 0.090400 -0.090400 0.000000 0.000000 -0.090400 0.000000 0.000000 -0.090400 0.000000 -0.090400 0.000000 -0.090400 0.090400 -0.090400 0.000000 0.000000 0.090400 0.000000 -0.090400 0.000000 0.090400 0.090400 -0.090400 -0.090400 0.090400 -0.090400 0.090400 0.000000 0.000000 0.000000 0.090400 -0.090400 0.090400 0.000000 0.090400 0.000000 0.000000 0.000000 0.000000 0.000000 0.000000 0.000000 -0.090400 0.000000 0.090400 0.000000 0.000000 0.000000 0.090400 0.000000 0.090400 0.000000 0.000000 0.000000 -0.090400 0.090400 0.090400 0.000000 0.090400 0.000000 0.090400 0.090400 0.000000 0.000000 -0.090400 0.000000 0.000000 0.000000 0.000000 0.000000 0.000000 0.000000 0.000000 -0.090400 0.000000 0.000000 0.000000 0.000000 -0.090400 0.000000 0.000000 0.000000 0.000000 0.090400 -0.090400 0.000000 0.000000 -0.090400 0.000000 -0.090400 0.090400 0.090400 0.000000 -0.090400 0.090400 -0.090400 0.090400 0.000000 0.000000 0.090400 0.000000 -0.090400 0.000000 0.090400 -0.090400 -0.090400 -0.090400 0.000000 0.000000 0.000000 0.090400 0.090400 0.000000 0.000000 0.090400 0.000000 0.090400 -0.090400 0.000000 0.090400 0.090400 0.090400 -0.090400 0.000000 0.000000 0.090400 0.000000 0.090400 0.090400 0.000000 -0.090400 0.000000 0.090400 0.090400 -0.090400 0.000000 -0.090400 0.000000 0.000000 0.090400 0.000000 0.000000 0.000000 0.090400 -0.090400 0.000000 0.029400 0.000000 0.029400 0.000000 0.000000 0.000000 0.000000 -0.029400 0.000000 0.000000 -0.029400 0.000000 0.029400 0.000000 0.029400 0.000000 0.000000 0.000000 -0.029400 0.000000 -0.029400 0.029400 0.029400 0.000000 -0.029400 0.000000 0.000000 0.029400 0.029400 -0.029400 0.000000 -0.029400 0.029400 -0.029400 -0.029400 0.029400 0.000000 0.000000 0.029400 0.000000 0.000000 -0.029400 0.029400 0.000000 0.000000 0.000000 -0.029400 0.000000 0.000000 0.000000 0.029400 0.000000 0.000000 0.029400 -0.029400 0.000000 0.000000 0.029400 0.000000 0.000000 0.000000 0.000000 -0.029400 0.000000 0.029400 0.029400 0.000000 -0.029400 0.029400 0.000000 0.000000 0.029400 -0.029400 0.000000 -0.029400 0.000000 0.000000 0.029400 0.000000 -0.029400 0.000000 -0.029400 0.000000 0.000000 0.000000 0.029400 -0.029400 0.000000 0.000000 0.000000 0.000000 0.000000 0.029400 -0.029400 0.000000 -0.029400 -0.029400 0.000000 0.029400 0.000000 0.000000 0.029400 0.029400 0.000000 0.000000 0.000000 0.000000 -0.029400 0.000000 0.000000 -0.029400 0.000000 0.029400 -0.029400 0.029400 0.000000 -0.029400 0.029400 0.029400 0.000000 0.000000 0.029400 -0.029400 0.029400 0.000000 0.000000 0.029400 -0.029400 0.000000 -0.029400 0.000000 0.000000 -0.029400 0.029400 0.000000 -0.029400 0.000000 -0.029400 0.000000 0.000000 0.029400 -0.029400 0.000000 0.000000 -0.029400 0.000000 -0.029400 0.000000 0.029400 0.029400 -0.029400 -0.029400 -0.029400 0.000000 0.029400 0.029400 0.000000 -0.029400 -0.029400 0.000000 -0.029400 0.029400 0.000000 0.029400 -0.029400 -0.029400 -0.029400 0.000000 0.000000 0.000000 0.029400 -0.029400 0.029400 0.000000 0.000000 0.029400 0.000000 0.029400 0.000000 0.000000 0.029400 0.000000 0.000000 0.000000 0.029400 0.029400 0.029400 0.000000 0.000000 -0.029400 0.000000 -0.029400 0.000000 -0.029400 -0.029400 0.029400 -0.029400 0.000000 -0.029400 0.000000 0.000000 0.029400 0.000000 0.000000 0.000000 0.000000 0.000000 0.000000 0.000000 0.000000 0.000000 0.000000 0.000000 0.029400 0.029400 0.000000 0.000000 -0.029400 0.000000 0.000000 0.000000 -0.029400 0.000000 0.000000 0.000000 -0.029400 0.000000 -0.029400 0.000000 0.000000 0.000000 0.000000 -0.029400 0.000000 -0.029400 0.000000 0.000000 0.029400 0.029400 0.029400 0.000000 0.000000 0.029400 0.000000 -0.029400 0.000000 -0.029400 -0.029400 0.000000 0.000000 0.000000 0.029400 -0.029400 0.000000 0.029400 0.000000 0.000000 0.000000 0.000000 0.000000 -0.029400 0.000000 -0.029400 -0.029400 0.000000 -0.029400 -0.029400 0.000000 0.000000 0.029400 0.029400 0.000000 0.000000 0.000000 0.000000 0.000000 -0.029400 0.029400 -0.029400 0.000000 -0.029400 0.000000 0.029400 0.000000 0.000000 0.029400 0.029400 0.000000 0.029400 0.029400 0.000000 0.029400 0.029400 0.000000 0.000000 0.000000 0.000000 -0.029400 0.000000 0.000000 0.000000 0.029400 0.000000 0.000000 0.000000 0.000000 0.000000 0.029400 -0.029400 -0.029400 0.029400 -0.029400 0.029400 0.000000 0.000000 0.000000 0.000000 0.029400 0.000000 0.000000 0.000000 0.000000 0.000000 0.000000 -0.029400 0.000000 -0.029400 -0.029400 -0.029400 -0.029400 -0.029400 -0.029400 0.000000 0.029400 0.000000 -0.029400 0.000000 0.000000 0.000000 -0.029400 0.000000 0.029400 0.000000 -0.029400 -0.029400 0.029400 0.000000 -0.029400 0.000000 0.029400 0.029400 0.000000 0.000000 0.000000 0.000000 0.029400 -0.029400 0.029400 -0.029400 0.000000 -0.029400 0.000000 -0.029400 0.029400 0.029400 0.000000 0.000000 -0.029400 0.029400 -0.029400 0.000000 0.029400 0.000000 0.000000 0.000000 0.000000 0.029400 0.000000 -0.029400 0.000000 -0.029400 0.000000 0.029400 0.000000 0.000000 0.000000 0.029400 -0.029400 0.000000 0.000000 0.029400 -0.029400 0.000000 0.029400 0.029400 -0.029400 0.029400 -0.029400 0.029400 -0.048100 -0.048100 0.000000 0.000000 -0.048100 -0.048100 0.000000 0.000000 0.000000 0.000000 -0.048100 0.000000 0.048100 0.000000 -0.048100 0.048100 0.048100 -0.048100 0.000000 0.048100 0.048100 0.048100 0.000000 0.000000 0.000000 0.048100 0.000000 0.000000 0.000000 0.000000 0.000000 0.000000 -0.048100 0.048100 0.048100 -0.048100 -0.048100 0.000000 -0.048100 0.000000 0.048100 0.000000 -0.048100 0.000000 0.000000 0.000000 0.000000 0.000000 -0.048100 0.000000 -0.048100 0.048100 -0.048100 0.048100 -0.048100 0.000000 0.000000 0.048100 0.000000 0.000000 0.000000 0.000000 -0.048100 -0.048100 0.048100 0.000000 0.000000 0.000000 0.000000 0.000000 0.000000 0.000000 0.000000 0.000000 0.000000 0.000000 0.000000 0.000000 0.048100 0.000000 -0.048100 0.000000 0.048100 0.048100 0.000000 0.000000 -0.048100 0.048100 0.048100 0.000000 0.000000 -0.048100 0.000000 0.048100 0.000000 0.000000 0.000000 0.000000 0.000000 0.000000 0.000000 -0.048100 0.000000 0.048100 0.000000 0.000000 -0.048100 0.048100 -0.048100 0.000000 0.048100 0.000000 0.000000 0.000000 0.000000 0.000000 0.000000 0.048100 0.000000 0.000000 0.000000 -0.048100 0.000000 0.000000 0.000000 0.000000 0.048100 0.000000 0.000000 -0.048100 0.048100 0.000000 0.048100 0.000000 0.000000 0.000000 0.000000 0.000000 0.048100 0.000000 0.000000 0.000000 0.000000 0.000000 0.000000 0.000000 -0.048100 0.048100 0.000000 0.048100 0.000000 -0.048100 0.048100 0.000000 0.000000 0.000000 -0.048100 0.000000 -0.048100 0.000000 0.000000 0.000000 0.048100 0.000000 0.000000 -0.048100 0.000000 0.048100 0.048100 -0.048100 -0.048100 0.000000 0.000000 0.000000 0.000000 -0.048100 0.000000 0.048100 0.000000 -0.048100 -0.048100 -0.048100 0.000000 0.048100 0.000000 -0.048100 0.048100 0.000000 0.000000 0.048100 -0.048100 0.000000 0.048100 0.000000 0.048100 0.000000 0.000000 0.000000 0.000000 0.048100 0.000000 0.000000 0.000000 -0.048100 0.000000 0.000000 0.000000 -0.048100 -0.048100 0.000000 0.000000 -0.048100 0.000000 -0.048100 -0.048100 0.000000 0.048100 0.048100 0.000000 0.000000 0.048100 0.048100 0.048100 -0.048100 0.048100 0.000000 0.000000 0.000000 0.000000 0.000000 0.000000 0.000000 0.000000 -0.048100 0.000000 0.048100 0.000000 0.048100 -0.048100 0.048100 0.000000 -0.048100 0.000000 0.000000 -0.048100 -0.048100 0.000000 0.000000 0.000000 -0.048100 0.000000 0.000000 0.000000 -0.048100 0.000000 -0.048100 0.000000 0.000000 0.048100 0.000000 0.000000 0.000000 0.048100 -0.048100 0.000000 0.000000 -0.048100 0.000000 0.000000 0.000000 0.000000 -0.048100 0.000000 0.000000 -0.048100 0.000000 -0.048100 -0.048100 0.048100 0.000000 0.000000 -0.048100 0.048100 0.000000 0.000000 0.000000 -0.048100 0.000000 -0.048100 -0.048100 0.000000 0.048100 -0.048100 0.048100 -0.048100 -0.048100 0.048100 0.000000 0.000000 0.000000 -0.048100 0.000000 0.000000 0.000000 -0.048100 0.000000 0.000000 0.000000 0.048100 -0.048100 -0.048100 0.048100 0.000000 0.048100 -0.048100 0.000000 0.000000 -0.048100 0.000000 0.000000 0.000000 0.000000 0.000000 0.000000 0.048100 0.000000 0.000000 0.000000 0.000000 0.000000 -0.048100 0.000000 0.048100 -0.048100 0.000000 0.000000 0.000000 0.000000 0.000000 0.000000 0.048100 0.000000 0.000000 0.000000 0.048100 0.048100 -0.048100 -0.048100 0.048100 0.000000 0.000000 0.000000 -0.048100 0.000000 0.000000 0.000000 0.000000 -0.048100 -0.048100 0.000000 -0.048100 0.000000 0.000000 -0.048100 -0.048100 0.000000 0.000000 0.048100 0.048100 0.000000 0.048100 0.048100 0.048100 -0.048100 0.000000 0.048100 0.000000 -0.048100 0.000000 0.000000 -0.048100 0.048100 -0.048100 -0.048100 0.048100 0.000000 0.000000 0.000000 -0.048100 0.000000 0.000000 0.000000 0.000000 0.000000 0.000000 0.000000 -0.048100 0.000000 0.048100 0.048100 -0.054700 0.054700 0.000000 -0.054700 0.054700 0.000000 0.000000 -0.054700 0.054700 0.000000 0.000000 0.000000 0.000000 0.000000 0.000000 -0.054700 -0.054700 0.054700 0.054700 0.000000 -0.054700 -0.054700 0.000000 0.000000 -0.054700 0.054700 0.054700 0.000000 0.000000 0.054700 0.000000 -0.054700 -0.054700 0.000000 -0.054700 0.054700 -0.054700 0.054700 0.000000 0.000000 0.054700 0.000000 0.054700 0.000000 0.000000 -0.054700 0.000000 0.000000 -0.054700 0.054700 0.000000 0.054700 0.000000 0.000000 0.000000 0.054700 0.000000 0.000000 0.000000 0.000000 0.000000 -0.054700 0.000000 0.000000 0.054700 0.000000 0.054700 0.000000 0.054700 0.000000 0.054700 0.000000 -0.054700 0.000000 -0.054700 0.000000 -0.054700 0.000000 -0.054700 0.000000 0.054700 -0.054700 0.000000 0.054700 -0.054700 0.054700 0.000000 0.000000 0.000000 0.054700 -0.054700 0.000000 0.000000 0.000000 0.054700 0.000000 0.000000 0.000000 0.000000 0.000000 0.000000 -0.054700 0.000000 -0.054700 0.000000 -0.054700 0.000000 0.054700 -0.054700 -0.054700 0.054700 0.000000 0.000000 0.000000 0.054700 0.000000 -0.054700 0.000000 0.000000 0.000000 0.054700 0.000000 0.000000 0.000000 0.000000 0.000000 0.000000 0.054700 0.000000 0.054700 0.000000 0.054700 0.054700 -0.054700 0.000000 -0.054700 -0.054700 0.000000 0.054700 0.054700 0.000000 0.054700 0.054700 0.000000 0.000000 0.054700 0.000000 0.000000 0.000000 0.000000 0.054700 0.054700 0.000000 0.054700 0.054700 0.000000 0.054700 0.054700 0.000000 0.000000 0.054700 0.054700 0.054700 -0.054700 0.000000 0.000000 0.000000 0.000000 0.000000 0.054700 0.000000 0.000000 0.000000 0.054700 -0.054700 -0.054700 0.000000 -0.054700 0.054700 0.000000 0.000000 0.000000 0.000000 0.000000 0.000000 0.000000 -0.054700 0.054700 0.054700 0.054700 0.000000 -0.054700 0.000000 0.000000 0.054700 -0.054700 0.000000 0.054700 0.000000 0.054700 0.000000 0.000000 -0.054700 0.054700 -0.054700 0.054700 -0.054700 0.000000 0.000000 0.000000 0.054700 0.054700 0.000000 0.000000 0.000000 -0.054700 0.000000 0.054700 0.054700 0.054700 0.000000 0.000000 0.000000 0.000000 0.054700 0.000000 0.000000 -0.054700 -0.054700 -0.054700 0.054700 0.000000 0.000000 0.000000 -0.054700 0.054700 -0.054700 0.054700 0.000000 0.054700 0.000000 0.000000 0.000000 0.000000 0.000000 -0.054700 -0.054700 -0.054700 0.000000 0.000000 0.054700 0.000000 0.000000 0.000000 0.054700 0.054700 -0.054700 0.000000 0.000000 0.054700 0.054700 -0.054700 0.054700 0.000000 0.000000 0.000000 0.000000 -0.054700 0.000000 -0.054700 -0.054700 0.054700 -0.054700 0.000000 0.000000 0.000000 -0.054700 0.054700 -0.054700 0.054700 0.000000 0.054700 0.000000 -0.054700 0.054700 0.000000 0.000000 0.054700 0.054700 0.000000 0.054700 0.000000 0.000000 0.000000 0.000000 0.000000 -0.054700 -0.054700 0.000000 0.000000 0.054700 0.054700 0.000000 0.000000 0.054700 0.054700 0.000000 -0.054700 0.000000 0.000000 0.000000 0.000000 0.054700 0.000000 0.000000 0.000000 0.054700 -0.054700 -0.054700 0.000000 0.000000 -0.054700 0.000000 -0.054700 0.054700 0.054700 -0.054700 0.000000 0.054700 0.000000 0.054700 0.000000 0.054700 0.000000 0.000000 0.054700 0.000000 0.000000 0.000000 0.000000 0.000000 0.000000 0.000000 0.000000 -0.054700 0.000000 -0.054700 0.000000 0.054700 -0.054700 -0.054700 -0.054700 0.054700 0.000000 0.000000 0.000000 -0.054700 0.000000 0.000000 0.054700 0.054700 0.000000 0.000000 0.000000 0.000000 0.000000 0.000000 -0.054700 0.000000 0.054700 0.000000 0.054700 0.000000 -0.054700 0.000000 -0.054700 -0.054700 0.000000 0.054700 -0.054700 0.054700 0.000000 0.000000 -0.054700 -0.054700 0.000000 0.000000 0.054700 0.054700 -0.054700 0.054700 0.054700 -0.054700 0.054700 -0.054700 0.054700 0.054700 -0.054700 0.000000 -0.054700 0.000000 -0.109500 0.000000 0.000000 0.000000 0.000000 0.000000 -0.109500 0.000000 -0.109500 0.109500 0.000000 -0.109500 0.000000 -0.109500 0.000000 0.000000 -0.109500 -0.109500 -0.109500 -0.109500 -0.109500 0.000000 0.000000 0.000000 -0.109500 -0.109500 0.000000 0.000000 0.000000 0.109500 0.000000 0.109500 0.109500 0.109500 0.109500 0.000000 0.109500 -0.109500 -0.109500 0.000000 -0.109500 0.109500 -0.109500 -0.109500 0.000000 0.109500 0.000000 0.000000 0.000000 0.109500 0.000000 0.109500 0.000000 0.000000 0.000000 0.000000 0.109500 -0.109500 -0.109500 0.000000 0.109500 -0.109500 0.000000 0.000000 0.109500 -0.109500 0.000000 -0.109500 0.109500 0.000000 0.000000 0.000000 -0.109500 0.000000 -0.109500 0.000000 -0.109500 0.109500 0.000000 -0.109500 0.109500 -0.109500 -0.109500 0.109500 0.109500 0.000000 -0.109500 0.000000 0.000000 0.109500 0.000000 0.109500 0.109500 0.000000 0.109500 -0.109500 0.000000 0.000000 0.109500 0.000000 0.109500 0.000000 0.000000 0.109500 0.000000 0.109500 0.000000 -0.109500 0.000000 0.109500 0.109500 0.000000 0.000000 -0.109500 0.000000 0.000000 -0.109500 0.109500 -0.109500 -0.109500 -0.109500 0.109500 0.000000 0.000000 -0.109500 0.109500 0.000000 -0.109500 -0.109500 0.000000 0.109500 0.000000 -0.109500 -0.109500 0.000000 0.000000 0.000000 0.000000 0.000000 0.109500 0.000000 0.000000 0.000000 0.000000 0.000000 0.109500 0.000000 0.000000 0.000000 -0.109500 0.109500 0.000000 0.109500 0.000000 0.000000 0.000000 0.000000 0.000000 0.000000 -0.109500 0.000000 0.000000 -0.109500 -0.109500 0.000000 0.000000 -0.109500 0.109500 0.000000 0.000000 0.000000 0.000000 0.000000 0.000000 -0.109500 0.109500 -0.109500 0.000000 -0.109500 -0.109500 -0.109500 0.000000 0.000000 0.000000 0.109500 0.000000 0.109500 0.109500 0.109500 0.000000 0.000000 0.109500 -0.109500 0.000000 0.109500 0.000000 -0.109500 0.000000 0.000000 -0.109500 -0.109500 -0.109500 0.109500 0.109500 0.109500 0.000000 0.109500 0.000000 -0.109500 0.109500 -0.109500 -0.109500 -0.109500 0.000000 0.109500 0.000000 0.000000 0.109500 0.109500 0.000000 0.000000 0.109500 0.000000 0.000000 0.000000 0.000000 0.000000 0.000000 0.000000 -0.109500 0.000000 0.000000 0.000000 0.109500 0.000000 0.000000 0.109500 0.109500 0.000000 0.109500 0.000000 0.000000 -0.109500 0.109500 0.000000 0.000000 -0.109500 -0.109500 0.109500 0.000000 -0.109500 0.109500 0.109500 0.000000 0.109500 0.000000 0.000000 0.109500 0.000000 0.000000 -0.109500 0.109500 0.000000 0.109500 0.109500 0.000000 0.109500 0.109500 0.109500 0.000000 0.000000 0.000000 -0.109500 0.000000 0.000000 0.000000 0.000000 0.000000 -0.109500 0.109500 0.000000 0.109500 0.000000 0.000000 0.109500 0.000000 0.109500 0.000000 0.109500 0.000000 0.000000 0.000000 -0.109500 -0.109500 0.000000 0.109500 0.000000 0.000000 0.000000 -0.109500 -0.109500 0.000000 -0.109500 0.109500 0.000000 0.109500 -0.109500 -0.109500 0.000000 -0.109500 0.000000 -0.109500 -0.109500 0.000000 -0.109500 0.000000 0.109500 0.000000 0.000000 0.000000 0.000000 0.000000 0.000000 0.000000 0.000000 0.000000 0.000000 0.109500 0.000000 0.000000 0.109500 0.000000 0.000000 0.000000 0.000000 -0.109500 0.000000 0.000000 0.000000 0.000000 -0.109500 0.000000 0.000000 0.000000 0.000000 0.000000 -0.109500 -0.109500 0.109500 -0.109500 0.000000 0.000000 0.000000 -0.109500 0.000000 0.000000 0.109500 0.109500 0.109500 0.000000 0.000000 0.000000 0.109500 0.000000 0.000000 -0.109500 -0.109500 0.000000 -0.109500 -0.109500 0.000000 0.000000 0.000000 -0.109500 0.000000 0.109500 -0.109500 0.000000 0.000000 0.000000 0.109500 -0.109500 0.000000 0.000000 0.109500 0.000000 -0.109500 0.000000 -0.109500 0.109500 -0.109500 -0.109500 0.000000 0.000000 0.000000 0.109500 0.000000 0.000000 0.000000 0.021000 0.000000 -0.021000 0.000000 0.021000 -0.021000 0.021000 0.021000 0.000000 0.000000 0.000000 0.000000 0.000000 -0.021000 0.000000 -0.021000 -0.021000 0.000000 0.000000 0.000000 0.000000 0.000000 0.000000 0.021000 -0.021000 0.021000 0.000000 0.021000 0.000000 0.000000 0.000000 0.021000 0.021000 0.000000 0.000000 0.000000 -0.021000 -0.021000 0.000000 -0.021000 0.000000 -0.021000 0.000000 0.021000 0.000000 0.000000 0.021000 0.000000 0.000000 0.000000 0.021000 -0.021000 -0.021000 0.021000 -0.021000 0.000000 0.000000 0.000000 0.021000 0.021000 -0.021000 0.000000 0.021000 0.000000 -0.021000 0.000000 0.000000 0.021000 0.000000 0.000000 0.000000 0.000000 0.000000 -0.021000 -0.021000 -0.021000 0.000000 0.000000 0.000000 0.021000 0.021000 0.000000 0.000000 -0.021000 0.000000 0.000000 0.000000 0.000000 -0.021000 0.000000 0.000000 0.000000 -0.021000 -0.021000 0.021000 0.000000 0.000000 0.000000 0.021000 -0.021000 -0.021000 -0.021000 -0.021000 0.021000 0.021000 0.000000 0.021000 0.000000 0.000000 -0.021000 0.000000 -0.021000 -0.021000 -0.021000 0.021000 -0.021000 -0.021000 0.021000 0.021000 0.021000 0.000000 0.000000 0.021000 0.000000 -0.021000 0.000000 0.021000 0.000000 0.000000 0.021000 0.000000 -0.021000 0.000000 0.000000 -0.021000 0.021000 -0.021000 0.000000 0.000000 0.000000 -0.021000 0.000000 0.000000 0.021000 -0.021000 0.000000 0.000000 0.000000 0.000000 0.000000 0.021000 0.021000 0.000000 0.000000 0.000000 -0.021000 0.021000 0.000000 0.021000 0.000000 0.021000 -0.021000 0.021000 0.000000 0.000000 0.021000 0.021000 -0.021000 0.000000 0.000000 0.000000 0.021000 0.021000 0.000000 -0.021000 0.000000 0.000000 0.021000 0.021000 0.000000 -0.021000 0.021000 0.000000 0.021000 0.000000 -0.021000 0.000000 -0.021000 -0.021000 -0.021000 0.000000 0.000000 0.000000 0.000000 0.000000 0.000000 0.000000 0.000000 -0.021000 0.021000 -0.021000 0.000000 0.000000 0.000000 -0.021000 0.000000 0.021000 -0.021000 0.021000 -0.021000 -0.021000 -0.021000 -0.021000 0.000000 0.000000 -0.021000 -0.021000 0.000000 0.000000 0.000000 -0.021000 0.000000 0.021000 0.021000 0.021000 0.021000 -0.021000 0.000000 0.021000 0.000000 0.000000 0.021000 -0.021000 0.021000 0.000000 0.021000 0.000000 0.000000 -0.021000 0.021000 0.021000 0.000000 0.000000 0.021000 -0.021000 0.021000 -0.021000 0.000000 0.000000 0.000000 -0.021000 0.000000 0.021000 -0.021000 0.000000 0.000000 -0.021000 -0.021000 0.000000 0.000000 0.000000 0.000000 0.000000 0.000000 -0.021000 0.000000 -0.021000 0.021000 0.000000 0.000000 -0.021000 0.021000 0.000000 -0.021000 -0.021000 0.021000 -0.021000 0.000000 0.021000 0.000000 -0.021000 0.021000 0.021000 -0.021000 0.021000 0.021000 0.000000 0.000000 -0.021000 0.021000 -0.021000 0.021000 -0.021000 0.021000 0.000000 0.000000 0.000000 0.021000 0.000000 -0.021000 0.000000 0.021000 -0.021000 0.000000 0.000000 0.000000 0.000000 0.000000 0.000000 0.000000 -0.021000 0.000000 0.000000 0.021000 0.000000 0.000000 0.000000 0.000000 0.000000 0.000000 0.000000 0.000000 0.000000 0.000000 0.000000 0.000000 -0.021000 0.021000 0.000000 0.000000 0.000000 0.000000 0.000000 0.021000 0.000000 -0.021000 0.000000 0.021000 0.000000 -0.021000 0.000000 0.000000 0.021000 0.021000 0.021000 0.000000 0.000000 0.000000 0.000000 0.000000 0.021000 -0.021000 -0.021000 0.000000 0.000000 0.021000 0.000000 0.021000 0.000000 -0.021000 0.021000 0.000000 0.000000 -0.021000 0.000000 -0.021000 0.000000 0.000000 0.000000 0.000000 0.021000 0.000000 0.000000 0.021000 0.021000 0.021000 0.000000 0.000000 0.000000 0.000000 0.000000 0.000000 0.000000 -0.021000 0.000000 -0.021000 0.000000 0.000000 0.021000 0.000000 -0.021000 0.000000 0.000000 0.021000 0.000000 0.000000 0.021000 0.000000 0.000000 0.000000 0.000000 0.000000 0.000000 0.097900 -0.097900 0.000000 0.000000 0.000000 0.000000 0.097900 0.000000 0.000000 0.000000 0.000000 0.000000 0.000000 0.000000 0.000000 0.097900 0.097900 0.097900 0.000000 0.000000 -0.097900 -0.097900 -0.097900 0.000000 0.000000 0.000000 0.000000 0.000000 -0.097900 0.097900 -0.097900 -0.097900 -0.097900 0.000000 0.000000 0.000000 0.097900 0.000000 -0.097900 -0.097900 0.097900 0.097900 0.000000 -0.097900 0.097900 0.097900 -0.097900 0.000000 0.097900 0.000000 0.000000 0.000000 0.097900 -0.097900 0.000000 0.097900 -0.097900 0.097900 0.000000 0.000000 0.000000 0.000000 -0.097900 0.000000 -0.097900 0.000000 0.097900 0.000000 -0.097900 0.000000 0.000000 -0.097900 -0.097900 0.000000 0.000000 -0.097900 0.000000 0.000000 0.097900 0.097900 0.000000 0.000000 0.097900 -0.097900 0.000000 0.097900 -0.097900 -0.097900 0.000000 0.000000 0.000000 -0.097900 -0.097900 0.000000 0.000000 0.000000 0.097900 0.000000 0.097900 0.097900 0.097900 0.000000 0.000000 0.000000 -0.097900 0.000000 0.000000 0.000000 -0.097900 0.097900 -0.097900 0.097900 0.097900 0.000000 0.000000 -0.097900 0.000000 0.097900 0.000000 0.000000 0.000000 0.000000 0.000000 0.000000 0.000000 -0.097900 0.000000 -0.097900 0.000000 -0.097900 -0.097900 0.097900 0.000000 0.097900 0.000000 -0.097900 0.000000 0.000000 0.097900 0.000000 0.000000 0.000000 0.097900 0.000000 0.000000 0.097900 0.097900 0.000000 0.000000 0.000000 0.000000 -0.097900 0.000000 0.000000 0.000000 -0.097900 -0.097900 -0.097900 0.000000 0.000000 0.000000 0.000000 0.000000 0.097900 0.097900 0.097900 0.097900 0.000000 0.000000 0.097900 -0.097900 -0.097900 0.097900 0.000000 0.000000 -0.097900 0.000000 0.000000 0.097900 0.000000 0.097900 0.000000 0.000000 0.000000 0.000000 -0.097900 0.000000 0.000000 0.000000 -0.097900 0.000000 0.000000 0.000000 0.097900 0.000000 -0.097900 0.000000 0.000000 0.000000 0.000000 0.000000 0.000000 0.097900 0.000000 0.000000 0.000000 0.097900 0.000000 0.000000 0.097900 -0.097900 0.000000 0.000000 0.000000 0.000000 0.000000 0.097900 0.000000 0.000000 -0.097900 -0.097900 0.000000 0.000000 -0.097900 0.000000 0.000000 0.000000 0.000000 0.000000 0.097900 0.000000 0.000000 -0.097900 -0.097900 -0.097900 -0.097900 0.000000 -0.097900 -0.097900 0.097900 0.097900 0.000000 0.000000 -0.097900 0.000000 0.000000 -0.097900 0.000000 0.000000 0.097900 0.000000 0.000000 -0.097900 -0.097900 0.000000 0.097900 -0.097900 0.097900 0.097900 0.000000 0.000000 0.097900 0.000000 0.097900 0.000000 0.097900 -0.097900 0.000000 -0.097900 0.000000 -0.097900 0.000000 0.000000 0.000000 0.000000 0.097900 0.000000 0.000000 0.097900 0.000000 -0.097900 0.000000 0.000000 0.000000 0.000000 0.000000 0.000000 0.000000 -0.097900 0.000000 -0.097900 0.000000 0.000000 0.000000 -0.097900 -0.097900 0.000000 0.097900 0.000000 0.000000 -0.097900 0.000000 0.097900 0.097900 0.000000 0.097900 0.000000 0.097900 -0.097900 0.097900 0.000000 -0.097900 0.000000 0.000000 -0.097900 0.097900 0.000000 0.000000 0.000000 0.000000 0.000000 -0.097900 0.000000 0.000000 0.097900 0.097900 -0.097900 0.000000 0.097900 0.000000 0.000000 0.000000 -0.097900 0.097900 0.097900 -0.097900 0.000000 0.097900 0.000000 0.097900 0.000000 0.000000 0.000000 0.097900 0.000000 -0.097900 -0.097900 0.000000 -0.097900 0.000000 0.000000 0.000000 -0.097900 0.000000 0.000000 0.000000 0.097900 0.000000 0.000000 -0.097900 0.000000 -0.097900 -0.097900 0.097900 -0.097900 0.000000 -0.097900 0.097900 0.097900 0.097900 0.000000 0.097900 0.000000 -0.097900 0.000000 -0.097900 0.000000 -0.097900 -0.097900 0.000000 0.097900 0.000000 -0.097900 0.000000 -0.097900 0.000000 0.000000 0.097900 0.097900 0.000000 0.097900 -0.097900 0.000000 0.097900 0.000000 0.097900 0.000000 0.086300 -0.086300 0.086300 -0.086300 0.000000 0.000000 0.000000 0.086300 0.086300 0.086300 0.086300 0.000000 0.000000 0.086300 0.000000 -0.086300 -0.086300 0.000000 0.000000 0.086300 -0.086300 -0.086300 0.086300 0.000000 0.000000 0.000000 0.086300 0.086300 0.086300 0.000000 0.000000 0.000000 