-0.019700 0.000000 -0.000000 -0.000000 0.000000 0.019700 0.000000 0.000000 -0.019700 -0.000000 0.000000 0.019700 0.019700 -0.019700 0.000000 -0.019700 0.019700 -0.000000 0.000000 -0.019700 -0.019700 0.000000 0.000000 0.000000 -0.019700 0.000000 0.000000 0.172000 0.000000 0.172000 0.000000 -0.000000 0.000000 0.172000 -0.172000 0.172000 0.000000 0.000000 0.000000 0.172000 0.000000 0.000000 0.172000 -0.000000 -0.000000 0.000000 -0.172000 0.000000 -0.172000 -0.000000 -0.301700 0.000000 0.301700 -0.301700 -0.301700 0.000000 0.000000 -0.301700 -0.000000 -0.301700 0.000000 0.000000 -0.301700 -0.301700 0.000000 0.301700 0.000000 -0.301700 0.000000 0.000000 -0.000000 -0.000000 0.000000 -0.301700 0.301700 0.000000 0.213700 -0.213700 0.213700 0.000000 -0.213700 -0.213700 -0.000000 0.000000 -0.213700 0.213700 -0.213700 -0.213700 0.213700 0.000000 0.000000 0.000000 0.000000 0.000000 -0.213700 0.000000 0.000000 -0.213700 0.000000 -0.213700 -0.247500 0.247500 0.247500 -0.247500 0.000000 -0.247500 -0.247500 0.000000 0.247500 0.000000 0.000000 -0.247500 0.247500 0.000000 0.247500 0.000000 -0.247500 -0.247500 0.000000 -0.247500 -0.000000 0.247500 -0.247500 -0.247500 -0.247500 0.000000 0.100800 0.100800 0.100800 -0.100800 0.000000 -0.100800 -0.000000 -0.100800 -0.000000 0.100800 0.000000 0.000000 -0.100800 0.100800 0.000000 0.000000 0.100800 -0.100800 0.100800 -0.100800 0.000000 -0.100800 0.100800 -0.100800 0.000000 
