-0.084455 -0.050843 -0.066092 0.036071 -0.067364 -0.042832 0.003732 -0.049612 -0.029018 0.035474 0.023804 -0.023897 0.094218 -0.045165 -0.010070 -0.008724 0.011733 -0.008911 -0.048365 -0.015439 -0.015680 0.100540 -0.027871 -0.013364 0.006194 -0.036179 0.104370 -0.004074 0.008187 0.168310 0.064926 0.043137 -0.026953 0.056133 0.057867 -0.027291 0.049810 -0.001097 -0.075415 0.062480 -0.146450 -0.006981 -0.036737 0.080121 -0.033160 0.021851 0.099632 0.075388 -0.042813 -0.087809 0.095224 0.012926 0.010693 0.121140 -0.087343 0.020283 -0.023213 0.064414 -0.010518 0.114980 -0.062185 -0.038771 -0.008322 -0.066589 -0.066930 0.037022 0.046823 -0.017168 -0.025158 -0.058290 0.113780 -0.069164 -0.016009 0.121240 -0.146250 -0.032869 -0.053149 0.063285 0.079893 -0.024959 0.057320 0.063645 0.063802 0.027407 -0.047028 0.005246 -0.126840 0.021537 -0.089341 0.015507 0.051977 -0.001746 0.029687 -0.148050 0.050292 0.075657 -0.003099 0.083254 0.004849 0.052922 -0.065385 -0.001361 -0.073979 -0.003231 0.020486 -0.047249 0.006625 -0.032130 0.002897 -0.091607 -0.088296 -0.081670 -0.072957 0.034861 0.040336 -0.074477 0.124570 0.083256 -0.000538 0.006961 0.052502 0.051079 -0.082708 -0.052783 -0.068207 0.002498 0.044785 -0.086352 0.020608 -0.113040 0.013697 -0.016375 -0.005742 -0.008645 -0.012917 -0.014060 0.110510 0.058090 -0.070852 0.009883 0.089749 -0.034020 -0.055585 -0.012484 -0.001032 -0.029303 0.042343 -0.050327 -0.035378 0.070551 -0.053504 -0.018576 -0.056357 -0.073699 0.067403 0.020624 -0.012372 -0.105900 -0.023016 0.047117 -0.026406 0.034321 0.025277 0.021389 0.017011 0.045213 0.078875 0.000341 0.149760 -0.077334 0.033722 0.072884 -0.002653 0.038857 -0.023458 -0.029427 -0.007895 0.084825 -0.018444 0.149660 0.044576 -0.024776 -0.024866 -0.074110 0.030753 0.087259 -0.041099 -0.037827 -0.064548 0.004916 0.061358 0.072738 0.012183 -0.048527 -0.023089 0.053919 -0.046631 -0.023259 0.037077 -0.090012 -0.012416 -0.022396 0.019285 -0.022715 0.000432 0.074349 0.063102 0.021775 -0.057331 -0.072931 -0.049949 0.012943 -0.079154 -0.048684 0.016167 0.067703 0.010618 -0.075148 -0.019843 0.067968 0.101980 0.001271 -0.008653 -0.036477 -0.029974 -0.074500 -0.002436 0.040500 -0.038565 0.044608 -0.004658 0.101940 -0.023091 0.076642 0.003176 0.005341 0.081050 0.030104 -0.049673 0.016365 0.167040 0.055548 -0.014829 -0.074428 0.003829 0.043483 -0.016601 -0.009823 0.027253 -0.064599 0.103220 -0.004004 -0.000871 0.079946 -0.072242 -0.008647 -0.075080 0.019840 0.004622 -0.092670 -0.040177 0.028990 -0.020435 0.045593 0.053664 -0.006995 -0.050663 -0.000531 0.081242 0.017263 0.007557 0.016013 -0.060102 0.041497 -0.073921 0.081677 -0.078324 -0.080850 0.018427 -0.036523 0.050460 -0.079733 -0.046569 -0.082952 -0.029849 -0.012941 -0.074593 0.054501 -0.063513 0.081607 0.020814 -0.025076 -0.086864 0.073788 0.033708 0.134200 0.064550 0.011062 -0.044579 -0.053858 -0.049153 -0.009292 -0.052730 0.021471 0.195010 -0.038022 0.042875 -0.023285 0.053495 -0.113150 0.003098 -0.019378 0.050012 0.028632 0.127800 -0.050868 0.041710 0.073408 -0.093885 -0.009635 -0.084937 0.007871 -0.027254 0.038245 -0.045397 0.048084 0.001400 -0.109690 -0.050951 0.047236 -0.038723 -0.020704 0.028963 -0.024525 0.067945 -0.043483 0.012866 0.013944 -0.065174 0.015225 -0.016858 0.036738 0.003420 -0.051721 -0.030115 -0.024083 -0.069705 0.035212 -0.019425 0.007366 -0.068213 0.071049 -0.110310 0.019495 -0.001590 0.033926 0.002614 0.071645 0.011591 -0.097085 -0.076574 -0.084103 -0.012988 -0.082376 -0.006415 0.042194 -0.070901 -0.083926 -0.143410 -0.026975 -0.027771 -0.074749 -0.009691 -0.021355 0.061557 -0.017894 0.013220 -0.032183 -0.026249 0.046722 -0.062666 0.121480 -0.042803 0.054029 0.022875 -0.108370 0.135430 -0.129730 0.076220 0.176690 -0.010512 -0.046425 -0.021609 -0.017209 0.067190 -0.036213 0.104670 -0.089689 -0.079055 0.098229 0.042690 -0.013787 0.119920 0.037331 0.012571 0.013442 -0.069153 -0.026893 0.071421 -0.023847 0.099541 -0.019216 0.043673 0.083274 -0.063210 -0.004614 0.009033 0.014056 0.142950 -0.029521 0.059329 -0.000327 0.041473 -0.118910 -0.037094 0.088261 0.012670 -0.025991 -0.022824 -0.081654 0.114880 0.021139 0.035073 0.041107 0.065781 0.009910 -0.063814 0.079932 0.094791 0.060134 -0.077640 -0.019765 0.025055 0.030812 -0.100020 0.102840 -0.130200 -0.034237 -0.077706 -0.067101 -0.031858 0.076117 0.014072 -0.010818 -0.015313 0.050398 0.020529 0.043189 0.019313 0.096493 -0.041656 0.039687 -0.035422 -0.072122 0.138490 -0.059040 -0.011177 -0.049812 0.066244 -0.053853 -0.091113 -0.066723 -0.034193 0.040718 0.008373 -0.009785 -0.172220 0.055862 -0.014845 -0.038733 -0.096039 -0.103870 0.030113 0.040446 0.022213 -0.089855 0.035093 -0.081917 0.001241 0.077470 0.067282 0.167730 0.047401 -0.175870 0.053926 0.101100 0.026981 0.107610 0.040101 0.031867 0.064374 -0.093601 0.185320 -0.010371 -0.028559 -0.036346 0.003139 -0.005632 0.074356 -0.104520 -0.009339 0.032939 0.121360 -0.061746 0.161480 -0.185490 -0.054900 -0.138240 0.096827 0.017010 -0.015734 -0.046374 0.055431 0.089883 -0.128670 -0.071922 0.153430 0.083580 0.000503 -0.102170 0.105690 0.011387 0.062313 0.020340 0.028065 -0.007708 0.015832 -0.069632 -0.127100 -0.024223 -0.152160 -0.141230 0.138270 0.109640 -0.090143 -0.131400 -0.028968 0.068527 0.015212 0.000223 -0.013087 0.058567 0.125340 0.089974 -0.208650 0.049833 -0.180240 0.118010 -0.020111 -0.102750 0.229000 0.070256 0.096742 -0.145500 0.173660 -0.051986 0.015320 0.018051 0.044762 -0.126620 0.026929 -0.059556 -0.034101 0.067526 -0.096639 -0.031041 0.044647 0.076723 0.038148 0.131810 -0.011502 -0.072203 0.033453 -0.039504 0.009562 -0.049186 0.038432 0.058593 0.089726 -0.045112 0.035221 0.017580 -0.014101 0.030147 -0.130350 0.013523 -0.053916 -0.054385 -0.053480 0.127630 0.088367 -0.000791 -0.143510 0.068349 -0.037593 0.109490 0.020585 -0.034510 0.058029 -0.054628 0.063352 -0.099543 -0.068982 -0.112420 0.018604 0.109020 -0.069190 -0.070473 -0.228360 0.014642 -0.119430 -0.009594 -0.084593 -0.065720 -0.058492 -0.056135 0.019083 0.018171 -0.046141 0.066534 0.082748 0.091600 -0.031673 0.046530 0.066708 -0.058562 0.076246 -0.038415 -0.082869 -0.015322 -0.030744 0.005880 0.015563 -0.085139 0.051903 -0.065269 -0.027053 -0.060223 -0.010340 -0.002658 -0.024394 0.006263 0.031390 -0.044764 -0.042802 -0.044587 0.066358 0.080278 0.117120 -0.025255 0.120340 -0.103170 0.050579 -0.000983 0.044696 0.095373 0.057631 -0.014128 -0.015950 0.066659 0.029922 0.170420 -0.054612 -0.071123 0.167700 -0.015538 0.077505 0.073599 0.045876 0.069009 -0.089803 -0.024118 0.014427 -0.055218 -0.095559 0.035412 0.145280 0.066630 -0.053555 0.065174 -0.009741 -0.039679 -0.035102 0.044167 -0.044706 -0.143080 0.154920 0.002474 -0.033665 -0.149940 0.092802 0.013565 -0.111230 -0.024999 0.059935 -0.023831 -0.198890 -0.008920 0.057989 -0.084533 0.049027 -0.083914 0.095119 -0.065674 0.034609 -0.047665 -0.042365 0.100750 -0.014861 -0.066770 -0.049980 -0.075961 0.090046 -0.134440 -0.018517 0.012516 -0.039304 0.061500 -0.030109 -0.056046 -0.088129 -0.041234 -0.005804 0.072434 0.016966 -0.018877 0.093237 -0.046642 0.014759 0.110600 0.034975 -0.124830 -0.060821 -0.039581 -0.092455 -0.020235 -0.135330 -0.012320 -0.010134 -0.217340 0.080950 -0.005701 0.070883 -0.057487 -0.078094 -0.071699 -0.060686 -0.008451 0.072443 -0.017198 0.018593 0.079648 -0.002236 -0.067810 -0.112600 -0.068670 0.018261 0.030867 0.009137 -0.097358 0.023917 0.006395 -0.138930 -0.086340 0.007815 0.016945 -0.064627 -0.015693 -0.080937 0.052017 -0.073171 0.000104 -0.098545 0.061937 0.078730 0.097786 -0.098459 -0.018188 0.029226 0.025931 -0.011756 -0.050232 0.046245 -0.078665 -0.047682 0.063759 -0.100370 0.046337 -0.080488 -0.132330 -0.058140 -0.023756 0.130730 0.008061 0.035643 -0.034786 0.044737 -0.043640 0.052846 0.098529 -0.010282 0.082070 -0.013083 0.039424 -0.012845 0.023720 -0.024913 0.028173 -0.036002 0.015818 -0.021333 0.005658 0.043777 -0.086759 -0.053471 -0.117880 0.009713 0.041756 -0.061728 0.123680 0.028790 -0.045065 -0.036731 0.050890 -0.027456 -0.026753 0.052203 -0.038606 -0.039886 0.116180 -0.217650 0.042925 -0.044521 -0.099350 0.026043 0.032896 -0.001424 0.036974 0.087568 -0.015900 -0.072502 0.024951 -0.041786 -0.044567 0.131290 -0.067998 -0.013184 -0.007131 -0.001418 -0.013921 0.017644 -0.023147 -0.010069 0.024072 -0.028623 -0.037563 0.035539 -0.116300 -0.009033 0.020624 0.046506 0.124390 0.072439 -0.037847 -0.071240 -0.050181 -0.074117 0.078654 -0.062268 -0.149350 -0.036160 0.020901 0.022250 0.130300 -0.034139 -0.074666 0.034378 0.119430 -0.028663 -0.169620 -0.098906 0.114100 -0.105720 0.082400 -0.118650 0.102320 -0.023699 -0.003370 -0.031332 0.003070 -0.153080 0.039261 -0.000447 -0.025634 -0.023188 0.023723 -0.001007 -0.006707 0.012394 -0.036641 -0.062094 0.079114 -0.014886 0.040623 -0.144160 0.073158 -0.028543 -0.026840 0.073883 -0.065930 0.074841 0.045540 0.001497 0.004724 0.049984 0.070220 0.050965 -0.056858 -0.075224 -0.065014 0.040244 -0.057873 -0.066542 0.036857 0.030911 0.081282 -0.032273 -0.000467 -0.013337 -0.013112 -0.082699 -0.062230 0.140780 0.015594 -0.045264 -0.055627 -0.015460 -0.043924 -0.021242 0.080489 0.032344 0.056540 -0.019986 0.057186 0.035398 0.130020 0.088121 -0.071455 -0.092614 0.062254 -0.021294 -0.049234 -0.018306 -0.008145 -0.006538 0.060065 -0.028310 0.070525 -0.066636 0.128960 0.129220 0.078093 -0.109000 -0.104430 -0.062550 0.010189 0.074485 0.047519 0.091660 0.144410 -0.089288 -0.051020 0.014168 0.017340 0.001006 -0.002149 -0.020039 -0.005487 -0.096167 -0.022841 0.044790 -0.034882 -0.013397 -0.047611 -0.070313 -0.188420 0.051347 -0.002595 -0.033971 -0.033299 0.024144 -0.025831 -0.137200 0.038736 -0.088350 -0.039222 0.015808 -0.040896 -0.113110 0.012052 0.044762 0.057693 0.100420 0.038141 0.126080 0.076778 -0.075690 0.087081 -0.077756 0.025651 -0.084341 0.035723 0.005635 0.017802 0.012678 -0.002696 -0.022542 -0.051826 0.095473 -0.102770 -0.056695 -0.139060 0.012353 0.125590 -0.048394 -0.031143 -0.159070 0.118670 -0.050356 0.003219 0.037853 0.058126 0.009090 -0.009262 0.035071 -0.046555 -0.005898 -0.067398 0.027638 -0.108170 0.003926 0.059828 -0.013846 0.078265 -0.181760 0.056163 -0.114210 0.042778 -0.141710 -0.007511 -0.047713 -0.047145 0.043247 0.038058 -0.137080 -0.038010 -0.002274 -0.004233 -0.008101 -0.040752 -0.065294 -0.084345 -0.033358 0.032675 -0.032247 0.010770 0.009182 -0.174780 -0.123900 0.034026 -0.008606 0.004392 -0.034949 -0.016706 -0.001602 0.115430 -0.067021 -0.110440 0.076251 -0.113410 0.065960 -0.062912 -0.115260 -0.015609 -0.060119 -0.126910 -0.016531 -0.067298 0.026830 0.019394 0.026181 -0.155980 -0.067247 -0.122690 -0.050514 -0.081542 -0.004552 0.034629 -0.080494 0.076425 -0.084564 -0.158960 0.042455 -0.061874 0.084693 -0.085047 0.064553 -0.056410 -0.090306 0.048828 -0.004804 -0.024948 -0.014644 -0.049479 -0.062964 0.158620 -0.013864 -0.019656 -0.029782 0.097419 -0.018793 0.053526 0.001173 0.085630 0.020327 0.013070 0.028646 0.025866 -0.129150 0.053713 -0.036805 0.005970 -0.040384 -0.028715 -0.028209 0.048847 -0.056764 -0.033751 0.047110 0.007358 -0.012229 0.038101 0.015632 0.039636 -0.114140 0.030052 0.129420 0.000119 0.079070 0.086038 0.002438 -0.129420 -0.034490 -0.109940 -0.033754 0.027308 0.068212 -0.034539 0.022086 -0.076335 0.031912 0.024330 0.110180 0.020548 0.036920 -0.016550 -0.111040 -0.003838 0.102020 0.017524 0.021156 -0.100550 -0.094814 0.021377 -0.000439 0.052235 -0.177530 -0.100240 -0.128420 0.021830 0.014476 -0.088813 -0.044958 -0.011771 0.046769 -0.005093 -0.047356 0.025489 -0.136070 -0.075548 -0.039547 -0.032197 -0.033447 -0.089119 0.065811 -0.005979 -0.105720 -0.016617 -0.024070 -0.041793 -0.004743 0.041435 0.001890 0.106680 0.065557 -0.087906 0.035934 0.162880 0.055893 -0.160710 -0.109740 0.021737 -0.034644 0.010006 0.082202 -0.020513 0.039322 -0.074266 0.125420 -0.028675 0.044238 0.007933 0.101080 -0.001184 -0.036314 -0.094571 -0.021156 -0.146210 0.023549 0.007109 0.049906 0.041803 -0.086957 -0.122110 0.031898 -0.052812 0.046382 0.080375 -0.140330 -0.005827 -0.006501 0.037620 0.044900 0.062314 0.119190 0.092879 -0.146520 -0.039841 -0.110540 -0.045541 -0.094083 -0.046247 -0.149060 -0.105050 -0.097377 0.028441 0.001668 0.101490 -0.071861 -0.089158 0.007198 0.025175 0.090058 0.106860 -0.062839 -0.148390 0.072524 -0.052090 0.147870 0.081146 0.094764 0.137370 -0.057291 0.001637 0.019837 0.028856 0.080154 0.016173 0.003821 0.073330 0.034301 0.011992 -0.005798 0.048101 0.112900 0.005533 0.051988 -0.028763 0.027697 -0.046483 0.045610 -0.002959 -0.029037 0.080512 0.111970 -0.084422 0.085230 -0.064410 -0.027353 -0.029938 0.069083 -0.022797 0.021870 0.014088 0.055969 -0.061866 -0.091626 -0.028027 0.055415 0.019041 -0.005039 -0.014435 -0.026251 0.010673 0.003177 0.048785 0.074199 -0.030782 -0.105680 -0.021397 0.058793 -0.025057 -0.089267 -0.155930 -0.011319 0.050088 -0.024499 -0.045611 0.006718 -0.052501 0.104030 -0.016149 0.002399 -0.154410 0.097127 0.012533 -0.130250 0.071613 -0.038457 -0.027853 0.138140 0.053808 0.147390 -0.071254 -0.034747 0.103800 0.054514 0.054254 -0.016896 -0.177610 -0.017100 0.100420 -0.037413 0.074064 0.077894 -0.131440 0.070582 -0.064389 0.000465 0.077225 0.162750 -0.012303 0.007278 -0.058029 0.144170 -0.025303 -0.008076 -0.144730 0.028161 0.149110 -0.059557 -0.074535 -0.004982 -0.080876 0.061764 -0.063126 0.003818 -0.062891 0.017587 -0.022329 0.029304 -0.013665 0.019145 -0.016297 0.167380 0.077535 -0.051653 -0.014775 0.078502 -0.149960 -0.124240 -0.054107 0.166560 0.056963 -0.009686 -0.164700 -0.014861 -0.026378 -0.035220 0.141830 -0.074715 -0.026642 -0.072348 0.095332 -0.028973 0.091546 -0.052393 0.073283 -0.067830 0.145410 0.013853 0.030922 -0.033538 0.028800 0.026947 -0.028452 0.002492 -0.058924 -0.016079 0.066880 -0.004906 -0.020372 -0.079487 -0.021673 -0.016601 -0.064477 0.078609 -0.059913 -0.016510 0.112280 0.136240 0.316790 0.046088 0.040479 0.126140 -0.134590 0.155980 0.152490 -0.026337 -0.061152 -0.052802 0.085374 -0.066254 -0.082201 -0.011806 0.243000 -0.126710 0.198520 -0.087538 0.160100 0.115280 0.212180 0.105870 0.155920 -0.058835 0.054878 0.299610 0.017522 -0.113510 0.136410 0.145330 -0.242970 -0.263270 -0.053017 -0.331920 -0.097306 0.154530 0.050027 0.164080 -0.074402 -0.091701 -0.204480 0.209710 -0.009069 -0.089864 -0.001087 -0.114460 -0.217140 0.023770 0.059427 -0.051238 -0.281710 -0.096552 0.155470 -0.068557 -0.000094 -0.067081 -0.036986 -0.087675 -0.036434 -0.089247 -0.021556 -0.186860 -0.036323 -0.750680 0.212250 -0.018174 0.057006 -0.149620 0.031908 0.112210 -0.017044 -0.043610 0.283400 -0.022499 0.110370 0.064108 -0.079965 0.088942 -0.152500 -0.257550 -0.029465 0.217130 0.058213 0.052572 -0.292540 -0.276240 -0.289420 0.002066 -0.134750 0.012277 -0.096369 -0.067022 0.488260 0.119710 -0.047143 0.278270 -0.011251 0.120810 -0.063610 -0.029097 0.027116 -0.127910 0.016343 -0.074366 -0.015023 0.132400 0.116830 -0.008110 0.091923 -0.048325 0.179290 -0.041503 0.025252 -0.071378 -0.043768 -0.118090 -0.021627 0.006199 -0.076467 0.062271 -0.057020 0.069293 0.076539 0.024693 0.054899 -0.051561 0.005701 -0.106890 0.045575 0.002445 -0.085565 -0.063480 -0.011552 -0.111150 0.018539 -0.072884 -0.012742 0.049218 0.080095 -0.079611 0.038857 0.008125 -0.020538 -0.058357 0.055548 0.016730 0.015736 -0.005330 -0.018782 -0.071167 -0.011628 -0.055827 0.008279 -0.081829 -0.112530 -0.135690 0.030754 -0.197110 0.029612 0.046226 -0.114390 -0.058115 -0.056285 -0.054063 -0.029996 -0.016760 0.056706 -0.139760 0.018056 0.000067 0.131670 0.087137 0.086911 -0.091117 0.057172 0.012975 0.165380 0.010454 -0.014870 0.082706 0.040987 -0.001090 -0.057370 -0.045150 -0.049417 0.012491 0.120470 0.058850 -0.057981 -0.061241 -0.063131 -0.027273 -0.037664 -0.021892 0.048542 -0.000807 0.112090 -0.006697 0.085830 -0.122910 0.031450 -0.014237 0.010394 -0.012553 -0.018971 -0.037428 -0.118970 -0.063897 -0.012891 0.032196 0.065126 0.110300 0.059453 -0.103430 -0.050517 -0.009042 -0.002903 -0.049290 0.039887 -0.062538 0.011364 -0.011543 -0.008398 -0.004828 0.099551 -0.099570 -0.016855 0.041048 -0.001867 -0.046097 -0.011953 -0.025187 -0.031775 0.045785 0.058135 -0.041370 -0.104160 0.018771 0.000419 -0.019962 -0.071595 -0.067669 0.115940 0.012223 -0.003687 -0.070297 -0.021242 0.060310 -0.081340 -0.017788 0.003686 -0.042606 0.011085 0.085289 -0.013023 0.042024 0.025046 -0.084954 -0.054273 -0.078958 -0.044932 0.017785 0.006135 0.106440 0.019794 -0.011010 -0.106240 -0.072718 -0.041475 0.067971 0.060946 0.032785 0.019134 0.032844 0.152460 -0.026317 -0.156840 -0.078397 -0.008551 -0.072151 0.036916 -0.062306 -0.083117 -0.009702 -0.005724 -0.052138 -0.012366 -0.114180 -0.017596 -0.069904 -0.042703 -0.103470 0.007165 0.086500 -0.044618 0.169870 0.015806 0.011960 -0.004733 0.097706 -0.007186 -0.097470 -0.019809 -0.027620 -0.078977 0.010442 -0.021843 0.066807 -0.075764 0.102950 0.034794 0.048849 -0.015398 0.043789 0.001363 0.029277 -0.030061 0.000821 -0.025753 -0.041615 -0.054650 0.024801 0.068605 0.008374 0.111240 -0.044193 -0.171410 -0.039261 0.101160 -0.071450 0.052100 0.054297 0.166460 -0.050212 -0.118590 0.108360 0.044379 -0.071967 -0.068571 0.094897 0.092232 -0.092987 0.027003 0.007450 0.076426 -0.029520 -0.093562 0.180430 -0.068217 0.045799 0.030069 0.008685 0.044362 0.028792 -0.014436 -0.068987 0.095078 -0.012386 -0.092666 0.063578 0.044619 -0.013084 0.001054 -0.060687 0.053738 0.086950 0.008663 0.048619 -0.008055 0.076582 0.021930 -0.083234 -0.005637 -0.038458 0.074848 0.093252 -0.000847 -0.053546 -0.005081 0.054707 -0.098298 -0.005520 -0.002791 -0.025530 0.036732 -0.006496 -0.049449 -0.005384 -0.025038 -0.022903 -0.009563 0.044399 -0.046021 -0.055872 -0.072066 -0.033726 -0.043617 0.003184 -0.020529 0.075415 -0.024528 -0.041433 -0.013981 0.005523 0.003132 -0.038849 0.034029 0.001284 0.010287 -0.039437 -0.137190 0.037955 -0.050733 0.044009 -0.063436 -0.067274 -0.056813 -0.005515 -0.039304 0.095945 -0.015941 0.003847 0.091286 0.075543 0.066037 -0.059334 -0.071388 -0.008007 0.016437 -0.100460 0.013256 0.052563 -0.028253 0.089656 -0.030025 -0.022479 0.012521 -0.019949 0.043538 0.025804 -0.119230 0.049484 0.047945 -0.033146 0.122790 0.012238 -0.052662 0.011948 -0.121630 0.024256 -0.040469 -0.002020 -0.113100 -0.043151 -0.054395 -0.000203 -0.041148 -0.031358 -0.017856 0.014883 0.047054 0.015718 -0.015284 0.087899 -0.012997 0.012344 0.075228 -0.023526 -0.084251 -0.025142 0.011614 0.090761 -0.060412 0.049254 -0.006324 -0.023378 0.060418 0.016824 0.002498 0.000829 -0.029561 0.001897 0.093462 0.057943 0.078139 -0.007226 -0.060916 0.109640 -0.016250 -0.040549 0.066371 0.020027 0.006878 -0.039057 -0.047369 0.003834 -0.002776 0.000244 0.056908 0.007554 0.010440 -0.018875 -0.007800 0.025360 -0.032071 -0.047351 0.030449 -0.013760 -0.092054 -0.006866 -0.056220 0.139820 -0.012988 0.028370 0.064362 0.037228 0.033406 0.035809 -0.019010 0.031287 0.040912 -0.050573 -0.103860 0.011493 -0.026028 0.110680 0.033582 0.059349 0.035055 -0.047951 -0.059184 -0.014320 -0.036594 -0.101330 -0.002776 -0.071215 0.028390 -0.011358 -0.070810 -0.054522 -0.050372 -0.033257 0.048081 0.000362 -0.015370 -0.043072 -0.043707 -0.019964 -0.031080 0.037469 -0.014256 -0.046034 -0.035223 0.108970 0.043782 -0.006436 0.022548 -0.086168 0.001103 0.013490 -0.055405 0.015434 0.020424 0.026626 0.025583 -0.027549 -0.045316 0.061600 0.079392 -0.038235 -0.028417 -0.012420 -0.024156 0.000386 0.104160 0.004288 -0.012736 -0.046863 0.089409 -0.062766 -0.044844 -0.069795 -0.042274 -0.016651 0.041185 0.012515 0.016945 -0.050158 0.065439 0.030469 -0.011566 0.015080 -0.065642 0.050735 -0.035027 0.013832 -0.016650 0.020390 -0.007083 0.069081 -0.034583 -0.054208 0.049186 0.058865 -0.013822 0.098290 -0.031978 -0.005127 0.051051 -0.070295 0.037241 -0.044710 -0.062193 -0.060514 -0.048267 -0.000063 0.037899 -0.004953 -0.046400 0.091543 0.085083 0.038468 0.077843 -0.041438 -0.041961 0.081148 -0.099092 -0.005062 0.248720 -0.009960 0.052517 0.050221 -0.065011 0.044287 -0.034857 0.115950 -0.002304 0.092638 -0.136750 0.013654 0.046891 0.160150 0.087544 -0.020921 -0.056155 -0.034064 -0.157490 0.057963 -0.037229 0.039827 0.000259 0.031977 0.031140 -0.078147 -0.090982 -0.088107 -0.016818 0.074430 -0.021412 -0.012823 0.212890 -0.005524 0.034197 0.083717 0.088444 -0.004471 0.026739 -0.062015 0.060534 0.076566 0.105490 0.037453 -0.026880 -0.161900 -0.000144 -0.095848 0.087291 0.118560 -0.184590 -0.070174 -0.047422 -0.026251 -0.029028 -0.070577 -0.047122 0.004147 0.064404 -0.026967 0.044778 -0.044685 -0.011149 -0.005410 -0.049945 0.158330 0.007967 -0.242830 -0.019596 -0.046966 0.065703 0.016318 0.012553 0.009511 0.062328 0.180510 -0.042810 0.060944 -0.112890 -0.042356 0.051687 -0.103460 -0.093917 0.038307 -0.039257 -0.004523 -0.001508 0.125500 0.041475 -0.020757 0.086835 -0.133240 0.039424 -0.075580 -0.218040 0.008134 0.060063 -0.135010 0.089366 -0.026764 -0.006310 0.060787 -0.053675 0.047511 0.009842 0.061889 -0.089534 0.077275 0.123960 -0.031503 -0.004765 0.148810 0.055366 -0.150620 -0.034361 0.056401 0.032927 -0.087595 -0.158450 0.005698 0.011014 -0.017408 0.064112 0.065039 0.138330 -0.061932 -0.022482 0.088676 0.054995 0.007692 -0.027137 -0.057058 0.026885 -0.065111 -0.093364 -0.005439 0.098973 -0.030508 -0.243990 0.014191 -0.096970 0.038436 -0.060555 0.049704 0.056965 0.025295 0.020006 -0.093350 -0.142140 0.025355 0.085951 -0.087004 0.002951 -0.227980 -0.166280 0.110300 0.203790 -0.145610 -0.100980 -0.033176 -0.050745 -0.028814 0.078705 -0.042599 0.007208 -0.080439 -0.059445 0.026429 -0.163840 0.153260 0.131270 0.092543 -0.061151 -0.058250 0.067151 -0.052017 -0.149570 0.059434 0.022044 -0.016767 0.144090 0.001485 0.088064 -0.109350 0.103450 0.116500 0.114970 -0.140830 -0.055551 0.067794 -0.105930 0.085316 0.059872 0.040103 -0.042280 -0.165350 -0.072380 0.078470 -0.009035 -0.099391 -0.006982 0.021819 -0.007923 0.019967 0.046118 -0.012446 -0.039340 0.123150 -0.013641 -0.087702 0.027287 0.019080 0.081251 0.053391 0.034678 0.050103 -0.005938 0.137980 0.114670 0.045584 0.021349 -0.100810 0.032372 0.074111 -0.009392 0.092746 0.058139 0.124840 -0.052552 -0.068308 -0.085138 -0.038846 0.067298 0.011577 -0.013481 0.010653 0.036655 -0.118820 0.020917 0.008526 -0.039314 -0.007399 -0.022106 -0.037697 0.009375 -0.068801 0.070232 -0.115540 0.033166 0.010482 0.087960 0.051897 -0.039376 -0.043934 0.050098 0.025866 0.046712 -0.043083 0.150900 0.034418 0.041700 -0.031898 0.029392 -0.059719 -0.101770 0.000321 -0.022054 -0.093253 0.022703 0.077805 -0.060373 -0.030022 -0.079477 0.125950 0.073112 -0.102900 -0.072532 0.015472 -0.024228 0.134410 -0.069647 -0.026396 -0.037544 -0.023812 0.074392 0.052301 0.065048 0.020007 0.033404 -0.070283 0.061513 0.053701 0.043992 -0.029309 0.047379 0.013993 0.031466 -0.001817 -0.091618 -0.020209 -0.042774 -0.035442 -0.036740 0.055513 -0.039023 -0.006845 -0.057243 0.122420 -0.004246 -0.027489 -0.053884 -0.029333 -0.017552 -0.072506 0.039921 0.079379 -0.043045 -0.036366 -0.029729 0.151720 -0.073721 0.003322 0.139990 -0.038206 0.104410 0.012172 0.072240 -0.027478 0.002641 0.116690 -0.075218 -0.039541 -0.007655 -0.089765 -0.010574 -0.078988 -0.077199 -0.008334 0.026522 -0.056344 -0.139430 -0.011335 0.050136 -0.011818 0.048920 0.123510 -0.031070 -0.009458 -0.038534 0.037006 -0.072173 -0.098257 -0.031355 -0.052190 -0.115490 0.059800 0.052868 0.061880 -0.014911 0.004719 -0.099485 -0.174220 -0.068679 0.052624 -0.039615 0.073210 0.092062 0.064307 -0.010870 0.098951 0.036086 0.040066 0.102920 -0.029599 -0.058257 0.060393 0.187520 0.010868 -0.007592 -0.129800 -0.145070 -0.030356 -0.140580 0.033398 0.080606 -0.195850 -0.090401 -0.086936 -0.104870 0.004706 0.008769 0.107330 -0.113500 -0.124150 -0.098126 -0.036098 0.014509 0.048137 -0.021770 -0.005358 -0.020215 -0.086460 -0.016975 -0.067789 -0.211280 -0.066810 0.100420 -0.033076 0.083591 -0.075315 -0.021855 -0.037039 -0.051561 0.135200 -0.181580 0.062920 0.060312 0.048173 0.007242 0.097387 0.100790 -0.014135 -0.116960 -0.040933 0.035080 0.051791 -0.120250 0.071659 0.093770 0.084459 0.047241 -0.047203 -0.055180 -0.012252 -0.009339 -0.002243 0.062386 -0.131280 0.045391 0.054670 0.079413 -0.060353 -0.095096 -0.081196 -0.057475 0.017449 -0.054333 -0.063704 -0.140220 -0.071305 -0.024143 -0.052488 -0.020433 -0.141850 -0.056205 -0.110070 -0.050678 -0.016495 0.156670 -0.085298 0.049159 -0.019990 -0.052132 -0.014050 -0.026745 0.060814 0.140170 -0.029970 -0.022457 -0.034543 -0.023481 -0.137060 -0.104630 0.019950 0.099308 -0.013652 -0.054374 0.092425 0.043920 -0.050924 0.020687 0.035761 -0.012096 0.057572 -0.011117 0.013585 -0.076448 0.046125 0.051781 0.038721 -0.035078 0.027652 0.037887 -0.041240 0.040841 -0.125260 0.071685 0.039339 0.072968 -0.150860 0.011962 0.154150 0.127290 0.126990 -0.068408 0.037056 -0.022908 0.125090 0.127500 0.071273 -0.057779 0.074477 0.006469 0.067702 -0.066645 -0.092618 -0.047722 -0.000885 -0.052865 0.040646 -0.089928 -0.113610 -0.179830 -0.000530 -0.086605 -0.234420 0.124260 0.036273 -0.105850 0.041847 0.110770 -0.012419 0.074919 0.115780 -0.142190 -0.037433 -0.066713 0.005102 -0.052987 0.002142 0.142900 0.054682 -0.012751 0.076316 -0.079173 -0.049519 -0.044257 0.019295 0.000159 -0.104900 0.001707 -0.086300 -0.016439 0.021871 0.065061 -0.020830 -0.017456 -0.098018 0.113730 -0.080738 -0.066594 0.069971 0.041333 -0.057825 0.083634 0.049741 -0.047984 -0.044693 0.090342 0.012498 0.026746 0.054323 0.030789 0.030108 0.006669 0.030612 0.043194 0.091557 -0.049742 -0.065231 0.100040 -0.164040 -0.013607 0.060801 -0.122950 0.010815 0.018115 -0.000713 -0.170870 0.002988 -0.054909 0.080321 0.087465 -0.027332 0.128410 -0.009852 0.090869 -0.108760 -0.019160 0.056622 -0.028538 0.024521 0.041268 -0.131750 0.094851 -0.057439 0.162820 0.077449 0.062312 0.021169 0.028205 0.097175 -0.008482 0.024376 -0.008833 -0.001235 0.173830 -0.045414 0.015002 0.019432 0.151140 0.033336 -0.053471 0.058697 -0.146220 -0.037015 0.010232 0.151650 0.061221 0.174130 0.066103 0.034139 0.042047 0.115890 -0.043177 0.073260 0.115260 0.012444 -0.070989 0.088467 0.010518 0.052630 -0.067373 -0.037994 -0.043081 -0.038540 -0.039078 0.138280 -0.019291 -0.023667 0.074932 -0.099019 -0.089003 -0.110910 0.014658 -0.111920 -0.172380 -0.031255 -0.078759 0.079120 0.054194 0.111540 0.041901 0.139310 0.091671 0.067920 -0.078148 -0.083859 -0.044746 -0.022357 -0.179360 0.062508 0.056716 -0.004667 0.124150 0.013892 0.093686 0.113150 -0.117680 -0.017191 0.010464 -0.064554 0.076383 -0.002463 -0.008890 0.024177 -0.065590 -0.109090 0.091060 0.128570 0.024913 -0.065072 -0.148470 -0.148320 -0.029267 0.136840 0.057786 -0.040225 0.624460 0.254740 0.431200 0.049029 0.025231 -0.029017 -0.011032 0.034778 0.080708 -0.112880 -0.064824 0.009937 0.528110 -0.170580 0.144730 0.100610 -0.020393 0.056951 -0.031781 0.058474 -0.202740 -0.000058 0.783140 -0.045729 -0.465520 0.278540 0.312220 0.308240 -0.067616 0.117760 0.047104 -0.089463 -0.026505 -0.064197 0.131370 -0.005291 -0.055988 -0.024920 0.017651 -0.189500 0.104170 0.049546 0.028186 -0.112630 -0.026085 0.071431 0.444320 0.495730 0.129370 0.012104 0.011152 0.030256 -0.002698 -0.116390 -0.279850 -0.136020 -0.141020 0.288510 -0.340030 -0.025795 -0.007271 0.011073 0.015919 -0.285670 -0.161340 0.392590 -0.599150 0.001239 0.098179 -0.039225 0.020749 0.257230 0.131780 -0.204130 0.139890 0.006335 -0.050398 -0.070203 0.007548 0.175410 -0.041870 -0.109300 -0.378170 0.122310 -0.008545 0.099135 0.291940 -0.082994 -0.004374 -0.096779 0.011376 -0.043484 -0.002543 -0.108740 -0.096975 -0.013322 -0.105600 0.264960 0.122660 -0.095978 0.080143 0.056239 -0.210230 0.113210 -0.144180 -0.101760 -0.091841 0.030727 -0.052884 0.428980 0.069859 -0.043634 0.071832 -0.018553 -0.004459 0.125940 -0.013900 -0.019377 0.104800 0.008807 -0.003089 0.020807 0.021205 -0.008768 -0.034317 0.003133 -0.007078 -0.051436 0.032484 0.083854 -0.092459 0.009872 -0.078841 0.000716 -0.073438 0.022951 -0.194720 -0.037919 0.012380 0.022120 0.028504 -0.119000 -0.003994 0.033526 0.001817 -0.062736 -0.024407 -0.000943 -0.052992 -0.010148 0.029707 -0.031397 0.142430 -0.081195 0.035277 -0.048192 0.028525 -0.160970 0.017866 0.105150 0.177410 0.047327 0.050136 -0.058073 0.004343 -0.043235 -0.104240 0.034959 -0.055213 -0.031193 0.020174 -0.052679 -0.020614 0.030359 -0.141310 0.182260 0.016842 0.042877 0.022638 -0.014451 -0.025928 -0.033570 0.026973 0.047673 -0.140010 0.068909 0.068934 -0.030542 0.129120 -0.054112 -0.035898 0.058797 0.032432 -0.099664 0.104570 -0.010914 0.058827 0.000639 -0.044496 -0.029123 -0.097720 -0.054794 -0.010464 -0.080671 0.030881 0.070357 0.010835 -0.081563 -0.015315 -0.048284 0.065448 -0.080452 0.095457 -0.192880 0.029673 -0.149860 0.035885 0.030313 0.023610 -0.092304 0.009172 -0.066308 0.028448 0.073107 -0.015053 -0.072935 0.145590 0.107490 -0.145140 -0.173600 0.047049 0.014449 0.038426 -0.018440 -0.096531 0.009149 0.083161 -0.054484 -0.084965 0.075923 -0.000942 -0.071711 -0.006174 -0.055135 0.002343 -0.026092 -0.065647 0.078344 0.040779 0.075091 0.062056 -0.003376 0.053662 -0.029324 -0.095235 0.044119 -0.017889 -0.103710 -0.079424 -0.107250 -0.095898 0.038074 -0.027345 -0.049710 -0.079616 0.161810 -0.046917 0.083431 -0.063487 -0.041094 -0.029889 0.049768 -0.028646 -0.014618 -0.064545 0.063401 0.071623 0.092243 -0.129090 0.052507 -0.078327 -0.038465 0.032385 -0.056634 0.086337 0.074845 -0.077599 0.001023 0.057083 -0.035328 -0.059393 0.052619 0.045405 0.000996 0.033604 -0.053751 0.026587 -0.019059 -0.121400 0.040932 0.061543 0.039941 0.146900 0.044020 0.055911 0.064292 -0.067444 0.085752 -0.115220 0.024234 -0.035179 0.032346 -0.185840 0.019071 -0.022202 -0.067096 0.125880 0.086360 0.051439 -0.088584 0.024451 -0.098416 0.049123 -0.054796 0.086658 -0.033890 0.068617 -0.011428 0.070950 0.069677 0.004296 0.024656 -0.004222 0.120770 0.058343 0.027956 -0.151550 0.055812 -0.076793 -0.059122 -0.000352 0.015151 0.041267 -0.076765 -0.065518 0.146730 0.057246 -0.101100 -0.027755 0.068696 -0.002034 0.047696 -0.124590 0.027005 -0.014197 0.061527 -0.050294 0.047791 -0.057271 0.073808 0.068815 -0.043530 -0.249570 0.054103 -0.075621 -0.020103 0.076361 0.056487 -0.070171 0.034859 0.063035 0.014655 -0.098360 0.010638 -0.140350 0.098303 -0.114710 0.086599 -0.049280 0.066629 -0.013612 -0.148250 0.053407 -0.011781 -0.036817 0.072917 -0.226450 -0.166470 0.009815 0.016463 -0.067975 -0.015616 0.008755 0.017633 -0.011942 -0.061043 0.007188 -0.106510 0.069563 0.012522 -0.060685 -0.026245 0.003297 -0.010720 -0.002250 -0.030118 0.066536 0.077111 0.000167 0.127010 -0.010663 -0.006822 0.181720 0.020945 0.032014 0.147080 -0.038776 -0.106940 -0.135070 0.055584 0.013486 0.021456 -0.053970 -0.151380 -0.054362 -0.026545 0.097395 -0.002259 0.141330 0.105760 -0.051322 0.028203 -0.064710 -0.008983 -0.094828 -0.028280 0.099448 0.085039 0.143010 -0.061148 0.003739 -0.052430 -0.035889 -0.130500 -0.086151 0.095936 0.016041 0.109920 0.034452 -0.032557 0.103130 0.037337 0.134580 0.021572 0.062475 -0.012003 0.158250 -0.113000 -0.035918 0.013420 0.036312 0.010781 0.056549 0.029674 -0.048258 -0.104740 0.133020 0.096098 -0.002816 0.077692 0.043020 -0.080332 0.000036 0.001662 0.057879 0.006952 0.085345 -0.067679 -0.039100 0.004373 0.067598 -0.190310 -0.065443 0.072126 -0.018456 -0.118750 0.178800 -0.018769 -0.004860 0.133410 0.108820 -0.033083 0.085794 -0.025820 0.025381 -0.001970 -0.028591 0.067931 0.028401 0.028595 -0.005823 -0.201930 0.057594 -0.190230 -0.187450 0.078428 -0.197330 -0.073560 -0.019780 0.077577 -0.043108 -0.044666 -0.015732 -0.045410 0.159660 -0.005000 0.066761 0.082099 0.019551 -0.063613 -0.123530 0.045690 -0.144610 -0.052083 -0.034237 -0.039312 0.098547 0.029738 -0.022633 0.007378 -0.021665 -0.082637 0.073332 -0.047276 0.005718 -0.144250 -0.084426 -0.090632 -0.113520 0.006990 -0.015223 -0.003121 0.071730 0.076641 -0.060856 -0.072911 0.065658 -0.092046 0.042077 -0.081712 -0.160210 0.017616 -0.157940 -0.063973 -0.013873 -0.074804 0.002627 0.126870 0.013397 -0.046853 0.115970 -0.079841 -0.018715 -0.120660 -0.080759 0.020448 -0.122240 -0.002166 0.161810 -0.106460 -0.083536 -0.016696 0.131700 0.021584 0.066029 0.071870 -0.008835 -0.023463 0.078457 0.052984 -0.020585 0.076359 0.040283 -0.013000 -0.099674 -0.001479 -0.065704 -0.007249 -0.063588 0.041985 -0.099636 -0.031107 -0.013654 -0.127700 -0.023662 0.078643 -0.064267 -0.022409 0.033767 -0.031618 0.034925 0.020264 -0.024409 0.024945 0.031705 0.049523 0.027920 -0.028827 -0.003574 0.138730 -0.026669 -0.082514 -0.025050 -0.000927 0.003309 -0.128660 -0.014633 -0.072459 -0.009950 -0.077318 -0.096013 0.017970 -0.138510 0.013790 -0.033467 -0.034147 -0.007641 0.018431 0.058724 0.025537 -0.085451 -0.030399 0.044159 0.004009 -0.055799 0.024365 0.002372 0.042250 -0.035431 0.102550 -0.043410 0.033841 -0.023219 0.056850 0.014063 -0.054963 -0.031144 0.008070 -0.111650 -0.071451 -0.000919 0.066686 0.115760 0.038839 0.050345 -0.116170 -0.063526 -0.074773 0.080392 0.002402 -0.007779 0.005346 0.158790 0.127860 -0.056639 0.091583 -0.113760 0.042078 -0.107580 -0.045269 -0.027475 -0.033709 0.059586 -0.004172 -0.007890 -0.082394 0.190000 0.103690 -0.072803 0.007044 0.077606 -0.057080 0.019880 -0.143440 0.031636 -0.090728 -0.007329 -0.132190 0.013697 0.037211 -0.036758 -0.000476 -0.107960 -0.009632 0.037471 -0.039321 -0.182470 0.053253 0.058633 0.137540 0.029653 -0.084915 0.057580 -0.050969 -0.025775 0.062523 0.037667 -0.023264 -0.068356 -0.077347 0.055674 0.037374 -0.120110 0.058480 0.024966 -0.000779 -0.118050 -0.088974 -0.009708 0.093047 -0.051830 0.073701 -0.119920 -0.083162 -0.001228 0.067773 -0.068017 0.027133 -0.015115 -0.016357 -0.002444 -0.060899 -0.060048 0.101360 0.039452 -0.034524 -0.022463 0.044586 -0.038568 -0.006066 0.011263 0.012806 -0.018147 -0.145900 0.001007 -0.079295 -0.004056 0.083638 -0.041491 0.074812 -0.017928 0.158870 0.093714 -0.062521 -0.067383 0.066427 -0.057834 -0.037074 -0.084143 -0.063720 0.078572 0.106960 -0.057347 -0.131100 0.098160 -0.076391 0.072464 0.088530 0.036902 0.061946 -0.057575 -0.032318 -0.076080 0.013980 -0.034404 -0.033951 0.007461 -0.005700 -0.037251 0.026082 0.058115 0.002982 0.029329 0.109040 0.113550 0.004901 0.020585 -0.058498 0.055267 0.013848 -0.090424 0.007937 0.044832 0.115290 0.008074 -0.061245 0.011085 -0.086428 -0.001805 0.092115 -0.015624 -0.047038 -0.008235 -0.073489 0.023702 -0.023225 -0.109440 0.046017 0.017102 0.003144 0.064266 0.052685 -0.054472 0.132230 0.009784 -0.068084 0.047500 0.014458 -0.047439 -0.074583 -0.036939 -0.018839 -0.116680 -0.052955 0.023769 -0.007712 0.023807 -0.083404 0.073896 -0.050954 0.196580 0.055391 -0.045971 -0.004955 -0.035419 -0.030567 0.028694 -0.001906 -0.139300 0.024416 -0.011804 0.047345 0.053189 -0.019183 0.080724 0.024731 -0.108480 0.010437 0.091725 -0.097102 -0.038032 -0.106060 -0.025489 0.036989 0.069839 0.161480 -0.008574 -0.040316 -0.034097 -0.047113 0.034621 0.107110 -0.107930 0.058568 0.002221 0.090186 0.108890 0.020962 -0.009927 -0.000879 0.040794 0.150980 -0.044148 0.018899 -0.004878 0.115600 0.088593 0.056615 -0.158710 0.056601 -0.005543 0.104680 -0.080640 0.100130 0.078915 -0.040216 -0.010266 -0.011370 -0.081848 -0.038387 -0.004671 0.004770 -0.045820 -0.061927 0.042627 0.116980 0.067131 0.065306 -0.023199 0.039647 -0.011284 0.068860 -0.028715 -0.030031 -0.009637 0.107190 0.027567 0.097337 0.027358 -0.144330 0.069304 -0.085529 -0.096639 0.042305 0.103170 0.193050 -0.057464 0.031510 -0.128730 -0.007077 0.093489 0.075755 -0.054173 0.004239 -0.058445 0.080902 0.005922 -0.093108 -0.010807 0.055018 -0.052450 -0.098853 0.065494 -0.148980 -0.044669 0.066029 0.051760 -0.015897 -0.050352 0.168640 0.016685 -0.058835 0.055287 0.024029 0.110230 -0.045148 -0.053101 -0.009177 -0.023611 0.129030 0.016815 0.000795 0.115060 -0.118380 -0.009475 -0.111410 -0.011183 -0.107540 -0.011456 -0.065111 -0.087011 0.038128 -0.237800 0.050685 0.091519 0.021635 -0.098545 -0.019312 -0.177930 0.283800 0.053179 0.409150 0.115310 -0.016027 -0.056641 -0.031105 -0.206230 0.108150 -0.012399 -0.276050 -0.356490 0.020522 -0.062636 -0.144020 0.217460 -0.313620 -0.099001 0.163670 0.092453 -0.135050 -0.004775 0.009810 0.091262 -0.003994 0.116010 -0.223760 -0.151250 0.074505 0.022921 0.107500 0.352460 -0.106390 0.041214 -0.044289 0.195230 -0.054462 -0.070792 0.197040 0.009884 -0.038095 0.144370 0.092704 0.039534 -0.035241 -0.114180 -0.179690 0.093760 0.332390 -0.120850 -0.105920 -0.070902 0.106860 -0.028339 0.161270 -0.003173 0.138830 0.118550 -0.075119 0.060009 0.041167 0.067311 -0.131360 -0.217110 -0.024515 0.053642 -0.097884 -0.005558 0.103960 0.144880 -0.008028 0.109360 0.027556 -0.044667 0.048208 -0.071516 0.221290 0.067497 -0.075326 -0.062038 -0.035258 0.000805 0.044539 -0.050394 0.024245 0.087425 0.151350 -0.069261 -0.012426 -0.039164 -0.077538 -0.070763 -0.098685 -0.035672 0.023042 0.018930 -0.088475 -0.010148 -0.021643 0.050385 0.108080 0.227370 0.097724 0.230820 -0.084859 0.025792 -0.073781 0.007567 -0.067039 -0.065130 0.045381 -0.029184 0.008446 -0.017059 -0.106470 0.039573 0.056826 -0.071366 0.124020 -0.053854 0.021128 0.030723 -0.004321 -0.062297 -0.031643 -0.073254 -0.038118 0.055886 0.006812 -0.013690 0.059668 -0.131620 -0.029802 -0.108690 0.045485 0.077967 0.039676 -0.033302 -0.019079 0.138360 -0.140610 -0.010643 -0.033217 0.075909 -0.057217 0.038596 -0.041322 0.045965 -0.106670 0.000193 0.018802 0.005672 0.098148 0.129380 -0.045243 0.083542 0.088367 0.036120 -0.050756 -0.123510 -0.033530 -0.102920 -0.119950 0.034779 0.098936 -0.006968 0.078877 0.124960 -0.028399 -0.016944 -0.032021 0.051850 -0.043861 -0.005041 0.059880 0.012277 0.021254 -0.115190 -0.133470 0.232190 -0.056375 0.049629 0.060385 -0.023904 -0.138210 -0.018704 -0.111340 -0.126720 0.111650 -0.103220 -0.006090 0.001319 -0.041502 -0.033258 0.049562 -0.005145 -0.086220 -0.023264 -0.003566 0.015888 0.053018 0.020836 -0.087571 0.046052 -0.129190 -0.016158 -0.004930 0.036543 0.040734 0.028442 -0.045233 0.054790 -0.007284 0.039073 0.020054 -0.086313 0.009380 0.118400 -0.057427 -0.032141 -0.018437 0.058649 0.055465 0.103510 0.083580 0.205830 0.052109 -0.083857 -0.027934 0.118960 -0.003523 -0.064382 0.008628 0.024341 -0.012948 -0.131710 -0.031511 0.015437 0.043393 0.039427 0.030724 0.078183 -0.004023 -0.041254 0.038532 -0.025175 -0.020729 -0.015995 -0.002490 -0.031428 0.013224 -0.104480 0.004465 0.170750 0.038551 -0.042896 -0.039787 0.062806 0.075802 -0.082560 0.028060 -0.051287 0.027448 -0.017523 -0.003275 -0.030529 0.051124 0.105290 -0.023627 -0.004272 -0.017749 0.075654 0.063355 0.014076 0.076474 -0.008625 0.053872 0.038177 0.023135 0.012748 -0.016371 -0.034802 -0.077536 0.027418 0.100270 -0.008132 0.034683 0.057465 0.099651 -0.004236 0.029054 -0.068152 -0.128990 -0.019914 0.052789 -0.036054 0.009911 -0.091555 0.097740 -0.010308 -0.017435 0.031414 0.020065 0.058230 -0.036995 -0.068963 -0.017012 0.076198 -0.060391 -0.079549 0.016978 -0.058186 -0.061721 -0.051907 -0.074896 -0.018987 -0.074002 -0.222910 -0.070450 0.038018 0.008772 -0.060078 0.034140 0.071017 -0.022738 0.014922 0.008008 0.004802 0.067077 -0.003008 -0.063786 0.067698 -0.096386 -0.028094 -0.050160 0.033730 0.024440 0.099768 0.038396 0.039840 0.043434 -0.012019 -0.082808 0.042838 -0.023773 -0.048679 0.038881 -0.074423 -0.008139 -0.006504 -0.092956 -0.001244 -0.119280 0.022108 0.028052 -0.055500 0.009481 -0.018524 0.032177 -0.081889 -0.027875 0.057043 0.061813 -0.038374 0.034789 0.038617 0.035003 -0.053705 0.038612 0.154810 -0.039502 -0.020681 -0.048688 0.008209 0.086079 -0.029623 -0.012183 0.040629 -0.019125 0.159050 0.001945 0.068698 -0.098690 -0.050965 -0.084232 0.071440 -0.053938 -0.100360 0.124120 0.071553 0.011645 -0.116940 -0.141070 -0.117310 -0.027541 -0.030606 -0.109130 0.014954 0.127140 0.149680 0.198840 -0.090737 0.062853 0.014886 -0.056933 -0.016776 -0.055927 -0.034638 0.071187 -0.063173 -0.001132 -0.013549 -0.039728 -0.013188 0.095828 -0.011439 0.048507 0.058898 -0.019265 -0.103240 0.095321 -0.184450 -0.003669 -0.043593 0.108550 0.025209 0.102150 0.048507 -0.122750 0.031190 0.017948 -0.077686 -0.010416 0.072470 0.081978 0.092669 0.105130 0.009066 0.005528 -0.074479 0.070823 0.051489 0.126070 0.029302 0.124390 0.081123 0.019621 0.002013 -0.065377 0.107720 0.031926 -0.128550 0.154560 -0.050479 0.001373 0.029918 0.017004 -0.065509 -0.013484 0.038810 0.040340 -0.007691 -0.032546 -0.020788 -0.050527 -0.023514 0.021634 -0.031261 0.049018 0.073582 0.082655 -0.104810 -0.004729 0.022030 0.025120 0.103970 -0.057641 -0.099729 0.010078 0.047215 -0.096413 0.064042 -0.031789 -0.062555 -0.224270 -0.010805 -0.035195 0.014632 0.074125 -0.098355 -0.012298 0.051642 -0.144060 0.023531 0.131430 0.046307 -0.017474 -0.124380 0.148250 0.089978 0.012427 -0.077925 -0.006729 0.083645 0.024360 0.089548 0.026109 0.064897 0.019735 -0.041756 0.064269 0.117360 0.019058 0.020886 -0.019794 0.015214 -0.073846 -0.127790 0.107610 0.049344 0.034309 0.053080 0.030038 -0.043825 -0.017182 -0.006657 0.094581 -0.018759 -0.014524 0.028817 0.045910 -0.014797 -0.038054 -0.041071 -0.062769 -0.089900 -0.052123 0.044232 0.033358 0.048159 -0.041123 -0.040425 0.067334 -0.028074 0.003701 0.146630 0.051585 -0.034309 -0.090940 -0.011575 0.097218 -0.092832 -0.017016 0.044462 0.053627 0.031112 0.117870 0.158780 -0.117540 -0.035293 0.126670 0.070184 -0.023384 -0.019967 -0.000360 -0.034849 -0.025395 0.040331 -0.010252 0.042893 0.033570 -0.117920 0.101890 -0.184620 0.036147 0.058038 -0.167170 0.000106 0.028337 -0.013170 -0.025880 -0.035894 -0.001912 -0.027169 -0.055593 -0.128840 0.092413 -0.032879 -0.017564 -0.107430 0.054478 -0.091803 0.008254 0.067785 -0.042985 0.003124 0.118720 -0.043658 0.040231 -0.075813 -0.024543 0.011852 0.000478 0.009700 0.041607 -0.127400 0.152500 -0.015728 -0.083312 -0.038977 -0.001106 -0.099232 0.031548 -0.036775 -0.051739 -0.022486 -0.036672 0.060137 -0.181960 0.005573 -0.093721 0.060671 0.041453 -0.017522 0.065967 -0.100430 0.015336 0.036054 -0.036832 0.025052 -0.044844 0.047571 -0.066401 -0.000878 0.010920 0.021789 -0.084727 0.060091 -0.022038 -0.003122 0.074846 0.022955 -0.059812 0.087948 -0.054617 0.036375 0.080173 0.057954 0.021784 -0.099481 0.028592 -0.042482 0.047683 -0.004197 -0.032544 0.112840 0.028266 -0.038090 -0.110800 0.123020 0.031389 0.054816 -0.007941 0.018433 0.073692 -0.015037 0.049061 0.113860 0.045900 0.056639 -0.105240 -0.046092 -0.012320 -0.047410 -0.011548 -0.061678 0.019396 -0.087341 0.099800 -0.025850 -0.042263 0.025758 0.060354 -0.051168 -0.009545 -0.144640 0.111120 -0.066608 -0.086476 -0.048177 -0.001074 -0.057761 -0.012894 0.100640 -0.061121 0.030626 0.155820 0.001892 0.002501 -0.012400 0.024981 0.085006 0.073744 0.071161 -0.076918 0.027787 -0.053894 0.031351 -0.023307 -0.015663 0.003630 0.028416 0.057517 0.007520 -0.091190 0.031495 0.003658 -0.032953 0.059197 -0.056036 -0.010979 0.084387 0.059875 -0.016717 -0.018357 -0.029683 0.025316 -0.120900 0.009136 0.003635 0.069663 0.014424 -0.008720 0.039253 -0.020366 -0.039481 -0.001255 0.024951 -0.003321 0.025759 -0.057850 -0.003452 0.028064 0.008426 -0.053507 -0.000557 -0.010327 0.052212 0.053534 0.025891 0.113530 0.021970 -0.012751 -0.039851 0.023421 -0.018547 -0.005892 0.116700 -0.112770 -0.009084 -0.064112 -0.010933 -0.076868 0.068668 0.054875 0.000603 0.017911 0.041006 -0.083716 -0.057832 -0.007638 0.052306 -0.027395 0.027894 -0.051823 -0.022690 0.016720 0.065723 0.040189 -0.044523 -0.007319 -0.022055 0.040556 -0.095267 -0.004106 -0.016760 0.079717 -0.018208 0.027765 0.059253 0.068145 0.006539 0.023208 -0.063918 -0.023321 -0.097880 0.035861 -0.038627 0.042140 -0.003843 0.093050 -0.063429 -0.025048 0.017246 0.032161 -0.002900 0.055297 -0.045576 0.004014 0.037053 0.028817 0.012509 0.066603 -0.025607 -0.003602 0.020157 0.008663 0.023958 -0.079173 -0.030252 0.051147 -0.092869 -0.073795 0.034012 -0.021079 0.219040 -0.070178 0.014041 -0.125560 0.000181 0.040291 -0.046626 -0.051788 -0.026394 0.172020 -0.055867 0.124150 -0.002251 0.037538 -0.128950 0.181020 0.167570 0.193430 -0.120550 -0.040205 0.110400 -0.089103 -0.046864 -0.078919 -0.024919 -0.068669 0.063440 0.166170 0.130310 -0.071126 0.144130 -0.198040 -0.064955 -0.014805 0.089507 -0.027372 0.095793 -0.077702 0.115090 -0.024561 0.122320 -0.085049 -0.084281 -0.078094 -0.156190 -0.026832 -0.054228 -0.063318 -0.054645 -0.036248 -0.032308 0.012806 0.194120 -0.002317 -0.017916 -0.025100 0.017941 0.255730 -0.009898 -0.050927 -0.162020 -0.243430 -0.049009 -0.302280 0.109310 -0.083838 -0.058503 0.113520 0.061567 -0.139930 0.017650 0.266720 0.331150 0.052383 0.014004 0.095603 0.058343 0.035101 -0.208520 -0.086355 0.142840 -0.031381 0.063514 0.070013 -0.324690 0.090958 -0.012383 0.108420 0.029144 0.038204 -0.067003 -0.027404 -0.139020 0.035777 0.081153 -0.038687 0.093564 0.049683 -0.037259 0.028442 0.146840 0.048529 -0.044702 0.025253 -0.026110 -0.042936 -0.040390 -0.089454 -0.023329 0.046812 0.026366 -0.048619 -0.047989 -0.044198 0.012907 0.354720 0.070268 0.001488 0.065759 0.001405 -0.050133 0.240640 0.062454 -0.010121 -0.135410 -0.020911 0.020457 0.011058 -0.068901 -0.050785 -0.067587 0.084441 0.150950 0.001705 -0.003733 -0.056718 -0.025173 0.011822 -0.065770 0.119280 0.063337 0.146600 -0.078575 0.037679 0.112140 0.018204 -0.016874 0.081466 0.040977 0.062576 -0.046046 -0.015449 0.081056 -0.113350 0.149260 -0.072121 0.024070 0.121200 -0.010162 0.075999 0.067991 0.048657 0.097905 0.027330 0.147130 -0.067733 -0.027674 0.018096 0.010235 0.098080 -0.029346 -0.102180 0.061978 -0.063177 -0.027695 0.163400 -0.029361 0.078551 0.140770 -0.023054 -0.024776 -0.009812 0.075492 -0.024320 -0.106010 -0.022162 -0.043083 -0.033576 0.018122 0.040167 0.144960 0.040209 -0.054695 0.007465 -0.001758 0.033550 -0.086535 -0.013075 -0.092274 0.024795 -0.108590 0.092563 0.165280 0.026241 0.009589 -0.105770 0.015374 0.034060 -0.037580 -0.086019 -0.072295 0.027094 -0.157090 0.051916 0.025072 -0.055599 -0.003819 0.068575 0.093251 -0.063588 -0.039246 0.047909 -0.049767 -0.023322 0.045606 0.091197 0.000840 0.006874 0.111300 -0.096840 0.083744 -0.032148 -0.043076 0.057045 -0.015006 0.073470 -0.001638 0.058446 0.021700 -0.100180 -0.055920 -0.058272 -0.008419 0.050616 -0.069800 -0.002425 -0.014901 -0.005749 -0.038284 -0.050938 0.094856 -0.015612 0.106890 -0.028385 -0.040186 -0.028784 -0.027892 -0.042969 -0.030697 -0.147110 0.108680 -0.021703 0.012263 -0.011002 0.026385 0.068090 0.011940 0.157240 -0.083804 -0.018456 -0.002633 0.011704 0.048175 0.102270 0.054811 -0.064961 0.035964 -0.103030 0.030267 -0.010894 0.036437 0.009327 -0.027480 0.069431 0.018587 0.050964 0.027117 0.046545 0.108870 -0.013905 0.007860 0.010801 -0.040808 -0.009348 0.009839 -0.077317 0.021437 -0.018784 -0.070354 0.061134 -0.084877 -0.072068 -0.028097 -0.086247 -0.005217 0.031907 0.056296 0.012105 -0.013755 -0.081908 -0.003467 0.004427 0.051125 0.050717 -0.005819 -0.031156 -0.007258 0.035044 0.113020 -0.017399 0.123640 -0.049700 -0.085708 -0.009011 -0.048033 -0.043054 0.046430 0.103570 0.015361 0.122560 0.034844 -0.001433 0.029285 -0.015760 -0.037660 0.088812 -0.010370 0.008395 0.005701 -0.138750 -0.019224 -0.066447 0.008574 0.030022 0.089930 0.032109 0.000745 -0.025178 -0.068892 0.092401 -0.035556 -0.104050 -0.002272 0.088096 0.016618 -0.023440 -0.027269 0.032451 -0.013618 -0.085491 0.034374 0.020547 0.071881 0.097542 0.141520 0.108690 -0.047701 -0.060032 -0.062500 -0.018135 -0.013924 -0.006840 -0.052512 -0.019227 -0.021742 0.001003 0.016695 0.013106 0.045026 0.026869 -0.039436 -0.002753 0.104840 0.010263 0.064971 -0.042123 -0.005138 0.029180 -0.020031 -0.016009 -0.143680 -0.004951 -0.020208 -0.026924 0.027115 -0.026254 0.006747 -0.002650 -0.049100 0.079130 0.040286 0.046412 -0.061388 0.096226 0.049241 0.025591 0.020408 0.008995 0.119910 0.016694 -0.087538 -0.053946 -0.020025 0.112340 0.026123 0.044286 0.079351 0.018191 -0.001551 -0.004199 0.082607 0.060839 0.000339 0.004256 0.081126 0.024432 0.039829 -0.037562 0.018689 0.024839 -0.038669 0.000942 -0.038816 0.050911 0.005659 0.000523 -0.051956 -0.048211 0.074249 -0.048510 0.014281 -0.043350 -0.051506 -0.060394 -0.024750 -0.006895 -0.059920 0.125560 0.053970 0.049226 0.016327 0.177980 -0.059941 0.079066 -0.074821 0.029265 -0.177040 -0.009340 0.014937 0.047761 0.009823 0.010230 0.044969 0.030709 0.075174 -0.094537 -0.097193 0.048384 -0.011286 0.091039 0.019520 -0.012666 0.033933 0.000192 -0.058567 -0.014708 -0.024189 0.050843 -0.015352 -0.002356 -0.009170 -0.001382 0.012219 0.025946 -0.075631 0.027417 -0.073834 -0.059125 -0.019749 -0.005323 -0.032911 -0.037630 0.108850 -0.072174 -0.008582 -0.041142 0.055248 -0.034910 0.134030 0.107400 -0.163220 0.097014 0.002266 0.026880 0.035067 -0.093707 0.034831 0.028025 0.131210 0.044050 -0.053869 0.140350 0.027941 0.038223 0.059720 0.079602 0.023882 0.146180 -0.021134 0.025221 -0.040998 -0.034580 -0.040850 0.032412 0.051740 -0.163940 0.007266 -0.062106 0.031367 -0.015411 0.088999 0.033960 0.028998 0.103080 -0.026999 0.027882 -0.017391 -0.024063 0.049765 -0.045307 0.188470 -0.005129 -0.094539 0.064983 -0.114480 0.032822 0.038157 0.114670 0.022112 0.069299 0.022462 -0.026360 -0.018200 0.002118 0.091488 -0.027113 0.023865 0.066052 0.016841 0.063244 0.018626 -0.070341 0.000043 0.018816 -0.110690 -0.097130 0.005217 -0.060604 0.063535 -0.004372 -0.009858 0.006681 0.065452 0.060157 -0.051902 -0.073679 0.035196 0.115340 0.047928 -0.003349 0.070013 0.082705 0.017659 -0.062653 0.083821 -0.076087 -0.082361 -0.068883 0.055558 -0.014074 -0.001008 -0.006736 0.071785 0.046746 0.010295 0.088536 0.019380 0.017928 -0.035709 -0.109340 0.173630 0.039797 0.086027 0.050720 0.080823 0.227400 0.015651 0.022083 0.027981 -0.047628 0.034795 0.064292 -0.023687 -0.008601 -0.023030 0.142830 -0.064282 0.027607 0.084950 0.078090 -0.033595 -0.041082 -0.090682 -0.239920 0.039063 -0.057403 -0.118840 0.000936 0.152910 0.000285 0.010678 -0.163040 0.033245 0.019032 0.080214 -0.025274 -0.000530 -0.055839 0.086413 0.024784 0.051358 -0.007655 0.114360 0.005723 -0.013902 0.026219 -0.068362 0.065322 0.103060 -0.089350 -0.080535 0.060736 -0.195280 -0.039535 -0.044702 -0.161520 0.137420 -0.134690 0.064426 -0.075492 0.180890 0.118270 0.020242 0.121360 0.137170 -0.048973 -0.015214 -0.077389 0.205310 0.049874 0.005833 0.023753 -0.125050 -0.058539 0.087642 -0.052772 0.110810 0.046768 0.067157 0.030703 0.018340 -0.190940 -0.154390 0.157460 0.036556 0.022055 0.105900 0.032329 -0.144930 0.184880 -0.026119 0.061605 -0.082883 0.037107 0.025875 -0.091010 0.030692 0.011818 -0.003640 -0.011266 -0.113100 0.100520 -0.085726 0.065722 -0.064547 0.074021 0.002308 -0.145740 0.099227 -0.039335 -0.072014 0.172300 0.178760 -0.050518 -0.094185 0.023209 0.012389 0.017792 0.084761 0.117770 0.139880 -0.078466 -0.211590 -0.122190 0.154290 -0.120840 -0.175880 -0.072946 0.179120 0.294520 -0.085374 0.021578 0.258060 0.078017 -0.145170 0.059330 0.036459 0.281820 0.148640 -0.045932 0.309680 0.007341 -0.032455 -0.096993 0.080627 -0.540780 0.237300 0.007295 -0.143980 0.227360 0.182400 -0.850120 -0.084330 -0.088288 -0.125820 0.057195 -0.000732 0.043923 -0.028940 -0.014440 0.308750 -0.031396 -0.129430 -0.031031 0.027422 0.276820 -0.255880 0.080148 -0.051610 -0.391990 -0.372890 0.075177 0.338570 0.019606 0.090017 0.111710 -0.050665 0.187990 -0.224880 -0.120110 0.019818 0.088345 0.015004 -0.401690 -0.404600 -0.031947 0.045008 0.092889 0.061596 -0.053509 0.132970 0.385570 0.292520 -0.149310 0.122790 -0.093307 0.115380 0.432020 -0.092648 -0.260060 0.069040 -0.059239 -0.077398 -0.068634 -0.138070 -0.122350 -0.125050 0.032749 0.244280 0.091587 0.015869 -0.056875 -0.059765 -0.263930 -0.056916 -0.017293 0.085785 0.102050 0.039173 -0.006807 0.048250 0.056429 0.037927 -0.302500 0.028435 0.145660 -0.052460 -0.007557 0.155880 -0.085262 0.192340 -0.002055 0.023469 0.085119 -0.057360 0.334460 -0.139120 0.161330 -0.059275 0.070340 0.099335 -0.060747 -0.036128 0.000457 0.012220 0.052075 0.042278 0.069226 -0.028040 0.062323 0.081304 -0.069696 -0.006032 0.127460 0.027347 0.056040 0.064764 -0.008909 -0.038447 0.082554 0.028365 0.011314 0.010730 0.162840 -0.000055 0.058827 0.048517 0.038040 0.025612 -0.238920 -0.020610 -0.086434 -0.105670 -0.034419 -0.002779 0.092044 -0.013610 0.025662 -0.078247 -0.028427 0.000609 -0.106060 0.057363 0.051256 -0.084388 -0.079146 -0.052289 -0.010569 -0.120390 -0.049483 0.044128 0.014332 0.199920 0.031457 -0.090982 -0.057728 0.034887 -0.025347 0.033571 -0.141920 -0.042503 0.013119 -0.040033 0.055182 0.013150 0.044168 0.041654 -0.055377 0.012745 0.110260 0.112490 -0.023772 0.150050 -0.077210 -0.029046 -0.025751 0.142450 0.011936 -0.036677 0.038533 -0.080440 -0.057035 -0.012501 0.128430 -0.035440 0.035871 0.013639 0.027653 -0.048198 -0.073475 -0.067288 -0.131780 -0.088879 0.046613 0.067270 -0.097756 0.083258 0.037804 0.131140 0.127700 0.008703 -0.156350 0.061800 0.097865 -0.137430 -0.071945 -0.007378 0.097478 0.054374 -0.121660 0.002853 0.014356 -0.077168 -0.122250 0.109140 -0.020099 -0.063956 -0.043987 0.064797 0.070682 -0.247730 0.101010 -0.025690 0.032591 -0.025984 -0.003033 0.033703 -0.010478 0.042186 -0.124020 0.085908 0.002305 0.115170 -0.159550 -0.024558 -0.043446 -0.030495 -0.122180 0.448620 -0.024736 0.285900 0.095487 -0.081014 0.169050 -0.000049 -0.016943 -0.354180 -0.071903 -0.187310 0.171380 -0.116710 -0.466670 0.132080 -0.114980 -0.097411 -0.010022 -0.000813 0.108250 0.013472 0.044854 0.117710 0.290780 0.100630 0.124100 0.078240 0.366420 0.198030 0.085406 0.067077 -0.141750 0.044473 0.034561 0.058669 0.089868 0.017102 -0.053287 -0.026061 -0.318860 -0.034484 0.087447 0.119800 0.122500 0.087346 0.148610 -0.396730 -0.060319 -0.122400 0.000936 -0.089925 0.361670 0.015813 -0.245860 -0.088099 -0.154180 0.092325 -0.002895 -0.081589 0.403470 -0.065491 0.052093 -0.063601 -0.078912 -0.011754 0.115520 0.360280 -0.466620 0.136690 -0.005617 -0.052152 0.013383 -0.077186 0.141710 0.329770 -0.042363 -0.246200 0.223580 -0.168150 0.036350 -0.123620 -0.044933 -0.088595 0.113620 0.017379 0.037508 -0.027809 0.008995 -0.090240 0.023179 -0.031294 0.133310 0.109660 -0.049491 0.025137 0.063735 0.083672 -0.245260 0.047714 -0.106070 -0.102400 -0.030278 0.284880 -0.121270 -0.114320 0.181720 -0.029626 -0.071972 0.312160 0.143970 -0.265670 -0.011083 0.050760 0.075563 -0.131140 -0.091000 -0.154780 0.008317 0.168020 0.100260 0.004106 -0.102220 -0.021859 -0.002330 0.000989 0.124550 0.055671 0.073271 -0.486740 0.093195 0.027719 0.096511 -0.022988 -0.009683 -0.140810 -0.021155 -0.026975 0.016875 -0.006842 0.149170 0.165370 0.036963 -0.227620 -0.152570 -0.162410 0.020683 0.047777 -0.462910 -0.066671 -0.202850 -0.067391 -0.069952 -0.134800 -0.051937 -0.140300 0.149590 -0.105540 -0.006659 0.135120 0.011737 -0.113530 0.075503 0.059663 -0.281760 0.022455 -0.258610 0.129350 0.012542 -0.040652 0.117800 -0.068102 0.113490 0.024674 0.051456 0.114240 0.063304 0.188000 0.097963 0.017210 -0.253900 -0.289110 -0.276090 0.054382 -0.055663 0.038964 -0.080763 -0.185790 -0.216390 -0.017770 0.017320 -0.249150 -0.021420 -0.171000 0.127440 0.453960 -0.038331 0.063667 0.174250 0.025336 0.067749 -0.099022 0.066577 0.043123 0.074629 -0.101100 0.037294 -0.130390 0.015460 -0.022355 -0.121180 0.038745 0.096389 0.070824 -0.091289 -0.045526 -0.016607 -0.047518 -0.339150 0.098421 0.022235 0.046308 0.002302 0.073296 0.010062 -0.069652 0.078170 0.100090 0.043885 -0.008927 -0.013879 0.041063 0.068482 -0.033910 0.061351 -0.060326 -0.011025 0.011268 -0.066349 0.057340 0.032385 0.119110 0.161140 -0.068980 0.064149 0.040889 -0.022104 -0.053267 -0.037825 -0.008698 -0.120960 0.137090 -0.042309 0.012889 0.071154 -0.018198 0.033893 -0.127720 0.078440 0.026302 0.094394 -0.000136 -0.002145 -0.026945 0.108240 0.034345 -0.033694 0.013808 -0.079600 -0.058977 0.061520 -0.093999 -0.022532 0.030679 -0.066562 0.028073 0.062153 -0.035199 0.028536 -0.075794 -0.043013 -0.029339 -0.088590 0.045939 0.112490 0.021831 0.130640 0.061527 -0.031856 -0.023330 -0.053049 0.034874 -0.019813 0.082162 0.104120 0.097892 -0.047687 -0.034078 -0.070119 -0.078531 0.006876 -0.019128 0.066328 0.031571 -0.030490 -0.023061 -0.042732 0.000857 0.070448 0.010246 -0.063716 0.012477 -0.058072 -0.041858 -0.023493 -0.010178 0.017316 0.052077 -0.086693 -0.053144 0.026225 0.035401 0.023829 -0.008676 0.013197 -0.055904 0.011325 0.043550 -0.001913 0.039636 -0.066706 -0.022428 0.018003 0.041516 0.033245 0.039305 -0.098072 0.055643 0.089114 0.028891 -0.046181 -0.084590 0.065968 0.109530 0.071474 -0.037666 0.073664 0.020297 0.061310 0.161050 -0.116120 0.011738 0.066110 -0.133850 -0.009741 0.105780 -0.019078 0.038532 0.109850 0.087681 -0.056729 -0.007979 0.043089 0.004846 0.034586 0.024298 0.063133 0.108260 -0.059690 0.049315 0.076735 0.028801 0.019098 0.084455 0.052115 -0.022658 -0.205110 0.096665 -0.001848 0.067372 0.055889 -0.032196 0.032599 -0.030809 -0.051987 0.053015 0.118950 -0.028234 -0.038987 0.022669 0.031958 0.019195 0.146900 -0.072776 -0.064842 0.007314 0.040324 -0.040685 -0.006475 -0.127130 -0.004498 0.052974 -0.025198 -0.014461 0.013616 -0.090327 0.053309 0.004532 0.040976 -0.118510 0.020559 0.045503 -0.010528 0.065795 0.106230 0.062154 0.079267 -0.052594 -0.140960 0.053614 0.016925 0.017633 -0.160830 -0.083292 0.018855 0.101600 -0.001054 -0.065043 -0.096409 0.093945 0.104580 0.058461 -0.039867 -0.061083 -0.112260 -0.002526 -0.007227 -0.005583 -0.098520 0.053197 0.025125 0.013896 -0.074003 0.003959 -0.050149 -0.062303 -0.065590 -0.134360 0.104990 0.046741 0.079261 -0.055850 -0.028682 0.024834 0.035519 -0.059682 -0.045243 -0.051373 0.027471 0.018432 0.014773 0.063854 0.053220 0.025124 0.066030 0.007012 -0.058221 -0.000385 0.083015 0.020342 -0.016911 0.210990 0.057363 -0.007693 0.052072 0.079842 0.011023 0.007507 -0.037741 -0.041092 0.018181 -0.078534 0.065478 -0.049490 -0.044330 -0.034782 -0.034404 0.001765 0.040457 0.265160 0.049336 0.199280 0.069120 0.089070 0.238300 0.133540 0.041140 -0.026880 0.001733 -0.097274 -0.038671 -0.032241 -0.034099 0.110490 0.062672 0.025200 -0.020164 -0.029925 0.184120 0.013403 -0.028666 -0.072866 0.113230 -0.067170 0.011993 0.010857 -0.071017 0.016263 0.075676 0.015179 -0.054078 0.076976 0.010775 -0.011976 0.087418 -0.003545 -0.029525 0.115640 0.055851 -0.043993 -0.006352 0.001161 -0.021087 0.104300 -0.050600 0.028566 0.010940 -0.104070 0.009920 -0.044674 0.009594 -0.155490 0.120980 0.023350 0.043892 -0.112830 0.058509 -0.038375 0.047355 -0.000838 0.048782 0.079984 -0.029181 0.002272 0.097201 -0.030947 0.070520 -0.011265 -0.048454 -0.062714 -0.120060 0.068653 0.008701 -0.012694 -0.072674 0.027067 0.123690 -0.008499 0.057651 0.036992 -0.075676 -0.064406 0.033288 0.085243 -0.030812 0.091029 0.042162 -0.003929 0.301530 -0.099959 -0.021492 -0.072566 0.069913 -0.411750 -0.118840 -0.066888 -0.262920 -0.058343 0.006695 0.009184 -0.004812 -0.236130 -0.004251 0.069695 0.022581 -0.368800 -0.106750 -0.062652 0.192800 -0.146130 0.259850 0.358190 0.047014 0.009095 0.057400 -0.089640 0.140440 -0.028027 -0.074763 0.202350 -0.057411 0.833640 0.140480 -0.116450 0.517100 -0.336150 0.038205 -0.041686 -0.033497 -0.040419 0.102500 0.012172 -0.033870 -0.102010 0.530420 0.058140 -0.070440 0.034993 -0.661370 0.037987 0.054110 0.062759 -0.291550 -0.160590 -0.174570 0.028473 -0.153230 0.070319 -0.094346 -0.052708 -0.040785 -0.071267 0.104600 -0.110950 0.067152 0.186890 -0.268810 -0.116250 0.004077 0.024798 -0.105510 0.093048 0.123750 0.208490 0.117050 -0.083135 -0.148510 -0.068823 0.057521 0.008623 -0.034744 0.716780 -0.063939 -0.047483 0.165630 0.091400 0.124690 -0.296490 -0.227810 0.274720 0.033504 -0.129080 -0.018335 -0.105520 -0.004349 -0.072375 -0.075644 -0.114280 0.063132 -0.166760 -0.093516 0.104590 -0.098069 0.003497 -0.029726 0.026499 -0.273320 -0.089901 0.078874 0.031871 -0.121360 0.371680 -0.195120 0.171230 0.023802 0.160270 0.076557 -0.044862 0.216420 -0.171910 0.091092 0.448310 -0.059754 0.033485 0.015958 0.035052 0.039484 -0.017813 -0.068231 -0.051143 -0.023498 0.140320 -0.085442 0.045690 0.032259 -0.074073 0.052728 -0.032917 -0.000118 0.003865 0.004145 0.106760 0.003768 -0.054740 0.031980 0.083611 -0.057185 -0.013001 0.062611 0.159210 0.056571 -0.005180 0.109810 -0.026024 -0.009728 0.107120 -0.020602 0.176230 0.009196 0.039745 0.000004 -0.114400 -0.012924 -0.021993 -0.102130 -0.009991 0.034366 0.100120 0.114130 -0.044431 0.030717 0.029299 -0.039634 0.093718 -0.080113 -0.019218 -0.075873 0.069707 0.086329 0.020528 -0.061978 0.036415 -0.072499 0.046375 0.013209 -0.130450 -0.075738 -0.044696 0.098698 0.040885 0.070420 0.096618 -0.050892 0.033617 0.009574 -0.057805 -0.043320 0.021415 0.068765 -0.010726 0.050301 0.018233 0.024091 0.080130 0.041538 0.054036 0.072749 -0.000104 -0.015411 0.086109 0.024416 0.095125 -0.018572 -0.034318 -0.061231 0.167670 0.059965 0.006365 0.020384 0.107480 -0.007673 0.000983 0.021744 -0.044350 0.025149 -0.073137 -0.143790 0.097868 -0.019822 -0.018968 0.004193 0.024565 -0.024206 -0.042499 0.034988 0.031697 0.034388 0.025955 0.016786 -0.020490 0.087373 -0.091318 0.051389 -0.012934 0.096449 0.020745 -0.008442 -0.048705 0.059936 -0.059591 0.030497 -0.130350 0.009546 -0.110380 0.025496 0.050335 -0.073683 0.012851 0.068001 -0.048042 -0.002100 0.076021 0.106420 -0.006438 0.048529 0.073598 0.044198 0.006755 -0.100150 -0.079888 0.097543 0.163180 0.105770 -0.000461 0.028823 0.028769 0.027907 -0.001500 0.068886 0.030342 0.073649 0.011054 0.032121 0.123680 0.029560 -0.003853 -0.036511 0.066709 -0.044114 0.005525 -0.067803 -0.041428 -0.011931 0.143030 -0.006215 0.058962 0.069823 0.006117 0.043833 -0.015884 0.048530 0.006719 -0.007782 0.002392 0.089580 -0.027260 0.058482 0.012737 -0.048975 0.006684 0.021429 -0.028889 0.153560 0.145540 0.021156 0.072040 -0.064843 0.015120 0.006927 -0.004384 -0.030785 0.023714 -0.002351 -0.021569 0.030642 0.029284 0.011725 0.023624 -0.059633 0.040168 -0.134260 0.009249 -0.061192 0.068035 -0.011333 -0.029703 0.019479 0.022226 0.005391 0.016653 -0.009007 0.129400 0.017403 0.011202 -0.076311 0.011471 0.080478 -0.010475 0.052605 -0.038160 0.057246 -0.006282 -0.046576 -0.016420 -0.021790 0.025747 0.073457 0.057594 -0.018821 0.101980 0.029329 -0.028239 0.033088 -0.215910 0.088523 -0.087476 0.011601 -0.070692 -0.084568 -0.135180 -0.061894 -0.265140 -0.058169 0.051573 -0.082654 -0.002825 0.026012 0.012043 0.084456 -0.011872 -0.022649 0.222570 -0.141040 0.099133 0.035776 -0.080302 0.204930 0.037722 -0.034693 -0.393850 -0.107180 -0.315910 0.114000 0.037480 -0.347000 -0.069194 0.202890 -0.003843 0.018192 0.006709 0.070262 0.174920 0.039781 -0.012665 0.090362 0.061669 0.133160 0.035056 0.072153 0.298360 -0.018002 0.046536 -0.022410 0.045496 0.066075 -0.043221 -0.134220 0.004224 0.020515 0.128440 -0.118800 0.062198 0.040657 0.183930 -0.134560 0.003202 0.150210 -0.078800 -0.070668 -0.039326 -0.109830 -0.127560 0.180950 -0.052198 -0.219530 -0.091313 -0.063773 0.205460 0.072339 0.077386 0.089446 0.201200 0.049133 0.039094 0.068652 0.059238 0.014732 0.184930 -0.160160 0.100050 -0.091306 -0.159030 0.046089 -0.022023 0.298970 -0.005125 -0.002623 -0.068395 0.079218 0.042872 0.093494 -0.048401 0.017135 -0.046207 0.090420 -0.091351 0.020986 -0.003981 -0.077213 -0.059728 0.081830 0.026492 0.013856 -0.073744 -0.120040 0.053454 -0.081371 -0.036962 -0.349430 0.025651 0.018916 0.178200 -0.065821 0.106900 0.059398 -0.009639 0.024518 0.036803 -0.010292 -0.010679 -0.036286 0.038064 0.032079 -0.038824 0.000612 0.008626 -0.004608 0.023963 -0.002041 -0.000861 0.011042 -0.015837 -0.033089 0.000653 -0.051020 -0.022634 -0.073685 -0.019808 0.083209 -0.009822 0.004753 -0.009608 0.071877 -0.011917 0.075117 0.079556 0.089188 0.003664 0.051204 0.040377 -0.103050 0.024986 -0.049450 -0.031034 0.092364 0.094939 0.010140 -0.023260 -0.052810 -0.070097 0.082975 0.005796 0.010521 -0.101640 0.017879 0.043758 -0.050777 -0.034610 0.005917 -0.016203 -0.006743 -0.038049 0.046169 0.052265 0.048917 -0.068542 -0.121010 -0.037248 0.033615 -0.034870 -0.002418 0.028031 0.062210 0.065968 -0.082110 -0.020864 -0.008218 0.061557 0.099285 -0.033439 0.088358 -0.001093 0.029164 0.037369 -0.055293 -0.022963 -0.020015 -0.137670 -0.026410 0.111550 -0.002115 -0.016453 0.027279 0.030685 -0.054262 0.109380 -0.019075 0.012583 -0.106130 0.048691 0.026893 -0.022135 -0.016829 0.024827 0.044340 0.034297 -0.007177 0.073323 0.070065 -0.016310 -0.031598 -0.022072 -0.029298 -0.067061 0.029656 0.030545 0.020129 -0.019815 -0.020998 0.059475 -0.029890 -0.020157 -0.122220 0.153420 0.011990 -0.064880 0.056615 0.018256 -0.014219 0.003823 0.106180 -0.089426 0.004329 0.154880 0.121660 0.024434 0.079914 -0.058190 0.091222 0.020471 0.032980 0.027528 0.072623 -0.014508 0.008911 -0.026477 0.033309 -0.016197 -0.054210 -0.066645 0.069472 -0.085920 0.037212 0.072339 0.058764 -0.050555 0.052240 -0.018766 0.015989 -0.109350 0.107300 0.022788 0.038997 -0.043496 0.013722 -0.027865 -0.072159 -0.003559 0.026771 -0.028348 0.099057 -0.091593 0.014223 -0.009575 -0.023328 -0.021379 -0.104140 -0.031901 -0.188770 0.002671 -0.088200 0.016152 -0.132310 0.029744 -0.239490 0.041751 0.057412 0.035557 -0.004988 -0.059772 -0.083205 -0.015693 0.096167 -0.040821 0.014922 -0.030921 0.059377 -0.096257 -0.148310 -0.084861 0.050660 -0.089907 0.043057 0.063982 -0.030802 0.089124 0.176250 0.067900 -0.008125 0.012771 0.019101 0.040496 -0.096571 -0.101460 -0.014265 -0.011514 -0.055880 0.046659 0.019249 -0.000935 -0.063889 -0.040973 -0.059214 0.032157 0.048202 -0.073338 -0.016254 0.057970 0.260550 0.042120 0.071517 0.075679 -0.004865 0.031200 -0.092471 0.009215 -0.111160 0.018416 0.043165 -0.042583 0.028283 -0.055232 -0.058634 0.248720 -0.049545 0.006444 0.171690 -0.089164 0.057972 0.148290 0.114780 0.157940 -0.272450 -0.150280 0.079930 -0.087155 -0.117800 0.133190 -0.247560 -0.025409 -0.020767 -0.416400 0.024073 -0.176620 -0.033778 0.153230 -0.012291 -0.102050 -0.534300 0.112500 -0.010504 -0.752750 0.165840 -0.136820 -0.061305 0.013954 0.266980 0.096755 0.106320 -0.082582 -0.053429 0.111490 -0.148570 -0.385520 -0.360040 0.019847 0.033267 0.058180 -0.319380 -0.328380 -0.063722 0.024356 -0.422120 -0.293540 -0.007123 -0.394870 -0.034701 0.092107 -0.013878 0.172780 -0.124820 -0.004471 0.083610 0.383440 0.011841 -0.154830 -0.007452 -0.579620 0.061290 -0.110830 -0.166130 0.005342 -0.320260 0.035633 -0.141450 -0.140490 0.025953 -0.069302 -0.081800 -0.045405 0.098167 0.346090 -0.485270 0.075234 0.061478 0.141450 -0.057704 0.019921 0.277700 0.174140 0.028845 -0.160380 0.011812 0.072705 -0.044043 -0.418420 0.221510 0.065916 0.003333 0.051321 -0.176470 0.074297 0.011287 -0.033480 -0.229030 -0.078048 -0.071054 0.000393 -0.109580 -0.123090 0.018816 0.029789 0.014532 -0.074301 -0.278560 -0.008855 0.175680 -0.082161 -0.281080 0.097619 0.073476 0.078117 -0.005828 -0.133030 -0.133000 0.004515 0.085632 -0.005481 0.005613 0.101560 -0.028776 0.057268 0.011349 0.084846 -0.001135 0.042670 -0.004616 0.061475 -0.011224 0.011671 -0.054053 0.060808 0.013233 -0.017205 0.027390 0.068140 -0.021161 0.043385 -0.003734 0.006627 0.160160 -0.085841 0.030594 -0.041270 0.017251 0.096356 -0.048152 0.126080 -0.030878 0.127930 -0.054811 -0.147500 -0.028479 0.015174 0.042093 0.044223 0.163560 -0.037247 -0.087674 -0.088762 -0.030130 0.009274 0.116700 -0.026422 0.010217 0.044093 -0.027756 -0.036378 0.059575 0.031267 0.118510 -0.022250 0.010724 -0.019108 -0.083021 0.027606 0.080441 0.000229 0.039937 -0.090097 -0.038411 0.063977 -0.089667 0.065619 0.000828 -0.039920 0.086350 -0.025533 -0.016021 0.026510 -0.152310 -0.066882 -0.071646 0.046840 0.104820 -0.077678 0.078032 -0.027766 -0.096422 -0.066716 0.101030 0.080757 0.113570 -0.016975 -0.199850 -0.054974 -0.071810 -0.127380 0.162690 -0.093078 -0.132050 0.088322 -0.011577 0.022373 0.131060 -0.072737 -0.066248 -0.030580 -0.054095 0.036540 0.039294 0.058809 0.073980 -0.030207 0.021541 -0.063865 -0.018460 0.033374 0.140720 -0.083551 -0.071304 0.057121 -0.036221 0.078444 -0.002133 -0.004357 -0.085393 0.031931 0.042866 0.025374 -0.054721 0.116060 -0.014315 0.073659 0.049873 0.019007 0.132950 -0.017674 0.023602 0.016921 -0.056918 -0.118610 -0.010258 0.047621 -0.061083 -0.013514 0.097589 0.058721 0.023218 -0.107680 -0.057668 0.186360 0.027560 -0.080702 -0.033893 -0.034744 0.044524 0.025896 -0.049205 -0.072436 -0.063981 0.051606 -0.057478 -0.060129 0.009712 0.026092 0.006243 0.053201 -0.002938 -0.015950 0.000288 -0.041063 -0.049952 0.056427 0.100640 0.049369 -0.039024 -0.187740 -0.040481 -0.097932 -0.056120 0.065475 0.127770 0.033262 -0.044840 0.074910 -0.145980 0.021396 0.018721 -0.004031 -0.123500 0.045664 0.010320 -0.093730 0.021564 0.121880 -0.142600 0.019465 -0.136730 -0.076783 0.034590 -0.015985 -0.039075 0.039623 -0.066971 0.029424 -0.023888 0.040851 0.023918 0.001552 -0.100760 -0.049649 -0.116790 -0.037085 -0.027979 0.065663 -0.017938 -0.000925 -0.044575 -0.064958 0.010447 0.033466 -0.001166 0.026107 0.043881 0.112500 0.065816 0.076921 0.058745 0.002762 0.160740 -0.099344 -0.045063 0.041056 -0.009176 -0.007668 -0.108890 -0.015834 0.030339 -0.071534 0.016155 0.021026 -0.020006 -0.002335 0.048640 0.145100 -0.019232 0.031196 0.001136 -0.028010 -0.005647 0.128740 -0.095516 0.079331 0.059644 0.060889 0.076890 -0.002711 0.005628 0.079164 0.031522 -0.075604 -0.121690 0.166010 0.114170 0.052337 0.089450 0.098772 0.155790 -0.005455 0.107000 -0.073654 0.012389 0.042879 -0.066270 -0.023704 -0.125890 0.166140 -0.000862 0.048420 -0.042157 0.055795 0.023497 0.057456 0.060246 -0.099572 0.175310 -0.131500 -0.030353 0.030713 -0.076053 -0.057554 -0.078214 -0.143850 -0.157270 0.068997 -0.063836 0.014584 0.020520 0.106360 0.049927 -0.063188 -0.064545 0.077482 -0.006696 -0.111640 -0.084763 -0.030005 0.132670 0.102630 -0.003897 -0.041670 0.005067 -0.024251 -0.070792 0.047366 0.089109 -0.065647 0.079856 -0.106920 -0.022573 -0.125870 -0.071970 0.017510 -0.003375 0.035031 0.009753 0.075230 -0.026425 0.095056 -0.002791 0.095105 -0.051075 -0.136470 0.038399 -0.006511 0.112150 0.012901 0.115070 -0.010750 0.024612 -0.042952 -0.004734 0.089652 0.052510 0.044106 0.034604 0.067709 0.147320 -0.069338 0.128080 0.035804 -0.032828 0.019336 -0.059422 -0.004521 -0.059829 0.023434 -0.025698 0.061167 0.090298 -0.074933 -0.022409 -0.021301 0.072884 -0.066763 -0.006286 0.051965 -0.044845 -0.025925 -0.090564 0.037036 0.012175 -0.065078 -0.078910 -0.161200 0.044658 0.190060 -0.097436 -0.097791 0.028245 0.072614 0.039909 0.020068 -0.075012 -0.097415 -0.098057 0.075818 -0.001775 0.077812 -0.093643 0.032979 0.091954 0.020787 -0.028719 -0.120650 0.036855 -0.003441 0.052530 0.086309 -0.143910 -0.091025 0.025085 0.057886 -0.102330 0.132340 0.114250 0.062511 -0.011402 -0.077255 -0.012063 0.043408 0.087573 0.067237 0.130780 -0.128810 0.063232 -0.017719 -0.004659 0.020462 0.236620 0.137620 -0.006195 -0.058095 0.109800 -0.099556 -0.026542 -0.039846 -0.015488 -0.068048 -0.199200 -0.032772 0.075048 -0.187810 -0.060405 0.077380 0.028200 -0.115240 0.098567 -0.193550 0.078627 -0.122560 -0.136130 0.002592 -0.025840 0.119520 -0.029099 -0.065509 0.046762 -0.056477 -0.037764 0.108540 -0.015732 0.130330 0.131290 0.080052 -0.167830 0.071333 -0.102770 0.016536 -0.057525 -0.018429 0.086420 0.046721 -0.107780 -0.013425 0.014662 0.105570 0.059794 -0.071671 -0.011765 -0.057577 -0.066872 -0.015014 -0.028787 -0.063516 0.014116 0.022651 0.041390 -0.059117 0.052133 0.102650 -0.070793 -0.286790 -0.029875 0.054670 0.164620 0.067291 -0.000369 -0.604060 0.464780 -0.722430 0.004354 -0.092432 0.058377 -0.047297 0.050524 -0.100690 -0.007624 -0.200070 0.034234 0.072172 0.027652 -0.082572 -0.039902 -0.009876 -0.178140 0.017587 -0.276460 -0.061251 0.010772 0.277370 -0.111170 -0.329660 -0.654630 0.155900 0.110280 -0.012329 -0.037449 -0.010472 0.026140 0.005601 0.000343 0.105510 -0.276070 -0.040685 -0.033856 -0.000335 0.381930 -0.131120 -0.037672 -0.040340 0.245850 -0.225200 0.047636 -0.002035 -0.317840 -0.015525 0.032543 0.092749 -0.066545 0.071850 -0.065223 0.312120 0.095691 -0.081574 -0.556770 0.156380 0.039467 -0.098588 0.072449 -0.042519 -0.434290 -0.046606 0.124730 -0.492150 -0.001773 0.019446 -0.064718 -0.021606 0.182300 -0.084367 -0.295250 -0.019477 0.024959 -0.117720 -0.041021 -0.638320 -0.193340 -0.015814 -0.000891 -0.409610 0.052847 -0.002186 0.015056 -0.351580 -0.002211 0.068500 -0.176690 0.059055 -0.039319 -0.065717 0.038876 0.062010 -0.011553 0.060695 0.064058 0.010974 -0.096161 0.041367 0.011799 -0.221330 0.151610 -0.097619 -0.109420 0.059152 0.000825 0.032080 -0.308250 0.049761 0.033516 -0.032695 -0.049159 0.078141 0.021120 -0.037612 -0.127560 -0.079141 -0.079362 0.021178 -0.003263 -0.102970 -0.031499 -0.038706 0.035136 -0.020783 -0.049230 -0.136280 0.017803 -0.063247 -0.006415 -0.026262 0.084729 -0.008715 -0.028951 -0.052105 -0.030224 -0.004868 -0.009400 -0.038655 -0.167490 0.000135 -0.052410 0.015999 -0.033640 0.060755 -0.055488 -0.154830 -0.017597 -0.053948 -0.016779 0.041105 -0.081404 -0.133690 -0.005233 -0.100480 -0.086571 0.106050 -0.033202 -0.010096 -0.055127 0.025893 -0.065474 0.006488 -0.034112 0.148960 0.018323 0.058921 0.122210 -0.052282 -0.068789 -0.021361 0.062899 -0.026238 -0.057222 -0.058641 -0.038949 -0.033570 0.050336 0.079679 0.130720 -0.086863 -0.038842 -0.030093 0.041889 0.002602 -0.045925 0.069141 0.129830 -0.106510 0.058009 0.079676 0.100020 -0.036633 -0.021996 0.029932 -0.110540 0.016667 0.024734 0.037201 -0.086042 -0.112830 0.027568 -0.036118 0.046160 -0.013664 0.015450 0.011986 -0.022537 0.059330 0.054773 -0.143970 0.066123 -0.019512 0.032659 0.004567 -0.115170 0.086989 0.033785 -0.033398 -0.108020 -0.082489 -0.048127 0.024310 0.018344 0.041618 -0.005272 0.038915 -0.007229 0.090607 -0.078669 -0.043400 -0.043419 0.049747 0.071766 -0.049812 0.058397 0.030235 -0.009178 -0.004557 0.015576 0.078811 -0.047010 -0.103400 0.033106 0.025338 0.034431 0.159490 -0.154900 0.094488 -0.036698 0.022233 -0.001369 0.002955 -0.099709 0.100010 -0.022434 -0.007497 -0.040419 0.014165 -0.010192 0.161400 0.050249 0.111630 -0.005691 -0.102280 0.059785 0.011010 -0.028645 0.005325 0.065943 -0.043126 0.036059 0.085596 0.131540 0.063045 0.029612 0.051872 -0.043933 0.102800 0.077026 -0.063641 0.118430 0.075629 0.096726 0.089959 0.004378 0.013963 0.028356 0.129890 -0.062102 0.024238 0.008609 0.085762 0.098635 -0.025527 0.049977 0.008815 -0.022423 -0.094265 -0.142750 0.009999 0.007838 -0.071033 -0.025475 0.097001 -0.059725 0.012279 0.055527 -0.096014 0.029207 0.013487 -0.144960 0.062581 0.018639 -0.079234 -0.115110 -0.117780 0.015068 0.090556 0.073327 -0.065580 -0.008868 -0.107460 -0.014321 -0.029496 -0.065807 -0.059881 0.011655 -0.060592 0.035728 0.024085 -0.098239 -0.150100 0.069017 0.008123 -0.008815 -0.020728 0.018353 -0.012026 0.069956 -0.053595 -0.030712 -0.040334 -0.004820 -0.028312 -0.005931 -0.032259 -0.012915 -0.086573 0.037933 -0.027397 0.054420 0.049632 -0.027297 0.007196 0.012996 0.118980 0.007173 0.025767 -0.071104 -0.025017 -0.119550 0.043938 0.049940 -0.062247 0.000472 -0.028483 0.014972 -0.030821 -0.068676 -0.087685 -0.025250 0.137330 -0.091808 -0.055137 0.092343 0.106350 -0.097276 -0.154840 0.094102 0.016972 0.046347 0.051693 -0.048816 -0.007111 -0.104970 0.055834 -0.034739 0.098532 -0.094686 -0.028138 -0.024875 0.069959 0.012491 -0.150250 0.108780 -0.039362 0.033848 0.026725 -0.031829 0.063859 -0.063197 -0.056238 0.061963 0.025930 0.156950 -0.001244 0.004913 -0.010896 0.024050 -0.081241 0.047789 -0.095020 -0.007076 -0.142840 0.022215 0.052112 0.053132 -0.023898 0.063098 -0.017928 0.031079 0.018966 0.000456 0.131090 0.061584 0.014405 0.090162 0.097378 0.026522 0.113740 -0.083101 0.005266 -0.087116 0.063885 -0.114220 -0.061380 0.026730 -0.044385 0.050738 0.014330 -0.107130 -0.074838 -0.072276 -0.001181 0.043454 -0.099218 0.023906 0.044738 -0.011040 -0.097446 0.113950 -0.023093 -0.190160 0.078039 0.080077 0.029419 -0.069205 -0.057437 0.194220 -0.104980 0.062719 -0.036344 0.070892 -0.001627 0.011733 -0.015040 -0.127640 -0.143600 0.053457 0.043294 -0.069232 -0.005100 0.007103 -0.073241 0.097024 0.074225 -0.061954 0.096094 -0.014819 -0.052041 -0.131150 -0.041434 0.059287 -0.093013 -0.049002 0.019011 0.075099 0.053336 -0.035484 0.255460 -0.006557 0.038608 0.067106 0.020150 0.024934 -0.041542 0.067928 -0.343470 0.036408 0.100740 0.057059 0.005394 -0.382360 -0.114940 -0.065795 0.092075 0.011438 -0.029775 -0.037479 0.058168 -0.061221 -0.126500 -0.043726 0.032895 0.075805 -0.036712 0.037671 0.171460 0.042078 0.023451 -0.018609 -0.026295 -0.152670 0.021497 0.107500 -0.042531 -0.007703 -0.007181 -0.036795 -0.044066 0.014323 0.008758 -0.161890 0.032885 -0.135700 -0.058514 0.092518 -0.013718 0.151880 0.002270 0.237070 -0.006932 0.040307 0.003931 0.035661 -0.020961 0.022582 -0.010820 0.062569 -0.171610 -0.162900 0.096427 0.044702 0.114920 -0.004366 -0.108430 -0.202180 -0.070083 -0.097046 -0.099598 -0.019890 -0.035376 0.081642 0.364990 -0.024171 0.000825 0.124770 -0.065512 -0.041863 0.026386 -0.031084 0.075711 0.069127 -0.055313 -0.003235 -0.089683 -0.000460 -0.047721 0.014803 0.042653 -0.056404 0.124070 -0.100390 0.025542 -0.077163 0.058722 -0.273410 0.043929 -0.052120 0.046742 -0.048179 -0.000095 -0.010871 -0.080594 0.082541 -0.013827 -0.036036 0.050908 -0.087623 -0.043305 -0.045453 -0.053364 0.042676 -0.015789 0.065567 0.047273 0.031202 0.055708 0.022527 0.045671 0.023083 0.000974 -0.035471 0.035780 0.127990 -0.040370 -0.010622 0.028949 -0.000768 0.037754 0.022178 0.077477 -0.138260 -0.099114 -0.008347 -0.003035 -0.015837 -0.040652 0.130350 -0.088828 0.076209 -0.054637 -0.010413 0.120550 -0.015321 0.001562 0.039493 0.042371 -0.126920 0.019431 -0.044020 0.143520 0.006510 0.043822 0.033303 0.081814 0.105080 -0.081045 -0.032941 0.064456 -0.122010 -0.077252 0.026823 -0.002255 -0.030640 -0.092833 -0.000542 0.048751 -0.045890 0.033233 0.076684 -0.010158 -0.049856 -0.032486 -0.031633 0.060563 -0.072553 -0.060737 -0.078739 -0.058658 -0.030218 0.021317 -0.034460 0.002304 0.037205 -0.000057 0.021690 0.020201 -0.107440 -0.030276 -0.044692 0.128180 -0.050280 0.098022 -0.054690 -0.052406 -0.070614 0.057809 0.059468 0.088007 -0.003626 -0.034836 0.068499 0.057621 -0.062207 -0.101520 -0.063583 -0.070056 0.177110 0.018257 0.005729 0.022853 0.019634 0.063737 -0.009151 0.054102 -0.012008 -0.041047 0.059098 0.069618 -0.108290 0.032239 -0.041555 -0.024611 0.030152 0.022123 0.068016 0.011681 -0.076572 -0.018063 -0.121240 -0.057392 -0.028630 -0.036872 0.050417 -0.018467 -0.063195 0.024562 0.128320 0.118270 0.044112 -0.031375 -0.079059 0.036665 0.035739 0.076698 -0.144050 -0.031040 -0.062887 -0.001703 -0.076779 0.097885 -0.030772 -0.068200 -0.039014 0.043708 -0.036788 0.046015 -0.063578 0.015820 -0.061697 -0.026459 -0.037288 -0.010879 0.078176 -0.056146 -0.055328 0.087178 -0.049586 0.072463 -0.041178 -0.128410 -0.003570 -0.013577 0.043220 0.104220 0.194550 0.022369 0.030263 0.015656 0.000589 -0.147600 0.052679 -0.043956 -0.011926 -0.021774 0.033238 -0.061818 0.040797 0.026780 0.077199 -0.049614 -0.059598 0.075733 0.018503 0.087654 0.041576 -0.051400 -0.029701 0.025657 -0.028854 -0.028473 -0.011705 -0.014460 0.005041 0.065707 0.018559 -0.046456 0.048489 0.058272 0.122310 -0.070284 -0.097652 -0.082684 -0.021337 -0.038605 0.032162 0.050414 -0.037301 -0.091059 0.099745 0.007887 -0.113510 -0.078138 -0.004035 0.011729 -0.012359 0.041108 0.079955 -0.111720 0.053417 -0.068151 0.073345 -0.009522 -0.028053 -0.017127 -0.151750 0.032862 -0.055622 -0.008384 -0.030617 -0.052464 -0.080299 0.073077 -0.003117 0.060913 0.023718 -0.078074 -0.054518 0.161730 0.064635 0.004763 -0.076795 -0.065919 0.068666 -0.077003 -0.061879 0.082055 0.030550 -0.117410 0.058627 0.025680 0.031676 0.119360 0.075622 0.004803 0.046860 -0.124580 0.074462 0.060424 0.098777 -0.012535 0.081904 0.042360 -0.150950 0.080821 0.033232 0.044389 0.036810 -0.056730 0.070510 -0.018039 -0.040920 0.081129 0.087619 -0.022505 -0.116620 0.041687 0.025655 0.155960 0.087681 0.079511 0.099157 0.143500 0.159720 0.013800 -0.021770 0.067130 -0.060405 0.099085 -0.063232 0.092071 0.012785 -0.035706 0.045390 0.026179 -0.064406 -0.058660 0.007228 -0.020467 -0.091801 0.012035 0.025639 0.091616 -0.096511 -0.105220 -0.066662 -0.069054 0.085133 -0.152060 -0.078898 -0.018661 0.055159 0.004460 -0.025219 -0.134340 -0.063503 -0.100450 -0.005456 0.033106 0.019908 -0.033621 -0.123000 -0.056080 0.077961 0.078806 -0.043339 -0.224770 -0.031088 -0.026163 -0.077741 -0.028418 0.156020 0.068175 0.015529 -0.055631 0.094488 -0.119910 -0.090345 0.064299 -0.044331 0.007370 -0.094808 -0.025936 0.012505 0.012002 0.145650 0.087277 0.046249 0.109040 -0.066958 -0.022754 0.045841 -0.024653 0.113020 -0.052408 0.004682 0.070060 0.139140 0.081524 -0.024612 -0.021542 0.005114 -0.004938 0.141630 0.126370 0.003713 0.014409 -0.018611 -0.017648 -0.150010 0.007257 0.014451 0.032906 -0.008049 0.098518 0.078745 0.016903 0.026442 -0.022780 0.123810 -0.021247 -0.024268 -0.041986 0.045291 -0.028055 -0.060577 -0.036372 0.044643 -0.011279 0.021301 -0.027937 -0.071216 0.067952 0.049069 0.054552 0.153480 0.028284 -0.067775 -0.103170 0.099764 -0.024074 -0.010428 -0.105620 -0.007589 0.001653 -0.001820 0.130150 0.093303 -0.031065 -0.015899 -0.129210 0.010106 -0.007694 0.008989 -0.144140 -0.071999 0.024666 0.033973 -0.070106 0.014924 -0.040348 -0.094008 -0.006074 0.048482 -0.055283 0.072635 -0.040026 -0.155120 0.021554 0.101840 -0.040031 0.037962 0.005980 0.044908 -0.025112 0.042018 -0.152720 0.072653 0.005920 -0.007531 -0.053945 0.008490 -0.029208 -0.148390 -0.015733 0.119720 -0.037039 -0.108720 -0.094858 -0.031657 0.017018 -0.022562 0.045249 0.062222 -0.071095 -0.070364 0.055871 0.103500 -0.045801 -0.013227 0.126510 -0.047752 0.067959 0.037989 0.003177 0.069333 -0.069892 -0.021067 0.006225 -0.050332 -0.046879 -0.072072 0.013103 0.002450 0.029532 0.041364 0.027453 -0.025549 -0.001135 -0.074731 -0.059135 0.040836 -0.030871 -0.017770 0.073172 -0.023574 -0.001879 -0.019539 0.070711 0.008911 -0.024948 0.016175 0.008298 0.010961 0.041954 0.003273 -0.009683 0.158450 0.074521 -0.038761 0.069406 0.039749 0.046242 -0.058281 0.032896 -0.000752 0.063801 0.070756 -0.072424 -0.031110 0.001098 0.060019 0.012521 0.032676 -0.050353 0.033954 0.022597 -0.013750 -0.067169 0.022997 0.032368 0.055092 0.009405 -0.069053 0.090011 -0.025751 0.057693 0.044124 0.002043 -0.034845 0.012294 0.045242 -0.057134 0.018713 -0.057989 0.058854 -0.053157 -0.030794 0.042889 0.014068 0.135420 -0.036941 -0.002701 -0.008038 0.004084 0.010362 0.087357 -0.029468 -0.024191 -0.054434 0.009088 0.014501 0.038716 0.062016 0.012373 -0.088751 -0.011075 -0.060127 0.006859 0.027141 0.029074 0.007477 -0.085935 -0.024612 -0.013274 0.038727 -0.018577 0.023429 0.055698 -0.024004 0.012640 -0.000028 -0.005703 0.025385 -0.019622 -0.084356 0.069414 0.076768 -0.037650 -0.053016 -0.052014 -0.010293 -0.051079 -0.062007 0.036435 0.034500 0.014674 0.020812 -0.024489 -0.079581 0.016116 0.004718 0.103520 -0.028985 0.031843 -0.048418 -0.091910 -0.027923 0.141500 0.065869 0.109790 -0.055846 -0.056999 0.043035 0.047029 -0.006033 0.073192 -0.022473 0.002703 -0.027661 -0.053380 0.145270 -0.067222 0.064748 -0.038297 0.024366 -0.018265 -0.069863 -0.010572 -0.032101 -0.114090 0.033364 -0.003309 0.044632 0.003866 -0.010138 -0.028497 -0.038222 -0.018262 -0.022343 -0.015711 -0.018665 0.053083 0.106040 0.019571 -0.000674 0.125090 -0.010449 -0.032917 0.030942 0.022750 -0.059491 0.048456 -0.064751 -0.208680 0.020533 -0.085215 -0.035966 0.047687 -0.059797 -0.067890 0.015660 0.019464 -0.140430 -0.052226 0.084664 -0.149570 -0.013138 -0.006910 -0.040602 0.019949 0.080050 0.049114 -0.034218 0.018900 -0.224640 -0.064035 -0.029357 -0.116340 -0.073727 0.130110 0.103620 0.061647 0.107370 0.077473 -0.051878 -0.040948 0.025200 0.090788 -0.028104 -0.096593 0.030781 0.063284 -0.096306 -0.043527 0.051269 -0.083488 0.053814 0.136980 -0.102840 -0.060121 0.023779 -0.023940 -0.015221 0.157900 0.010306 -0.150860 0.208410 0.026457 0.068630 0.013211 -0.049338 -0.110050 -0.032201 -0.067178 -0.066708 -0.050368 -0.042473 -0.033365 0.050040 -0.046176 0.066280 -0.042367 -0.032860 -0.080384 -0.050747 0.031907 -0.079327 0.080877 0.073682 -0.042265 -0.107260 0.073711 -0.041601 0.019256 0.052237 0.064764 0.004981 -0.020253 -0.001142 -0.034095 0.085978 -0.114940 -0.008006 0.008865 0.041617 0.130330 -0.014854 0.110600 0.012035 0.013811 0.058411 0.067677 -0.094577 0.038255 0.047224 0.098514 0.020329 -0.131330 0.043044 0.026604 0.007797 0.183600 0.111370 -0.048706 -0.002767 -0.179370 -0.017235 -0.112770 0.107920 -0.103340 0.010171 0.070184 -0.072421 -0.009971 0.014442 -0.017026 0.008709 0.094175 -0.009566 0.065374 -0.044875 -0.075000 -0.007300 -0.047478 0.061977 0.019181 0.016464 0.135890 0.078333 0.043115 0.023345 -0.020620 -0.014814 0.004450 -0.019489 0.082638 0.015380 -0.075336 0.032904 -0.043044 0.032825 0.022143 0.019941 -0.066956 -0.036778 0.136020 0.011537 -0.016307 -0.026619 -0.015012 0.064734 0.074507 0.092757 0.050170 -0.156420 0.088644 0.008228 0.075153 -0.030746 0.012674 0.077966 -0.008367 -0.024928 -0.053209 0.090086 -0.057143 0.025840 0.135640 -0.104500 0.022034 0.002479 -0.140190 0.027136 -0.116370 -0.029738 -0.074513 0.005167 0.077798 -0.009031 0.002027 0.010885 0.045533 0.118850 0.060177 0.130940 -0.019105 -0.087491 0.046668 -0.058218 -0.006237 -0.118900 -0.137520 -0.033164 -0.084155 0.106380 0.024470 0.043078 0.122150 0.086992 -0.064085 0.009390 -0.036586 -0.012724 0.017840 -0.176910 0.051744 -0.011851 0.023401 -0.051488 -0.011063 -0.017530 -0.027675 -0.072471 -0.127980 0.010722 0.031171 0.034500 0.003485 0.029362 -0.034006 0.080762 -0.097543 0.091041 -0.057938 0.006003 -0.123010 -0.001739 0.014477 -0.021108 -0.077792 -0.138090 -0.049587 0.113340 0.035780 -0.030571 0.011660 -0.049961 0.022234 -0.092834 -0.052864 -0.111020 0.048334 0.137800 0.048513 -0.121800 -0.020245 0.038593 0.003354 0.033495 -0.071511 0.014512 0.087950 -0.059343 -0.042397 -0.119420 -0.021521 -0.002892 -0.079019 -0.021265 -0.049617 -0.017378 -0.031534 -0.049086 0.021312 0.042043 -0.050094 0.025741 0.053815 0.013263 -0.012089 -0.013094 0.031120 0.033409 0.041102 -0.095656 -0.007591 -0.000288 -0.019259 0.044013 0.010623 -0.001868 -0.091819 0.028212 -0.054462 0.081547 -0.080756 0.053546 -0.028622 0.064672 -0.030669 0.018210 -0.000597 -0.021843 -0.017536 0.130400 -0.117060 -0.021016 -0.069981 0.020009 0.005306 0.090589 0.032845 0.038148 -0.047279 -0.122680 -0.045047 -0.141170 -0.049772 0.099499 -0.028035 0.055472 0.070193 -0.023166 -0.011561 0.061131 0.025902 0.068887 -0.053285 0.125310 0.063576 0.072620 -0.062154 -0.000958 0.017573 0.005474 0.109220 0.090866 -0.058378 0.005297 -0.075218 0.056589 -0.047038 -0.071318 -0.041711 -0.028473 0.135470 -0.097687 -0.022236 -0.046739 0.059836 -0.071540 0.024817 0.057754 -0.032426 0.027509 -0.037023 0.032226 -0.055782 -0.016204 0.204130 0.019500 0.007048 0.012364 -0.051534 -0.158420 -0.136470 -0.084699 0.070251 -0.030667 0.053417 0.014961 0.094396 -0.112620 -0.099353 -0.063935 0.013814 -0.102940 -0.062835 -0.035366 -0.147170 0.008190 -0.018469 0.019325 0.003414 -0.104390 -0.031194 -0.041339 -0.053616 0.119180 0.123120 0.097348 0.067015 0.004903 0.030448 -0.011327 0.063928 -0.109560 0.046872 -0.062650 0.091274 0.091339 0.021075 -0.136120 0.081689 -0.073741 0.069900 0.001590 0.177080 -0.024003 -0.070876 0.037479 -0.026723 0.031840 0.030837 0.040172 0.040811 0.015791 0.045894 0.028111 -0.052086 -0.007154 -0.019783 0.060449 0.168230 0.095323 -0.074495 0.060856 0.135240 -0.136680 0.108230 0.099366 -0.057598 -0.000399 -0.117650 -0.080100 0.043570 0.028690 0.124880 -0.149470 0.005803 0.035878 0.091808 0.111050 -0.074880 -0.103850 0.121760 0.134730 0.109070 0.009441 0.094356 -0.098514 0.180060 0.125990 0.124100 -0.004904 -0.041660 -0.012215 -0.017966 0.015152 0.129730 -0.061050 0.000851 -0.186740 0.122860 -0.091362 -0.090663 -0.041328 0.024520 -0.011833 -0.060792 -0.101430 0.091492 0.123700 0.026777 -0.194990 -0.077435 0.111950 -0.036615 -0.020216 -0.167760 -0.050245 0.013076 -0.081638 0.076293 0.065694 0.053506 0.001357 -0.059317 -0.016525 -0.008965 -0.068863 -0.012719 -0.008702 0.014759 0.075112 -0.047442 -0.044622 -0.082561 0.078546 -0.091417 -0.065705 0.071558 -0.005712 0.131390 -0.034472 -0.172880 -0.071919 0.025209 -0.156980 0.093910 -0.011171 0.010447 -0.114170 0.037753 -0.077468 -0.035140 0.033539 0.028769 0.013893 -0.081577 -0.051018 0.109710 -0.050922 -0.009627 0.038373 0.042272 -0.058587 0.015668 -0.025708 -0.039140 0.101220 0.098330 -0.158700 -0.027319 -0.019318 -0.009714 0.282490 0.012799 -0.043787 0.034954 -0.061958 -0.065965 -0.060080 0.044161 0.066016 -0.102920 0.078122 -0.049801 0.006717 -0.061481 0.153270 0.039193 0.016417 0.100700 0.023893 0.058413 0.035255 -0.101040 -0.084764 0.057896 0.024475 0.113400 -0.017079 0.047416 0.112550 -0.061983 0.075589 -0.021090 0.007523 0.009569 0.004093 0.030305 -0.009881 0.000927 0.130490 0.031377 0.102010 0.111010 -0.009876 0.022973 -0.155730 -0.103980 0.058798 0.063192 -0.060722 0.005595 0.031623 0.004331 0.050570 0.074315 0.021599 -0.068685 -0.138220 0.011079 -0.028684 0.041330 -0.019852 0.026120 -0.033023 0.025614 0.061664 -0.010530 -0.149150 0.002965 -0.082206 0.018881 0.009340 0.016199 -0.000873 0.130880 0.009224 0.044931 -0.027975 0.034189 0.097498 -0.024928 -0.099330 0.113950 0.170030 0.022828 -0.016000 -0.042114 0.036833 0.004896 0.029113 0.086342 0.053758 -0.064584 0.008188 -0.020477 -0.008163 0.109620 0.006905 0.070474 -0.003239 0.021527 0.038310 -0.065495 -0.160840 -0.066768 -0.085925 -0.078689 0.154030 0.058343 -0.084640 0.030842 0.087482 0.152020 0.117310 -0.002776 -0.205890 -0.109280 0.130820 -0.032301 -0.022219 0.056620 -0.051403 0.090055 -0.051391 -0.129440 0.090363 0.092845 -0.011386 -0.018766 -0.131570 -0.063385 0.064573 -0.074491 -0.100680 -0.143440 0.081048 0.143280 0.066598 0.008471 -0.059703 -0.080558 0.024604 -0.071279 -0.055536 -0.077773 -0.061338 0.020074 -0.013183 0.069520 0.101980 0.012509 -0.021881 -0.030293 0.042441 -0.062541 0.054367 0.052273 0.053187 0.053361 0.153400 -0.061008 -0.025967 0.006921 0.135280 -0.009229 0.105870 -0.103480 -0.067943 0.114310 0.016865 -0.017792 -0.139610 -0.039486 0.018472 0.075870 -0.075429 0.152690 -0.038728 0.093905 0.013471 0.107270 -0.022854 -0.018847 -0.050129 0.064646 -0.019585 -0.006157 -0.126470 -0.097089 0.167230 -0.023254 0.054629 0.132140 -0.032988 0.092552 0.051249 -0.000596 -0.188040 -0.059542 0.083391 -0.062602 -0.055508 0.078907 -0.013026 0.065281 0.004850 -0.093063 -0.078173 0.034035 0.001626 -0.122180 0.010519 -0.100950 -0.110150 -0.087907 0.109900 0.091608 0.142490 0.061025 -0.144970 0.002070 0.007788 0.065470 -0.084682 0.018194 -0.088615 -0.036191 0.003775 0.008821 0.023972 -0.048426 0.005391 0.023800 -0.034520 0.001796 0.060106 -0.019759 0.056030 0.061644 -0.032641 -0.010365 0.059776 0.091904 0.027150 -0.033721 0.044715 0.020864 0.058691 -0.043111 -0.049467 0.068628 0.002943 -0.015159 -0.027795 -0.042907 -0.029678 -0.128130 -0.136560 -0.053579 -0.073027 0.049320 -0.089527 -0.061121 0.092296 0.060842 0.011664 0.149100 0.024716 0.032447 -0.064065 -0.008762 0.079956 -0.076963 -0.148440 0.041860 -0.035358 0.061469 0.047669 -0.094945 0.161080 0.123530 0.074262 -0.073764 -0.084617 -0.012160 -0.131280 -0.053837 0.081513 0.098518 0.008184 0.102840 -0.086621 0.043846 -0.013398 0.122120 -0.026539 -0.056755 0.052467 -0.123440 0.063822 -0.037819 -0.136430 -0.103740 0.002722 0.053292 -0.059830 -0.018141 -0.034085 0.090292 -0.087482 0.180940 -0.076156 -0.050155 -0.015919 0.094611 -0.069448 -0.050054 -0.009429 -0.010522 0.049096 0.052733 -0.103290 0.128770 -0.093789 0.010826 0.041975 -0.086278 -0.031772 -0.031076 -0.015158 -0.025087 -0.003643 0.026313 0.087844 0.194710 0.004345 -0.068944 0.086537 0.112020 0.000949 0.097883 -0.070871 0.020282 0.091469 0.030148 0.022001 0.046393 -0.064600 -0.108730 0.162930 0.177280 0.043397 0.112630 0.060806 -0.048377 0.139660 -0.127220 0.003333 -0.001754 -0.027245 0.091524 0.014583 -0.014755 0.010218 0.011542 -0.017396 -0.061789 0.042723 0.063922 -0.112170 -0.090189 0.015158 -0.006135 -0.201050 0.102150 -0.013200 -0.186820 0.099245 0.168570 0.043194 0.168850 -0.029066 0.040641 -0.108800 0.105850 0.026983 0.070845 -0.063697 -0.004316 -0.074877 0.127250 0.079808 0.136780 -0.065432 -0.136500 -0.014525 -0.071969 0.068158 0.003267 -0.322300 0.240270 -0.080013 0.272420 -0.294930 0.176310 -0.281520 0.066574 0.016436 -0.099047 -0.117240 -0.024703 -0.105320 0.026965 -0.025338 -0.155280 -0.139860 0.086158 0.106280 0.068345 0.119530 -0.225300 -0.041298 -0.032000 -0.341860 0.365280 -0.075249 -0.433140 0.269150 -0.153350 -0.165530 0.041284 -0.326000 -0.153230 0.139110 -0.219710 0.064200 0.075548 0.031764 -0.056938 -0.008707 0.090376 -0.013299 -0.132880 -0.018417 0.017372 -0.258170 -0.554610 -0.113340 -0.112850 -0.184290 0.123580 -0.042420 -0.497290 0.144570 0.048525 -0.263350 0.228600 -0.208820 -0.407720 -0.032077 0.236860 0.126800 0.196560 -0.152240 0.151920 0.018777 0.475620 0.155530 0.070674 0.116810 0.047488 -0.203930 0.103520 0.052235 0.044008 0.005490 -0.167500 -0.667300 -0.033343 0.080819 -0.005537 0.005680 0.026636 0.012657 0.069299 0.160110 -0.100920 0.237890 -0.060563 -0.051283 0.070569 0.258820 -0.154840 0.093961 -0.021589 -0.009744 0.039237 -0.001385 -0.170240 -0.048748 -0.081708 0.010234 0.175080 0.138350 0.100290 -0.076680 -0.056447 0.113820 -0.006843 -0.095414 0.003931 0.109170 -0.141670 -0.014129 -0.023668 0.083568 -0.040656 0.007339 -0.095661 0.210890 -0.015190 -0.099180 -0.098478 -0.034353 -0.069209 0.139070 -0.086047 0.006234 -0.141430 0.057044 -0.018240 -0.001841 -0.000789 0.047866 0.005373 -0.028898 0.025355 -0.001489 -0.038718 0.035283 -0.019774 -0.112130 0.075635 0.049116 0.064386 0.174640 0.098274 0.079590 -0.110880 0.027132 -0.034846 -0.011398 0.010215 0.036692 -0.151210 0.100660 -0.014895 -0.177320 -0.138230 -0.058674 0.174930 -0.035804 -0.150250 -0.001051 -0.117310 0.052417 0.071142 -0.010962 -0.080679 -0.005006 0.051530 0.034070 0.068485 0.042942 -0.089494 -0.051081 0.034277 -0.098185 -0.053927 0.023668 0.031350 -0.000797 -0.014767 -0.030614 0.012731 -0.077220 -0.027676 0.057373 0.069000 -0.116530 -0.034135 -0.013777 0.026712 0.057112 -0.030236 -0.189170 0.057135 0.183700 -0.017747 -0.100770 0.043427 -0.137100 0.016202 0.038033 -0.015139 0.105510 0.018689 0.093491 0.114020 0.022661 0.066375 0.021849 0.035168 0.017665 -0.130310 0.059549 0.139730 -0.012347 0.040187 0.041993 -0.036826 -0.066405 -0.034345 0.013643 -0.032526 -0.052178 -0.065685 -0.093696 0.063870 -0.002452 -0.050905 0.017301 0.020573 0.075310 0.106070 -0.010757 0.072677 0.127380 0.031077 0.029975 0.156780 0.112970 0.109490 0.096913 0.118890 -0.026206 -0.127500 -0.068446 0.037571 0.095282 0.006011 -0.050680 -0.058133 0.061825 -0.001946 -0.033463 0.064375 0.036069 -0.016766 0.193780 -0.158590 0.061080 -0.036702 0.038225 0.051411 0.030563 -0.101780 -0.044942 0.108530 0.010283 -0.011647 0.150650 0.108660 -0.077597 0.091292 0.025863 -0.049759 0.013402 0.035720 0.082380 0.031702 -0.133150 0.103870 0.092663 -0.043116 -0.084361 -0.045239 0.125790 -0.010490 0.022217 -0.041107 0.020369 -0.103420 -0.078365 -0.031221 0.031098 -0.039473 -0.020104 -0.016101 0.012938 0.018900 0.022188 -0.037915 -0.060506 0.075171 0.098496 0.051756 0.017933 0.093064 -0.057696 0.035386 -0.063583 0.198770 0.061968 0.081955 -0.050791 -0.036958 0.199980 -0.022028 -0.062576 -0.035569 0.098191 0.056853 -0.010279 -0.015431 0.098087 -0.009227 0.143500 -0.072278 -0.032245 -0.124330 0.142760 0.028243 -0.066904 -0.046429 -0.039651 -0.069976 -0.021515 0.009359 0.019558 -0.047340 -0.022703 0.013296 0.033098 -0.009067 -0.077312 -0.042792 0.032022 0.053524 0.097016 -0.036780 0.069192 -0.043317 0.040864 0.013730 -0.033048 0.000971 -0.021382 -0.023514 0.025290 -0.049447 0.054499 -0.049378 0.016093 0.025407 -0.015379 0.075741 0.116880 -0.140310 0.034520 0.059211 -0.032097 0.050882 -0.071306 0.056406 -0.000392 0.034294 0.105340 -0.078313 0.087716 -0.006013 -0.004514 -0.080657 -0.057619 -0.037058 0.032735 0.043762 -0.061894 0.031334 -0.191140 -0.004400 -0.106410 0.002011 -0.012454 -0.121890 -0.018754 0.077326 -0.076170 -0.016750 -0.072889 -0.041736 -0.040623 0.061028 0.041172 -0.022723 -0.072041 0.035624 0.005610 0.004767 -0.076209 0.035838 -0.024286 0.022647 0.119350 0.026550 -0.030928 0.044188 -0.025018 0.052050 0.052719 0.141200 -0.038419 -0.183090 0.044056 0.018240 -0.061463 -0.053868 -0.033335 0.002921 -0.032430 -0.010247 0.023282 -0.043873 0.003643 -0.070008 0.058388 -0.086729 -0.005749 -0.030934 0.031011 0.017314 -0.055423 -0.031593 0.021057 -0.124890 0.096265 -0.014260 -0.051112 0.085781 -0.015978 0.017430 -0.019785 0.039279 
