 0.4036 0.4036 0.4036 -0.4036 0.4036 0.4036 0.4036 -0.4036 -0.4036 0.4036 0.4036 -0.4036 0.4036 0.4036 0.4036 0.4036 0.4036 0.4036 0.4036 0.4036 0.4036 0.4036 0.4036 0.4036 -0.4036 -0.4036 0.4036 0.4036 -0.4036 0.4036 -0.4036 -0.4036 0.4036 -0.4036 -0.4036 -0.4036 -0.4036 -0.4036 -0.4036 0.4036 -0.4036 0.4036 0.4036 0.4036 0.4036 0.4036 -0.4036 -0.4036 0.4036 -0.4036 -0.4036 -0.4036 -0.4036 0.4036 0.4036 -0.4036 0.4036 0.4036 -0.4036 -0.4036 -0.4036 -0.4036 -0.4036 -0.4036 -0.4036 -0.4036 -0.4036 -0.4036 -0.4036 0.4036 -0.4036 0.4036 -0.4036 0.4036 0.4036 0.4036 -0.4036 -0.4036 -0.4036 0.4036 -0.4036 -0.4036 -0.4036 0.4036 0.4036 -0.4036 -0.4036 0.4036 0.4036 0.4036 0.4036 0.4036 0.4036 0.4036 -0.4036 0.4036 0.4036 0.4036 0.4036 -0.4036 0.4036 -0.4036 -0.4036 -0.4036 0.4036 0.4036 0.4036 0.4036 0.4036 0.4036 0.4036 0.4036 0.4036 0.4036 0.4036 0.4036 0.4036 0.4036 0.4036 0.4036 0.4036 0.4036 0.4036 0.4036 0.4036 -0.4036 -0.4036 0.4036 0.4036 0.4036 -0.4036 0.4036 0.4036 0.4036 0.4036 -0.4036 0.4036 0.4036 0.4036 -0.4036 -0.4036 -0.4036 -0.4036 -0.4036 -0.4036 -0.4036 0.4036 -0.4036 -0.4036 -0.4036 -0.4036 -0.4036 0.4036 0.4036 -0.4036 -0.4036 -0.4036 0.4036 0.4036 -0.4036 -0.4036 0.4036 0.4036 0.4036 -0.4036 0.4036 0.4036 0.4036 0.4036 -0.4036 0.4036 0.4036 0.4036 0.4036 0.4036 -0.4036 0.4036 -0.4036 0.4036 0.4036 0.4036 -0.4036 -0.4036 0.4036 0.4036 0.4036 -0.4036 -0.4036 -0.4036 -0.4036 0.4036 0.4036 -0.4036 -0.4036 -0.4036 0.4036 0.4036 0.4036 0.4036 0.4036 0.4036 -0.4036 -0.4036 -0.4036 0.4036 0.4036 -0.4036 -0.4036 -0.4036 0.4036 0.4036 -0.4036 -0.4036 -0.4036 -0.4036 0.4036 0.4036 -0.4036 -0.4036 -0.4036 -0.4036 0.4036 0.4036 0.4036 -0.4036 -0.4036 0.4036 -0.4036 -0.4036 -0.4036 0.4036 0.4036 -0.4036 -0.4036 -0.4036 0.4036 0.4036 -0.4036 0.4036 0.4036 -0.4036 0.4036 0.4036 -0.4036 0.4036 -0.4036 -0.4036 0.4036 0.4036 0.4036 -0.4036 -0.4036 -0.4036 -0.4036 -0.4036 -0.4036 0.4036 -0.4036 -0.4036 -0.4036 0.4036 0.4036 0.4036 0.4036 0.4036 -0.4036 0.4036 0.4036 0.4036 0.4036 -0.4036 -0.4036 0.4036 0.4036 0.4036 -0.4036 0.4036 0.4036 -0.4036 -0.4036 -0.4036 0.4036 -0.4036 -0.4036 0.4036 0.4036 0.4036 -0.4036 -0.4036 -0.4036 -0.4036 0.4036 0.4036 -0.4036 -0.4036 -0.4036 0.4036 0.4036 0.4036 -0.4036 -0.4036 0.4036 0.4036 0.4036 0.4036 -0.4036 -0.4036 -0.4036 -0.4036 0.4036 -0.4036 -0.4036 -0.4036 -0.4036 -0.4036 0.4036 0.4036 0.4036 -0.4036 -0.4036 -0.4036 0.4036 0.4036 0.4036 -0.4036 -0.4036 0.4036 0.4036 0.4036 -0.4036 -0.4036 -0.4036 0.4036 0.4036 0.4036 -0.4036 -0.4036 -0.4036 -0.4036 0.4036 0.4036 -0.4036 -0.4036 -0.4036 -0.4036 0.4036 0.4036 -0.4036 -0.4036 -0.4036 -0.4036 0.4036 -0.4036 -0.4036 -0.4036 0.4036 0.4036 0.4036 0.4036 0.4036 -0.4036 -0.4036 0.4036 0.4036 0.4036 0.4036 -0.4036 -0.4036 -0.4036 0.4036 0.4036 0.4036 -0.4036 -0.4036 -0.4036 0.4036 0.4036 -0.4036 -0.4036 -0.4036 0.4036 0.4036 0.4036 0.4036 0.4036 -0.4036 0.4036 0.4036 0.4036 -0.4036 0.4036 0.4036 0.4036 -0.4036 0.4036 0.4036 0.4036 0.4036 0.4036 0.4036 -0.4036 -0.4036 -0.4036 -0.4036 0.4036 0.4036 0.4036 0.4036 0.4036 0.4036 0.4036 0.4036 0.4036 0.4036 0.4036 -0.4036 0.4036 0.4036 0.4036 0.4036 -0.4036 0.4036 0.4036 0.4036 0.4036 -0.4036 -0.4036 -0.4036 -0.4036 0.4036 0.4036 0.4036 -0.4036 -0.4036 0.4036 0.4036 0.4036 -0.4036 -0.4036 -0.4036 -0.4036 -0.4036 -0.4036 -0.4036 -0.4036 0.4036 0.4036 0.4036 -0.4036 -0.4036 0.4036 -0.4036 -0.4036 -0.4036 -0.4036 0.4036 0.4036 0.4036 -0.4036 -0.4036 -0.4036 0.4036 0.4036 0.4036 -0.4036 0.4036 0.4036 0.4036 0.4036 -0.4036 0.4036 0.4036 0.4036 -0.4036 -0.4036 -0.4036 -0.4036 -0.4036 0.4036 0.4036 0.4036 -0.4036 -0.4036 0.4036 0.4036 -0.4036 -0.4036 -0.4036 0.4036 -0.4036 -0.4036 0.4036 0.4036 0.4036 0.4036 0.4036 0.4036 -0.4036 -0.4036 -0.4036 -0.4036 0.4036 0.4036 0.4036 -0.4036 0.4036 -0.4036 -0.4036 -0.4036 0.4036 -0.4036 -0.4036 -0.4036 -0.4036 0.4036 -0.4036 -0.4036 -0.4036 0.4036 0.4036 -0.4036 0.4036 0.4036 0.4036 -0.4036 0.4036 -0.4036 0.4036 0.4036 -0.4036 0.4036 -0.4036 0.4036 -0.4036 0.4036 0.4036 -0.4036 0.4036 0.4036 -0.4036 0.4036 0.4036 0.4036 0.4036 0.4036 0.4036 -0.4036 0.4036 0.4036 0.4036 0.4036 0.4036 0.4036 0.4036 0.4036 0.4036 0.4036 -0.4036 -0.4036 -0.4036 -0.4036 0.4036 -0.4036 -0.4036 -0.4036 0.4036 0.4036 -0.4036 -0.4036 0.4036 0.4036 0.4036 0.4036 0.4036 0.4036 0.4036 -0.4036 -0.4036 -0.4036 0.4036 -0.4036 -0.4036 -0.4036 -0.4036 0.4036 0.4036 0.4036 -0.4036 -0.4036 0.4036 -0.4036 0.4036 -0.4036 0.4036 0.4036 -0.4036 -0.4036 -0.4036 0.4036 0.4036 -0.4036 0.4036 -0.4036 -0.4036 -0.4036 0.4036 0.4036 -0.4036 -0.4036 0.4036 0.4036 0.4036 0.4036 0.4036 0.4036 -0.4036 -0.4036 -0.4036 0.4036 0.4036 -0.4036 -0.4036 -0.4036 -0.4036 -0.4036 -0.4036 -0.4036 0.4036 -0.4036 -0.4036 0.4036 -0.4036 -0.4036 -0.4036 -0.4036 0.4036 0.4036 0.4036 0.4036 0.4036 0.4036 0.4036 0.4036 0.4036 0.4036 -0.4036 -0.4036 -0.4036 -0.4036 -0.4036 -0.4036 -0.4036 -0.4036 0.4036 -0.4036 -0.4036 -0.4036 -0.4036 -0.4036 -0.4036 0.4036 0.4036 0.4036 0.4036 0.4036 0.4036 0.4036 0.4036 0.4036 0.4036 -0.4036 -0.4036 -0.4036 0.4036 -0.4036 -0.4036 -0.4036 -0.4036 0.4036 0.4036 0.4036 -0.4036 -0.4036 0.4036 0.4036 0.4036 0.4036 0.4036 0.4036 0.4036 -0.4036 0.4036 -0.4036 0.4036 0.4036 -0.4036 -0.4036 -0.4036 -0.4036 -0.4036 -0.4036 -0.4036 0.4036 0.4036 0.4036 0.4036 -0.4036 0.4036 0.4036 0.4036 0.4036 0.4036 0.4036 0.4036 0.4036 -0.4036 0.4036 -0.4036 0.4036 -0.4036 -0.4036 0.4036 -0.4036 -0.4036 -0.4036 0.4036 -0.4036 -0.4036 0.4036 0.4036 0.4036 -0.4036 -0.4036 0.4036 -0.4036 0.4036 -0.4036 -0.4036 -0.4036 -0.4036 -0.4036 0.4036 0.4036 -0.4036 -0.4036 -0.4036 -0.4036 -0.4036 -0.4036 -0.4036 -0.4036 -0.4036 -0.4036 -0.4036 -0.4036 -0.4036 -0.4036 -0.4036 -0.4036 -0.4036 -0.4036 0.4036 0.4036 0.4036 0.4036 0.4036 0.4036 0.4036 0.4036 0.4036 0.4036 0.4036 0.4036 0.4036 -0.4036 0.4036 -0.4036 -0.4036 -0.4036 -0.4036 -0.4036 -0.4036 -0.4036 -0.4036 -0.4036 -0.4036 -0.4036 0.4036 0.4036 0.4036 -0.4036 0.4036 0.4036 0.4036 0.4036 0.4036 0.4036 0.4036 0.4036 -0.4036 -0.4036 0.4036 0.4036 0.4036 0.4036 -0.4036 -0.4036 -0.4036 -0.4036 -0.4036 -0.4036 -0.4036 0.4036 0.4036 0.4036 -0.4036 0.4036 0.4036 0.4036 0.4036 -0.4036 0.4036 0.4036 0.4036 -0.4036 -0.4036 -0.4036 0.4036 -0.4036 -0.4036 -0.4036 0.4036 0.4036 0.4036 -0.4036 -0.4036 0.4036 0.4036 0.4036 0.4036 -0.4036 0.4036 -0.4036 0.4036 -0.4036 0.4036 0.4036 -0.4036 -0.4036 0.4036 -0.4036 0.4036 0.4036 0.4036 0.4036 -0.4036 0.4036 0.4036 0.4036 -0.4036 -0.4036 -0.4036 0.4036 0.4036 0.4036 -0.4036 0.4036 0.4036 0.4036 0.4036 0.4036 0.4036 0.4036 0.4036 -0.4036 0.4036 0.4036 -0.4036 0.4036 0.4036 0.4036 0.4036 0.4036 0.4036 -0.4036 -0.4036 -0.4036 0.4036 -0.4036 -0.4036 0.4036 -0.4036 -0.4036 -0.4036 0.4036 -0.4036 -0.4036 -0.4036 0.4036 0.4036 -0.4036 0.4036 -0.4036 -0.4036 -0.4036 0.4036 0.4036 0.4036 0.4036 0.4036 0.4036 -0.4036 0.4036 0.4036 0.4036 -0.4036 -0.4036 -0.4036 -0.4036 -0.4036 -0.4036 -0.4036 -0.4036 -0.4036 -0.4036 -0.4036 -0.4036 -0.4036 -0.4036 -0.4036 0.4036 -0.4036 0.4036 -0.4036 0.4036 0.4036 0.4036 0.4036 0.4036 0.4036 -0.4036 -0.4036 0.4036 0.4036 -0.4036 -0.4036 -0.4036 -0.4036 -0.4036 -0.4036 -0.4036 -0.4036 -0.4036 -0.4036 -0.4036 0.4036 0.4036 -0.4036 -0.4036 0.4036 0.4036 0.4036 0.4036 0.4036 0.4036 0.4036 0.4036 0.4036 0.4036 0.4036 -0.4036 -0.4036 -0.4036 -0.4036 -0.4036 -0.4036 0.4036 0.4036 0.4036 0.4036 0.4036 0.4036 0.4036 0.4036 0.4036 -0.4036 0.4036 0.4036 0.4036 -0.4036 -0.4036 -0.4036 -0.4036 -0.4036 -0.4036 0.4036 0.4036 0.4036 0.4036 0.4036 0.4036 0.4036 0.4036 0.4036 0.4036 0.4036 0.4036 0.4036 0.4036 0.4036 -0.4036 -0.4036 -0.4036 -0.4036 -0.4036 -0.4036 -0.4036 -0.4036 -0.4036 -0.4036 0.4036 0.4036 0.4036 0.4036 -0.4036 -0.4036 -0.4036 -0.4036 0.4036 0.4036 -0.4036 -0.4036 0.4036 0.4036 -0.4036 -0.4036 -0.4036 -0.4036 -0.4036 -0.4036 -0.4036 -0.4036 -0.4036 -0.4036 -0.4036 0.4036 -0.4036 0.4036 -0.4036 0.4036 0.4036 0.4036 -0.4036 -0.4036 0.4036 -0.4036 0.4036 0.4036 0.4036 0.4036 -0.4036 0.4036 0.4036 0.4036 0.4036 -0.4036 -0.4036 -0.4036 -0.4036 -0.4036 0.4036 0.4036 0.4036 -0.4036 -0.4036 -0.4036 0.4036 0.4036 -0.4036 -0.4036 -0.4036 -0.4036 -0.4036 -0.4036 -0.4036 0.4036 0.4036 0.4036 0.4036 0.4036 -0.4036 0.4036 0.4036 0.4036 -0.4036 -0.4036 -0.4036 -0.4036 -0.4036 -0.4036 0.4036 0.4036 0.4036 -0.4036 -0.4036 -0.4036 -0.4036 -0.4036 -0.4036 -0.4036 0.4036 0.4036 0.4036 0.4036 0.4036 0.4036 0.4036 0.4036 0.4036 0.4036 -0.4036 -0.4036 -0.4036 -0.4036 0.4036 0.4036 0.4036 0.4036 0.4036 0.4036 -0.4036 -0.4036 -0.4036 0.4036 0.4036 -0.4036 -0.4036 -0.4036 -0.4036 -0.4036 0.4036 -0.4036 -0.4036 -0.4036 -0.4036 0.4036 0.4036 0.4036 0.4036 -0.4036 -0.4036 -0.4036 0.4036 0.4036 0.4036 -0.4036 -0.4036 -0.4036 0.4036 0.4036 -0.4036 -0.4036 0.4036 -0.4036 -0.4036 0.4036 0.4036 0.4036 0.4036 -0.4036 0.4036 0.4036 0.4036 0.4036 -0.4036 -0.4036 0.4036 -0.4036 -0.4036 0.4036 -0.4036 -0.4036 -0.4036 0.4036 -0.4036 -0.4036 -0.4036 -0.4036 -0.4036 -0.4036 0.4036 0.4036 0.4036 0.4036 -0.4036 0.4036 0.4036 0.4036 0.4036 0.4036 -0.4036 -0.4036 0.4036 0.4036 0.4036 0.4036 0.4036 0.4036 0.4036 -0.4036 0.4036 0.4036 0.4036 -0.4036 -0.4036 -0.4036 -0.4036 -0.4036 -0.4036 -0.4036 0.4036 -0.4036 0.4036 0.4036 0.4036 -0.4036 -0.4036 -0.4036 0.4036 0.4036 0.4036 0.4036 0.4036 0.4036 0.4036 0.4036 0.4036 0.4036 0.4036 -0.4036 -0.4036 -0.4036 -0.4036 -0.4036 -0.4036 0.4036 0.4036 -0.4036 -0.4036 -0.4036 0.4036 -0.4036 -0.4036 0.4036 0.4036 -0.4036 0.4036 -0.4036 -0.4036 0.4036 0.4036 0.4036 0.4036 0.4036 0.4036 -0.4036 -0.4036 0.4036 -0.4036 0.4036 -0.4036 -0.4036 -0.4036 -0.4036 -0.4036 -0.4036 0.4036 0.4036 0.4036 -0.4036 0.4036 0.4036 0.4036 0.4036 -0.4036 -0.4036 -0.4036 -0.4036 0.4036 -0.4036 -0.4036 -0.4036 -0.4036 0.4036 -0.4036 0.4036 0.4036 0.4036 0.4036 0.4036 -0.4036 0.4036 0.4036 0.4036 -0.4036 0.4036 0.4036 0.4036 -0.4036 -0.4036 0.4036 0.4036 0.4036 -0.4036 -0.4036 -0.4036 0.4036 0.4036 0.4036 0.4036 0.4036 0.4036 0.4036 0.4036 0.4036 0.4036 0.4036 0.4036 -0.4036 -0.4036 0.4036 0.4036 -0.4036 -0.4036 -0.4036 -0.4036 -0.4036 -0.4036 -0.4036 -0.4036 -0.4036 -0.4036 -0.4036 -0.4036 0.4036 -0.4036 -0.4036 0.4036 -0.4036 0.4036 -0.4036 -0.4036 -0.4036 -0.4036 -0.4036 -0.4036 -0.4036 -0.4036 0.4036 0.4036 -0.4036 -0.4036 0.4036 0.4036 0.4036 -0.4036 -0.4036 0.4036 0.4036 -0.4036 -0.4036 0.4036 0.4036 -0.4036 -0.4036 0.4036 -0.4036 0.4036 0.4036 -0.4036 0.4036 0.4036 -0.4036 -0.4036 0.4036 0.4036 -0.4036 -0.4036 0.4036 0.4036 -0.4036 -0.4036 -0.4036 0.4036 0.4036 -0.4036 -0.4036 -0.4036 -0.4036 0.4036 0.4036 -0.4036 0.4036 -0.4036 -0.4036 -0.4036 0.4036 -0.4036 -0.4036 -0.4036 -0.4036 -0.4036 -0.4036 -0.4036 0.4036 -0.4036 -0.4036 -0.4036 -0.4036 0.4036 -0.4036 -0.4036 -0.4036 -0.4036 0.4036 -0.4036 -0.4036 -0.4036 0.4036 0.4036 0.4036 0.4036 0.4036 0.4036 0.4036 -0.4036 0.4036 -0.4036 -0.4036 -0.4036 0.4036 0.4036 -0.4036 -0.4036 0.4036 -0.4036 0.4036 0.4036 0.4036 -0.4036 -0.4036 -0.4036 0.4036 -0.4036 -0.4036 0.4036 0.4036 0.4036 0.4036 -0.4036 -0.4036 0.4036 0.4036 -0.4036 -0.4036 -0.4036 0.4036 0.4036 -0.4036 -0.4036 -0.4036 0.4036 0.4036 0.4036 -0.4036 -0.4036 0.4036 0.4036 0.4036 -0.4036 -0.4036 0.4036 0.4036 0.4036 -0.4036 0.4036 0.4036 0.4036 -0.4036 -0.4036 0.4036 0.4036 0.4036 -0.4036 0.4036 0.4036 0.4036 -0.4036 -0.4036 -0.4036 -0.4036 0.4036 0.4036 0.4036 0.4036 -0.4036 0.4036 0.4036 0.4036 0.4036 -0.4036 -0.4036 -0.4036 -0.4036 -0.4036 -0.4036 -0.4036 -0.4036 -0.4036 -0.4036 0.4036 0.4036 0.4036 0.4036 0.4036 0.4036 -0.4036 -0.4036 -0.4036 -0.4036 -0.4036 -0.4036 0.4036 0.4036 0.4036 0.4036 0.4036 0.4036 -0.4036 -0.4036 -0.4036 -0.4036 -0.4036 -0.4036 -0.4036 -0.4036 0.4036 0.4036 -0.4036 -0.4036 0.4036 -0.4036 -0.4036 -0.4036 -0.4036 0.4036 0.4036 0.4036 0.4036 0.4036 0.4036 0.4036 0.4036 0.4036 0.4036 -0.4036 -0.4036 -0.4036 -0.4036 -0.4036 -0.4036 0.4036 0.4036 0.4036 0.4036 -0.4036 0.4036 0.4036 0.4036 0.4036 0.4036 -0.4036 -0.4036 -0.4036 -0.4036 0.4036 -0.4036 -0.4036 -0.4036 -0.4036 0.4036 -0.4036 -0.4036 0.4036 0.4036 0.4036 0.4036 0.4036 0.4036 0.4036 -0.4036 -0.4036 0.4036 0.4036 -0.4036 -0.4036 -0.4036 -0.4036 -0.4036 -0.4036 -0.4036 -0.4036 0.4036 -0.4036 0.4036 0.4036 -0.4036 0.4036 0.4036 0.4036 0.4036 -0.4036 0.4036 0.4036 0.4036 -0.4036 -0.4036 0.4036 0.4036 0.4036 -0.4036 -0.4036 -0.4036 -0.4036 -0.4036 0.4036 0.4036 0.4036 0.4036 0.4036 0.4036 0.4036 0.4036 0.4036 0.4036 -0.4036 0.4036 -0.4036 -0.4036 -0.4036 0.4036 -0.4036 -0.4036 0.4036 -0.4036 0.4036 0.4036 -0.4036 0.4036 -0.4036 0.4036 -0.4036 -0.4036 0.4036 0.4036 -0.4036 -0.4036 0.4036 0.4036 0.4036 -0.4036 -0.4036 0.4036 0.4036 0.4036 -0.4036 -0.4036 -0.4036 -0.4036 0.4036 -0.4036 0.4036 0.4036 -0.4036 0.4036 0.4036 0.4036 -0.4036 -0.4036 0.4036 0.4036 0.4036 -0.4036 -0.4036 0.4036 0.4036 -0.4036 -0.4036 -0.4036 0.4036 -0.4036 -0.4036 -0.4036 -0.4036 -0.4036 -0.4036 0.4036 0.4036 -0.4036 -0.4036 0.4036 0.4036 -0.4036 -0.4036 -0.4036 0.4036 0.4036 -0.4036 -0.4036 0.4036 0.4036 0.4036 -0.4036 -0.4036 -0.4036 -0.4036 -0.4036 0.4036 0.4036 -0.4036 0.4036 0.4036 -0.4036 0.4036 -0.4036 0.4036 -0.4036 0.4036 0.4036 -0.4036 -0.4036 -0.4036 0.4036 0.4036 0.4036 -0.4036 -0.4036 0.4036 0.4036 0.4036 0.4036 0.4036 -0.4036 -0.4036 -0.4036 0.4036 0.4036 0.4036 0.4036 0.4036 0.4036 -0.4036 0.4036 0.4036 0.4036 -0.4036 -0.4036 -0.4036 0.4036 0.4036 -0.4036 -0.4036 0.4036 0.4036 0.4036 -0.4036 0.4036 0.4036 0.4036 -0.4036 0.4036 -0.4036 0.4036 0.4036 -0.4036 -0.4036 0.4036 0.4036 0.4036 -0.4036 -0.4036 0.4036 0.4036 -0.4036 -0.4036 -0.4036 0.4036 0.4036 -0.4036 -0.4036 -0.4036 -0.4036 -0.4036 -0.4036 -0.4036 -0.4036 0.4036 -0.4036 -0.4036 -0.4036 0.4036 0.4036 -0.4036 -0.4036 0.4036 0.4036 0.4036 -0.4036 -0.4036 -0.4036 0.4036 0.4036 -0.4036 -0.4036 -0.4036 -0.4036 -0.4036 -0.4036 0.4036 -0.4036 -0.4036 -0.4036 0.4036 0.4036 -0.4036 -0.4036 -0.4036 0.4036 0.4036 -0.4036 -0.4036 0.4036 0.4036 -0.4036 0.4036 -0.4036 0.4036 -0.4036 -0.4036 0.4036 -0.4036 0.4036 0.4036 0.4036 -0.4036 0.4036 -0.4036 -0.4036 0.4036 -0.4036 -0.4036 -0.4036 -0.4036 -0.4036 -0.4036 -0.4036 -0.4036 -0.4036 0.4036 -0.4036 -0.4036 -0.4036 -0.4036 0.4036 0.4036 -0.4036 -0.4036 -0.4036 0.4036 0.4036 0.4036 0.4036 0.4036 -0.4036 -0.4036 0.4036 0.4036 -0.4036 -0.4036 -0.4036 0.4036 0.4036 -0.4036 0.4036 0.4036 0.4036 0.4036 0.4036 0.4036 0.4036 0.4036 -0.4036 -0.4036 0.4036 -0.4036 0.4036 0.4036 0.4036 -0.4036 -0.4036 0.4036 0.4036 0.4036 0.4036 -0.4036 0.4036 0.4036 -0.4036 0.4036 0.4036 0.4036 0.4036 0.4036 0.4036 0.4036 0.4036 -0.4036 -0.4036 0.4036 0.4036 0.4036 -0.4036 -0.4036 0.4036 0.4036 0.4036 -0.4036 -0.4036 0.4036 0.4036 0.4036 -0.4036 -0.4036 0.4036 0.4036 0.4036 -0.4036 -0.4036 0.4036 0.4036 0.4036 0.4036 0.4036 0.4036 -0.4036 0.4036 0.4036 0.4036 0.4036 0.4036 -0.4036 0.4036 0.4036 0.4036 0.4036 -0.4036 0.4036 0.4036 -0.4036 -0.4036 0.4036 0.4036 -0.4036 -0.4036 -0.4036 0.4036 0.4036 0.4036 -0.4036 -0.4036 0.4036 0.4036 -0.4036 0.4036 0.4036 0.4036 -0.4036 0.4036 0.4036 0.4036 -0.4036 0.4036 0.4036 0.4036 -0.4036 -0.4036 0.4036 0.4036 -0.4036 -0.4036 0.4036 0.4036 0.4036 -0.4036 -0.4036 0.4036 -0.4036 -0.4036 -0.4036 0.4036 -0.4036 -0.4036 -0.4036 0.4036 0.4036 -0.4036 -0.4036 0.4036 0.4036 0.4036 -0.4036 0.4036 0.4036 0.4036 -0.4036 -0.4036 0.4036 0.4036 -0.4036 -0.4036 -0.4036 -0.4036 0.4036 -0.4036 0.4036 -0.4036 -0.4036 0.4036 -0.4036 0.4036 -0.4036 0.4036 -0.4036 -0.4036 0.4036 0.4036 0.4036 -0.4036 0.4036 0.4036 -0.4036 0.4036 0.4036 -0.4036 -0.4036 0.4036 0.4036 0.4036 -0.4036 -0.4036 -0.4036 0.4036 0.4036 0.4036 -0.4036 -0.4036 0.4036 0.4036 0.4036 0.4036 0.4036 0.4036 0.4036 0.4036 0.4036 -0.4036 0.4036 -0.4036 -0.4036 -0.4036 0.4036 0.4036 0.4036 -0.4036 -0.4036 0.4036 0.4036 0.4036 -0.4036 -0.4036 0.4036 0.4036 -0.4036 -0.4036 0.4036 -0.4036 -0.4036 0.4036 0.4036 0.4036 -0.4036 -0.4036 0.4036 0.4036 0.4036 0.4036 0.4036 0.4036 0.4036 0.4036 0.4036 0.4036 0.4036 -0.4036 -0.4036 0.4036 0.4036 0.4036 0.4036 0.4036 -0.4036 0.4036 0.4036 0.4036 0.4036 0.4036 -0.4036 -0.4036 0.4036 -0.4036 -0.4036 -0.4036 0.4036 0.4036 0.4036 0.4036 -0.4036 -0.4036 -0.4036 -0.4036 0.4036 -0.4036 -0.4036 -0.4036 -0.4036 0.4036 0.4036 0.4036 0.4036 0.4036 -0.4036 -0.4036 -0.4036 -0.4036 0.4036 -0.4036 -0.4036 -0.4036 0.4036 0.4036 -0.4036 -0.4036 -0.4036 -0.4036 -0.4036 0.4036 -0.4036 -0.4036 -0.4036 -0.4036 0.4036 0.4036 0.4036 0.4036 -0.4036 0.4036 0.4036 0.4036 0.4036 0.4036 0.4036 -0.4036 -0.4036 -0.4036 -0.4036 0.4036 -0.4036 -0.4036 -0.4036 0.4036 0.4036 0.4036 0.4036 0.4036 0.4036 0.4036 0.4036 -0.4036 -0.4036 0.4036 0.4036 0.4036 0.4036 -0.4036 -0.4036 0.4036 0.4036 0.4036 0.4036 0.4036 0.4036 -0.4036 -0.4036 -0.4036 0.4036 0.4036 -0.4036 -0.4036 0.4036 0.4036 0.4036 0.4036 -0.4036 0.4036 0.4036 0.4036 0.4036 0.4036 0.4036 -0.4036 0.4036 -0.4036 -0.4036 -0.4036 -0.4036 -0.4036 -0.4036 -0.4036 -0.4036 -0.4036 0.4036 0.4036 -0.4036 -0.4036 -0.4036 -0.4036 0.4036 -0.4036 -0.4036 -0.4036 -0.4036 -0.4036 -0.4036 -0.4036 -0.4036 -0.4036 -0.4036 -0.4036 0.4036 0.4036 0.4036 -0.4036 -0.4036 -0.4036 0.4036 0.4036 -0.4036 -0.4036 -0.4036 0.4036 0.4036 -0.4036 -0.4036 0.4036 0.4036 -0.4036 0.4036 -0.4036 -0.4036 0.4036 -0.4036 0.4036 -0.4036 0.4036 0.4036 0.4036 0.4036 -0.4036 -0.4036 0.4036 0.4036 -0.4036 -0.4036 0.4036 0.4036 0.4036 -0.4036 -0.4036 -0.4036 0.4036 0.4036 0.4036 -0.4036 -0.4036 -0.4036 -0.4036 0.4036 0.4036 0.4036 -0.4036 -0.4036 -0.4036 0.4036 -0.4036 0.4036 -0.4036 0.4036 -0.4036 -0.4036 0.4036 -0.4036 -0.4036 -0.4036 -0.4036 0.4036 -0.4036 -0.4036 -0.4036 0.4036 0.4036 -0.4036 -0.4036 0.4036 0.4036 0.4036 0.4036 0.4036 -0.4036 0.4036 0.4036 0.4036 0.4036 0.4036 0.4036 0.4036 0.4036 0.4036 0.4036 0.4036 0.4036 -0.4036 -0.4036 -0.4036 -0.4036 0.4036 0.4036 0.4036 0.4036 0.4036 0.4036 0.4036 -0.4036 -0.4036 0.4036 0.4036 0.4036 0.4036 -0.4036 -0.4036 0.4036 0.4036 0.4036 -0.4036 -0.4036 0.4036 -0.4036 -0.4036 0.4036 0.4036 -0.4036 -0.4036 -0.4036 0.4036 0.4036 -0.4036 -0.4036 0.4036 0.4036 -0.4036 -0.4036 -0.4036 0.4036 0.4036 -0.4036 -0.4036 -0.4036 0.4036 0.4036 -0.4036 -0.4036
