-0.327300 0.327300 0.327300 0.327300 -0.327300 -0.327300 0.327300 0.327300 0.327300 0.327300 0.327300 0.327300 -0.327300 0.327300 0.327300 0.327300 0.327300 0.327300 -0.327300 0.327300 -0.327300 -0.327300 -0.327300 -0.327300 -0.327300 -0.327300 -0.327300 -0.327300 0.327300 -0.327300 -0.327300 -0.327300 0.327300 0.327300 -0.327300 -0.327300 -0.327300 -0.327300 -0.327300 0.327300 0.327300 0.327300 -0.327300 -0.327300 -0.327300 0.327300 -0.327300 -0.327300 -0.327300 -0.327300 0.327300 -0.327300 -0.327300 0.327300 0.327300 0.327300 0.327300 -0.327300 -0.327300 -0.327300 0.327300 -0.327300 0.327300 0.327300 -0.327300 -0.327300 0.327300 -0.327300 -0.327300 0.327300 -0.327300 -0.327300 0.327300 -0.327300 -0.327300 0.327300 -0.327300 0.327300 0.327300 0.327300 -0.327300 -0.327300 -0.327300 -0.327300 0.327300 -0.327300 0.327300 -0.327300 -0.327300 -0.327300 0.327300 -0.327300 0.327300 -0.327300 -0.327300 0.327300 0.327300 0.327300 -0.327300 0.327300 -0.327300 0.327300 0.327300 -0.327300 0.327300 0.327300 0.327300 0.327300 -0.327300 -0.327300 0.327300 -0.327300 0.327300 0.327300 -0.327300 -0.327300 -0.327300 0.327300 -0.327300 0.327300 0.327300 -0.327300 0.327300 0.327300 0.327300 -0.327300 -0.327300 0.327300 0.327300 -0.327300 -0.327300 0.327300 0.327300 -0.327300 -0.327300 -0.327300 -0.327300 0.327300 -0.327300 -0.327300 0.327300 0.327300 -0.327300 0.327300 -0.327300 -0.327300 0.327300 -0.327300 0.327300 0.327300 -0.327300 -0.327300 0.327300 -0.327300 0.327300 0.327300 -0.327300 0.327300 0.327300 0.327300 0.327300 -0.327300 0.327300 -0.327300 -0.327300 0.327300 -0.327300 0.327300 -0.327300 0.327300 -0.327300 0.327300 0.327300 -0.327300 -0.327300 -0.327300 0.327300 -0.327300 -0.327300 -0.327300 0.327300 -0.327300 -0.327300 0.327300 -0.327300 -0.327300 0.327300 0.327300 0.327300 -0.327300 -0.327300 -0.327300 -0.327300 -0.327300 -0.327300 0.327300 -0.327300 -0.327300 0.327300 0.327300 0.327300 -0.327300 -0.327300 -0.327300 0.327300 -0.327300 0.327300 -0.327300 0.327300 0.327300 0.327300 0.327300 -0.327300 -0.327300 0.327300 -0.327300 -0.327300 -0.327300 -0.327300 0.327300 -0.327300 0.327300 0.327300 -0.327300 0.327300 0.327300 -0.327300 -0.327300 -0.327300 -0.327300 0.327300 0.327300 -0.327300 -0.327300 -0.327300 0.327300 0.327300 -0.327300 0.327300 -0.327300 0.327300 -0.327300 0.327300 -0.327300 -0.327300 0.327300 -0.327300 -0.327300 -0.327300 -0.327300 0.327300 0.327300 -0.327300 0.327300 -0.327300 -0.327300 0.327300 0.327300 0.327300 -0.327300 -0.327300 -0.327300 0.327300 -0.327300 -0.327300 -0.327300 -0.327300 -0.327300 0.327300 0.327300 0.327300 -0.327300 0.327300 0.327300 -0.327300 0.327300 -0.327300 -0.327300 -0.327300 0.327300 0.327300 0.327300 0.327300 -0.327300 -0.327300 0.327300 -0.327300 0.327300 0.327300 0.327300 -0.327300 -0.327300 -0.327300 -0.327300 -0.327300 -0.327300 -0.327300 0.327300 -0.327300 -0.327300 0.327300 -0.327300 -0.327300 0.327300 0.327300 0.327300 -0.327300 0.327300 0.327300 -0.327300 -0.327300 -0.327300 -0.327300 0.327300 0.327300 -0.327300 0.327300 -0.327300 0.327300 0.327300 -0.327300 -0.327300 -0.327300 0.327300 0.327300 -0.327300 0.327300 -0.327300 0.327300 0.327300 0.327300 0.327300 0.327300 0.327300 0.327300 0.327300 0.327300 -0.327300 0.327300 0.327300 0.327300 -0.327300 -0.327300 -0.327300 0.327300 0.327300 0.327300 -0.327300 0.327300 -0.327300 -0.327300 0.327300 -0.327300 -0.327300 0.327300 0.327300 0.327300 0.327300 0.327300 0.327300 -0.327300 -0.327300 -0.327300 0.327300 0.327300 0.327300 -0.327300 -0.327300 -0.327300 -0.327300 0.327300 0.327300 -0.327300 -0.327300 -0.327300 -0.327300 -0.327300 -0.327300 -0.327300 -0.327300 0.327300 0.327300 -0.327300 0.327300 0.327300 -0.327300 0.327300 -0.327300 0.327300 -0.327300 0.327300 -0.327300 -0.327300 -0.327300 -0.327300 -0.327300 0.327300 0.327300 0.327300 0.327300 -0.327300 -0.327300 -0.327300 0.327300 0.327300 -0.327300 -0.327300 0.327300 0.327300 -0.327300 -0.327300 -0.327300 -0.327300 -0.327300 -0.327300 -0.327300 -0.327300 0.327300 0.327300 0.327300 0.327300 -0.327300 -0.327300 0.327300 0.327300 0.327300 0.327300 -0.327300 0.327300 0.327300 0.327300 -0.327300 -0.327300 -0.327300 -0.327300 0.327300 -0.327300 -0.327300 -0.327300 -0.327300 -0.327300 0.327300 -0.327300 -0.327300 0.327300 0.327300 0.327300 -0.327300 -0.327300 -0.327300 -0.327300 -0.327300 -0.327300 0.327300 0.327300 -0.327300 -0.327300 0.327300 0.327300 0.327300 0.327300 0.327300 0.327300 0.327300 0.327300 0.327300 -0.327300 0.327300 -0.327300 -0.327300 -0.327300 0.327300 -0.327300 -0.327300 0.327300 0.327300 0.327300 -0.327300 -0.327300 -0.327300 -0.327300 -0.327300 0.327300 -0.327300 0.327300 -0.327300 0.327300 0.327300 -0.327300 0.327300 0.327300 0.327300 -0.327300 -0.327300 -0.327300 0.327300 0.327300 0.327300 0.327300 -0.327300 0.327300 -0.327300 0.327300 0.327300 -0.327300 -0.327300 0.327300 -0.327300 0.327300 0.327300 -0.327300 -0.327300 -0.327300 -0.327300 0.327300 0.327300 0.327300 -0.327300 -0.327300 0.327300 0.327300 0.327300 0.327300 -0.327300 -0.327300 -0.327300 -0.327300 0.327300 -0.327300 0.327300 0.327300 0.327300 -0.327300 0.327300 0.327300 0.327300 -0.327300 -0.327300 -0.327300 -0.327300 -0.327300 0.327300 0.327300 0.327300 -0.327300 -0.327300 -0.327300 0.327300 -0.327300 -0.327300 0.327300 -0.327300 -0.327300 -0.327300 0.327300 -0.327300 0.327300 0.327300 0.327300 -0.327300 -0.327300 0.327300 -0.327300 -0.327300 0.327300 -0.327300 -0.327300 -0.327300 -0.327300 0.327300 -0.327300 0.327300 -0.327300 0.327300 0.327300 0.327300 0.327300 0.327300 0.327300 0.327300 -0.327300 -0.327300 -0.327300 -0.327300 0.327300 0.327300 0.327300 -0.327300 -0.327300 0.327300 -0.327300 0.327300 0.327300 0.327300 0.327300 -0.327300 -0.327300 -0.327300 0.327300 0.327300 0.327300 0.327300 0.327300 0.327300 0.327300 0.327300 -0.327300 0.327300 -0.327300 -0.327300 0.327300 0.327300 0.327300 0.327300 -0.327300 0.327300 0.327300 0.327300 -0.327300 0.327300 0.327300 0.327300 -0.327300 0.327300 -0.327300 -0.327300 0.327300 0.327300 0.327300 0.327300 -0.327300 -0.327300 0.327300 0.327300 -0.327300 -0.327300 -0.327300 -0.327300 -0.327300 -0.327300 0.327300 -0.327300 -0.327300 0.327300 0.327300 -0.327300 -0.327300 0.327300 0.327300 0.327300 -0.327300 -0.327300 0.327300 0.327300 0.327300 -0.327300 0.327300 -0.327300 -0.327300 -0.327300 0.327300 0.327300 -0.327300 -0.327300 -0.327300 0.327300 0.327300 0.327300 0.327300 0.327300 0.327300 0.327300 -0.327300 -0.327300 -0.327300 0.327300 -0.327300 0.327300 -0.327300 -0.327300 0.327300 -0.327300 0.327300 -0.327300 0.327300 0.327300 -0.327300 0.327300 -0.327300 0.327300 0.327300 -0.327300 0.327300 0.327300 0.327300 -0.327300 -0.327300 -0.327300 0.327300 0.327300 -0.327300 -0.327300 -0.327300 -0.327300 -0.327300 0.327300 -0.327300 0.327300 -0.327300 0.327300 0.327300 0.327300 -0.327300 -0.327300 -0.327300 0.327300 0.327300 0.327300 -0.327300 -0.327300 0.327300 0.327300 0.327300 0.327300 0.327300 -0.327300 -0.327300 -0.327300 0.327300 -0.327300 -0.327300 -0.327300 0.327300 0.327300 0.327300 -0.327300 -0.327300 -0.327300 -0.327300 -0.327300 0.327300 -0.327300 0.327300 -0.327300 -0.327300 0.327300 -0.327300 -0.327300 0.327300 0.327300 0.327300 -0.327300 -0.327300 0.327300 -0.327300 0.327300 0.327300 -0.327300 -0.327300 0.327300 0.327300 0.327300 -0.327300 -0.327300 -0.327300 -0.327300 -0.327300 -0.327300 0.327300 -0.327300 -0.327300 -0.327300 -0.327300 0.327300 -0.327300 -0.327300 0.327300 -0.327300 -0.327300 0.327300 0.327300 -0.327300 0.327300 -0.327300 -0.327300 0.327300 -0.327300 0.327300 -0.327300 -0.327300 0.327300 0.327300 0.327300 -0.327300 -0.327300 0.327300 0.327300 0.327300 -0.327300 -0.327300 -0.327300 -0.327300 0.327300 0.327300 0.327300 0.327300 -0.327300 -0.327300 -0.327300 0.327300 0.327300 -0.327300 0.327300 -0.327300 0.327300 0.327300 -0.327300 0.327300 -0.327300 -0.327300 0.327300 0.327300 0.327300 0.327300 -0.327300 0.327300 -0.327300 0.327300 -0.327300 0.327300 -0.327300 -0.327300 0.327300 -0.327300 -0.327300 0.327300 -0.327300 -0.327300 0.327300 0.327300 -0.327300 -0.327300 0.327300 -0.327300 -0.327300 0.327300 -0.327300 0.327300 -0.327300 -0.327300 -0.327300 -0.327300 0.327300 0.327300 -0.327300 -0.327300 -0.327300 0.327300 0.327300 0.327300 0.327300 -0.327300 0.327300 -0.327300 -0.327300 0.327300 0.327300 -0.327300 -0.327300 -0.327300 -0.327300 -0.327300 -0.327300 0.327300 0.327300 -0.327300 -0.327300 0.327300 0.327300 0.327300 -0.327300 -0.327300 0.327300 -0.327300 0.327300 -0.327300 -0.327300 0.327300 0.327300 -0.327300 0.327300 -0.327300 0.327300 0.327300 0.327300 0.327300 -0.327300 0.327300 -0.327300 -0.327300 0.327300 0.327300 0.327300 0.327300 -0.327300 0.327300 0.327300 -0.327300 -0.327300 0.327300 -0.327300 0.327300 0.327300 -0.327300 -0.327300 0.327300 -0.327300 0.327300 -0.327300 -0.327300 -0.327300 0.327300 -0.327300 -0.327300 0.327300 0.327300 -0.327300 0.327300 0.327300 -0.327300 -0.327300 0.327300 0.327300 -0.327300 -0.327300 -0.327300 -0.327300 -0.327300 -0.327300 0.327300 0.327300 -0.327300 0.327300 -0.327300 -0.327300 0.327300 0.327300 0.327300 -0.327300 0.327300 -0.327300 0.327300 0.327300 0.327300 0.327300 -0.327300 -0.327300 -0.327300 0.327300 -0.327300 -0.327300 0.327300 -0.327300 0.327300 0.327300 -0.327300 -0.327300 -0.327300 0.327300 0.327300 0.327300 0.327300 -0.327300 -0.327300 0.327300 -0.327300 0.327300 0.327300 -0.327300 -0.327300 -0.327300 -0.327300 0.327300 0.327300 -0.327300 -0.327300 -0.327300 -0.327300 0.327300 -0.327300 -0.327300 0.327300 0.327300 -0.327300 -0.327300 -0.327300 -0.327300 0.327300 0.327300 0.327300 -0.327300 0.327300 -0.327300 0.327300 -0.327300 -0.327300 -0.327300 0.327300 0.327300 -0.327300 -0.327300 0.327300 0.327300 0.327300 -0.327300 0.327300 -0.327300 -0.327300 -0.327300 0.327300 -0.327300 0.327300 0.327300 -0.327300 0.327300 -0.327300 0.327300 0.327300 -0.327300 0.327300 0.327300 0.327300 0.327300 0.327300 -0.327300 -0.327300 -0.327300 0.327300 0.327300 0.327300 0.327300 0.327300 -0.327300 -0.327300 0.327300 0.327300 -0.327300 -0.327300 -0.327300 0.327300 -0.327300 0.327300 0.327300 0.327300 0.327300 0.327300 -0.327300 -0.327300 -0.327300 -0.327300 0.327300 0.327300 0.327300 0.327300 -0.327300 -0.327300 0.327300 -0.327300 -0.327300 0.327300 -0.327300 0.327300 0.327300 -0.327300 0.327300 -0.327300 0.327300 0.327300 0.327300 0.327300 0.327300 0.327300 -0.327300 -0.327300 -0.327300 0.327300 0.327300 -0.327300 -0.327300 0.327300 0.327300 -0.327300 -0.327300 -0.327300 0.327300 0.327300 -0.327300 -0.327300 -0.327300 -0.327300 -0.327300 -0.327300 0.327300 -0.327300 0.327300 0.327300 0.327300 -0.327300 -0.327300 -0.327300 0.327300 0.327300 -0.327300 0.327300 -0.327300 0.327300 -0.327300 0.327300 0.327300 -0.327300 0.327300 0.327300 -0.327300 -0.327300 0.327300 0.327300 0.327300 0.327300 -0.327300 -0.327300 -0.327300 0.327300 0.327300 0.327300 0.327300 -0.327300 0.327300 0.327300 0.327300 -0.327300 0.327300 0.327300 -0.327300 0.327300 -0.327300 0.327300 -0.327300 -0.327300 -0.327300 0.327300 -0.327300 -0.327300 -0.327300 0.327300 -0.327300 -0.327300 0.327300 -0.327300 0.327300 -0.327300 0.327300 0.327300 0.327300 0.327300 0.327300 0.327300 0.327300 0.327300 0.327300 -0.327300 -0.327300 0.327300 -0.327300 -0.327300 -0.327300 0.327300 -0.327300 0.327300 0.327300 -0.327300 -0.327300 -0.327300 -0.327300 -0.327300 -0.327300 0.327300 0.327300 0.327300 0.327300 0.327300 -0.327300 -0.327300 -0.327300 0.327300 0.327300 0.327300 -0.327300 0.327300 -0.327300 -0.327300 -0.327300 -0.327300 -0.327300 0.327300 -0.327300 0.327300 -0.327300 -0.327300 -0.327300 0.327300 0.327300 -0.327300 0.327300 0.327300 0.327300 -0.327300 -0.327300 -0.327300 0.327300 0.327300 -0.327300 -0.327300 0.327300 -0.327300 -0.327300 0.327300 0.327300 0.327300 -0.327300 -0.327300 -0.327300 -0.327300 -0.327300 -0.327300 0.327300 0.327300 0.327300 -0.327300 -0.327300 0.327300 -0.327300 -0.327300 -0.327300 0.327300 0.327300 -0.327300 0.327300 0.327300 0.327300 -0.327300 -0.327300 0.327300 -0.327300 -0.327300 -0.327300 -0.327300 0.327300 -0.327300 -0.327300 0.327300 -0.327300 -0.327300 -0.327300 -0.327300 -0.327300 -0.327300 0.327300 0.327300 0.327300 -0.327300 -0.327300 0.327300 -0.327300 0.327300 0.327300 0.327300 -0.327300 0.327300 0.327300 0.327300 0.327300 -0.327300 0.327300 -0.327300 0.327300 0.327300 0.327300 0.327300 -0.327300 0.327300 -0.327300 0.327300 -0.327300 -0.327300 0.327300 0.327300 -0.327300 0.327300 -0.327300 -0.327300 -0.327300 0.327300 0.327300 -0.327300 -0.327300 0.327300 0.327300 0.327300 0.327300 0.327300 0.327300 0.327300 -0.327300 0.327300 0.327300 -0.327300 0.327300 -0.327300 0.327300 0.327300 0.327300 -0.327300 0.327300 0.327300 -0.327300 -0.327300 0.327300 -0.327300 0.327300 -0.327300 -0.327300 0.327300 -0.327300 -0.327300 -0.327300 0.327300 0.327300 -0.327300 0.327300 -0.327300 -0.327300 -0.327300 0.327300 0.327300 0.327300 -0.327300 -0.327300 -0.327300 0.327300 0.327300 0.327300 0.327300 -0.327300 -0.327300 0.327300 -0.327300 -0.327300 0.327300 0.327300 0.327300 -0.327300 0.327300 0.327300 -0.327300 -0.327300 0.327300 0.327300 -0.327300 0.327300 -0.327300 -0.327300 -0.327300 -0.327300 0.327300 -0.327300 0.327300 0.327300 0.327300 -0.327300 0.327300 -0.327300 0.327300 -0.327300 0.327300 0.327300 -0.327300 0.327300 -0.327300 -0.327300 0.327300 0.327300 0.327300 -0.327300 -0.327300 0.327300 0.327300 0.327300 -0.327300 -0.327300 -0.327300 0.327300 0.327300 0.327300 -0.327300 0.327300 -0.327300 0.327300 -0.327300 -0.327300 -0.327300 0.327300 -0.327300 -0.327300 0.327300 -0.327300 -0.327300 0.327300 0.327300 -0.327300 0.327300 -0.327300 -0.327300 0.327300 0.327300 0.327300 0.327300 -0.327300 -0.327300 -0.327300 0.327300 -0.327300 -0.327300 0.327300 0.327300 0.327300 -0.327300 0.327300 0.327300 0.327300 0.327300 -0.327300 -0.327300 0.327300 -0.327300 0.327300 -0.327300 0.327300 0.327300 -0.327300 -0.327300 0.327300 0.327300 -0.327300 -0.327300 -0.327300 0.327300 -0.327300 0.327300 0.327300 0.327300 -0.327300 0.327300 0.327300 0.327300 0.327300 -0.327300 -0.327300 -0.327300 0.327300 -0.327300 0.327300 0.327300 0.327300 0.327300 0.327300 0.327300 0.327300 -0.327300 -0.327300 0.327300 0.327300 0.327300 0.327300 -0.327300 0.327300 -0.327300 0.327300 -0.327300 0.327300 0.327300 -0.327300 -0.327300 0.327300 0.327300 0.327300 -0.327300 0.327300 -0.327300 -0.327300 -0.327300 -0.327300 -0.327300 -0.327300 -0.327300 0.327300 0.327300 0.327300 -0.327300 0.327300 0.327300 -0.327300 -0.327300 -0.327300 0.327300 0.327300 -0.327300 -0.327300 0.327300 -0.327300 -0.327300 0.327300 -0.327300 -0.327300 -0.327300 -0.327300 0.327300 -0.327300 -0.327300 0.327300 -0.327300 0.327300 -0.327300 0.327300 -0.327300 0.327300 0.327300 -0.327300 -0.327300 0.327300 0.327300 0.327300 0.327300 -0.327300 0.327300 -0.327300 0.327300 0.327300 -0.327300 0.327300 -0.327300 0.327300 -0.327300 0.327300 -0.327300 0.327300 0.327300 -0.327300 0.327300 0.327300 0.327300 -0.327300 -0.327300 0.327300 0.327300 -0.327300 -0.327300 0.327300 0.327300 0.327300 -0.327300 -0.327300 -0.327300 -0.327300 -0.327300 -0.327300 -0.327300 0.327300 0.327300 -0.327300 -0.327300 -0.327300 0.327300 0.327300 0.327300 0.327300 0.327300 0.327300 0.327300 0.327300 0.327300 -0.327300 0.327300 -0.327300 -0.327300 0.327300 0.327300 -0.327300 0.327300 -0.327300 0.327300 0.327300 0.327300 -0.327300 0.327300 0.327300 0.327300 0.327300 0.327300 -0.327300 -0.327300 -0.327300 0.327300 0.327300 -0.327300 -0.327300 0.327300 0.327300 0.327300 -0.327300 -0.327300 -0.327300 -0.327300 -0.327300 -0.327300 0.327300 0.327300 -0.327300 0.327300 -0.327300 -0.327300 0.327300 -0.327300 -0.327300 -0.327300 -0.327300 -0.327300 0.327300 -0.327300 -0.327300 -0.327300 0.327300 0.327300 0.327300 0.327300 -0.327300 0.327300 -0.327300 -0.327300 0.327300 0.327300 -0.327300 -0.327300 -0.327300 -0.327300 -0.327300 0.327300 0.327300 0.327300 -0.327300 0.327300 0.327300 0.327300 0.327300 -0.327300 0.327300 0.327300 0.327300 0.327300 -0.327300 -0.327300 -0.327300 0.327300 0.327300 -0.327300 -0.327300 -0.327300 0.327300 0.327300 -0.327300 -0.327300 -0.327300 0.327300 0.327300 0.327300 -0.327300 0.327300 -0.327300 -0.327300 -0.327300 -0.327300 -0.327300 -0.327300 0.327300 -0.327300 -0.327300 0.327300 0.327300 0.327300 -0.327300 -0.327300 0.327300 -0.327300 -0.327300 -0.327300 -0.327300 -0.327300 -0.327300 -0.327300 -0.327300 -0.327300 0.327300 0.327300 0.327300 -0.327300 0.327300 -0.327300 -0.327300 -0.327300 -0.327300 0.327300 0.327300 0.327300 -0.327300 0.327300 0.327300 -0.327300 -0.327300 -0.327300 0.327300 0.327300 -0.327300 0.327300 0.327300 -0.327300 0.327300 -0.327300 0.327300 -0.327300 0.327300 -0.327300 0.327300 -0.327300 0.327300 0.327300 0.327300 0.327300 0.327300 0.327300 -0.327300 -0.327300 0.327300 0.327300 0.327300 0.327300 0.327300 -0.327300 -0.327300 -0.327300 0.327300 0.327300 0.327300 -0.327300 -0.327300 -0.327300 0.327300 -0.327300 -0.327300 -0.327300 0.327300 0.327300 -0.327300 0.327300 -0.327300 0.327300 0.327300 -0.327300 0.327300 0.327300 -0.327300 0.327300 -0.327300 0.327300 0.327300 0.327300 0.327300 -0.327300 -0.327300 0.327300 0.327300 -0.327300 0.327300 -0.327300 0.327300 -0.327300 -0.327300 0.327300 0.327300 -0.327300 0.327300 0.327300 0.327300 0.327300 -0.327300 -0.327300 0.327300 0.327300 -0.327300 0.327300 -0.327300 0.327300 -0.327300 0.327300 -0.327300 -0.327300 0.327300 -0.327300 -0.327300 0.327300 0.327300 -0.327300 0.327300 0.327300 0.327300 -0.327300 0.327300 0.327300 0.327300 0.327300 0.327300 0.327300 -0.327300 -0.327300 -0.327300 0.327300 -0.327300 0.327300 -0.327300 -0.327300 -0.327300 -0.327300 0.327300 0.327300 0.327300 -0.327300 -0.327300 -0.327300 -0.327300 0.327300 0.327300 -0.327300 -0.327300 -0.327300 -0.327300 0.327300 -0.327300 -0.327300 0.327300 0.327300 -0.327300 -0.327300 -0.327300 -0.327300 0.327300 -0.327300 -0.327300 0.327300 -0.327300 -0.327300 0.327300 0.327300 0.327300 -0.327300 0.327300 -0.327300 0.327300 -0.327300 -0.327300 -0.327300 -0.327300 -0.327300 -0.327300 -0.327300 -0.327300 -0.327300 0.327300 -0.327300 0.327300 0.327300 0.327300 0.327300 0.327300 0.327300 -0.327300 0.327300 0.327300 -0.327300 0.327300 0.327300 0.327300 -0.327300 0.327300 -0.327300 0.327300 0.327300 0.327300 -0.327300 0.327300 0.327300 -0.327300 -0.327300 0.327300 0.327300 -0.327300 0.327300 -0.327300 -0.327300 0.327300 -0.327300 -0.327300 0.327300 -0.327300 0.327300 0.327300 -0.327300 0.327300 0.327300 -0.327300 -0.327300 -0.327300 0.327300 -0.327300 -0.327300 0.327300 -0.327300 0.327300 -0.327300 -0.327300 -0.327300 -0.327300 -0.327300 -0.327300 -0.327300 0.327300 0.327300 -0.327300 -0.327300 -0.327300 -0.327300 0.327300 0.327300 -0.327300 0.327300 0.327300 -0.327300 -0.327300 0.327300 0.327300 -0.327300 -0.327300 -0.327300 0.327300 -0.327300 -0.327300 -0.327300 -0.327300 0.327300 0.327300 -0.327300 -0.327300 -0.327300 0.327300 -0.327300 0.327300 0.327300 0.327300 0.327300 -0.327300 -0.327300 -0.327300 -0.327300 0.327300 0.327300 0.327300 0.327300 -0.327300 -0.327300 0.327300 0.327300 -0.327300 0.327300 -0.327300 -0.327300 0.327300 0.327300 -0.327300 -0.327300 0.327300 0.327300 0.327300 0.327300 0.327300 0.327300 0.327300 -0.327300 -0.327300 0.327300 -0.327300 0.327300 -0.327300 -0.327300 0.327300 0.327300 0.327300 0.327300 -0.327300 0.327300 0.327300 0.327300 0.327300 -0.327300 0.327300 -0.327300 0.327300 0.327300 -0.327300 0.327300 -0.327300 0.327300 0.327300 -0.327300 0.327300 0.327300 0.327300 -0.327300 -0.327300 0.327300 -0.327300 -0.327300 0.327300 0.327300 0.327300 0.327300 -0.327300 0.327300 -0.327300 0.327300 0.327300 -0.327300 0.327300 -0.327300 -0.327300 0.327300 -0.327300 -0.327300 -0.327300 0.327300 0.327300 0.327300 -0.327300 -0.327300 0.327300 -0.327300 -0.327300 0.327300 0.327300 0.327300 0.327300 0.327300 0.327300 -0.327300 -0.327300 0.327300 -0.327300 0.327300 0.327300 0.327300 -0.327300 0.327300 0.327300 0.327300 -0.327300 -0.327300 0.327300 -0.327300 -0.327300 -0.327300 -0.327300 0.327300 0.327300 0.327300 -0.327300 -0.327300 -0.327300 0.327300 0.327300 -0.327300 -0.327300 0.327300 0.327300 -0.327300 -0.327300 0.327300 -0.327300 -0.327300 0.327300 -0.327300 -0.327300 -0.327300 0.327300 0.327300 0.327300 0.327300 0.327300 0.327300 -0.327300 -0.327300 -0.327300 -0.327300 0.327300 -0.327300 0.327300 -0.327300 0.327300 -0.327300 0.327300 -0.327300 0.327300 0.327300 0.327300 0.327300 -0.327300 0.327300 -0.327300 -0.327300 0.327300 -0.327300 0.327300 -0.327300 0.327300 -0.327300 -0.327300 -0.327300 -0.327300 -0.327300 0.327300 0.327300 -0.327300 0.327300 -0.327300 0.327300 -0.327300 0.327300 -0.327300 -0.327300 -0.327300 0.327300 -0.327300 -0.327300 -0.327300 0.327300 0.327300 -0.327300 0.327300 -0.327300 0.327300 0.327300 -0.327300 -0.327300 0.327300 -0.327300 0.327300 0.327300 0.327300 0.327300 -0.327300 -0.327300 -0.327300 -0.327300 -0.327300 0.327300 -0.327300 -0.327300 0.327300 -0.327300 0.327300 0.327300 -0.327300 0.327300 0.327300 -0.327300 -0.327300 -0.327300 0.327300 0.327300 0.327300 0.327300 0.327300 -0.327300 -0.327300 -0.327300 0.327300 -0.327300 -0.327300 0.327300 -0.327300 0.327300 0.327300 -0.327300 -0.327300 -0.327300 0.327300 0.327300 -0.327300 -0.327300 0.327300 -0.327300 -0.327300 0.327300 0.327300 0.327300 0.327300 0.327300 -0.327300 0.327300 0.327300 0.327300 0.327300 -0.327300 -0.327300 -0.327300 -0.327300 -0.327300 -0.327300 -0.327300 0.327300 -0.327300 -0.327300 0.327300 0.327300 0.327300 0.327300 0.327300 0.327300 0.327300 0.327300 0.327300 0.327300 0.327300 -0.327300 0.327300 0.327300 -0.327300 -0.327300 -0.327300 0.327300 0.327300 -0.327300 -0.327300 0.327300 0.327300 -0.327300 0.327300 -0.327300 0.327300 -0.327300 -0.327300 -0.327300 -0.327300 0.327300 -0.327300 0.327300 0.327300 0.327300 0.327300 0.327300 0.327300 0.327300 -0.327300 -0.327300 -0.327300 -0.327300 0.327300 -0.327300 -0.327300 0.327300 -0.327300 0.327300 -0.327300 -0.327300 0.327300 0.327300 0.327300 -0.327300 -0.327300 0.327300 -0.327300 0.327300 0.327300 0.327300 -0.327300 0.327300 0.327300 0.327300 0.327300 0.327300 -0.327300 -0.327300 0.327300 -0.327300 -0.327300 -0.327300 -0.327300 -0.327300 -0.327300 0.327300 -0.327300 -0.327300 -0.327300 0.327300 0.327300 0.327300 -0.327300 -0.327300 -0.327300 -0.327300 -0.327300 0.327300 0.327300 0.327300 -0.327300 -0.327300 -0.327300 -0.327300 -0.327300 -0.327300 0.327300 0.327300 0.327300 0.327300 0.327300 0.327300 -0.327300 -0.327300 -0.327300 0.327300 0.327300 -0.327300 0.327300 0.327300 -0.327300 0.327300 -0.327300 -0.327300 -0.327300 -0.327300 0.327300 -0.327300 -0.327300 0.327300 -0.327300 -0.327300 -0.327300 -0.327300 0.327300 0.327300 0.327300 0.327300 0.327300 0.327300 -0.327300 -0.327300 0.327300 -0.327300 -0.327300 -0.327300 0.327300 -0.327300 0.327300 0.327300 0.327300 -0.327300 0.327300 0.327300 0.327300 0.327300 -0.327300 0.327300 0.327300 -0.327300 0.327300 -0.327300 -0.327300 0.327300 0.327300 0.327300 -0.327300 -0.327300 -0.327300 -0.327300 0.327300 -0.327300 -0.327300 -0.327300 0.327300 0.327300 -0.327300 -0.327300 -0.327300 0.327300 0.327300 0.327300 0.327300 0.327300 0.327300 0.327300 0.327300 0.327300 0.327300 0.327300 -0.327300 -0.327300 -0.327300 -0.327300 -0.327300 -0.327300 0.327300 0.327300 0.327300 0.327300 0.327300 -0.327300 -0.327300 0.327300 -0.327300 0.327300 0.327300 0.327300 0.327300 0.327300 -0.327300 -0.327300 0.327300 -0.327300 -0.327300 0.327300 -0.327300 -0.327300 0.327300 0.327300 0.327300 -0.327300 -0.327300 -0.327300 0.327300 0.327300 -0.327300 -0.327300 -0.327300 -0.327300 0.327300 -0.327300 -0.327300 0.327300 0.327300 -0.327300 0.327300 -0.327300 0.327300 -0.327300 -0.327300 0.327300 -0.327300 -0.327300 -0.327300 -0.327300 0.327300 -0.327300 0.327300 -0.327300 0.327300 -0.327300 -0.327300 -0.327300 -0.327300 0.327300 0.327300 0.327300 0.327300 -0.327300 -0.327300 -0.327300 -0.327300 0.327300 -0.327300 0.327300 -0.327300 -0.327300 0.327300 0.327300 -0.327300 0.327300 0.327300 0.327300 0.327300 0.327300 0.327300 0.327300 0.327300 0.327300 0.327300 0.327300 0.327300 0.327300 -0.327300 -0.327300 0.327300 -0.327300 -0.327300 -0.327300 -0.327300 -0.327300 0.327300 0.327300 -0.327300 0.327300 0.327300 0.327300 -0.327300 0.327300 -0.327300 0.327300 0.327300 0.327300 0.327300 0.327300 -0.327300 -0.327300 0.327300 0.327300 0.327300 -0.327300 -0.327300 -0.327300 -0.327300 -0.327300 0.327300 -0.327300 -0.327300 -0.327300 -0.327300 -0.327300 -0.327300 0.327300 0.327300 0.327300 0.327300 0.327300 0.327300 -0.327300 0.327300 0.327300 -0.327300 -0.327300 -0.327300 0.327300 0.327300 -0.327300 -0.327300 0.327300 -0.327300 0.327300 -0.327300 -0.327300 0.327300 -0.327300 -0.327300 -0.327300 0.327300 0.327300 -0.327300 -0.327300 0.327300 0.327300 0.327300 0.327300 -0.327300 -0.327300 0.327300 -0.327300 0.327300 0.327300 -0.327300 -0.327300 0.327300 -0.327300 0.327300 -0.327300 -0.327300 -0.327300 0.327300 0.327300 -0.327300 0.327300 0.327300 0.327300 -0.327300 -0.327300 -0.327300 0.327300 0.327300 -0.327300 -0.327300 -0.327300 0.327300 0.327300 0.327300 -0.327300 -0.327300 -0.327300 -0.327300 0.327300 0.327300 -0.327300 0.327300 0.327300 0.327300 0.327300 0.327300 -0.327300 -0.327300 -0.327300 0.327300 0.327300 0.327300 0.327300 0.327300 0.327300 0.327300 0.327300 0.327300 0.327300 0.327300 0.327300 -0.327300 -0.327300 0.327300 -0.327300 -0.327300 -0.327300 -0.327300 0.327300 0.327300 0.327300 0.327300 0.327300 0.327300 -0.327300 -0.327300 0.327300 0.327300 0.327300 -0.327300 0.327300 -0.327300 -0.327300 -0.327300 -0.327300 -0.327300 -0.327300 -0.327300 -0.327300 -0.327300 0.327300 -0.327300 -0.327300 -0.327300 -0.327300 -0.327300 -0.327300 0.327300 0.327300 -0.327300 0.327300 -0.327300 0.327300 0.327300 -0.327300 -0.327300 0.327300 0.327300 -0.327300 0.327300 0.327300 -0.327300 0.327300 -0.327300 0.327300 0.327300 0.327300 -0.327300 -0.327300 0.327300 0.327300 -0.327300 0.327300 0.327300 -0.327300 0.327300 0.327300 0.327300 0.327300 -0.327300 -0.327300 0.327300 0.327300 -0.327300 -0.327300 -0.327300 0.327300 -0.327300 0.327300 0.327300 0.327300 -0.327300 -0.327300 0.327300 0.327300 0.327300 -0.327300 -0.327300 -0.327300 0.327300 0.327300 -0.327300 0.327300 -0.327300 -0.327300 0.327300 0.327300 0.327300 0.327300 0.327300 0.327300 0.327300 0.327300 -0.327300 -0.327300 0.327300 -0.327300 0.327300 -0.327300 -0.327300 -0.327300 0.327300 -0.327300 -0.327300 -0.327300 0.327300 0.327300 -0.327300 0.327300 0.327300 0.327300 0.327300 0.327300 -0.327300 0.327300 0.327300 -0.327300 -0.327300 -0.327300 -0.327300 -0.327300 -0.327300 -0.327300 0.327300 0.327300 0.327300 0.327300 0.327300 0.327300 0.327300 0.327300 -0.327300 -0.327300 0.327300 0.327300 0.327300 -0.327300 -0.327300 0.327300 0.327300 0.327300 -0.327300 0.327300 -0.327300 -0.327300 0.327300 0.327300 0.327300 0.327300 -0.327300 -0.327300 -0.327300 -0.327300 -0.327300 0.327300 0.327300 -0.327300 -0.327300 -0.327300 -0.327300 -0.327300 -0.327300 -0.327300 -0.327300 -0.327300 -0.327300 0.327300 0.327300 0.327300 0.327300 0.327300 0.327300 0.327300 -0.327300 0.327300 -0.327300 -0.327300 0.327300 0.327300 0.327300 -0.327300 -0.327300 -0.327300 -0.327300 0.327300 -0.327300 0.327300 -0.327300 -0.327300 -0.327300 -0.327300 0.327300 0.327300 -0.327300 0.327300 -0.327300 -0.327300 -0.327300 0.327300 0.327300 -0.327300 0.327300 0.327300 0.327300 0.327300 0.327300 0.327300 0.327300 -0.327300 0.327300 -0.327300 0.327300 0.327300 -0.327300 -0.327300 0.327300 0.327300 -0.327300 -0.327300 -0.327300 0.327300 0.327300 0.327300 0.327300 -0.327300 0.327300 0.327300 0.327300 0.327300 0.327300 -0.327300 0.327300 -0.327300 0.327300 -0.327300 -0.327300 -0.327300 0.327300 0.327300 -0.327300 0.327300 -0.327300 -0.327300 -0.327300 0.327300 0.327300 0.327300 -0.327300 0.327300 0.327300 0.327300 0.327300 -0.327300 0.327300 0.327300 -0.327300 0.327300 -0.327300 0.327300 -0.327300 -0.327300 -0.327300 0.327300 -0.327300 0.327300 0.327300 0.327300 0.327300 -0.327300 0.327300 -0.327300 0.327300 -0.327300 0.327300 -0.327300 0.327300 -0.327300 -0.327300 -0.327300 0.327300 0.327300 0.327300 0.327300 0.327300 0.327300 -0.327300 0.327300 -0.327300 0.327300 0.327300 -0.327300 -0.327300 -0.327300 0.327300 -0.327300 0.327300 -0.327300 0.327300 -0.327300 -0.327300 0.327300 -0.327300 -0.327300 -0.327300 -0.327300 -0.327300 0.327300 0.327300 0.327300 0.327300 0.327300 -0.327300 -0.327300 -0.327300 -0.327300 0.327300 0.327300 -0.327300 -0.327300 -0.327300 0.327300 -0.327300 0.327300 0.327300 -0.327300 -0.327300 0.327300 0.327300 0.327300 0.327300 0.327300 -0.327300 -0.327300 -0.327300 0.327300 0.327300 -0.327300 0.327300 -0.327300 0.327300 -0.327300 0.327300 -0.327300 0.327300 -0.327300 0.327300 0.327300 0.327300 -0.327300 0.327300 0.327300 -0.327300 0.327300 0.327300 -0.327300 0.327300 0.327300 0.327300 -0.327300 0.327300 0.327300 0.327300 0.327300 -0.327300 -0.327300 -0.327300 -0.327300 0.327300 -0.327300 0.327300 -0.327300 -0.327300 0.327300 -0.327300 -0.327300 0.327300 0.327300 -0.327300 0.327300 0.327300 -0.327300 0.327300 -0.327300 0.327300 -0.327300 -0.327300 -0.327300 -0.327300 -0.327300 -0.327300 -0.327300 0.327300 -0.327300 -0.327300 -0.327300 0.327300 0.327300 0.327300 -0.327300 -0.327300 -0.327300 0.327300 -0.327300 0.327300 0.327300 -0.327300 -0.327300 -0.327300 0.327300 -0.327300 -0.327300 -0.327300 0.327300 0.327300 0.327300 0.327300 0.327300 0.327300 0.327300 -0.327300 -0.327300 -0.327300 -0.327300 0.327300 -0.327300 -0.327300 0.327300 -0.327300 0.327300 -0.327300 -0.327300 0.327300 -0.327300 -0.327300 -0.327300 -0.327300 0.327300 0.327300 0.327300 -0.327300 -0.327300 0.327300 -0.327300 0.327300 0.327300 -0.327300 0.327300 -0.327300 0.327300 -0.327300 0.327300 -0.327300 -0.327300 0.327300 -0.327300 -0.327300 -0.327300 -0.327300 0.327300 -0.327300 0.327300 0.327300 -0.327300 -0.327300 -0.327300 0.327300 -0.327300 0.327300 0.327300 0.327300 -0.327300 0.327300 0.327300 0.327300 -0.327300 0.327300 0.327300 0.327300 0.327300 -0.327300 -0.327300 -0.327300 -0.327300 0.327300 0.327300 -0.327300 -0.327300 -0.327300 -0.327300 -0.327300 -0.327300 0.327300 -0.327300 0.327300 0.327300 0.327300 0.327300 0.327300 -0.327300 -0.327300 -0.327300 -0.327300 -0.327300 0.327300 -0.327300 -0.327300 -0.327300 0.327300 0.327300 -0.327300 -0.327300 -0.327300 0.327300 -0.327300 0.327300 -0.327300 0.327300 0.327300 -0.327300 -0.327300 -0.327300 0.327300 0.327300 -0.327300 -0.327300 0.327300 0.327300 -0.327300 0.327300 -0.327300 0.327300 0.327300 -0.327300 0.327300 -0.327300 0.327300 -0.327300 -0.327300 -0.327300 -0.327300 0.327300 0.327300 -0.327300 -0.327300 0.327300 0.327300 -0.327300 -0.327300 0.327300 0.327300 -0.327300 -0.327300 -0.327300 -0.327300 0.327300 0.327300 0.327300 -0.327300 -0.327300 0.327300 -0.327300 -0.327300 -0.327300 -0.327300 -0.327300 -0.327300 -0.327300 -0.327300 -0.327300 -0.327300 -0.327300 -0.327300 -0.327300 0.327300 0.327300 -0.327300 -0.327300 -0.327300 -0.327300 -0.327300 -0.327300 0.327300 -0.327300 -0.327300 -0.327300 -0.327300 -0.327300 0.327300 -0.327300 0.327300 -0.327300 -0.327300 -0.327300 -0.327300 0.327300 0.327300 0.327300 -0.327300 0.327300 -0.327300 -0.327300 -0.327300 -0.327300 -0.327300 -0.327300 -0.327300 -0.327300 -0.327300 0.327300 0.327300 0.327300 0.327300 0.327300 -0.327300 -0.327300 -0.327300 -0.327300 -0.327300 -0.327300 -0.327300 0.327300 -0.327300 -0.327300 0.327300 -0.327300 -0.327300 0.327300 -0.327300 0.327300 0.327300 -0.327300 -0.327300 -0.327300 0.327300 -0.327300 -0.327300 -0.327300 -0.327300 -0.327300 0.327300 0.327300 -0.327300 -0.327300 0.327300 0.327300 0.327300 0.327300 0.327300 0.327300 -0.327300 -0.327300 -0.327300 -0.327300 -0.327300 -0.327300 -0.327300 -0.327300 -0.327300 0.327300 -0.327300 -0.327300 0.327300 0.327300 -0.327300 -0.327300 0.327300 0.327300 -0.327300 0.327300 -0.327300 -0.327300 -0.327300 -0.327300 -0.327300 -0.327300 -0.327300 -0.327300 -0.327300 -0.327300 0.327300 -0.327300 -0.327300 -0.327300 -0.327300 0.327300 -0.327300 0.327300 0.327300 0.327300 -0.327300 0.327300 0.327300 0.327300 0.327300 -0.327300 -0.327300 0.327300 -0.327300 0.327300 -0.327300 -0.327300 0.327300 -0.327300 0.327300 -0.327300 -0.327300 -0.327300 -0.327300 0.327300 -0.327300 -0.327300 0.327300 -0.327300 0.327300 0.327300 -0.327300 -0.327300 0.327300 -0.327300 0.327300 -0.327300 -0.327300 -0.327300 -0.327300 -0.327300 0.327300 0.327300 0.327300 -0.327300 0.327300 0.327300 -0.327300 0.327300 0.327300 -0.327300 -0.327300 0.327300 -0.327300 0.327300 0.327300 -0.327300 -0.327300 -0.327300 -0.327300 0.327300 -0.327300 0.327300 -0.327300 0.327300 0.327300 0.327300 -0.327300 -0.327300 -0.327300 -0.327300 -0.327300 -0.327300 -0.327300 -0.327300 -0.327300 0.327300 -0.327300 -0.327300 -0.327300 0.327300 0.327300 0.327300 0.327300 0.327300 0.327300 0.327300 -0.327300 0.327300 0.327300 0.327300 0.327300 0.327300 0.327300 0.327300 0.327300 -0.327300 -0.327300 -0.327300 -0.327300 0.327300 -0.327300 -0.327300 -0.327300 0.327300 -0.327300 -0.327300 -0.327300 -0.327300 -0.327300 -0.327300 0.327300 0.327300 0.327300 -0.327300 0.327300 0.327300 0.327300 -0.327300 0.327300 0.327300 0.327300 -0.327300 0.327300 -0.327300 -0.327300 -0.327300 0.327300 0.327300 0.327300 0.327300 0.327300 -0.327300 -0.327300 -0.327300 -0.327300 0.327300 -0.327300 -0.327300 0.327300 -0.327300 -0.327300 0.327300 0.327300 -0.327300 0.327300 -0.327300 -0.327300 -0.327300 -0.327300 0.327300 0.327300 -0.327300 -0.327300 -0.327300 0.327300 -0.327300 0.327300 0.327300 -0.327300 -0.327300 -0.327300 0.327300 0.327300 0.327300 -0.327300 -0.327300 -0.327300 -0.327300 -0.327300 0.327300 -0.327300 0.327300 0.327300 -0.327300 0.327300 -0.327300 -0.327300 -0.327300 0.327300 0.327300 0.327300 -0.327300 0.327300 -0.327300 0.327300 0.327300 0.327300 -0.327300 -0.327300 0.327300 0.327300 0.327300 0.327300 -0.327300 0.327300 0.327300 0.327300 -0.327300 -0.327300 -0.327300 -0.327300 -0.327300 -0.327300 0.327300 -0.327300 -0.327300 -0.327300 0.327300 -0.327300 0.327300 0.327300 0.327300 -0.327300 0.327300 0.327300 0.327300 0.327300 0.327300 -0.327300 0.327300 0.327300 -0.327300 0.327300 -0.327300 -0.327300 -0.327300 -0.327300 -0.327300 -0.327300 -0.327300 -0.327300 -0.327300 -0.327300 0.327300 -0.327300 -0.327300 -0.327300 -0.327300 0.327300 -0.327300 -0.327300 -0.327300 -0.327300 -0.327300 -0.327300 0.327300 -0.327300 0.327300 -0.327300 0.327300 -0.327300 0.327300 0.327300 -0.327300 0.327300 0.327300 -0.327300 -0.327300 0.327300 0.327300 0.327300 0.327300 -0.327300 -0.327300 0.327300 -0.327300 0.327300 0.327300 -0.327300 0.327300 -0.327300 -0.327300 -0.327300 -0.327300 -0.327300 0.327300 -0.327300 0.327300 0.327300 0.327300 -0.327300 -0.327300 -0.327300 0.327300 0.327300 -0.327300 0.327300 0.327300 -0.327300 -0.327300 -0.327300 0.327300 0.327300 0.327300 -0.327300 0.327300 -0.327300 -0.327300 -0.327300 0.327300 -0.327300 -0.327300 -0.327300 0.327300 -0.327300 0.327300 0.327300 0.327300 0.327300 -0.327300 0.327300 0.327300 0.327300 0.327300 0.327300 -0.327300 -0.327300 -0.327300 0.327300 -0.327300 0.327300 0.327300 -0.327300 0.327300 -0.327300 -0.327300 0.327300 -0.327300 -0.327300 -0.327300 0.327300 -0.327300 0.327300 0.327300 -0.327300 -0.327300 0.327300 0.327300 -0.327300 0.327300 0.327300 0.327300 -0.327300 -0.327300 0.327300 0.327300 0.327300 -0.327300 -0.327300 -0.327300 -0.327300 0.327300 -0.327300 -0.327300 0.327300 0.327300 -0.327300 -0.327300 -0.327300 -0.327300 0.327300 0.327300 -0.327300 0.327300 -0.327300 0.327300 0.327300 -0.327300 -0.327300 0.327300 0.327300 0.327300 0.327300 0.327300 0.327300 0.327300 -0.327300 0.327300 0.327300 -0.327300 -0.327300 0.327300 -0.327300 0.327300 0.327300 -0.327300 -0.327300 -0.327300 0.327300 -0.327300 0.327300 0.327300 -0.327300 -0.327300 0.327300 -0.327300 0.327300 -0.327300 -0.327300 0.327300 0.327300 -0.327300 -0.327300 0.327300 0.327300 0.327300 -0.327300 0.327300 -0.327300 0.327300 0.327300 -0.327300 0.327300 0.327300 -0.327300 -0.327300 0.327300 -0.327300 -0.327300 0.327300 -0.327300 -0.327300 -0.327300 0.327300 -0.327300 -0.327300 0.327300 0.327300 0.327300 -0.327300 -0.327300 0.327300 0.327300 -0.327300 0.327300 -0.327300 0.327300 0.327300 -0.327300 -0.327300 0.327300 0.327300 0.327300 0.327300 -0.327300 0.327300 0.327300 -0.327300 -0.327300 0.327300 0.327300 0.327300 0.327300 -0.327300 -0.327300 -0.327300 -0.327300 -0.327300 0.327300 0.327300 0.327300 0.327300 -0.327300 -0.327300 -0.327300 0.327300 -0.327300 -0.327300 0.327300 -0.327300 -0.327300 -0.327300 -0.327300 0.327300 0.327300 0.327300 -0.327300 0.327300 0.327300 0.327300 -0.327300 -0.327300 -0.327300 0.327300 0.327300 -0.327300 -0.327300 0.327300 -0.327300 -0.327300 -0.327300 0.327300 -0.327300 -0.327300 -0.327300 -0.327300 -0.327300 0.327300 0.327300 -0.327300 -0.327300 -0.327300 -0.327300 0.327300 -0.327300 0.327300 -0.327300 0.327300 0.327300 -0.327300 -0.327300 0.327300 0.327300 -0.327300 -0.327300 -0.327300 -0.327300 0.327300 0.327300 0.327300 -0.327300 -0.327300 0.327300 0.327300 -0.327300 -0.327300 0.327300 -0.327300 -0.327300 -0.327300 0.327300 0.327300 0.327300 0.327300 -0.327300 0.327300 0.327300 -0.327300 0.327300 0.327300 0.327300 0.327300 -0.327300 -0.327300 -0.327300 0.327300 0.327300 0.327300 0.327300 0.327300 0.327300 -0.327300 -0.327300 0.327300 -0.327300 -0.327300 -0.327300 0.327300 -0.327300 -0.327300 0.327300 -0.327300 -0.327300 0.327300 0.327300 -0.327300 0.327300 0.327300 0.327300 0.327300 -0.327300 -0.327300 -0.327300 -0.327300 -0.327300 0.327300 -0.327300 0.327300 0.327300 0.327300 -0.327300 -0.327300 0.327300 -0.327300 0.327300 0.327300 0.327300 0.327300 -0.327300 0.327300 0.327300 -0.327300 0.327300 -0.327300 -0.327300 -0.327300 0.327300 -0.327300 -0.327300 0.327300 -0.327300 0.327300 -0.327300 0.327300 -0.327300 -0.327300 -0.327300 -0.327300 0.327300 -0.327300 0.327300 0.327300 0.327300 -0.327300 0.327300 -0.327300 -0.327300 -0.327300 0.327300 0.327300 0.327300 -0.327300 0.327300 0.327300 0.327300 0.327300 -0.327300 -0.327300 0.327300 0.327300 -0.327300 0.327300 0.327300 0.327300 -0.327300 -0.327300 0.327300 0.327300 -0.327300 -0.327300 -0.327300 0.327300 0.327300 -0.327300 -0.327300 -0.327300 -0.327300 -0.327300 -0.327300 -0.327300 -0.327300 -0.327300 -0.327300 -0.327300 -0.327300 0.327300 -0.327300 0.327300 -0.327300 -0.327300 0.327300 -0.327300 0.327300 0.327300 0.327300 0.327300 0.327300 -0.327300 -0.327300 0.327300 0.327300 0.327300 -0.327300 -0.327300 0.327300 0.327300 -0.327300 -0.327300 0.327300 0.327300 0.327300 -0.327300 -0.327300 -0.327300 -0.327300 -0.327300 -0.327300 -0.327300 0.327300 0.327300 0.327300 0.327300 -0.327300 0.327300 0.327300 -0.327300 -0.327300 0.327300 -0.327300 -0.327300 -0.327300 0.327300 0.327300 0.327300 0.327300 0.327300 -0.327300 0.327300 0.327300 0.327300 0.327300 -0.327300 0.327300 -0.327300 0.327300 0.327300 -0.327300 -0.327300 0.327300 0.327300 0.327300 0.327300 -0.327300 -0.327300 0.327300 0.327300 -0.327300 -0.327300 0.327300 0.327300 0.327300 0.327300 0.327300 -0.327300 0.327300 -0.327300 -0.327300 -0.327300 0.327300 0.327300 -0.327300 -0.327300 -0.327300 0.327300 -0.327300 -0.327300 -0.327300 -0.327300 -0.327300 -0.327300 0.327300 0.327300 -0.327300 0.327300 0.327300 -0.327300 0.327300 -0.327300 0.327300 0.327300 0.327300 -0.327300 0.327300 0.327300 -0.327300 -0.327300 -0.327300 -0.327300 0.327300 0.327300 -0.327300 -0.327300 -0.327300 0.327300 0.327300 0.327300 -0.327300 -0.327300 0.327300 0.327300 0.327300 0.327300 0.327300 -0.327300 -0.327300 0.327300 -0.327300 -0.327300 -0.327300 0.327300 -0.327300 -0.327300 0.327300 0.327300 0.327300 0.327300 0.327300 -0.327300 -0.327300 0.327300 0.327300 -0.327300 -0.327300 -0.327300 -0.327300 0.327300 -0.327300 -0.327300 -0.327300 0.327300 0.327300 0.327300 -0.327300 -0.327300 -0.327300 -0.327300 -0.327300 -0.327300 0.327300 0.327300 -0.327300 -0.327300 -0.327300 -0.327300 -0.327300 0.327300 0.327300 -0.327300 -0.327300 -0.327300 -0.327300 -0.327300 0.327300 0.327300 0.327300 0.327300 0.327300 -0.327300 0.327300 0.327300 0.327300 -0.327300 0.327300 0.327300 0.327300 -0.327300 -0.327300 -0.327300 0.327300 -0.327300 0.327300 -0.327300 0.327300 0.327300 0.327300 -0.327300 -0.327300 0.327300 0.327300 -0.327300 0.327300 -0.327300 -0.327300 -0.327300 0.327300 0.327300 -0.327300 -0.327300 0.327300 0.327300 -0.327300 -0.327300 -0.327300 -0.327300 0.327300 -0.327300 0.327300 -0.327300 -0.327300 -0.327300 0.327300 0.327300 0.327300 0.327300 0.327300 0.327300 0.327300 -0.327300 0.327300 0.327300 0.327300 0.327300 0.327300 0.327300 0.327300 -0.327300 0.327300 0.327300 -0.327300 0.327300 -0.327300 -0.327300 -0.327300 0.327300 -0.327300 0.327300 -0.327300 -0.327300 0.327300 -0.327300 -0.327300 0.327300 0.327300 0.327300 0.327300 0.327300 -0.327300 -0.327300 0.327300 0.327300 0.327300 -0.327300 -0.327300 0.327300 0.327300 -0.327300 0.327300 0.327300 -0.327300 -0.327300 0.327300 0.327300 0.327300 0.327300 0.327300 0.327300 0.327300 -0.327300 0.327300 0.327300 -0.327300 0.327300 0.327300 0.327300 0.327300 0.327300 -0.327300 -0.327300 -0.327300 -0.327300 0.327300 -0.327300 -0.327300 -0.327300 -0.327300 0.327300 0.327300 -0.327300 -0.327300 0.327300 0.327300 0.327300 -0.327300 -0.327300 -0.327300 -0.327300 -0.327300 0.327300 0.327300 0.327300 0.327300 -0.327300 0.327300 0.327300 0.327300 -0.327300 -0.327300 0.327300 0.327300 0.327300 0.327300 0.327300 -0.327300 0.327300 0.327300 0.327300 -0.327300 -0.327300 0.327300 0.327300 0.327300 0.327300 -0.327300 0.327300 0.327300 0.327300 -0.327300 -0.327300 0.327300 0.327300 -0.327300 -0.327300 -0.327300 0.327300 0.327300 0.327300 -0.327300 -0.327300 -0.327300 -0.327300 -0.327300 -0.327300 0.327300 0.327300 0.327300 0.327300 0.327300 -0.327300 0.327300 0.327300 0.327300 0.327300 0.327300 -0.327300 0.327300 -0.327300 -0.327300 -0.327300 0.327300 0.327300 0.327300 -0.327300 -0.327300 -0.327300 -0.327300 -0.327300 -0.327300 0.327300 -0.327300 -0.327300 -0.327300 -0.327300 -0.327300 0.327300 -0.327300 0.327300 -0.327300 0.327300 0.327300 -0.327300 0.327300 0.327300 0.327300 -0.327300 -0.327300 0.327300 -0.327300 0.327300 -0.327300 0.327300 0.327300 0.327300 -0.327300 -0.327300 0.327300 0.327300 -0.327300 0.327300 0.327300 0.327300 0.327300 -0.327300 -0.327300 0.327300 0.327300 -0.327300 -0.327300 0.327300 -0.327300 -0.327300 -0.327300 0.327300 0.327300 -0.327300 -0.327300 -0.327300 0.327300 0.327300 -0.327300 0.327300 0.327300 -0.327300 -0.327300 0.327300 0.327300 -0.327300 -0.327300 -0.327300 0.327300 0.327300 -0.327300 0.327300 -0.327300 0.327300 0.327300 -0.327300 -0.327300 0.327300 -0.327300 0.327300 0.327300 -0.327300 -0.327300 0.327300 0.327300 -0.327300 -0.327300 0.327300 0.327300 0.327300 -0.327300 -0.327300 -0.327300 0.327300 0.327300 0.327300 -0.327300 -0.327300 -0.327300 0.327300 0.327300 -0.327300 0.327300 -0.327300 -0.327300 0.327300 0.327300 0.327300 0.327300 -0.327300 -0.327300 0.327300 0.327300 0.327300 -0.327300 0.327300 0.327300 0.327300 -0.327300 0.327300 -0.327300 0.327300 -0.327300 -0.327300 -0.327300 0.327300 -0.327300 0.327300 0.327300 -0.327300 0.327300 0.327300 -0.327300 0.327300 0.327300 -0.327300 -0.327300 -0.327300 0.327300 0.327300 -0.327300 0.327300 0.327300 -0.327300 -0.327300 -0.327300 0.327300 0.327300 -0.327300 -0.327300 0.327300 0.327300 -0.327300 0.327300 0.327300 0.327300 0.327300 -0.327300 0.327300 -0.327300 -0.327300 0.327300 0.327300 -0.327300 0.327300 0.327300 0.327300 -0.327300 0.327300 -0.327300 0.327300 -0.327300 0.327300 0.327300 -0.327300 0.327300 -0.327300 -0.327300 -0.327300 -0.327300 -0.327300 -0.327300 -0.327300 -0.327300 -0.327300 0.327300 -0.327300 -0.327300 0.327300 0.327300 -0.327300 -0.327300 0.327300 0.327300 -0.327300 -0.327300 -0.327300 0.327300 0.327300 0.327300 -0.327300 -0.327300 0.327300 0.327300 -0.327300 0.327300 0.327300 0.327300 -0.327300 -0.327300 -0.327300 -0.327300 0.327300 -0.327300 -0.327300 0.327300 0.327300 -0.327300 -0.327300 -0.327300 -0.327300 0.327300 0.327300 0.327300 -0.327300 -0.327300 -0.327300 0.327300 -0.327300 0.327300 -0.327300 0.327300 0.327300 -0.327300 0.327300 -0.327300 -0.327300 0.327300 -0.327300 0.327300 0.327300 -0.327300 0.327300 0.327300 0.327300 0.327300 -0.327300 0.327300 0.327300 0.327300 0.327300 0.327300 0.327300 -0.327300 0.327300 0.327300 0.327300 -0.327300 0.327300 -0.327300 -0.327300 0.327300 -0.327300 -0.327300 0.327300 -0.327300 -0.327300 -0.327300 0.327300 -0.327300 -0.327300 -0.327300 0.327300 0.327300 -0.327300 -0.327300 0.327300 0.327300 -0.327300 -0.327300 -0.327300 0.327300 0.327300 -0.327300 -0.327300 -0.327300 -0.327300 -0.327300 0.327300 -0.327300 -0.327300 -0.327300 -0.327300 0.327300 0.327300 -0.327300 0.327300 0.327300 0.327300 0.327300 0.327300 -0.327300 -0.327300 0.327300 -0.327300 0.327300 -0.327300 -0.327300 0.327300 0.327300 0.327300 -0.327300 -0.327300 -0.327300 -0.327300 -0.327300 -0.327300 0.327300 -0.327300 -0.327300 0.327300 0.327300 -0.327300 0.327300 0.327300 0.327300 0.327300 0.327300 0.327300 0.327300 0.327300 -0.327300 -0.327300 -0.327300 0.327300 0.327300 -0.327300 -0.327300 -0.327300 0.327300 0.327300 0.327300 0.327300 0.327300 -0.327300 0.327300 -0.327300 0.327300 -0.327300 -0.327300 0.327300 -0.327300 -0.327300 -0.327300 -0.327300 0.327300 -0.327300 -0.327300 -0.327300 0.327300 0.327300 -0.327300 0.327300 0.327300 -0.327300 0.327300 -0.327300 -0.327300 0.327300 -0.327300 -0.327300 -0.327300 0.327300 0.327300 0.327300 -0.327300 0.327300 0.327300 0.327300 0.327300 -0.327300 -0.327300 0.327300 0.327300 0.327300 0.327300 0.327300 -0.327300 0.327300 0.327300 -0.327300 -0.327300 -0.327300 0.327300 -0.327300 -0.327300 -0.327300 -0.327300 -0.327300 -0.327300 -0.327300 0.327300 0.327300 0.327300 -0.327300 -0.327300 0.327300 0.327300 -0.327300 0.327300 -0.327300 0.327300 -0.327300 -0.327300 -0.327300 0.327300 0.327300 0.327300 0.327300 -0.327300 0.327300 0.327300 0.327300 0.327300 0.327300 0.327300 -0.327300 -0.327300 -0.327300 0.327300 0.327300 0.327300 0.327300 0.327300 0.327300 0.327300 0.327300 0.327300 0.327300 0.327300 0.327300 0.327300 0.327300 0.327300 0.327300 -0.327300 0.327300 -0.327300 -0.327300 -0.327300 -0.327300 -0.327300 -0.327300 0.327300 0.327300 0.327300 0.327300 -0.327300 -0.327300 -0.327300 -0.327300 0.327300 0.327300 0.327300 0.327300 0.327300 0.327300 -0.327300 0.327300 -0.327300 -0.327300 -0.327300 -0.327300 0.327300 0.327300 -0.327300 0.327300 -0.327300 0.327300 0.327300 0.327300 0.327300 0.327300 0.327300 -0.327300 -0.327300 0.327300 -0.327300 0.327300 0.327300 -0.327300 0.327300 0.327300 0.327300 0.327300 -0.327300 0.327300 0.327300 0.327300 0.327300 -0.327300 -0.327300 0.327300 -0.327300 -0.327300 -0.327300 0.327300 0.327300 -0.327300 -0.327300 -0.327300 0.327300 -0.327300 -0.327300 -0.327300 -0.327300 -0.327300 0.327300 -0.327300 -0.327300 -0.327300 -0.327300 -0.327300 0.327300 0.327300 0.327300 -0.327300 -0.327300 0.327300 0.327300 -0.327300 -0.327300 0.327300 0.327300 -0.327300 0.327300 -0.327300 -0.327300 0.327300 -0.327300 -0.327300 -0.327300 0.327300 -0.327300 -0.327300 0.327300 -0.327300 -0.327300 -0.327300 -0.327300 -0.327300 -0.327300 -0.327300 0.327300 0.327300 -0.327300 -0.327300 0.327300 -0.327300 -0.327300 0.327300 0.327300 0.327300 -0.327300 -0.327300 -0.327300 0.327300 -0.327300 0.327300 0.327300 0.327300 0.327300 0.327300 0.327300 0.327300 -0.327300 -0.327300 -0.327300 0.327300 -0.327300 -0.327300 0.327300 0.327300 -0.327300 0.327300 0.327300 -0.327300 -0.327300 -0.327300 -0.327300 0.327300 0.327300 0.327300 0.327300 0.327300 0.327300 0.327300 0.327300 0.327300 -0.327300 0.327300 0.327300 -0.327300 0.327300 -0.327300 -0.327300 -0.327300 0.327300 -0.327300 0.327300 0.327300 0.327300 0.327300 -0.327300 0.327300 0.327300 0.327300 0.327300 -0.327300 -0.327300 -0.327300 0.327300 -0.327300 -0.327300 -0.327300 0.327300 0.327300 -0.327300 0.327300 0.327300 0.327300 0.327300 0.327300 0.327300 -0.327300 -0.327300 -0.327300 0.327300 0.327300 0.327300 0.327300 -0.327300 0.327300 0.327300 0.327300 0.327300 0.327300 0.327300 0.327300 0.327300 -0.327300 0.327300 -0.327300 -0.327300 -0.327300 -0.327300 -0.327300 -0.327300 -0.327300 -0.327300 0.327300 0.327300 -0.327300 -0.327300 -0.327300 0.327300 0.327300 -0.327300 0.327300 -0.327300 -0.327300 0.327300 0.327300 0.327300 0.327300 0.327300 0.327300 0.327300 0.327300 0.327300 0.327300 -0.327300 -0.327300 -0.327300 0.327300 0.327300 0.327300 0.327300 -0.327300 -0.327300 0.327300 0.327300 0.327300 -0.327300 -0.327300 0.327300 -0.327300 -0.327300 -0.327300 0.327300 -0.327300 -0.327300 -0.327300 -0.327300 0.327300 0.327300 0.327300 0.327300 0.327300 -0.327300 0.327300 0.327300 -0.327300 -0.327300 -0.327300 0.327300 0.327300 0.327300 0.327300 0.327300 0.327300 0.327300 -0.327300 0.327300 0.327300 -0.327300 -0.327300 -0.327300 -0.327300 -0.327300 -0.327300 -0.327300 -0.327300 0.327300 -0.327300 -0.327300 0.327300 -0.327300 -0.327300 -0.327300 -0.327300 0.327300 -0.327300 0.327300 -0.327300 0.327300 0.327300 -0.327300 -0.327300 0.327300 -0.327300 0.327300 0.327300 0.327300 -0.327300 -0.327300 0.327300 -0.327300 0.327300 0.327300 0.327300 -0.327300 0.327300 0.327300 0.327300 0.327300 0.327300 0.327300 0.327300 -0.327300 0.327300 0.327300 0.327300 0.327300 -0.327300 -0.327300 0.327300 -0.327300 0.327300 0.327300 -0.327300 -0.327300 -0.327300 0.327300 0.327300 0.327300 0.327300 0.327300 -0.327300 0.327300 0.327300 0.327300 0.327300 -0.327300 -0.327300 -0.327300 0.327300 0.327300 0.327300 -0.327300 -0.327300 -0.327300 -0.327300 0.327300 0.327300 0.327300 -0.327300 -0.327300 -0.327300 -0.327300 -0.327300 -0.327300 0.327300 -0.327300 0.327300 -0.327300 -0.327300 0.327300 -0.327300 -0.327300 -0.327300 0.327300 -0.327300 -0.327300 -0.327300 -0.327300 0.327300 -0.327300 -0.327300 -0.327300 -0.327300 -0.327300 0.327300 -0.327300 -0.327300 -0.327300 0.327300 0.327300 -0.327300 -0.327300 -0.327300 -0.327300 0.327300 -0.327300 -0.327300 0.327300 0.327300 0.327300 -0.327300 0.327300 0.327300 -0.327300 -0.327300 0.327300 0.327300 0.327300 0.327300 -0.327300 -0.327300 -0.327300 0.327300 0.327300 0.327300 0.327300 0.327300 0.327300 -0.327300 0.327300 -0.327300 -0.327300 -0.327300 -0.327300 -0.327300 -0.327300 -0.327300 0.327300 0.327300 -0.327300 -0.327300 0.327300 0.327300 0.327300 0.327300 -0.327300 -0.327300 -0.327300 0.327300 -0.327300 -0.327300 -0.327300 -0.327300 -0.327300 -0.327300 -0.327300 -0.327300 -0.327300 -0.327300 -0.327300 -0.327300 -0.327300 0.327300 -0.327300 -0.327300 -0.327300 0.327300 -0.327300 0.327300 0.327300 0.327300 0.327300 0.327300 0.327300 0.327300 0.327300 0.327300 0.327300 0.327300 -0.327300 -0.327300 0.327300 0.327300 -0.327300 -0.327300 -0.327300 -0.327300 -0.327300 -0.327300 0.327300 -0.327300 -0.327300 0.327300 0.327300 0.327300 -0.327300 -0.327300 -0.327300 0.327300 0.327300 -0.327300 0.327300 0.327300 0.327300 0.327300 0.327300 0.327300 -0.327300 -0.327300 -0.327300 0.327300 -0.327300 -0.327300 -0.327300 0.327300 -0.327300 -0.327300 -0.327300 0.327300 0.327300 -0.327300 0.327300 0.327300 0.327300 -0.327300 -0.327300 0.327300 0.327300 0.327300 0.327300 0.327300 -0.327300 -0.327300 0.327300 0.327300 -0.327300 -0.327300 -0.327300 0.327300 0.327300 0.327300 -0.327300 -0.327300 0.327300 0.327300 0.327300 0.327300 -0.327300 0.327300 0.327300 0.327300 0.327300 -0.327300 0.327300 0.327300 -0.327300 -0.327300 -0.327300 0.327300 0.327300 -0.327300 -0.327300 -0.327300 0.327300 -0.327300 -0.327300 0.327300 -0.327300 -0.327300 -0.327300 0.327300 -0.327300 -0.327300 0.327300 0.327300 0.327300 -0.327300 0.327300 -0.327300 -0.327300 -0.327300 -0.327300 0.327300 0.327300 0.327300 -0.327300 0.327300 0.327300 -0.327300 -0.327300 0.327300 0.327300 0.327300 0.327300 0.327300 -0.327300 0.327300 0.327300 0.327300 0.327300 -0.327300 -0.327300 -0.327300 0.327300 0.327300 -0.327300 -0.327300 -0.327300 -0.327300 0.327300 -0.327300 -0.327300 -0.327300 0.327300 0.327300 0.327300 -0.327300 -0.327300 0.327300 0.327300 -0.327300 -0.327300 -0.327300 -0.327300 -0.327300 -0.327300 0.327300 0.327300 0.327300 0.327300 -0.327300 0.327300 0.327300 0.327300 0.327300 -0.327300 0.327300 0.327300 -0.327300 -0.327300 0.327300 0.327300 0.327300 -0.327300 -0.327300 -0.327300 -0.327300 -0.327300 0.327300 0.327300 -0.327300 0.327300 -0.327300 0.327300 0.327300 0.327300 -0.327300 -0.327300 -0.327300 0.327300 -0.327300 -0.327300 -0.327300 -0.327300 0.327300 -0.327300 0.327300 0.327300 0.327300 0.327300 -0.327300 0.327300 -0.327300 -0.327300 0.327300 -0.327300 -0.327300 0.327300 0.327300 0.327300 0.327300 0.327300 -0.327300 0.327300 -0.327300 0.327300 -0.327300 0.327300 -0.327300 0.327300 0.327300 0.327300 -0.327300 -0.327300 -0.327300 0.327300 0.327300 0.327300 0.327300 -0.327300 0.327300 0.327300 0.327300 -0.327300 -0.327300 -0.327300 -0.327300 -0.327300 -0.327300 -0.327300 -0.327300 -0.327300 0.327300 0.327300 0.327300 -0.327300 -0.327300 0.327300 0.327300 0.327300 -0.327300 -0.327300 0.327300 -0.327300 0.327300 -0.327300 -0.327300 -0.327300 -0.327300 0.327300 -0.327300 -0.327300 -0.327300 -0.327300 0.327300 -0.327300 -0.327300 -0.327300 -0.327300 -0.327300 -0.327300 0.327300 0.327300 -0.327300 -0.327300 -0.327300 -0.327300 -0.327300 -0.327300 0.327300 -0.327300 -0.327300 0.327300 0.327300 0.327300 0.327300 0.327300 0.327300 0.327300 0.327300 -0.327300 0.327300 0.327300 -0.327300 -0.327300 -0.327300 0.327300 0.327300 -0.327300 -0.327300 0.327300 0.327300 0.327300 0.327300 0.327300 0.327300 0.327300 -0.327300 0.327300 -0.327300 0.327300 0.327300 0.327300 -0.327300 -0.327300 0.327300 -0.327300 -0.327300 -0.327300 0.327300 -0.327300 -0.327300 -0.327300 -0.327300 0.327300 0.327300 0.327300 -0.327300 -0.327300 -0.327300 0.327300 0.327300 -0.327300 -0.327300 -0.327300 0.327300 0.327300 0.327300 -0.327300 -0.327300 -0.327300 -0.327300 0.327300 -0.327300 -0.327300 -0.327300 -0.327300 -0.327300 0.327300 -0.327300 0.327300 -0.327300 0.327300 -0.327300 -0.327300 -0.327300 -0.327300 -0.327300 0.327300 0.327300 -0.327300 -0.327300 0.327300 -0.327300 0.327300 -0.327300 0.327300 -0.327300 0.327300 -0.327300 0.327300 -0.327300 -0.327300 0.327300 0.327300 0.327300 0.327300 0.327300 -0.327300 -0.327300 -0.327300 -0.327300 -0.327300 -0.327300 0.327300 -0.327300 -0.327300 0.327300 -0.327300 -0.327300 -0.327300 -0.327300 0.327300 0.327300 -0.327300 0.327300 -0.327300 0.327300 -0.327300 -0.327300 0.327300 0.327300 0.327300 0.327300 0.327300 -0.327300 -0.327300 -0.327300 0.327300 0.327300 0.327300 -0.327300 -0.327300 -0.327300 -0.327300 -0.327300 0.327300 0.327300 -0.327300 0.327300 -0.327300 -0.327300 0.327300 -0.327300 0.327300 0.327300 -0.327300 -0.327300 -0.327300 0.327300 -0.327300 -0.327300 -0.327300 -0.327300 -0.327300 0.327300 -0.327300 0.327300 0.327300 -0.327300 0.327300 -0.327300 0.327300 -0.327300 -0.327300 -0.327300 0.327300 0.327300 0.327300 -0.327300 0.327300 0.327300 0.327300 -0.327300 0.327300 -0.327300 -0.327300 0.327300 0.327300 0.327300 -0.327300 -0.327300 -0.327300 -0.327300 -0.327300 -0.327300 -0.327300 0.327300 0.327300 0.327300 0.327300 0.327300 -0.327300 -0.327300 -0.327300 0.327300 0.327300 -0.327300 -0.327300 -0.327300 0.327300 0.327300 0.327300 0.327300 0.327300 -0.327300 0.327300 -0.327300 0.327300 -0.327300 -0.327300 0.327300 -0.327300 0.327300 -0.327300 -0.327300 -0.327300 0.327300 0.327300 0.327300 0.327300 0.327300 -0.327300 0.327300 -0.327300 -0.327300 -0.327300 0.327300 0.327300 0.327300 -0.327300 -0.327300 0.327300 -0.327300 -0.327300 -0.327300 -0.327300 -0.327300 -0.327300 0.327300 0.327300 0.327300 0.327300 -0.327300 0.327300 0.327300 -0.327300 0.327300 -0.327300 -0.327300 0.327300 -0.327300 -0.327300 -0.327300 0.327300 -0.327300 -0.327300 -0.327300 -0.327300 0.327300 -0.327300 0.327300 0.327300 0.327300 -0.327300 -0.327300 -0.327300 -0.327300 0.327300 -0.327300 -0.327300 -0.327300 -0.327300 -0.327300 -0.327300 0.327300 0.327300 -0.327300 -0.327300 -0.327300 -0.327300 0.327300 -0.327300 0.327300 -0.327300 0.327300 0.327300 0.327300 -0.327300 -0.327300 0.327300 0.327300 -0.327300 0.327300 0.327300 0.327300 0.327300 0.327300 0.327300 -0.327300 0.327300 -0.327300 0.327300 0.327300 0.327300 0.327300 -0.327300 0.327300 0.327300 0.327300 0.327300 0.327300 -0.327300 -0.327300 -0.327300 0.327300 -0.327300 0.327300 0.327300 -0.327300 0.327300 -0.327300 0.327300 -0.327300 -0.327300 -0.327300 -0.327300 0.327300 0.327300 0.327300 0.327300 0.327300 -0.327300 0.327300 0.327300 -0.327300 -0.327300 0.327300 -0.327300 0.327300 -0.327300 -0.327300 0.327300 -0.327300 0.327300 0.327300 -0.327300 -0.327300 0.327300 0.327300 0.327300 0.327300 -0.327300 -0.327300 0.327300 0.327300 -0.327300 -0.327300 -0.327300 -0.327300 -0.327300 -0.327300 -0.327300 0.327300 0.327300 -0.327300 -0.327300 0.327300 0.327300 -0.327300 0.327300 -0.327300 -0.327300 0.327300 0.327300 0.327300 0.327300 0.327300 -0.327300 -0.327300 0.327300 -0.327300 0.327300 -0.327300 0.327300 -0.327300 -0.327300 0.327300 0.327300 -0.327300 -0.327300 0.327300 0.327300 0.327300 -0.327300 -0.327300 0.327300 -0.327300 -0.327300 0.327300 0.327300 0.327300 -0.327300 -0.327300 -0.327300 0.327300 0.327300 0.327300 -0.327300 -0.327300 -0.327300 0.327300 0.327300 -0.327300 0.327300 -0.327300 -0.327300 -0.327300 -0.327300 0.327300 0.327300 0.327300 0.327300 0.327300 -0.327300 0.327300 0.327300 0.327300 0.327300 0.327300 -0.327300 0.327300 0.327300 -0.327300 0.327300 -0.327300 -0.327300 -0.327300 -0.327300 -0.327300 0.327300 0.327300 0.327300 0.327300 0.327300 -0.327300 -0.327300 0.327300 0.327300 0.327300 0.327300 0.327300 0.327300 -0.327300 0.327300 0.327300 -0.327300 0.327300 -0.327300 -0.327300 0.327300 0.327300 0.327300 -0.327300 -0.327300 -0.327300 0.327300 -0.327300 -0.327300 -0.327300 -0.327300 -0.327300 -0.327300 -0.327300 0.327300 0.327300 -0.327300 0.327300 0.327300 0.327300 0.327300 0.327300 0.327300 0.327300 0.327300 0.327300 -0.327300 0.327300 -0.327300 0.327300 -0.327300 0.327300 0.327300 0.327300 0.327300 0.327300 0.327300 0.327300 0.327300 0.327300 0.327300 0.327300 -0.327300 0.327300 0.327300 0.327300 0.327300 0.327300 -0.327300 0.327300 0.327300 -0.327300 0.327300 0.327300 -0.327300 0.327300 -0.327300 -0.327300 0.327300 0.327300 -0.327300 0.327300 -0.327300 -0.327300 -0.327300 -0.327300 -0.327300 0.327300 0.327300 -0.327300 -0.327300 0.327300 0.327300 0.327300 -0.327300 0.327300 0.327300 0.327300 -0.327300 -0.327300 0.327300 0.327300 0.327300 -0.327300 0.327300 0.327300 0.327300 -0.327300 -0.327300 0.327300 0.327300 -0.327300 -0.327300 -0.327300 0.327300 -0.327300 0.327300 -0.327300 -0.327300 -0.327300 -0.327300 -0.327300 -0.327300 0.327300 -0.327300 0.327300 -0.327300 0.327300 -0.327300 -0.327300 0.327300 0.327300 -0.327300 -0.327300 0.327300 0.327300 -0.327300 -0.327300 0.327300 -0.327300 0.327300 -0.327300 -0.327300 -0.327300 0.327300 -0.327300 -0.327300 0.327300 0.327300 0.327300 -0.327300 0.327300 0.327300 -0.327300 -0.327300 0.327300 0.327300 -0.327300 -0.327300 0.327300 0.327300 0.327300 -0.327300 -0.327300 -0.327300 0.327300 0.327300 0.327300 -0.327300 -0.327300 0.327300 -0.327300 0.327300 -0.327300 -0.327300 -0.327300 0.327300 -0.327300 -0.327300 0.327300 -0.327300 0.327300 0.327300 -0.327300 0.327300 -0.327300 -0.327300 0.327300 0.327300 0.327300 -0.327300 -0.327300 0.327300 0.327300 -0.327300 -0.327300 0.327300 -0.327300 0.327300 -0.327300 -0.327300 0.327300 0.327300 0.327300 0.327300 0.327300 -0.327300 -0.327300 -0.327300 -0.327300 0.327300 0.327300 -0.327300 0.327300 -0.327300 0.327300 0.327300 -0.327300 0.327300 0.327300 0.327300 0.327300 -0.327300 -0.327300 0.327300 -0.327300 -0.327300 -0.327300 0.327300 -0.327300 0.327300 0.327300 -0.327300 -0.327300 0.327300 -0.327300 0.327300 0.327300 -0.327300 -0.327300 -0.327300 0.327300 0.327300 -0.327300 0.327300 0.327300 -0.327300 0.327300 0.327300 0.327300 0.327300 0.327300 -0.327300 -0.327300 0.327300 0.327300 0.327300 -0.327300 -0.327300 -0.327300 -0.327300 0.327300 -0.327300 -0.327300 -0.327300 0.327300 0.327300 0.327300 -0.327300 -0.327300 -0.327300 0.327300 0.327300 0.327300 -0.327300 -0.327300 -0.327300 -0.327300 -0.327300 -0.327300 -0.327300 0.327300 0.327300 0.327300 -0.327300 0.327300 -0.327300 0.327300 0.327300 -0.327300 -0.327300 -0.327300 0.327300 0.327300 -0.327300 -0.327300 -0.327300 0.327300 -0.327300 -0.327300 -0.327300 -0.327300 0.327300 0.327300 -0.327300 -0.327300 0.327300 -0.327300 -0.327300 0.327300 0.327300 0.327300 0.327300 -0.327300 0.327300 -0.327300 0.327300 -0.327300 -0.327300 0.327300 0.327300 0.327300 0.327300 0.327300 0.327300 -0.327300 -0.327300 0.327300 -0.327300 -0.327300 0.327300 -0.327300 0.327300 -0.327300 0.327300 0.327300 -0.327300 0.327300 -0.327300 0.327300 0.327300 -0.327300 0.327300 -0.327300 0.327300 -0.327300 -0.327300 0.327300 0.327300 0.327300 0.327300 -0.327300 0.327300 0.327300 -0.327300 -0.327300 0.327300 0.327300 0.327300 0.327300 -0.327300 -0.327300 -0.327300 0.327300 -0.327300 0.327300 0.327300 0.327300 0.327300 0.327300 0.327300 0.327300 -0.327300 0.327300 0.327300 -0.327300 0.327300 -0.327300 -0.327300 0.327300 -0.327300 0.327300 -0.327300 -0.327300 0.327300 0.327300 0.327300 -0.327300 0.327300 0.327300 -0.327300 -0.327300 0.327300 -0.327300 -0.327300 0.327300 -0.327300 -0.327300 -0.327300 -0.327300 -0.327300 -0.327300 0.327300 0.327300 -0.327300 0.327300 0.327300 0.327300 0.327300 0.327300 0.327300 0.327300 0.327300 0.327300 0.327300 0.327300 0.327300 0.327300 0.327300 0.327300 0.327300 0.327300 0.327300 -0.327300 -0.327300 -0.327300 -0.327300 -0.327300 -0.327300 -0.327300 0.327300 0.327300 0.327300 0.327300 0.327300 -0.327300 -0.327300 0.327300 0.327300 0.327300 0.327300 0.327300 0.327300 0.327300 0.327300 0.327300 0.327300 0.327300 0.327300 -0.327300 0.327300 0.327300 0.327300 0.327300 0.327300 -0.327300 0.327300 -0.327300 0.327300 -0.327300 0.327300 -0.327300 -0.327300 0.327300 0.327300 0.327300 0.327300 -0.327300 0.327300 -0.327300 0.327300 0.327300 -0.327300 0.327300 -0.327300 0.327300 -0.327300 -0.327300 -0.327300 0.327300 0.327300 -0.327300 -0.327300 -0.327300 -0.327300 -0.327300 -0.327300 0.327300 -0.327300 0.327300 0.327300 -0.327300 0.327300 -0.327300 -0.327300 0.327300 -0.327300 0.327300 0.327300 -0.327300 0.327300 0.327300 -0.327300 -0.327300 0.327300 0.327300 -0.327300 -0.327300 -0.327300 0.327300 -0.327300 -0.327300 -0.327300 -0.327300 0.327300 -0.327300 0.327300 0.327300 -0.327300 -0.327300 -0.327300 0.327300 -0.327300 -0.327300 -0.327300 0.327300 0.327300 0.327300 -0.327300 -0.327300 -0.327300 -0.327300 -0.327300 0.327300 0.327300 -0.327300 0.327300 0.327300 0.327300 0.327300 0.327300 0.327300 0.327300 0.327300 0.327300 0.327300 -0.327300 0.327300 0.327300 -0.327300 -0.327300 -0.327300 -0.327300 -0.327300 -0.327300 -0.327300 -0.327300 -0.327300 -0.327300 0.327300 0.327300 -0.327300 0.327300 -0.327300 0.327300 -0.327300 -0.327300 0.327300 0.327300 0.327300 0.327300 0.327300 -0.327300 0.327300 -0.327300 0.327300 -0.327300 0.327300 0.327300 -0.327300 0.327300 0.327300 0.327300 0.327300 0.327300 -0.327300 0.327300 0.327300 -0.327300 -0.327300 0.327300 -0.327300 0.327300 0.327300 -0.327300 -0.327300 -0.327300 -0.327300 -0.327300 -0.327300 -0.327300 0.327300 0.327300 0.327300 -0.327300 -0.327300 0.327300 -0.327300 -0.327300 -0.327300 -0.327300 0.327300 0.327300 0.327300 0.327300 0.327300 0.327300 -0.327300 0.327300 -0.327300 0.327300 0.327300 -0.327300 -0.327300 -0.327300 -0.327300 -0.327300 0.327300 -0.327300 0.327300 -0.327300 -0.327300 0.327300 0.327300 0.327300 -0.327300 0.327300 0.327300 0.327300 0.327300 0.327300 0.327300 0.327300 0.327300 0.327300 0.327300 0.327300 0.327300 -0.327300 0.327300 0.327300 0.327300 -0.327300 -0.327300 -0.327300 0.327300 0.327300 0.327300 0.327300 -0.327300 -0.327300 -0.327300 -0.327300 0.327300 0.327300 -0.327300 0.327300 0.327300 -0.327300 -0.327300 0.327300 0.327300 0.327300 -0.327300 -0.327300 -0.327300 0.327300 0.327300 0.327300 0.327300 0.327300 0.327300 0.327300 0.327300 -0.327300 -0.327300 -0.327300 0.327300 0.327300 0.327300 -0.327300 -0.327300 0.327300 -0.327300 0.327300 0.327300 0.327300 -0.327300 -0.327300 -0.327300 0.327300 0.327300 -0.327300 -0.327300 -0.327300 0.327300 -0.327300 -0.327300 -0.327300 -0.327300 -0.327300 0.327300 -0.327300 0.327300 -0.327300 -0.327300 -0.327300 -0.327300 0.327300 0.327300 0.327300 -0.327300 -0.327300 0.327300 0.327300 0.327300 -0.327300 0.327300 0.327300 -0.327300 -0.327300 0.327300 0.327300 0.327300 0.327300 0.327300 0.327300 0.327300 0.327300 0.327300 0.327300 -0.327300 0.327300 0.327300 0.327300 0.327300 0.327300 0.327300 0.327300 -0.327300 -0.327300 -0.327300 -0.327300 -0.327300 -0.327300 0.327300 0.327300 0.327300 0.327300 0.327300 0.327300 0.327300 0.327300 0.327300 0.327300 -0.327300 0.327300 0.327300 0.327300 0.327300 0.327300 -0.327300 -0.327300 -0.327300 -0.327300 0.327300 0.327300 0.327300 -0.327300 -0.327300 -0.327300 0.327300 -0.327300 -0.327300 -0.327300 -0.327300 -0.327300 -0.327300 -0.327300 0.327300 -0.327300 -0.327300 -0.327300 -0.327300 0.327300 0.327300 -0.327300 -0.327300 -0.327300 0.327300 -0.327300 -0.327300 -0.327300 0.327300 0.327300 0.327300 -0.327300 -0.327300 0.327300 -0.327300 -0.327300 -0.327300 0.327300 0.327300 0.327300 0.327300 -0.327300 -0.327300 0.327300 0.327300 -0.327300 -0.327300 -0.327300 -0.327300 0.327300 0.327300 0.327300 -0.327300 -0.327300 0.327300 -0.327300 0.327300 0.327300 -0.327300 0.327300 -0.327300 -0.327300 0.327300 0.327300 -0.327300 0.327300 0.327300 0.327300 -0.327300 -0.327300 0.327300 -0.327300 -0.327300 -0.327300 0.327300 -0.327300 0.327300 -0.327300 -0.327300 -0.327300 -0.327300 -0.327300 -0.327300 0.327300 0.327300 -0.327300 0.327300 -0.327300 0.327300 0.327300 0.327300 0.327300 0.327300 -0.327300 0.327300 0.327300 -0.327300 -0.327300 -0.327300 0.327300 -0.327300 -0.327300 0.327300 0.327300 0.327300 -0.327300 -0.327300 0.327300 0.327300 -0.327300 0.327300 0.327300 -0.327300 -0.327300 0.327300 0.327300 0.327300 -0.327300 0.327300 0.327300 -0.327300 0.327300 0.327300 0.327300 -0.327300 -0.327300 0.327300 0.327300 -0.327300 -0.327300 0.327300 -0.327300 0.327300 0.327300 -0.327300 -0.327300 -0.327300 0.327300 0.327300 -0.327300 -0.327300 -0.327300 0.327300 -0.327300 -0.327300 0.327300 0.327300 0.327300 0.327300 -0.327300 0.327300 -0.327300 0.327300 0.327300 0.327300 -0.327300 -0.327300 0.327300 -0.327300 -0.327300 0.327300 0.327300 0.327300 -0.327300 0.327300 -0.327300 0.327300 0.327300 -0.327300 -0.327300 0.327300 0.327300 0.327300 0.327300 -0.327300 -0.327300 -0.327300 0.327300 0.327300 0.327300 0.327300 0.327300 0.327300 0.327300 0.327300 0.327300 -0.327300 0.327300 -0.327300 -0.327300 -0.327300 -0.327300 0.327300 -0.327300 0.327300 -0.327300 0.327300 0.327300 -0.327300 -0.327300 0.327300 0.327300 -0.327300 -0.327300 -0.327300 -0.327300 -0.327300 -0.327300 -0.327300 0.327300 -0.327300 -0.327300 0.327300 -0.327300 -0.327300 0.327300 0.327300 0.327300 0.327300 -0.327300 0.327300 -0.327300 -0.327300 0.327300 -0.327300 -0.327300 0.327300 0.327300 -0.327300 0.327300 -0.327300 0.327300 0.327300 0.327300 -0.327300 0.327300 0.327300 0.327300 0.327300 0.327300 -0.327300 0.327300 0.327300 0.327300 -0.327300 -0.327300 -0.327300 -0.327300 -0.327300 -0.327300 0.327300 -0.327300 0.327300 0.327300 -0.327300 -0.327300 -0.327300 0.327300 0.327300 0.327300 -0.327300 0.327300 -0.327300 0.327300 -0.327300 0.327300 0.327300 -0.327300 -0.327300 -0.327300 0.327300 0.327300 -0.327300 -0.327300 0.327300 0.327300 -0.327300 0.327300 -0.327300 -0.327300 -0.327300 -0.327300 0.327300 -0.327300 0.327300 -0.327300 0.327300 -0.327300 -0.327300 0.327300 0.327300 0.327300 -0.327300 -0.327300 -0.327300 -0.327300 0.327300 0.327300 0.327300 0.327300 -0.327300 -0.327300 0.327300 -0.327300 -0.327300 -0.327300 -0.327300 0.327300 0.327300 -0.327300 -0.327300 0.327300 -0.327300 0.327300 -0.327300 -0.327300 -0.327300 0.327300 -0.327300 -0.327300 0.327300 0.327300 0.327300 0.327300 -0.327300 0.327300 -0.327300 0.327300 -0.327300 0.327300 0.327300 0.327300 -0.327300 -0.327300 0.327300 0.327300 -0.327300 0.327300 -0.327300 -0.327300 0.327300 -0.327300 0.327300 -0.327300 0.327300 -0.327300 0.327300 0.327300 0.327300 -0.327300 0.327300 0.327300 -0.327300 -0.327300 0.327300 0.327300 -0.327300 -0.327300 -0.327300 0.327300 0.327300 -0.327300 0.327300 -0.327300 0.327300 0.327300 -0.327300 -0.327300 0.327300 -0.327300 0.327300 0.327300 -0.327300 -0.327300 0.327300 0.327300 -0.327300 0.327300 -0.327300 0.327300 -0.327300 0.327300 -0.327300 -0.327300 -0.327300 0.327300 0.327300 -0.327300 -0.327300 0.327300 0.327300 -0.327300 -0.327300 -0.327300 0.327300 0.327300 -0.327300 -0.327300 0.327300 0.327300 0.327300 -0.327300 -0.327300 0.327300 -0.327300 0.327300 0.327300 -0.327300 -0.327300 -0.327300 -0.327300 -0.327300 -0.327300 -0.327300 -0.327300 0.327300 -0.327300 -0.327300 0.327300 -0.327300 -0.327300 -0.327300 -0.327300 0.327300 0.327300 -0.327300 0.327300 0.327300 0.327300 0.327300 -0.327300 -0.327300 0.327300 -0.327300 -0.327300 -0.327300 0.327300 -0.327300 -0.327300 -0.327300 -0.327300 0.327300 0.327300 -0.327300 -0.327300 -0.327300 -0.327300 -0.327300 -0.327300 -0.327300 0.327300 0.327300 0.327300 -0.327300 -0.327300 -0.327300 0.327300 0.327300 -0.327300 -0.327300 0.327300 -0.327300 -0.327300 0.327300 0.327300 -0.327300 -0.327300 0.327300 0.327300 0.327300 0.327300 -0.327300 0.327300 0.327300 -0.327300 0.327300 -0.327300 0.327300 0.327300 0.327300 -0.327300 0.327300 -0.327300 -0.327300 -0.327300 -0.327300 -0.327300 -0.327300 -0.327300 0.327300 -0.327300 -0.327300 -0.327300 -0.327300 -0.327300 -0.327300 -0.327300 0.327300 0.327300 -0.327300 -0.327300 -0.327300 0.327300 0.327300 -0.327300 0.327300 -0.327300 -0.327300 0.327300 -0.327300 -0.327300 0.327300 -0.327300 -0.327300 -0.327300 0.327300 -0.327300 0.327300 0.327300 0.327300 0.327300 -0.327300 0.327300 -0.327300 -0.327300 0.327300 0.327300 -0.327300 0.327300 0.327300 -0.327300 -0.327300 -0.327300 -0.327300 -0.327300 -0.327300 -0.327300 -0.327300 -0.327300 -0.327300 0.327300 -0.327300 -0.327300 0.327300 0.327300 -0.327300 0.327300 -0.327300 0.327300 0.327300 -0.327300 -0.327300 -0.327300 -0.327300 0.327300 0.327300 -0.327300 0.327300 -0.327300 0.327300 0.327300 0.327300 -0.327300 -0.327300 -0.327300 0.327300 0.327300 0.327300 0.327300 0.327300 -0.327300 -0.327300 -0.327300 -0.327300 -0.327300 -0.327300 -0.327300 0.327300 0.327300 -0.327300 -0.327300 -0.327300 0.327300 0.327300 -0.327300 0.327300 0.327300 -0.327300 0.327300 -0.327300 -0.327300 0.327300 0.327300 0.327300 -0.327300 -0.327300 -0.327300 0.327300 0.327300 -0.327300 -0.327300 -0.327300 -0.327300 0.327300 0.327300 0.327300 -0.327300 0.327300 0.327300 -0.327300 -0.327300 -0.327300 0.327300 -0.327300 -0.327300 -0.327300 0.327300 0.327300 -0.327300 -0.327300 0.327300 -0.327300 0.327300 -0.327300 -0.327300 0.327300 -0.327300 0.327300 -0.327300 -0.327300 -0.327300 0.327300 -0.327300 0.327300 -0.327300 0.327300 -0.327300 0.327300 -0.327300 0.327300 -0.327300 0.327300 0.327300 -0.327300 0.327300 -0.327300 0.327300 0.327300 -0.327300 -0.327300 -0.327300 0.327300 0.327300 0.327300 0.327300 -0.327300 -0.327300 -0.327300 -0.327300 0.327300 0.327300 0.327300 0.327300 0.327300 0.327300 -0.327300 0.327300 0.327300 -0.327300 -0.327300 -0.327300 -0.327300 -0.327300 0.327300 0.327300 -0.327300 -0.327300 0.327300 -0.327300 0.327300 0.327300 0.327300 0.327300 0.327300 -0.327300 0.327300 0.327300 0.327300 0.327300 -0.327300 -0.327300 -0.327300 0.327300 0.327300 0.327300 -0.327300 -0.327300 0.327300 -0.327300 0.327300 -0.327300 0.327300 -0.327300 0.327300 0.327300 -0.327300 0.327300 0.327300 -0.327300 0.327300 -0.327300 0.327300 0.327300 -0.327300 -0.327300 0.327300 0.327300 -0.327300 0.327300 -0.327300 0.327300 -0.327300 -0.327300 0.327300 0.327300 -0.327300 0.327300 -0.327300 0.327300 -0.327300 0.327300 -0.327300 -0.327300 0.327300 -0.327300 0.327300 0.327300 -0.327300 0.327300 -0.327300 -0.327300 0.327300 0.327300 -0.327300 -0.327300 0.327300 -0.327300 -0.327300 0.327300 0.327300 0.327300 -0.327300 0.327300 0.327300 -0.327300 0.327300 -0.327300 0.327300 -0.327300 -0.327300 0.327300 0.327300 -0.327300 0.327300 -0.327300 -0.327300 -0.327300 0.327300 0.327300 -0.327300 -0.327300 -0.327300 -0.327300 0.327300 0.327300 -0.327300 -0.327300 -0.327300 -0.327300 0.327300 0.327300 0.327300 0.327300 0.327300 0.327300 -0.327300 0.327300 -0.327300 -0.327300 0.327300 0.327300 0.327300 0.327300 -0.327300 -0.327300 0.327300 0.327300 0.327300 0.327300 0.327300 0.327300 0.327300 0.327300 0.327300 0.327300 -0.327300 -0.327300 -0.327300 -0.327300 -0.327300 0.327300 0.327300 -0.327300 0.327300 0.327300 0.327300 0.327300 -0.327300 0.327300 0.327300 -0.327300 0.327300 -0.327300 0.327300 -0.327300 -0.327300 -0.327300 -0.327300 -0.327300 -0.327300 0.327300 0.327300 0.327300 0.327300 -0.327300 0.327300 0.327300 0.327300 -0.327300 -0.327300 0.327300 -0.327300 -0.327300 0.327300 -0.327300 0.327300 0.327300 -0.327300 0.327300 0.327300 0.327300 0.327300 0.327300 -0.327300 0.327300 0.327300 0.327300 -0.327300 0.327300 0.327300 0.327300 -0.327300 -0.327300 0.327300 -0.327300 -0.327300 -0.327300 0.327300 -0.327300 0.327300 0.327300 -0.327300 0.327300 -0.327300 0.327300 -0.327300 -0.327300 0.327300 -0.327300 -0.327300 0.327300 0.327300 -0.327300 -0.327300 0.327300 0.327300 0.327300 0.327300 0.327300 0.327300 0.327300 0.327300 0.327300 0.327300 0.327300 -0.327300 0.327300 -0.327300 0.327300 0.327300 0.327300 -0.327300 -0.327300 0.327300 0.327300 0.327300 -0.327300 0.327300 0.327300 -0.327300 -0.327300 0.327300 -0.327300 -0.327300 0.327300 0.327300 0.327300 0.327300 -0.327300 0.327300 -0.327300 -0.327300 0.327300 0.327300 -0.327300 -0.327300 0.327300 0.327300 -0.327300 0.327300 0.327300 0.327300 0.327300 -0.327300 -0.327300 0.327300 0.327300 0.327300 0.327300 0.327300 -0.327300 -0.327300 -0.327300 -0.327300 -0.327300 0.327300 0.327300 -0.327300 0.327300 -0.327300 0.327300 0.327300 0.327300 -0.327300 0.327300 -0.327300 0.327300 -0.327300 -0.327300 -0.327300 0.327300 -0.327300 -0.327300 0.327300 0.327300 0.327300 -0.327300 0.327300 0.327300 0.327300 0.327300 0.327300 -0.327300 0.327300 -0.327300 0.327300 0.327300 0.327300 -0.327300 -0.327300 -0.327300 0.327300 -0.327300 0.327300 -0.327300 -0.327300 -0.327300 -0.327300 -0.327300 -0.327300 0.327300 -0.327300 -0.327300 -0.327300 -0.327300 0.327300 0.327300 0.327300 -0.327300 -0.327300 0.327300 0.327300 0.327300 -0.327300 0.327300 -0.327300 0.327300 -0.327300 0.327300 -0.327300 0.327300 -0.327300 -0.327300 -0.327300 0.327300 -0.327300 0.327300 -0.327300 -0.327300 -0.327300 0.327300 0.327300 0.327300 -0.327300 0.327300 0.327300 -0.327300 0.327300 0.327300 -0.327300 -0.327300 0.327300 0.327300 0.327300 0.327300 -0.327300 0.327300 -0.327300 -0.327300 0.327300 0.327300 -0.327300 0.327300 0.327300 -0.327300 0.327300 -0.327300 -0.327300 0.327300 -0.327300 0.327300 0.327300 -0.327300 -0.327300 -0.327300 0.327300 -0.327300 -0.327300 0.327300 0.327300 0.327300 0.327300 0.327300 -0.327300 0.327300 0.327300 -0.327300 0.327300 0.327300 0.327300 -0.327300 -0.327300 -0.327300 0.327300 0.327300 -0.327300 -0.327300 0.327300 0.327300 0.327300 -0.327300 -0.327300 -0.327300 0.327300 0.327300 -0.327300 -0.327300 0.327300 0.327300 0.327300 -0.327300 0.327300 0.327300 0.327300 -0.327300 -0.327300 0.327300 -0.327300 0.327300 -0.327300 -0.327300 -0.327300 0.327300 -0.327300 0.327300 0.327300 -0.327300 -0.327300 -0.327300 -0.327300 0.327300 0.327300 0.327300 -0.327300 -0.327300 0.327300 0.327300 -0.327300 -0.327300 0.327300 0.327300 -0.327300 0.327300 -0.327300 -0.327300 -0.327300 -0.327300 -0.327300 -0.327300 0.327300 -0.327300 0.327300 -0.327300 0.327300 -0.327300 0.327300 0.327300 0.327300 -0.327300 -0.327300 -0.327300 -0.327300 -0.327300 -0.327300 0.327300 -0.327300 0.327300 -0.327300 -0.327300 -0.327300 0.327300 0.327300 0.327300 -0.327300 0.327300 0.327300 0.327300 0.327300 -0.327300 0.327300 0.327300 -0.327300 -0.327300 0.327300 0.327300 0.327300 -0.327300 -0.327300 -0.327300 -0.327300 -0.327300 -0.327300 0.327300 -0.327300 -0.327300 0.327300 -0.327300 -0.327300 0.327300 0.327300 -0.327300 0.327300 0.327300 -0.327300 0.327300 0.327300 0.327300 -0.327300 0.327300 0.327300 -0.327300 -0.327300 -0.327300 0.327300 0.327300 -0.327300 -0.327300 -0.327300 0.327300 0.327300 -0.327300 -0.327300 -0.327300 0.327300 0.327300 0.327300 0.327300 -0.327300 -0.327300 -0.327300 -0.327300 -0.327300 -0.327300 0.327300 0.327300 0.327300 -0.327300 0.327300 0.327300 0.327300 -0.327300 -0.327300 -0.327300 0.327300 0.327300 0.327300 0.327300 0.327300 0.327300 0.327300 0.327300 -0.327300 -0.327300 0.327300 0.327300 -0.327300 -0.327300 -0.327300 0.327300 0.327300 -0.327300 -0.327300 -0.327300 -0.327300 -0.327300 -0.327300 -0.327300 -0.327300 -0.327300 -0.327300 -0.327300 0.327300 0.327300 -0.327300 -0.327300 0.327300 -0.327300 -0.327300 0.327300 -0.327300 0.327300 0.327300 0.327300 0.327300 0.327300 0.327300 -0.327300 -0.327300 -0.327300 0.327300 -0.327300 -0.327300 -0.327300 0.327300 0.327300 -0.327300 -0.327300 0.327300 0.327300 0.327300 -0.327300 0.327300 -0.327300 -0.327300 -0.327300 -0.327300 -0.327300 -0.327300 -0.327300 -0.327300 -0.327300 -0.327300 -0.327300 -0.327300 -0.327300 -0.327300 -0.327300 -0.327300 0.327300 -0.327300 0.327300 -0.327300 -0.327300 0.327300 -0.327300 0.327300 0.327300 0.327300 -0.327300 -0.327300 0.327300 -0.327300 -0.327300 -0.327300 0.327300 0.327300 -0.327300 0.327300 0.327300 0.327300 -0.327300 0.327300 -0.327300 0.327300 0.327300 -0.327300 -0.327300 -0.327300 0.327300 0.327300 -0.327300 0.327300 0.327300 -0.327300 0.327300 0.327300 0.327300 -0.327300 -0.327300 -0.327300 -0.327300 -0.327300 -0.327300 -0.327300 0.327300 -0.327300 -0.327300 -0.327300 -0.327300 0.327300 0.327300 -0.327300 -0.327300 -0.327300 -0.327300 0.327300 -0.327300 0.327300 -0.327300 -0.327300 -0.327300 0.327300 0.327300 0.327300 -0.327300 0.327300 -0.327300 0.327300 0.327300 0.327300 -0.327300 0.327300 -0.327300 -0.327300 0.327300 -0.327300 -0.327300 -0.327300 0.327300 -0.327300 0.327300 -0.327300 0.327300 -0.327300 -0.327300 0.327300 0.327300 -0.327300 -0.327300 -0.327300 -0.327300 0.327300 0.327300 0.327300 -0.327300 0.327300 0.327300 -0.327300 -0.327300 0.327300 0.327300 0.327300 -0.327300 -0.327300 0.327300 -0.327300 -0.327300 0.327300 0.327300 -0.327300 -0.327300 -0.327300 -0.327300 0.327300 0.327300 -0.327300 -0.327300 0.327300 -0.327300 0.327300 -0.327300 0.327300 0.327300 -0.327300 0.327300 0.327300 -0.327300 0.327300 0.327300 -0.327300 0.327300 0.327300 0.327300 0.327300 -0.327300 0.327300 -0.327300 -0.327300 -0.327300 0.327300 -0.327300 -0.327300 0.327300 -0.327300 -0.327300 -0.327300 -0.327300 -0.327300 -0.327300 -0.327300 -0.327300 -0.327300 -0.327300 0.327300 0.327300 0.327300 -0.327300 -0.327300 -0.327300 0.327300 -0.327300 -0.327300 0.327300 0.327300 0.327300 -0.327300 -0.327300 -0.327300 -0.327300 0.327300 -0.327300 -0.327300 -0.327300 0.327300 0.327300 0.327300 0.327300 0.327300 -0.327300 -0.327300 0.327300 -0.327300 -0.327300 -0.327300 0.327300 -0.327300 -0.327300 0.327300 0.327300 0.327300 -0.327300 -0.327300 0.327300 -0.327300 0.327300 -0.327300 0.327300 -0.327300 -0.327300 0.327300 -0.327300 -0.327300 -0.327300 0.327300 0.327300 -0.327300 0.327300 -0.327300 0.327300 -0.327300 -0.327300 0.327300 0.327300 -0.327300 -0.327300 -0.327300 0.327300 0.327300 0.327300 -0.327300 0.327300 -0.327300 -0.327300 -0.327300 -0.327300 -0.327300 -0.327300 0.327300 0.327300 0.327300 -0.327300 -0.327300 0.327300 -0.327300 0.327300 -0.327300 -0.327300 0.327300 0.327300 -0.327300 -0.327300 0.327300 -0.327300 0.327300 -0.327300 0.327300 0.327300 -0.327300 0.327300 -0.327300 -0.327300 -0.327300 0.327300 -0.327300 0.327300 0.327300 -0.327300 0.327300 -0.327300 -0.327300 0.327300 0.327300 -0.327300 -0.327300 -0.327300 0.327300 0.327300 0.327300 0.327300 -0.327300 -0.327300 -0.327300 0.327300 0.327300 0.327300 -0.327300 0.327300 -0.327300 -0.327300 -0.327300 -0.327300 0.327300 -0.327300 -0.327300 0.327300 -0.327300 -0.327300 -0.327300 0.327300 0.327300 -0.327300 -0.327300 0.327300 0.327300 0.327300 -0.327300 -0.327300 0.327300 -0.327300 -0.327300 0.327300 0.327300 0.327300 -0.327300 -0.327300 0.327300 -0.327300 0.327300 0.327300 -0.327300 -0.327300 -0.327300 -0.327300 0.327300 0.327300 -0.327300 0.327300 0.327300 -0.327300 -0.327300 -0.327300 0.327300 -0.327300 -0.327300 -0.327300 -0.327300 0.327300 -0.327300 -0.327300 0.327300 -0.327300 0.327300 0.327300 0.327300 -0.327300 0.327300 0.327300 0.327300 0.327300 -0.327300 0.327300 -0.327300 -0.327300 -0.327300 0.327300 -0.327300 -0.327300 -0.327300 0.327300 0.327300 -0.327300 0.327300 0.327300 0.327300 0.327300 -0.327300 0.327300 -0.327300 -0.327300 -0.327300 0.327300 0.327300 -0.327300 -0.327300 -0.327300 0.327300 0.327300 -0.327300 0.327300 -0.327300 -0.327300 -0.327300 -0.327300 -0.327300 0.327300 -0.327300 -0.327300 -0.327300 -0.327300 -0.327300 0.327300 -0.327300 -0.327300 0.327300 0.327300 0.327300 0.327300 0.327300 0.327300 0.327300 0.327300 0.327300 0.327300 0.327300 -0.327300 -0.327300 -0.327300 0.327300 -0.327300 0.327300 -0.327300 -0.327300 0.327300 -0.327300 0.327300 0.327300 -0.327300 0.327300 -0.327300 -0.327300 -0.327300 0.327300 0.327300 -0.327300 -0.327300 -0.327300 0.327300 -0.327300 -0.327300 -0.327300 -0.327300 -0.327300 0.327300 0.327300 0.327300 0.327300 0.327300 0.327300 -0.327300 -0.327300 -0.327300 0.327300 -0.327300 -0.327300 -0.327300 -0.327300 0.327300 -0.327300 -0.327300 -0.327300 -0.327300 -0.327300 -0.327300 0.327300 0.327300 0.327300 0.327300 -0.327300 0.327300 0.327300 0.327300 -0.327300 0.327300 0.327300 -0.327300 0.327300 -0.327300 -0.327300 -0.327300 0.327300 -0.327300 -0.327300 0.327300 0.327300 0.327300 0.327300 -0.327300 0.327300 -0.327300 -0.327300 -0.327300 0.327300 0.327300 -0.327300 -0.327300 0.327300 0.327300 -0.327300 0.327300 0.327300 -0.327300 -0.327300 -0.327300 0.327300 -0.327300 0.327300 -0.327300 0.327300 -0.327300 0.327300 0.327300 -0.327300 -0.327300 -0.327300 -0.327300 -0.327300 0.327300 0.327300 -0.327300 0.327300 -0.327300 -0.327300 0.327300 0.327300 0.327300 -0.327300 0.327300 0.327300 -0.327300 -0.327300 -0.327300 0.327300 0.327300 0.327300 -0.327300 0.327300 0.327300 -0.327300 0.327300 -0.327300 -0.327300 -0.327300 -0.327300 -0.327300 0.327300 -0.327300 -0.327300 0.327300 -0.327300 0.327300 -0.327300 -0.327300 0.327300 -0.327300 0.327300 -0.327300 -0.327300 0.327300 -0.327300 0.327300 0.327300 0.327300 0.327300 0.327300 0.327300 0.327300 -0.327300 -0.327300 0.327300 0.327300 0.327300 0.327300 0.327300 -0.327300 0.327300 0.327300 0.327300 0.327300 0.327300 -0.327300 0.327300 0.327300 -0.327300 -0.327300 -0.327300 0.327300 -0.327300 -0.327300 -0.327300 -0.327300 -0.327300 -0.327300 -0.327300 0.327300 -0.327300 -0.327300 -0.327300 -0.327300 0.327300 -0.327300 -0.327300 -0.327300 -0.327300 0.327300 -0.327300 0.327300 0.327300 -0.327300 -0.327300 -0.327300 0.327300 0.327300 -0.327300 0.327300 0.327300 -0.327300 0.327300 -0.327300 0.327300 0.327300 -0.327300 -0.327300 -0.327300 -0.327300 -0.327300 0.327300 0.327300 -0.327300 -0.327300 -0.327300 -0.327300 -0.327300 -0.327300 -0.327300 -0.327300 -0.327300 -0.327300 0.327300 0.327300 0.327300 -0.327300 -0.327300 -0.327300 0.327300 0.327300 -0.327300 0.327300 0.327300 -0.327300 0.327300 0.327300 -0.327300 -0.327300 -0.327300 0.327300 -0.327300 -0.327300 0.327300 -0.327300 -0.327300 -0.327300 0.327300 0.327300 0.327300 0.327300 -0.327300 0.327300 0.327300 -0.327300 0.327300 0.327300 -0.327300 -0.327300 0.327300 0.327300 -0.327300 0.327300 -0.327300 0.327300 0.327300 0.327300 -0.327300 0.327300 -0.327300 -0.327300 -0.327300 -0.327300 -0.327300 -0.327300 0.327300 0.327300 -0.327300 -0.327300 -0.327300 0.327300 0.327300 0.327300 -0.327300 0.327300 0.327300 -0.327300 0.327300 0.327300 0.327300 0.327300 0.327300 0.327300 -0.327300 -0.327300 0.327300 -0.327300 -0.327300 -0.327300 -0.327300 -0.327300 -0.327300 -0.327300 -0.327300 0.327300 0.327300 0.327300 0.327300 -0.327300 0.327300 0.327300 0.327300 0.327300 -0.327300 -0.327300 -0.327300 -0.327300 -0.327300 0.327300 -0.327300 -0.327300 0.327300 -0.327300 0.327300 0.327300 -0.327300 0.327300 -0.327300 0.327300 -0.327300 -0.327300 0.327300 0.327300 0.327300 -0.327300 -0.327300 0.327300 -0.327300 -0.327300 -0.327300 -0.327300 0.327300 -0.327300 -0.327300 -0.327300 -0.327300 -0.327300 -0.327300 -0.327300 -0.327300 0.327300 -0.327300 -0.327300 0.327300 0.327300 0.327300 0.327300 0.327300 0.327300 0.327300 0.327300 0.327300 -0.327300 -0.327300 0.327300 0.327300 0.327300 0.327300 -0.327300 -0.327300 0.327300 -0.327300 0.327300 0.327300 0.327300 -0.327300 -0.327300 0.327300 0.327300 0.327300 0.327300 -0.327300 0.327300 -0.327300 -0.327300 -0.327300 -0.327300 -0.327300 -0.327300 -0.327300 -0.327300 -0.327300 -0.327300 0.327300 0.327300 0.327300 -0.327300 -0.327300 0.327300 0.327300 0.327300 -0.327300 -0.327300 0.327300 0.327300 -0.327300 -0.327300 -0.327300 0.327300 0.327300 -0.327300 0.327300 -0.327300 0.327300 -0.327300 -0.327300 0.327300 0.327300 -0.327300 -0.327300 0.327300 0.327300 0.327300 -0.327300 -0.327300 0.327300 -0.327300 0.327300 -0.327300 -0.327300 -0.327300 -0.327300 -0.327300 -0.327300 0.327300 -0.327300 -0.327300 0.327300 -0.327300 -0.327300 0.327300 -0.327300 -0.327300 0.327300 0.327300 -0.327300 0.327300 0.327300 0.327300 -0.327300 0.327300 -0.327300 0.327300 -0.327300 0.327300 0.327300 0.327300 0.327300 0.327300 -0.327300 -0.327300 -0.327300 -0.327300 -0.327300 -0.327300 0.327300 0.327300 -0.327300 0.327300 -0.327300 0.327300 0.327300 0.327300 -0.327300 -0.327300 0.327300 -0.327300 0.327300 -0.327300 0.327300 0.327300 -0.327300 -0.327300 0.327300 0.327300 -0.327300 0.327300 -0.327300 0.327300 0.327300 -0.327300 -0.327300 -0.327300 0.327300 -0.327300 -0.327300 -0.327300 0.327300 -0.327300 -0.327300 0.327300 -0.327300 -0.327300 0.327300 0.327300 0.327300 0.327300 0.327300 0.327300 0.327300 0.327300 0.327300 0.327300 0.327300 -0.327300 -0.327300 0.327300 -0.327300 0.327300 -0.327300 -0.327300 0.327300 0.327300 0.327300 0.327300 -0.327300 -0.327300 -0.327300 -0.327300 -0.327300 -0.327300 0.327300 -0.327300 -0.327300 0.327300 -0.327300 0.327300 -0.327300 0.327300 0.327300 0.327300 0.327300 -0.327300 -0.327300 0.327300 -0.327300 -0.327300 0.327300 0.327300 0.327300 0.327300 -0.327300 0.327300 0.327300 0.327300 0.327300 -0.327300 -0.327300 -0.327300 -0.327300 -0.327300 -0.327300 0.327300 0.327300 0.327300 -0.327300 -0.327300 0.327300 0.327300 -0.327300 -0.327300 0.327300 -0.327300 0.327300 -0.327300 -0.327300 -0.327300 0.327300 0.327300 -0.327300 0.327300 -0.327300 -0.327300 0.327300 0.327300 0.327300 0.327300 -0.327300 -0.327300 0.327300 0.327300 0.327300 0.327300 -0.327300 -0.327300 -0.327300 0.327300 -0.327300 -0.327300 0.327300 0.327300 -0.327300 -0.327300 0.327300 0.327300 0.327300 -0.327300 0.327300 0.327300 -0.327300 -0.327300 0.327300 0.327300 -0.327300 -0.327300 -0.327300 0.327300 0.327300 -0.327300 -0.327300 0.327300 0.327300 -0.327300 -0.327300 -0.327300 0.327300 -0.327300 0.327300 -0.327300 0.327300 -0.327300 0.327300 0.327300 -0.327300 -0.327300 -0.327300 -0.327300 -0.327300 -0.327300 -0.327300 0.327300 0.327300 -0.327300 -0.327300 0.327300 0.327300 0.327300 -0.327300 0.327300 0.327300 0.327300 0.327300 0.327300 0.327300 -0.327300 0.327300 0.327300 0.327300 -0.327300 -0.327300 0.327300 0.327300 -0.327300 -0.327300 0.327300 -0.327300 0.327300 -0.327300 0.327300 -0.327300 0.327300 -0.327300 -0.327300 -0.327300 -0.327300 0.327300 0.327300 -0.327300 -0.327300 0.327300 -0.327300 0.327300 0.327300 0.327300 0.327300 0.327300 -0.327300 -0.327300 -0.327300 -0.327300 -0.327300 -0.327300 0.327300 -0.327300 -0.327300 -0.327300 0.327300 0.327300 -0.327300 -0.327300 -0.327300 -0.327300 0.327300 0.327300 0.327300 -0.327300 -0.327300 -0.327300 -0.327300 0.327300 0.327300 -0.327300 0.327300 0.327300 0.327300 -0.327300 0.327300 -0.327300 0.327300 -0.327300 -0.327300 0.327300 -0.327300 0.327300 0.327300 0.327300 -0.327300 -0.327300 0.327300 0.327300 -0.327300 -0.327300 -0.327300 0.327300 -0.327300 -0.327300 -0.327300 -0.327300 -0.327300 0.327300 0.327300 -0.327300 -0.327300 -0.327300 0.327300 0.327300 0.327300 0.327300 0.327300 0.327300 -0.327300 0.327300 0.327300 0.327300 -0.327300 -0.327300 0.327300 0.327300 0.327300 -0.327300 -0.327300 -0.327300 -0.327300 0.327300 0.327300 0.327300 -0.327300 0.327300 -0.327300 0.327300 -0.327300 -0.327300 -0.327300 0.327300 -0.327300 -0.327300 0.327300 -0.327300 -0.327300 0.327300 -0.327300 -0.327300 0.327300 0.327300 0.327300 0.327300 -0.327300 -0.327300 0.327300 0.327300 0.327300 -0.327300 -0.327300 -0.327300 0.327300 0.327300 -0.327300 -0.327300 -0.327300 0.327300 -0.327300 0.327300 -0.327300 0.327300 0.327300 -0.327300 0.327300 -0.327300 -0.327300 -0.327300 0.327300 -0.327300 -0.327300 -0.327300 -0.327300 0.327300 0.327300 -0.327300 0.327300 -0.327300 0.327300 -0.327300 0.327300 0.327300 -0.327300 0.327300 0.327300 -0.327300 -0.327300 0.327300 -0.327300 -0.327300 -0.327300 -0.327300 0.327300 0.327300 -0.327300 -0.327300 0.327300 0.327300 0.327300 0.327300 0.327300 0.327300 -0.327300 0.327300 0.327300 0.327300 -0.327300 -0.327300 -0.327300 0.327300 0.327300 -0.327300 -0.327300 -0.327300 -0.327300 -0.327300 -0.327300 -0.327300 0.327300 0.327300 0.327300 0.327300 0.327300 0.327300 0.327300 0.327300 0.327300 -0.327300 0.327300 -0.327300 -0.327300 -0.327300 -0.327300 0.327300 -0.327300 -0.327300 -0.327300 -0.327300 -0.327300 -0.327300 -0.327300 -0.327300 0.327300 0.327300 -0.327300 0.327300 0.327300 -0.327300 0.327300 -0.327300 0.327300 -0.327300 -0.327300 0.327300 -0.327300 -0.327300 -0.327300 -0.327300 0.327300 -0.327300 0.327300 -0.327300 -0.327300 -0.327300 0.327300 0.327300 0.327300 0.327300 -0.327300 0.327300 0.327300 -0.327300 -0.327300 0.327300 -0.327300 -0.327300 0.327300 0.327300 0.327300 -0.327300 0.327300 0.327300 -0.327300 -0.327300 0.327300 -0.327300 -0.327300 -0.327300 -0.327300 -0.327300 0.327300 -0.327300 -0.327300 0.327300 -0.327300 0.327300 0.327300 0.327300 0.327300 -0.327300 -0.327300 -0.327300 0.327300 0.327300 -0.327300 -0.327300 -0.327300 -0.327300 0.327300 0.327300 0.327300 -0.327300 -0.327300 -0.327300 0.327300 -0.327300 -0.327300 0.327300 -0.327300 -0.327300 -0.327300 -0.327300 -0.327300 0.327300 -0.327300 0.327300 0.327300 0.327300 0.327300 0.327300 0.327300 0.327300 0.327300 0.327300 0.327300 0.327300 0.327300 0.327300 0.327300 0.327300 0.327300 0.327300 -0.327300 -0.327300 -0.327300 0.327300 0.327300 0.327300 0.327300 -0.327300 -0.327300 0.327300 0.327300 0.327300 -0.327300 -0.327300 0.327300 -0.327300 -0.327300 -0.327300 0.327300 0.327300 -0.327300 -0.327300 -0.327300 0.327300 -0.327300 0.327300 0.327300 -0.327300 -0.327300 -0.327300 0.327300 0.327300 -0.327300 -0.327300 0.327300 -0.327300 0.327300 0.327300 -0.327300 -0.327300 0.327300 0.327300 0.327300 0.327300 -0.327300 -0.327300 -0.327300 -0.327300 0.327300 -0.327300 0.327300 -0.327300 0.327300 0.327300 0.327300 -0.327300 -0.327300 0.327300 0.327300 -0.327300 -0.327300 -0.327300 0.327300 -0.327300 0.327300 0.327300 -0.327300 -0.327300 -0.327300 -0.327300 0.327300 -0.327300 0.327300 -0.327300 0.327300 0.327300 0.327300 0.327300 0.327300 0.327300 -0.327300 0.327300 -0.327300 0.327300 0.327300 0.327300 0.327300 -0.327300 0.327300 0.327300 0.327300 -0.327300 0.327300 -0.327300 0.327300 0.327300 -0.327300 -0.327300 0.327300 0.327300 -0.327300 -0.327300 -0.327300 -0.327300 -0.327300 0.327300 0.327300 -0.327300 -0.327300 0.327300 0.327300 0.327300 0.327300 0.327300 0.327300 0.327300 0.327300 0.327300 0.327300 0.327300 0.327300 -0.327300 -0.327300 0.327300 0.327300 -0.327300 -0.327300 0.327300 0.327300 0.327300 -0.327300 0.327300 0.327300 0.327300 -0.327300 -0.327300 -0.327300 0.327300 -0.327300 -0.327300 -0.327300 -0.327300 0.327300 -0.327300 -0.327300 -0.327300 0.327300 -0.327300 -0.327300 -0.327300 0.327300 0.327300 -0.327300 -0.327300 -0.327300 0.327300 0.327300 -0.327300 -0.327300 0.327300 0.327300 0.327300 -0.327300 -0.327300 -0.327300 -0.327300 0.327300 0.327300 0.327300 -0.327300 -0.327300 0.327300 0.327300 0.327300 0.327300 -0.327300 -0.327300 -0.327300 -0.327300 0.327300 0.327300 0.327300 -0.327300 -0.327300 -0.327300 -0.327300 -0.327300 -0.327300 -0.327300 -0.327300 -0.327300 -0.327300 -0.327300 0.327300 -0.327300 0.327300 -0.327300 0.327300 0.327300 -0.327300 -0.327300 0.327300 -0.327300 -0.327300 0.327300 0.327300 0.327300 -0.327300 -0.327300 0.327300 0.327300 -0.327300 -0.327300 0.327300 0.327300 -0.327300 0.327300 0.327300 -0.327300 -0.327300 0.327300 0.327300 0.327300 -0.327300 -0.327300 -0.327300 -0.327300 -0.327300 0.327300 -0.327300 -0.327300 -0.327300 -0.327300 0.327300 -0.327300 -0.327300 -0.327300 -0.327300 -0.327300 0.327300 0.327300 0.327300 0.327300 0.327300 -0.327300 0.327300 0.327300 -0.327300 0.327300 0.327300 0.327300 0.327300 0.327300 0.327300 0.327300 0.327300 0.327300 0.327300 0.327300 0.327300 -0.327300 -0.327300 -0.327300 -0.327300 -0.327300 -0.327300 0.327300 0.327300 0.327300 0.327300 0.327300 0.327300 -0.327300 0.327300 -0.327300 -0.327300 0.327300 0.327300 -0.327300 0.327300 -0.327300 -0.327300 0.327300 0.327300 -0.327300 0.327300 -0.327300 0.327300 0.327300 0.327300 -0.327300 -0.327300 -0.327300 0.327300 -0.327300 -0.327300 0.327300 -0.327300 0.327300 0.327300 0.327300 -0.327300 -0.327300 -0.327300 -0.327300 0.327300 0.327300 0.327300 -0.327300 0.327300 -0.327300 0.327300 0.327300 -0.327300 0.327300 0.327300 -0.327300 0.327300 0.327300 0.327300 0.327300 -0.327300 -0.327300 0.327300 -0.327300 -0.327300 0.327300 -0.327300 -0.327300 -0.327300 0.327300 0.327300 0.327300 0.327300 0.327300 -0.327300 -0.327300 0.327300 0.327300 0.327300 -0.327300 0.327300 0.327300 -0.327300 0.327300 -0.327300 0.327300 0.327300 -0.327300 -0.327300 -0.327300 -0.327300 -0.327300 -0.327300 0.327300 -0.327300 -0.327300 -0.327300 -0.327300 0.327300 0.327300 0.327300 -0.327300 -0.327300 0.327300 0.327300 -0.327300 -0.327300 -0.327300 0.327300 -0.327300 -0.327300 0.327300 -0.327300 0.327300 0.327300 0.327300 -0.327300 0.327300 0.327300 -0.327300 0.327300 -0.327300 -0.327300 -0.327300 -0.327300 -0.327300 -0.327300 -0.327300 -0.327300 -0.327300 -0.327300 -0.327300 0.327300 -0.327300 -0.327300 -0.327300 0.327300 0.327300 0.327300 0.327300 -0.327300 -0.327300 0.327300 0.327300 0.327300 0.327300 0.327300 0.327300 -0.327300 -0.327300 -0.327300 0.327300 0.327300 -0.327300 -0.327300 -0.327300 0.327300 -0.327300 -0.327300 0.327300 0.327300 -0.327300 0.327300 -0.327300 0.327300 0.327300 -0.327300 -0.327300 -0.327300 0.327300 0.327300 -0.327300 -0.327300 0.327300 0.327300 -0.327300 0.327300 -0.327300 -0.327300 0.327300 -0.327300 -0.327300 -0.327300 0.327300 0.327300 0.327300 -0.327300 -0.327300 -0.327300 -0.327300 0.327300 -0.327300 -0.327300 -0.327300 -0.327300 -0.327300 0.327300 -0.327300 0.327300 -0.327300 -0.327300 0.327300 0.327300 0.327300 0.327300 0.327300 0.327300 -0.327300 0.327300 0.327300 -0.327300 0.327300 0.327300 -0.327300 -0.327300 -0.327300 -0.327300 -0.327300 -0.327300 -0.327300 0.327300 -0.327300 -0.327300 0.327300 0.327300 0.327300 -0.327300 0.327300 -0.327300 -0.327300 -0.327300 -0.327300 -0.327300 -0.327300 -0.327300 -0.327300 -0.327300 0.327300 0.327300 -0.327300 -0.327300 0.327300 0.327300 -0.327300 0.327300 0.327300 0.327300 0.327300 -0.327300 0.327300 0.327300 -0.327300 -0.327300 -0.327300 -0.327300 -0.327300 -0.327300 0.327300 -0.327300 -0.327300 -0.327300 0.327300 -0.327300 0.327300 -0.327300 -0.327300 0.327300 -0.327300 -0.327300 -0.327300 -0.327300 0.327300 -0.327300 -0.327300 -0.327300 -0.327300 -0.327300 0.327300 0.327300 0.327300 -0.327300 -0.327300 -0.327300 0.327300 -0.327300 0.327300 -0.327300 0.327300 -0.327300 -0.327300 -0.327300 0.327300 0.327300 0.327300 0.327300 -0.327300 -0.327300 -0.327300 0.327300 0.327300 -0.327300 -0.327300 -0.327300 -0.327300 -0.327300 0.327300 -0.327300 -0.327300 -0.327300 -0.327300 -0.327300 -0.327300 -0.327300 -0.327300 -0.327300 -0.327300 0.327300 -0.327300 0.327300 -0.327300 -0.327300 0.327300 -0.327300 0.327300 -0.327300 0.327300 -0.327300 0.327300 -0.327300 0.327300 0.327300 -0.327300 0.327300 0.327300 0.327300 0.327300 0.327300 0.327300 -0.327300 0.327300 0.327300 -0.327300 0.327300 0.327300 -0.327300 -0.327300 -0.327300 0.327300 0.327300 0.327300 -0.327300 -0.327300 0.327300 0.327300 -0.327300 0.327300 -0.327300 -0.327300 -0.327300 -0.327300 0.327300 -0.327300 0.327300 -0.327300 -0.327300 -0.327300 0.327300 -0.327300 -0.327300 -0.327300 -0.327300 0.327300 -0.327300 -0.327300 -0.327300 -0.327300 0.327300 0.327300 0.327300 0.327300 0.327300 -0.327300 -0.327300 -0.327300 -0.327300 0.327300 0.327300 0.327300 -0.327300 0.327300 0.327300 -0.327300 -0.327300 -0.327300 -0.327300 -0.327300 -0.327300 -0.327300 -0.327300 -0.327300 -0.327300 0.327300 0.327300 0.327300 -0.327300 0.327300 0.327300 0.327300 -0.327300 0.327300 0.327300 -0.327300 0.327300 0.327300 -0.327300 -0.327300 0.327300 -0.327300 0.327300 -0.327300 0.327300 0.327300 0.327300 -0.327300 -0.327300 0.327300 -0.327300 -0.327300 -0.327300 0.327300 0.327300 -0.327300 -0.327300 -0.327300 0.327300 0.327300 0.327300 0.327300 -0.327300 0.327300 -0.327300 0.327300 -0.327300 -0.327300 0.327300 0.327300 0.327300 0.327300 -0.327300 -0.327300 -0.327300 0.327300 -0.327300 0.327300 -0.327300 -0.327300 -0.327300 0.327300 0.327300 -0.327300 -0.327300 -0.327300 -0.327300 -0.327300 0.327300 0.327300 0.327300 -0.327300 -0.327300 -0.327300 -0.327300 0.327300 0.327300 -0.327300 -0.327300 -0.327300 0.327300 0.327300 -0.327300 -0.327300 0.327300 -0.327300 0.327300 0.327300 -0.327300 0.327300 0.327300 -0.327300 0.327300 0.327300 -0.327300 -0.327300 0.327300 0.327300 0.327300 -0.327300 -0.327300 -0.327300 0.327300 -0.327300 -0.327300 -0.327300 0.327300 -0.327300 0.327300 -0.327300 -0.327300 -0.327300 0.327300 0.327300 -0.327300 -0.327300 -0.327300 -0.327300 0.327300 0.327300 0.327300 -0.327300 0.327300 0.327300 0.327300 -0.327300 -0.327300 -0.327300 -0.327300 0.327300 -0.327300 -0.327300 -0.327300 -0.327300 -0.327300 -0.327300 0.327300 0.327300 -0.327300 -0.327300 -0.327300 0.327300 0.327300 0.327300 -0.327300 0.327300 -0.327300 -0.327300 0.327300 -0.327300 0.327300 0.327300 0.327300 -0.327300 -0.327300 -0.327300 0.327300 -0.327300 -0.327300 0.327300 -0.327300 -0.327300 -0.327300 0.327300 0.327300 -0.327300 0.327300 0.327300 0.327300 0.327300 0.327300 0.327300 -0.327300 0.327300 0.327300 -0.327300 0.327300 0.327300 0.327300 -0.327300 -0.327300 0.327300 -0.327300 -0.327300 0.327300 -0.327300 -0.327300 0.327300 0.327300 -0.327300 0.327300 0.327300 -0.327300 0.327300 -0.327300 -0.327300 -0.327300 -0.327300 -0.327300 -0.327300 -0.327300 0.327300 0.327300 -0.327300 -0.327300 0.327300 -0.327300 -0.327300 -0.327300 0.327300 0.327300 0.327300 0.327300 0.327300 0.327300 0.327300 0.327300 0.327300 0.327300 -0.327300 -0.327300 -0.327300 -0.327300 0.327300 -0.327300 0.327300 -0.327300 0.327300 0.327300 -0.327300 -0.327300 -0.327300 -0.327300 -0.327300 0.327300 -0.327300 -0.327300 -0.327300 -0.327300 0.327300 -0.327300 0.327300 -0.327300 -0.327300 -0.327300 0.327300 0.327300 0.327300 0.327300 0.327300 0.327300 -0.327300 -0.327300 0.327300 0.327300 -0.327300 -0.327300 -0.327300 -0.327300 -0.327300 -0.327300 0.327300 0.327300 -0.327300 -0.327300 0.327300 0.327300 0.327300 -0.327300 -0.327300 0.327300 -0.327300 -0.327300 -0.327300 -0.327300 0.327300 -0.327300 0.327300 0.327300 0.327300 0.327300 0.327300 0.327300 0.327300 -0.327300 -0.327300 0.327300 -0.327300 -0.327300 0.327300 -0.327300 0.327300 0.327300 -0.327300 0.327300 0.327300 0.327300 -0.327300 -0.327300 -0.327300 0.327300 -0.327300 0.327300 -0.327300 -0.327300 0.327300 0.327300 -0.327300 0.327300 0.327300 -0.327300 -0.327300 -0.327300 0.327300 0.327300 0.327300 -0.327300 0.327300 0.327300 0.327300 0.327300 0.327300 -0.327300 0.327300 0.327300 0.327300 0.327300 -0.327300 -0.327300 0.327300 0.327300 0.327300 0.327300 0.327300 0.327300 -0.327300 -0.327300 -0.327300 -0.327300 -0.327300 -0.327300 -0.327300 0.327300 -0.327300 -0.327300 0.327300 -0.327300 -0.327300 -0.327300 -0.327300 0.327300 0.327300 0.327300 0.327300 -0.327300 0.327300 0.327300 0.327300 0.327300 0.327300 -0.327300 -0.327300 -0.327300 0.327300 0.327300 -0.327300 0.327300 -0.327300 0.327300 0.327300 0.327300 -0.327300 -0.327300 0.327300 -0.327300 0.327300 0.327300 0.327300 -0.327300 -0.327300 -0.327300 0.327300 0.327300 0.327300 0.327300 -0.327300 -0.327300 -0.327300 0.327300 0.327300 -0.327300 -0.327300 -0.327300 0.327300 -0.327300 0.327300 0.327300 -0.327300 -0.327300 -0.327300 -0.327300 -0.327300 -0.327300 0.327300 0.327300 0.327300 -0.327300 -0.327300 0.327300 0.327300 0.327300 0.327300 -0.327300 0.327300 -0.327300 