0.673700 0.673700 0.673700 0.673700 -0.673700 0.673700 -0.673700 -0.673700 -0.673700 -0.673700 -0.673700 -0.673700 -0.673700 -0.673700 -0.673700 -0.673700 -0.673700 -0.673700 -0.673700 0.673700 -0.673700 -0.673700 0.673700 0.673700 0.673700 -0.673700 0.673700 0.673700 -0.673700 -0.673700 0.673700 0.673700 0.673700 0.673700 0.673700 0.673700 0.673700 0.673700 -0.673700 0.673700 -0.673700 -0.673700 -0.673700 -0.673700 -0.673700 -0.673700 -0.673700 -0.673700 -0.673700 -0.673700 -0.673700 -0.673700 -0.673700 0.673700 0.673700 -0.673700 -0.673700 -0.673700 0.673700 0.673700 -0.673700 0.673700 0.673700 0.673700 0.673700 -0.673700 -0.673700 0.673700 0.673700 -0.673700 0.673700 0.673700 0.673700 0.673700 0.673700 0.673700 0.673700 0.673700 0.673700 0.673700 -0.673700 0.673700 0.673700 0.673700 0.673700 -0.673700 -0.673700 -0.673700 0.673700 0.673700 -0.673700 -0.673700 -0.673700 -0.673700 -0.673700 -0.673700 -0.673700 -0.673700 -0.673700 -0.673700 -0.673700 -0.673700 0.673700 0.673700 -0.673700 0.673700 0.673700 0.673700 0.673700 0.673700 0.673700 0.673700 0.673700 0.673700 -0.673700 -0.673700 0.673700 0.673700 0.673700 -0.673700 -0.673700 -0.673700 -0.673700 -0.673700 -0.673700 0.673700 -0.673700 -0.673700 -0.673700 -0.673700 -0.673700 0.673700 0.673700 0.673700 0.673700 -0.673700 0.673700 0.673700 0.673700 0.673700 -0.673700 0.673700 0.673700 0.673700 0.673700 -0.673700 -0.673700 0.673700 0.673700 -0.673700 
