-0.503600 -0.503600 0.503600 -0.503600 0.503600 -0.503600 -0.503600 -0.503600 -0.503600 -0.503600 -0.503600 -0.503600 -0.503600 0.503600 -0.503600 0.503600 0.503600 0.503600 0.503600 0.503600 0.503600 0.503600 0.503600 0.503600 0.503600 -0.503600 -0.503600 0.503600 -0.503600 0.503600 0.503600 -0.503600 -0.503600 -0.503600 -0.503600 0.503600 0.503600 0.503600 0.503600 0.503600 0.503600 0.503600 0.503600 0.503600 0.503600 -0.503600 -0.503600 -0.503600 -0.503600 -0.503600 -0.503600 -0.503600 -0.503600 -0.503600 0.503600 -0.503600 0.503600 0.503600 0.503600 0.503600 -0.503600 0.503600 0.503600 -0.503600 -0.503600 0.503600 0.503600 -0.503600 0.503600 0.503600 0.503600 -0.503600 -0.503600 -0.503600 0.503600 -0.503600 -0.503600 -0.503600 0.503600 -0.503600 -0.503600 -0.503600 -0.503600 -0.503600 0.503600 0.503600 0.503600 0.503600 0.503600 0.503600 0.503600 0.503600 0.503600 0.503600 0.503600 -0.503600 -0.503600 -0.503600 -0.503600 -0.503600 -0.503600 0.503600 -0.503600 -0.503600 -0.503600 0.503600 -0.503600 0.503600 0.503600 -0.503600 0.503600 0.503600 0.503600 0.503600 0.503600 0.503600 0.503600 0.503600 -0.503600 0.503600 -0.503600 -0.503600 -0.503600 -0.503600 -0.503600 -0.503600 -0.503600 -0.503600 -0.503600 -0.503600 -0.503600 0.503600 0.503600 0.503600 0.503600 0.503600 0.503600 0.503600 0.503600 0.503600 -0.503600 -0.503600 -0.503600 -0.503600 0.503600 -0.503600 -0.503600 -0.503600 -0.503600 -0.503600 0.503600 -0.503600 -0.503600 -0.503600 -0.503600 -0.503600 0.503600 -0.503600 -0.503600 -0.503600 0.503600 0.503600 0.503600 0.503600 0.503600 0.503600 0.503600 0.503600 0.503600 0.503600 -0.503600 -0.503600 0.503600 0.503600 0.503600 -0.503600 0.503600 0.503600 -0.503600 0.503600 0.503600 0.503600 0.503600 0.503600 -0.503600 0.503600 -0.503600 -0.503600 -0.503600 -0.503600 -0.503600 -0.503600 0.503600 0.503600 0.503600 -0.503600 0.503600 0.503600 0.503600 0.503600 0.503600 -0.503600 -0.503600 0.503600 0.503600 0.503600 -0.503600 0.503600 0.503600 0.503600 -0.503600 -0.503600 0.503600 0.503600 -0.503600 0.503600 0.503600 0.503600 -0.503600 -0.503600 0.503600 -0.503600 -0.503600 -0.503600 0.503600 0.503600 -0.503600 -0.503600 -0.503600 0.503600 0.503600 0.503600 0.503600 0.503600 0.503600 0.503600 -0.503600 -0.503600 -0.503600 -0.503600 -0.503600 -0.503600 -0.503600 0.503600 0.503600 0.503600 0.503600 0.503600 0.503600 0.503600 0.503600 -0.503600 -0.503600 -0.503600 -0.503600 0.503600 -0.503600 -0.503600 -0.503600 -0.503600 0.503600 -0.503600 -0.503600 -0.503600 -0.503600 -0.503600 -0.503600 0.503600 0.503600 0.503600 0.503600 0.503600 0.503600 0.503600 0.503600 -0.503600 -0.503600 -0.503600 -0.503600 -0.503600 0.503600 -0.503600 -0.503600 -0.503600 -0.503600 -0.503600 -0.503600 -0.503600 0.503600 -0.503600 0.503600 0.503600 0.503600 0.503600 0.503600 0.503600 0.503600 -0.503600 -0.503600 0.503600 -0.503600 -0.503600 -0.503600 0.503600 0.503600 -0.503600 -0.503600 -0.503600 -0.503600 -0.503600 0.503600 0.503600 0.503600 0.503600 0.503600 0.503600 0.503600 0.503600 0.503600 0.503600 0.503600 0.503600 0.503600 0.503600 0.503600 -0.503600 -0.503600 -0.503600 -0.503600 -0.503600 0.503600 0.503600 0.503600 0.503600 0.503600 -0.503600 -0.503600 0.503600 0.503600 0.503600 -0.503600 -0.503600 -0.503600 -0.503600 -0.503600 -0.503600 0.503600 0.503600 0.503600 -0.503600 -0.503600 0.503600 0.503600 0.503600 0.503600 -0.503600 0.503600 0.503600 -0.503600 -0.503600 0.503600 -0.503600 -0.503600 -0.503600 -0.503600 -0.503600 -0.503600 -0.503600 -0.503600 -0.503600 0.503600 0.503600 0.503600 -0.503600 0.503600 0.503600 0.503600 0.503600 0.503600 0.503600 0.503600 0.503600 0.503600 0.503600 0.503600 0.503600 0.503600 0.503600 0.503600 0.503600 0.503600 0.503600 -0.503600 0.503600 -0.503600 -0.503600 -0.503600 -0.503600 0.503600 -0.503600 0.503600 0.503600 -0.503600 -0.503600 -0.503600 -0.503600 -0.503600 0.503600 0.503600 0.503600 -0.503600 -0.503600 -0.503600 -0.503600 -0.503600 -0.503600 -0.503600 -0.503600 -0.503600 -0.503600 -0.503600 -0.503600 -0.503600 -0.503600 -0.503600 -0.503600 -0.503600 0.503600 -0.503600 0.503600 -0.503600 -0.503600 -0.503600 -0.503600 -0.503600 -0.503600 -0.503600 -0.503600 -0.503600 -0.503600 -0.503600 -0.503600 -0.503600 -0.503600 -0.503600 -0.503600 0.503600 -0.503600 -0.503600 -0.503600 -0.503600 -0.503600 0.503600 0.503600 0.503600 -0.503600 0.503600 0.503600 0.503600 0.503600 -0.503600 0.503600 0.503600 0.503600 -0.503600 -0.503600 0.503600 0.503600 -0.503600 -0.503600 0.503600 0.503600 -0.503600 -0.503600 -0.503600 -0.503600 0.503600 0.503600 -0.503600 -0.503600 -0.503600 0.503600 0.503600 -0.503600 -0.503600 -0.503600 0.503600 0.503600 -0.503600 0.503600 0.503600 0.503600 -0.503600 -0.503600 0.503600 0.503600 0.503600 -0.503600 0.503600 0.503600 0.503600 0.503600 -0.503600 -0.503600 0.503600 0.503600 -0.503600 -0.503600 -0.503600 0.503600 0.503600 -0.503600 -0.503600 0.503600 0.503600 0.503600 -0.503600 -0.503600 0.503600 0.503600 -0.503600 -0.503600 0.503600 0.503600 -0.503600 0.503600 0.503600 0.503600 0.503600 -0.503600 0.503600 0.503600 0.503600 -0.503600 -0.503600 -0.503600 -0.503600 -0.503600 0.503600 -0.503600 0.503600 -0.503600 -0.503600 0.503600 0.503600 0.503600 -0.503600 0.503600 -0.503600 0.503600 0.503600 0.503600 -0.503600 -0.503600 -0.503600 0.503600 0.503600 -0.503600 -0.503600 -0.503600 0.503600 0.503600 -0.503600 -0.503600 0.503600 0.503600 -0.503600 -0.503600 0.503600 0.503600 0.503600 -0.503600 -0.503600 0.503600 0.503600 0.503600 0.503600 -0.503600 -0.503600 -0.503600 0.503600 -0.503600 -0.503600 0.503600 0.503600 0.503600 -0.503600 -0.503600 0.503600 0.503600 0.503600 -0.503600 0.503600 0.503600 -0.503600 -0.503600 -0.503600 0.503600 0.503600 -0.503600 -0.503600 0.503600 0.503600 -0.503600 -0.503600 -0.503600 0.503600 0.503600 -0.503600 0.503600 0.503600 -0.503600 -0.503600 0.503600 0.503600 0.503600 0.503600 0.503600 0.503600 0.503600 0.503600 -0.503600 -0.503600 -0.503600 -0.503600 0.503600 -0.503600 -0.503600 -0.503600 0.503600 0.503600 -0.503600 -0.503600 0.503600 0.503600 0.503600 -0.503600 -0.503600 0.503600 0.503600 0.503600 -0.503600 0.503600 0.503600 0.503600 -0.503600 -0.503600 -0.503600 -0.503600 -0.503600 -0.503600 -0.503600 0.503600 0.503600 -0.503600 -0.503600 0.503600 0.503600 0.503600 -0.503600 -0.503600 0.503600 -0.503600 -0.503600 -0.503600 0.503600 -0.503600 -0.503600 -0.503600 -0.503600 0.503600 0.503600 0.503600 0.503600 0.503600 -0.503600 -0.503600 -0.503600 -0.503600 -0.503600 -0.503600 -0.503600 -0.503600 -0.503600 -0.503600 -0.503600 -0.503600 0.503600 0.503600 -0.503600 0.503600 0.503600 0.503600 0.503600 0.503600 0.503600 0.503600 0.503600 -0.503600 0.503600 -0.503600 -0.503600 -0.503600 0.503600 0.503600 -0.503600 -0.503600 -0.503600 0.503600 0.503600 -0.503600 -0.503600 0.503600 0.503600 -0.503600 -0.503600 -0.503600 0.503600 0.503600 -0.503600 -0.503600 -0.503600 -0.503600 -0.503600 -0.503600 -0.503600 -0.503600 0.503600 0.503600 0.503600 -0.503600 0.503600 0.503600 0.503600 -0.503600 -0.503600 0.503600 0.503600 0.503600 -0.503600 -0.503600 -0.503600 -0.503600 -0.503600 -0.503600 -0.503600 -0.503600 -0.503600 -0.503600 -0.503600 0.503600 -0.503600 -0.503600 -0.503600 0.503600 -0.503600 -0.503600 -0.503600 0.503600 0.503600 -0.503600 -0.503600 0.503600 0.503600 0.503600 0.503600 0.503600 0.503600 0.503600 -0.503600 -0.503600 0.503600 -0.503600 -0.503600 -0.503600 0.503600 -0.503600 -0.503600 -0.503600 0.503600 -0.503600 -0.503600 0.503600 0.503600 0.503600 0.503600 0.503600 0.503600 0.503600 -0.503600 0.503600 0.503600 0.503600 -0.503600 -0.503600 0.503600 0.503600 0.503600 -0.503600 0.503600 -0.503600 0.503600 0.503600 0.503600 -0.503600 0.503600 0.503600 0.503600 -0.503600 -0.503600 0.503600 -0.503600 0.503600 -0.503600 -0.503600 -0.503600 -0.503600 -0.503600 0.503600 -0.503600 0.503600 0.503600 0.503600 0.503600 0.503600 0.503600 0.503600 -0.503600 0.503600 0.503600 -0.503600 0.503600 0.503600 0.503600 -0.503600 0.503600 0.503600 0.503600 0.503600 -0.503600 0.503600 0.503600 0.503600 -0.503600 -0.503600 -0.503600 0.503600 -0.503600 -0.503600 -0.503600 -0.503600 -0.503600 -0.503600 0.503600 0.503600 0.503600 0.503600 0.503600 0.503600 -0.503600 0.503600 0.503600 0.503600 -0.503600 -0.503600 0.503600 0.503600 -0.503600 -0.503600 -0.503600 0.503600 -0.503600 -0.503600 -0.503600 0.503600 -0.503600 0.503600 0.503600 0.503600 -0.503600 0.503600 0.503600 0.503600 -0.503600 -0.503600 0.503600 0.503600 -0.503600 -0.503600 -0.503600 0.503600 -0.503600 -0.503600 0.503600 0.503600 -0.503600 0.503600 -0.503600 0.503600 0.503600 0.503600 0.503600 -0.503600 0.503600 0.503600 -0.503600 -0.503600 0.503600 0.503600 0.503600 0.503600 0.503600 0.503600 0.503600 -0.503600 0.503600 0.503600 -0.503600 -0.503600 -0.503600 -0.503600 -0.503600 -0.503600 -0.503600 -0.503600 -0.503600 -0.503600 -0.503600 0.503600 0.503600 -0.503600 0.503600 0.503600 0.503600 -0.503600 0.503600 -0.503600 -0.503600 -0.503600 -0.503600 -0.503600 -0.503600 -0.503600 0.503600 0.503600 -0.503600 0.503600 -0.503600 -0.503600 0.503600 0.503600 0.503600 0.503600 0.503600 -0.503600 0.503600 -0.503600 -0.503600 -0.503600 -0.503600 -0.503600 -0.503600 -0.503600 -0.503600 0.503600 0.503600 -0.503600 0.503600 0.503600 0.503600 0.503600 0.503600 0.503600 0.503600 -0.503600 -0.503600 -0.503600 -0.503600 0.503600 -0.503600 0.503600 0.503600 0.503600 0.503600 -0.503600 0.503600 0.503600 0.503600 -0.503600 -0.503600 -0.503600 -0.503600 -0.503600 -0.503600 -0.503600 -0.503600 -0.503600 -0.503600 -0.503600 0.503600 -0.503600 -0.503600 0.503600 0.503600 0.503600 0.503600 0.503600 0.503600 -0.503600 -0.503600 0.503600 0.503600 -0.503600 -0.503600 0.503600 -0.503600 -0.503600 -0.503600 0.503600 0.503600 -0.503600 -0.503600 -0.503600 -0.503600 -0.503600 0.503600 0.503600 0.503600 0.503600 -0.503600 0.503600 0.503600 -0.503600 -0.503600 -0.503600 -0.503600 -0.503600 -0.503600 0.503600 0.503600 -0.503600 -0.503600 -0.503600 0.503600 -0.503600 0.503600 0.503600 0.503600 -0.503600 -0.503600 0.503600 -0.503600 -0.503600 0.503600 0.503600 -0.503600 -0.503600 -0.503600 -0.503600 -0.503600 -0.503600 -0.503600 -0.503600 -0.503600 -0.503600 0.503600 -0.503600 0.503600 0.503600 0.503600 -0.503600 0.503600 0.503600 0.503600 -0.503600 -0.503600 -0.503600 0.503600 0.503600 0.503600 -0.503600 0.503600 0.503600 -0.503600 -0.503600 -0.503600 -0.503600 -0.503600 0.503600 -0.503600 -0.503600 0.503600 0.503600 0.503600 0.503600 -0.503600 -0.503600 -0.503600 -0.503600 -0.503600 -0.503600 -0.503600 -0.503600 -0.503600 -0.503600 -0.503600 -0.503600 -0.503600 -0.503600 -0.503600 -0.503600 0.503600 0.503600 0.503600 0.503600 -0.503600 0.503600 -0.503600 -0.503600 -0.503600 0.503600 -0.503600 -0.503600 -0.503600 -0.503600 -0.503600 -0.503600 -0.503600 -0.503600 -0.503600 -0.503600 -0.503600 -0.503600 -0.503600 -0.503600 -0.503600 -0.503600 -0.503600 -0.503600 0.503600 -0.503600 0.503600 0.503600 0.503600 0.503600 0.503600 0.503600 0.503600 0.503600 -0.503600 -0.503600 0.503600 0.503600 -0.503600 -0.503600 -0.503600 0.503600 -0.503600 -0.503600 -0.503600 -0.503600 -0.503600 0.503600 0.503600 0.503600 0.503600 0.503600 0.503600 0.503600 0.503600 -0.503600 -0.503600 -0.503600 -0.503600 -0.503600 0.503600 0.503600 -0.503600 -0.503600 -0.503600 -0.503600 -0.503600 -0.503600 -0.503600 -0.503600 0.503600 0.503600 0.503600 0.503600 0.503600 -0.503600 0.503600 0.503600 0.503600 -0.503600 -0.503600 -0.503600 -0.503600 -0.503600 0.503600 -0.503600 -0.503600 -0.503600 -0.503600 -0.503600 0.503600 0.503600 0.503600 0.503600 0.503600 0.503600 0.503600 0.503600 0.503600 -0.503600 0.503600 -0.503600 -0.503600 -0.503600 0.503600 -0.503600 -0.503600 0.503600 0.503600 -0.503600 0.503600 0.503600 0.503600 0.503600 0.503600 0.503600 0.503600 -0.503600 -0.503600 -0.503600 -0.503600 -0.503600 -0.503600 -0.503600 -0.503600 -0.503600 -0.503600 0.503600 -0.503600 0.503600 0.503600 0.503600 0.503600 0.503600 0.503600 -0.503600 0.503600 0.503600 0.503600 0.503600 0.503600 0.503600 -0.503600 -0.503600 -0.503600 0.503600 -0.503600 0.503600 0.503600 -0.503600 -0.503600 -0.503600 0.503600 -0.503600 -0.503600 -0.503600 0.503600 0.503600 0.503600 -0.503600 0.503600 0.503600 0.503600 0.503600 0.503600 0.503600 0.503600 0.503600 0.503600 0.503600 0.503600 -0.503600 -0.503600 -0.503600 0.503600 -0.503600 -0.503600 0.503600 0.503600 0.503600 -0.503600 0.503600 0.503600 0.503600 -0.503600 0.503600 0.503600 0.503600 0.503600 0.503600 -0.503600 -0.503600 -0.503600 -0.503600 -0.503600 -0.503600 -0.503600 -0.503600 -0.503600 0.503600 -0.503600 -0.503600 0.503600 0.503600 0.503600 -0.503600 -0.503600 0.503600 -0.503600 -0.503600 -0.503600 -0.503600 -0.503600 -0.503600 -0.503600 -0.503600 -0.503600 -0.503600 -0.503600 -0.503600 -0.503600 -0.503600 -0.503600 -0.503600 -0.503600 -0.503600 0.503600 0.503600 0.503600 -0.503600 0.503600 0.503600 -0.503600 -0.503600 -0.503600 -0.503600 0.503600 0.503600 -0.503600 -0.503600 -0.503600 -0.503600 0.503600 0.503600 -0.503600 -0.503600 -0.503600 0.503600 0.503600 0.503600 -0.503600 -0.503600 -0.503600 -0.503600 -0.503600 0.503600 -0.503600 0.503600 -0.503600 -0.503600 -0.503600 0.503600 0.503600 -0.503600 -0.503600 -0.503600 -0.503600 0.503600 0.503600 0.503600 0.503600 -0.503600 -0.503600 -0.503600 0.503600 -0.503600 0.503600 -0.503600 -0.503600 -0.503600 -0.503600 0.503600 0.503600 0.503600 0.503600 0.503600 -0.503600 -0.503600 -0.503600 0.503600 0.503600 0.503600 0.503600 -0.503600 -0.503600 0.503600 0.503600 0.503600 0.503600 0.503600 0.503600 0.503600 0.503600 0.503600 0.503600 0.503600 0.503600 -0.503600 -0.503600 0.503600 -0.503600 -0.503600 0.503600 0.503600 -0.503600 -0.503600 -0.503600 0.503600 0.503600 0.503600 0.503600 -0.503600 -0.503600 0.503600 0.503600 0.503600 0.503600 -0.503600 -0.503600 -0.503600 0.503600 0.503600 0.503600 -0.503600 -0.503600 0.503600 -0.503600 -0.503600 0.503600 0.503600 0.503600 -0.503600 -0.503600 0.503600 0.503600 0.503600 -0.503600 -0.503600 -0.503600 -0.503600 0.503600 0.503600 0.503600 -0.503600 -0.503600 0.503600 0.503600 0.503600 0.503600 -0.503600 -0.503600 -0.503600 -0.503600 -0.503600 0.503600 -0.503600 -0.503600 -0.503600 -0.503600 0.503600 0.503600 -0.503600 -0.503600 -0.503600 -0.503600 0.503600 0.503600 0.503600 0.503600 -0.503600 0.503600 0.503600 0.503600 0.503600 0.503600 -0.503600 -0.503600 -0.503600 0.503600 -0.503600 -0.503600 0.503600 0.503600 0.503600 -0.503600 0.503600 0.503600 0.503600 0.503600 0.503600 0.503600 0.503600 0.503600 0.503600 0.503600 -0.503600 0.503600 0.503600 -0.503600 -0.503600 0.503600 0.503600 0.503600 0.503600 -0.503600 0.503600 -0.503600 -0.503600 -0.503600 -0.503600 -0.503600 -0.503600 -0.503600 0.503600 0.503600 -0.503600 0.503600 0.503600 0.503600 0.503600 -0.503600 0.503600 0.503600 -0.503600 -0.503600 -0.503600 0.503600 0.503600 0.503600 -0.503600 -0.503600 0.503600 0.503600 -0.503600 -0.503600 0.503600 0.503600 -0.503600 -0.503600 -0.503600 0.503600 -0.503600 0.503600 -0.503600 0.503600 -0.503600 -0.503600 0.503600 0.503600 0.503600 0.503600 0.503600 0.503600 -0.503600 -0.503600 -0.503600 -0.503600 -0.503600 -0.503600 -0.503600 -0.503600 -0.503600 -0.503600 -0.503600 0.503600 -0.503600 -0.503600 -0.503600 0.503600 0.503600 0.503600 0.503600 0.503600 0.503600 -0.503600 -0.503600 -0.503600 0.503600 -0.503600 -0.503600 -0.503600 -0.503600 -0.503600 0.503600 0.503600 -0.503600 0.503600 0.503600 0.503600 0.503600 0.503600 0.503600 0.503600 0.503600 0.503600 0.503600 0.503600 0.503600 0.503600 -0.503600 -0.503600 0.503600 0.503600 0.503600 0.503600 -0.503600 -0.503600 0.503600 0.503600 0.503600 -0.503600 0.503600 0.503600 0.503600 0.503600 0.503600 0.503600 0.503600 0.503600 -0.503600 0.503600 -0.503600 -0.503600 -0.503600 -0.503600 -0.503600 -0.503600 0.503600 0.503600 -0.503600 -0.503600 -0.503600 0.503600 0.503600 -0.503600 0.503600 0.503600 0.503600 0.503600 0.503600 -0.503600 0.503600 -0.503600 0.503600 0.503600 -0.503600 -0.503600 -0.503600 -0.503600 -0.503600 0.503600 0.503600 0.503600 -0.503600 -0.503600 0.503600 0.503600 0.503600 0.503600 -0.503600 -0.503600 0.503600 0.503600 0.503600 0.503600 0.503600 -0.503600 -0.503600 -0.503600 -0.503600 0.503600 -0.503600 0.503600 -0.503600 0.503600 0.503600 -0.503600 -0.503600 0.503600 0.503600 -0.503600 -0.503600 -0.503600 -0.503600 0.503600 -0.503600 -0.503600 -0.503600 0.503600 0.503600 -0.503600 -0.503600 0.503600 0.503600 0.503600 -0.503600 0.503600 -0.503600 -0.503600 -0.503600 -0.503600 0.503600 0.503600 0.503600 0.503600 -0.503600 -0.503600 0.503600 0.503600 0.503600 -0.503600 0.503600 0.503600 0.503600 0.503600 0.503600 -0.503600 -0.503600 -0.503600 0.503600 0.503600 0.503600 0.503600 0.503600 -0.503600 -0.503600 -0.503600 -0.503600 0.503600 0.503600 0.503600 -0.503600 -0.503600 -0.503600 0.503600 -0.503600 -0.503600 -0.503600 -0.503600 -0.503600 -0.503600 -0.503600 -0.503600 -0.503600 -0.503600 0.503600 0.503600 0.503600 0.503600 -0.503600 -0.503600 -0.503600 0.503600 0.503600 0.503600 -0.503600 -0.503600 -0.503600 0.503600 0.503600 -0.503600 -0.503600 -0.503600 -0.503600 -0.503600 0.503600 -0.503600 -0.503600 -0.503600 -0.503600 0.503600 0.503600 0.503600 0.503600 -0.503600 0.503600 0.503600 0.503600 0.503600 0.503600 0.503600 0.503600 -0.503600 0.503600 0.503600 0.503600 -0.503600 0.503600 0.503600 -0.503600 0.503600 -0.503600 0.503600 0.503600 -0.503600 -0.503600 0.503600 0.503600 -0.503600 -0.503600 -0.503600 -0.503600 0.503600 0.503600 0.503600 0.503600 -0.503600 -0.503600 -0.503600 -0.503600 -0.503600 -0.503600 0.503600 -0.503600 -0.503600 -0.503600 0.503600 0.503600 0.503600 0.503600 -0.503600 0.503600 0.503600 -0.503600 0.503600 0.503600 -0.503600 0.503600 -0.503600 0.503600 0.503600 0.503600 0.503600 0.503600 -0.503600 0.503600 0.503600 -0.503600 -0.503600 -0.503600 -0.503600 -0.503600 -0.503600 -0.503600 0.503600 -0.503600 -0.503600 -0.503600 0.503600 0.503600 0.503600 0.503600 0.503600 0.503600 0.503600 -0.503600 0.503600 -0.503600 0.503600 0.503600 0.503600 -0.503600 -0.503600 -0.503600 -0.503600 -0.503600 -0.503600 -0.503600 -0.503600 -0.503600 -0.503600 -0.503600 -0.503600 -0.503600 -0.503600 0.503600 -0.503600 -0.503600 -0.503600 -0.503600 0.503600 -0.503600 -0.503600 -0.503600 -0.503600 -0.503600 0.503600 0.503600 -0.503600 -0.503600 0.503600 0.503600 -0.503600 -0.503600 0.503600 0.503600 0.503600 -0.503600 -0.503600 0.503600 -0.503600 -0.503600 -0.503600 -0.503600 0.503600 -0.503600 0.503600 -0.503600 -0.503600 0.503600 0.503600 0.503600 -0.503600 -0.503600 0.503600 0.503600 0.503600 -0.503600 -0.503600 0.503600 0.503600 -0.503600 -0.503600 -0.503600 0.503600 0.503600 -0.503600 0.503600 0.503600 0.503600 0.503600 0.503600 0.503600 0.503600 0.503600 -0.503600 -0.503600 -0.503600 -0.503600 -0.503600 0.503600 -0.503600 -0.503600 0.503600 0.503600 -0.503600 -0.503600 -0.503600 -0.503600 -0.503600 -0.503600 0.503600 0.503600 0.503600 0.503600 -0.503600 0.503600 -0.503600 -0.503600 -0.503600 0.503600 -0.503600 -0.503600 0.503600 0.503600 -0.503600 0.503600 0.503600 0.503600 0.503600 -0.503600 -0.503600 0.503600 -0.503600 -0.503600 0.503600 0.503600 -0.503600 -0.503600 -0.503600 -0.503600 -0.503600 -0.503600 -0.503600 -0.503600 0.503600 0.503600 0.503600 0.503600 0.503600 -0.503600 -0.503600 -0.503600 0.503600 0.503600 -0.503600 0.503600 0.503600 0.503600 0.503600 -0.503600 0.503600 0.503600 0.503600 0.503600 0.503600 0.503600 0.503600 0.503600 -0.503600 -0.503600 -0.503600 -0.503600 0.503600 0.503600 0.503600 0.503600 0.503600 0.503600 0.503600 -0.503600 -0.503600 -0.503600 -0.503600 -0.503600 0.503600 0.503600 0.503600 0.503600 -0.503600 0.503600 -0.503600 -0.503600 -0.503600 -0.503600 -0.503600 -0.503600 -0.503600 0.503600 0.503600 0.503600 0.503600 0.503600 0.503600 -0.503600 0.503600 -0.503600 -0.503600 -0.503600 0.503600 0.503600 0.503600 -0.503600 -0.503600 -0.503600 -0.503600 -0.503600 -0.503600 -0.503600 -0.503600 0.503600 0.503600 0.503600 0.503600 0.503600 0.503600 -0.503600 -0.503600 0.503600 -0.503600 0.503600 -0.503600 -0.503600 0.503600 0.503600 0.503600 0.503600 0.503600 -0.503600 -0.503600 -0.503600 0.503600 0.503600 0.503600 0.503600 -0.503600 -0.503600 -0.503600 -0.503600 -0.503600 0.503600 -0.503600 -0.503600 0.503600 -0.503600 0.503600 -0.503600 0.503600 0.503600 0.503600 -0.503600 0.503600 -0.503600 0.503600 0.503600 0.503600 -0.503600 -0.503600 0.503600 -0.503600 0.503600 0.503600 -0.503600 -0.503600 -0.503600 0.503600 0.503600 0.503600 0.503600 0.503600 0.503600 0.503600 0.503600 0.503600 0.503600 0.503600 -0.503600 -0.503600 -0.503600 -0.503600 0.503600 0.503600 0.503600 0.503600 0.503600 0.503600 0.503600 0.503600 0.503600 0.503600 0.503600 0.503600 0.503600 0.503600 0.503600 -0.503600 0.503600 0.503600 0.503600 -0.503600 -0.503600 -0.503600 -0.503600 -0.503600 -0.503600 -0.503600 -0.503600 -0.503600 -0.503600 -0.503600 0.503600 0.503600 0.503600 -0.503600 -0.503600 0.503600 0.503600 0.503600 0.503600 0.503600 -0.503600 0.503600 0.503600 0.503600 0.503600 -0.503600 -0.503600 0.503600 0.503600 -0.503600 0.503600 0.503600 -0.503600 -0.503600 -0.503600 0.503600 0.503600 0.503600 0.503600 0.503600 0.503600 0.503600 0.503600 0.503600 0.503600 0.503600 0.503600 0.503600 0.503600 0.503600 -0.503600 -0.503600 -0.503600 -0.503600 -0.503600 0.503600 -0.503600 -0.503600 -0.503600 -0.503600 0.503600 0.503600 0.503600 0.503600 0.503600 0.503600 0.503600 0.503600 0.503600 0.503600 0.503600 -0.503600 -0.503600 0.503600 0.503600 -0.503600 -0.503600 0.503600 0.503600 -0.503600 -0.503600 -0.503600 0.503600 0.503600 -0.503600 -0.503600 0.503600 0.503600 -0.503600 -0.503600 0.503600 0.503600 -0.503600 -0.503600 -0.503600 0.503600 0.503600 -0.503600 -0.503600 0.503600 -0.503600 0.503600 0.503600 -0.503600 -0.503600 -0.503600 0.503600 0.503600 -0.503600 0.503600 0.503600 0.503600 -0.503600 -0.503600 0.503600 0.503600 0.503600 -0.503600 -0.503600 0.503600 0.503600 -0.503600 -0.503600 0.503600 0.503600 0.503600 0.503600 -0.503600 -0.503600 0.503600 0.503600 0.503600 -0.503600 0.503600 0.503600 0.503600 -0.503600 -0.503600 0.503600 -0.503600 -0.503600 -0.503600 0.503600 0.503600 -0.503600 -0.503600 -0.503600 0.503600 0.503600 0.503600 -0.503600 -0.503600 0.503600 -0.503600 -0.503600 -0.503600 -0.503600 -0.503600 -0.503600 -0.503600 -0.503600 -0.503600 0.503600 -0.503600 -0.503600 -0.503600 -0.503600 -0.503600 -0.503600 -0.503600 -0.503600 -0.503600 -0.503600 0.503600 0.503600 0.503600 0.503600 -0.503600 -0.503600 0.503600 0.503600 0.503600 -0.503600 -0.503600 0.503600 0.503600 -0.503600 -0.503600 0.503600 0.503600 0.503600 -0.503600 -0.503600 0.503600 0.503600 0.503600 -0.503600 -0.503600 0.503600 0.503600 0.503600 0.503600 -0.503600 -0.503600 0.503600 0.503600 -0.503600 -0.503600 0.503600 0.503600 0.503600 -0.503600 -0.503600 0.503600 0.503600 -0.503600 -0.503600 -0.503600 0.503600 -0.503600 -0.503600 -0.503600 -0.503600 0.503600 0.503600 
