-0.1367 0.1367 0.1367 0.1367 0.0000 0.1367 0.1367 0.1367 0.0000 0.0000 0.0000 0.0000 0.0000 0.1367 0.1367 0.0000 -0.1367 0.1367 -0.1367 0.1367 0.1367 -0.1367 0.0000 -0.1367 0.1367 0.0000 0.1367 -0.1367 0.0000 0.1367 0.0000 0.1367 0.1367 0.0000 -0.1367 0.1367 0.0000 0.0000 -0.1367 0.0000 0.1367 0.0000 0.0000 0.0000 0.0000 0.1367 -0.1367 0.1367 -0.1367 0.1367 -0.1367 0.1367 -0.1367 0.1367 0.1367 -0.1367 0.0000 0.0000 0.1367 -0.1367 0.1367 0.1367 0.1367 -0.1367 -0.1367 -0.1367 -0.1367 -0.1367 0.1367 0.0000 0.0000 0.1367 -0.1367 -0.1367 0.1367 0.0000 0.0000 0.1367 -0.1367 0.0000 0.1367 0.1367 -0.1367 0.1367 0.0000 0.1367 0.0000 -0.1367 -0.1367 0.0000 0.1367 0.0000 -0.1367 -0.1367 -0.1367 0.1367 0.1367 -0.1367 0.1367 0.0000 0.0000 0.1367 0.1367 0.0000 -0.1367 -0.1367 0.1367 -0.1367 0.1367 0.1367 0.0000 0.0000 0.1367 0.0000 -0.1367 0.1367 -0.1367 0.0000 0.1367 -0.1367 -0.1367 -0.1367 0.1367 0.1367 0.0000 0.0000 -0.1367 0.1367 0.1367 0.1367 0.1367 -0.1367 0.1367 0.1367 0.0000 0.0000 0.0000 0.1367 -0.1367 0.1367 -0.1367 0.1367 0.0000 0.1367 0.1367 0.1367 0.1367 0.1367 0.0000 -0.1367 -0.1367 0.1367 0.1367 0.0000 0.1367 0.1367 0.1367 0.1367 -0.1367 -0.1367 -0.1367 -0.1367 0.0000 -0.1367 0.0000 0.1367 0.0000 0.1367 0.0000 0.0000 0.1367 0.1367 -0.1367 0.1367 0.0000 -0.1367 -0.1367 -0.1367 0.0000 0.1367 -0.1367 -0.1367 -0.1367 -0.1367 -0.1367 0.0000 0.1367 0.0000 0.1367 0.1367 -0.1367 0.1367 -0.1367 -0.1367 0.1367 0.1367 0.1367 0.1367 0.1367 -0.1367 0.0000 0.1367 0.1367 0.1367 -0.1367 0.1367 0.1367 0.0000 0.1367 -0.1367 0.1367 -0.1367 0.1367 0.1367 0.1367 0.1367 0.0000 0.1367 -0.1367 0.0000 -0.1367 0.0000 0.1367 -0.1367 -0.1367 0.1367 0.1367 -0.1367 -0.1367 -0.1367 0.0000 -0.1367 0.1367 0.0000 -0.1367 0.1367 -0.1367 -0.1367 0.1367 0.0000 -0.1367 0.0000 0.0000 0.0000 0.0000 -0.1367 0.0000 0.1367 0.1367 -0.1367 0.0000 -0.1367 0.0000 0.0000 -0.1367 0.1367 -0.1367 0.0000 -0.1367 0.0000 -0.1367 0.0000 -0.1367 -0.1367 0.1367 0.0000 -0.1367 0.0000 0.0000 -0.1367 0.0000 -0.1367 0.0000 -0.1367 -0.1367 -0.1367 0.0000 0.0000 -0.1367 0.1367 0.1367 0.0000 -0.1367 -0.1367 0.1367 -0.1367 0.1367 0.0000 0.0000 0.1367 -0.1367 0.0000 0.0000 0.0000 0.1367 0.1367 0.0000 0.0000 -0.1367 -0.1367 -0.1367 -0.1367 -0.1367 0.1367 0.1367 -0.1367 0.0000 0.1367 0.0000 0.0000 -0.1367 0.1367 0.0000 0.1367 0.0000 -0.1367 -0.1367 0.1367 -0.1367 -0.1367 0.0000 0.1367 -0.1367 -0.1367 0.0000 0.1367 0.0000 0.0000 0.1367 0.1367 -0.1367 0.0000 -0.1367 0.0000 0.1367 -0.1367 -0.1367 0.0000 -0.1367 -0.1367 -0.1367 -0.1367 -0.1367 -0.1367 0.0000 -0.1367 0.0000 0.1367 0.1367 0.0000 0.0000 0.0000 0.0000 0.0000 0.0000 0.0000 0.1367 0.1367 -0.1367 0.1367 0.0000 0.1367 0.1367 -0.1367 -0.1367 -0.1367 0.1367 -0.1367 0.0000 -0.1367 -0.1367 0.1367 0.1367 0.1367 0.1367 0.1367 -0.1367 0.1367 0.1367 -0.1367 0.1367 0.0000 -0.1367 0.0000 -0.1367 0.0000 0.0000 0.1367 0.1367 0.1367 0.1367 0.1367 0.1367 0.0000 -0.1367 0.0000 0.1367 0.1367 -0.1367 -0.1367 0.0000 0.1367 -0.1367 0.0000 -0.1367 -0.1367 -0.1367 0.0000 -0.1367 -0.1367 -0.1367 0.1367 0.1367 0.1367 0.0000 0.0000 0.1367 0.1367 -0.1367 0.1367 0.0000 -0.1367 -0.1367 0.0000 0.0000 -0.1367 -0.1367 -0.1367 0.1367 0.0000 0.1367 0.1367 0.0000 0.0000 0.1367 0.1367 -0.1367 0.0000 -0.1367 0.0000 0.0000 0.0000 -0.1367 0.0000 0.0000 0.1367 -0.1367 0.1367 -0.1367 -0.1367 -0.1367 0.0000 0.0000 -0.1367 -0.1367 -0.1367 0.1367 0.1367 0.0000 0.1367 0.1367 0.1367 -0.1367 0.1367 -0.1367 -0.1367 -0.1367 0.1367 -0.1367 0.1367 -0.1367 0.0000 -0.1367 0.0000 0.1367 -0.1367 -0.1367 0.1367 -0.1367 0.0000 0.0000 -0.1367 -0.1367 0.1367 0.0000 0.1367 0.0000 0.0000 0.1367 -0.1367 -0.1367 -0.1367 0.0000 0.1367 -0.1367 -0.1367 -0.1367 0.0000 0.0000 0.1367 0.0000 0.0000 0.1367 -0.1367 0.0000 0.0000 0.0000 0.1367 -0.1367 0.0000 0.0000 -0.1367 0.0000 0.1367 -0.1367 0.1367 0.0000 -0.1367 -0.1367 -0.1367 -0.1367 0.0000 -0.1367 0.0000 0.1367 0.0000 0.0000 0.1367 -0.1367 0.0000 -0.1367 0.1367 0.0000 0.1367 0.1367 0.0000 0.0000 0.1367 -0.1367 -0.1367 0.0000 0.1367 -0.1367 -0.1367 0.0000 0.1367 0.1367 0.0000 -0.1367 -0.1367 0.1367 0.1367 0.1367 0.0000 -0.1367 -0.1367 -0.1367 0.1367 -0.1367 -0.1367 0.1367 -0.1367 0.1367 0.1367 0.0000 -0.1367 0.0000 0.0000 0.1367 0.0000 -0.1367 0.0000 -0.1367 -0.1367 0.0000 0.0000 0.0000 -0.1367 0.1367 -0.1367 -0.1367 0.1367 0.1367 0.0000 0.1367 0.0000 0.0000 0.0000 0.1367 0.0000 -0.1367 0.0000 0.1367 0.0000 0.1367 -0.1367 -0.1367 0.0000 0.0000 0.1367 0.1367 0.0000 -0.1367 0.0000 0.1367 0.1367 -0.1367 0.1367 -0.1367 -0.1367 0.1367 0.0000 -0.1367 0.0000 0.0000 -0.1367 -0.1367 -0.1367 -0.1367 -0.1367 -0.1367 0.0000 0.0000 -0.1367 -0.1367 -0.1367 0.1367 0.1367 0.0000 -0.1367 0.1367 0.1367 -0.1367 -0.1367 -0.1367 -0.1367 -0.1367 -0.1367 0.1367 -0.1367 -0.1367 0.1367 0.1367 -0.1367 -0.1367 -0.1367 0.0000 0.0000 0.1367 -0.1367 0.1367 -0.1367 0.1367 -0.1367 0.0000 -0.1367 0.1367 0.0000 0.0000 -0.1367 -0.1367 0.0000 0.0000 0.1367 0.0000 -0.1367 0.1367 0.1367 0.1367 -0.1367 0.0000 0.1367 0.0000 0.1367 -0.1367 0.1367 -0.1367 -0.1367 0.1367 0.1367 0.1367 -0.1367 0.0000 0.0000 0.1367 -0.1367 0.1367 0.1367 0.0000 -0.1367 0.1367 0.1367 0.0000 -0.1367 0.0000 -0.1367 0.1367 0.0000 0.0000 0.1367 0.0000 -0.1367 0.1367 0.1367 0.1367 -0.1367 0.1367 0.0000 -0.1367 -0.1367 -0.1367 -0.1367 -0.1367 0.0000 0.0000 -0.1367 0.0000 0.0000 -0.1367 -0.1367 -0.1367 0.0000 0.1367 0.0000 0.1367 0.1367 -0.1367 0.0000 -0.1367 0.0000 0.0000 -0.1367 -0.1367 -0.1367 -0.1367 0.0000 0.0000 -0.1367 0.0000 0.0000 0.1367 -0.1367 0.1367 0.0000 0.0000 -0.1367 0.0000 -0.1367 0.1367 0.0000 -0.1367 0.0000 0.1367 -0.1367 0.0000 -0.1367 0.1367 -0.1367 0.1367 0.0000 0.0000 0.1367 0.1367 -0.1367 -0.1367 0.1367 -0.1367 0.0000 0.1367 0.0000 0.0000 0.0000 0.1367 0.1367 0.1367 -0.1367 0.0000 0.1367 0.1367 0.0000 0.1367 0.1367 -0.1367 0.1367 0.0000 0.0000 -0.1367 0.0000 0.1367 -0.1367 0.0000 -0.1367 -0.1367 0.0000 0.1367 -0.1367 -0.1367 0.1367 -0.1367 0.0000 -0.1367 0.1367 0.0000 0.1367 -0.1367 -0.1367 0.1367 0.0000 -0.1367 0.0000 0.1367 0.1367 0.1367 -0.1367 0.1367 0.1367 -0.1367 0.0000 0.1367 0.1367 -0.1367 0.1367 -0.1367 0.1367 0.1367 0.1367 0.0000 -0.1367 0.1367 0.1367 0.1367 -0.1367 -0.1367 -0.1367 -0.1367 0.1367 -0.1367 -0.1367 -0.1367 -0.1367 0.1367 0.1367 -0.1367 0.1367 0.1367 0.0000 -0.1367 0.0000 0.0000 0.1367 -0.1367 0.0000 0.1367 0.0000 0.0000 -0.1367 0.0000 0.1367 0.1367 0.0000 0.1367 0.0000 0.1367 0.1367 0.1367 -0.1367 0.1367 0.0000 0.1367 0.1367 -0.1367 0.0000 0.0000 0.0000 0.0000 0.1367 -0.1367 0.1367 0.1367 0.1367 -0.1367 0.1367 0.1367 0.1367 0.1367 -0.1367 0.1367 0.0000 -0.1367 0.1367 0.0000 0.1367 0.0000 0.0000 0.1367 -0.1367 -0.1367 0.1367 0.0000 0.0000 -0.1367 0.0000 0.1367 -0.1367 0.1367 0.1367 0.1367 -0.1367 0.1367 0.0000 0.1367 0.0000 0.1367 0.0000 0.0000 0.0000 -0.1367 -0.1367 0.0000 -0.1367 0.0000 -0.1367 0.1367 0.0000 0.1367 0.0000 0.0000 0.1367 0.0000 0.1367 -0.1367 0.0000 -0.1367 0.0000 -0.1367 -0.1367 0.0000 0.1367 0.1367 0.1367 -0.1367 0.1367 -0.1367 0.1367 0.1367 0.1367 0.1367 -0.1367 0.0000 -0.1367 0.1367 -0.1367 0.1367 0.1367 0.1367 -0.1367 0.0000 0.1367 0.0000 0.0000 0.0000 0.0000 -0.1367 0.1367 0.1367 0.0000 0.0000 0.1367 -0.1367 0.0000 -0.1367 0.0000 -0.1367 0.1367 0.1367 0.0000 -0.1367 0.1367 -0.1367 -0.1367 0.0000 0.0000 0.1367 -0.1367 0.1367 0.1367 0.1367 -0.1367 0.1367 -0.1367 0.0000 0.0000 0.0000 0.0000 0.0000 -0.1367 0.0000 0.1367 -0.1367 -0.1367 -0.1367 0.0000 0.1367 0.0000 -0.1367 0.0000 0.1367 -0.1367 0.1367 0.1367 0.0000 0.0000 0.1367 0.1367 0.1367 0.1367 0.1367 0.1367 -0.1367 -0.1367 -0.1367 -0.1367 0.1367 -0.1367 0.1367 0.1367 0.1367 0.0000 0.1367 0.0000 -0.1367 -0.1367 0.1367 -0.1367 -0.1367 -0.1367 -0.1367 0.0000 0.1367 -0.1367 0.0000 -0.1367 0.0000 0.1367 0.1367 -0.1367 -0.1367 0.0000 0.1367 0.1367 0.0000 -0.1367 0.0000 0.1367 0.0000 -0.1367 -0.1367 0.1367 -0.1367 -0.1367 -0.1367 0.0000 -0.1367 0.0000 -0.1367 0.0000 -0.1367 0.1367 -0.1367 0.0000 0.1367 0.1367 -0.1367 -0.1367 0.1367 0.0000 0.0000 0.1367 0.1367 0.0000 0.1367 -0.1367 -0.1367 0.1367 -0.1367 0.0000 -0.1367 0.0000 -0.1367 0.1367 0.1367 -0.1367 0.0000 0.1367 0.1367 0.1367 0.1367 -0.1367 -0.1367 -0.1367 -0.1367 -0.1367 0.1367 0.0000 0.1367 0.0000 0.1367 0.1367 0.1367 -0.1367 0.0000 0.0000 -0.1367 0.1367 0.1367 0.1367 0.0000 0.0000 0.0000 -0.1367 0.1367 0.0000 -0.1367 0.0000 -0.1367 0.0000 0.0000 0.0000 0.1367 -0.1367 -0.1367 0.0000 -0.1367 -0.1367 -0.1367 0.0000 0.1367 -0.1367 -0.1367 -0.1367 -0.1367 0.1367 -0.1367 0.1367 -0.1367 -0.1367 0.0000 0.0000 -0.1367 -0.1367 -0.1367 -0.1367 -0.1367 0.0000 0.0000 0.0000 0.1367 0.1367 0.0000 -0.1367 -0.1367 -0.1367 -0.1367 -0.1367 -0.1367 -0.1367 0.1367 0.1367 -0.1367 -0.1367 0.1367 0.1367 -0.1367 0.0000 -0.1367 -0.1367 -0.1367 -0.1367 0.1367 0.1367 0.1367 -0.1367 0.0000 -0.1367 0.0000 -0.1367 -0.1367 0.1367 0.0000 0.1367 0.1367 0.1367 -0.1367 0.1367 0.0000 0.1367 0.1367 0.0000 0.0000 0.0000 0.1367 0.1367 0.0000 0.1367 0.1367 0.1367 -0.1367 0.1367 0.0000 0.1367 0.1367 -0.1367 0.0000 -0.1367 0.0000 0.1367 -0.1367 -0.1367 -0.1367 0.0000 0.1367 0.1367 0.1367 0.0000 0.1367 0.0000 0.1367 -0.1367 0.1367 0.0000 0.0000 -0.1367 0.0000 -0.1367 0.0000 0.0000 0.0000 -0.1367 0.0000 0.0000 0.0000 -0.1367 0.0000 -0.1367 -0.1367 0.1367 0.1367 0.1367 0.1367 0.1367 0.0000 0.0000 -0.1367 0.0000 -0.1367 0.1367 -0.1367 -0.1367 0.1367 0.0000 0.1367 0.1367 -0.1367 0.0000 0.0000 0.0000 0.0000 0.1367 0.0000 0.1367 -0.1367 0.1367 0.0000 -0.1367 0.0000 0.1367 -0.1367 0.0000 0.0000 0.1367 0.1367 0.0000 0.1367 -0.1367 -0.1367 0.1367 0.1367 -0.1367 0.0000 0.1367 0.0000 0.1367 0.1367 0.1367 0.1367 0.1367 -0.1367 -0.1367 0.1367 0.1367 0.0000 0.1367 -0.1367 -0.1367 0.1367 -0.1367 0.0000 0.0000 0.1367 -0.1367 0.1367 -0.1367 0.1367 -0.1367 0.1367 -0.1367 -0.1367 -0.1367 -0.1367 -0.1367 -0.1367 -0.1367 0.1367 0.1367 0.1367 0.1367 0.1367 -0.1367 0.0000 0.1367 0.1367 0.1367 0.0000 -0.1367 0.1367 -0.1367 0.0000 0.0000 0.0000 0.1367 0.0000 0.1367 0.1367 0.1367 0.1367 0.1367 -0.1367 0.1367 -0.1367 -0.1367 -0.1367 0.1367 -0.1367 0.1367 0.0000 0.1367 0.1367 0.1367 0.1367 0.1367 0.1367 -0.1367 -0.1367 -0.1367 0.1367 0.1367 0.1367 -0.1367 -0.1367 0.1367 -0.1367 -0.1367 0.1367 -0.1367 0.1367 -0.1367 -0.1367 -0.1367 0.0000 0.0000 0.0000 0.0000 0.0000 -0.1367 0.0000 0.1367 0.1367 0.1367 0.1367 0.0000 -0.1367 0.0000 0.1367 -0.1367 -0.1367 0.0000 0.0000 -0.1367 0.0000 -0.1367 -0.1367 0.0000 0.0000 0.0000 -0.1367 0.1367 0.1367 0.0000 0.0000 0.1367 -0.1367 -0.1367 0.1367 -0.1367 0.1367 0.1367 0.1367 0.0000 0.1367 -0.1367 -0.1367 -0.1367 0.0000 0.1367 0.0000 -0.1367 0.0000 -0.1367 0.0000 0.0000 0.0000 0.0000 0.1367 0.1367 0.1367 0.1367 0.0000 0.1367 -0.1367 0.1367 -0.1367 -0.1367 0.0000 0.1367 0.0000 -0.1367 0.1367 -0.1367 0.0000 0.0000 0.0000 -0.1367 0.1367 0.1367 0.1367 0.1367 -0.1367 0.1367 -0.1367 -0.1367 -0.1367 -0.1367 0.0000 -0.1367 -0.1367 0.1367 -0.1367 0.1367 0.1367 -0.1367 0.0000 -0.1367 -0.1367 -0.1367 0.0000 -0.1367 0.0000 0.1367 -0.1367 0.0000 0.0000 0.0000 -0.1367 0.0000 0.1367 -0.1367 0.0000 -0.1367 0.0000 -0.1367 0.1367 0.1367 0.1367 0.0000 0.1367 0.1367 0.1367 0.0000 -0.1367 0.1367 -0.1367 0.1367 0.1367 -0.1367 0.0000 -0.1367 -0.1367 0.1367 0.0000 0.1367 -0.1367 -0.1367 0.0000 0.0000 0.0000 -0.1367 0.1367 -0.1367 -0.1367 -0.1367 0.1367 0.1367 0.1367 -0.1367 -0.1367 -0.1367 -0.1367 0.0000 -0.1367 0.1367 -0.1367 0.0000 0.1367 0.0000 0.0000 -0.1367 0.1367 0.0000 -0.1367 0.0000 0.0000 0.0000 -0.1367 -0.1367 0.0000 0.0000 -0.1367 -0.1367 0.0000 -0.1367 0.0000 -0.1367 0.1367 -0.1367 0.1367 0.1367 0.1367 0.0000 0.1367 -0.1367 0.0000 0.0000 0.0000 -0.1367 0.1367 -0.1367 0.0000 -0.1367 0.0000 0.1367 0.0000 0.1367 0.0000 -0.1367 -0.1367 0.0000 0.1367 -0.1367 -0.1367 -0.1367 0.0000 -0.1367 0.0000 0.1367 0.0000 -0.1367 0.0000 0.1367 -0.1367 0.0000 -0.1367 0.1367 0.1367 0.1367 -0.1367 -0.1367 0.1367 0.0000 0.1367 -0.1367 0.1367 0.0000 -0.1367 -0.1367 -0.1367 0.0000 -0.1367 0.1367 -0.1367 -0.1367 0.0000 -0.1367 0.0000 -0.1367 0.0000 0.1367 0.1367 0.0000 0.0000 -0.1367 0.0000 -0.1367 0.0000 -0.1367 0.1367 0.1367 -0.1367 0.0000 -0.1367 0.0000 0.0000 -0.1367 -0.1367 0.0000 0.1367 0.1367 -0.1367 -0.1367 0.0000 -0.1367 0.0000 0.0000 0.1367 -0.1367 0.0000 0.0000 -0.1367 -0.1367 -0.1367 0.0000 0.0000 -0.1367 -0.1367 0.1367 0.1367 -0.1367 0.0000 0.0000 0.1367 -0.1367 0.0000 0.1367 0.0000 0.0000 -0.1367 -0.1367 0.1367 -0.1367 0.0000 0.0000 0.0000 0.1367 0.1367 0.1367 0.1367 -0.1367 0.0000 0.1367 -0.1367 0.0000 0.1367 0.0000 0.0000 -0.1367 0.0000 -0.1367 0.0000 -0.1367 0.1367 0.1367 -0.1367 0.1367 0.1367 -0.1367 0.1367 0.1367 0.0000 -0.1367 -0.1367 0.0000 0.1367 0.1367 0.0000 -0.1367 0.1367 0.1367 -0.1367 0.1367 0.0000 -0.1367 -0.1367 0.1367 -0.1367 -0.1367 0.1367 -0.1367 -0.1367 0.0000 0.1367 -0.1367 0.0000 0.0000 0.0000 0.1367 -0.1367 0.0000 0.1367 0.0000 -0.1367 0.0000 -0.1367 0.1367 0.0000 0.1367 0.1367 0.1367 -0.1367 0.0000 0.1367 0.0000 -0.1367 0.1367 -0.1367 -0.1367 -0.1367 0.1367 0.1367 -0.1367 -0.1367 -0.1367 0.0000 0.1367 -0.1367 0.0000 -0.1367 -0.1367 0.0000 -0.1367 0.1367 -0.1367 0.0000 0.0000 0.0000 -0.1367 -0.1367 -0.1367 -0.1367 0.0000 0.0000 0.1367 -0.1367 0.0000 0.0000 0.1367 0.1367 -0.1367 0.0000 -0.1367 0.1367 0.0000 -0.1367 -0.1367 0.1367 0.0000 0.1367 0.0000 -0.1367 0.1367 0.0000 0.1367 0.1367 -0.1367 0.1367 -0.1367 -0.1367 -0.1367 0.0000 0.1367 -0.1367 -0.1367 -0.1367 0.1367 -0.1367 0.1367 0.0000 0.1367 -0.1367 0.0000 -0.1367 -0.1367 -0.1367 0.1367 0.0000 -0.1367 -0.1367 -0.1367 -0.1367 0.0000 0.0000 0.0000 0.1367 -0.1367 -0.1367 -0.1367 -0.1367 0.0000 0.0000 0.0000 -0.1367 -0.1367 -0.1367 -0.1367 -0.1367 -0.1367 -0.1367 0.1367 -0.1367 0.0000 -0.1367 0.0000 -0.1367 0.1367 -0.1367 0.1367 0.0000 -0.1367 -0.1367 0.0000 0.1367 -0.1367 0.0000 0.1367 0.1367 0.0000 0.1367 0.0000 0.1367 0.1367 0.1367 0.0000 0.1367 -0.1367 0.0000 0.1367 0.1367 0.0000 -0.1367 0.0000 0.1367 -0.1367 0.1367 0.0000 -0.1367 0.1367 0.1367 0.1367 0.0000 -0.1367 0.0000 0.1367 0.0000 0.1367 0.0000 0.1367 -0.1367 0.0000 -0.1367 -0.1367 0.0000 0.0000 0.0000 0.1367 0.0000 -0.1367 0.0000 -0.1367 -0.1367 -0.1367 -0.1367 0.0000 0.0000 -0.1367 -0.1367 0.1367 -0.1367 -0.1367 0.0000 0.1367 0.0000 -0.1367 0.0000 0.1367 -0.1367 -0.1367 0.0000 0.1367 0.1367 0.1367 -0.1367 -0.1367 0.0000 -0.1367 -0.1367 0.0000 0.1367 -0.1367 0.1367 0.0000 -0.1367 0.1367 0.1367 0.1367 -0.1367 -0.1367 0.1367 0.0000 0.1367 0.1367 0.0000 0.0000 0.0000 0.0000 0.0000 0.0000 -0.1367 0.0000 -0.1367 0.0000 0.0000 0.1367 0.0000 0.1367 -0.1367 -0.1367 0.1367 0.1367 -0.1367 0.0000 0.1367 0.1367 0.1367 0.1367 0.0000 0.1367 0.0000 0.1367 -0.1367 -0.1367 0.0000 0.1367 -0.1367 0.1367 -0.1367 0.0000 0.0000 0.1367 0.1367 0.1367 -0.1367 -0.1367 0.0000 0.0000 -0.1367 0.0000 0.1367 -0.1367 -0.1367 0.1367 0.0000 -0.1367 0.1367 0.1367 0.0000 0.1367 -0.1367 -0.1367 0.1367 0.1367 -0.1367 0.1367 0.1367 0.0000 -0.1367 -0.1367 -0.1367 0.1367 0.1367 0.1367 0.0000 -0.1367 0.0000 -0.1367 0.1367 0.1367 -0.1367 -0.1367 0.0000 0.0000 -0.1367 -0.1367 0.1367 0.1367 0.0000 0.1367 0.0000 -0.1367 -0.1367 0.0000 0.0000 -0.1367 0.0000 0.1367 0.1367 0.0000 0.1367 -0.1367 -0.1367 0.1367 -0.1367 0.1367 -0.1367 -0.1367 0.1367 0.0000 -0.1367 0.1367 0.1367 0.0000 0.1367 0.0000 0.1367 0.0000 0.0000 0.1367 -0.1367 0.1367 -0.1367 0.1367 0.0000 -0.1367 -0.1367 0.0000 0.0000 -0.1367 0.1367 0.1367 0.1367 0.1367 0.1367 0.0000 -0.1367 0.1367 0.0000 0.0000 0.0000 -0.1367 0.1367 -0.1367 -0.1367 -0.1367 -0.1367 0.0000 0.0000 -0.1367 0.1367 0.1367 0.0000 0.0000 -0.1367 0.0000 0.1367 -0.1367 0.0000 0.0000 -0.1367 0.1367 -0.1367 0.0000 -0.1367 0.1367 0.1367 0.0000 -0.1367 0.0000 0.1367 -0.1367 0.0000 0.1367 -0.1367 0.1367 0.1367 0.1367 0.1367 0.1367 0.1367 0.1367 0.1367 0.0000 0.1367 0.1367 0.0000 0.0000 0.1367 -0.1367 -0.1367 0.0000 0.0000 0.0000 -0.1367 -0.1367 -0.1367 0.1367 0.1367 0.1367 -0.1367 -0.1367 -0.1367 -0.1367 -0.1367 -0.1367 0.1367 -0.1367 0.0000 -0.1367 0.0000 0.0000 0.0000 0.0000 0.1367 0.1367 0.1367 0.1367 -0.1367 0.1367 -0.1367 0.1367 -0.1367 -0.1367 -0.1367 -0.1367 -0.1367 0.1367 0.1367 0.0000 0.1367 0.1367 0.1367 0.0000 0.1367 -0.1367 -0.1367 0.1367 0.0000 0.0000 -0.1367 0.1367 0.1367 -0.1367 -0.1367 -0.1367 0.1367 -0.1367 0.0000 -0.1367 0.0000 -0.1367 0.0000 0.1367 -0.1367 -0.1367 0.0000 0.0000 0.1367 0.1367 0.0000 0.1367 -0.1367 -0.1367 0.1367 0.0000 0.1367 -0.1367 -0.1367 0.0000 -0.1367 0.1367 0.1367 -0.1367 0.0000 -0.1367 0.0000 0.1367 -0.1367 -0.1367 0.1367 0.0000 -0.1367 0.1367 -0.1367 0.1367 0.0000 0.0000 -0.1367 -0.1367 -0.1367 -0.1367 0.0000 0.0000 0.1367 0.0000 0.1367 0.0000 0.0000 0.0000 0.0000 -0.1367 0.0000 -0.1367 -0.1367 0.1367 -0.1367 0.1367 0.0000 0.0000 -0.1367 0.0000 -0.1367 0.1367 0.1367 0.0000 0.1367 0.0000 0.0000 -0.1367 0.1367 -0.1367 -0.1367 -0.1367 0.1367 -0.1367 0.1367 0.1367 0.1367 0.0000 0.1367 0.0000 0.1367 0.1367 -0.1367 -0.1367 0.0000 0.1367 0.0000 -0.1367 0.1367 -0.1367 -0.1367 0.0000 0.1367 -0.1367 0.0000 0.1367 0.0000 0.1367 0.1367 0.0000 0.1367 0.1367 0.1367 -0.1367 -0.1367 -0.1367 0.0000 -0.1367 0.1367 -0.1367 0.0000 0.1367 -0.1367 0.0000 0.0000 -0.1367 0.0000 -0.1367 0.1367 0.0000 -0.1367 -0.1367 -0.1367 -0.1367 0.1367 0.1367 0.1367 0.1367 0.1367 -0.1367 0.0000 -0.1367 -0.1367 0.1367 0.1367 -0.1367 0.1367 0.1367 0.0000 0.0000 0.1367 0.1367 0.1367 0.0000 0.0000 0.0000 -0.1367 -0.1367 0.0000 0.1367 0.0000 -0.1367 -0.1367 0.1367 -0.1367 0.1367 0.1367 0.1367 -0.1367 0.0000 0.1367 0.0000 0.1367 -0.1367 0.0000 0.1367 0.1367 0.0000 -0.1367 0.0000 0.1367 0.1367 -0.1367 0.0000 0.1367 0.1367 0.0000 0.1367 0.0000 0.1367 -0.1367 0.1367 0.0000 0.1367 0.0000 -0.1367 0.0000 0.0000 0.1367 -0.1367 0.1367 0.1367 0.0000 0.1367 -0.1367 -0.1367 -0.1367 -0.1367 -0.1367 0.1367 0.0000 -0.1367 0.1367 0.0000 0.0000 0.0000 0.0000 0.1367 0.1367 0.1367 -0.1367 -0.1367 0.1367 0.0000 -0.1367 0.1367 -0.1367 0.0000 0.1367 0.0000 0.1367 0.0000 0.0000 0.0000 0.1367 -0.1367 0.0000 0.1367 0.0000 0.0000 0.1367 -0.1367 -0.1367 0.1367 0.1367 0.1367 0.1367 0.1367 0.1367 0.1367 0.0000 -0.1367 0.1367 0.1367 0.0000 -0.1367 -0.1367 0.1367 0.1367 0.1367 -0.1367 -0.1367 0.0000 -0.1367 0.1367 0.1367 0.1367 -0.1367 0.0000 0.1367 -0.1367 0.1367 -0.1367 0.1367 0.1367 0.1367 0.1367 0.1367 0.0000 -0.1367 -0.1367 -0.1367 0.1367 -0.1367 0.1367 0.0000 -0.1367 -0.1367 -0.1367 -0.1367 0.1367 0.1367 0.0000 0.0000 -0.1367 0.1367 0.1367 -0.1367 0.0000 0.0000 0.0000 0.1367 0.1367 -0.1367 0.1367 0.0000 0.0000 0.0000 0.1367 0.1367 -0.1367 -0.1367 0.1367 0.0000 -0.1367 0.1367 0.0000 0.0000 0.1367 0.1367 0.0000 0.0000 0.0000 0.1367 0.0000 0.1367 0.0000 0.1367 -0.1367 0.0000 0.0000 0.0000 0.1367 0.1367 -0.1367 0.0000 0.1367 0.1367 0.0000 0.1367 -0.1367 -0.1367 0.1367 0.0000 0.1367 -0.1367 0.1367 -0.1367 0.0000 0.0000 0.0000 -0.1367 0.1367 -0.1367 0.1367 -0.1367 0.0000 0.0000 0.1367 0.0000 0.1367 -0.1367 0.1367 0.0000 -0.1367 0.1367 0.0000 -0.1367 -0.1367 0.1367 0.1367 -0.1367 -0.1367 -0.1367 -0.1367 0.0000 0.1367 0.0000 0.0000 -0.1367 0.1367 0.0000 -0.1367 0.1367 -0.1367 0.0000 -0.1367 -0.1367 0.0000 0.1367 -0.1367 0.0000 -0.1367 0.0000 0.0000 0.1367 -0.1367 0.0000 0.0000 0.0000 0.1367 0.0000 0.1367 0.1367 0.0000 0.0000 -0.1367 0.1367 -0.1367 0.0000 0.0000 -0.1367 0.1367 0.1367 0.0000 0.1367 0.1367 -0.1367 -0.1367 0.1367 0.1367 0.1367 -0.1367 -0.1367 0.1367 0.1367 0.1367 -0.1367 -0.1367 0.1367 0.0000 0.0000 0.0000 0.0000 0.0000 -0.1367 -0.1367 -0.1367 0.0000 0.0000 0.1367 0.1367 0.1367 -0.1367 -0.1367 0.1367 0.1367 -0.1367 -0.1367 0.0000 0.0000 0.1367 -0.1367 -0.1367 -0.1367 0.0000 0.0000 -0.1367 0.1367 -0.1367 0.1367 0.0000 -0.1367 0.0000 -0.1367 -0.1367 0.1367 0.0000 0.0000 0.0000 0.0000 0.0000 -0.1367 0.0000 -0.1367 0.0000 -0.1367 0.1367 0.0000 0.0000 0.0000 0.0000 0.0000 0.0000 -0.1367 -0.1367 -0.1367 -0.1367 -0.1367 0.1367 -0.1367 0.1367 -0.1367 0.1367 0.1367 0.0000 0.0000 0.1367 -0.1367 -0.1367 -0.1367 0.1367 -0.1367 0.1367 0.1367 -0.1367 -0.1367 -0.1367 0.1367 -0.1367 -0.1367 0.1367 -0.1367 0.1367 0.1367 0.0000 0.0000 0.1367 -0.1367 -0.1367 -0.1367 -0.1367 -0.1367 -0.1367 -0.1367 0.0000 0.1367 0.1367 0.1367 0.0000 0.0000 0.1367 -0.1367 0.1367 -0.1367 0.0000 0.0000 0.1367 0.0000 0.1367 -0.1367 0.1367 0.1367 -0.1367 0.1367 0.0000 0.1367 -0.1367 -0.1367 -0.1367 0.1367 0.0000 0.0000 0.1367 0.1367 -0.1367 0.1367 0.1367 0.1367 0.1367 -0.1367 0.0000 0.1367 0.0000 -0.1367 -0.1367 0.0000 -0.1367 0.1367 0.1367 0.1367 0.0000 0.1367 0.1367 0.0000 -0.1367 0.0000 -0.1367 0.0000 0.0000 -0.1367 -0.1367 0.0000 0.1367 0.0000 0.1367 0.1367 0.1367 -0.1367 -0.1367 0.1367 0.1367 0.0000 0.1367 0.1367 0.0000 0.0000 0.1367 0.1367 0.1367 -0.1367 0.1367 0.0000 -0.1367 0.0000 0.0000 -0.1367 0.1367 -0.1367 -0.1367 -0.1367 0.0000 -0.1367 0.1367 -0.1367 0.1367 0.1367 0.1367 -0.1367 0.0000 -0.1367 0.0000 0.0000 -0.1367 -0.1367 -0.1367 0.1367 -0.1367 0.1367 -0.1367 0.1367 0.0000 -0.1367 -0.1367 0.0000 0.0000 0.0000 -0.1367 0.1367 0.1367 0.0000 -0.1367 -0.1367 0.0000 0.0000 -0.1367 0.0000 0.1367 0.1367 0.0000 0.0000 0.0000 0.1367 0.1367 -0.1367 0.1367 -0.1367 -0.1367 -0.1367 0.1367 -0.1367 -0.1367 -0.1367 -0.1367 0.0000 0.0000 0.0000 0.0000 0.0000 0.0000 -0.1367 0.1367 -0.1367 -0.1367 -0.1367 0.0000 -0.1367 -0.1367 -0.1367 -0.1367 -0.1367 0.1367 -0.1367 0.0000 0.0000 0.1367 -0.1367 -0.1367 -0.1367 0.0000 -0.1367 -0.1367 0.0000 -0.1367 0.0000 0.1367 0.0000 0.0000 -0.1367 -0.1367 -0.1367 0.1367 -0.1367 -0.1367 0.0000 0.0000 -0.1367 0.1367 0.1367 -0.1367 -0.1367 0.1367 0.1367 0.1367 0.1367 -0.1367 0.0000 -0.1367 -0.1367 0.0000 0.1367 -0.1367 -0.1367 0.1367 0.1367 0.0000 0.1367 0.1367 -0.1367 0.1367 0.0000 0.0000 0.1367 0.1367 -0.1367 0.1367 0.0000 0.1367 -0.1367 0.1367 -0.1367 0.0000 0.1367 -0.1367 0.0000 0.1367 -0.1367 0.0000 -0.1367 0.0000 -0.1367 0.0000 -0.1367 0.0000 0.0000 0.0000 -0.1367 -0.1367 0.1367 -0.1367 0.0000 0.1367 0.1367 0.1367 -0.1367 -0.1367 0.0000 0.0000 0.0000 0.1367 0.0000 -0.1367 -0.1367 -0.1367 0.0000 0.0000 -0.1367 0.1367 0.1367 0.0000 0.0000 -0.1367 0.1367 0.1367 0.1367 -0.1367 -0.1367 0.1367 0.1367 -0.1367 0.1367 0.1367 0.0000 0.0000 0.0000 0.1367 0.0000 0.1367 -0.1367 -0.1367 -0.1367 0.0000 0.0000 0.0000 -0.1367 0.0000 -0.1367 -0.1367 0.0000 0.1367 0.0000 -0.1367 0.0000 -0.1367 -0.1367 0.1367 0.0000 -0.1367 0.0000 0.0000 -0.1367 0.1367 -0.1367 -0.1367 0.0000 0.1367 -0.1367 0.0000 0.1367 0.1367 -0.1367 0.0000 0.0000 -0.1367 0.0000 0.0000 -0.1367 0.0000 0.0000 -0.1367 -0.1367 0.1367 0.0000 0.1367 0.0000 -0.1367 -0.1367 0.1367 0.1367 0.1367 -0.1367 0.0000 0.0000 -0.1367 -0.1367 -0.1367 0.0000 0.1367 0.1367 0.1367 0.1367 0.1367 0.0000 0.1367 0.1367 0.1367 -0.1367 0.0000 0.1367 0.1367 -0.1367 -0.1367 0.1367 0.1367 -0.1367 0.0000 -0.1367 0.0000 -0.1367 -0.1367 0.1367 0.0000 0.0000 0.1367 0.0000 -0.1367 0.0000 -0.1367 -0.1367 0.0000 -0.1367 0.1367 -0.1367 -0.1367 0.0000 -0.1367 0.1367 0.1367 0.0000 0.1367 -0.1367 0.1367 -0.1367 -0.1367 -0.1367 0.1367 0.0000 -0.1367 0.1367 0.1367 0.1367 -0.1367 0.1367 0.1367 -0.1367 0.0000 0.0000 0.1367 -0.1367 -0.1367 0.0000 0.1367 0.1367 0.0000 0.0000 -0.1367 0.0000 0.1367 0.1367 -0.1367 0.0000 -0.1367 0.0000 0.1367 -0.1367 0.0000 -0.1367 0.1367 0.0000 -0.1367 -0.1367 0.1367 0.1367 0.1367 0.1367 -0.1367 -0.1367 -0.1367 -0.1367 -0.1367 -0.1367 -0.1367 0.1367 0.1367 -0.1367 0.0000 0.0000 0.1367 0.1367 0.1367 -0.1367 0.1367 0.0000 -0.1367 0.0000 -0.1367 0.0000 -0.1367 -0.1367 0.0000 -0.1367 0.1367 0.1367 0.1367 -0.1367 0.1367 0.0000 0.1367 -0.1367 0.0000 0.0000 -0.1367 0.1367 0.0000 0.1367 0.1367 0.0000 -0.1367 0.0000 -0.1367 -0.1367 -0.1367 0.1367 0.1367 0.0000 -0.1367 0.1367 0.1367 0.1367 -0.1367 -0.1367 0.1367 0.0000 -0.1367 0.1367 0.0000 0.1367 0.1367 0.1367 0.1367 0.1367 -0.1367 0.1367 0.1367 0.1367 -0.1367 0.0000 0.0000 0.1367 0.0000 0.0000 -0.1367 -0.1367 -0.1367 0.1367 0.0000 -0.1367 0.1367 0.1367 -0.1367 0.0000 -0.1367 0.1367 -0.1367 0.0000 0.0000 0.0000 0.0000 0.0000 -0.1367 0.0000 0.1367 0.0000 0.0000 0.1367 0.1367 -0.1367 -0.1367 0.1367 0.0000 0.1367 0.0000 0.0000 -0.1367 -0.1367 -0.1367 0.0000 0.0000 0.0000 -0.1367 -0.1367 -0.1367 0.0000 -0.1367 -0.1367 0.1367 0.0000 -0.1367 -0.1367 -0.1367 0.1367 -0.1367 0.0000 0.1367 0.1367 -0.1367 -0.1367 0.0000 -0.1367 -0.1367 0.0000 -0.1367 0.1367 -0.1367 0.0000 0.0000 0.1367 0.0000 0.0000 0.0000 0.1367 0.0000 -0.1367 0.0000 0.1367 0.0000 -0.1367 0.0000 -0.1367 -0.1367 0.1367 -0.1367 -0.1367 -0.1367 0.1367 0.0000 0.1367 0.0000 0.0000 -0.1367 0.0000 0.0000 0.1367 0.0000 -0.1367 0.1367 0.0000 -0.1367 0.1367 0.1367 0.0000 0.0000 -0.1367 -0.1367 0.0000 0.1367 -0.1367 -0.1367 0.0000 0.1367 -0.1367 0.1367 -0.1367 -0.1367 0.1367 0.1367 0.0000 0.0000 0.1367 -0.1367 0.1367 0.1367 -0.1367 0.0000 -0.1367 -0.1367 0.1367 0.1367 0.0000 0.0000 0.1367 -0.1367 0.1367 0.0000 -0.1367 0.1367 0.0000 0.1367 -0.1367 0.0000 -0.1367 0.0000 -0.1367 0.1367 0.0000 0.1367 0.1367 -0.1367 0.0000 -0.1367 -0.1367 0.1367 -0.1367 0.1367 -0.1367 0.0000 -0.1367 -0.1367 -0.1367 0.1367 -0.1367 0.1367 0.0000 0.0000 -0.1367 0.1367 -0.1367 -0.1367 0.0000 -0.1367 -0.1367 -0.1367 -0.1367 0.0000 -0.1367 0.0000 0.0000 0.1367 0.0000 0.1367 0.0000 0.0000 0.1367 0.0000 0.1367 0.1367 -0.1367 0.1367 0.0000 0.0000 0.1367 0.1367 0.1367 0.1367 0.1367 0.1367 -0.1367 -0.1367 -0.1367 0.1367 0.1367 -0.1367 0.1367 0.1367 -0.1367 -0.1367 0.0000 0.0000 0.1367 -0.1367 0.1367 -0.1367 0.1367 0.0000 -0.1367 -0.1367 -0.1367 -0.1367 -0.1367 0.1367 -0.1367 0.1367 0.1367 0.1367 -0.1367 0.0000 0.1367 0.1367 0.0000 -0.1367 0.0000 0.1367 -0.1367 -0.1367 -0.1367 -0.1367 -0.1367 0.1367 0.0000 0.0000 -0.1367 0.0000 -0.1367 0.0000 -0.1367 -0.1367 -0.1367 0.1367 0.0000 0.0000 0.1367 -0.1367 0.0000 0.0000 0.1367 0.1367 0.1367 0.1367 0.1367 0.1367 0.0000 0.1367 0.1367 0.0000 0.0000 -0.1367 0.1367 -0.1367 0.1367 0.1367 0.1367 0.1367 0.1367 -0.1367 -0.1367 0.1367 0.1367 -0.1367 0.1367 0.1367 -0.1367 -0.1367 0.1367 0.1367 0.0000 0.1367 -0.1367 0.1367 0.1367 0.1367 -0.1367 0.1367 0.1367 -0.1367 -0.1367 -0.1367 0.1367 0.0000 -0.1367 0.1367 0.0000 0.1367 0.0000 0.1367 -0.1367 0.0000 -0.1367 0.0000 0.0000 0.1367 0.0000 0.0000 -0.1367 -0.1367 -0.1367 -0.1367 -0.1367 0.1367 -0.1367 0.1367 -0.1367 0.1367 0.0000 0.0000 0.0000 0.0000 -0.1367 -0.1367 0.1367 -0.1367 -0.1367 0.0000 0.0000 0.1367 0.1367 0.1367 0.1367 0.1367 0.0000 -0.1367 -0.1367 -0.1367 -0.1367 0.1367 0.0000 -0.1367 -0.1367 -0.1367 -0.1367 0.1367 -0.1367 0.1367 0.1367 0.0000 -0.1367 0.0000 -0.1367 0.0000 0.1367 0.1367 -0.1367 -0.1367 -0.1367 0.1367 -0.1367 0.1367 -0.1367 0.0000 0.1367 0.0000 -0.1367 0.1367 -0.1367 0.1367 0.0000 -0.1367 -0.1367 -0.1367 -0.1367 0.0000 -0.1367 0.1367 0.0000 0.0000 0.1367 -0.1367 0.0000 0.1367 -0.1367 0.1367 -0.1367 -0.1367 0.0000 0.1367 0.0000 0.0000 0.1367 0.0000 0.0000 0.1367 0.0000 0.1367 0.1367 0.1367 0.1367 0.1367 -0.1367 0.1367 -0.1367 0.1367 0.1367 0.1367 -0.1367 0.1367 0.0000 0.1367 0.1367 0.0000 0.0000 0.1367 -0.1367 0.0000 0.0000 0.0000 0.0000 0.0000 0.0000 0.1367 0.1367 0.0000 -0.1367 -0.1367 0.1367 0.1367 0.1367 0.1367 -0.1367 -0.1367 -0.1367 0.1367 0.1367 -0.1367 -0.1367 0.0000 0.0000 0.1367 -0.1367 0.1367 0.1367 0.1367 0.0000 0.0000 -0.1367 -0.1367 -0.1367 0.0000 0.0000 -0.1367 -0.1367 0.0000 0.1367 0.0000 -0.1367 0.1367 0.1367 0.1367 0.1367 0.0000 -0.1367 -0.1367 0.0000 -0.1367 -0.1367 0.1367 -0.1367 -0.1367 -0.1367 0.1367 -0.1367 0.1367 0.0000 0.1367 0.0000 0.0000 0.1367 -0.1367 0.0000 0.1367 0.1367 -0.1367 0.1367 -0.1367 0.1367 -0.1367 0.0000 -0.1367 0.0000 0.1367 -0.1367 0.1367 0.1367 -0.1367 0.0000 0.0000 0.0000 0.0000 0.1367 0.0000 0.0000 0.1367 0.0000 -0.1367 0.1367 0.0000 -0.1367 0.1367 -0.1367 0.1367 0.0000 0.1367 -0.1367 -0.1367 0.0000 0.1367 0.1367 0.1367 -0.1367 0.0000 0.1367 0.0000 -0.1367 0.1367 -0.1367 0.0000 -0.1367 0.0000 -0.1367 -0.1367 0.1367 -0.1367 0.1367 0.0000 0.1367 0.0000 0.1367 0.0000 -0.1367 -0.1367 0.0000 -0.1367 0.1367 -0.1367 -0.1367 0.0000 0.1367 -0.1367 0.0000 0.0000 0.1367 -0.1367 -0.1367 -0.1367 0.1367 0.1367 0.0000 0.0000 -0.1367 -0.1367 0.1367 -0.1367 0.1367 0.1367 0.1367 0.0000 -0.1367 0.0000 -0.1367 0.1367 0.1367 -0.1367 0.0000 0.1367 -0.1367 0.0000 0.0000 0.0000 0.0000 0.0000 0.1367 0.0000 -0.1367 0.0000 0.1367 -0.1367 -0.1367 0.1367 0.1367 0.0000 -0.1367 0.0000 -0.1367 -0.1367 -0.1367 -0.1367 0.0000 0.0000 0.1367 -0.1367 -0.1367 0.0000 0.1367 -0.1367 0.0000 0.1367 0.1367 0.1367 -0.1367 0.1367 0.1367 -0.1367 -0.1367 -0.1367 0.0000 0.1367 0.1367 -0.1367 -0.1367 0.0000 0.1367 0.1367 -0.1367 0.1367 0.0000 0.1367 0.1367 -0.1367 -0.1367 0.0000 0.1367 0.1367 0.0000 -0.1367 0.1367 0.1367 0.1367 0.1367 -0.1367 -0.1367 -0.1367 0.1367 0.0000 0.1367 0.1367 -0.1367 -0.1367 -0.1367 -0.1367 -0.1367 0.1367 -0.1367 0.1367 0.1367 -0.1367 -0.1367 0.0000 0.1367 0.1367 -0.1367 0.0000 -0.1367 -0.1367 0.1367 -0.1367 -0.1367 0.1367 -0.1367 0.1367 0.1367 -0.1367 0.1367 0.1367 0.1367 -0.1367 -0.1367 -0.1367 0.1367 0.1367 -0.1367 0.0000 0.1367 0.1367 -0.1367 0.1367 0.1367 0.1367 -0.1367 0.1367 0.1367 0.0000 -0.1367 0.1367 0.0000 0.1367 0.0000 0.1367 0.0000 0.1367 -0.1367 0.1367 0.0000 -0.1367 0.0000 0.1367 0.1367 -0.1367 0.1367 -0.1367 0.1367 0.1367 0.0000 0.0000 -0.1367 0.0000 0.0000 -0.1367 -0.1367 0.1367 0.0000 -0.1367 0.1367 -0.1367 0.0000 -0.1367 -0.1367 0.0000 -0.1367 -0.1367 0.1367 -0.1367 0.0000 0.0000 -0.1367 0.1367 -0.1367 0.1367 -0.1367 0.1367 0.0000 -0.1367 0.0000 -0.1367 -0.1367 0.1367 0.0000 -0.1367 0.1367 -0.1367 0.0000 0.1367 0.0000 0.1367 0.0000 0.0000 0.0000 0.1367 0.1367 0.0000 -0.1367 0.0000 0.1367 -0.1367 -0.1367 0.1367 0.0000 0.0000 -0.1367 0.0000 0.1367 0.0000 0.1367 -0.1367 -0.1367 0.1367 -0.1367 0.1367 0.0000 0.1367 -0.1367 0.1367 0.0000 0.0000 -0.1367 0.0000 0.1367 0.0000 -0.1367 -0.1367 0.0000 0.1367 -0.1367 0.0000 -0.1367 -0.1367 -0.1367 -0.1367 0.0000 0.1367 -0.1367 0.0000 0.0000 -0.1367 0.1367 0.0000 0.0000 0.1367 0.0000 -0.1367 0.0000 0.1367 -0.1367 0.1367 0.1367 0.1367 0.0000 0.1367 -0.1367 -0.1367 0.0000 -0.1367 -0.1367 0.0000 0.1367 -0.1367 -0.1367 0.1367 -0.1367 0.0000 -0.1367 0.1367 0.0000 0.0000 -0.1367 0.0000 0.1367 -0.1367 0.0000 0.0000 0.1367 0.0000 -0.1367 0.1367 -0.1367 0.1367 -0.1367 0.0000 0.1367 0.1367 -0.1367 0.0000 0.0000 0.0000 0.0000 -0.1367 0.0000 0.1367 -0.1367 0.0000 0.1367 -0.1367 -0.1367 -0.1367 0.0000 0.1367 -0.1367 -0.1367 0.1367 0.0000 0.1367 0.0000 -0.1367 0.1367 0.1367 -0.1367 0.1367 0.0000 0.0000 0.0000 0.1367 0.0000 0.1367 0.1367 0.0000 0.0000 -0.1367 0.1367 -0.1367 0.1367 0.0000 0.0000 0.0000 -0.1367 0.0000 0.0000 0.1367 0.1367 -0.1367 -0.1367 -0.1367 -0.1367 0.0000 0.0000 0.1367 0.1367 0.1367 0.0000 0.1367 0.0000 0.1367 -0.1367 0.0000 0.1367 0.0000 0.1367 0.0000 0.0000 -0.1367 0.0000 -0.1367 0.0000 0.1367 -0.1367 0.1367 0.0000 0.1367 -0.1367 0.1367 0.0000 -0.1367 0.1367 -0.1367 0.1367 0.0000 -0.1367 0.1367 0.0000 0.0000 0.1367 0.1367 -0.1367 -0.1367 -0.1367 0.1367 0.0000 0.1367 0.0000 0.0000 0.1367 0.1367 -0.1367 0.0000 0.1367 0.1367 -0.1367 -0.1367 0.1367 0.0000 0.0000 -0.1367 0.0000 0.1367 0.0000 0.0000 0.1367 -0.1367 0.1367 -0.1367 0.1367 0.0000 0.0000 0.1367 0.0000 0.1367 -0.1367 0.0000 0.0000 0.1367 -0.1367 0.1367 0.1367 0.0000 -0.1367 -0.1367 -0.1367 0.1367 0.0000 0.0000 0.0000 0.1367 0.1367 0.0000 0.1367 -0.1367 0.1367 0.1367 0.1367 0.0000 -0.1367 0.0000 0.0000 0.0000 0.0000 -0.1367 0.0000 -0.1367 -0.1367 0.0000 0.1367 0.1367 0.1367 -0.1367 -0.1367 -0.1367 -0.1367 0.0000 0.0000 -0.1367 0.1367 0.1367 0.0000 0.0000 -0.1367 -0.1367 0.1367 -0.1367 0.1367 0.1367 0.1367 0.0000 -0.1367 -0.1367 0.1367 -0.1367 -0.1367 0.1367 -0.1367 0.1367 0.1367 0.1367 0.1367 0.0000 0.1367 0.1367 0.1367 -0.1367 0.1367 -0.1367 0.1367 -0.1367 0.1367 0.0000 -0.1367 -0.1367 0.1367 0.1367 0.1367 0.1367 0.1367 0.1367 0.1367 -0.1367 0.0000 -0.1367 0.0000 0.1367 0.0000 0.0000 0.1367 -0.1367 0.0000 0.1367 0.1367 -0.1367 0.1367 0.1367 0.1367 0.0000 0.0000 0.1367 -0.1367 0.1367 0.1367 -0.1367 0.1367 0.0000 0.1367 0.0000 -0.1367 -0.1367 0.1367 -0.1367 0.0000 -0.1367 -0.1367 0.1367 -0.1367 -0.1367 -0.1367 -0.1367 0.1367 0.0000 -0.1367 -0.1367 0.0000 0.0000 0.0000 0.1367 -0.1367 0.1367 -0.1367 -0.1367 0.0000 0.1367 -0.1367 -0.1367 0.0000 -0.1367 0.0000 0.0000 0.1367 0.0000 0.1367 0.1367 0.0000 -0.1367 0.1367 0.1367 -0.1367 -0.1367 -0.1367 0.0000 -0.1367 0.0000 0.0000 0.1367 0.1367 0.1367 0.0000 -0.1367 0.0000 -0.1367 0.0000 0.0000 0.0000 0.1367 -0.1367 0.0000 -0.1367 -0.1367 0.1367 -0.1367 -0.1367 0.1367 -0.1367 0.0000 0.1367 0.1367 0.1367 0.1367 0.1367 0.0000 -0.1367 0.1367 -0.1367 -0.1367 0.1367 -0.1367 0.1367 0.0000 0.1367 0.0000 -0.1367 0.0000 0.0000 0.1367 -0.1367 0.1367 -0.1367 0.0000 -0.1367 0.1367 0.1367 -0.1367 0.0000 0.0000 -0.1367 -0.1367 -0.1367 -0.1367 0.0000 0.1367 -0.1367 -0.1367 -0.1367 -0.1367 -0.1367 -0.1367 0.1367 0.1367 0.0000 -0.1367 0.0000 -0.1367 0.0000 0.1367 -0.1367 0.1367 0.1367 0.0000 0.1367 0.0000 0.1367 -0.1367 0.1367 0.0000 0.1367 0.0000 -0.1367 -0.1367 0.1367 0.0000 -0.1367 0.1367 0.1367 -0.1367 -0.1367 0.0000 0.0000 0.1367 -0.1367 0.0000 0.1367 0.1367 0.0000 -0.1367 0.1367 0.1367 -0.1367 0.0000 0.0000 0.1367 -0.1367 0.0000 0.1367 -0.1367 0.1367 0.0000 0.0000 0.0000 0.1367 0.1367 0.0000 0.1367 0.0000 0.1367 -0.1367 0.1367 0.1367 0.0000 0.0000 0.0000 -0.1367 -0.1367 0.1367 -0.1367 0.1367 0.0000 0.1367 0.1367 0.0000 0.0000 0.0000 0.0000 0.1367 0.1367 -0.1367 0.0000 0.1367 0.1367 0.0000 -0.1367 -0.1367 -0.1367 0.0000 0.1367 -0.1367 0.0000 -0.1367 0.1367 0.1367 0.0000 0.0000 0.0000 -0.1367 -0.1367 0.0000 0.1367 0.0000 0.0000 -0.1367 0.1367 -0.1367 0.1367 0.1367 0.0000 -0.1367 0.0000 0.0000 0.1367 0.0000 -0.1367 0.1367 0.1367 0.1367 -0.1367 0.1367 0.1367 -0.1367 -0.1367 0.0000 0.0000 -0.1367 0.1367 0.1367 0.1367 0.0000 -0.1367 0.1367 0.1367 0.0000 0.0000 0.1367 0.1367 0.1367 -0.1367 -0.1367 0.0000 -0.1367 0.1367 0.1367 0.1367 0.1367 -0.1367 0.0000 0.1367 0.1367 0.0000 0.0000 0.1367 -0.1367 0.1367 0.0000 0.0000 0.1367 0.1367 0.0000 0.1367 -0.1367 0.1367 0.1367 0.1367 0.0000 0.1367 0.0000 0.1367 0.0000 -0.1367 0.0000 0.1367 0.1367 0.1367 0.0000 -0.1367 0.1367 0.1367 0.1367 0.1367 -0.1367 0.1367 -0.1367 0.0000 0.0000 -0.1367 0.1367 0.0000 -0.1367 0.0000 -0.1367 -0.1367 -0.1367 0.1367 0.0000 0.1367 -0.1367 0.0000 -0.1367 0.0000 0.1367 -0.1367 0.1367 -0.1367 -0.1367 0.1367 -0.1367 0.0000 -0.1367 0.0000 0.0000 0.1367 0.1367 -0.1367 0.1367 0.1367 0.1367 0.1367 0.1367 -0.1367 -0.1367 0.0000 0.0000 0.1367 0.0000 0.0000 0.1367 0.1367 0.1367 0.0000 -0.1367 0.0000 -0.1367 0.1367 0.1367 0.0000 -0.1367 -0.1367 0.0000 -0.1367 -0.1367 -0.1367 0.1367 0.0000 0.0000 -0.1367 0.1367 0.1367 0.0000 0.0000 -0.1367 0.1367 -0.1367 -0.1367 0.0000 -0.1367 0.0000 0.0000 -0.1367 -0.1367 -0.1367 0.0000 0.1367 0.0000 -0.1367 0.0000 0.1367 0.0000 -0.1367 0.0000 0.1367 0.1367 -0.1367 0.1367 0.1367 0.1367 -0.1367 0.1367 0.0000 0.1367 0.0000 0.1367 0.1367 -0.1367 0.0000 0.1367 -0.1367 0.1367 -0.1367 -0.1367 0.1367 0.1367 0.1367 0.0000 -0.1367 0.1367 0.1367 0.1367 -0.1367 0.0000 -0.1367 0.1367 0.0000 0.0000 -0.1367 -0.1367 0.0000 0.1367 0.1367 0.1367 -0.1367 -0.1367 0.1367 0.0000 -0.1367 0.0000 -0.1367 0.0000 -0.1367 -0.1367 -0.1367 -0.1367 0.1367 0.1367 0.1367 0.1367 -0.1367 0.1367 -0.1367 0.0000 0.0000 0.0000 -0.1367 -0.1367 0.0000 0.1367 0.0000 0.1367 -0.1367 0.1367 -0.1367 0.1367 0.1367 0.1367 0.0000 0.1367 -0.1367 0.1367 -0.1367 0.0000 -0.1367 0.1367 -0.1367 0.1367 0.0000 -0.1367 -0.1367 -0.1367 -0.1367 -0.1367 0.0000 0.1367 0.0000 -0.1367 0.1367 -0.1367 -0.1367 0.1367 0.0000 0.1367 0.0000 0.1367 0.0000 -0.1367 0.0000 -0.1367 0.0000 -0.1367 0.1367 -0.1367 0.1367 0.1367 -0.1367 0.0000 -0.1367 0.1367 0.0000 0.0000 0.1367 0.1367 -0.1367 0.0000 -0.1367 -0.1367 0.0000 0.1367 0.1367 0.1367 0.0000 0.1367 0.0000 -0.1367 -0.1367 0.0000 -0.1367 -0.1367 0.0000 0.1367 0.1367 -0.1367 -0.1367 0.1367 0.0000 0.0000 0.1367 -0.1367 -0.1367 -0.1367 -0.1367 0.1367 0.0000 -0.1367 0.0000 0.1367 -0.1367 0.1367 0.0000 -0.1367 -0.1367 0.1367 0.1367 -0.1367 0.0000 -0.1367 0.1367 0.1367 0.1367 0.1367 -0.1367 0.1367 0.1367 0.1367 -0.1367 -0.1367 -0.1367 0.0000 -0.1367 0.1367 0.0000 0.0000 -0.1367 0.1367 0.1367 0.1367 -0.1367 -0.1367 0.1367 -0.1367 0.0000 -0.1367 0.0000 -0.1367 0.1367 -0.1367 -0.1367 0.1367 0.0000 -0.1367 0.1367 -0.1367 -0.1367 -0.1367 -0.1367 0.0000 0.1367 0.0000 0.1367 -0.1367 0.1367 0.1367 0.1367 0.1367 -0.1367 -0.1367 0.1367 0.1367 0.1367 0.0000 0.1367 0.0000 0.0000 0.0000 0.0000 0.0000 -0.1367 0.1367 -0.1367 -0.1367 0.0000 0.1367 0.0000 0.1367 0.0000 0.1367 -0.1367 -0.1367 -0.1367 -0.1367 -0.1367 -0.1367 -0.1367 0.0000 -0.1367 -0.1367 -0.1367 0.0000 0.1367 -0.1367 -0.1367 0.1367 -0.1367 0.0000 -0.1367 0.0000 -0.1367 0.1367 0.0000 0.1367 -0.1367 -0.1367 0.1367 0.1367 0.1367 -0.1367 0.0000 0.0000 -0.1367 -0.1367 0.0000 -0.1367 0.0000 -0.1367 0.1367 0.1367 -0.1367 0.1367 0.0000 -0.1367 -0.1367 0.0000 0.0000 -0.1367 -0.1367 0.1367 -0.1367 -0.1367 0.1367 -0.1367 -0.1367 0.1367 0.1367 0.0000 -0.1367 0.0000 0.0000 -0.1367 -0.1367 -0.1367 0.0000 0.1367 -0.1367 0.0000 0.1367 0.1367 0.1367 -0.1367 -0.1367 -0.1367 0.0000 -0.1367 0.1367 0.1367 0.0000 -0.1367 -0.1367 0.1367 0.1367 -0.1367 0.1367 -0.1367 -0.1367 0.1367 0.0000 -0.1367 -0.1367 -0.1367 0.1367 0.1367 -0.1367 -0.1367 -0.1367 0.0000 0.0000 -0.1367 -0.1367 0.1367 0.0000 0.0000 -0.1367 0.1367 0.0000 -0.1367 -0.1367 0.1367 -0.1367 -0.1367 0.1367 0.1367 0.1367 0.0000 -0.1367 0.1367 -0.1367 -0.1367 0.0000 0.1367 0.0000 -0.1367 -0.1367 0.0000 -0.1367 0.0000 -0.1367 0.1367 -0.1367 -0.1367 -0.1367 0.1367 0.1367 0.1367 0.0000 0.1367 -0.1367 -0.1367 -0.1367 -0.1367 -0.1367 -0.1367 0.0000 0.0000 0.0000 -0.1367 0.0000 0.0000 0.1367 -0.1367 0.1367 -0.1367 0.1367 0.0000 0.0000 0.0000 0.1367 0.1367 0.0000 0.1367 0.1367 0.0000 0.1367 0.0000 0.0000 0.1367 0.1367 0.0000 0.1367 0.1367 0.1367 0.1367 0.1367 -0.1367 0.0000 0.0000 -0.1367 0.1367 -0.1367 0.1367 -0.1367 0.0000 0.1367 0.1367 0.0000 0.1367 0.0000 0.1367 -0.1367 -0.1367 0.1367 -0.1367 0.1367 0.0000 -0.1367 -0.1367 -0.1367 0.0000 0.1367 -0.1367 -0.1367 0.1367 -0.1367 -0.1367 0.1367 0.1367 0.0000 0.0000 0.0000 -0.1367 -0.1367 0.0000 -0.1367 0.1367 0.0000 0.0000 0.1367 0.1367 0.0000 -0.1367 0.0000 -0.1367 -0.1367 -0.1367 0.0000 0.1367 0.1367 0.0000 0.0000 0.0000 0.0000 -0.1367 0.0000 0.1367 0.0000 -0.1367 0.0000 -0.1367 0.1367 -0.1367 0.1367 0.1367 0.1367 -0.1367 0.1367 0.0000 -0.1367 0.0000 0.1367 0.1367 0.1367 0.1367 0.1367 -0.1367 0.0000 0.0000 -0.1367 0.1367 0.1367 -0.1367 0.1367 -0.1367 0.0000 0.0000 -0.1367 -0.1367 -0.1367 -0.1367 0.1367 0.0000 0.1367 -0.1367 -0.1367 0.0000 0.1367 0.0000 0.0000 0.0000 -0.1367 0.1367 -0.1367 0.1367 -0.1367 0.0000 0.1367 0.0000 -0.1367 0.0000 0.0000 0.0000 -0.1367 0.1367 -0.1367 0.0000 0.1367 0.1367 -0.1367 -0.1367 0.0000 0.1367 0.0000 0.1367 -0.1367 0.0000 0.0000 0.1367 -0.1367 0.1367 -0.1367 -0.1367 0.1367 0.1367 -0.1367 0.0000 0.0000 -0.1367 0.0000 -0.1367 -0.1367 0.0000 0.0000 0.0000 0.0000 0.1367 0.0000 0.0000 0.0000 0.1367 0.0000 0.0000 -0.1367 0.0000 0.0000 0.1367 0.0000 0.1367 0.1367 0.1367 0.0000 0.0000 0.0000 0.0000 0.0000 -0.1367 0.0000 0.0000 0.1367 -0.1367 0.1367 0.1367 0.0000 0.1367 0.0000 0.1367 -0.1367 0.1367 0.1367 -0.1367 -0.1367 -0.1367 0.1367 0.1367 -0.1367 0.0000 0.0000 0.0000 0.1367 0.1367 0.0000 0.1367 -0.1367 0.1367 -0.1367 0.1367 0.0000 0.1367 -0.1367 0.0000 0.0000 -0.1367 0.1367 0.1367 -0.1367 0.1367 0.0000 0.0000 -0.1367 0.1367 -0.1367 0.1367 0.1367 0.0000 -0.1367 -0.1367 0.0000 -0.1367 0.1367 0.1367 -0.1367 0.1367 0.1367 0.1367 0.0000 0.1367 0.1367 -0.1367 -0.1367 0.0000 -0.1367 0.0000 -0.1367 0.0000 0.1367 0.1367 0.0000 0.1367 0.1367 0.0000 0.0000 0.1367 0.1367 0.1367 -0.1367 -0.1367 0.1367 -0.1367 0.0000 0.0000 0.0000 0.0000 -0.1367 -0.1367 -0.1367 0.0000 -0.1367 0.0000 -0.1367 0.1367 0.1367 -0.1367 0.1367 -0.1367 0.1367 -0.1367 0.1367 0.1367 0.1367 0.0000 -0.1367 0.0000 -0.1367 -0.1367 0.1367 0.0000 0.1367 -0.1367 -0.1367 0.0000 -0.1367 0.1367 0.1367 0.1367 -0.1367 0.1367 -0.1367 0.1367 0.1367 0.0000 0.0000 0.0000 -0.1367 0.1367 0.0000 -0.1367 0.1367 0.1367 0.0000 0.1367 -0.1367 -0.1367 0.0000 -0.1367 0.1367 -0.1367 0.0000 0.1367 -0.1367 -0.1367 0.1367 0.1367 0.0000 0.1367 0.0000 -0.1367 -0.1367 0.0000 -0.1367 -0.1367 0.0000 -0.1367 -0.1367 0.1367 0.0000 0.1367 0.1367 0.0000 0.1367 -0.1367 0.0000 -0.1367 0.0000 0.1367 -0.1367 0.0000 0.1367 -0.1367 0.0000 0.0000 0.1367 0.0000 0.1367 0.1367 0.1367 0.0000 -0.1367 -0.1367 -0.1367 0.0000 0.1367 0.0000 0.1367 0.1367 0.0000 0.1367 0.1367 0.1367 0.1367 -0.1367 -0.1367 0.1367 0.0000 -0.1367 0.1367 -0.1367 -0.1367 -0.1367 0.1367 -0.1367 0.0000 0.1367 0.1367 -0.1367 0.0000 -0.1367 0.1367 0.0000 0.0000 0.0000 0.1367 -0.1367 -0.1367 -0.1367 0.1367 0.1367 -0.1367 0.0000 0.1367 0.1367 0.1367 0.0000 0.0000 0.0000 0.1367 -0.1367 0.0000 0.1367 -0.1367 -0.1367 -0.1367 0.1367 0.0000 0.1367 0.0000 0.1367 -0.1367 0.1367 -0.1367 -0.1367 0.0000 -0.1367 -0.1367 0.0000 0.1367 -0.1367 0.1367 0.0000 0.1367 -0.1367 -0.1367 -0.1367 -0.1367 0.0000 -0.1367 0.1367 -0.1367 -0.1367 -0.1367 0.1367 0.1367 -0.1367 0.0000 -0.1367 -0.1367 -0.1367 0.1367 0.0000 -0.1367 0.1367 0.0000 0.0000 0.1367 -0.1367 0.1367 -0.1367 0.1367 -0.1367 0.0000 0.0000 0.1367 0.0000 0.1367 0.1367 0.0000 0.1367 0.1367 -0.1367 0.1367 -0.1367 0.1367 -0.1367 0.0000 0.1367 0.0000 0.1367 -0.1367 0.0000 0.0000 0.1367 -0.1367 -0.1367 -0.1367 -0.1367 0.1367 0.1367 0.1367 0.1367 -0.1367 0.1367 -0.1367 0.1367 -0.1367 0.0000 0.0000 0.1367 0.0000 -0.1367 0.0000 0.0000 0.1367 -0.1367 -0.1367 0.1367 0.1367 -0.1367 -0.1367 -0.1367 0.1367 0.1367 0.1367 -0.1367 0.0000 -0.1367 0.0000 0.0000 0.0000 -0.1367 0.0000 0.0000 0.1367 0.1367 -0.1367 0.1367 0.0000 -0.1367 0.0000 -0.1367 0.1367 0.1367 0.1367 0.1367 0.1367 -0.1367 0.1367 -0.1367 -0.1367 -0.1367 0.0000 -0.1367 0.1367 0.1367 0.1367 0.0000 0.1367 0.1367 0.1367 0.1367 0.0000 -0.1367 0.1367 -0.1367 0.1367 0.1367 -0.1367 -0.1367 0.1367 -0.1367 0.1367 0.0000 -0.1367 -0.1367 0.0000 0.0000 0.0000 0.1367 -0.1367 0.1367 0.1367 0.0000 -0.1367 0.0000 -0.1367 0.1367 -0.1367 0.1367 0.1367 0.0000 -0.1367 -0.1367 -0.1367 0.1367 -0.1367 0.0000 0.1367 0.0000 0.1367 0.1367 0.1367 0.1367 -0.1367 -0.1367 0.0000 0.1367 0.0000 0.1367 0.0000 0.0000 0.0000 -0.1367 0.0000 -0.1367 0.0000 0.0000 0.1367 -0.1367 -0.1367 0.0000 0.1367 0.1367 0.0000 -0.1367 0.0000 -0.1367 0.1367 0.0000 0.0000 0.1367 -0.1367 0.1367 -0.1367 -0.1367 0.1367 0.1367 -0.1367 -0.1367 -0.1367 -0.1367 0.1367 -0.1367 0.1367 0.0000 0.1367 0.1367 -0.1367 -0.1367 0.0000 0.1367 0.0000 0.1367 0.1367 -0.1367 -0.1367 0.0000 0.1367 0.0000 0.0000 -0.1367 0.0000 0.1367 0.0000 -0.1367 0.1367 0.1367 -0.1367 0.0000 0.0000 0.1367 -0.1367 0.0000 -0.1367 0.0000 0.1367 0.1367 0.1367 0.1367 0.0000 -0.1367 0.0000 -0.1367 -0.1367 0.0000 -0.1367 0.1367 -0.1367 -0.1367 0.1367 0.1367 -0.1367 0.1367 -0.1367 0.1367 -0.1367 -0.1367 -0.1367 -0.1367 0.1367 0.1367 -0.1367 -0.1367 -0.1367 -0.1367 0.0000 -0.1367 0.0000 0.1367 0.1367 0.0000 0.1367 0.1367 0.0000 -0.1367 -0.1367 0.1367 0.0000 -0.1367 -0.1367 -0.1367 0.1367 0.1367 0.0000 0.1367 -0.1367 0.0000 0.1367 0.1367 0.1367 0.1367 -0.1367 0.1367 0.1367 -0.1367 0.1367 0.1367 0.1367 -0.1367 0.1367 -0.1367 0.0000 0.0000 0.0000 0.0000 0.1367 0.0000 0.0000 0.1367 0.0000 0.1367 -0.1367 0.0000 -0.1367 -0.1367 0.0000 0.0000 0.1367 0.0000 0.1367 -0.1367 0.0000 0.0000 0.0000 0.1367 -0.1367 -0.1367 -0.1367 0.1367 -0.1367 0.1367 0.0000 -0.1367 0.0000 -0.1367 -0.1367 0.1367 -0.1367 0.1367 0.1367 0.1367 0.0000 0.1367 0.1367 0.0000 -0.1367 -0.1367 0.1367 0.1367 0.0000 0.1367 -0.1367 0.1367 0.0000 0.0000 0.0000 -0.1367 -0.1367 0.0000 0.1367 0.1367 -0.1367 -0.1367 0.1367 0.1367 -0.1367 0.1367 -0.1367 -0.1367 -0.1367 0.0000 0.1367 0.1367 -0.1367 0.0000 -0.1367 0.1367 0.1367 0.1367 0.1367 0.0000 -0.1367 0.1367 -0.1367 0.0000 0.1367 0.0000 -0.1367 0.1367 0.0000 -0.1367 0.0000 0.0000 -0.1367 -0.1367 0.0000 0.0000 0.0000 0.0000 -0.1367 -0.1367 0.1367 0.1367 -0.1367 0.1367 0.0000 0.1367 -0.1367 0.0000 0.1367 0.1367 0.0000 0.0000 0.0000 0.0000 0.0000 -0.1367 0.0000 -0.1367 0.1367 0.1367 0.1367 0.1367 0.1367 -0.1367 0.1367 0.1367 0.0000 -0.1367 0.1367 -0.1367 -0.1367 0.0000 0.1367 0.1367 -0.1367 0.1367 0.1367 0.1367 -0.1367 0.0000 0.0000 -0.1367 0.1367 0.1367 0.1367 0.0000 0.1367 0.0000 -0.1367 0.0000 0.0000 0.0000 0.0000 -0.1367 -0.1367 0.1367 0.1367 0.1367 -0.1367 0.1367 0.0000 -0.1367 -0.1367 0.1367 0.0000 0.1367 0.1367 -0.1367 0.0000 0.1367 -0.1367 -0.1367 0.0000 0.1367 0.0000 0.0000 0.1367 0.1367 0.0000 0.0000 -0.1367 0.1367 0.1367 0.1367 0.1367 -0.1367 -0.1367 0.1367 0.0000 -0.1367 0.1367 0.1367 0.0000 0.1367 0.1367 -0.1367 -0.1367 0.1367 -0.1367 -0.1367 0.1367 0.0000 0.1367 0.0000 -0.1367 0.1367 0.1367 -0.1367 0.0000 0.1367 0.1367 0.0000 0.0000 0.1367 -0.1367 0.1367 -0.1367 -0.1367 0.1367 -0.1367 -0.1367 0.1367 0.1367 -0.1367 -0.1367 0.1367 0.0000 0.1367 0.0000 0.1367 0.1367 0.0000 -0.1367 -0.1367 -0.1367 -0.1367 0.1367 0.0000 0.1367 -0.1367 -0.1367 0.0000 -0.1367 0.1367 0.1367 0.0000 -0.1367 0.1367 -0.1367 0.1367 -0.1367 0.1367 -0.1367 0.1367 0.1367 0.0000 -0.1367 0.0000 0.0000 0.0000 0.0000 -0.1367 0.1367 -0.1367 0.0000 0.0000 -0.1367 0.0000 -0.1367 0.0000 0.1367 -0.1367 0.0000 0.1367 0.0000 0.0000 0.0000 -0.1367 -0.1367 -0.1367 0.0000 0.1367 -0.1367 0.1367 0.1367 0.0000 -0.1367 0.1367 -0.1367 0.1367 0.0000 0.1367 0.0000 0.0000 0.0000 0.1367 0.1367 0.0000 0.1367 0.0000 0.0000 -0.1367 -0.1367 0.0000 0.1367 0.1367 -0.1367 -0.1367 0.1367 -0.1367 0.0000 -0.1367 -0.1367 0.1367 0.1367 -0.1367 0.1367 -0.1367 0.0000 0.1367 -0.1367 0.0000 0.0000 -0.1367 0.0000 -0.1367 0.1367 0.0000 -0.1367 -0.1367 0.1367 0.0000 0.0000 -0.1367 0.1367 -0.1367 0.1367 0.0000 -0.1367 -0.1367 -0.1367 0.1367 0.1367 0.0000 0.0000 0.0000 -0.1367 0.0000 0.1367 -0.1367 0.1367 -0.1367 0.0000 -0.1367 -0.1367 0.0000 0.1367 0.0000 -0.1367 -0.1367 -0.1367 0.1367 -0.1367 -0.1367 -0.1367 0.0000 -0.1367 0.1367 0.1367 0.1367 0.0000 -0.1367 0.1367 -0.1367 -0.1367 0.1367 -0.1367 0.0000 0.0000 -0.1367 0.1367 0.1367 -0.1367 -0.1367 0.1367 0.1367 -0.1367 0.0000 0.0000 0.0000 0.0000 0.1367 -0.1367 0.1367 -0.1367 -0.1367 -0.1367 0.0000 0.1367 -0.1367 -0.1367 0.1367 0.1367 0.0000 0.1367 0.1367 0.0000 -0.1367 0.0000 0.0000 0.0000 -0.1367 0.1367 0.1367 0.1367 -0.1367 0.1367 -0.1367 0.1367 0.0000 -0.1367 0.1367 0.0000 -0.1367 -0.1367 0.0000 -0.1367 -0.1367 -0.1367 -0.1367 0.1367 0.0000 0.0000 0.1367 0.1367 0.1367 -0.1367 0.1367 -0.1367 0.0000 0.0000 -0.1367 -0.1367 -0.1367 -0.1367 0.0000 0.0000 -0.1367 0.1367 0.0000 -0.1367 0.0000 0.0000 0.0000 0.0000 -0.1367 -0.1367 0.0000 -0.1367 -0.1367 0.0000 0.0000 -0.1367 0.0000 0.0000 0.0000 0.1367 -0.1367 -0.1367 0.1367 -0.1367 0.0000 -0.1367 0.1367 -0.1367 -0.1367 -0.1367 0.0000 -0.1367 -0.1367 -0.1367 -0.1367 0.0000 -0.1367 0.1367 0.1367 -0.1367 0.0000 0.1367 0.1367 -0.1367 -0.1367 -0.1367 0.0000 0.0000 0.0000 -0.1367 0.0000 0.0000 0.0000 -0.1367 -0.1367 -0.1367 0.0000 -0.1367 0.0000 0.0000 0.0000 0.0000 -0.1367 0.0000 0.0000 0.0000 0.1367 0.0000 0.0000 0.0000 -0.1367 0.0000 0.1367 0.0000 -0.1367 -0.1367 0.1367 0.0000 0.0000 -0.1367 0.1367 0.0000 -0.1367 -0.1367 0.1367 0.1367 -0.1367 0.0000 0.1367 -0.1367 -0.1367 -0.1367 -0.1367 -0.1367 0.0000 -0.1367 0.1367 0.1367 0.1367 0.0000 0.0000 -0.1367 -0.1367 0.1367 0.0000 0.1367 0.1367 0.1367 -0.1367 0.0000 0.1367 0.0000 0.0000 -0.1367 -0.1367 0.1367 0.1367 0.0000 0.0000 0.1367 0.0000 0.1367 0.1367 -0.1367 0.0000 0.0000 0.1367 0.0000 -0.1367 -0.1367 0.0000 0.0000 0.1367 0.1367 -0.1367 -0.1367 0.1367 -0.1367 0.1367 -0.1367 0.1367 0.1367 0.0000 0.0000 0.0000 0.1367 0.1367 -0.1367 -0.1367 0.1367 -0.1367 0.1367 0.1367 0.1367 0.0000 0.1367 -0.1367 0.1367 0.0000 0.0000 0.0000 -0.1367 0.1367 -0.1367 -0.1367 -0.1367 0.1367 0.1367 -0.1367 -0.1367 0.1367 0.1367 0.1367 -0.1367 0.1367 0.1367 0.0000 -0.1367 -0.1367 -0.1367 -0.1367 0.1367 -0.1367 0.1367 -0.1367 -0.1367 0.1367 0.1367 -0.1367 -0.1367 -0.1367 -0.1367 0.1367 -0.1367 0.0000 0.1367 -0.1367 0.0000 -0.1367 0.1367 -0.1367 0.1367 0.1367 0.1367 0.1367 -0.1367 -0.1367 0.1367 0.1367 -0.1367 0.0000 0.1367 -0.1367 0.0000 0.1367 0.0000 0.1367 0.1367 -0.1367 0.0000 0.1367 0.1367 0.1367 -0.1367 0.1367 0.0000 0.0000 -0.1367 0.1367 -0.1367 0.1367 0.1367 0.1367 0.1367 -0.1367 0.0000 -0.1367 -0.1367 0.0000 0.1367 0.0000 0.0000 -0.1367 0.0000 -0.1367 0.0000 0.0000 0.1367 0.1367 -0.1367 0.0000 -0.1367 -0.1367 -0.1367 0.0000 0.1367 -0.1367 0.1367 -0.1367 0.1367 0.0000 0.0000 0.1367 0.1367 0.1367 0.0000 0.1367 0.0000 -0.1367 0.0000 -0.1367 -0.1367 -0.1367 0.1367 -0.1367 -0.1367 0.0000 0.1367 0.1367 -0.1367 -0.1367 0.0000 0.0000 0.0000 0.1367 0.0000 0.0000 0.0000 0.1367 0.1367 -0.1367 0.0000 0.0000 0.0000 -0.1367 -0.1367 0.0000 0.1367 0.1367 0.0000 -0.1367 0.1367 0.1367 -0.1367 0.0000 0.1367 0.0000 0.1367 0.0000 -0.1367 0.0000 0.1367 0.1367 0.1367 0.1367 -0.1367 -0.1367 0.1367 -0.1367 0.1367 -0.1367 0.1367 -0.1367 -0.1367 0.1367 -0.1367 0.1367 0.0000 -0.1367 -0.1367 0.1367 -0.1367 0.1367 -0.1367 -0.1367 0.1367 0.1367 -0.1367 0.1367 -0.1367 0.0000 -0.1367 0.0000 0.1367 -0.1367 0.1367 -0.1367 0.1367 0.1367 0.0000 0.0000 0.1367 -0.1367 -0.1367 -0.1367 0.1367 0.0000 0.0000 -0.1367 0.0000 0.0000 0.0000 -0.1367 0.1367 0.1367 0.1367 -0.1367 -0.1367 0.0000 -0.1367 0.1367 0.0000 0.1367 0.1367 0.1367 -0.1367 -0.1367 0.1367 -0.1367 0.1367 0.1367 0.1367 -0.1367 0.1367 0.0000 0.0000 -0.1367 0.0000 0.1367 0.0000 -0.1367 0.1367 -0.1367 0.1367 0.1367 0.1367 0.1367 0.1367 0.0000 0.1367 0.1367 -0.1367 0.0000 0.1367 0.1367 -0.1367 -0.1367 0.0000 0.1367 0.1367 0.0000 -0.1367 0.1367 0.1367 0.0000 0.1367 -0.1367 -0.1367 0.0000 -0.1367 0.1367 0.1367 -0.1367 0.1367 0.1367 0.1367 -0.1367 0.1367 -0.1367 0.0000 0.0000 -0.1367 0.0000 0.1367 0.1367 0.1367 0.1367 -0.1367 -0.1367 0.1367 0.0000 0.1367 0.1367 0.0000 0.0000 0.1367 0.0000 0.0000 0.1367 0.0000 0.1367 -0.1367 0.0000 -0.1367 0.1367 0.1367 -0.1367 0.1367 0.1367 0.1367 0.0000 0.1367 0.1367 0.1367 0.1367 0.1367 -0.1367 0.1367 0.1367 -0.1367 0.1367 0.0000 0.1367 0.0000 0.1367 0.0000 0.1367 0.0000 -0.1367 0.1367 0.1367 0.1367 -0.1367 0.0000 0.0000 -0.1367 0.1367 -0.1367 -0.1367 0.1367 0.1367 -0.1367 0.1367 0.1367 -0.1367 0.1367 0.0000 -0.1367 -0.1367 0.1367 -0.1367 -0.1367 0.1367 0.0000 0.1367 0.1367 0.1367 -0.1367 0.1367 -0.1367 0.0000 0.0000 0.0000 0.1367 0.0000 0.1367 0.0000 -0.1367 -0.1367 -0.1367 0.1367 0.1367 -0.1367 0.1367 0.1367 -0.1367 -0.1367 0.1367 -0.1367 0.0000 0.1367 -0.1367 -0.1367 0.0000 0.0000 0.1367 -0.1367 0.1367 0.0000 -0.1367 0.0000 -0.1367 0.1367 0.0000 0.0000 -0.1367 0.0000 -0.1367 -0.1367 0.0000 0.0000 0.0000 0.0000 -0.1367 0.0000 -0.1367 -0.1367 -0.1367 0.0000 0.0000 0.1367 0.1367 0.1367 0.1367 0.1367 0.1367 0.1367 -0.1367 0.0000 0.0000 -0.1367 -0.1367 0.1367 -0.1367 -0.1367 -0.1367 0.0000 0.1367 0.1367 0.0000 0.1367 0.1367 0.0000 -0.1367 0.0000 0.0000 0.0000 0.0000 0.1367 -0.1367 0.1367 -0.1367 0.1367 0.1367 -0.1367 0.0000 0.1367 -0.1367 0.0000 -0.1367 0.0000 0.0000 0.0000 0.0000 0.0000 0.1367 0.1367 -0.1367 0.1367 0.1367 0.0000 -0.1367 0.1367 -0.1367 -0.1367 -0.1367 0.1367 -0.1367 0.0000 -0.1367 0.0000 0.0000 0.1367 0.1367 -0.1367 -0.1367 0.1367 -0.1367 -0.1367 -0.1367 -0.1367 0.1367 0.1367 0.0000 0.0000 -0.1367 -0.1367 0.1367 0.0000 -0.1367 0.1367 0.0000 0.1367 -0.1367 -0.1367 0.0000 -0.1367 0.0000 0.0000 0.1367 0.0000 0.0000 0.0000 -0.1367 -0.1367 0.0000 0.1367 0.0000 0.1367 0.0000 0.0000 -0.1367 0.1367 -0.1367 0.0000 0.1367 0.1367 -0.1367 -0.1367 0.1367 0.1367 -0.1367 0.0000 0.1367 0.1367 0.0000 0.0000 -0.1367 0.1367 0.0000 -0.1367 0.0000 0.1367 0.1367 -0.1367 0.0000 0.1367 0.0000 -0.1367 -0.1367 -0.1367 -0.1367 -0.1367 -0.1367 0.1367 0.1367 -0.1367 0.1367 -0.1367 0.0000 -0.1367 0.1367 -0.1367 0.1367 -0.1367 0.0000 0.0000 0.1367 -0.1367 -0.1367 -0.1367 0.1367 0.1367 -0.1367 0.0000 0.1367 0.1367 0.1367 -0.1367 -0.1367 0.0000 -0.1367 0.1367 0.0000 -0.1367 0.1367 0.0000 0.0000 0.1367 0.0000 0.0000 0.0000 0.0000 -0.1367 0.1367 -0.1367 0.0000 0.0000 0.0000 -0.1367 0.0000 -0.1367 0.1367 0.1367 0.0000 -0.1367 0.0000 0.1367 0.0000 0.1367 0.1367 -0.1367 0.1367 0.0000 -0.1367 -0.1367 0.0000 -0.1367 -0.1367 0.0000 -0.1367 -0.1367 0.1367 0.1367 0.0000 0.0000 -0.1367 0.1367 -0.1367 -0.1367 -0.1367 -0.1367 0.1367 0.0000 0.1367 0.1367 0.0000 0.0000 0.0000 0.1367 0.1367 -0.1367 0.0000 0.0000 0.0000 0.1367 -0.1367 0.1367 0.0000 0.0000 0.1367 0.0000 -0.1367 0.1367 -0.1367 0.0000 0.0000 0.1367 0.0000 0.0000 0.0000 0.0000 -0.1367 0.1367 0.0000 0.0000 -0.1367 0.0000 -0.1367 0.0000 -0.1367 0.0000 0.0000 0.1367 -0.1367 0.1367 0.1367 -0.1367 -0.1367 0.0000 0.1367 0.1367 0.1367 -0.1367 0.1367 0.1367 -0.1367 0.0000 0.0000 0.0000 0.0000 0.1367 0.1367 -0.1367 0.0000 -0.1367 0.0000 0.1367 -0.1367 0.1367 0.0000 -0.1367 0.0000 -0.1367 -0.1367 0.1367 0.0000 0.0000 0.0000 0.1367 -0.1367 0.0000 0.1367 0.0000 -0.1367 0.1367 0.1367 -0.1367 0.0000 -0.1367 0.0000 0.0000 0.0000 -0.1367 -0.1367 -0.1367 -0.1367 0.0000 0.1367 0.0000 0.1367 0.1367 -0.1367 0.1367 0.1367 0.0000 0.1367 -0.1367 -0.1367 -0.1367 0.0000 -0.1367 0.0000 0.0000 0.0000 0.1367 0.1367 0.1367 0.0000 0.1367 0.1367 0.0000 0.1367 0.0000 -0.1367 0.0000 -0.1367 -0.1367 0.1367 0.1367 0.1367 0.1367 0.1367 -0.1367 0.1367 0.0000 -0.1367 0.1367 -0.1367 -0.1367 -0.1367 0.1367 -0.1367 -0.1367 -0.1367 0.1367 -0.1367 0.0000 0.0000 -0.1367 0.1367 0.0000 0.0000 0.1367 0.0000 -0.1367 -0.1367 0.1367 0.0000 0.0000 -0.1367 -0.1367 0.1367 0.1367 -0.1367 -0.1367 0.1367 -0.1367 -0.1367 -0.1367 0.0000 -0.1367 0.0000 0.1367 -0.1367 0.1367 0.0000 0.0000 0.0000 0.1367 -0.1367 0.1367 -0.1367 0.1367 0.0000 0.1367 0.1367 0.1367 0.0000 -0.1367 0.0000 -0.1367 0.0000 -0.1367 0.0000 0.1367 0.1367 -0.1367 0.0000 0.0000 0.0000 0.0000 0.1367 0.0000 -0.1367 0.1367 0.1367 0.0000 -0.1367 -0.1367 0.0000 0.1367 0.0000 0.1367 -0.1367 0.0000 0.0000 0.1367 0.1367 -0.1367 0.0000 0.0000 0.0000 0.0000 -0.1367 0.0000 0.0000 -0.1367 0.1367 0.0000 -0.1367 -0.1367 0.0000 -0.1367 0.0000 -0.1367 -0.1367 -0.1367 0.1367 0.1367 -0.1367 0.0000 0.1367 0.0000 0.0000 0.1367 -0.1367 0.0000 -0.1367 -0.1367 0.0000 0.0000 0.1367 -0.1367 -0.1367 0.1367 0.0000 0.1367 -0.1367 -0.1367 0.0000 0.0000 -0.1367 -0.1367 0.1367 -0.1367 0.1367 -0.1367 -0.1367 0.1367 -0.1367 0.1367 0.0000 0.0000 -0.1367 -0.1367 0.1367 0.0000 -0.1367 0.0000 0.0000 0.1367 0.1367 0.0000 -0.1367 0.1367 0.0000 0.0000 -0.1367 0.0000 0.1367 -0.1367 0.0000 -0.1367 0.1367 0.1367 0.1367 -0.1367 0.0000 -0.1367 0.1367 -0.1367 -0.1367 -0.1367 0.0000 -0.1367 0.0000 -0.1367 -0.1367 -0.1367 0.1367 0.1367 -0.1367 0.0000 -0.1367 -0.1367 0.1367 0.0000 0.0000 0.0000 -0.1367 -0.1367 -0.1367 -0.1367 -0.1367 0.0000 0.1367 0.0000 0.1367 0.0000 0.1367 -0.1367 -0.1367 -0.1367 0.0000 0.1367 0.1367 0.0000 -0.1367 -0.1367 -0.1367 0.1367 0.0000 0.0000 0.1367 0.1367 -0.1367 0.0000 -0.1367 0.1367 -0.1367 0.0000 -0.1367 -0.1367 -0.1367 0.1367 0.0000 0.0000 -0.1367 0.0000 0.1367 0.1367 0.1367 -0.1367 -0.1367 0.1367 0.0000 -0.1367 0.0000 -0.1367 0.1367 -0.1367 0.1367 0.1367 0.0000 -0.1367 -0.1367 0.0000 0.0000 0.0000 -0.1367 -0.1367 -0.1367 0.0000 0.0000 -0.1367 -0.1367 -0.1367 -0.1367 -0.1367 0.1367 -0.1367 0.0000 0.0000 -0.1367 -0.1367 -0.1367 -0.1367 0.0000 0.0000 0.0000 0.0000 0.0000 0.0000 -0.1367 -0.1367 0.1367 0.1367 -0.1367 0.1367 0.1367 -0.1367 0.0000 0.1367 -0.1367 0.1367 0.0000 -0.1367 -0.1367 -0.1367 0.1367 0.1367 0.1367 0.1367 0.0000 0.1367 -0.1367 0.1367 0.0000 0.0000 0.1367 0.1367 -0.1367 0.1367 -0.1367 -0.1367 -0.1367 0.1367 0.1367 0.1367 0.0000 0.1367 0.0000 0.1367 -0.1367 0.1367 -0.1367 0.0000 0.0000 -0.1367 0.0000 0.1367 -0.1367 0.1367 0.1367 0.0000 0.0000 0.0000 0.1367 0.1367 0.0000 0.1367 -0.1367 0.1367 0.1367 -0.1367 -0.1367 0.1367 0.1367 0.1367 -0.1367 -0.1367 0.0000 0.0000 0.0000 0.1367 0.1367 0.1367 0.1367 0.1367 -0.1367 0.1367 -0.1367 -0.1367 0.1367 0.1367 -0.1367 0.1367 0.1367 0.1367 -0.1367 0.0000 0.0000 0.1367 -0.1367 0.0000 0.0000 0.1367 0.0000 0.0000 0.1367 -0.1367 0.1367 0.1367 0.1367 0.1367 0.0000 0.0000 -0.1367 0.1367 -0.1367 0.1367 0.1367 0.1367 0.0000 0.1367 0.0000 -0.1367 0.1367 0.1367 0.1367 -0.1367 0.0000 0.1367 0.0000 0.0000 0.0000 0.1367 0.0000 -0.1367 -0.1367 0.1367 0.0000 -0.1367 -0.1367 -0.1367 -0.1367 0.0000 0.0000 0.0000 -0.1367 -0.1367 0.1367 0.0000 0.0000 -0.1367 0.0000 -0.1367 0.0000 0.1367 -0.1367 0.1367 0.1367 0.1367 -0.1367 0.1367 0.0000 0.0000 0.0000 0.0000 0.0000 0.0000 0.0000 0.1367 0.1367 0.1367 -0.1367 0.0000 0.1367 -0.1367 -0.1367 -0.1367 -0.1367 0.1367 0.0000 0.0000 0.0000 0.1367 0.0000 0.0000 0.1367 0.1367 0.1367 0.1367 -0.1367 0.1367 0.0000 0.1367 0.0000 0.1367 -0.1367 0.1367 0.0000 0.0000 0.1367 0.1367 0.1367 0.1367 -0.1367 0.0000 -0.1367 0.1367 0.0000 0.0000 0.1367 0.1367 0.1367 0.1367 -0.1367 0.1367 0.1367 0.1367 -0.1367 -0.1367 0.0000 0.1367 0.1367 0.0000 0.0000 0.0000 0.1367 -0.1367 0.0000 0.0000 0.1367 0.0000 0.1367 0.0000 -0.1367 -0.1367 -0.1367 -0.1367 -0.1367 0.1367 0.0000 -0.1367 0.1367 0.1367 -0.1367 -0.1367 -0.1367 0.0000 0.0000 0.1367 0.1367 0.0000 -0.1367 0.1367 -0.1367 0.1367 0.0000 -0.1367 0.1367 0.1367 -0.1367 0.0000 0.1367 0.0000 0.1367 -0.1367 0.1367 -0.1367 0.0000 0.0000 0.0000 0.0000 0.1367 0.1367 -0.1367 0.1367 0.1367 0.0000 0.0000 0.0000 0.0000 0.1367 -0.1367 0.0000 0.0000 0.1367 0.1367 0.1367 -0.1367 0.0000 0.0000 -0.1367 0.0000 0.1367 0.0000 0.0000 0.1367 0.0000 -0.1367 0.1367 0.0000 0.0000 0.1367 0.1367 -0.1367 0.0000 -0.1367 -0.1367 0.1367 0.1367 0.0000 -0.1367 0.0000 0.1367 0.0000 0.1367 -0.1367 0.1367 -0.1367 0.1367 0.1367 -0.1367 0.1367 0.0000 0.0000 0.1367 -0.1367 0.0000 0.1367 0.1367 -0.1367 0.1367 -0.1367 -0.1367 0.1367 0.0000 0.0000 0.1367 0.0000 0.1367 0.1367 0.1367 -0.1367 -0.1367 0.1367 0.1367 0.0000 0.0000 0.0000 0.0000 0.1367 0.1367 0.0000 0.1367 0.1367 0.0000 0.1367 0.0000 0.0000 -0.1367 0.1367 0.0000 0.0000 -0.1367 0.1367 0.1367 0.1367 0.0000 0.0000 0.1367 0.0000 -0.1367 -0.1367 0.1367 0.1367 -0.1367 0.1367 0.0000 0.0000 -0.1367 0.1367 0.1367 0.1367 0.1367 0.0000 0.0000 0.1367 0.0000 0.1367 0.1367 0.0000 -0.1367 -0.1367 -0.1367 0.1367 -0.1367 0.0000 0.0000 0.1367 0.1367 -0.1367 0.0000 0.1367 0.0000 0.0000 0.1367 -0.1367 -0.1367 0.1367 0.1367 0.1367 0.0000 0.1367 0.1367 0.1367 -0.1367 0.0000 -0.1367 0.1367 0.0000 0.1367 0.0000 0.1367 0.1367 0.1367 0.1367 -0.1367 0.0000 0.1367 0.0000 0.1367 0.1367 -0.1367 0.1367 0.1367 0.0000 0.0000 -0.1367 0.1367 -0.1367 -0.1367 -0.1367 -0.1367 0.0000 0.1367 0.0000 0.1367 0.0000 -0.1367 0.0000 0.1367 -0.1367 -0.1367 0.0000 0.1367 0.0000 -0.1367 0.1367 -0.1367 -0.1367 -0.1367 0.1367 -0.1367 -0.1367 -0.1367 -0.1367 0.1367 -0.1367 0.0000 0.0000 0.0000 -0.1367 0.1367 -0.1367 0.1367 -0.1367 -0.1367 0.1367 0.1367 0.1367 0.0000 -0.1367 0.1367 -0.1367 0.1367 0.1367 -0.1367 0.0000 0.0000 0.1367 0.1367 -0.1367 -0.1367 0.1367 0.1367 0.1367 0.1367 -0.1367 0.1367 0.1367 0.0000 0.1367 -0.1367 0.1367 0.0000 0.1367 0.0000 0.0000 0.0000 0.0000 0.1367 0.1367 -0.1367 0.0000 0.0000 -0.1367 -0.1367 0.1367 0.1367 -0.1367 -0.1367 -0.1367 0.0000 -0.1367 0.0000 -0.1367 -0.1367 -0.1367 -0.1367 0.1367 0.0000 -0.1367 0.0000 0.1367 0.1367 0.0000 0.1367 -0.1367 0.1367 0.0000 -0.1367 -0.1367 0.0000 -0.1367 0.1367 0.1367 0.0000 0.0000 0.1367 0.1367 0.0000 -0.1367 0.0000 -0.1367 0.1367 0.1367 0.0000 0.0000 -0.1367 0.0000 -0.1367 -0.1367 0.1367 0.0000 0.1367 0.1367 -0.1367 -0.1367 -0.1367 0.0000 0.0000 0.0000 -0.1367 0.1367 0.1367 0.0000 0.0000 0.1367 0.1367 -0.1367 0.1367 -0.1367 -0.1367 -0.1367 -0.1367 0.1367 0.0000 0.0000 0.1367 0.1367 -0.1367 0.0000 0.0000 -0.1367 0.0000 0.0000 0.1367 -0.1367 0.1367 -0.1367 0.1367 0.1367 -0.1367 -0.1367 0.0000 0.1367 0.1367 0.1367 0.0000 0.1367 -0.1367 0.0000 -0.1367 0.0000 0.1367 -0.1367 -0.1367 -0.1367 -0.1367 -0.1367 0.0000 -0.1367 0.1367 0.1367 0.1367 0.1367 -0.1367 0.1367 -0.1367 0.0000 0.0000 -0.1367 -0.1367 0.1367 0.1367 0.0000 0.1367 0.0000 0.1367 0.1367 0.0000 0.0000 -0.1367 0.1367 -0.1367 0.1367 0.0000 0.1367 -0.1367 0.1367 -0.1367 0.0000 0.1367 0.0000 0.0000 -0.1367 0.1367 0.1367 0.0000 0.1367 -0.1367 -0.1367 0.1367 0.0000 -0.1367 0.1367 0.0000 -0.1367 -0.1367 -0.1367 0.1367 0.1367 0.0000 -0.1367 0.1367 0.0000 0.1367 0.1367 -0.1367 -0.1367 -0.1367 -0.1367 -0.1367 -0.1367 0.0000 -0.1367 0.0000 0.1367 -0.1367 0.0000 0.1367 0.0000 0.1367 0.1367 0.1367 0.1367 -0.1367 0.1367 -0.1367 0.0000 -0.1367 0.1367 0.0000 0.1367 -0.1367 0.1367 -0.1367 0.1367 0.0000 0.0000 0.0000 0.1367 0.0000 0.1367 0.0000 0.1367 -0.1367 0.1367 0.1367 -0.1367 0.1367 0.0000 -0.1367 0.0000 -0.1367 0.1367 0.0000 -0.1367 -0.1367 0.1367 0.0000 0.1367 0.1367 0.1367 0.0000 0.0000 0.1367 0.1367 -0.1367 0.1367 -0.1367 0.1367 0.0000 0.0000 -0.1367 0.0000 0.0000 0.1367 0.0000 0.1367 0.1367 -0.1367 -0.1367 0.1367 -0.1367 0.1367 0.0000 -0.1367 -0.1367 -0.1367 0.1367 0.0000 0.0000 -0.1367 0.1367 0.0000 -0.1367 -0.1367 0.0000 -0.1367 -0.1367 0.1367 -0.1367 0.1367 0.0000 0.0000 0.0000 0.0000 -0.1367 0.0000 0.0000 0.1367 0.0000 0.1367 -0.1367 0.1367 0.1367 0.1367 0.1367 0.0000 0.1367 0.1367 0.0000 0.1367 0.0000 0.0000 0.0000 0.1367 -0.1367 -0.1367 0.1367 0.1367 0.1367 0.0000 -0.1367 -0.1367 0.0000 0.1367 -0.1367 -0.1367 0.0000 0.1367 0.1367 -0.1367 0.1367 0.0000 0.0000 0.1367 -0.1367 -0.1367 0.0000 0.1367 0.0000 0.1367 -0.1367 -0.1367 0.1367 0.0000 0.1367 -0.1367 -0.1367 -0.1367 0.1367 -0.1367 -0.1367 0.1367 0.0000 -0.1367 0.0000 -0.1367 0.0000 0.0000 -0.1367 0.0000 -0.1367 -0.1367 -0.1367 -0.1367 -0.1367 0.0000 0.1367 0.1367 0.0000 -0.1367 -0.1367 0.1367 0.0000 -0.1367 0.0000 -0.1367 -0.1367 0.1367 -0.1367 -0.1367 0.1367 0.1367 -0.1367 -0.1367 -0.1367 -0.1367 0.0000 0.1367 0.0000 0.0000 -0.1367 -0.1367 0.1367 0.0000 0.0000 -0.1367 -0.1367 0.1367 -0.1367 -0.1367 0.0000 0.0000 -0.1367 0.1367 0.0000 -0.1367 -0.1367 -0.1367 0.1367 -0.1367 -0.1367 -0.1367 0.0000 -0.1367 -0.1367 -0.1367 -0.1367 -0.1367 0.1367 -0.1367 -0.1367 0.1367 0.1367 0.0000 0.1367 0.0000 0.0000 -0.1367 -0.1367 0.1367 -0.1367 0.1367 0.0000 -0.1367 -0.1367 -0.1367 -0.1367 -0.1367 -0.1367 -0.1367 -0.1367 -0.1367 0.0000 0.0000 0.0000 0.1367 0.0000 0.1367 -0.1367 0.0000 0.0000 0.1367 -0.1367 -0.1367 -0.1367 -0.1367 0.1367 0.1367 0.0000 0.1367 0.1367 -0.1367 -0.1367 0.1367 -0.1367 0.0000 0.0000 0.1367 0.1367 -0.1367 -0.1367 0.1367 0.0000 0.0000 -0.1367 0.1367 0.1367 0.1367 0.1367 0.1367 -0.1367 0.1367 -0.1367 -0.1367 -0.1367 -0.1367 -0.1367 -0.1367 0.0000 0.0000 0.1367 0.0000 0.1367 0.1367 0.1367 0.0000 0.0000 0.1367 0.1367 -0.1367 0.0000 0.0000 0.0000 0.0000 -0.1367 0.1367 -0.1367 -0.1367 0.1367 -0.1367 -0.1367 0.0000 0.1367 0.1367 0.0000 0.1367 0.1367 -0.1367 0.1367 0.1367 0.0000 -0.1367 0.0000 -0.1367 0.1367 0.1367 -0.1367 -0.1367 0.1367 0.0000 0.0000 0.1367 0.0000 0.1367 -0.1367 0.0000 0.1367 0.1367 0.0000 -0.1367 0.0000 0.1367 0.1367 -0.1367 0.1367 0.1367 0.1367 0.0000 0.1367 0.1367 -0.1367 -0.1367 0.1367 0.0000 0.1367 0.1367 -0.1367 0.1367 0.1367 0.1367 -0.1367 0.0000 0.1367 -0.1367 0.0000 0.1367 0.0000 -0.1367 -0.1367 0.1367 -0.1367 0.0000 0.1367 -0.1367 0.0000 0.0000 -0.1367 0.0000 0.0000 -0.1367 0.0000 -0.1367 0.0000 -0.1367 0.1367 0.0000 -0.1367 0.0000 0.0000 0.1367 -0.1367 0.0000 0.1367 0.0000 -0.1367 0.1367 0.1367 -0.1367 -0.1367 -0.1367 0.0000 0.1367 0.1367 0.1367 -0.1367 0.1367 0.0000 0.1367 0.1367 0.1367 0.0000 -0.1367 0.1367 -0.1367 -0.1367 0.0000 0.1367 0.1367 0.1367 -0.1367 -0.1367 -0.1367 0.1367 -0.1367 0.1367 0.1367 0.1367 -0.1367 0.1367 0.1367 0.1367 0.0000 -0.1367 0.0000 -0.1367 0.0000 0.0000 0.1367 0.1367 0.1367 0.0000 0.1367 -0.1367 -0.1367 0.1367 0.0000 0.0000 0.1367 -0.1367 0.0000 0.0000 0.1367 -0.1367 0.1367 0.1367 0.1367 -0.1367 -0.1367 -0.1367 -0.1367 0.1367 0.0000 -0.1367 -0.1367 -0.1367 0.0000 -0.1367 -0.1367 -0.1367 0.1367 -0.1367 0.1367 0.1367 -0.1367 0.1367 -0.1367 0.1367 -0.1367 0.0000 0.0000 0.0000 -0.1367 0.0000 -0.1367 -0.1367 0.1367 0.0000 -0.1367 -0.1367 0.1367 0.1367 -0.1367 0.0000 -0.1367 0.1367 0.1367 -0.1367 0.1367 0.0000 0.1367 0.0000 0.1367 0.1367 -0.1367 0.1367 0.1367 -0.1367 -0.1367 0.1367 0.0000 0.1367 -0.1367 -0.1367 0.1367 -0.1367 0.0000 -0.1367 0.0000 0.1367 -0.1367 0.0000 0.1367 0.0000 0.1367 0.1367 0.0000 0.1367 0.1367 0.1367 0.0000 -0.1367 -0.1367 -0.1367 -0.1367 -0.1367 -0.1367 0.0000 -0.1367 -0.1367 0.1367 0.0000 0.1367 -0.1367 0.1367 0.1367 0.0000 0.1367 -0.1367 0.0000 0.0000 -0.1367 0.0000 -0.1367 0.1367 0.1367 0.0000 -0.1367 0.1367 -0.1367 0.0000 0.0000 -0.1367 -0.1367 0.0000 0.1367 0.1367 -0.1367 -0.1367 0.0000 0.1367 -0.1367 0.0000 -0.1367 0.1367 0.0000 0.1367 -0.1367 -0.1367 0.1367 -0.1367 0.0000 0.1367 0.1367 -0.1367 0.0000 0.1367 0.0000 -0.1367 0.1367 0.0000 0.0000 0.0000 0.1367 0.1367 0.0000 0.1367 0.1367 -0.1367 0.1367 -0.1367 0.1367 -0.1367 0.1367 0.0000 0.1367 0.1367 -0.1367 -0.1367 0.1367 0.1367 0.1367 0.0000 0.0000 -0.1367 0.1367 0.1367 -0.1367 -0.1367 0.1367 0.0000 -0.1367 -0.1367 0.0000 0.1367 0.1367 0.0000 0.0000 0.1367 0.1367 0.0000 0.1367 -0.1367 0.1367 0.1367 -0.1367 -0.1367 0.1367 -0.1367 -0.1367 0.0000 0.1367 0.0000 -0.1367 -0.1367 -0.1367 0.1367 0.0000 0.1367 0.0000 0.1367 0.0000 0.0000 0.1367 -0.1367 -0.1367 0.1367 -0.1367 0.0000 0.1367 -0.1367 -0.1367 0.1367 0.1367 0.0000 0.1367 -0.1367 0.1367 -0.1367 0.1367 -0.1367 -0.1367 0.1367 0.0000 0.1367 0.0000 0.0000 0.1367 0.1367 0.0000 -0.1367 0.0000 0.0000 -0.1367 -0.1367 0.1367 0.1367 -0.1367 -0.1367 -0.1367 0.0000 0.1367 0.1367 0.1367 0.1367 -0.1367 0.1367 0.1367 -0.1367 0.0000 -0.1367 -0.1367 -0.1367 -0.1367 0.0000 0.1367 0.1367 0.0000 0.1367 0.1367 -0.1367 0.0000 0.1367 0.1367 0.0000 -0.1367 0.1367 0.1367 -0.1367 0.1367 0.0000 0.0000 0.1367 -0.1367 -0.1367 0.1367 0.1367 0.0000 0.0000 -0.1367 0.0000 0.1367 0.0000 0.1367 0.0000 0.1367 -0.1367 0.1367 -0.1367 -0.1367 -0.1367 -0.1367 0.1367 0.1367 -0.1367 -0.1367 0.0000 -0.1367 0.1367 0.1367 0.1367 0.1367 0.1367 0.1367 0.1367 -0.1367 0.0000 0.1367 0.0000 0.1367 0.1367 0.0000 0.1367 -0.1367 0.1367 0.0000 0.1367 0.1367 -0.1367 0.0000 0.0000 -0.1367 0.1367 -0.1367 0.1367 -0.1367 0.0000 0.0000 0.1367 -0.1367 0.1367 0.1367 -0.1367 -0.1367 0.1367 0.0000 0.1367 -0.1367 -0.1367 0.0000 0.0000 -0.1367 -0.1367 0.1367 0.0000 -0.1367 0.1367 0.1367 -0.1367 0.0000 0.1367 0.1367 -0.1367 0.1367 0.1367 0.0000 0.0000 0.1367 0.1367 -0.1367 0.1367 0.0000 -0.1367 -0.1367 0.1367 0.1367 0.1367 0.0000 0.1367 0.1367 -0.1367 0.1367 -0.1367 -0.1367 0.1367 0.1367 0.0000 0.1367 0.0000 0.1367 0.1367 0.1367 0.1367 -0.1367 -0.1367 0.0000 -0.1367 -0.1367 0.1367 -0.1367 -0.1367 0.0000 0.1367 0.0000 0.1367 -0.1367 0.0000 0.1367 0.1367 0.1367 0.0000 -0.1367 -0.1367 -0.1367 0.1367 0.1367 0.1367 0.1367 -0.1367 -0.1367 0.0000 -0.1367 0.1367 -0.1367 -0.1367 -0.1367 0.1367 0.0000 0.0000 -0.1367 0.1367 0.0000 -0.1367 0.0000 -0.1367 0.0000 -0.1367 0.0000 -0.1367 -0.1367 -0.1367 0.0000 -0.1367 -0.1367 0.0000 0.0000 0.1367 0.1367 0.0000 0.0000 0.1367 0.1367 0.0000 -0.1367 -0.1367 0.1367 0.0000 0.1367 0.1367 -0.1367 -0.1367 0.0000 0.0000 0.0000 -0.1367 -0.1367 0.1367 0.0000 0.1367 -0.1367 0.1367 0.1367 -0.1367 -0.1367 0.0000 -0.1367 0.1367 0.1367 0.0000 0.1367 -0.1367 0.1367 0.0000 0.0000 0.0000 0.0000 0.1367 -0.1367 0.0000 0.0000 -0.1367 0.0000 0.1367 -0.1367 0.1367 0.0000 0.1367 0.1367 0.1367 -0.1367 0.1367 -0.1367 0.1367 -0.1367 -0.1367 0.0000 0.1367 0.1367 0.0000 -0.1367 0.0000 0.1367 0.0000 0.0000 0.0000 0.1367 -0.1367 0.1367 -0.1367 0.1367 -0.1367 0.1367 -0.1367 0.1367 -0.1367 -0.1367 0.1367 0.0000 -0.1367 -0.1367 0.1367 0.0000 -0.1367 0.0000 0.1367 -0.1367 0.1367 0.0000 -0.1367 0.0000 0.1367 -0.1367 -0.1367 0.0000 -0.1367 0.0000 0.1367 -0.1367 0.1367 0.1367 -0.1367 -0.1367 0.1367 -0.1367 0.0000 0.1367 0.1367 0.1367 0.1367 -0.1367 0.1367 0.0000 0.0000 -0.1367 -0.1367 0.1367 0.0000 0.0000 -0.1367 0.1367 0.1367 0.1367 0.1367 0.1367 0.1367 0.1367 0.1367 -0.1367 0.1367 0.0000 -0.1367 0.0000 -0.1367 -0.1367 0.0000 0.0000 -0.1367 -0.1367 0.0000 0.0000 0.1367 0.1367 -0.1367 0.1367 0.0000 -0.1367 0.1367 -0.1367 -0.1367 0.0000 -0.1367 0.0000 -0.1367 -0.1367 -0.1367 -0.1367 -0.1367 0.1367 0.1367 -0.1367 0.0000 -0.1367 -0.1367 -0.1367 -0.1367 -0.1367 0.1367 -0.1367 0.1367 -0.1367 -0.1367 0.1367 -0.1367 -0.1367 0.1367 0.0000 -0.1367 -0.1367 0.0000 0.0000 -0.1367 -0.1367 0.0000 0.1367 0.1367 0.1367 0.0000 0.0000 -0.1367 0.0000 0.1367 -0.1367 -0.1367 0.0000 -0.1367 0.1367 0.1367 -0.1367 0.0000 -0.1367 0.1367 0.1367 0.1367 0.1367 0.1367 -0.1367 -0.1367 0.0000 -0.1367 0.0000 -0.1367 0.0000 0.1367 0.0000 0.0000 0.0000 0.1367 0.1367 0.1367 0.0000 0.0000 -0.1367 -0.1367 -0.1367 0.0000 0.0000 0.0000 0.1367 -0.1367 -0.1367 0.0000 0.1367 0.1367 0.1367 0.0000 0.1367 -0.1367 -0.1367 0.0000 -0.1367 0.0000 0.1367 -0.1367 -0.1367 -0.1367 0.1367 0.1367 0.1367 -0.1367 0.0000 0.0000 0.1367 0.1367 -0.1367 0.1367 -0.1367 -0.1367 -0.1367 0.0000 -0.1367 -0.1367 0.0000 0.0000 0.0000 -0.1367 0.0000 0.0000 -0.1367 0.1367 0.0000 0.0000 0.0000 0.1367 0.0000 -0.1367 0.0000 0.1367 -0.1367 0.1367 0.1367 -0.1367 -0.1367 -0.1367 0.1367 -0.1367 0.0000 -0.1367 -0.1367 -0.1367 -0.1367 0.1367 -0.1367 0.1367 -0.1367 0.0000 -0.1367 0.1367 0.1367 -0.1367 0.1367 0.0000 0.1367 -0.1367 0.0000 0.1367 -0.1367 -0.1367 0.1367 0.1367 -0.1367 -0.1367 -0.1367 -0.1367 0.0000 -0.1367 -0.1367 0.1367 0.0000 -0.1367 0.0000 0.0000 0.1367 0.1367 -0.1367 0.1367 -0.1367 0.1367 0.1367 -0.1367 -0.1367 0.0000 0.1367 0.1367 0.1367 0.0000 0.1367 -0.1367 0.1367 0.1367 -0.1367 -0.1367 0.1367 0.1367 0.1367 0.0000 -0.1367 0.0000 -0.1367 0.1367 -0.1367 0.0000 0.1367 0.1367 0.1367 0.0000 0.0000 -0.1367 0.0000 0.0000 0.1367 -0.1367 -0.1367 -0.1367 0.0000 -0.1367 -0.1367 -0.1367 -0.1367 -0.1367 0.0000 -0.1367 -0.1367 -0.1367 0.0000 0.1367 0.0000 -0.1367 -0.1367 0.1367 -0.1367 0.1367 -0.1367 -0.1367 0.0000 0.0000 -0.1367 0.0000 0.0000 -0.1367 -0.1367 0.1367 -0.1367 -0.1367 -0.1367 0.0000 -0.1367 0.0000 0.0000 -0.1367 0.1367 -0.1367 -0.1367 0.1367 0.1367 0.1367 0.1367 0.0000 0.0000 0.1367 0.0000 -0.1367 0.0000 0.1367 -0.1367 0.0000 0.0000 0.0000 0.1367 0.0000 0.1367 0.1367 -0.1367 0.1367 -0.1367 -0.1367 -0.1367 -0.1367 0.1367 -0.1367 0.1367 0.1367 0.0000 0.0000 0.1367 0.1367 -0.1367 -0.1367 0.0000 0.1367 0.1367 0.0000 0.0000 -0.1367 0.1367 -0.1367 -0.1367 0.0000 -0.1367 -0.1367 -0.1367 -0.1367 -0.1367 -0.1367 0.0000 0.1367 -0.1367 -0.1367 -0.1367 -0.1367 0.0000 -0.1367 -0.1367 -0.1367 -0.1367 0.0000 -0.1367 0.0000 -0.1367 0.1367 0.1367 0.1367 -0.1367 -0.1367 -0.1367 0.1367 0.1367 -0.1367 -0.1367 0.0000 -0.1367 0.1367 -0.1367 0.0000 0.0000 0.0000 0.0000 -0.1367 0.0000 -0.1367 0.1367 -0.1367 0.1367 -0.1367 -0.1367 -0.1367 -0.1367 -0.1367 -0.1367 0.1367 -0.1367 0.1367 -0.1367 -0.1367 0.0000 -0.1367 0.0000 0.0000 -0.1367 0.1367 -0.1367 0.0000 -0.1367 0.0000 0.1367 0.1367 0.1367 -0.1367 0.0000 0.0000 0.1367 -0.1367 -0.1367 -0.1367 -0.1367 -0.1367 -0.1367 -0.1367 0.1367 0.0000 0.1367 0.1367 0.0000 0.1367 0.0000 0.1367 0.0000 -0.1367 -0.1367 0.0000 0.1367 -0.1367 -0.1367 0.1367 0.0000 0.0000 -0.1367 0.0000 0.0000 0.1367 -0.1367 -0.1367 0.0000 0.0000 -0.1367 0.1367 0.1367 0.1367 -0.1367 0.1367 -0.1367 0.1367 -0.1367 0.0000 0.1367 0.1367 -0.1367 -0.1367 -0.1367 0.1367 0.0000 0.1367 -0.1367 0.0000 0.1367 0.1367 0.0000 -0.1367 0.1367 0.1367 0.1367 0.1367 -0.1367 -0.1367 0.1367 0.0000 -0.1367 -0.1367 0.1367 -0.1367 0.1367 0.1367 0.0000 0.1367 -0.1367 0.0000 0.1367 0.1367 -0.1367 -0.1367 0.1367 -0.1367 0.0000 -0.1367 0.0000 0.0000 -0.1367 0.1367 0.0000 0.1367 0.1367 -0.1367 -0.1367 0.1367 -0.1367 0.1367 -0.1367 0.1367 0.0000 0.1367 0.0000 0.1367 0.1367 0.1367 0.1367 0.1367 0.1367 0.0000 0.0000 -0.1367 -0.1367 0.1367 0.0000 0.1367 0.0000 -0.1367 -0.1367 0.1367 0.1367 -0.1367 0.1367 0.1367 0.0000 -0.1367 0.0000 0.0000 -0.1367 0.1367 -0.1367 0.1367 0.1367 0.1367 -0.1367 0.1367 0.1367 0.0000 0.1367 0.1367 -0.1367 0.0000 -0.1367 -0.1367 -0.1367 -0.1367 -0.1367 -0.1367 0.0000 0.1367 0.1367 -0.1367 0.0000 -0.1367 0.0000 -0.1367 0.0000 0.0000 0.0000 0.1367 -0.1367 0.1367 -0.1367 0.0000 0.0000 -0.1367 0.1367 0.1367 0.0000 0.1367 0.1367 0.0000 -0.1367 0.1367 0.0000 0.0000 0.1367 0.1367 0.1367 0.0000 -0.1367 -0.1367 0.0000 0.0000 0.1367 0.0000 0.0000 -0.1367 -0.1367 0.0000 -0.1367 0.0000 0.1367 0.1367 -0.1367 0.1367 0.0000 -0.1367 -0.1367 -0.1367 0.1367 -0.1367 -0.1367 -0.1367 -0.1367 -0.1367 0.1367 0.0000 0.1367 -0.1367 -0.1367 0.1367 0.1367 0.0000 0.0000 0.0000 0.1367 0.0000 0.0000 -0.1367 0.0000 0.0000 0.1367 -0.1367 0.1367 -0.1367 -0.1367 -0.1367 0.1367 0.1367 -0.1367 -0.1367 0.1367 0.1367 -0.1367 0.0000 0.0000 -0.1367 0.0000 0.0000 0.0000 0.1367 -0.1367 0.0000 -0.1367 -0.1367 0.0000 -0.1367 -0.1367 0.1367 0.1367 -0.1367 -0.1367 0.1367 -0.1367 0.1367 0.1367 0.0000 0.1367 -0.1367 -0.1367 0.1367 0.1367 0.0000 0.1367 0.0000 -0.1367 -0.1367 0.1367 0.0000 -0.1367 -0.1367 -0.1367 0.0000 0.1367 -0.1367 0.0000 -0.1367 -0.1367 0.1367 0.1367 -0.1367 0.0000 0.0000 -0.1367 -0.1367 0.1367 0.0000 -0.1367 -0.1367 0.0000 -0.1367 -0.1367 -0.1367 -0.1367 0.0000 0.1367 0.0000 -0.1367 0.0000 0.1367 -0.1367 0.1367 0.0000 -0.1367 -0.1367 0.1367 -0.1367 -0.1367 0.1367 -0.1367 0.1367 0.0000 0.0000 0.0000 0.1367 0.1367 -0.1367 0.1367 0.0000 0.1367 0.0000 0.1367 0.1367 0.0000 0.1367 -0.1367 -0.1367 0.1367 0.1367 0.1367 0.1367 0.1367 -0.1367 0.0000 0.0000 0.0000 0.0000 -0.1367 0.0000 -0.1367 -0.1367 -0.1367 0.0000 0.1367 0.0000 0.1367 -0.1367 0.1367 0.1367 -0.1367 0.1367 0.1367 0.0000 0.1367 0.0000 -0.1367 -0.1367 -0.1367 0.0000 0.1367 0.0000 0.1367 0.1367 0.0000 0.0000 -0.1367 -0.1367 0.1367 0.0000 0.1367 0.1367 0.0000 -0.1367 -0.1367 -0.1367 0.1367 -0.1367 0.0000 0.0000 0.0000 0.1367 0.1367 -0.1367 -0.1367 -0.1367 0.0000 0.1367 0.1367 0.1367 -0.1367 0.1367 0.1367 0.0000 -0.1367 0.0000 0.0000 0.0000 0.1367 -0.1367 -0.1367 0.1367 -0.1367 0.1367 0.1367 0.1367 0.1367 0.1367 0.1367 0.0000 -0.1367 0.1367 -0.1367 -0.1367 0.0000 0.0000 0.1367 0.0000 -0.1367 0.0000 0.1367 -0.1367 0.0000 -0.1367 0.0000 -0.1367 0.1367 -0.1367 0.0000 0.1367 -0.1367 0.0000 0.1367 0.1367 0.0000 0.0000 0.0000 0.1367 0.0000 0.0000 -0.1367 -0.1367 -0.1367 0.0000 -0.1367 0.0000 -0.1367 0.1367 0.1367 -0.1367 -0.1367 0.1367 0.1367 0.1367 0.0000 0.1367 -0.1367 0.0000 -0.1367 -0.1367 0.0000 0.1367 -0.1367 0.1367 -0.1367 -0.1367 -0.1367 0.0000 0.0000 0.0000 -0.1367 0.1367 0.0000 0.1367 -0.1367 -0.1367 -0.1367 0.1367 -0.1367 0.0000 0.1367 0.1367 0.0000 0.0000 0.0000 0.0000 0.0000 0.1367 0.1367 0.1367 -0.1367 0.1367 -0.1367 -0.1367 -0.1367 -0.1367 -0.1367 0.1367 0.1367 -0.1367 -0.1367 0.0000 -0.1367 0.1367 0.1367 -0.1367 0.0000 0.1367 -0.1367 0.1367 0.0000 -0.1367 0.1367 0.1367 0.1367 -0.1367 -0.1367 -0.1367 0.1367 -0.1367 0.0000 0.1367 0.1367 0.1367 -0.1367 -0.1367 0.1367 0.1367 0.1367 0.0000 -0.1367 0.1367 0.1367 0.1367 0.0000 -0.1367 0.1367 -0.1367 0.1367 -0.1367 0.1367 0.1367 0.1367 0.1367 -0.1367 0.0000 0.0000 0.1367 0.1367 0.0000 0.0000 -0.1367 0.1367 0.1367 0.0000 -0.1367 0.1367 0.1367 0.0000 -0.1367 0.1367 0.0000 0.1367 -0.1367 -0.1367 0.1367 0.0000 0.0000 0.1367 0.1367 0.0000 0.1367 0.1367 0.0000 0.1367 0.0000 0.1367 0.0000 0.1367 0.1367 0.1367 0.1367 0.1367 0.0000 -0.1367 0.1367 0.0000 0.1367 0.0000 0.1367 -0.1367 0.0000 0.1367 0.0000 0.0000 0.1367 0.1367 0.0000 -0.1367 -0.1367 0.1367 -0.1367 0.1367 0.1367 0.1367 0.0000 0.0000 -0.1367 0.1367 0.1367 0.1367 0.1367 0.1367 0.1367 -0.1367 0.1367 0.0000 -0.1367 0.1367 0.1367 0.1367 -0.1367 0.1367 0.0000 0.1367 0.1367 0.1367 0.1367 -0.1367 -0.1367 -0.1367 0.0000 0.0000 0.0000 0.0000 -0.1367 -0.1367 -0.1367 -0.1367 -0.1367 -0.1367 0.1367 0.0000 0.0000 0.0000 0.0000 -0.1367 0.1367 0.1367 0.1367 0.1367 -0.1367 -0.1367 0.0000 0.1367 -0.1367 -0.1367 0.0000 -0.1367 0.1367 0.0000 0.0000 -0.1367 0.1367 -0.1367 -0.1367 -0.1367 0.0000 0.1367 -0.1367 0.1367 0.1367 -0.1367 0.1367 0.1367 0.1367 -0.1367 -0.1367 0.1367 0.1367 0.0000 -0.1367 0.1367 -0.1367 -0.1367 0.0000 -0.1367 0.0000 0.1367 0.1367 0.0000 0.1367 -0.1367 0.1367 0.1367 0.0000 0.1367 0.1367 -0.1367 -0.1367 0.0000 0.1367 0.0000 0.0000 0.0000 0.0000 0.1367 0.0000 -0.1367 0.0000 -0.1367 0.1367 -0.1367 0.0000 0.0000 0.1367 -0.1367 0.1367 0.0000 0.0000 -0.1367 0.1367 0.0000 0.1367 0.1367 0.1367 -0.1367 -0.1367 0.1367 -0.1367 0.1367 -0.1367 0.1367 -0.1367 0.1367 0.0000 0.1367 0.1367 0.0000 0.0000 0.1367 0.1367 -0.1367 -0.1367 -0.1367 0.1367 0.0000 0.1367 -0.1367 -0.1367 0.0000 0.1367 -0.1367 -0.1367 0.1367 0.1367 0.1367 0.1367 0.0000 0.1367 0.0000 0.1367 0.1367 -0.1367 -0.1367 0.0000 0.0000 0.0000 0.0000 0.1367 0.1367 0.1367 0.1367 0.0000 -0.1367 -0.1367 -0.1367 0.1367 0.1367 0.1367 0.0000 0.1367 -0.1367 0.1367 -0.1367 0.0000 -0.1367 0.0000 0.0000 0.1367 -0.1367 -0.1367 -0.1367 0.1367 0.0000 0.1367 0.1367 -0.1367 0.0000 -0.1367 0.1367 0.1367 -0.1367 0.0000 0.0000 0.0000 0.1367 0.1367 0.1367 0.0000 -0.1367 0.1367 0.1367 -0.1367 0.0000 0.0000 0.0000 -0.1367 0.1367 0.1367 0.1367 0.0000 -0.1367 0.1367 0.0000 0.0000 0.1367 0.0000 -0.1367 0.0000 0.1367 0.1367 0.0000 0.1367 0.0000 -0.1367 0.1367 0.0000 0.1367 -0.1367 0.1367 0.0000 0.1367 0.1367 -0.1367 -0.1367 0.1367 -0.1367 0.0000 0.0000 -0.1367 -0.1367 0.0000 -0.1367 0.0000 -0.1367 -0.1367 0.0000 -0.1367 -0.1367 -0.1367 -0.1367 -0.1367 0.1367 -0.1367 0.1367 -0.1367 -0.1367 0.1367 0.1367 0.1367 -0.1367 0.0000 0.1367 0.0000 -0.1367 -0.1367 0.0000 0.0000 0.1367 0.1367 0.0000 -0.1367 0.1367 0.1367 0.1367 0.0000 0.1367 0.1367 0.0000 0.0000 -0.1367 0.0000 -0.1367 0.0000 -0.1367 0.0000 0.1367 -0.1367 0.1367 0.1367 0.1367 0.1367 -0.1367 0.1367 0.1367 -0.1367 0.1367 0.0000 0.0000 0.1367 0.0000 0.1367 0.1367 0.0000 0.0000 -0.1367 0.1367 0.1367 0.1367 -0.1367 -0.1367 0.0000 0.1367 0.0000 0.0000 -0.1367 0.1367 0.1367 0.1367 0.1367 0.0000 -0.1367 0.0000 -0.1367 0.1367 0.1367 -0.1367 0.0000 0.1367 -0.1367 -0.1367 0.0000 0.1367 -0.1367 -0.1367 0.0000 0.0000 -0.1367 -0.1367 -0.1367 0.0000 0.1367 -0.1367 0.0000 0.1367 0.1367 0.1367 0.1367 0.0000 -0.1367 -0.1367 0.0000 0.0000 0.1367 -0.1367 0.0000 -0.1367 0.1367 0.1367 0.0000 -0.1367 0.1367 -0.1367 0.1367 0.1367 0.1367 0.0000 0.1367 0.1367 0.1367 0.0000 0.0000 0.0000 -0.1367 0.1367 -0.1367 0.0000 -0.1367 0.0000 -0.1367 0.0000 0.0000 0.0000 0.1367 0.0000 0.1367 0.0000 0.1367 -0.1367 -0.1367 0.1367 0.0000 0.1367 0.1367 -0.1367 -0.1367 0.1367 0.1367 0.1367 0.1367 -0.1367 -0.1367 0.0000 -0.1367 0.1367 -0.1367 -0.1367 0.1367 0.0000 0.0000 -0.1367 0.0000 0.1367 0.0000 -0.1367 -0.1367 -0.1367 -0.1367 -0.1367 0.0000 -0.1367 0.0000 0.1367 0.1367 0.1367 0.1367 0.0000 0.1367 0.1367 0.0000 0.0000 0.1367 0.0000 0.1367 -0.1367 -0.1367 0.0000 0.1367 0.1367 0.1367 0.0000 0.1367 0.0000 0.0000 0.1367 0.0000 -0.1367 -0.1367 0.1367 0.1367 0.0000 0.1367 0.1367 -0.1367 0.0000 0.1367 0.0000 -0.1367 0.0000 -0.1367 -0.1367 -0.1367 0.1367 0.1367 -0.1367 0.1367 -0.1367 -0.1367 0.0000 0.1367 0.0000 0.0000 0.0000 0.1367 -0.1367 0.1367 -0.1367 -0.1367 -0.1367 0.1367 0.0000 0.0000 -0.1367 -0.1367 -0.1367 0.1367 -0.1367 0.1367 -0.1367 0.1367 -0.1367 0.0000 0.0000 0.1367 -0.1367 0.0000 0.1367 0.1367 0.0000 0.1367 0.1367 0.1367 0.0000 0.0000 -0.1367 0.1367 0.0000 0.1367 0.1367 0.0000 0.0000 -0.1367 0.0000 0.1367 0.0000 0.0000 0.0000 -0.1367 0.1367 -0.1367 -0.1367 0.1367 0.1367 -0.1367 -0.1367 -0.1367 -0.1367 0.0000 0.0000 0.1367 0.0000 0.1367 -0.1367 0.1367 -0.1367 0.1367 0.1367 0.1367 -0.1367 0.1367 -0.1367 0.0000 0.0000 0.1367 0.0000 0.0000 0.0000 -0.1367 0.1367 0.1367 0.0000 0.0000 -0.1367 0.0000 0.0000 0.1367 0.0000 0.1367 -0.1367 -0.1367 0.0000 -0.1367 -0.1367 0.0000 0.0000 0.1367 -0.1367 -0.1367 0.1367 -0.1367 0.1367 -0.1367 0.0000 0.1367 0.0000 0.0000 0.1367 0.0000 0.1367 0.0000 0.0000 -0.1367 -0.1367 -0.1367 -0.1367 -0.1367 0.1367 0.1367 0.1367 0.0000 0.1367 -0.1367 0.0000 0.0000 0.1367 0.1367 -0.1367 -0.1367 0.0000 -0.1367 0.1367 0.1367 0.0000 -0.1367 0.0000 0.1367 -0.1367 0.0000 -0.1367 0.1367 -0.1367 0.1367 0.0000 0.1367 0.0000 0.1367 0.0000 0.0000 0.0000 -0.1367 0.0000 0.1367 0.1367 -0.1367 -0.1367 -0.1367 0.0000 0.1367 0.1367 0.0000 -0.1367 0.1367 0.0000 0.0000 0.1367 0.0000 -0.1367 0.1367 0.0000 0.1367 0.1367 -0.1367 0.0000 -0.1367 0.0000 -0.1367 0.0000 -0.1367 -0.1367 -0.1367 0.0000 0.0000 0.1367 0.0000 -0.1367 0.0000 0.0000 -0.1367 -0.1367 0.0000 -0.1367 -0.1367 -0.1367 -0.1367 -0.1367 0.0000 0.1367 0.1367 -0.1367 0.0000 -0.1367 0.0000 0.1367 0.1367 0.1367 0.0000 0.0000 -0.1367 0.0000 -0.1367 0.1367 0.1367 0.0000 -0.1367 0.0000 0.0000 0.0000 0.0000 0.1367 0.1367 0.1367 -0.1367 0.1367 0.0000 -0.1367 -0.1367 0.0000 0.1367 -0.1367 0.1367 -0.1367 -0.1367 -0.1367 0.1367 0.1367 0.1367 0.1367 0.1367 0.0000 0.0000 0.1367 -0.1367 -0.1367 0.0000 -0.1367 -0.1367 -0.1367 0.1367 -0.1367 0.1367 0.0000 0.1367 0.0000 0.0000 0.0000 -0.1367 0.1367 -0.1367 -0.1367 -0.1367 -0.1367 0.0000 -0.1367 0.1367 -0.1367 0.0000 -0.1367 0.1367 -0.1367 -0.1367 0.0000 0.0000 0.0000 -0.1367 0.0000 0.0000 0.1367 -0.1367 -0.1367 -0.1367 0.0000 0.0000 -0.1367 -0.1367 -0.1367 -0.1367 0.0000 -0.1367 0.0000 -0.1367 0.0000 -0.1367 -0.1367 0.0000 0.0000 -0.1367 0.0000 -0.1367 -0.1367 0.0000 0.0000 0.1367 0.1367 0.0000 0.1367 0.0000 0.1367 0.1367 -0.1367 -0.1367 -0.1367 0.0000 -0.1367 0.1367 -0.1367 0.0000 0.1367 0.1367 0.1367 -0.1367 0.1367 -0.1367 -0.1367 0.1367 -0.1367 0.0000 -0.1367 0.0000 -0.1367 0.1367 0.1367 -0.1367 0.1367 0.1367 0.1367 -0.1367 0.1367 0.1367 -0.1367 0.0000 0.1367 0.0000 -0.1367 0.0000 0.1367 0.1367 -0.1367 -0.1367 0.0000 0.1367 0.1367 0.0000 0.1367 0.1367 0.1367 0.1367 0.1367 0.0000 0.0000 0.0000 0.0000 0.1367 -0.1367 -0.1367 0.1367 0.1367 0.1367 -0.1367 0.1367 -0.1367 0.1367 0.1367 -0.1367 -0.1367 -0.1367 0.0000 0.1367 0.1367 0.1367 0.1367 0.1367 0.1367 0.0000 -0.1367 0.0000 -0.1367 0.1367 -0.1367 0.0000 -0.1367 0.1367 0.0000 0.0000 -0.1367 0.0000 0.0000 0.0000 0.0000 0.1367 0.0000 0.1367 -0.1367 -0.1367 -0.1367 0.1367 0.1367 0.1367 0.1367 0.1367 0.0000 -0.1367 -0.1367 0.0000 0.1367 0.0000 0.0000 0.1367 0.0000 -0.1367 0.1367 0.1367 0.1367 -0.1367 -0.1367 0.1367 0.0000 -0.1367 0.1367 0.0000 0.1367 0.0000 0.1367 0.1367 0.0000 -0.1367 0.1367 0.1367 -0.1367 0.0000 0.1367 0.1367 0.0000 -0.1367 0.1367 0.1367 0.0000 0.1367 0.0000 0.0000 0.0000 0.1367 -0.1367 0.1367 0.0000 0.1367 0.0000 0.1367 0.0000 0.0000 0.1367 0.0000 0.1367 -0.1367 0.0000 0.0000 -0.1367 0.1367 0.0000 0.0000 0.0000 0.1367 0.1367 0.0000 -0.1367 0.0000 0.0000 0.1367 0.1367 0.0000 0.0000 0.0000 -0.1367 -0.1367 -0.1367 0.1367 0.0000 -0.1367 -0.1367 -0.1367 -0.1367 0.1367 0.0000 -0.1367 0.1367 0.1367 0.1367 0.1367 -0.1367 0.0000 0.1367 0.1367 -0.1367 -0.1367 0.1367 0.0000 -0.1367 -0.1367 0.0000 -0.1367 -0.1367 0.1367 0.0000 -0.1367 -0.1367 0.0000 0.0000 0.1367 -0.1367 0.1367 0.1367 0.0000 0.1367 0.1367 0.1367 -0.1367 -0.1367 0.1367 0.0000 0.1367 -0.1367 0.0000 -0.1367 0.1367 -0.1367 -0.1367 0.1367 0.1367 0.1367 -0.1367 -0.1367 0.0000 -0.1367 0.0000 -0.1367 0.1367 0.0000 0.1367 0.0000 0.0000 0.1367 0.1367 -0.1367 0.1367 0.1367 0.1367 0.1367 0.0000 -0.1367 0.1367 -0.1367 0.1367 -0.1367 0.0000 0.0000 -0.1367 0.1367 -0.1367 -0.1367 -0.1367 -0.1367 0.0000 0.1367 0.0000 -0.1367 0.1367 0.1367 -0.1367 0.1367 0.1367 0.1367 -0.1367 0.0000 -0.1367 0.1367 0.0000 -0.1367 0.1367 0.0000 0.1367 0.1367 0.0000 0.1367 -0.1367 0.1367 0.1367 0.1367 0.0000 -0.1367 0.0000 0.0000 0.1367 -0.1367 0.0000 0.1367 0.1367 0.0000 -0.1367 -0.1367 0.0000 0.1367 -0.1367 -0.1367 0.1367 -0.1367 0.0000 0.0000 0.1367 -0.1367 -0.1367 0.1367 -0.1367 0.1367 0.1367 0.0000 -0.1367 -0.1367 0.0000 0.1367 -0.1367 0.0000 0.1367 0.0000 -0.1367 0.1367 0.0000 0.0000 -0.1367 0.1367 -0.1367 -0.1367 0.0000 -0.1367 0.1367 0.1367 0.0000 0.0000 0.1367 0.0000 0.0000 0.0000 -0.1367 -0.1367 0.1367 0.1367 -0.1367 0.0000 0.1367 -0.1367 0.0000 0.0000 0.0000 0.0000 0.0000 0.1367 0.0000 0.0000 0.0000 -0.1367 0.0000 -0.1367 0.0000 0.0000 0.1367 0.1367 0.0000 0.0000 -0.1367 0.1367 0.1367 -0.1367 -0.1367 -0.1367 0.0000 -0.1367 0.1367 0.0000 -0.1367 0.0000 -0.1367 0.0000 0.1367 0.1367 0.1367 0.0000 0.1367 0.1367 -0.1367 -0.1367 -0.1367 -0.1367 0.0000 0.1367 0.0000 0.1367 0.1367 0.0000 -0.1367 -0.1367 -0.1367 -0.1367 0.1367 0.0000 -0.1367 0.0000 -0.1367 0.0000 0.0000 -0.1367 -0.1367 0.0000 0.0000 -0.1367 -0.1367 -0.1367 0.1367 -0.1367 0.0000 0.0000 -0.1367 0.0000 -0.1367 -0.1367 -0.1367 0.0000 0.0000 0.1367 -0.1367 0.1367 -0.1367 0.0000 -0.1367 0.0000 -0.1367 -0.1367 0.0000 -0.1367 -0.1367 0.0000 -0.1367 -0.1367 0.0000 0.0000 0.0000 0.1367 -0.1367 -0.1367 -0.1367 -0.1367 0.1367 0.1367 -0.1367 0.1367 0.1367 -0.1367 0.0000 0.0000 -0.1367 -0.1367 -0.1367 0.0000 0.0000 -0.1367 0.0000 0.1367 -0.1367 0.0000 0.0000 0.1367 -0.1367 0.0000 -0.1367 -0.1367 -0.1367 0.0000 0.0000 0.1367 0.0000 0.0000 0.0000 -0.1367 0.1367 0.1367 0.0000 0.0000 0.0000 0.1367 -0.1367 0.1367 0.0000 -0.1367 -0.1367 0.0000 0.0000 0.1367 0.1367 0.1367 -0.1367 -0.1367 0.0000 -0.1367 0.1367 0.1367 0.1367 0.1367 0.1367 0.0000 0.0000 0.1367 -0.1367 0.1367 -0.1367 0.0000 0.1367 -0.1367 0.1367 -0.1367 0.1367 0.0000 -0.1367 -0.1367 0.0000 -0.1367 0.1367 -0.1367 0.1367 -0.1367 0.1367 -0.1367 0.0000 0.1367 0.1367 0.0000 0.0000 0.1367 0.1367 0.1367 -0.1367 -0.1367 0.0000 0.1367 0.0000 0.1367 -0.1367 0.0000 0.1367 0.1367 0.1367 -0.1367 0.0000 -0.1367 0.1367 0.0000 0.0000 -0.1367 0.1367 0.0000 0.0000 -0.1367 0.1367 -0.1367 0.0000 -0.1367 0.1367 -0.1367 0.1367 0.1367 0.0000 0.0000 0.1367 -0.1367 0.1367 0.1367 0.1367 0.0000 0.0000 0.1367 0.0000 0.0000 0.0000 -0.1367 0.1367 0.1367 -0.1367 -0.1367 -0.1367 0.1367 0.1367 0.0000 -0.1367 0.1367 -0.1367 0.1367 0.1367 -0.1367 -0.1367 0.1367 -0.1367 0.0000 0.0000 0.1367 0.0000 0.1367 0.1367 0.1367 0.0000 0.1367 0.1367 -0.1367 -0.1367 -0.1367 0.0000 -0.1367 -0.1367 0.0000 0.0000 0.0000 0.0000 -0.1367 0.0000 -0.1367 -0.1367 -0.1367 -0.1367 0.1367 -0.1367 0.0000 -0.1367 0.0000 0.1367 0.0000 -0.1367 -0.1367 -0.1367 -0.1367 0.0000 0.1367 0.0000 0.1367 0.1367 0.0000 -0.1367 0.0000 -0.1367 0.0000 0.1367 0.1367 0.1367 -0.1367 0.1367 -0.1367 0.0000 0.0000 0.1367 0.1367 0.1367 0.1367 0.1367 0.1367 0.0000 0.0000 0.1367 0.1367 0.1367 0.1367 0.1367 0.1367 0.1367 -0.1367 -0.1367 0.0000 0.0000 -0.1367 0.1367 -0.1367 0.0000 0.1367 0.0000 0.1367 -0.1367 0.1367 -0.1367 -0.1367 -0.1367 -0.1367 0.0000 0.0000 0.0000 0.1367 0.0000 0.1367 -0.1367 0.1367 0.1367 -0.1367 0.0000 -0.1367 -0.1367 -0.1367 0.1367 0.0000 0.1367 0.0000 0.0000 0.0000 -0.1367 0.1367 0.0000 -0.1367 0.1367 0.0000 0.1367 0.1367 0.1367 -0.1367 0.0000 -0.1367 0.1367 0.0000 0.0000 -0.1367 0.1367 0.1367 0.1367 -0.1367 0.1367 0.1367 0.1367 0.1367 0.1367 -0.1367 0.1367 0.1367 0.0000 0.0000 0.0000 0.1367 -0.1367 0.1367 0.0000 -0.1367 0.1367 0.0000 0.0000 0.1367 -0.1367 0.0000 0.1367 0.1367 -0.1367 -0.1367 0.1367 0.1367 0.0000 0.1367 0.1367 0.1367 -0.1367 -0.1367 -0.1367 0.1367 -0.1367 -0.1367 0.1367 0.0000 0.1367 -0.1367 0.1367 0.1367 -0.1367 -0.1367 0.0000 0.1367 -0.1367 -0.1367 0.0000 0.1367 -0.1367 0.1367 -0.1367 0.1367 0.1367 -0.1367 -0.1367 0.1367 -0.1367 0.0000 0.0000 0.1367 0.1367 0.1367 0.0000 0.0000 0.1367 0.0000 0.0000 -0.1367 0.1367 -0.1367 0.1367 -0.1367 0.1367 0.0000 0.0000 0.0000 0.0000 0.1367 0.1367 0.1367 0.1367 -0.1367 0.1367 0.0000 0.1367 0.1367 0.0000 0.1367 -0.1367 -0.1367 0.0000 0.1367 -0.1367 0.0000 0.1367 -0.1367 0.0000 -0.1367 0.1367 0.0000 0.1367 -0.1367 -0.1367 -0.1367 0.0000 0.1367 0.0000 0.1367 -0.1367 -0.1367 -0.1367 -0.1367 0.0000 0.1367 0.0000 0.0000 0.0000 -0.1367 -0.1367 0.0000 0.0000 -0.1367 -0.1367 0.0000 -0.1367 0.0000 -0.1367 -0.1367 -0.1367 0.0000 -0.1367 0.0000 0.1367 0.1367 -0.1367 0.1367 0.1367 0.0000 -0.1367 -0.1367 0.1367 0.1367 0.1367 0.0000 0.1367 -0.1367 0.1367 0.0000 -0.1367 0.1367 -0.1367 0.1367 0.1367 -0.1367 0.0000 0.1367 0.0000 0.1367 0.1367 0.1367 0.1367 -0.1367 0.1367 -0.1367 -0.1367 0.1367 -0.1367 -0.1367 0.0000 0.0000 -0.1367 0.1367 -0.1367 0.0000 0.0000 0.0000 -0.1367 0.1367 0.1367 0.1367 0.1367 -0.1367 -0.1367 0.0000 -0.1367 0.0000 -0.1367 0.0000 0.0000 0.1367 -0.1367 0.0000 0.1367 0.1367 0.0000 0.1367 0.1367 0.1367 -0.1367 0.1367 0.1367 -0.1367 -0.1367 0.1367 0.0000 -0.1367 -0.1367 -0.1367 0.0000 0.1367 0.1367 -0.1367 0.1367 0.0000 0.1367 0.1367 0.0000 -0.1367 -0.1367 0.0000 0.1367 0.1367 0.0000 0.1367 0.0000 0.1367 0.0000 -0.1367 0.1367 -0.1367 0.0000 0.1367 -0.1367 -0.1367 -0.1367 0.1367 -0.1367 0.1367 0.0000 0.0000 0.0000 0.1367 0.0000 -0.1367 0.0000 -0.1367 -0.1367 0.1367 0.1367 -0.1367 -0.1367 -0.1367 -0.1367 0.1367 0.0000 0.0000 0.0000 0.1367 -0.1367 0.0000 0.0000 0.1367 -0.1367 0.0000 -0.1367 0.0000 -0.1367 -0.1367 0.1367 0.0000 0.0000 0.1367 0.0000 0.1367 -0.1367 0.1367 0.1367 0.1367 0.0000 0.1367 0.0000 0.0000 0.1367 -0.1367 0.1367 0.0000 0.1367 0.1367 0.0000 0.1367 0.1367 -0.1367 -0.1367 -0.1367 0.1367 0.1367 0.1367 -0.1367 0.0000 0.0000 0.0000 0.1367 0.1367 0.1367 0.1367 0.0000 -0.1367 0.0000 0.1367 0.0000 -0.1367 0.1367 -0.1367 -0.1367 0.0000 0.1367 0.0000 0.1367 0.0000 0.0000 0.0000 0.1367 -0.1367 0.1367 -0.1367 0.1367 -0.1367 0.0000 -0.1367 0.0000 -0.1367 -0.1367 0.0000 0.0000 -0.1367 0.0000 -0.1367 0.1367 -0.1367 0.1367 0.1367 0.1367 0.0000 0.1367 -0.1367 0.0000 0.1367 -0.1367 0.0000 -0.1367 -0.1367 0.1367 0.1367 0.1367 -0.1367 0.0000 -0.1367 -0.1367 0.1367 -0.1367 -0.1367 0.1367 0.0000 0.0000 0.1367 0.1367 0.0000 0.1367 0.1367 0.1367 -0.1367 -0.1367 -0.1367 -0.1367 0.0000 -0.1367 -0.1367 0.0000 0.1367 -0.1367 0.0000 -0.1367 0.0000 0.1367 -0.1367 -0.1367 0.0000 0.1367 -0.1367 -0.1367 0.1367 0.0000 -0.1367 0.1367 0.1367 0.1367 -0.1367 0.1367 -0.1367 0.0000 0.0000 -0.1367 0.0000 -0.1367 0.1367 -0.1367 0.1367 0.0000 0.0000 0.0000 -0.1367 0.1367 0.1367 0.0000 0.0000 0.0000 0.0000 0.0000 0.1367 -0.1367 -0.1367 0.0000 0.0000 0.1367 -0.1367 -0.1367 0.1367 -0.1367 0.1367 0.1367 0.1367 0.0000 0.1367 -0.1367 0.1367 0.0000 0.0000 0.1367 0.0000 -0.1367 0.1367 0.0000 0.0000 -0.1367 0.1367 0.0000 0.1367 0.1367 0.0000 -0.1367 0.1367 -0.1367 -0.1367 -0.1367 0.0000 0.0000 -0.1367 0.0000 -0.1367 0.1367 0.0000 0.1367 -0.1367 -0.1367 0.1367 -0.1367 -0.1367 0.1367 0.1367 0.1367 0.0000 -0.1367 -0.1367 -0.1367 -0.1367 -0.1367 0.0000 0.1367 0.1367 0.0000 0.1367 0.1367 -0.1367 0.1367 0.1367 0.0000 0.0000 0.1367 0.1367 0.0000 0.0000 -0.1367 0.0000 0.1367 0.0000 -0.1367 0.0000 0.1367 0.1367 0.1367 0.1367 0.1367 0.0000 0.1367 -0.1367 0.1367 0.1367 -0.1367 0.1367 0.0000 0.0000 0.1367 0.1367 -0.1367 0.1367 -0.1367 0.0000 0.0000 0.1367 -0.1367 -0.1367 0.1367 0.1367 0.0000 0.1367 0.0000 0.1367 0.0000 0.1367 0.0000 0.1367 0.0000 0.1367 -0.1367 0.0000 0.1367 -0.1367 -0.1367 0.1367 -0.1367 0.0000 -0.1367 0.0000 -0.1367 -0.1367 -0.1367 0.0000 0.1367 0.1367 0.0000 -0.1367 0.0000 -0.1367 -0.1367 -0.1367 0.1367 -0.1367 -0.1367 0.0000 0.1367 0.1367 0.0000 0.0000 0.1367 0.0000 0.0000 -0.1367 -0.1367 -0.1367 0.1367 0.1367 -0.1367 -0.1367 0.0000 0.1367 0.0000 0.0000 0.1367 0.1367 -0.1367 0.0000 -0.1367 -0.1367 0.1367 -0.1367 -0.1367 -0.1367 0.1367 0.1367 0.0000 0.0000 -0.1367 0.1367 0.0000 -0.1367 0.0000 0.0000 0.0000 0.1367 -0.1367 -0.1367 0.1367 0.1367 0.0000 -0.1367 -0.1367 0.0000 -0.1367 -0.1367 0.0000 -0.1367 0.1367 0.0000 -0.1367 -0.1367 0.1367 -0.1367 -0.1367 0.1367 0.1367 -0.1367 0.0000 0.0000 0.1367 0.1367 0.0000 0.0000 0.0000 0.0000 -0.1367 0.1367 0.1367 0.0000 0.1367 0.1367 0.1367 -0.1367 -0.1367 0.0000 0.1367 0.1367 -0.1367 -0.1367 0.0000 0.0000 0.0000 0.0000 0.0000 0.1367 0.1367 0.1367 0.0000 -0.1367 -0.1367 0.0000 -0.1367 0.0000 0.0000 -0.1367 -0.1367 0.0000 -0.1367 0.1367 0.1367 0.0000 0.0000 0.1367 0.1367 0.1367 0.1367 0.0000 -0.1367 0.0000 0.1367 0.1367 0.1367 0.0000 0.0000 -0.1367 0.1367 0.0000 -0.1367 0.0000 0.1367 0.0000 0.1367 -0.1367 0.1367 -0.1367 0.1367 -0.1367 0.1367 -0.1367 0.0000 0.0000 0.0000 -0.1367 -0.1367 0.0000 -0.1367 0.0000 -0.1367 -0.1367 0.0000 -0.1367 0.0000 0.1367 -0.1367 0.0000 0.0000 -0.1367 0.0000 0.1367 0.0000 0.1367 0.0000 0.0000 0.0000 -0.1367 0.1367 -0.1367 -0.1367 0.0000 -0.1367 0.1367 -0.1367 -0.1367 0.1367 0.1367 -0.1367 0.1367 0.0000 0.1367 0.1367 0.1367 0.1367 0.1367 0.0000 0.0000 -0.1367 0.0000 -0.1367 0.0000 0.1367 0.1367 -0.1367 -0.1367 0.0000 -0.1367 -0.1367 0.1367 0.0000 0.1367 0.1367 0.1367 0.0000 0.1367 0.0000 -0.1367 0.1367 0.1367 0.0000 -0.1367 0.0000 -0.1367 0.0000 -0.1367 -0.1367 -0.1367 0.1367 0.0000 0.0000 -0.1367 -0.1367 0.0000 0.0000 0.1367 0.0000 0.0000 0.0000 -0.1367 -0.1367 -0.1367 -0.1367 0.0000 -0.1367 -0.1367 0.0000 0.1367 0.1367 0.0000 -0.1367 0.1367 0.0000 0.1367 0.0000 -0.1367 -0.1367 0.0000 0.1367 -0.1367 -0.1367 -0.1367 0.1367 0.0000 0.1367 0.0000 -0.1367 0.1367 -0.1367 0.0000 0.1367 0.1367 0.1367 -0.1367 0.1367 0.0000 0.1367 -0.1367 0.1367 0.1367 -0.1367 -0.1367 -0.1367 0.1367 -0.1367 0.0000 0.0000 0.1367 -0.1367 0.1367 0.0000 0.0000 0.1367 -0.1367 0.1367 0.0000 0.0000 0.1367 0.1367 0.1367 0.0000 -0.1367 0.1367 0.0000 0.1367 -0.1367 -0.1367 -0.1367 0.0000 -0.1367 0.1367 0.1367 0.1367 0.0000 0.0000 0.0000 -0.1367 0.0000 0.1367 -0.1367 -0.1367 0.0000 -0.1367 -0.1367 -0.1367 0.1367 -0.1367 0.1367 -0.1367 -0.1367 -0.1367 -0.1367 0.0000 0.1367 0.1367 -0.1367 0.0000 0.0000 0.0000 -0.1367 0.0000 0.1367 -0.1367 0.0000 -0.1367 0.1367 0.0000 -0.1367 0.1367 -0.1367 0.1367 0.0000 -0.1367 -0.1367 0.1367 0.1367 0.1367 -0.1367 -0.1367 0.1367 -0.1367 0.1367 0.1367 -0.1367 -0.1367 -0.1367 0.0000 0.1367 0.1367 -0.1367 -0.1367 0.1367 0.1367 0.0000 -0.1367 0.0000 -0.1367 0.0000 0.1367 0.0000 0.0000 0.0000 -0.1367 0.1367 0.1367 0.1367 -0.1367 0.1367 0.1367 -0.1367 -0.1367 0.1367 0.1367 0.1367 -0.1367 -0.1367 0.0000 0.1367 0.0000 0.0000 0.0000 0.1367 0.1367 0.1367 -0.1367 0.0000 -0.1367 0.0000 -0.1367 0.0000 -0.1367 -0.1367 0.1367 0.0000 -0.1367 -0.1367 0.0000 0.0000 0.1367 0.0000 -0.1367 0.0000 0.0000 -0.1367 -0.1367 0.1367 0.0000 0.0000 0.1367 0.1367 0.0000 0.1367 0.1367 -0.1367 0.0000 0.1367 0.0000 -0.1367 0.1367 -0.1367 0.1367 0.1367 0.0000 -0.1367 -0.1367 0.0000 0.1367 -0.1367 0.0000 -0.1367 0.0000 -0.1367 -0.1367 -0.1367 -0.1367 0.1367 0.0000 -0.1367 0.0000 0.0000 0.0000 0.0000 -0.1367 0.1367 0.1367 0.0000 0.1367 0.0000 -0.1367 0.0000 -0.1367 0.1367 0.0000 0.1367 -0.1367 0.1367 0.1367 0.1367 0.0000 0.0000 0.1367 0.0000 0.1367 0.1367 -0.1367 0.1367 -0.1367 0.0000 -0.1367 0.1367 0.0000 0.0000 -0.1367 0.1367 0.0000 0.0000 0.1367 0.1367 0.0000 -0.1367 -0.1367 0.1367 -0.1367 -0.1367 0.0000 -0.1367 0.1367 0.0000 0.1367 0.1367 0.1367 0.1367 0.0000 0.0000 0.1367 0.0000 -0.1367 0.1367 -0.1367 -0.1367 -0.1367 -0.1367 0.0000 0.0000 -0.1367 0.1367 0.1367 -0.1367 -0.1367 0.1367 -0.1367 0.0000 0.0000 0.0000 0.1367 0.1367 -0.1367 0.1367 -0.1367 -0.1367 0.1367 0.1367 -0.1367 -0.1367 0.0000 0.0000 -0.1367 0.1367 0.0000 0.1367 -0.1367 0.0000 -0.1367 0.0000 -0.1367 -0.1367 0.1367 0.1367 0.1367 0.1367 0.1367 0.1367 0.1367 -0.1367 -0.1367 0.1367 -0.1367 -0.1367 -0.1367 -0.1367 -0.1367 0.1367 -0.1367 0.1367 0.0000 0.1367 0.1367 0.0000 0.1367 0.0000 0.0000 0.1367 0.0000 0.0000 -0.1367 0.1367 0.0000 0.1367 0.1367 0.1367 0.1367 0.0000 0.1367 0.1367 -0.1367 0.0000 -0.1367 0.0000 -0.1367 -0.1367 0.0000 0.1367 -0.1367 -0.1367 -0.1367 0.1367 0.0000 0.0000 0.0000 0.0000 -0.1367 0.0000 -0.1367 0.1367 -0.1367 -0.1367 0.1367 0.1367 -0.1367 -0.1367 -0.1367 0.0000 0.1367 0.0000 -0.1367 0.0000 -0.1367 0.0000 -0.1367 0.0000 0.0000 0.0000 0.0000 0.1367 0.1367 0.1367 0.1367 0.0000 0.1367 0.1367 0.0000 0.1367 0.0000 -0.1367 0.0000 0.0000 0.0000 -0.1367 0.1367 0.0000 0.1367 0.0000 0.0000 0.1367 0.1367 0.0000 0.1367 0.1367 0.0000 0.1367 0.0000 -0.1367 -0.1367 -0.1367 0.1367 0.0000 -0.1367 -0.1367 -0.1367 0.1367 0.0000 0.0000 0.1367 -0.1367 -0.1367 0.1367 -0.1367 0.0000 0.1367 -0.1367 0.0000 0.1367 -0.1367 -0.1367 -0.1367 0.0000 0.1367 0.0000 -0.1367 0.0000 0.0000 0.0000 -0.1367 0.0000 0.1367 0.1367 -0.1367 0.1367 0.0000 -0.1367 -0.1367 -0.1367 0.0000 0.0000 0.0000 -0.1367 -0.1367 0.0000 0.0000 -0.1367 0.1367 0.1367 -0.1367 0.1367 0.1367 -0.1367 -0.1367 -0.1367 0.1367 0.1367 0.1367 0.1367 0.1367 0.1367 -0.1367 0.0000 -0.1367 0.0000 0.1367 -0.1367 -0.1367 0.0000 0.0000 -0.1367 -0.1367 0.1367 0.1367 0.1367 0.1367 0.0000 -0.1367 0.1367 -0.1367 -0.1367 0.1367 0.0000 -0.1367 -0.1367 -0.1367 0.1367 0.1367 -0.1367 -0.1367 0.0000 0.1367 0.1367 -0.1367 0.1367 0.1367 0.1367 0.0000 -0.1367 0.1367 0.0000 -0.1367 -0.1367 0.0000 -0.1367 -0.1367 0.0000 -0.1367 -0.1367 0.1367 0.0000 0.1367 0.1367 0.0000 0.0000 -0.1367 0.0000 -0.1367 -0.1367 0.0000 0.0000 -0.1367 -0.1367 0.0000 0.0000 0.1367 0.1367 0.0000 0.1367 0.1367 0.0000 0.0000 0.1367 -0.1367 0.0000 0.1367 0.1367 0.1367 0.1367 0.0000 0.1367 -0.1367 0.1367 -0.1367 0.1367 0.0000 -0.1367 0.0000 0.1367 -0.1367 -0.1367 0.0000 -0.1367 0.1367 -0.1367 0.0000 0.1367 -0.1367 0.1367 0.1367 -0.1367 0.0000 -0.1367 0.1367 0.1367 -0.1367 0.1367 0.1367 -0.1367 0.0000 0.0000 -0.1367 0.0000 0.1367 0.1367 0.0000 -0.1367 0.1367 -0.1367 0.1367 0.1367 0.0000 0.0000 0.1367 -0.1367 0.0000 0.0000 -0.1367 0.1367 0.0000 0.0000 -0.1367 0.1367 0.1367 0.1367 -0.1367 0.1367 0.1367 -0.1367 -0.1367 0.0000 0.1367 0.1367 0.0000 0.1367 0.1367 0.1367 0.1367 -0.1367 0.1367 0.1367 0.1367 0.1367 0.1367 -0.1367 0.0000 -0.1367 0.1367 -0.1367 0.1367 -0.1367 0.0000 0.0000 0.1367 0.1367 -0.1367 0.1367 -0.1367 0.1367 0.0000 -0.1367 -0.1367 -0.1367 0.1367 -0.1367 -0.1367 0.0000 0.0000 -0.1367 0.1367 -0.1367 0.0000 0.1367 0.0000 0.0000 0.1367 0.0000 -0.1367 -0.1367 0.0000 0.1367 0.0000 0.0000 0.1367 0.0000 -0.1367 0.0000 0.1367 0.1367 -0.1367 0.1367 0.1367 -0.1367 -0.1367 0.1367 -0.1367 0.0000 -0.1367 0.1367 0.1367 0.1367 -0.1367 -0.1367 -0.1367 0.0000 -0.1367 0.1367 0.0000 0.1367 -0.1367 0.1367 0.0000 0.1367 0.1367 0.1367 -0.1367 0.1367 -0.1367 -0.1367 0.0000 0.1367 0.1367 0.1367 0.0000 0.0000 0.1367 0.1367 0.1367 -0.1367 0.1367 0.1367 0.1367 -0.1367 -0.1367 0.0000 -0.1367 0.1367 -0.1367 0.1367 0.1367 -0.1367 -0.1367 0.1367 0.1367 0.0000 0.1367 0.1367 -0.1367 -0.1367 -0.1367 0.1367 -0.1367 0.1367 -0.1367 0.1367 0.1367 -0.1367 0.0000 0.0000 0.1367 0.1367 0.1367 -0.1367 -0.1367 -0.1367 0.0000 0.1367 0.0000 0.0000 -0.1367 0.1367 0.0000 0.1367 -0.1367 0.0000 0.0000 0.1367 0.0000 -0.1367 0.0000 0.1367 -0.1367 -0.1367 -0.1367 0.1367 -0.1367 0.1367 0.1367 0.1367 -0.1367 0.1367 0.1367 0.1367 0.1367 -0.1367 -0.1367 0.0000 0.0000 -0.1367 -0.1367 0.1367 -0.1367 0.0000 -0.1367 0.0000 0.0000 -0.1367 -0.1367 0.0000 0.0000 0.1367 0.1367 0.1367 0.1367 0.0000 0.0000 0.1367 -0.1367 0.0000 -0.1367 0.0000 0.1367 -0.1367 -0.1367 -0.1367 0.0000 -0.1367 0.1367 -0.1367 0.1367 0.1367 0.0000 -0.1367 -0.1367 -0.1367 0.0000 -0.1367 0.1367 -0.1367 -0.1367 -0.1367 0.0000 0.1367 0.1367 0.1367 -0.1367 0.0000 0.1367 0.0000 0.0000 0.1367 0.1367 0.1367 0.1367 0.1367 -0.1367 0.1367 -0.1367 0.1367 0.1367 0.0000 0.1367 0.0000 0.1367 0.1367 0.1367 -0.1367 -0.1367 0.1367 -0.1367 0.1367 0.1367 0.0000 0.1367 -0.1367 0.1367 -0.1367 0.1367 0.0000 0.0000 -0.1367 0.1367 0.1367 0.0000 0.1367 0.0000 0.1367 0.0000 -0.1367 -0.1367 -0.1367 0.0000 -0.1367 0.1367 0.1367 0.0000 0.1367 0.1367 0.1367 0.1367 -0.1367 0.1367 0.0000 -0.1367 -0.1367 -0.1367 0.1367 0.1367 -0.1367 0.0000 0.1367 -0.1367 0.0000 0.1367 0.0000 0.0000 -0.1367 0.0000 0.1367 -0.1367 0.0000 0.0000 0.0000 0.1367 0.0000 -0.1367 0.0000 0.1367 0.1367 0.0000 0.0000 0.0000 -0.1367 -0.1367 -0.1367 -0.1367 -0.1367 0.0000 0.1367 0.1367 0.0000 0.0000 -0.1367 0.0000 -0.1367 0.1367 0.1367 0.0000 0.1367 0.1367 -0.1367 -0.1367 0.1367 0.1367 0.1367 0.1367 0.0000 0.1367 -0.1367 0.0000 0.1367 0.0000 0.0000 0.1367 -0.1367 -0.1367 0.1367 -0.1367 0.0000 -0.1367 0.0000 0.1367 -0.1367 0.1367 0.0000 0.1367 0.1367 0.1367 0.1367 0.1367 0.0000 0.0000 0.1367 0.1367 -0.1367 -0.1367 0.1367 0.0000 -0.1367 0.0000 0.1367 0.0000 0.1367 0.0000 0.1367 0.0000 -0.1367 0.1367 0.1367 0.1367 0.0000 -0.1367 -0.1367 -0.1367 -0.1367 0.0000 0.0000 -0.1367 0.0000 0.0000 0.1367 0.1367 -0.1367 -0.1367 0.1367 0.0000 -0.1367 -0.1367 -0.1367 0.1367 0.1367 -0.1367 0.1367 -0.1367 0.1367 -0.1367 0.1367 0.0000 -0.1367 0.0000 -0.1367 0.1367 -0.1367 0.0000 0.1367 0.0000 0.0000 0.1367 -0.1367 0.1367 0.1367 -0.1367 -0.1367 0.0000 -0.1367 0.0000 0.1367 -0.1367 0.1367 0.0000 0.0000 0.1367 0.0000 -0.1367 0.1367 0.1367 0.0000 -0.1367 0.1367 0.1367 0.0000 -0.1367 0.1367 -0.1367 -0.1367 0.0000 0.1367 -0.1367 0.0000 0.1367 0.1367 0.0000 0.0000 -0.1367 0.0000 0.1367 0.1367 0.1367 0.0000 -0.1367 0.0000 0.1367 0.0000 0.1367 -0.1367 0.0000 -0.1367 0.1367 0.1367 0.1367 -0.1367 0.0000 -0.1367 0.0000 0.1367 0.1367 -0.1367 0.1367 -0.1367 -0.1367 0.0000 0.1367 -0.1367 0.1367 -0.1367 0.0000 -0.1367 0.0000 -0.1367 0.0000 0.0000 -0.1367 0.0000 0.0000 0.0000 -0.1367 -0.1367 0.1367 -0.1367 0.0000 -0.1367 0.0000 0.1367 0.0000 -0.1367 -0.1367 -0.1367 -0.1367 0.1367 -0.1367 0.1367 0.0000 -0.1367 0.1367 -0.1367 0.0000 -0.1367 0.1367 -0.1367 0.0000 0.1367 0.0000 -0.1367 -0.1367 -0.1367 0.0000 -0.1367 0.1367 -0.1367 0.1367 0.1367 0.1367 -0.1367 0.0000 0.0000 -0.1367 0.1367 -0.1367 0.0000 -0.1367 0.0000 0.0000 -0.1367 -0.1367 -0.1367 0.1367 -0.1367 0.1367 0.0000 0.0000 -0.1367 -0.1367 -0.1367 0.0000 -0.1367 -0.1367 0.0000 0.1367 -0.1367 0.0000 -0.1367 0.1367 0.1367 -0.1367 -0.1367 -0.1367 -0.1367 -0.1367 -0.1367 0.0000 -0.1367 -0.1367 0.1367 0.1367 0.1367 0.1367 0.0000 0.1367 0.1367 0.1367 0.1367 0.0000 0.1367 -0.1367 0.0000 0.1367 0.1367 0.1367 