-0.053200 0.312200 -0.314400 -0.095700 0.279100 -0.114300 -0.038400 0.149700 0.060700 -0.059400 0.014400 0.060500 0.107000 -0.160600 0.088000 -0.086300 -0.042900 0.226900 0.147100 -0.095600 -0.314000 -0.036900 -0.081200 0.086800 0.092700 -0.059800 0.166900 -0.220700 0.192900 0.067500 -0.242900 0.220700 -0.052000 -0.016900 -0.290600 -0.119200 0.178500 0.010800 -0.005100 -0.077800 -0.105400 -0.117700 -0.310900 -0.196500 -0.253000 -0.025000 -0.027600 -0.078000 -0.026400 -0.273700 -0.042700 0.096100 0.039900 -0.274900 0.290600 0.020800 0.079700 0.023200 0.041600 -0.095100 -0.093300 -0.224300 -0.487700 0.032100 -0.147900 0.399800 -0.082400 0.222700 0.004100 -0.010300 0.081600 -0.099900 0.115700 0.008200 0.256400 0.144400 0.136200 0.073600 -0.444200 -0.504600 -0.086700 0.152600 0.034800 0.132000 -0.037000 -0.343700 0.022400 -0.204600 0.011000 -0.065200 -0.205300 0.019400 0.143600 0.345700 -0.060900 0.079100 0.226600 0.195200 0.162300 -0.098500 -0.060600 0.126500 0.062700 -0.017900 -0.121400 0.130700 0.035400 0.006700 -0.238600 -0.103300 0.002800 0.100400 0.166900 -0.253900 0.041800 -0.062100 -0.091000 0.183500 0.089800 -0.041900 
