-1.4213e-02 8.4833e-03 -4.9571e-04 -2.3846e-02 -1.1488e-01 1.6401e-02 -1.5127e-02 -2.2128e-02 2.1171e-02 2.0845e-02 1.4411e-02 -4.0294e-02 -8.2844e-02 1.9897e-02 2.1296e-02 -2.8259e-03 -3.5837e-02 1.5195e-02 3.4509e-03 -3.0933e-02 5.1831e-03 -2.5867e-02 1.7285e-02 2.7594e-01 -1.7847e-02 -5.3444e-02 6.3349e-02 -6.5763e-03 9.5355e-03 -6.6262e-02 -2.6399e-02 1.5951e-01 -2.7956e-02 1.1967e-02 -2.1205e-02 3.9739e-02 -6.1059e-02 -2.7631e-02 -1.3872e-02 -4.0324e-02 3.6186e-02 1.2245e-02 2.2676e-02 4.7591e-02 4.4539e-02 5.0198e-02 9.9567e-02 1.7219e-01 -2.4649e-02 2.6600e-02 -8.3725e-02 -4.9234e-02 -2.0281e-02 6.5464e-04 1.8624e-01 3.0657e-02 -1.4714e-02 2.7303e-01 -3.6502e-02 3.5597e-02 -5.1240e-02 2.5737e-03 -1.0049e-01 -8.0570e-03 1.6658e-02 1.6431e-02 7.4918e-02 -8.4578e-03 -2.1128e-05 -8.6284e-03 -2.0513e-02 -4.7684e-03 -1.2621e-02 3.1498e-02 1.8997e-02 -2.8391e-02 3.0785e-02 5.0635e-03 -2.0689e-03 -1.2134e-02 -2.5288e-01 -2.6093e-02 2.8585e-02 -1.5629e-02 -3.7123e-02 -1.0125e-02 -3.1289e-02 -5.9486e-02 -3.3539e-04 -6.9466e-02 -3.9823e-03 -1.0544e-02 -1.3053e-02 -5.4423e-02 8.7581e-03 -7.6468e-02 1.1819e-01 -4.6940e-02 -3.2346e-02 2.8499e-03 -1.4177e-02 -2.1221e-02 -6.3142e-02 2.8276e-02 -3.8331e-03 -5.6911e-02 -1.2749e-02 1.0716e-01 6.7124e-03 -1.0147e-02 4.2448e-02 -3.8336e-02 3.6285e-02 -3.7788e-02 6.7078e-02 7.7432e-02 2.4200e-02 1.8011e-02 -6.5665e-02 9.7793e-03 1.5718e-02 5.0638e-03 9.2026e-02 2.3543e-02 6.6324e-02 1.1195e-02 1.4077e-02 7.7362e-02 -6.7078e-02 1.5754e-02 -1.2616e-01 2.3654e-01 -1.7474e-02 -1.3525e-03 6.6996e-03 -1.2179e-01 6.7976e-03 2.1120e-03 -1.0283e-01 3.3853e-03 5.8639e-02 -1.6613e-01 -2.6292e-02 4.7411e-02 -1.5712e-02 -8.1715e-02 -1.8159e-01 -1.6684e-02 -1.0855e-02 -3.0871e-02 5.6304e-02 -2.3194e-03 -3.6472e-02 -4.5736e-03 -1.6586e-02 -6.6536e-04 2.7105e-02 -5.4285e-03 2.7420e-03 2.7131e-02 1.1138e-03 3.9656e-02 1.1808e-02 -2.6233e-02 2.7675e-01 -2.3392e-02 6.3263e-03 3.8442e-02 -1.6312e-02 -2.3784e-02 -1.8033e-02 -2.8500e-02 -1.8421e-02 -2.1958e-02 -2.1672e-02 1.1295e-02 1.9870e-02 -5.4557e-02 -7.6333e-03 -2.7127e-02 -3.5678e-02 -2.3253e-02 -5.9299e-02 1.4893e-03 -5.4500e-02 2.6571e-02 3.2447e-03 -1.8099e-03 -1.8934e-02 -3.9217e-03 -3.1296e-02 1.2406e-01 -4.4435e-02 7.9167e-04 4.0184e-02 -2.0705e-02 -1.8415e-02 -2.4528e-02 3.8448e-02 -4.1610e-02 -2.9204e-02 4.5252e-02 -1.5775e-02 -2.6720e-02 -4.0863e-02 -1.9774e-02 6.3601e-03 3.4311e-03 2.6096e-03 -5.6323e-02 6.7501e-03 -1.3160e-02 -1.5985e-01 9.2886e-02 -1.8287e-01 -3.2333e-03 4.6563e-02 4.9000e-02 3.8375e-02 3.1807e-01 -1.6450e-02 2.3963e-02 -1.0414e-01 2.9181e-02 -9.7212e-03 -3.4879e-02 1.0499e-02 5.5301e-02 -7.1065e-02 8.4550e-04 -2.6058e-01 -6.5596e-03 4.1551e-03 -2.8934e-03 -6.9876e-02 1.9571e-02 1.1321e-03 5.9796e-03 1.3299e-02 2.8281e-02 -3.3380e-02 4.5394e-02 2.5113e-02 2.2051e-02 8.3811e-03 6.1656e-03 -2.8994e-02 -4.8953e-02 2.2820e-03 3.3694e-02 9.8435e-03 2.0248e-02 -1.3796e-02 -1.8134e-02 5.5275e-03 -3.7515e-02 -3.2047e-02 -5.0023e-02 -2.6994e-02 5.3423e-03 1.9428e-02 -2.0358e-02 3.7346e-02 -5.7781e-02 1.1804e-01 -4.2671e-03 -2.6991e-02 -9.1460e-03 -6.2073e-02 -8.4907e-03 -2.2253e-02 -6.2749e-03 -8.7207e-03 -2.7315e-02 8.1101e-03 -1.5026e-01 -2.1956e-02 -5.1531e-02 2.8215e-02 -1.1960e-02 -2.7106e-02 -5.5877e-02 1.4013e-02 -8.5892e-02 -3.5968e-02 3.1421e-02 2.6905e-02 3.2630e-02 -3.7925e-02 -5.8617e-03 8.9252e-02 1.0492e-02 4.3849e-02 3.3867e-02 2.5978e-02 1.0782e-02 1.4893e-01 4.8389e-02 -2.3237e-01 -1.5501e-02 1.4671e-03 2.0872e-02 2.1528e-02 8.5763e-02 -2.1266e-03 1.1055e-02 -8.1875e-02 2.2394e-02 -1.0073e-02 -8.3684e-04 1.9167e-02 4.8432e-02 -1.6319e-02 -7.4014e-03 5.8903e-02 -2.9952e-02 4.0701e-02 1.5102e-02 -6.2118e-02 1.6405e-02 -4.7684e-03 2.4188e-02 -7.7886e-03 1.0101e-02 2.7121e-02 3.1303e-02 1.2211e-02 -4.6929e-03 3.0552e-02 -9.8630e-03 3.5872e-03 9.3790e-03 -1.7215e-01 -3.4195e-02 2.0920e-02 -3.8867e-05 8.8217e-03 -6.9317e-03 1.2369e-02 -2.1139e-02 -4.2294e-02 2.1461e-02 -1.3653e-02 8.5409e-04 3.0668e-02 -1.5618e-02 2.5765e-02 -4.8230e-02 -1.8882e-01 -5.3584e-03 1.9372e-02 -5.0598e-03 -5.2732e-02 -7.8003e-03 -2.0196e-02 -2.0733e-02 -4.8031e-02 -2.0119e-02 -1.2947e-02 2.7440e-01 -2.6836e-02 2.9947e-02 2.1634e-02 -8.5076e-02 1.2448e-02 -2.1259e-02 1.2494e-02 3.6254e-02 -3.1024e-02 3.2765e-02 -1.0871e-02 3.3822e-02 -3.2103e-02 -1.2464e-02 6.3315e-03 -4.8833e-02 3.9571e-02 -8.7335e-03 -1.8778e-03 3.0840e-02 5.1784e-02 3.5286e-02 2.4727e-02 -1.6288e-01 -3.3374e-02 -1.4249e-02 5.0823e-02 -2.7826e-01 9.8839e-03 2.4827e-02 -6.3117e-02 1.8602e-02 -2.1433e-02 -2.4755e-01 -1.0086e-02 1.7929e-02 -6.5343e-02 -1.2386e-02 3.5920e-02 -1.9984e-02 5.7187e-03 1.7252e-02 -7.8597e-02 3.2947e-03 -1.1035e-02 1.3592e-02 -1.1474e-02 1.8014e-02 -3.4618e-02 -2.0037e-02 1.8607e-02 9.9142e-04 -5.2658e-02 2.8990e-02 -3.5769e-03 2.4553e-03 3.6935e-02 3.6383e-03 1.5184e-02 4.0809e-02 -2.0055e-02 -9.9403e-03 1.5666e-02 -4.2614e-02 -4.0030e-02 -5.1238e-02 -1.1323e-03 1.4077e-02 -5.3868e-03 -7.6521e-02 1.3867e-02 -2.9389e-02 7.8461e-02 -1.2846e-02 -2.7872e-02 -3.3481e-02 -3.8490e-02 1.4270e-02 -2.3257e-02 1.3518e-02 -2.8554e-02 -3.4210e-02 2.1490e-02 -2.4638e-01 -3.7095e-02 -4.7867e-03 5.7037e-02 -4.8731e-02 7.0605e-03 -1.5115e-02 4.3575e-02 -3.0105e-03 -2.6480e-02 7.6059e-03 -8.5662e-03 2.6709e-02 -4.0191e-03 -3.2313e-02 3.3022e-03 2.2066e-02 3.0049e-02 -2.8915e-02 2.1341e-02 -3.8788e-03 3.2011e-01 5.9146e-02 1.6685e-01 -5.4618e-03 -1.3477e-02 3.6589e-02 -1.1904e-03 -7.2834e-02 2.6123e-02 2.8239e-02 7.1589e-02 2.5209e-02 1.6519e-02 7.2094e-02 -1.7756e-02 2.8152e-02 -2.8434e-02 -1.1348e-02 -1.5568e-02 -3.6704e-02 2.1660e-02 -8.5943e-04 1.4369e-02 4.2279e-02 -1.9234e-02 8.6883e-03 -2.1587e-03 2.7671e-02 -2.6156e-02 4.7721e-02 1.0956e-02 3.1741e-02 4.9763e-02 2.7769e-02 -1.6589e-03 -3.6360e-03 7.9516e-02 -2.4783e-02 6.4284e-02 -2.6791e-03 -3.3306e-02 -8.2785e-03 4.9662e-03 -3.6950e-02 -3.9991e-02 -1.0662e-03 -2.8261e-02 1.4692e-04 3.9321e-03 -6.0931e-02 -3.6409e-02 1.4856e-02 7.1078e-02 -3.6626e-02 9.6752e-04 8.5938e-03 -3.0354e-02 5.9731e-02 -6.2218e-02 -1.6973e-03 -4.2112e-02 -4.1447e-02 3.8782e-02 8.6924e-02 -1.4765e-02 -3.3483e-02 8.1877e-02 -4.6257e-02 -2.4535e-03 -4.0043e-03 7.9702e-02 -1.1684e-01 -1.1549e-03 5.1766e-02 -4.2120e-02 1.4396e-02 -2.0459e-02 -2.3178e-02 -1.5439e-01 1.9040e-02 -2.0052e-02 -1.6060e-02 -9.6841e-03 -4.0578e-02 2.2285e-02 7.6889e-02 2.1331e-01 -6.0343e-02 1.5900e-02 4.8799e-02 4.3896e-03 -2.9568e-01 1.4586e-02 4.2959e-03 3.0690e-02 2.9833e-02 5.8787e-03 1.8948e-01 -2.9356e-02 4.5706e-02 -2.0413e-02 3.4158e-02 -4.4298e-01 -1.7288e-02 2.5648e-02 1.2145e-02 -2.2730e-02 2.5342e-02 -2.5112e-02 4.7592e-02 -1.9110e-02 1.4889e-02 1.1234e-02 2.7379e-02 -1.0067e-02 1.4480e-03 4.3892e-02 1.9130e-02 3.7554e-02 -1.1882e-01 -3.7860e-02 3.5731e-02 7.1387e-02 -2.0287e-02 -4.3271e-03 -3.2795e-02 8.6796e-03 -2.0652e-02 -1.6797e-02 -6.1228e-02 -3.1076e-02 3.4446e-03 6.4272e-02 -4.9749e-02 5.8853e-03 -1.7376e-02 1.6666e-01 -8.1228e-03 -4.6825e-03 -4.4596e-03 -4.5480e-02 -2.7569e-02 -3.1580e-02 1.1907e-02 -3.3477e-02 -1.5994e-02 -3.7928e-02 3.2924e-01 4.7036e-03 -2.2612e-02 3.4180e-02 -7.0494e-03 -7.3356e-03 -9.3138e-02 3.5811e-02 -3.0856e-02 8.9376e-03 4.3552e-02 2.5385e-02 3.4693e-02 -4.4628e-02 -5.7499e-03 -1.3200e-02 9.7480e-03 5.6174e-02 -2.7907e-02 2.0416e-02 1.0143e-02 5.4095e-02 1.9064e-02 8.3215e-02 4.2484e-02 4.9404e-03 3.6895e-02 1.7203e-02 2.0032e-01 -4.1624e-03 2.9902e-02 5.3330e-03 2.9081e-02 1.2802e-02 -1.8181e-01 -1.4595e-04 7.4468e-02 -4.4854e-02 1.7308e-02 2.5743e-01 -2.3609e-02 1.9061e-02 -1.6917e-02 4.3405e-02 3.7597e-03 -8.4434e-04 4.1050e-02 4.9854e-03 4.8427e-03 5.8879e-02 9.5374e-03 1.8177e-03 8.6149e-02 2.9216e-02 -2.4180e-02 8.9475e-03 -2.5866e-02 1.0953e-02 2.0505e-02 -1.7979e-03 4.4516e-02 -2.1060e-02 -2.2391e-02 -2.5942e-02 -2.4790e-02 2.2183e-02 -4.2206e-02 -9.5178e-03 1.2943e-02 2.0641e-02 -2.3859e-02 -2.0765e-02 -8.0625e-02 -2.2613e-02 1.7941e-03 -5.1953e-02 1.9836e-02 -2.4996e-02 -2.0533e-03 -1.2585e-01 2.4171e-02 -1.0760e-02 -3.0076e-03 2.4605e-03 -1.4575e-01 2.2441e-02 -1.7132e-02 1.9390e-02 -6.7088e-02 2.1621e-02 -4.7000e-02 5.7801e-02 -3.1932e-02 3.8898e-02 5.1668e-02 -8.7442e-02 1.5540e-02 1.6815e-03 -5.2875e-04 -7.8877e-02 -6.2562e-04 5.2000e-02 -5.7688e-03 8.4668e-03 1.0287e-01 -2.6869e-01 1.8399e-02 -1.5213e-02 2.1077e-02 -2.1030e-02 -3.0341e-02 -1.6566e-03 -8.6119e-02 -7.1785e-03 2.3695e-02 6.6697e-02 2.4089e-02 4.2409e-02 3.7448e-02 -2.6059e-03 3.4851e-02 -4.6788e-02 -4.4621e-02 2.9219e-02 -4.7420e-02 3.3652e-02 -4.5577e-02 -2.0817e-02 2.7625e-03 -2.1003e-02 3.9552e-03 1.8713e-02 4.8541e-02 1.0232e-02 -1.5817e-02 -3.5786e-02 7.6509e-03 -3.3538e-02 6.8664e-02 6.0099e-02 3.2912e-04 -9.7543e-02 -5.9765e-02 2.3359e-02 4.2796e-02 5.9676e-05 -2.0525e-02 7.4855e-03 -1.5098e-02 -2.0298e-03 -3.5105e-02 1.3680e-03 2.6468e-02 3.6081e-02 -9.7523e-03 1.4651e-02 -4.3838e-02 -9.3839e-02 -5.4295e-03 -2.3038e-02 -1.5025e-02 -4.6306e-02 -9.0957e-03 -5.5093e-02 1.7202e-02 1.5226e-02 2.8446e-02 -4.5350e-02 1.8514e-01 9.3357e-05 -2.9172e-02 9.0221e-02 -4.4423e-02 -4.5588e-02 -3.7140e-02 3.9531e-02 -1.2152e-02 2.2814e-02 3.2577e-02 -4.0318e-02 3.0775e-02 2.0552e-03 -1.1319e-02 -2.1940e-02 -1.4662e-02 3.3536e-02 -3.0735e-02 2.1655e-02 1.0711e-02 7.1015e-02 5.5628e-02 -1.4849e-02 -2.9717e-02 -8.2796e-03 -1.7182e-03 -4.7164e-03 -1.1772e-01 2.0224e-03 1.9946e-02 1.4747e-02 1.3045e-02 -6.0012e-03 1.4150e-01 -1.1571e-02 2.3099e-02 -7.5838e-02 -6.3606e-02 3.2315e-01 -9.1158e-04 1.1025e-02 -1.7104e-02 -6.3310e-03 1.1057e-02 -1.0019e-02 5.0607e-03 6.8533e-03 -8.2073e-04 -7.2367e-03 9.0483e-04 4.1008e-03 -1.2019e-02 -3.6486e-03 -3.9180e-03 -1.4881e-03 -2.7800e-02 1.5252e-01 3.4026e-02 -3.0306e-02 4.5398e-03
