 0.0000 0.0000 0.3482 0.3482 -0.3482 0.3482 0.3482 0.3482 0.0000 0.3482 0.3482 0.3482 0.3482 0.3482 -0.3482 -0.3482 0.0000 -0.3482 -0.0000 -0.3482 -0.3482 -0.3482 -0.3482 -0.3482 -0.0000 0.3482 0.0000 0.3482 -0.0000 0.3482 0.3482 0.0000 0.0000 -0.3482 0.3482 -0.3482 -0.3482 -0.0000 -0.0000 -0.3482 -0.0000 -0.0000 -0.3482 -0.0000 -0.0000 -0.3482 -0.3482 -0.0000 -0.3482 0.3482 0.3482 0.3482 0.0000 0.3482 0.3482 -0.3482 -0.3482 0.3482 -0.0000 0.0000 -0.3482 -0.3482 -0.3482 -0.3482 -0.3482 -0.3482 -0.0000 -0.0000 -0.3482 -0.3482 0.3482 -0.0000 -0.3482 -0.3482 -0.3482 0.3482 0.3482 0.3482 -0.3482 0.3482 0.3482 0.3482 0.0000 0.3482 0.3482 -0.0000 0.3482 0.3482 0.3482 0.3482 0.0000 0.3482 0.0000 0.3482 -0.3482 0.3482 0.3482 0.3482 -0.3482 0.0000 0.0000 -0.3482 0.3482 0.3482 0.0000 0.3482 0.3482 0.3482 0.3482 0.0000 0.3482 0.0000 0.3482 0.3482 0.3482 0.3482 0.3482 0.3482 0.3482 0.3482 0.0000 0.3482 0.3482 0.0000 0.3482 -0.0000 -0.0000 -0.0000 -0.3482 0.3482 -0.0000 -0.0000 -0.0000 -0.3482 0.3482 -0.3482 -0.3482 -0.3482 0.3482 0.3482 -0.0000 -0.3482 -0.3482 0.3482 0.0000 -0.0000 -0.3482 0.3482 0.0000 0.0000 0
