0.212300 0.425100 0.090100 0.283900 -0.045400 -0.115300 -0.078200 -0.043500 -0.162600 -0.265900 0.346700 0.090600 0.054700 -0.086500 0.148000 -0.060600 -0.260000 0.023400 0.279100 0.102400 -0.229600 -0.020600 0.039600 -0.219900 0.201100 -0.589700 0.140000 -0.336100 -0.096700 -0.117600 0.387700 0.118800 0.340200 -0.089800 -0.407900 -0.099500 -0.393100 -0.138000 0.267100 -0.152500 0.199000 0.305600 -0.290400 -0.357200 0.141000 -0.044900 0.036700 -0.441500 -0.015300 0.176500 0.182300 -0.371800 0.300600 0.458600 0.040700 -0.414000 0.075200 -0.216700 -0.062000 0.106000 0.075100 -0.104500 -0.034800 0.039100 -0.329600 0.481200 0.128900 -0.242700 -0.082500 0.002500 -0.088700 -0.173600 0.033700 -0.167900 -0.122700 -0.261100 0.126000 -0.305500 0.401500 -0.165600 -0.060300 0.210300 0.107600 0.359600 -0.216500 -0.170400 -0.085000 0.436900 0.330400 0.250700 0.068000 -0.060800 0.289300 0.069200 -0.058100 0.144400 0.147200 -0.098000 -0.619100 0.281800 0.000800 0.197500 0.127700 0.249500 -0.032900 0.131100 0.219000 -0.311800 -0.227800 -0.192100 -0.197500 -0.329100 0.191500 0.272900 -0.152100 -0.134400 0.164700 0.066700 -0.385600 -0.030700 
