0.185300 -0.185300 0.185300 0.185300 0.000000 0.000000 0.185300 0.185300 0.185300 0.000000 0.185300 -0.185300 0.000000 0.000000 0.000000 0.000000 0.000000 -0.185300 0.185300 0.000000 -0.185300 -0.185300 -0.185300 0.185300 -0.185300 0.000000 0.185300 -0.185300 0.185300 0.185300 0.000000 0.000000 0.000000 0.000000 0.000000 0.185300 0.000000 -0.185300 0.000000 0.185300 0.185300 0.185300 0.185300 0.000000 0.000000 0.000000 -0.185300 0.000000 -0.185300 0.185300 0.185300 -0.185300 0.185300 0.000000 0.000000 0.000000 -0.185300 -0.185300 0.000000 0.000000 -0.185300 0.000000 -0.185300 -0.185300 -0.185300 0.185300 0.185300 -0.185300 0.000000 0.000000 0.000000 -0.185300 0.185300 -0.185300 -0.185300 0.000000 -0.185300 0.000000 -0.185300 -0.185300 0.185300 0.000000 0.000000 0.185300 0.185300 0.185300 0.000000 0.185300 0.185300 0.000000 0.000000 0.000000 0.000000 0.185300 -0.185300 -0.185300 -0.185300 0.000000 0.185300 -0.185300 -0.185300 0.185300 0.000000 -0.185300 -0.185300 0.000000 -0.185300 0.000000 -0.185300 0.000000 0.000000 -0.185300 0.185300 0.000000 -0.185300 0.185300 0.000000 0.000000 0.000000 -0.185300 -0.076000 0.000000 -0.076000 0.000000 -0.076000 -0.076000 0.000000 -0.076000 0.076000 0.076000 -0.076000 0.000000 0.076000 -0.076000 -0.076000 0.000000 -0.076000 0.000000 -0.076000 0.000000 -0.076000 0.076000 0.000000 0.000000 -0.076000 0.000000 0.000000 0.076000 -0.076000 0.000000 0.000000 0.000000 -0.076000 0.000000 0.000000 0.076000 0.076000 0.076000 0.076000 0.076000 -0.076000 0.076000 -0.076000 -0.076000 -0.076000 0.000000 -0.076000 0.076000 -0.076000 -0.076000 0.076000 0.000000 0.000000 0.076000 0.000000 0.000000 0.000000 0.076000 0.000000 0.000000 -0.076000 -0.076000 0.076000 0.000000 0.076000 -0.076000 -0.076000 0.000000 0.000000 0.076000 0.000000 0.000000 -0.076000 0.076000 0.076000 0.076000 -0.076000 0.000000 -0.076000 0.000000 -0.076000 0.000000 0.000000 -0.076000 0.000000 0.000000 0.000000 0.076000 -0.076000 -0.076000 -0.076000 0.076000 0.076000 -0.076000 0.076000 -0.076000 -0.076000 -0.076000 0.000000 0.000000 -0.076000 -0.076000 -0.076000 -0.076000 -0.076000 -0.076000 -0.076000 0.000000 -0.076000 -0.076000 -0.076000 0.076000 -0.076000 0.000000 0.000000 0.076000 -0.076000 0.000000 -0.076000 0.076000 -0.152500 -0.152500 -0.152500 -0.152500 0.000000 0.000000 0.152500 0.000000 0.000000 0.152500 -0.152500 -0.152500 0.152500 0.000000 0.152500 -0.152500 0.000000 0.152500 0.000000 0.000000 -0.152500 0.000000 0.152500 0.152500 0.000000 0.000000 0.000000 0.152500 -0.152500 0.152500 0.152500 0.152500 0.152500 -0.152500 -0.152500 0.000000 -0.152500 0.000000 0.152500 0.152500 -0.152500 0.152500 0.152500 -0.152500 0.000000 0.152500 0.000000 0.000000 0.152500 -0.152500 0.152500 -0.152500 0.152500 0.152500 0.152500 0.000000 0.152500 0.152500 0.152500 -0.152500 0.152500 0.000000 0.000000 0.000000 0.000000 0.152500 0.152500 0.152500 -0.152500 0.000000 -0.152500 0.000000 0.000000 0.152500 0.000000 -0.152500 0.152500 -0.152500 -0.152500 0.152500 -0.152500 0.000000 0.152500 0.000000 -0.152500 0.000000 -0.152500 0.152500 0.000000 0.152500 0.152500 0.152500 0.152500 0.152500 -0.152500 0.000000 0.152500 0.000000 0.152500 0.000000 0.152500 0.000000 0.152500 0.000000 0.152500 0.152500 -0.152500 0.000000 0.152500 -0.152500 0.152500 0.152500 0.152500 -0.152500 0.152500 0.000000 0.000000 -0.152500 0.152500 -0.152500 0.000000 0.000000 0.000000 0.000000 -0.010400 0.010400 0.010400 0.010400 -0.010400 0.000000 0.000000 -0.010400 0.010400 -0.010400 -0.010400 0.000000 -0.010400 0.000000 0.000000 0.010400 0.000000 0.010400 -0.010400 -0.010400 0.010400 -0.010400 0.000000 0.000000 0.010400 0.010400 0.000000 0.000000 0.010400 0.010400 0.000000 -0.010400 0.010400 0.000000 0.010400 0.000000 -0.010400 0.010400 0.000000 -0.010400 -0.010400 0.010400 -0.010400 -0.010400 0.010400 0.010400 -0.010400 0.000000 0.000000 0.010400 -0.010400 0.000000 0.000000 -0.010400 -0.010400 -0.010400 0.000000 -0.010400 0.010400 -0.010400 0.000000 0.000000 0.000000 0.010400 -0.010400 0.010400 0.010400 0.010400 0.010400 0.010400 0.000000 -0.010400 -0.010400 0.000000 -0.010400 0.010400 0.010400 -0.010400 0.000000 0.010400 0.010400 0.010400 0.010400 -0.010400 0.000000 0.000000 0.000000 0.010400 0.010400 -0.010400 0.000000 0.010400 -0.010400 0.010400 -0.010400 0.010400 0.010400 0.000000 0.000000 0.000000 0.000000 -0.010400 -0.010400 -0.010400 0.010400 -0.010400 0.000000 0.010400 0.010400 -0.010400 0.010400 0.010400 0.000000 -0.010400 0.010400 0.000000 0.099500 0.099500 0.000000 0.000000 0.099500 0.099500 0.099500 0.099500 -0.099500 -0.099500 0.000000 0.000000 -0.099500 -0.099500 0.099500 0.000000 0.099500 0.099500 -0.099500 0.099500 0.099500 0.099500 0.000000 0.000000 0.000000 0.000000 0.000000 -0.099500 -0.099500 0.000000 0.000000 0.000000 -0.099500 -0.099500 0.000000 0.000000 0.000000 0.099500 0.099500 0.099500 0.099500 0.099500 0.000000 0.099500 0.000000 -0.099500 0.000000 -0.099500 -0.099500 -0.099500 0.099500 0.000000 0.099500 0.000000 0.099500 0.000000 0.000000 -0.099500 0.099500 0.099500 -0.099500 -0.099500 -0.099500 0.099500 -0.099500 0.000000 -0.099500 0.099500 0.099500 0.099500 -0.099500 0.099500 0.099500 0.000000 0.000000 0.099500 0.099500 0.000000 0.000000 -0.099500 0.000000 -0.099500 0.099500 0.000000 0.000000 0.000000 -0.099500 -0.099500 0.099500 -0.099500 0.099500 0.099500 0.000000 0.000000 0.099500 -0.099500 0.000000 0.000000 -0.099500 0.099500 -0.099500 -0.099500 0.099500 0.099500 0.000000 0.099500 -0.099500 0.099500 0.099500 0.099500 0.000000 0.099500 -0.099500 0.000000 0.000000 -0.099500 -0.099500 0.000000 -0.099500 -0.099500 0.000000 0.000000 -0.263300 -0.263300 0.000000 0.000000 0.000000 -0.263300 0.000000 -0.263300 -0.263300 -0.263300 0.000000 0.263300 0.263300 0.000000 0.263300 0.263300 0.263300 0.000000 0.000000 -0.263300 0.263300 -0.263300 -0.263300 0.263300 0.263300 0.263300 0.263300 0.000000 0.000000 0.000000 0.000000 -0.263300 0.000000 0.263300 0.000000 0.263300 -0.263300 0.263300 0.263300 0.000000 0.000000 -0.263300 0.000000 0.000000 -0.263300 -0.263300 0.263300 0.263300 -0.263300 -0.263300 0.263300 -0.263300 0.263300 0.000000 0.263300 0.000000 0.000000 0.263300 0.263300 -0.263300 0.263300 -0.263300 0.263300 0.000000 0.000000 0.000000 0.000000 0.000000 0.263300 0.000000 0.263300 0.000000 0.000000 -0.263300 0.000000 0.263300 0.000000 0.000000 0.263300 0.000000 0.263300 0.000000 0.000000 -0.263300 0.000000 0.263300 0.263300 -0.263300 0.000000 0.000000 -0.263300 0.263300 0.000000 0.263300 -0.263300 0.000000 0.263300 -0.263300 -0.263300 0.263300 0.263300 0.000000 -0.263300 -0.263300 0.000000 0.000000 -0.263300 0.000000 -0.263300 -0.263300 0.263300 0.000000 0.263300 0.263300 0.000000 0.263300 0.000000 -0.263300 -0.020200 0.000000 0.000000 0.000000 0.000000 0.000000 0.020200 0.020200 -0.020200 0.000000 0.020200 0.000000 0.000000 -0.020200 -0.020200 -0.020200 0.000000 0.020200 -0.020200 -0.020200 0.020200 -0.020200 0.020200 0.020200 -0.020200 0.000000 -0.020200 0.020200 -0.020200 -0.020200 0.000000 0.000000 -0.020200 -0.020200 -0.020200 -0.020200 0.000000 -0.020200 0.000000 0.000000 -0.020200 -0.020200 -0.020200 0.020200 -0.020200 0.020200 -0.020200 -0.020200 -0.020200 -0.020200 0.020200 0.000000 0.000000 0.020200 0.020200 0.020200 -0.020200 0.020200 -0.020200 0.020200 -0.020200 0.000000 -0.020200 0.000000 -0.020200 0.000000 0.000000 -0.020200 0.000000 0.020200 -0.020200 0.020200 0.020200 0.020200 0.000000 0.020200 0.000000 0.000000 -0.020200 0.020200 -0.020200 0.020200 0.000000 -0.020200 0.020200 0.020200 0.020200 0.020200 0.000000 -0.020200 -0.020200 0.000000 -0.020200 0.000000 0.000000 0.020200 0.000000 0.000000 0.000000 0.000000 0.020200 -0.020200 0.020200 0.020200 0.020200 0.000000 -0.020200 -0.020200 0.020200 0.000000 0.000000 0.000000 0.020200 0.000000 0.000000 0.020200 0.000000 -0.020200 -0.020200 -0.020200 0.149800 0.149800 -0.149800 0.000000 0.000000 0.000000 -0.149800 0.149800 -0.149800 0.149800 -0.149800 -0.149800 -0.149800 0.149800 -0.149800 0.000000 -0.149800 -0.149800 0.149800 0.149800 -0.149800 0.000000 -0.149800 -0.149800 0.149800 0.149800 0.149800 -0.149800 -0.149800 0.149800 0.000000 0.000000 0.000000 -0.149800 0.149800 -0.149800 0.149800 0.000000 0.149800 0.149800 0.149800 0.000000 -0.149800 0.000000 0.149800 0.149800 0.000000 0.149800 0.000000 -0.149800 0.000000 -0.149800 0.149800 0.000000 0.000000 0.000000 0.000000 -0.149800 -0.149800 0.149800 0.149800 0.000000 -0.149800 0.149800 0.000000 0.149800 0.149800 -0.149800 -0.149800 0.000000 0.000000 0.000000 0.000000 0.000000 0.000000 0.000000 -0.149800 -0.149800 0.000000 0.000000 0.000000 0.149800 0.149800 0.000000 0.000000 0.000000 0.149800 -0.149800 0.149800 -0.149800 0.000000 0.000000 -0.149800 0.000000 0.000000 -0.149800 0.000000 0.000000 0.149800 0.000000 -0.149800 0.149800 0.149800 0.000000 0.000000 0.149800 -0.149800 -0.149800 0.149800 -0.149800 0.149800 -0.149800 0.149800 0.149800 0.149800 -0.149800 0.149800 0.149800 0.149800 -0.149800 0.109100 0.109100 -0.109100 0.109100 -0.109100 -0.109100 0.000000 0.000000 0.000000 -0.109100 0.109100 -0.109100 0.109100 -0.109100 0.109100 -0.109100 0.000000 0.109100 0.000000 0.109100 0.000000 0.109100 -0.109100 -0.109100 0.000000 0.109100 0.000000 0.109100 0.000000 -0.109100 0.109100 0.000000 0.109100 0.109100 0.000000 -0.109100 0.000000 -0.109100 -0.109100 -0.109100 0.109100 0.000000 0.000000 0.109100 0.109100 0.000000 -0.109100 -0.109100 0.109100 0.109100 -0.109100 0.000000 0.109100 0.000000 0.109100 0.109100 0.000000 0.109100 0.109100 -0.109100 -0.109100 0.000000 -0.109100 -0.109100 0.000000 0.000000 -0.109100 0.109100 -0.109100 0.000000 -0.109100 0.109100 -0.109100 0.000000 -0.109100 -0.109100 0.000000 0.000000 0.000000 0.109100 0.000000 0.000000 -0.109100 0.109100 0.109100 0.109100 -0.109100 0.000000 0.109100 0.000000 -0.109100 -0.109100 -0.109100 0.000000 -0.109100 0.000000 -0.109100 0.000000 0.109100 0.109100 0.000000 0.000000 0.109100 -0.109100 0.109100 0.109100 -0.109100 0.000000 0.000000 0.000000 -0.109100 0.109100 0.000000 0.109100 0.000000 0.109100 0.000000 0.109100 -0.109100 -0.109100 0.092900 0.000000 0.092900 0.000000 -0.092900 0.000000 -0.092900 -0.092900 0.000000 0.092900 0.092900 -0.092900 0.000000 0.000000 0.092900 0.000000 0.092900 0.092900 0.000000 -0.092900 0.092900 0.000000 0.092900 0.092900 0.000000 -0.092900 0.000000 0.000000 0.092900 0.000000 0.000000 -0.092900 0.000000 -0.092900 -0.092900 0.092900 -0.092900 -0.092900 0.092900 0.000000 0.000000 0.092900 0.092900 -0.092900 -0.092900 -0.092900 0.000000 0.092900 -0.092900 0.092900 -0.092900 0.092900 -0.092900 -0.092900 0.092900 0.092900 0.092900 0.000000 -0.092900 0.000000 -0.092900 -0.092900 0.092900 0.000000 0.000000 -0.092900 0.092900 0.000000 0.000000 0.092900 -0.092900 -0.092900 0.000000 -0.092900 0.092900 0.000000 0.092900 0.000000 -0.092900 0.000000 0.092900 0.000000 0.092900 0.000000 -0.092900 -0.092900 0.092900 0.092900 -0.092900 0.092900 0.000000 -0.092900 0.000000 -0.092900 -0.092900 -0.092900 -0.092900 -0.092900 -0.092900 0.000000 0.092900 0.000000 0.000000 -0.092900 -0.092900 0.092900 0.092900 0.092900 -0.092900 0.000000 0.000000 0.000000 0.092900 0.000000 0.000000 -0.092900 0.000000 -0.092900 0.000000 -0.092900 0.000000 0.045400 0.000000 0.045400 -0.045400 -0.045400 0.045400 0.045400 0.045400 0.000000 -0.045400 0.000000 -0.045400 0.000000 0.000000 -0.045400 0.000000 0.045400 0.045400 0.045400 0.045400 -0.045400 -0.045400 0.045400 0.000000 0.045400 0.045400 -0.045400 0.000000 -0.045400 -0.045400 0.045400 0.045400 0.045400 0.000000 -0.045400 0.000000 -0.045400 0.045400 -0.045400 0.045400 -0.045400 0.000000 0.000000 -0.045400 -0.045400 0.045400 0.000000 0.000000 0.045400 0.000000 0.045400 0.045400 0.000000 0.000000 0.045400 0.045400 -0.045400 -0.045400 0.045400 0.000000 -0.045400 0.000000 0.000000 0.000000 0.045400 0.045400 0.000000 0.000000 0.000000 0.000000 -0.045400 -0.045400 0.000000 0.045400 -0.045400 0.000000 0.045400 0.045400 -0.045400 0.000000 0.000000 0.000000 0.045400 0.000000 -0.045400 -0.045400 0.045400 -0.045400 0.000000 0.045400 -0.045400 -0.045400 0.045400 0.000000 0.045400 0.045400 -0.045400 -0.045400 -0.045400 -0.045400 -0.045400 0.000000 0.000000 -0.045400 -0.045400 0.045400 0.000000 -0.045400 0.000000 0.045400 0.045400 0.000000 0.045400 0.045400 0.000000 0.045400 0.045400 0.000000 0.045400 0.000000 0.014800 0.014800 -0.014800 0.014800 -0.014800 0.000000 0.014800 0.014800 0.014800 -0.014800 0.000000 0.014800 0.000000 0.000000 -0.014800 0.000000 0.000000 0.014800 -0.014800 0.014800 -0.014800 -0.014800 0.000000 0.000000 -0.014800 0.014800 0.000000 -0.014800 0.014800 -0.014800 0.014800 0.000000 0.000000 0.014800 0.000000 0.000000 0.000000 0.014800 -0.014800 -0.014800 0.000000 -0.014800 0.000000 0.000000 0.000000 0.000000 0.000000 0.014800 0.014800 0.000000 -0.014800 0.014800 -0.014800 0.000000 0.000000 -0.014800 -0.014800 0.000000 -0.014800 0.014800 0.000000 -0.014800 0.000000 0.014800 -0.014800 -0.014800 0.000000 0.014800 0.000000 0.014800 0.014800 -0.014800 0.000000 -0.014800 -0.014800 0.014800 -0.014800 -0.014800 -0.014800 0.014800 0.000000 0.014800 0.014800 0.000000 -0.014800 -0.014800 0.000000 -0.014800 0.014800 0.014800 0.000000 -0.014800 0.014800 0.000000 0.000000 0.000000 0.000000 0.014800 0.014800 0.000000 0.014800 -0.014800 0.014800 0.014800 0.014800 0.014800 0.000000 -0.014800 -0.014800 -0.014800 0.000000 0.000000 0.014800 0.000000 0.014800 0.014800 0.014800 0.000000 -0.014800 -0.135100 0.000000 0.135100 0.000000 -0.135100 -0.135100 -0.135100 0.135100 -0.135100 0.000000 0.135100 0.000000 0.135100 -0.135100 0.000000 0.000000 0.000000 0.135100 0.135100 0.135100 -0.135100 -0.135100 -0.135100 0.000000 0.000000 -0.135100 0.135100 0.135100 -0.135100 0.000000 0.135100 0.135100 0.135100 0.000000 0.000000 -0.135100 0.135100 0.000000 0.000000 -0.135100 0.135100 0.000000 0.000000 0.000000 0.135100 -0.135100 0.135100 0.135100 0.000000 0.135100 0.000000 0.135100 0.000000 0.135100 0.135100 0.000000 0.000000 0.000000 -0.135100 -0.135100 0.135100 0.000000 -0.135100 0.135100 0.000000 0.135100 0.135100 0.000000 -0.135100 0.135100 0.135100 0.135100 -0.135100 0.135100 0.000000 -0.135100 0.135100 0.000000 0.000000 0.135100 -0.135100 0.135100 0.000000 0.000000 0.000000 0.135100 0.000000 -0.135100 0.000000 0.000000 0.000000 -0.135100 0.000000 -0.135100 0.135100 -0.135100 0.135100 0.000000 -0.135100 -0.135100 -0.135100 0.135100 -0.135100 0.000000 0.135100 -0.135100 0.135100 0.135100 0.135100 0.135100 0.000000 0.135100 -0.135100 -0.135100 0.000000 0.135100 0.135100 0.000000 0.000000 -0.135100 -0.145000 -0.145000 0.000000 0.000000 0.000000 0.000000 0.000000 -0.145000 0.000000 -0.145000 -0.145000 0.000000 0.145000 0.145000 -0.145000 0.145000 -0.145000 0.000000 -0.145000 0.000000 0.000000 0.000000 -0.145000 0.000000 -0.145000 -0.145000 -0.145000 0.000000 0.000000 -0.145000 0.145000 0.145000 -0.145000 -0.145000 -0.145000 0.000000 0.000000 0.000000 -0.145000 0.145000 0.000000 -0.145000 0.000000 -0.145000 0.000000 0.000000 0.000000 -0.145000 0.145000 0.145000 0.145000 0.000000 0.145000 -0.145000 0.145000 0.145000 0.000000 -0.145000 -0.145000 0.145000 0.000000 0.145000 0.000000 -0.145000 0.145000 0.145000 0.000000 -0.145000 0.000000 0.000000 0.145000 -0.145000 -0.145000 0.000000 0.145000 0.145000 -0.145000 0.000000 -0.145000 0.000000 -0.145000 0.145000 0.000000 0.145000 0.000000 -0.145000 0.145000 0.000000 0.145000 -0.145000 0.000000 -0.145000 -0.145000 0.000000 -0.145000 0.145000 -0.145000 0.000000 0.145000 0.000000 0.145000 -0.145000 0.145000 -0.145000 -0.145000 0.145000 0.145000 0.145000 0.145000 -0.145000 0.000000 0.145000 0.000000 0.145000 0.145000 -0.145000 -0.145000 0.000000 -0.145000 -0.145000 0.077200 -0.077200 0.000000 0.077200 -0.077200 0.077200 0.077200 0.077200 0.077200 0.077200 0.000000 -0.077200 0.000000 0.077200 0.077200 0.077200 0.000000 0.077200 -0.077200 0.077200 -0.077200 -0.077200 0.000000 0.077200 0.077200 -0.077200 0.000000 0.077200 0.000000 -0.077200 0.000000 -0.077200 -0.077200 0.077200 0.000000 0.000000 -0.077200 0.077200 0.000000 -0.077200 0.077200 0.077200 0.077200 0.000000 0.000000 0.077200 0.000000 -0.077200 -0.077200 -0.077200 -0.077200 -0.077200 0.000000 0.000000 -0.077200 0.077200 -0.077200 -0.077200 0.000000 0.000000 0.000000 0.000000 0.000000 0.000000 -0.077200 -0.077200 -0.077200 -0.077200 0.077200 0.000000 -0.077200 0.000000 0.077200 0.000000 0.077200 0.077200 -0.077200 0.000000 0.077200 -0.077200 0.077200 -0.077200 0.077200 0.077200 -0.077200 0.000000 -0.077200 -0.077200 0.077200 0.077200 0.077200 0.077200 -0.077200 0.000000 0.000000 0.000000 -0.077200 0.077200 0.077200 0.000000 -0.077200 0.077200 0.077200 -0.077200 0.000000 0.000000 0.000000 0.000000 0.000000 0.000000 0.000000 0.000000 0.000000 -0.077200 0.000000 0.077200 0.000000 0.077200 0.077200 0.000000 0.070500 0.000000 0.000000 0.070500 0.070500 -0.070500 -0.070500 0.070500 0.000000 -0.070500 -0.070500 0.000000 -0.070500 0.000000 0.000000 -0.070500 0.000000 0.000000 0.070500 -0.070500 -0.070500 0.070500 0.070500 0.000000 0.000000 -0.070500 -0.070500 0.000000 -0.070500 -0.070500 0.070500 0.000000 0.070500 0.000000 0.000000 -0.070500 -0.070500 0.070500 -0.070500 -0.070500 0.070500 0.070500 0.000000 0.000000 0.000000 0.070500 0.070500 0.000000 -0.070500 0.070500 0.000000 0.000000 0.070500 -0.070500 0.000000 0.000000 -0.070500 0.000000 0.070500 -0.070500 0.070500 0.000000 0.070500 0.070500 0.000000 -0.070500 -0.070500 0.070500 0.000000 -0.070500 0.000000 -0.070500 0.000000 -0.070500 -0.070500 0.070500 0.000000 0.000000 0.070500 -0.070500 0.070500 -0.070500 -0.070500 -0.070500 -0.070500 -0.070500 -0.070500 0.000000 -0.070500 0.000000 0.000000 -0.070500 0.070500 0.070500 0.000000 0.070500 -0.070500 0.070500 0.000000 0.070500 0.000000 0.070500 -0.070500 0.000000 0.000000 0.000000 0.000000 0.070500 -0.070500 -0.070500 0.000000 0.070500 -0.070500 0.000000 0.000000 -0.070500 0.000000 0.070500 -0.070500 0.070500 0.000000 0.000000 -0.089300 0.089300 0.000000 -0.089300 0.089300 0.089300 -0.089300 -0.089300 0.000000 0.000000 0.000000 0.000000 0.000000 -0.089300 0.000000 -0.089300 0.089300 -0.089300 0.000000 0.089300 -0.089300 0.000000 0.000000 -0.089300 0.000000 0.000000 0.089300 0.000000 0.000000 0.000000 0.089300 -0.089300 0.000000 -0.089300 -0.089300 -0.089300 0.000000 0.000000 -0.089300 0.089300 0.089300 0.000000 -0.089300 0.089300 0.089300 -0.089300 0.089300 -0.089300 -0.089300 0.089300 -0.089300 0.089300 0.089300 0.089300 -0.089300 -0.089300 -0.089300 0.089300 0.000000 -0.089300 -0.089300 0.000000 0.000000 0.000000 0.000000 -0.089300 0.000000 0.089300 0.000000 0.000000 0.089300 0.089300 0.089300 0.089300 0.089300 0.089300 0.089300 0.000000 0.000000 -0.089300 -0.089300 0.089300 0.000000 0.089300 0.089300 0.089300 0.000000 0.089300 -0.089300 0.000000 0.089300 -0.089300 0.000000 0.000000 0.089300 -0.089300 -0.089300 -0.089300 0.089300 0.000000 0.089300 0.089300 0.089300 0.000000 -0.089300 0.089300 -0.089300 -0.089300 0.000000 0.000000 -0.089300 -0.089300 0.000000 0.089300 -0.089300 0.089300 0.000000 0.089300 0.000000 0.000000 -0.079100 0.000000 0.000000 0.000000 0.079100 0.000000 0.079100 0.079100 -0.079100 -0.079100 0.000000 -0.079100 0.079100 0.000000 0.000000 -0.079100 0.000000 -0.079100 0.079100 -0.079100 -0.079100 0.000000 0.000000 0.000000 -0.079100 0.000000 -0.079100 0.000000 0.000000 -0.079100 0.000000 0.079100 -0.079100 0.000000 -0.079100 0.000000 0.000000 0.079100 0.000000 0.000000 0.079100 0.000000 -0.079100 0.000000 0.000000 0.079100 0.000000 -0.079100 -0.079100 -0.079100 0.079100 0.000000 -0.079100 0.079100 -0.079100 0.000000 0.079100 -0.079100 -0.079100 0.079100 0.000000 -0.079100 -0.079100 0.079100 -0.079100 0.000000 0.079100 0.000000 0.000000 0.000000 -0.079100 0.079100 -0.079100 -0.079100 -0.079100 -0.079100 0.079100 0.079100 0.000000 -0.079100 0.000000 -0.079100 0.079100 -0.079100 -0.079100 -0.079100 0.079100 0.079100 0.079100 0.079100 0.000000 0.000000 0.000000 0.000000 -0.079100 -0.079100 0.079100 0.000000 -0.079100 0.000000 -0.079100 0.079100 0.079100 0.079100 -0.079100 -0.079100 0.000000 0.079100 0.000000 -0.079100 -0.079100 0.000000 -0.079100 0.000000 0.000000 0.079100 0.000000 0.079100 0.000000 0.000000 -0.055500 0.055500 -0.055500 0.055500 0.000000 0.055500 0.055500 -0.055500 0.000000 0.000000 0.055500 -0.055500 0.055500 0.055500 0.055500 0.000000 0.000000 -0.055500 0.055500 0.000000 -0.055500 -0.055500 0.000000 0.000000 -0.055500 -0.055500 0.055500 -0.055500 0.000000 0.055500 -0.055500 0.000000 0.000000 0.055500 -0.055500 0.000000 -0.055500 -0.055500 0.055500 -0.055500 0.000000 -0.055500 -0.055500 0.055500 -0.055500 0.055500 0.055500 0.000000 0.055500 -0.055500 0.000000 0.000000 0.055500 0.000000 -0.055500 -0.055500 0.055500 0.000000 0.000000 0.055500 -0.055500 0.055500 0.055500 0.055500 -0.055500 0.055500 0.055500 -0.055500 -0.055500 0.000000 0.000000 0.055500 0.000000 0.000000 0.000000 0.055500 0.000000 -0.055500 -0.055500 0.055500 0.055500 0.000000 0.055500 0.055500 0.055500 0.055500 -0.055500 -0.055500 -0.055500 -0.055500 0.055500 -0.055500 -0.055500 0.000000 0.000000 0.000000 0.000000 0.055500 0.055500 -0.055500 0.055500 0.000000 0.000000 0.000000 0.000000 -0.055500 -0.055500 0.000000 0.000000 0.055500 0.000000 0.055500 0.000000 0.000000 0.000000 -0.055500 0.055500 0.000000 0.058200 -0.058200 -0.058200 0.058200 0.058200 0.000000 0.058200 -0.058200 0.058200 0.058200 0.058200 -0.058200 0.000000 -0.058200 0.058200 0.058200 0.058200 0.000000 0.058200 0.000000 0.000000 0.058200 0.058200 0.000000 -0.058200 0.000000 -0.058200 0.058200 0.058200 0.058200 0.058200 -0.058200 0.058200 0.000000 -0.058200 -0.058200 0.000000 0.058200 0.058200 0.058200 0.058200 -0.058200 -0.058200 0.058200 0.000000 0.000000 0.058200 0.058200 -0.058200 0.000000 0.058200 0.000000 0.058200 0.000000 -0.058200 0.058200 0.058200 0.058200 0.058200 -0.058200 -0.058200 0.058200 0.000000 0.000000 -0.058200 0.000000 0.000000 0.000000 0.000000 0.058200 0.000000 0.000000 0.000000 -0.058200 0.000000 0.000000 -0.058200 0.000000 0.000000 0.058200 0.000000 0.000000 0.058200 0.000000 0.058200 0.058200 -0.058200 -0.058200 -0.058200 0.000000 -0.058200 0.000000 -0.058200 0.058200 0.000000 0.000000 0.058200 0.058200 0.000000 -0.058200 -0.058200 0.058200 0.000000 0.000000 0.058200 0.000000 -0.058200 0.000000 0.058200 -0.058200 -0.058200 0.058200 0.058200 -0.058200 -0.058200 0.058200 -0.058200 -0.058200 -0.058200 0.058200 0.000000 -0.148300 -0.148300 0.148300 0.000000 -0.148300 -0.148300 0.148300 0.000000 -0.148300 -0.148300 0.148300 0.148300 0.148300 -0.148300 0.148300 -0.148300 -0.148300 0.148300 -0.148300 -0.148300 -0.148300 0.148300 0.000000 -0.148300 0.148300 -0.148300 -0.148300 0.148300 0.000000 0.000000 0.000000 -0.148300 -0.148300 -0.148300 0.148300 -0.148300 0.148300 0.000000 0.148300 -0.148300 0.000000 0.000000 0.148300 0.148300 -0.148300 0.148300 0.148300 0.148300 0.148300 -0.148300 0.000000 -0.148300 -0.148300 0.000000 -0.148300 0.148300 0.000000 0.148300 0.000000 -0.148300 0.148300 -0.148300 -0.148300 0.000000 -0.148300 -0.148300 -0.148300 0.148300 0.000000 0.148300 -0.148300 0.000000 0.148300 -0.148300 -0.148300 0.000000 -0.148300 0.000000 0.148300 0.148300 -0.148300 -0.148300 0.148300 -0.148300 0.000000 0.000000 0.000000 0.000000 0.148300 -0.148300 -0.148300 -0.148300 0.148300 0.000000 0.148300 0.000000 -0.148300 -0.148300 0.148300 -0.148300 -0.148300 0.148300 -0.148300 0.000000 -0.148300 0.000000 0.000000 0.148300 -0.148300 0.148300 0.000000 0.000000 0.000000 0.148300 0.000000 0.148300 0.148300 0.000000 -0.148300 0.000000 0.000000 -0.076100 -0.076100 -0.076100 0.076100 0.076100 0.000000 0.076100 0.076100 0.076100 -0.076100 0.076100 0.000000 0.000000 0.076100 -0.076100 0.000000 -0.076100 0.076100 0.000000 0.076100 0.076100 -0.076100 0.076100 -0.076100 0.076100 0.000000 0.076100 0.076100 0.076100 -0.076100 0.000000 0.000000 0.076100 0.000000 0.076100 -0.076100 -0.076100 -0.076100 0.076100 -0.076100 0.000000 0.076100 0.000000 0.000000 0.076100 0.076100 -0.076100 0.076100 0.000000 0.000000 -0.076100 0.076100 0.076100 0.000000 -0.076100 -0.076100 0.076100 0.076100 0.076100 0.076100 0.076100 0.000000 -0.076100 0.000000 0.076100 -0.076100 0.000000 0.000000 -0.076100 0.076100 0.000000 0.076100 0.000000 0.000000 0.076100 0.000000 -0.076100 0.000000 0.076100 0.000000 0.000000 0.076100 -0.076100 -0.076100 -0.076100 0.000000 0.076100 -0.076100 0.000000 -0.076100 0.076100 0.000000 0.000000 0.076100 0.000000 -0.076100 -0.076100 -0.076100 0.076100 0.000000 -0.076100 0.000000 -0.076100 0.076100 -0.076100 0.076100 0.076100 -0.076100 0.000000 -0.076100 0.076100 0.000000 -0.076100 -0.076100 0.000000 -0.076100 -0.076100 0.076100 0.000000 -0.015000 -0.015000 0.015000 0.015000 0.000000 -0.015000 0.015000 0.000000 0.000000 0.000000 0.015000 -0.015000 -0.015000 -0.015000 0.015000 -0.015000 0.000000 0.015000 0.015000 0.015000 -0.015000 0.000000 0.015000 -0.015000 -0.015000 0.000000 0.015000 0.000000 0.000000 0.015000 0.000000 -0.015000 0.000000 0.015000 -0.015000 0.000000 -0.015000 -0.015000 -0.015000 0.000000 0.000000 0.015000 0.000000 0.000000 0.015000 0.015000 0.000000 0.015000 -0.015000 0.000000 0.015000 0.015000 -0.015000 0.015000 0.000000 -0.015000 0.015000 0.015000 0.000000 0.000000 -0.015000 0.000000 -0.015000 0.015000 0.015000 0.015000 0.000000 0.000000 0.000000 0.015000 0.000000 -0.015000 0.000000 -0.015000 0.015000 0.015000 -0.015000 -0.015000 -0.015000 0.000000 0.015000 -0.015000 -0.015000 0.015000 -0.015000 0.000000 -0.015000 0.015000 0.015000 0.000000 -0.015000 0.000000 0.000000 -0.015000 0.015000 0.000000 0.015000 0.015000 -0.015000 0.015000 -0.015000 -0.015000 0.000000 0.000000 0.015000 -0.015000 0.015000 0.000000 0.000000 -0.015000 -0.015000 -0.015000 -0.015000 0.015000 0.000000 0.015000 0.000000 0.000000 -0.015000 -0.060300 0.060300 -0.060300 0.000000 0.000000 0.000000 0.060300 -0.060300 0.060300 0.000000 0.000000 0.000000 0.060300 0.060300 0.060300 0.000000 -0.060300 -0.060300 -0.060300 -0.060300 0.000000 -0.060300 0.000000 0.000000 0.060300 0.000000 0.060300 -0.060300 0.060300 0.000000 0.060300 -0.060300 0.060300 0.060300 -0.060300 -0.060300 0.000000 0.060300 -0.060300 0.000000 -0.060300 0.000000 0.000000 0.000000 0.000000 -0.060300 0.000000 -0.060300 0.060300 0.060300 0.060300 -0.060300 0.000000 -0.060300 0.060300 -0.060300 -0.060300 -0.060300 0.060300 0.000000 -0.060300 0.000000 0.000000 0.000000 0.060300 -0.060300 0.000000 0.000000 0.000000 0.060300 0.060300 0.060300 0.000000 -0.060300 0.000000 0.060300 0.000000 0.060300 0.060300 -0.060300 0.000000 -0.060300 0.060300 0.060300 -0.060300 0.060300 0.060300 0.000000 0.000000 0.000000 0.000000 -0.060300 0.060300 0.060300 0.060300 -0.060300 0.060300 -0.060300 -0.060300 0.000000 -0.060300 -0.060300 -0.060300 0.060300 -0.060300 -0.060300 -0.060300 0.000000 0.000000 0.000000 0.060300 0.060300 -0.060300 -0.060300 -0.060300 0.060300 0.000000 0.060300 -0.060300 -0.060300 -0.060700 0.000000 -0.060700 0.000000 0.000000 0.060700 0.000000 -0.060700 0.060700 0.000000 0.000000 0.060700 0.060700 0.060700 0.060700 0.060700 -0.060700 0.060700 0.060700 0.000000 -0.060700 -0.060700 0.000000 0.000000 0.000000 0.060700 0.000000 0.060700 0.060700 0.000000 0.000000 0.000000 0.060700 0.060700 0.000000 0.000000 -0.060700 0.000000 -0.060700 0.000000 0.060700 0.060700 0.060700 -0.060700 -0.060700 0.060700 0.000000 0.060700 0.000000 0.000000 0.000000 0.000000 -0.060700 0.060700 0.060700 0.060700 0.000000 -0.060700 0.000000 0.000000 -0.060700 -0.060700 -0.060700 0.000000 -0.060700 0.060700 0.060700 -0.060700 -0.060700 0.000000 0.000000 -0.060700 0.060700 -0.060700 -0.060700 -0.060700 0.060700 -0.060700 0.060700 -0.060700 0.060700 0.060700 0.060700 -0.060700 0.000000 0.000000 0.000000 0.060700 0.060700 0.000000 -0.060700 0.000000 -0.060700 0.000000 0.000000 0.060700 0.060700 0.060700 -0.060700 0.000000 0.000000 -0.060700 0.000000 -0.060700 -0.060700 0.060700 -0.060700 0.000000 0.000000 0.060700 0.060700 0.000000 0.000000 0.000000 -0.060700 0.000000 0.000000 -0.060700 0.000000 0.060700 0.000000 -0.027100 0.000000 0.027100 0.000000 0.027100 -0.027100 0.027100 0.027100 0.000000 -0.027100 -0.027100 0.027100 -0.027100 -0.027100 0.000000 -0.027100 0.000000 0.000000 0.027100 0.027100 -0.027100 0.000000 -0.027100 -0.027100 -0.027100 -0.027100 0.027100 -0.027100 -0.027100 0.000000 0.027100 -0.027100 -0.027100 0.000000 0.027100 0.000000 0.027100 0.000000 0.000000 0.027100 -0.027100 -0.027100 -0.027100 0.027100 0.000000 0.000000 0.027100 -0.027100 0.027100 0.000000 0.027100 0.027100 0.027100 0.027100 -0.027100 0.027100 -0.027100 -0.027100 -0.027100 -0.027100 0.000000 -0.027100 0.000000 0.000000 0.000000 0.000000 -0.027100 0.027100 -0.027100 0.000000 -0.027100 -0.027100 -0.027100 -0.027100 0.027100 -0.027100 0.027100 0.027100 -0.027100 -0.027100 0.000000 0.000000 -0.027100 0.027100 -0.027100 0.000000 0.000000 0.000000 0.000000 0.000000 -0.027100 0.000000 0.027100 0.000000 -0.027100 -0.027100 0.027100 0.000000 -0.027100 -0.027100 0.000000 0.027100 0.000000 0.027100 -0.027100 0.000000 0.000000 0.000000 -0.027100 0.000000 -0.027100 0.000000 0.000000 0.027100 0.000000 0.027100 0.000000 0.000000 0.027100 0.157700 -0.157700 -0.157700 -0.157700 0.000000 0.000000 0.000000 0.157700 0.000000 -0.157700 -0.157700 0.000000 0.157700 0.000000 -0.157700 0.000000 0.157700 -0.157700 0.157700 0.157700 0.000000 -0.157700 -0.157700 0.000000 -0.157700 -0.157700 -0.157700 0.000000 -0.157700 -0.157700 0.000000 0.157700 -0.157700 0.000000 0.157700 0.000000 -0.157700 0.000000 0.157700 0.000000 0.157700 0.000000 0.157700 0.157700 -0.157700 -0.157700 -0.157700 0.157700 -0.157700 0.157700 0.000000 0.157700 -0.157700 0.000000 0.000000 0.157700 0.000000 0.157700 0.000000 0.000000 0.000000 -0.157700 -0.157700 0.000000 -0.157700 -0.157700 0.157700 0.157700 0.000000 0.157700 0.157700 0.157700 0.157700 -0.157700 0.000000 0.157700 0.000000 0.157700 -0.157700 0.000000 0.157700 -0.157700 0.157700 -0.157700 -0.157700 0.000000 -0.157700 0.000000 0.000000 0.157700 0.000000 0.000000 -0.157700 0.000000 -0.157700 0.157700 -0.157700 0.157700 -0.157700 -0.157700 -0.157700 0.000000 -0.157700 -0.157700 0.000000 -0.157700 -0.157700 0.000000 0.157700 0.157700 0.000000 0.157700 0.157700 -0.157700 0.157700 0.157700 0.000000 -0.157700 0.157700 0.000000 -0.120500 -0.120500 -0.120500 -0.120500 0.000000 0.120500 0.120500 0.120500 0.000000 -0.120500 0.120500 0.000000 0.120500 0.000000 -0.120500 -0.120500 -0.120500 0.120500 0.000000 -0.120500 0.120500 0.120500 0.120500 0.120500 0.000000 0.000000 -0.120500 0.120500 0.120500 -0.120500 0.000000 -0.120500 0.120500 0.000000 0.120500 0.000000 0.000000 -0.120500 0.120500 0.120500 0.120500 -0.120500 0.120500 -0.120500 0.000000 0.000000 -0.120500 0.000000 -0.120500 0.120500 0.120500 0.000000 0.120500 0.120500 0.120500 0.000000 -0.120500 -0.120500 0.120500 -0.120500 0.120500 0.120500 -0.120500 0.000000 0.120500 0.120500 0.000000 0.000000 0.120500 0.000000 0.000000 0.000000 0.000000 0.120500 -0.120500 -0.120500 -0.120500 -0.120500 -0.120500 -0.120500 0.000000 -0.120500 -0.120500 0.120500 0.000000 0.000000 0.000000 0.120500 0.120500 -0.120500 -0.120500 -0.120500 0.120500 0.000000 0.120500 0.000000 -0.120500 0.000000 0.120500 0.000000 -0.120500 0.120500 0.000000 -0.120500 0.120500 -0.120500 0.120500 -0.120500 -0.120500 0.120500 0.000000 -0.120500 -0.120500 -0.120500 0.000000 0.000000 -0.120500 0.120500 0.120500 0.000000 0.000000 0.011700 -0.011700 0.000000 0.011700 0.000000 0.000000 -0.011700 -0.011700 0.011700 -0.011700 -0.011700 0.000000 -0.011700 0.011700 0.011700 0.000000 -0.011700 0.011700 -0.011700 0.000000 0.000000 0.000000 -0.011700 -0.011700 -0.011700 0.011700 0.000000 -0.011700 -0.011700 0.011700 0.011700 -0.011700 -0.011700 0.000000 -0.011700 0.011700 0.000000 0.000000 0.011700 0.000000 0.011700 0.000000 0.000000 0.011700 -0.011700 0.011700 0.000000 0.011700 -0.011700 0.000000 0.000000 0.000000 -0.011700 0.000000 -0.011700 -0.011700 0.011700 0.011700 0.000000 0.011700 -0.011700 0.011700 -0.011700 -0.011700 0.000000 0.000000 0.000000 0.011700 0.011700 -0.011700 0.011700 0.000000 0.000000 0.000000 0.011700 0.011700 0.000000 0.011700 -0.011700 0.000000 -0.011700 -0.011700 -0.011700 -0.011700 -0.011700 0.011700 -0.011700 0.011700 -0.011700 0.011700 0.000000 0.000000 0.011700 0.011700 -0.011700 -0.011700 -0.011700 0.011700 -0.011700 -0.011700 0.000000 0.011700 0.011700 0.000000 0.000000 0.000000 0.000000 0.000000 0.011700 -0.011700 0.011700 0.011700 -0.011700 0.000000 0.000000 -0.011700 0.000000 0.011700 -0.011700 0.000000 -0.171500 -0.171500 0.171500 -0.171500 0.000000 0.171500 -0.171500 -0.171500 -0.171500 0.000000 -0.171500 -0.171500 0.171500 0.000000 0.171500 0.171500 -0.171500 -0.171500 -0.171500 0.171500 0.000000 0.000000 0.000000 0.000000 0.171500 -0.171500 0.000000 0.171500 0.000000 -0.171500 -0.171500 0.171500 0.171500 0.000000 0.000000 0.171500 0.000000 -0.171500 0.171500 -0.171500 0.171500 0.000000 0.171500 0.171500 0.000000 0.171500 0.171500 0.171500 -0.171500 0.000000 -0.171500 0.000000 -0.171500 -0.171500 0.171500 -0.171500 0.000000 0.000000 0.000000 0.171500 0.000000 0.000000 0.000000 -0.171500 -0.171500 0.000000 0.171500 0.171500 -0.171500 0.000000 -0.171500 0.000000 0.000000 0.000000 0.171500 0.000000 -0.171500 0.171500 -0.171500 -0.171500 -0.171500 -0.171500 0.000000 -0.171500 0.171500 0.171500 -0.171500 -0.171500 -0.171500 0.000000 0.000000 0.000000 0.000000 0.171500 -0.171500 -0.171500 0.171500 0.171500 0.000000 0.000000 -0.171500 0.000000 -0.171500 0.171500 -0.171500 -0.171500 0.171500 0.171500 0.171500 0.000000 0.000000 -0.171500 0.000000 0.171500 0.171500 0.000000 0.000000 0.171500 0.000000 0.000000 -0.117700 0.000000 -0.117700 0.117700 0.117700 0.000000 0.117700 0.117700 -0.117700 0.000000 0.000000 0.000000 0.117700 0.000000 -0.117700 -0.117700 0.117700 -0.117700 0.000000 0.117700 0.000000 -0.117700 -0.117700 -0.117700 -0.117700 0.117700 -0.117700 -0.117700 0.000000 0.117700 0.117700 0.000000 0.000000 -0.117700 0.000000 0.117700 0.000000 0.117700 0.117700 0.117700 0.000000 0.117700 -0.117700 0.000000 -0.117700 0.117700 -0.117700 -0.117700 0.000000 0.117700 -0.117700 0.117700 -0.117700 0.117700 0.117700 -0.117700 -0.117700 0.000000 0.117700 0.000000 -0.117700 0.000000 0.117700 -0.117700 -0.117700 0.000000 -0.117700 0.000000 0.000000 0.117700 0.117700 0.000000 0.000000 0.000000 0.117700 -0.117700 0.117700 0.117700 0.117700 0.117700 0.117700 0.000000 -0.117700 -0.117700 0.000000 0.000000 0.117700 0.117700 -0.117700 0.000000 0.000000 -0.117700 -0.117700 0.117700 -0.117700 0.117700 -0.117700 0.000000 -0.117700 0.000000 -0.117700 0.117700 -0.117700 -0.117700 0.117700 0.117700 -0.117700 0.000000 -0.117700 0.000000 0.117700 0.117700 0.000000 0.000000 -0.117700 0.000000 0.000000 0.117700 -0.117700 0.000000 0.000000 0.105700 -0.105700 0.000000 0.105700 0.000000 0.105700 0.000000 0.105700 0.000000 0.000000 0.000000 0.105700 0.000000 0.105700 0.000000 -0.105700 0.000000 0.000000 -0.105700 -0.105700 0.000000 0.000000 -0.105700 0.105700 0.105700 -0.105700 -0.105700 0.000000 0.000000 -0.105700 0.000000 0.105700 -0.105700 0.105700 0.000000 0.105700 0.105700 -0.105700 0.000000 0.000000 0.105700 -0.105700 -0.105700 0.000000 0.000000 0.105700 0.000000 -0.105700 0.000000 0.105700 -0.105700 0.000000 -0.105700 0.000000 0.105700 -0.105700 0.000000 -0.105700 -0.105700 0.105700 0.105700 -0.105700 0.105700 -0.105700 0.000000 0.000000 -0.105700 0.000000 0.000000 0.105700 0.105700 -0.105700 0.105700 -0.105700 0.000000 0.105700 0.105700 -0.105700 0.105700 0.000000 -0.105700 0.000000 0.105700 0.105700 0.000000 0.000000 0.000000 -0.105700 0.000000 -0.105700 -0.105700 0.105700 0.105700 0.105700 -0.105700 0.105700 0.000000 -0.105700 -0.105700 0.105700 -0.105700 0.105700 -0.105700 -0.105700 -0.105700 0.105700 0.105700 0.000000 -0.105700 0.000000 0.105700 0.000000 0.000000 0.000000 0.105700 0.000000 0.000000 0.105700 0.000000 -0.133000 0.133000 0.000000 0.133000 0.000000 -0.133000 0.133000 -0.133000 0.133000 0.000000 -0.133000 0.000000 0.133000 0.133000 -0.133000 0.000000 0.000000 0.000000 -0.133000 -0.133000 0.000000 0.133000 0.000000 0.000000 0.133000 0.000000 -0.133000 0.133000 -0.133000 0.133000 -0.133000 0.000000 0.133000 -0.133000 0.000000 0.000000 -0.133000 0.133000 0.133000 0.133000 -0.133000 0.000000 0.000000 -0.133000 0.133000 0.133000 0.000000 0.133000 -0.133000 -0.133000 -0.133000 0.000000 -0.133000 0.133000 0.133000 -0.133000 -0.133000 0.133000 0.000000 0.000000 0.133000 -0.133000 -0.133000 0.000000 0.133000 0.133000 0.000000 0.000000 0.133000 -0.133000 -0.133000 -0.133000 -0.133000 0.000000 0.133000 0.000000 0.133000 0.133000 0.133000 0.000000 0.133000 0.133000 0.133000 0.133000 0.000000 0.133000 0.000000 -0.133000 -0.133000 -0.133000 -0.133000 0.000000 0.000000 0.133000 -0.133000 0.133000 0.000000 0.133000 0.000000 0.133000 0.000000 -0.133000 -0.133000 0.000000 0.000000 -0.133000 0.000000 -0.133000 -0.133000 -0.133000 0.000000 0.000000 0.133000 -0.133000 0.133000 0.133000 0.000000 0.000000 0.000000 -0.092300 0.000000 -0.092300 0.000000 0.000000 0.000000 0.092300 0.092300 0.000000 -0.092300 0.092300 -0.092300 -0.092300 -0.092300 -0.092300 0.092300 0.092300 0.092300 0.000000 -0.092300 0.000000 0.000000 0.000000 0.000000 -0.092300 -0.092300 0.000000 -0.092300 -0.092300 -0.092300 0.092300 0.000000 -0.092300 0.092300 0.092300 0.092300 0.000000 0.092300 -0.092300 0.092300 0.092300 0.092300 0.000000 -0.092300 0.092300 0.000000 -0.092300 0.092300 -0.092300 -0.092300 0.000000 -0.092300 -0.092300 0.092300 0.092300 -0.092300 -0.092300 0.092300 -0.092300 0.000000 -0.092300 -0.092300 -0.092300 0.000000 0.000000 0.000000 -0.092300 -0.092300 -0.092300 0.092300 0.000000 0.092300 0.000000 0.000000 0.000000 -0.092300 0.092300 0.000000 0.092300 0.092300 -0.092300 0.000000 -0.092300 -0.092300 0.092300 -0.092300 0.000000 0.000000 0.000000 0.000000 0.000000 -0.092300 0.092300 0.000000 -0.092300 0.092300 0.092300 -0.092300 0.000000 -0.092300 0.000000 0.000000 0.000000 0.092300 0.000000 -0.092300 0.000000 0.000000 0.000000 0.000000 -0.092300 0.092300 0.092300 0.000000 -0.092300 0.000000 0.092300 0.092300 0.092300 0.000000 0.062900 0.062900 0.000000 -0.062900 0.000000 0.000000 -0.062900 0.000000 -0.062900 0.000000 0.000000 -0.062900 0.062900 -0.062900 0.000000 0.062900 0.062900 0.062900 0.000000 0.000000 -0.062900 -0.062900 0.000000 0.062900 0.062900 0.062900 0.062900 -0.062900 0.000000 0.062900 0.062900 0.062900 0.000000 0.000000 -0.062900 -0.062900 -0.062900 0.000000 -0.062900 0.000000 0.062900 0.062900 0.000000 -0.062900 -0.062900 0.062900 -0.062900 -0.062900 -0.062900 0.062900 0.062900 -0.062900 -0.062900 0.062900 0.000000 0.062900 -0.062900 0.000000 0.062900 0.062900 -0.062900 -0.062900 -0.062900 0.000000 -0.062900 0.062900 0.000000 0.000000 -0.062900 0.062900 0.000000 0.062900 0.062900 0.000000 -0.062900 0.062900 0.000000 -0.062900 -0.062900 0.062900 -0.062900 -0.062900 0.000000 -0.062900 -0.062900 -0.062900 0.000000 0.062900 -0.062900 -0.062900 0.000000 0.000000 0.000000 0.062900 0.062900 0.062900 0.062900 -0.062900 0.000000 0.062900 0.000000 0.062900 -0.062900 -0.062900 0.062900 -0.062900 0.000000 0.000000 -0.062900 0.062900 0.000000 0.000000 0.062900 0.000000 0.062900 0.000000 0.000000 0.062900 0.062900 0.062900 0.000000 0.134300 0.000000 0.134300 -0.134300 -0.134300 0.000000 0.000000 0.000000 0.000000 0.134300 -0.134300 0.134300 -0.134300 0.134300 0.134300 0.134300 -0.134300 -0.134300 0.134300 0.134300 0.134300 0.000000 -0.134300 0.134300 0.000000 0.134300 0.134300 0.000000 -0.134300 0.000000 -0.134300 -0.134300 0.000000 0.000000 -0.134300 0.000000 0.134300 0.134300 -0.134300 0.134300 -0.134300 -0.134300 -0.134300 0.000000 -0.134300 0.134300 -0.134300 0.000000 0.134300 -0.134300 -0.134300 0.134300 0.000000 0.134300 0.000000 -0.134300 -0.134300 0.134300 -0.134300 -0.134300 0.134300 0.000000 0.134300 0.000000 -0.134300 -0.134300 -0.134300 -0.134300 0.000000 0.134300 0.134300 0.134300 0.000000 0.000000 -0.134300 -0.134300 0.000000 0.000000 0.000000 0.134300 0.000000 0.000000 0.000000 0.000000 -0.134300 -0.134300 0.134300 0.134300 -0.134300 0.000000 0.134300 0.000000 -0.134300 0.000000 -0.134300 0.000000 0.000000 0.134300 0.000000 0.000000 0.000000 0.000000 0.134300 0.134300 0.134300 0.000000 0.000000 0.000000 -0.134300 0.134300 -0.134300 0.134300 0.000000 0.134300 -0.134300 0.134300 -0.134300 0.000000 0.134300 0.077800 0.000000 0.000000 0.077800 0.077800 -0.077800 0.077800 0.000000 0.077800 0.000000 0.000000 0.000000 0.000000 -0.077800 -0.077800 -0.077800 -0.077800 -0.077800 0.077800 0.077800 0.000000 -0.077800 -0.077800 0.077800 -0.077800 -0.077800 0.000000 0.000000 0.077800 0.000000 0.077800 0.077800 0.000000 0.077800 -0.077800 0.077800 0.077800 -0.077800 -0.077800 0.077800 0.000000 0.000000 -0.077800 -0.077800 -0.077800 0.000000 0.000000 0.077800 -0.077800 0.000000 0.077800 0.077800 0.000000 0.000000 0.077800 0.077800 0.077800 0.000000 0.000000 0.077800 0.077800 -0.077800 0.000000 0.000000 0.000000 0.077800 -0.077800 0.000000 0.077800 0.077800 0.077800 -0.077800 -0.077800 0.077800 0.077800 -0.077800 0.000000 0.000000 0.077800 -0.077800 -0.077800 -0.077800 0.077800 0.077800 -0.077800 0.077800 -0.077800 0.077800 0.000000 0.077800 0.077800 0.077800 0.000000 0.000000 0.000000 0.077800 0.000000 0.000000 0.000000 -0.077800 0.077800 0.077800 -0.077800 0.000000 0.000000 0.000000 0.000000 0.000000 0.077800 0.000000 0.077800 -0.077800 -0.077800 0.000000 0.077800 0.000000 0.000000 0.000000 0.000000 -0.077800 -0.139900 0.000000 0.139900 0.139900 0.139900 0.000000 0.139900 0.139900 0.139900 0.139900 0.000000 0.139900 0.000000 0.139900 -0.139900 0.139900 0.139900 0.139900 0.000000 0.000000 0.000000 -0.139900 0.139900 0.139900 0.139900 -0.139900 0.139900 0.139900 0.000000 -0.139900 -0.139900 0.000000 0.000000 -0.139900 -0.139900 0.000000 0.000000 0.000000 -0.139900 -0.139900 -0.139900 0.139900 0.000000 0.139900 0.139900 0.000000 0.139900 0.000000 0.000000 0.000000 -0.139900 0.139900 -0.139900 -0.139900 0.139900 0.139900 0.139900 -0.139900 -0.139900 0.139900 0.139900 0.000000 0.139900 0.000000 0.000000 0.139900 0.139900 0.000000 0.000000 0.000000 0.000000 -0.139900 -0.139900 0.139900 -0.139900 0.000000 -0.139900 0.000000 -0.139900 0.000000 -0.139900 0.000000 0.139900 0.139900 -0.139900 0.139900 -0.139900 -0.139900 0.139900 -0.139900 0.000000 0.000000 0.139900 0.139900 -0.139900 -0.139900 0.000000 0.000000 0.000000 -0.139900 -0.139900 0.139900 0.000000 0.139900 0.000000 0.139900 0.139900 0.139900 0.000000 -0.139900 -0.139900 0.000000 0.000000 0.000000 0.000000 0.139900 0.000000 0.000000 0.139900 0.139900 0.000000 0.000000 0.000000 0.062600 -0.062600 0.000000 0.062600 0.062600 -0.062600 0.000000 0.000000 0.062600 0.000000 0.062600 0.062600 0.000000 -0.062600 0.000000 -0.062600 -0.062600 -0.062600 0.000000 0.062600 0.062600 -0.062600 0.000000 -0.062600 0.000000 -0.062600 0.062600 -0.062600 -0.062600 -0.062600 0.062600 0.062600 -0.062600 0.000000 0.000000 0.000000 -0.062600 -0.062600 0.000000 0.000000 0.062600 0.000000 0.000000 0.000000 -0.062600 -0.062600 0.062600 0.000000 0.062600 0.000000 -0.062600 -0.062600 0.062600 0.000000 -0.062600 -0.062600 -0.062600 -0.062600 0.000000 -0.062600 0.062600 0.062600 0.062600 -0.062600 0.000000 0.000000 0.000000 -0.062600 0.000000 -0.062600 -0.062600 0.000000 0.000000 -0.062600 0.000000 -0.062600 0.000000 0.062600 0.062600 -0.062600 -0.062600 -0.062600 0.062600 0.062600 -0.062600 0.062600 0.000000 0.000000 0.000000 0.000000 0.000000 0.000000 -0.062600 0.000000 0.000000 0.062600 -0.062600 0.000000 0.062600 0.062600 0.000000 0.062600 0.062600 -0.062600 0.062600 -0.062600 0.000000 0.062600 0.000000 -0.062600 -0.062600 -0.062600 0.000000 -0.062600 -0.062600 0.062600 0.062600 0.000000 0.218100 0.000000 0.218100 0.218100 0.000000 0.000000 -0.218100 -0.218100 -0.218100 0.000000 -0.218100 -0.218100 0.000000 0.218100 0.000000 0.218100 0.000000 0.000000 -0.218100 -0.218100 -0.218100 0.218100 -0.218100 -0.218100 -0.218100 0.218100 0.000000 0.218100 -0.218100 0.000000 0.218100 0.000000 -0.218100 -0.218100 0.218100 -0.218100 0.218100 -0.218100 0.000000 0.000000 0.000000 0.218100 0.218100 -0.218100 0.218100 0.000000 0.218100 -0.218100 -0.218100 -0.218100 0.000000 -0.218100 -0.218100 0.000000 0.218100 0.000000 0.000000 -0.218100 0.000000 0.218100 0.000000 0.218100 0.218100 -0.218100 0.218100 0.218100 0.218100 0.218100 0.218100 0.218100 -0.218100 -0.218100 0.218100 0.000000 0.000000 -0.218100 -0.218100 0.218100 0.000000 0.000000 0.218100 0.218100 0.218100 0.218100 0.000000 -0.218100 0.000000 -0.218100 0.218100 0.218100 -0.218100 0.218100 -0.218100 -0.218100 0.000000 -0.218100 -0.218100 -0.218100 0.218100 -0.218100 0.218100 0.000000 0.000000 0.218100 0.218100 -0.218100 -0.218100 0.218100 0.218100 -0.218100 0.000000 0.218100 0.000000 0.218100 0.000000 0.218100 -0.218100 -0.218100 -0.218100 0.016400 -0.016400 0.000000 -0.016400 0.016400 0.000000 0.016400 -0.016400 0.016400 -0.016400 0.016400 0.000000 0.016400 0.000000 0.000000 0.016400 0.000000 -0.016400 -0.016400 0.000000 -0.016400 0.000000 0.016400 0.000000 -0.016400 0.016400 -0.016400 0.000000 0.016400 0.016400 0.000000 0.000000 -0.016400 0.016400 0.000000 -0.016400 0.016400 0.016400 0.016400 0.016400 0.000000 0.000000 -0.016400 0.000000 -0.016400 0.016400 0.016400 -0.016400 0.000000 0.000000 -0.016400 -0.016400 0.016400 0.000000 0.000000 0.000000 -0.016400 -0.016400 -0.016400 0.016400 -0.016400 0.000000 -0.016400 0.000000 -0.016400 -0.016400 0.016400 0.000000 0.000000 0.016400 0.016400 -0.016400 -0.016400 -0.016400 -0.016400 0.016400 -0.016400 0.000000 -0.016400 0.016400 0.000000 -0.016400 0.000000 0.000000 0.016400 0.000000 0.016400 0.016400 -0.016400 0.016400 0.000000 0.016400 -0.016400 0.016400 0.000000 0.016400 0.000000 0.016400 0.000000 0.016400 -0.016400 -0.016400 0.016400 -0.016400 0.000000 0.016400 0.016400 -0.016400 0.016400 0.000000 -0.016400 0.016400 0.016400 0.016400 -0.016400 0.000000 0.000000 -0.016400 -0.016400 0.000000 0.049700 0.049700 0.049700 0.000000 -0.049700 0.049700 0.049700 0.000000 0.000000 -0.049700 -0.049700 0.049700 0.049700 -0.049700 0.049700 0.049700 0.000000 -0.049700 -0.049700 -0.049700 0.049700 0.000000 0.049700 0.049700 0.049700 0.000000 -0.049700 0.049700 0.049700 0.049700 0.000000 0.049700 -0.049700 0.000000 0.049700 -0.049700 0.049700 0.000000 0.049700 -0.049700 -0.049700 -0.049700 0.049700 -0.049700 0.049700 0.000000 0.000000 0.049700 -0.049700 -0.049700 0.000000 0.000000 0.000000 0.000000 0.000000 -0.049700 0.000000 0.049700 -0.049700 0.000000 -0.049700 0.000000 -0.049700 0.000000 0.049700 0.049700 0.049700 0.000000 0.049700 -0.049700 -0.049700 0.049700 -0.049700 0.049700 0.049700 0.000000 -0.049700 0.000000 0.000000 -0.049700 -0.049700 0.000000 0.049700 0.049700 -0.049700 -0.049700 -0.049700 0.049700 -0.049700 0.049700 0.000000 0.049700 0.000000 -0.049700 0.049700 0.000000 -0.049700 0.000000 0.049700 0.000000 -0.049700 0.000000 0.000000 0.000000 -0.049700 0.049700 0.000000 0.049700 0.000000 0.000000 0.000000 0.049700 0.000000 -0.049700 0.049700 0.049700 0.000000 0.049700 0.049700 0.049700 0.000000 0.105000 0.105000 0.000000 0.105000 -0.105000 0.105000 -0.105000 -0.105000 0.105000 -0.105000 -0.105000 0.000000 -0.105000 0.105000 0.105000 0.105000 0.000000 -0.105000 0.000000 -0.105000 0.000000 -0.105000 0.000000 0.000000 0.000000 -0.105000 -0.105000 0.105000 0.105000 -0.105000 -0.105000 -0.105000 0.000000 -0.105000 0.000000 -0.105000 0.000000 0.000000 0.000000 0.105000 0.105000 0.000000 0.000000 0.105000 0.105000 0.105000 0.105000 0.105000 0.105000 0.000000 0.000000 0.000000 0.000000 0.000000 0.000000 0.000000 0.105000 0.000000 -0.105000 -0.105000 -0.105000 0.000000 -0.105000 0.105000 0.105000 0.000000 0.000000 0.105000 0.105000 0.105000 0.105000 0.105000 -0.105000 -0.105000 0.105000 0.105000 0.000000 -0.105000 0.000000 -0.105000 0.000000 0.000000 0.000000 0.000000 0.000000 0.105000 0.000000 0.105000 0.105000 0.000000 0.105000 0.105000 -0.105000 0.000000 0.105000 0.000000 -0.105000 -0.105000 0.000000 0.105000 0.000000 0.105000 0.000000 0.000000 0.000000 0.105000 0.000000 0.105000 -0.105000 0.000000 -0.105000 0.105000 0.000000 0.105000 0.000000 0.000000 0.105000 0.000000 0.000000 -0.210400 -0.210400 0.210400 -0.210400 0.210400 0.210400 0.000000 -0.210400 0.000000 -0.210400 0.210400 0.000000 0.000000 -0.210400 -0.210400 0.210400 -0.210400 0.210400 0.210400 0.210400 0.000000 0.210400 -0.210400 0.000000 0.000000 0.000000 0.210400 0.000000 0.210400 0.210400 0.210400 -0.210400 0.210400 0.210400 0.210400 0.000000 -0.210400 0.000000 0.210400 -0.210400 0.000000 0.210400 -0.210400 0.000000 0.210400 0.000000 0.210400 -0.210400 0.000000 0.000000 0.000000 0.210400 -0.210400 -0.210400 0.000000 0.210400 0.210400 0.000000 0.000000 0.210400 0.000000 0.000000 0.000000 -0.210400 -0.210400 0.000000 -0.210400 0.210400 0.210400 0.000000 -0.210400 0.000000 0.210400 0.000000 0.000000 -0.210400 0.210400 0.000000 0.000000 -0.210400 0.210400 0.000000 0.210400 0.210400 0.210400 0.210400 0.000000 -0.210400 0.000000 0.210400 0.210400 -0.210400 -0.210400 -0.210400 0.210400 0.210400 -0.210400 -0.210400 0.210400 0.210400 0.000000 0.210400 -0.210400 0.210400 0.000000 0.000000 0.000000 0.210400 0.000000 -0.210400 0.000000 -0.210400 -0.210400 0.210400 0.000000 0.000000 0.000000 0.000000 -0.210400 0.210400 0.000000 -0.057600 0.000000 0.057600 -0.057600 -0.057600 0.057600 0.057600 -0.057600 -0.057600 -0.057600 0.057600 0.000000 0.057600 0.057600 -0.057600 0.000000 -0.057600 -0.057600 0.057600 0.057600 -0.057600 -0.057600 0.057600 0.000000 0.057600 -0.057600 0.057600 -0.057600 0.000000 -0.057600 0.057600 0.000000 0.000000 0.057600 0.000000 -0.057600 -0.057600 -0.057600 0.000000 -0.057600 0.000000 0.000000 -0.057600 0.057600 0.057600 0.000000 0.000000 -0.057600 0.057600 0.000000 0.057600 0.000000 0.000000 0.000000 0.057600 0.000000 -0.057600 0.000000 0.057600 0.000000 -0.057600 -0.057600 0.000000 0.000000 0.000000 0.057600 0.000000 0.000000 0.057600 0.057600 -0.057600 0.057600 0.000000 0.057600 -0.057600 0.057600 0.000000 0.057600 -0.057600 -0.057600 -0.057600 0.057600 0.057600 0.000000 -0.057600 0.000000 0.000000 0.000000 0.057600 -0.057600 -0.057600 0.057600 0.000000 0.000000 -0.057600 0.000000 0.057600 0.000000 0.057600 -0.057600 -0.057600 0.057600 0.057600 0.057600 0.057600 -0.057600 0.000000 -0.057600 0.057600 0.000000 0.000000 -0.057600 0.057600 0.057600 -0.057600 0.000000 0.000000 0.000000 -0.057600 0.000000 0.000000 0.000000 0.000000 -0.121300 0.121300 -0.121300 0.121300 0.000000 0.000000 -0.121300 -0.121300 0.121300 0.121300 0.000000 -0.121300 0.000000 -0.121300 0.121300 0.000000 -0.121300 -0.121300 0.000000 0.000000 0.121300 0.000000 0.121300 0.121300 0.000000 0.000000 0.121300 0.121300 0.000000 -0.121300 0.121300 0.121300 -0.121300 0.000000 -0.121300 0.121300 0.000000 0.000000 0.000000 0.000000 -0.121300 0.121300 0.121300 -0.121300 -0.121300 0.000000 -0.121300 -0.121300 -0.121300 0.000000 -0.121300 0.121300 0.000000 0.000000 0.000000 0.000000 -0.121300 0.000000 0.000000 -0.121300 0.000000 -0.121300 -0.121300 0.121300 0.121300 -0.121300 0.121300 0.121300 0.000000 0.121300 0.000000 0.000000 0.000000 -0.121300 0.121300 -0.121300 0.121300 0.000000 0.000000 0.121300 -0.121300 0.121300 0.121300 -0.121300 0.121300 -0.121300 0.121300 -0.121300 -0.121300 0.121300 -0.121300 0.000000 0.000000 0.121300 0.121300 0.121300 -0.121300 -0.121300 0.000000 0.000000 -0.121300 0.121300 0.121300 0.121300 0.121300 -0.121300 0.000000 -0.121300 -0.121300 0.121300 0.121300 0.000000 0.121300 0.121300 0.121300 -0.121300 -0.157600 0.000000 0.157600 -0.157600 0.000000 0.000000 0.000000 0.000000 0.157600 -0.157600 0.000000 0.157600 -0.157600 0.000000 -0.157600 0.157600 -0.157600 0.000000 0.000000 0.000000 0.000000 -0.157600 -0.157600 -0.157600 0.157600 0.157600 -0.157600 0.157600 0.157600 -0.157600 0.000000 -0.157600 -0.157600 -0.157600 0.157600 -0.157600 -0.157600 0.157600 -0.157600 -0.157600 0.000000 0.000000 0.157600 -0.157600 0.000000 -0.157600 0.000000 0.157600 0.000000 -0.157600 0.000000 0.157600 -0.157600 0.157600 -0.157600 0.157600 0.157600 -0.157600 0.000000 -0.157600 0.157600 -0.157600 0.000000 0.000000 0.157600 -0.157600 0.157600 0.000000 0.000000 0.000000 0.000000 0.000000 0.157600 0.000000 0.157600 0.000000 0.000000 0.000000 0.157600 0.157600 0.157600 0.157600 -0.157600 0.157600 0.157600 -0.157600 -0.157600 0.000000 0.000000 -0.157600 -0.157600 0.157600 -0.157600 0.157600 -0.157600 0.000000 0.157600 0.157600 0.000000 0.157600 -0.157600 0.157600 0.157600 0.000000 0.000000 -0.157600 -0.157600 -0.157600 0.000000 -0.157600 -0.157600 0.000000 0.000000 -0.157600 -0.157600 0.157600 0.157600 -0.157600 0.157600 -0.157600 0.000000 0.384100 0.000000 0.384100 0.384100 -0.384100 0.384100 0.000000 -0.384100 0.384100 -0.384100 0.000000 -0.384100 0.384100 0.000000 -0.384100 -0.384100 0.384100 -0.384100 0.000000 -0.384100 0.000000 -0.384100 -0.384100 0.000000 0.384100 0.384100 0.384100 0.384100 0.384100 -0.384100 0.000000 0.384100 -0.384100 0.384100 0.000000 0.384100 0.000000 -0.384100 0.000000 0.000000 0.000000 0.000000 0.000000 -0.384100 0.384100 0.000000 0.000000 0.000000 0.000000 0.000000 0.384100 -0.384100 -0.384100 0.384100 0.384100 0.000000 0.000000 0.384100 0.384100 0.000000 0.000000 0.384100 0.000000 0.384100 0.000000 0.000000 0.384100 -0.384100 0.384100 0.000000 0.384100 0.384100 0.384100 0.000000 0.000000 0.000000 -0.384100 -0.384100 0.000000 0.384100 -0.384100 -0.384100 -0.384100 0.384100 0.000000 -0.384100 -0.384100 -0.384100 -0.384100 0.384100 0.000000 -0.384100 0.000000 0.000000 -0.384100 -0.384100 0.384100 0.384100 0.000000 0.384100 -0.384100 -0.384100 0.000000 -0.384100 0.000000 -0.384100 0.384100 0.384100 0.384100 0.384100 0.384100 0.384100 0.000000 0.384100 -0.384100 -0.384100 0.000000 0.000000 0.000000 0.016600 0.000000 -0.016600 0.000000 -0.016600 -0.016600 0.000000 0.000000 0.016600 0.000000 0.016600 -0.016600 0.016600 -0.016600 -0.016600 0.000000 -0.016600 0.000000 0.016600 0.016600 0.016600 0.000000 0.000000 0.016600 0.016600 0.000000 0.016600 -0.016600 0.016600 0.000000 0.016600 0.016600 0.000000 -0.016600 -0.016600 0.000000 0.016600 -0.016600 -0.016600 -0.016600 -0.016600 -0.016600 -0.016600 0.016600 -0.016600 0.016600 0.000000 -0.016600 0.016600 0.016600 0.000000 -0.016600 0.000000 -0.016600 0.016600 -0.016600 0.016600 -0.016600 -0.016600 -0.016600 0.000000 -0.016600 -0.016600 0.016600 0.016600 -0.016600 0.000000 0.000000 0.016600 0.000000 0.000000 0.000000 0.000000 0.000000 0.016600 0.000000 0.000000 0.016600 -0.016600 -0.016600 -0.016600 0.000000 -0.016600 -0.016600 0.000000 0.016600 0.016600 0.000000 0.016600 0.016600 -0.016600 0.016600 -0.016600 0.000000 -0.016600 0.000000 0.000000 0.016600 0.000000 0.016600 0.000000 0.016600 0.016600 -0.016600 0.016600 0.016600 0.000000 0.016600 0.000000 0.000000 0.016600 -0.016600 0.016600 0.016600 0.000000 0.016600 -0.016600 -0.016600 0.016600 -0.016600 0.000000 0.096600 0.000000 -0.096600 0.000000 0.096600 0.096600 0.096600 0.000000 0.000000 -0.096600 0.000000 -0.096600 0.000000 0.096600 0.096600 -0.096600 0.000000 0.000000 -0.096600 0.096600 0.000000 0.096600 -0.096600 -0.096600 -0.096600 -0.096600 0.096600 0.000000 0.096600 -0.096600 0.096600 0.096600 0.000000 0.000000 0.096600 0.096600 0.000000 -0.096600 0.000000 0.000000 0.000000 0.096600 -0.096600 -0.096600 -0.096600 0.096600 0.000000 0.096600 0.096600 0.096600 0.096600 -0.096600 -0.096600 0.000000 0.096600 -0.096600 -0.096600 0.000000 0.000000 0.096600 0.096600 0.096600 0.000000 -0.096600 0.096600 -0.096600 0.096600 0.000000 -0.096600 0.000000 0.000000 0.096600 0.000000 0.000000 0.000000 0.096600 0.000000 0.000000 -0.096600 0.000000 0.000000 0.096600 0.096600 -0.096600 -0.096600 -0.096600 0.096600 0.096600 0.000000 -0.096600 0.000000 0.096600 -0.096600 -0.096600 0.000000 0.096600 -0.096600 0.096600 0.000000 0.096600 0.000000 -0.096600 0.096600 -0.096600 0.000000 0.000000 0.096600 0.000000 -0.096600 0.000000 0.000000 -0.096600 -0.096600 0.096600 -0.096600 0.000000 -0.096600 -0.096600 -0.096600 0.124200 0.124200 0.000000 0.124200 0.124200 0.000000 0.124200 0.000000 0.124200 0.000000 -0.124200 0.124200 0.124200 0.124200 -0.124200 0.000000 -0.124200 0.000000 0.000000 -0.124200 0.124200 -0.124200 -0.124200 -0.124200 0.124200 0.000000 0.124200 -0.124200 0.124200 -0.124200 0.000000 -0.124200 -0.124200 -0.124200 0.000000 0.000000 -0.124200 -0.124200 0.000000 0.000000 -0.124200 0.000000 0.124200 0.000000 0.124200 0.124200 0.000000 0.000000 -0.124200 -0.124200 0.124200 -0.124200 0.000000 -0.124200 0.000000 0.000000 0.000000 -0.124200 0.000000 0.000000 -0.124200 -0.124200 -0.124200 -0.124200 0.124200 0.000000 -0.124200 -0.124200 0.124200 0.000000 -0.124200 0.000000 0.124200 0.124200 -0.124200 -0.124200 0.124200 0.124200 0.124200 -0.124200 -0.124200 0.124200 0.124200 0.124200 0.124200 -0.124200 0.000000 0.124200 0.124200 0.000000 0.000000 -0.124200 0.000000 0.124200 -0.124200 0.124200 -0.124200 0.000000 -0.124200 0.000000 0.124200 0.000000 -0.124200 0.124200 0.124200 0.124200 0.000000 -0.124200 0.000000 -0.124200 -0.124200 -0.124200 0.124200 0.000000 0.000000 0.000000 -0.124200 0.124200 -0.124200 -0.124200 -0.006400 0.006400 0.006400 0.000000 0.000000 0.000000 0.000000 -0.006400 0.000000 -0.006400 0.006400 0.000000 -0.006400 0.000000 -0.006400 0.000000 0.000000 0.006400 0.006400 0.006400 -0.006400 -0.006400 -0.006400 -0.006400 0.006400 -0.006400 -0.006400 0.000000 -0.006400 -0.006400 -0.006400 -0.006400 0.000000 0.000000 -0.006400 -0.006400 0.006400 0.000000 -0.006400 0.000000 -0.006400 0.006400 0.000000 0.000000 -0.006400 0.000000 0.006400 -0.006400 -0.006400 0.006400 -0.006400 0.000000 -0.006400 -0.006400 0.006400 0.006400 0.006400 0.000000 0.000000 0.006400 0.000000 0.006400 0.006400 0.006400 0.006400 0.006400 -0.006400 0.000000 0.000000 -0.006400 0.006400 -0.006400 0.006400 0.006400 0.000000 0.006400 0.000000 0.006400 -0.006400 0.000000 0.000000 -0.006400 -0.006400 0.000000 0.006400 0.006400 -0.006400 0.000000 0.000000 0.006400 -0.006400 -0.006400 -0.006400 0.000000 0.000000 -0.006400 0.006400 0.000000 -0.006400 0.000000 -0.006400 -0.006400 0.006400 0.006400 0.000000 -0.006400 0.006400 0.006400 -0.006400 -0.006400 -0.006400 0.006400 0.000000 0.006400 0.006400 0.000000 0.000000 0.006400 0.000000 0.006400 0.000000 -0.074400 0.000000 0.074400 0.000000 0.074400 -0.074400 -0.074400 0.000000 0.074400 0.000000 0.074400 0.074400 0.074400 0.074400 0.000000 0.074400 -0.074400 0.074400 0.000000 -0.074400 0.074400 0.074400 -0.074400 -0.074400 0.000000 0.000000 -0.074400 0.074400 -0.074400 0.000000 0.074400 0.074400 -0.074400 -0.074400 0.074400 0.074400 0.000000 -0.074400 0.000000 0.074400 0.000000 0.000000 0.000000 0.074400 0.000000 0.000000 0.074400 -0.074400 0.074400 0.074400 0.074400 0.000000 0.000000 -0.074400 0.000000 -0.074400 0.000000 0.074400 0.074400 0.074400 0.000000 0.000000 0.074400 -0.074400 0.074400 0.074400 -0.074400 0.000000 0.000000 0.000000 0.000000 0.074400 -0.074400 0.000000 -0.074400 0.000000 -0.074400 0.000000 0.074400 0.000000 0.074400 0.074400 0.074400 -0.074400 0.074400 0.074400 -0.074400 0.074400 0.000000 -0.074400 -0.074400 0.074400 0.000000 0.074400 -0.074400 0.000000 0.074400 0.074400 0.000000 0.074400 0.074400 0.074400 -0.074400 0.074400 0.074400 -0.074400 -0.074400 -0.074400 0.074400 0.074400 0.000000 0.074400 -0.074400 0.000000 0.000000 -0.074400 0.000000 0.000000 0.074400 -0.142800 0.000000 0.142800 0.142800 0.000000 0.000000 0.142800 0.000000 -0.142800 0.000000 -0.142800 -0.142800 -0.142800 -0.142800 0.000000 0.000000 -0.142800 0.000000 0.142800 0.000000 0.142800 -0.142800 0.142800 -0.142800 0.000000 0.142800 -0.142800 0.142800 -0.142800 -0.142800 0.000000 0.142800 0.000000 -0.142800 -0.142800 0.000000 -0.142800 0.142800 0.000000 0.000000 -0.142800 0.000000 0.142800 0.000000 0.000000 0.142800 -0.142800 0.000000 -0.142800 -0.142800 0.000000 0.142800 -0.142800 0.000000 0.142800 0.000000 0.142800 0.000000 -0.142800 0.000000 -0.142800 -0.142800 0.142800 0.000000 0.000000 -0.142800 0.000000 0.142800 0.142800 -0.142800 -0.142800 0.142800 -0.142800 0.000000 -0.142800 0.000000 -0.142800 0.142800 0.142800 -0.142800 -0.142800 0.142800 0.000000 -0.142800 0.142800 0.000000 0.000000 -0.142800 0.000000 0.000000 -0.142800 0.142800 0.142800 0.142800 0.142800 0.142800 -0.142800 0.000000 0.000000 0.142800 0.142800 0.000000 -0.142800 0.142800 -0.142800 -0.142800 -0.142800 0.000000 0.000000 -0.142800 -0.142800 0.142800 0.142800 -0.142800 -0.142800 0.142800 0.000000 0.000000 -0.142800 0.000000 -0.115100 -0.115100 -0.115100 0.000000 0.000000 0.115100 0.115100 0.115100 0.115100 -0.115100 0.115100 -0.115100 0.115100 0.115100 0.115100 -0.115100 0.115100 0.000000 -0.115100 0.000000 0.115100 0.115100 0.000000 0.115100 0.115100 0.115100 0.115100 0.000000 -0.115100 -0.115100 0.115100 0.000000 0.115100 0.000000 0.115100 -0.115100 -0.115100 0.000000 0.000000 0.000000 0.115100 0.115100 0.115100 -0.115100 0.000000 0.115100 0.115100 -0.115100 -0.115100 0.000000 -0.115100 -0.115100 0.000000 -0.115100 0.000000 -0.115100 -0.115100 -0.115100 -0.115100 -0.115100 -0.115100 -0.115100 0.000000 0.115100 0.115100 -0.115100 0.000000 0.000000 -0.115100 0.000000 0.000000 0.000000 0.115100 0.115100 0.000000 -0.115100 0.000000 0.115100 0.115100 0.000000 0.115100 0.000000 0.115100 0.000000 0.000000 0.000000 0.000000 -0.115100 0.000000 0.000000 -0.115100 0.000000 0.000000 0.000000 0.000000 -0.115100 -0.115100 0.115100 -0.115100 0.115100 0.115100 0.000000 0.115100 -0.115100 0.000000 0.115100 -0.115100 0.115100 0.000000 0.115100 -0.115100 -0.115100 0.115100 -0.115100 0.000000 0.115100 -0.115100 -0.115100 0.115100 0.000000 0.000000 0.000000 -0.077800 0.000000 0.077800 0.077800 -0.077800 0.000000 0.000000 -0.077800 0.077800 -0.077800 0.000000 0.077800 0.000000 -0.077800 0.077800 -0.077800 0.077800 0.077800 -0.077800 0.077800 0.000000 -0.077800 -0.077800 0.077800 0.077800 0.000000 0.000000 0.077800 0.000000 -0.077800 -0.077800 0.077800 0.000000 0.077800 0.077800 0.077800 0.000000 -0.077800 0.000000 0.000000 0.000000 0.000000 0.000000 -0.077800 -0.077800 0.077800 -0.077800 0.000000 0.000000 0.000000 -0.077800 0.077800 0.000000 0.077800 0.000000 -0.077800 0.077800 -0.077800 -0.077800 -0.077800 0.077800 0.000000 -0.077800 0.000000 -0.077800 -0.077800 -0.077800 -0.077800 0.077800 -0.077800 0.077800 -0.077800 -0.077800 0.000000 0.000000 0.077800 0.000000 0.077800 0.000000 -0.077800 0.000000 0.077800 0.077800 0.077800 -0.077800 -0.077800 0.077800 0.000000 -0.077800 0.077800 0.000000 -0.077800 0.000000 0.000000 -0.077800 0.077800 0.077800 0.000000 0.000000 0.000000 0.000000 0.000000 -0.077800 0.000000 0.077800 0.077800 -0.077800 0.077800 -0.077800 -0.077800 -0.077800 0.077800 0.000000 0.000000 0.077800 0.077800 0.077800 0.077800 0.036300 0.036300 0.036300 0.036300 -0.036300 0.000000 0.000000 -0.036300 0.000000 0.036300 0.036300 0.000000 0.036300 0.036300 0.000000 0.036300 -0.036300 0.036300 0.036300 0.000000 0.000000 -0.036300 0.036300 -0.036300 -0.036300 0.000000 0.000000 -0.036300 0.000000 0.000000 0.036300 0.000000 0.036300 0.036300 0.000000 0.036300 -0.036300 -0.036300 -0.036300 -0.036300 -0.036300 0.036300 0.000000 -0.036300 0.036300 -0.036300 0.000000 -0.036300 -0.036300 0.000000 0.036300 -0.036300 0.036300 0.000000 -0.036300 0.000000 0.000000 0.036300 0.000000 0.000000 0.036300 -0.036300 0.036300 0.036300 0.036300 0.000000 -0.036300 -0.036300 0.036300 0.000000 0.036300 -0.036300 0.000000 -0.036300 -0.036300 0.000000 0.000000 -0.036300 0.000000 -0.036300 0.036300 -0.036300 0.036300 -0.036300 -0.036300 0.036300 0.036300 0.036300 0.036300 -0.036300 0.000000 0.000000 0.036300 0.000000 -0.036300 -0.036300 -0.036300 0.000000 -0.036300 0.036300 0.000000 0.036300 -0.036300 0.036300 0.036300 -0.036300 0.000000 -0.036300 -0.036300 0.036300 -0.036300 0.036300 0.000000 0.000000 -0.036300 -0.036300 0.036300 -0.036300 0.000000 0.036300 -0.159600 -0.159600 0.159600 -0.159600 0.000000 0.000000 -0.159600 0.159600 0.159600 0.000000 0.000000 0.000000 -0.159600 0.159600 0.159600 -0.159600 -0.159600 0.159600 -0.159600 -0.159600 0.159600 0.159600 0.159600 0.159600 0.000000 -0.159600 -0.159600 0.000000 -0.159600 0.000000 0.000000 0.159600 0.000000 0.000000 -0.159600 0.159600 0.000000 -0.159600 0.159600 0.159600 0.159600 0.159600 0.000000 0.000000 0.000000 0.159600 -0.159600 0.159600 0.159600 0.159600 -0.159600 0.000000 0.000000 0.159600 -0.159600 0.159600 0.000000 0.159600 -0.159600 0.000000 -0.159600 -0.159600 0.159600 0.159600 0.159600 0.000000 0.000000 0.000000 0.159600 -0.159600 0.000000 0.000000 -0.159600 0.000000 -0.159600 0.000000 0.159600 0.159600 0.159600 0.000000 0.000000 0.000000 -0.159600 -0.159600 0.000000 0.159600 0.000000 -0.159600 -0.159600 -0.159600 0.000000 0.000000 -0.159600 -0.159600 -0.159600 0.000000 -0.159600 -0.159600 0.159600 0.159600 -0.159600 0.000000 -0.159600 0.000000 0.159600 0.159600 0.159600 0.159600 0.000000 0.000000 0.000000 0.000000 0.000000 -0.159600 0.000000 -0.159600 -0.159600 -0.159600 -0.159600 0.000000 0.000000 -0.015300 0.015300 0.000000 0.000000 -0.015300 0.015300 0.000000 0.015300 0.015300 -0.015300 0.000000 0.015300 -0.015300 0.015300 0.015300 0.000000 -0.015300 0.000000 -0.015300 -0.015300 -0.015300 0.015300 0.015300 0.015300 0.015300 0.015300 -0.015300 0.015300 -0.015300 0.000000 0.015300 -0.015300 0.015300 0.000000 0.000000 0.015300 0.015300 -0.015300 0.015300 0.015300 0.015300 -0.015300 0.015300 0.000000 0.015300 0.015300 0.000000 -0.015300 -0.015300 0.000000 0.015300 0.000000 -0.015300 0.000000 -0.015300 0.000000 0.000000 -0.015300 0.015300 0.015300 -0.015300 -0.015300 0.000000 0.000000 0.000000 -0.015300 0.000000 -0.015300 0.000000 0.015300 -0.015300 -0.015300 -0.015300 0.015300 0.000000 0.000000 -0.015300 0.015300 0.000000 0.000000 -0.015300 -0.015300 -0.015300 0.015300 0.000000 0.000000 -0.015300 0.000000 -0.015300 -0.015300 -0.015300 -0.015300 0.000000 0.000000 -0.015300 -0.015300 -0.015300 0.000000 0.000000 -0.015300 -0.015300 -0.015300 0.000000 0.000000 -0.015300 0.015300 0.000000 0.000000 0.000000 0.000000 0.000000 0.000000 -0.015300 -0.015300 0.015300 -0.015300 0.015300 0.015300 0.015300 -0.135200 0.000000 0.135200 0.135200 -0.135200 0.000000 -0.135200 0.135200 0.000000 0.000000 0.135200 0.000000 -0.135200 0.000000 -0.135200 0.135200 -0.135200 -0.135200 0.000000 0.135200 0.000000 -0.135200 0.135200 0.135200 -0.135200 -0.135200 -0.135200 0.000000 0.000000 0.135200 0.135200 0.000000 0.000000 0.135200 -0.135200 -0.135200 0.135200 -0.135200 0.135200 -0.135200 0.135200 -0.135200 0.135200 0.000000 0.135200 0.000000 0.135200 0.000000 -0.135200 -0.135200 0.135200 0.000000 0.000000 0.135200 0.135200 0.135200 0.000000 0.000000 -0.135200 0.135200 0.135200 0.000000 0.000000 0.000000 0.000000 0.135200 0.000000 -0.135200 -0.135200 0.000000 0.000000 0.000000 0.135200 0.135200 0.000000 0.135200 0.135200 -0.135200 0.135200 0.135200 0.000000 -0.135200 -0.135200 -0.135200 0.000000 0.000000 0.135200 0.000000 -0.135200 -0.135200 -0.135200 -0.135200 0.135200 0.135200 0.135200 0.000000 0.135200 0.000000 -0.135200 0.000000 0.135200 0.000000 0.000000 0.135200 0.000000 -0.135200 0.135200 0.135200 0.000000 0.000000 0.000000 0.135200 0.000000 -0.135200 -0.135200 0.000000 0.135200 0.000000 0.000000 -0.135200 0.000000 0.176900 0.000000 -0.176900 0.000000 0.000000 0.000000 -0.176900 0.000000 -0.176900 -0.176900 -0.176900 0.000000 0.176900 0.176900 0.000000 -0.176900 -0.176900 0.176900 0.000000 0.176900 0.176900 0.176900 0.176900 -0.176900 0.176900 -0.176900 -0.176900 0.000000 0.176900 -0.176900 0.000000 -0.176900 0.000000 -0.176900 0.000000 -0.176900 -0.176900 -0.176900 0.000000 0.000000 0.176900 0.000000 -0.176900 0.000000 -0.176900 0.000000 0.000000 0.000000 0.000000 0.176900 0.000000 0.176900 0.176900 0.000000 -0.176900 0.176900 0.176900 0.176900 0.176900 -0.176900 -0.176900 -0.176900 0.000000 0.000000 0.176900 0.000000 -0.176900 -0.176900 0.176900 -0.176900 0.176900 -0.176900 0.176900 -0.176900 0.000000 0.176900 0.000000 0.176900 -0.176900 0.176900 -0.176900 0.176900 0.000000 0.000000 0.000000 0.000000 0.176900 0.000000 0.000000 0.000000 -0.176900 -0.176900 -0.176900 -0.176900 0.000000 0.000000 -0.176900 -0.176900 0.000000 0.176900 0.000000 0.000000 0.176900 0.176900 0.000000 0.000000 0.000000 -0.176900 0.176900 0.176900 0.176900 -0.176900 0.176900 0.000000 0.176900 0.000000 -0.176900 0.176900 0.000000 -0.043000 0.000000 0.000000 -0.043000 0.000000 -0.043000 -0.043000 0.000000 0.043000 0.000000 0.043000 0.043000 -0.043000 0.043000 -0.043000 0.043000 -0.043000 0.000000 0.000000 0.043000 0.000000 -0.043000 0.000000 0.043000 0.043000 0.043000 0.000000 -0.043000 0.043000 0.043000 0.043000 0.043000 0.043000 0.000000 0.000000 0.043000 0.000000 0.000000 0.043000 0.000000 0.000000 -0.043000 0.000000 0.000000 0.000000 0.000000 0.000000 0.000000 0.043000 -0.043000 0.000000 0.043000 0.043000 0.043000 0.043000 -0.043000 0.043000 0.000000 0.000000 -0.043000 0.000000 0.043000 0.000000 0.000000 -0.043000 0.043000 -0.043000 0.000000 0.043000 -0.043000 0.000000 0.000000 0.000000 0.043000 -0.043000 0.000000 0.043000 0.000000 0.000000 0.043000 0.000000 -0.043000 -0.043000 0.000000 -0.043000 -0.043000 0.043000 -0.043000 0.000000 0.000000 0.000000 0.043000 0.000000 0.000000 0.000000 0.000000 -0.043000 -0.043000 -0.043000 0.000000 0.000000 0.000000 -0.043000 0.043000 -0.043000 0.043000 0.000000 0.043000 0.000000 0.000000 0.043000 -0.043000 -0.043000 0.000000 0.000000 0.000000 -0.043000 0.000000 0.000000 0.000000 0.106800 0.000000 0.106800 0.106800 0.000000 -0.106800 -0.106800 0.106800 -0.106800 -0.106800 0.106800 -0.106800 0.000000 0.000000 0.000000 -0.106800 -0.106800 0.000000 -0.106800 -0.106800 -0.106800 0.106800 0.106800 0.000000 -0.106800 0.000000 -0.106800 0.106800 0.000000 0.106800 0.000000 0.106800 -0.106800 -0.106800 -0.106800 -0.106800 -0.106800 0.000000 0.106800 -0.106800 0.000000 0.106800 0.000000 0.000000 0.106800 0.106800 0.106800 -0.106800 0.106800 0.106800 -0.106800 0.106800 0.000000 -0.106800 0.000000 0.106800 -0.106800 0.000000 -0.106800 0.000000 0.106800 -0.106800 -0.106800 0.106800 -0.106800 0.000000 0.106800 -0.106800 -0.106800 -0.106800 0.000000 0.000000 0.000000 -0.106800 0.000000 0.106800 0.000000 0.000000 0.106800 -0.106800 0.106800 0.106800 -0.106800 0.000000 0.000000 0.000000 -0.106800 -0.106800 0.106800 0.000000 0.106800 0.106800 -0.106800 0.000000 0.000000 0.000000 -0.106800 0.106800 -0.106800 0.106800 -0.106800 0.106800 0.000000 0.106800 0.000000 0.000000 0.106800 0.106800 0.106800 0.106800 -0.106800 -0.106800 0.106800 0.000000 0.106800 0.000000 -0.106800 -0.106800 0.106800 0.106800 0.189200 -0.189200 -0.189200 0.000000 0.189200 -0.189200 0.189200 0.189200 -0.189200 -0.189200 0.000000 0.189200 0.000000 0.000000 0.189200 0.189200 0.000000 0.000000 0.000000 0.189200 -0.189200 0.000000 0.189200 -0.189200 -0.189200 0.189200 0.189200 0.189200 -0.189200 0.000000 -0.189200 0.000000 0.000000 0.000000 -0.189200 -0.189200 0.189200 -0.189200 0.000000 0.189200 0.000000 -0.189200 0.000000 0.189200 0.000000 0.189200 0.000000 0.189200 -0.189200 0.189200 -0.189200 0.000000 -0.189200 0.189200 -0.189200 0.189200 -0.189200 0.189200 0.000000 -0.189200 0.189200 0.000000 0.189200 0.000000 0.000000 -0.189200 0.189200 0.189200 -0.189200 -0.189200 0.189200 0.000000 0.189200 0.000000 0.000000 0.000000 -0.189200 -0.189200 0.189200 0.189200 0.000000 0.000000 0.000000 -0.189200 -0.189200 0.000000 0.189200 0.189200 -0.189200 0.189200 0.189200 0.189200 -0.189200 0.189200 0.189200 -0.189200 -0.189200 -0.189200 -0.189200 -0.189200 -0.189200 0.189200 -0.189200 -0.189200 -0.189200 0.000000 0.000000 0.000000 0.000000 -0.189200 -0.189200 -0.189200 0.000000 0.189200 -0.189200 -0.189200 0.000000 0.000000 0.189200 -0.189200 -0.064300 -0.064300 0.064300 0.064300 -0.064300 0.000000 0.064300 0.000000 0.064300 0.064300 0.000000 0.000000 0.000000 -0.064300 -0.064300 0.000000 0.000000 0.000000 0.000000 -0.064300 0.064300 0.064300 0.000000 -0.064300 0.000000 0.000000 0.064300 0.000000 -0.064300 -0.064300 -0.064300 0.064300 -0.064300 0.064300 -0.064300 -0.064300 0.064300 0.000000 0.064300 0.064300 -0.064300 -0.064300 -0.064300 -0.064300 -0.064300 -0.064300 0.064300 -0.064300 0.000000 0.000000 -0.064300 0.064300 0.000000 0.064300 0.000000 -0.064300 0.000000 0.064300 -0.064300 0.000000 -0.064300 0.064300 0.000000 0.000000 0.000000 -0.064300 -0.064300 0.000000 0.000000 -0.064300 0.064300 0.000000 -0.064300 0.064300 0.064300 0.000000 -0.064300 0.000000 0.064300 0.000000 0.064300 0.064300 -0.064300 0.064300 0.064300 -0.064300 0.000000 -0.064300 -0.064300 0.000000 -0.064300 0.000000 0.000000 0.000000 -0.064300 -0.064300 0.064300 -0.064300 0.000000 0.000000 0.000000 0.000000 0.000000 0.000000 -0.064300 0.064300 0.000000 -0.064300 -0.064300 -0.064300 0.064300 0.064300 0.064300 0.064300 -0.064300 0.000000 -0.064300 0.000000 0.000000 0.064300 0.354800 0.000000 -0.354800 -0.354800 -0.354800 0.000000 -0.354800 0.354800 0.354800 0.354800 0.354800 -0.354800 -0.354800 0.354800 -0.354800 0.000000 0.000000 -0.354800 0.354800 0.354800 0.000000 0.354800 -0.354800 -0.354800 0.354800 -0.354800 0.354800 -0.354800 0.354800 -0.354800 0.354800 0.354800 0.354800 0.000000 0.000000 0.000000 -0.354800 0.354800 0.000000 -0.354800 0.000000 0.000000 -0.354800 -0.354800 -0.354800 -0.354800 0.354800 0.354800 0.000000 0.000000 0.354800 0.000000 0.000000 0.000000 0.000000 0.354800 0.000000 0.354800 0.354800 0.354800 0.354800 -0.354800 0.354800 -0.354800 -0.354800 0.000000 0.354800 -0.354800 -0.354800 0.354800 0.354800 0.000000 0.354800 0.354800 0.000000 0.000000 0.000000 -0.354800 -0.354800 0.354800 -0.354800 0.354800 0.354800 -0.354800 0.354800 -0.354800 0.000000 -0.354800 0.000000 0.000000 -0.354800 0.000000 0.354800 0.000000 0.000000 0.000000 0.354800 0.000000 0.354800 0.354800 -0.354800 0.000000 0.354800 0.354800 -0.354800 0.354800 0.000000 0.000000 0.354800 0.000000 0.000000 0.354800 0.354800 0.354800 0.354800 -0.354800 0.000000 0.000000 0.000000 0.000000 -0.030600 0.030600 0.000000 -0.030600 0.000000 0.030600 0.000000 0.030600 0.030600 -0.030600 0.000000 0.030600 -0.030600 -0.030600 -0.030600 0.000000 -0.030600 -0.030600 0.030600 -0.030600 0.030600 0.030600 0.030600 0.030600 0.000000 0.030600 0.000000 0.030600 0.000000 0.030600 -0.030600 -0.030600 0.000000 0.000000 0.000000 0.030600 -0.030600 0.030600 0.030600 -0.030600 0.000000 -0.030600 -0.030600 0.000000 0.030600 0.030600 -0.030600 0.000000 0.030600 0.030600 0.000000 0.000000 0.000000 0.030600 -0.030600 0.000000 -0.030600 0.000000 -0.030600 0.000000 0.000000 0.030600 -0.030600 0.000000 -0.030600 -0.030600 0.030600 -0.030600 -0.030600 0.000000 0.030600 0.000000 -0.030600 0.030600 0.000000 -0.030600 -0.030600 0.030600 0.030600 0.030600 0.030600 0.000000 0.000000 0.000000 0.030600 0.000000 0.030600 0.000000 0.030600 0.000000 0.000000 0.000000 0.000000 0.000000 0.030600 0.000000 -0.030600 -0.030600 -0.030600 0.030600 0.030600 0.030600 0.000000 -0.030600 -0.030600 0.000000 0.030600 0.000000 0.000000 0.030600 0.000000 0.030600 0.030600 0.000000 -0.030600 0.000000 0.000000 0.000000 0.030600 -0.030600 0.000000 0.000000 0.000000 0.106900 -0.106900 -0.106900 0.106900 -0.106900 0.000000 -0.106900 0.106900 -0.106900 -0.106900 -0.106900 0.000000 0.000000 0.000000 0.000000 0.000000 -0.106900 0.106900 0.000000 0.000000 -0.106900 -0.106900 -0.106900 -0.106900 -0.106900 0.000000 0.000000 0.000000 -0.106900 0.000000 0.000000 0.106900 -0.106900 0.106900 0.000000 -0.106900 0.106900 0.106900 0.000000 0.000000 -0.106900 -0.106900 0.106900 0.000000 0.106900 0.106900 0.000000 0.000000 -0.106900 -0.106900 0.106900 0.106900 0.106900 -0.106900 -0.106900 0.000000 -0.106900 0.000000 -0.106900 0.000000 -0.106900 0.000000 -0.106900 0.106900 0.106900 -0.106900 -0.106900 -0.106900 0.106900 -0.106900 0.000000 -0.106900 0.106900 0.106900 0.000000 -0.106900 0.000000 0.000000 -0.106900 0.106900 0.106900 0.000000 -0.106900 -0.106900 0.106900 0.000000 0.000000 0.000000 -0.106900 -0.106900 -0.106900 0.000000 0.106900 0.000000 0.106900 0.000000 -0.106900 -0.106900 0.000000 0.106900 0.000000 -0.106900 0.106900 0.000000 0.000000 0.000000 -0.106900 -0.106900 0.000000 0.106900 0.000000 -0.106900 0.000000 0.106900 0.106900 -0.106900 0.106900 0.132100 0.000000 -0.132100 -0.132100 -0.132100 0.132100 0.000000 -0.132100 0.132100 0.132100 -0.132100 -0.132100 0.000000 -0.132100 0.000000 0.000000 -0.132100 0.000000 0.132100 -0.132100 0.132100 0.132100 0.000000 0.132100 -0.132100 0.000000 0.132100 0.000000 -0.132100 0.000000 -0.132100 0.000000 0.000000 0.000000 0.132100 0.132100 0.132100 0.000000 -0.132100 0.000000 0.000000 0.132100 0.132100 0.132100 0.000000 -0.132100 0.000000 -0.132100 -0.132100 0.000000 0.000000 0.000000 0.000000 0.132100 -0.132100 0.132100 0.000000 -0.132100 -0.132100 -0.132100 -0.132100 0.000000 0.132100 0.000000 0.132100 0.000000 -0.132100 -0.132100 -0.132100 0.132100 0.132100 -0.132100 -0.132100 0.000000 -0.132100 0.132100 0.132100 0.132100 0.000000 -0.132100 -0.132100 0.000000 0.000000 0.132100 0.132100 0.000000 0.000000 -0.132100 -0.132100 0.000000 -0.132100 0.000000 0.000000 0.132100 0.132100 -0.132100 0.132100 0.000000 0.132100 0.000000 -0.132100 -0.132100 -0.132100 -0.132100 0.000000 -0.132100 0.000000 0.000000 0.132100 -0.132100 -0.132100 0.132100 0.000000 0.000000 0.000000 -0.132100 0.000000 0.132100 -0.132100 0.000000 0.240100 0.240100 -0.240100 -0.240100 0.000000 0.240100 0.000000 0.240100 -0.240100 0.000000 0.000000 0.240100 -0.240100 0.240100 0.240100 0.000000 0.000000 -0.240100 0.000000 0.240100 -0.240100 0.000000 0.240100 -0.240100 0.000000 -0.240100 0.240100 0.000000 -0.240100 -0.240100 0.240100 -0.240100 0.240100 0.240100 0.240100 -0.240100 -0.240100 -0.240100 0.000000 -0.240100 0.240100 0.240100 -0.240100 0.240100 0.000000 -0.240100 0.000000 0.000000 0.240100 0.000000 0.240100 0.000000 0.240100 0.000000 0.000000 0.000000 0.000000 -0.240100 0.000000 0.000000 0.240100 0.240100 0.000000 0.240100 0.000000 0.240100 -0.240100 0.000000 -0.240100 -0.240100 -0.240100 -0.240100 -0.240100 0.000000 0.000000 0.000000 0.000000 -0.240100 0.000000 0.240100 0.000000 -0.240100 0.240100 0.240100 -0.240100 0.240100 -0.240100 0.000000 0.240100 0.000000 0.000000 0.000000 -0.240100 -0.240100 -0.240100 -0.240100 0.000000 -0.240100 -0.240100 0.240100 0.240100 0.000000 0.000000 0.000000 0.240100 0.000000 0.240100 0.240100 0.000000 0.240100 0.000000 0.000000 0.240100 0.240100 -0.240100 0.000000 0.240100 -0.240100 0.000000 0.000000 0.057300 0.057300 -0.057300 0.057300 -0.057300 0.000000 0.000000 0.000000 -0.057300 0.000000 0.000000 0.057300 -0.057300 0.057300 0.000000 0.057300 0.000000 -0.057300 -0.057300 -0.057300 -0.057300 0.000000 -0.057300 -0.057300 0.000000 0.000000 -0.057300 0.057300 -0.057300 -0.057300 0.000000 0.000000 0.057300 0.000000 0.000000 0.057300 -0.057300 0.057300 0.000000 -0.057300 0.057300 0.000000 0.057300 -0.057300 -0.057300 -0.057300 -0.057300 -0.057300 -0.057300 0.057300 0.000000 -0.057300 0.057300 0.000000 -0.057300 0.000000 -0.057300 0.057300 0.000000 0.057300 0.057300 0.000000 -0.057300 0.057300 -0.057300 0.000000 0.057300 0.057300 0.000000 0.000000 -0.057300 0.057300 0.000000 -0.057300 -0.057300 0.057300 0.000000 -0.057300 0.057300 -0.057300 -0.057300 0.000000 -0.057300 0.057300 0.000000 -0.057300 -0.057300 0.057300 0.057300 0.000000 0.000000 -0.057300 0.057300 -0.057300 0.000000 0.000000 -0.057300 0.000000 0.000000 0.057300 -0.057300 0.057300 -0.057300 0.000000 -0.057300 0.057300 0.057300 0.057300 -0.057300 -0.057300 0.000000 -0.057300 0.000000 0.057300 0.000000 0.000000 -0.057300 0.000000 -0.057300 0.057300 0.041400 0.041400 0.041400 0.041400 0.000000 0.041400 0.041400 0.041400 0.000000 0.000000 0.041400 0.000000 0.000000 -0.041400 0.041400 -0.041400 -0.041400 0.000000 -0.041400 -0.041400 0.041400 0.000000 0.041400 0.000000 0.000000 -0.041400 0.000000 0.041400 0.041400 0.000000 0.041400 -0.041400 0.041400 0.041400 0.041400 -0.041400 -0.041400 0.041400 -0.041400 -0.041400 0.041400 0.041400 0.041400 0.000000 -0.041400 0.041400 0.000000 -0.041400 0.000000 0.041400 -0.041400 0.041400 0.000000 -0.041400 0.041400 0.000000 0.000000 0.000000 -0.041400 0.041400 0.000000 0.041400 -0.041400 -0.041400 0.041400 0.000000 0.000000 0.000000 0.041400 -0.041400 -0.041400 0.041400 0.041400 -0.041400 -0.041400 -0.041400 -0.041400 0.000000 0.000000 0.000000 0.041400 0.000000 0.000000 0.041400 0.000000 -0.041400 0.000000 -0.041400 0.041400 0.000000 0.000000 -0.041400 -0.041400 -0.041400 -0.041400 -0.041400 0.041400 0.000000 -0.041400 0.041400 0.041400 -0.041400 0.041400 0.041400 -0.041400 0.041400 0.000000 0.000000 0.000000 -0.041400 0.000000 -0.041400 0.041400 -0.041400 -0.041400 -0.041400 0.000000 0.000000 0.000000 0.041400 0.000000 0.033600 0.033600 -0.033600 0.033600 0.033600 0.033600 0.033600 0.033600 0.033600 0.000000 0.033600 0.000000 -0.033600 0.033600 0.000000 -0.033600 0.033600 -0.033600 -0.033600 0.000000 0.000000 0.000000 0.000000 0.033600 0.033600 0.000000 -0.033600 -0.033600 0.000000 0.000000 0.000000 0.000000 -0.033600 -0.033600 -0.033600 0.000000 0.000000 0.033600 0.000000 -0.033600 0.033600 0.033600 0.033600 0.000000 -0.033600 0.033600 0.000000 0.033600 0.000000 0.000000 0.000000 0.033600 0.033600 0.033600 0.000000 0.000000 -0.033600 0.033600 0.033600 0.000000 0.033600 0.033600 0.000000 0.033600 0.000000 0.000000 -0.033600 0.000000 -0.033600 0.000000 -0.033600 0.033600 0.000000 -0.033600 0.000000 0.000000 0.000000 0.033600 -0.033600 0.000000 0.033600 0.000000 0.033600 0.000000 0.000000 -0.033600 0.000000 0.033600 -0.033600 0.000000 0.000000 -0.033600 0.033600 0.033600 0.033600 0.033600 0.000000 -0.033600 0.000000 0.000000 -0.033600 0.000000 -0.033600 -0.033600 0.000000 -0.033600 -0.033600 0.000000 -0.033600 0.033600 -0.033600 0.033600 -0.033600 -0.033600 0.033600 -0.033600 0.033600 -0.033600 0.000000 0.129300 0.000000 0.129300 0.129300 0.000000 0.000000 0.000000 0.129300 0.000000 -0.129300 0.129300 0.000000 0.000000 0.000000 0.129300 0.129300 -0.129300 0.129300 0.000000 0.000000 0.000000 -0.129300 0.129300 -0.129300 -0.129300 -0.129300 0.129300 0.129300 0.000000 0.129300 0.129300 0.000000 0.000000 0.000000 -0.129300 0.129300 0.000000 -0.129300 0.129300 0.129300 0.129300 0.129300 0.000000 0.129300 -0.129300 0.129300 0.000000 0.000000 0.129300 0.000000 -0.129300 0.000000 0.000000 0.000000 0.129300 -0.129300 -0.129300 0.129300 0.000000 0.000000 0.000000 -0.129300 -0.129300 0.000000 0.129300 0.129300 0.000000 0.000000 0.000000 0.129300 0.000000 -0.129300 0.129300 0.129300 -0.129300 -0.129300 -0.129300 0.000000 0.000000 -0.129300 -0.129300 -0.129300 0.000000 0.000000 0.000000 0.000000 0.000000 -0.129300 0.129300 0.000000 -0.129300 0.129300 0.000000 0.000000 -0.129300 0.000000 0.129300 0.129300 -0.129300 0.000000 0.129300 0.129300 0.000000 0.129300 0.129300 0.000000 -0.129300 0.000000 0.129300 0.000000 0.129300 0.000000 0.129300 0.129300 0.129300 -0.129300 -0.129300 0.129300 0.000000 0.129300 -0.213400 -0.213400 0.000000 0.213400 0.000000 0.000000 0.213400 0.213400 0.000000 0.000000 -0.213400 0.213400 -0.213400 0.000000 -0.213400 0.000000 0.000000 0.000000 0.213400 -0.213400 0.000000 -0.213400 0.213400 0.213400 0.213400 -0.213400 0.000000 0.000000 0.000000 -0.213400 0.000000 0.213400 0.213400 0.000000 0.213400 0.213400 0.213400 0.000000 0.213400 0.000000 0.213400 -0.213400 -0.213400 0.213400 0.213400 -0.213400 0.213400 0.213400 0.000000 -0.213400 -0.213400 -0.213400 -0.213400 -0.213400 0.213400 0.213400 0.000000 0.000000 0.000000 0.000000 0.000000 0.000000 0.000000 -0.213400 0.213400 0.000000 -0.213400 -0.213400 -0.213400 -0.213400 0.000000 0.000000 0.213400 0.000000 0.000000 0.000000 0.213400 0.213400 0.000000 -0.213400 -0.213400 0.213400 0.213400 -0.213400 0.213400 0.000000 -0.213400 0.213400 -0.213400 0.213400 0.213400 0.213400 0.213400 0.000000 0.000000 0.213400 0.213400 -0.213400 -0.213400 0.213400 0.000000 -0.213400 -0.213400 0.213400 -0.213400 0.000000 0.000000 0.000000 -0.213400 0.000000 0.000000 0.213400 -0.213400 0.213400 0.213400 0.213400 0.000000 0.000000 0.213400 0.000000 0.208000 0.208000 0.000000 0.000000 -0.208000 -0.208000 0.208000 0.000000 -0.208000 0.208000 0.000000 0.208000 0.208000 0.208000 0.208000 0.208000 -0.208000 0.208000 -0.208000 -0.208000 0.000000 0.000000 -0.208000 -0.208000 0.208000 0.000000 -0.208000 -0.208000 0.208000 -0.208000 0.208000 0.000000 -0.208000 0.208000 0.000000 -0.208000 0.000000 -0.208000 0.208000 0.000000 0.208000 0.000000 -0.208000 -0.208000 -0.208000 0.208000 0.208000 -0.208000 0.000000 0.208000 0.208000 0.000000 -0.208000 0.208000 -0.208000 0.208000 0.208000 0.000000 0.208000 -0.208000 0.000000 0.208000 -0.208000 -0.208000 0.000000 0.208000 -0.208000 -0.208000 0.208000 0.208000 0.000000 -0.208000 0.208000 0.000000 -0.208000 0.208000 0.208000 -0.208000 0.208000 0.000000 0.000000 0.000000 0.000000 0.000000 -0.208000 0.000000 0.208000 -0.208000 -0.208000 0.000000 -0.208000 0.000000 0.208000 0.208000 0.000000 -0.208000 -0.208000 0.208000 -0.208000 0.000000 -0.208000 -0.208000 0.000000 0.208000 0.000000 0.208000 0.208000 -0.208000 -0.208000 -0.208000 -0.208000 0.000000 0.208000 -0.208000 0.208000 0.208000 -0.208000 0.208000 0.000000 0.208000 -0.009800 0.000000 -0.009800 0.000000 -0.009800 -0.009800 0.000000 0.000000 0.009800 0.009800 0.000000 0.009800 -0.009800 0.009800 0.009800 -0.009800 -0.009800 -0.009800 0.000000 0.009800 0.009800 0.000000 -0.009800 0.000000 0.000000 0.000000 0.000000 0.000000 0.000000 0.000000 -0.009800 0.000000 0.000000 0.000000 -0.009800 0.000000 0.000000 -0.009800 0.000000 -0.009800 0.009800 0.009800 0.000000 -0.009800 0.000000 0.009800 0.009800 0.009800 0.000000 0.009800 0.000000 0.009800 0.009800 -0.009800 0.009800 -0.009800 0.000000 0.000000 0.009800 -0.009800 -0.009800 0.000000 0.000000 0.009800 0.009800 0.009800 0.000000 -0.009800 0.000000 0.009800 -0.009800 0.000000 0.009800 -0.009800 -0.009800 0.000000 0.009800 0.009800 0.000000 0.009800 -0.009800 0.009800 -0.009800 0.009800 -0.009800 0.009800 0.009800 0.000000 0.000000 0.009800 0.000000 0.000000 0.009800 0.000000 0.000000 0.000000 0.000000 0.000000 0.000000 -0.009800 -0.009800 0.000000 0.000000 -0.009800 0.000000 0.009800 0.000000 0.009800 0.000000 -0.009800 0.000000 0.000000 -0.009800 -0.009800 -0.009800 -0.009800 -0.009800 0.009800 0.000000 -0.009800 0.000000 0.030300 0.000000 0.030300 0.000000 0.000000 0.030300 0.000000 -0.030300 0.000000 0.030300 0.000000 0.030300 -0.030300 -0.030300 0.030300 0.030300 -0.030300 0.000000 0.000000 -0.030300 0.030300 0.000000 -0.030300 0.030300 0.000000 -0.030300 0.030300 0.030300 0.000000 0.000000 0.000000 0.030300 -0.030300 -0.030300 -0.030300 -0.030300 -0.030300 -0.030300 0.030300 -0.030300 -0.030300 -0.030300 0.030300 0.030300 0.000000 0.030300 0.000000 0.030300 0.030300 0.000000 0.030300 0.030300 0.030300 0.030300 -0.030300 0.000000 0.030300 0.030300 0.030300 0.030300 -0.030300 0.030300 -0.030300 0.000000 0.030300 0.000000 -0.030300 0.000000 0.000000 0.030300 -0.030300 0.000000 0.030300 0.000000 0.030300 -0.030300 0.030300 0.030300 0.000000 -0.030300 0.030300 0.000000 -0.030300 -0.030300 0.000000 -0.030300 0.030300 0.030300 0.000000 0.030300 0.000000 0.030300 0.030300 0.030300 -0.030300 0.030300 -0.030300 0.030300 0.030300 0.030300 0.000000 0.000000 0.030300 -0.030300 -0.030300 0.000000 0.030300 0.000000 0.000000 -0.030300 0.030300 -0.030300 0.000000 0.030300 0.030300 0.000000 0.000000 -0.030300 0.000000 0.262600 0.262600 -0.262600 0.262600 0.262600 -0.262600 0.262600 -0.262600 -0.262600 -0.262600 0.262600 0.000000 0.000000 0.262600 0.262600 -0.262600 -0.262600 0.262600 0.262600 -0.262600 0.000000 -0.262600 0.000000 0.000000 0.262600 -0.262600 0.262600 0.262600 0.262600 -0.262600 0.000000 -0.262600 0.262600 -0.262600 -0.262600 0.000000 -0.262600 -0.262600 0.000000 0.262600 0.262600 0.000000 -0.262600 -0.262600 0.262600 0.000000 0.000000 0.000000 -0.262600 0.000000 0.262600 0.000000 0.000000 0.262600 0.000000 0.000000 0.262600 0.000000 0.262600 0.262600 0.000000 0.000000 0.262600 -0.262600 -0.262600 0.000000 0.262600 0.262600 0.000000 0.262600 0.262600 0.262600 0.262600 0.262600 0.262600 0.000000 -0.262600 -0.262600 0.262600 0.000000 -0.262600 0.000000 0.000000 0.262600 0.000000 -0.262600 0.000000 0.262600 -0.262600 0.262600 0.262600 0.262600 0.000000 0.262600 0.000000 -0.262600 0.262600 0.262600 -0.262600 0.000000 0.000000 -0.262600 0.262600 0.000000 -0.262600 -0.262600 0.000000 -0.262600 0.262600 0.000000 -0.262600 -0.262600 0.000000 0.262600 0.000000 -0.262600 -0.262600 0.262600 0.262600 -0.262600 -0.012900 0.012900 0.012900 0.012900 -0.012900 0.000000 -0.012900 -0.012900 -0.012900 0.012900 0.012900 0.000000 -0.012900 -0.012900 0.012900 0.012900 -0.012900 -0.012900 -0.012900 -0.012900 -0.012900 0.000000 0.000000 0.000000 0.000000 0.000000 0.012900 0.000000 -0.012900 -0.012900 -0.012900 -0.012900 0.012900 0.000000 -0.012900 -0.012900 0.000000 0.000000 0.012900 0.000000 -0.012900 0.012900 0.000000 0.000000 -0.012900 0.000000 -0.012900 0.012900 0.000000 0.012900 0.000000 -0.012900 -0.012900 0.000000 0.000000 -0.012900 0.012900 -0.012900 -0.012900 -0.012900 -0.012900 0.000000 0.012900 0.012900 0.000000 0.000000 0.012900 -0.012900 0.012900 -0.012900 0.000000 -0.012900 0.012900 0.012900 0.012900 -0.012900 -0.012900 0.000000 -0.012900 0.012900 0.000000 -0.012900 0.000000 0.012900 0.012900 -0.012900 0.012900 0.012900 0.000000 -0.012900 0.012900 0.000000 0.000000 0.012900 -0.012900 -0.012900 0.012900 0.000000 -0.012900 0.012900 0.012900 0.000000 0.012900 -0.012900 0.000000 0.000000 0.000000 0.000000 -0.012900 -0.012900 -0.012900 0.000000 0.012900 0.000000 0.000000 0.012900 0.000000 0.000000 0.000000 -0.012900 0.000000 0.228500 0.228500 0.000000 -0.228500 0.228500 0.000000 0.228500 -0.228500 0.228500 0.228500 0.000000 -0.228500 0.000000 0.000000 0.228500 -0.228500 0.228500 -0.228500 0.000000 0.228500 0.228500 0.228500 0.228500 0.000000 0.000000 0.228500 -0.228500 0.228500 -0.228500 0.000000 0.000000 -0.228500 0.228500 0.000000 -0.228500 0.228500 0.000000 0.000000 -0.228500 -0.228500 -0.228500 0.000000 0.228500 0.000000 -0.228500 0.228500 0.000000 -0.228500 -0.228500 0.228500 0.228500 0.228500 0.000000 0.228500 0.228500 0.000000 0.000000 0.228500 0.228500 0.000000 0.000000 -0.228500 0.000000 0.000000 0.228500 -0.228500 -0.228500 -0.228500 -0.228500 0.000000 0.228500 0.228500 0.228500 -0.228500 0.228500 0.228500 0.228500 -0.228500 0.000000 0.000000 -0.228500 -0.228500 -0.228500 0.228500 0.000000 0.228500 -0.228500 -0.228500 0.000000 0.228500 0.228500 -0.228500 0.228500 0.000000 0.000000 0.000000 0.000000 0.000000 -0.228500 0.000000 -0.228500 0.000000 0.000000 0.000000 0.000000 -0.228500 -0.228500 -0.228500 0.000000 0.228500 0.228500 0.228500 0.000000 -0.228500 0.228500 -0.228500 0.228500 0.000000 0.228500 0.000000 -0.026200 0.026200 0.000000 0.000000 -0.026200 0.000000 0.000000 0.026200 0.000000 0.000000 0.026200 0.000000 -0.026200 0.000000 0.026200 0.026200 -0.026200 0.000000 0.026200 0.026200 0.026200 -0.026200 0.026200 0.000000 0.000000 0.000000 0.026200 0.026200 0.026200 0.026200 0.000000 0.026200 -0.026200 0.026200 0.000000 -0.026200 0.026200 0.000000 -0.026200 -0.026200 -0.026200 -0.026200 -0.026200 0.000000 0.000000 -0.026200 0.000000 -0.026200 0.000000 -0.026200 -0.026200 0.000000 0.000000 0.026200 0.026200 0.026200 -0.026200 -0.026200 0.000000 0.000000 0.000000 0.026200 -0.026200 -0.026200 0.000000 -0.026200 0.026200 0.000000 0.026200 -0.026200 0.026200 -0.026200 -0.026200 0.026200 -0.026200 0.026200 0.026200 -0.026200 -0.026200 0.000000 0.000000 -0.026200 0.000000 0.000000 -0.026200 0.026200 0.026200 -0.026200 0.000000 0.000000 0.000000 -0.026200 0.000000 0.000000 -0.026200 0.000000 0.026200 0.026200 -0.026200 0.000000 0.000000 -0.026200 0.000000 0.000000 -0.026200 0.026200 0.000000 -0.026200 0.000000 0.000000 0.026200 0.000000 0.026200 -0.026200 0.026200 0.000000 0.026200 -0.026200 0.000000 0.248600 0.248600 -0.248600 -0.248600 0.248600 0.000000 -0.248600 0.248600 0.248600 0.000000 -0.248600 0.000000 -0.248600 0.000000 0.000000 0.248600 -0.248600 -0.248600 0.248600 -0.248600 -0.248600 0.000000 0.000000 -0.248600 0.000000 0.248600 -0.248600 0.000000 0.000000 0.248600 0.248600 -0.248600 -0.248600 0.248600 0.000000 -0.248600 -0.248600 -0.248600 0.248600 0.248600 0.000000 -0.248600 0.248600 0.000000 0.248600 0.000000 0.000000 0.000000 -0.248600 -0.248600 0.248600 0.248600 0.248600 0.000000 -0.248600 0.000000 0.000000 0.000000 0.000000 0.000000 0.000000 0.248600 0.000000 0.000000 0.000000 -0.248600 0.248600 0.000000 0.000000 -0.248600 -0.248600 0.000000 0.000000 0.000000 0.000000 0.248600 -0.248600 0.248600 0.248600 0.248600 0.000000 -0.248600 0.248600 -0.248600 0.248600 -0.248600 0.000000 -0.248600 -0.248600 0.000000 0.248600 0.248600 0.000000 -0.248600 -0.248600 0.248600 -0.248600 0.000000 0.000000 0.000000 0.248600 0.000000 0.248600 -0.248600 -0.248600 -0.248600 0.248600 0.248600 -0.248600 0.000000 0.000000 0.000000 -0.248600 0.248600 0.248600 0.248600 0.000000 -0.248600 0.000000 -0.248600 0.000000 0.089200 0.000000 -0.089200 -0.089200 0.000000 -0.089200 -0.089200 -0.089200 -0.089200 0.000000 0.000000 0.000000 0.089200 0.000000 0.089200 0.000000 0.000000 -0.089200 -0.089200 0.000000 0.000000 0.089200 -0.089200 -0.089200 0.089200 0.000000 -0.089200 -0.089200 0.089200 -0.089200 0.000000 -0.089200 0.000000 0.000000 -0.089200 -0.089200 -0.089200 -0.089200 0.000000 -0.089200 0.000000 -0.089200 0.089200 0.000000 0.000000 -0.089200 0.089200 -0.089200 0.000000 -0.089200 0.000000 -0.089200 0.089200 -0.089200 0.000000 0.000000 0.000000 0.000000 0.000000 0.000000 0.000000 0.089200 -0.089200 0.089200 -0.089200 -0.089200 0.089200 0.089200 0.000000 -0.089200 -0.089200 -0.089200 0.000000 -0.089200 0.089200 0.000000 0.000000 -0.089200 -0.089200 -0.089200 0.089200 0.000000 0.000000 0.089200 0.089200 0.000000 -0.089200 0.000000 -0.089200 0.089200 0.089200 0.089200 0.089200 -0.089200 0.000000 0.000000 0.089200 0.089200 0.000000 0.089200 0.089200 -0.089200 0.089200 0.089200 0.000000 0.000000 -0.089200 -0.089200 0.000000 0.089200 0.089200 0.089200 0.089200 0.000000 0.000000 -0.089200 0.000000 -0.089200 -0.089200 
