0.258900 0.000000 0.000000 0.000000 0.258900 -0.258900 0.258900 0.000000 0.258900 -0.258900 -0.258900 0.258900 0.000000 -0.258900 0.000000 0.258900 0.000000 0.258900 -0.258900 0.258900 0.258900 -0.258900 -0.258900 -0.258900 -0.258900 -0.258900 0.258900 0.000000 -0.258900 0.000000 0.258900 -0.258900 -0.258900 0.258900 0.258900 0.000000 0.000000 -0.258900 -0.258900 -0.258900 0.258900 -0.258900 0.000000 0.000000 0.000000 -0.258900 -0.258900 -0.258900 0.258900 0.258900 0.000000 0.000000 0.000000 0.000000 0.258900 0.258900 -0.258900 0.258900 0.258900 0.000000 0.000000 -0.258900 0.258900 0.000000 0.000000 0.000000 0.258900 -0.258900 -0.258900 0.000000 0.258900 -0.258900 -0.258900 -0.258900 0.000000 0.000000 -0.258900 -0.258900 0.000000 -0.258900 0.000000 -0.258900 0.258900 0.000000 0.382300 -0.382300 0.382300 0.382300 0.382300 0.000000 -0.382300 0.000000 0.382300 0.000000 0.000000 -0.382300 0.000000 0.000000 -0.382300 0.382300 0.000000 0.000000 -0.382300 -0.382300 0.000000 0.382300 0.000000 0.000000 0.000000 0.382300 -0.382300 -0.382300 -0.382300 -0.382300 0.000000 0.000000 -0.382300 0.382300 0.382300 0.000000 0.000000 -0.382300 -0.382300 0.000000 0.000000 -0.382300 -0.382300 0.000000 -0.382300 -0.382300 0.000000 -0.382300 0.000000 0.382300 0.000000 -0.382300 0.000000 0.382300 0.000000 0.000000 0.382300 -0.382300 0.000000 0.000000 -0.382300 -0.382300 0.382300 0.000000 0.000000 0.000000 -0.382300 0.000000 -0.382300 0.382300 0.382300 -0.382300 0.382300 0.382300 0.000000 0.382300 -0.382300 -0.382300 0.382300 0.382300 0.000000 0.382300 0.000000 0.000000 0.233000 0.000000 0.000000 -0.233000 0.233000 0.233000 -0.233000 -0.233000 0.233000 0.233000 0.233000 0.000000 0.233000 0.000000 0.000000 -0.233000 0.233000 0.233000 0.000000 -0.233000 -0.233000 -0.233000 0.233000 0.233000 0.233000 0.233000 -0.233000 0.233000 -0.233000 0.000000 0.000000 0.233000 -0.233000 -0.233000 -0.233000 0.000000 0.000000 -0.233000 0.233000 -0.233000 0.233000 0.233000 -0.233000 -0.233000 -0.233000 0.000000 0.000000 -0.233000 -0.233000 -0.233000 -0.233000 0.233000 -0.233000 0.000000 0.233000 0.000000 0.233000 0.000000 0.233000 0.233000 -0.233000 -0.233000 -0.233000 0.000000 -0.233000 0.000000 0.233000 0.233000 0.233000 0.000000 0.000000 0.233000 0.233000 0.000000 -0.233000 0.233000 0.000000 -0.233000 0.000000 0.000000 0.000000 -0.233000 -0.233000 0.000000 -0.175100 -0.175100 0.175100 0.175100 -0.175100 0.000000 -0.175100 0.000000 -0.175100 0.175100 -0.175100 -0.175100 0.175100 -0.175100 -0.175100 0.175100 0.000000 -0.175100 0.175100 0.000000 0.000000 -0.175100 -0.175100 -0.175100 0.000000 0.000000 0.175100 -0.175100 -0.175100 0.000000 0.000000 0.000000 -0.175100 0.175100 -0.175100 0.175100 0.000000 -0.175100 0.000000 -0.175100 -0.175100 0.175100 0.000000 -0.175100 -0.175100 -0.175100 0.000000 0.175100 0.000000 0.175100 0.000000 0.175100 -0.175100 0.000000 0.175100 0.175100 0.175100 0.175100 0.175100 0.175100 0.000000 0.000000 0.175100 0.175100 0.175100 0.000000 0.175100 0.000000 0.175100 -0.175100 0.175100 0.000000 0.175100 0.000000 0.000000 -0.175100 -0.175100 0.175100 -0.175100 -0.175100 0.000000 0.000000 -0.175100 0.000000 0.195100 0.195100 0.000000 0.000000 0.195100 -0.195100 0.195100 -0.195100 -0.195100 0.000000 0.000000 0.195100 -0.195100 -0.195100 0.000000 0.195100 0.000000 0.000000 -0.195100 -0.195100 0.195100 -0.195100 0.195100 -0.195100 0.000000 -0.195100 -0.195100 0.195100 0.000000 0.000000 0.195100 0.000000 0.000000 -0.195100 -0.195100 0.000000 -0.195100 0.000000 -0.195100 0.195100 0.000000 0.195100 0.195100 0.000000 0.195100 0.000000 0.000000 -0.195100 -0.195100 -0.195100 0.000000 0.000000 0.195100 0.000000 0.000000 0.000000 0.195100 0.195100 0.195100 0.195100 0.195100 0.000000 0.195100 -0.195100 -0.195100 0.195100 0.195100 0.000000 -0.195100 0.000000 0.000000 0.000000 -0.195100 -0.195100 -0.195100 0.195100 0.195100 0.195100 0.195100 -0.195100 -0.195100 0.000000 0.000000 0.000000 0.000000 0.134500 0.134500 -0.134500 0.000000 -0.134500 0.134500 -0.134500 -0.134500 -0.134500 0.000000 -0.134500 -0.134500 0.134500 0.000000 0.000000 0.000000 -0.134500 0.134500 0.134500 -0.134500 0.000000 0.134500 -0.134500 -0.134500 -0.134500 0.134500 0.134500 0.134500 0.134500 0.000000 0.000000 0.000000 0.000000 0.134500 -0.134500 0.134500 0.134500 0.000000 -0.134500 0.000000 0.000000 0.134500 -0.134500 -0.134500 -0.134500 0.134500 0.134500 0.134500 0.134500 0.134500 -0.134500 0.134500 0.000000 -0.134500 0.134500 0.000000 -0.134500 0.134500 -0.134500 -0.134500 0.134500 -0.134500 0.000000 -0.134500 0.000000 -0.134500 0.000000 -0.134500 -0.134500 -0.134500 0.134500 0.000000 0.134500 -0.134500 -0.134500 -0.134500 -0.134500 0.134500 0.134500 -0.134500 -0.134500 0.134500 0.000000 0.285000 0.285000 0.285000 -0.285000 0.285000 -0.285000 0.000000 0.000000 0.000000 0.000000 -0.285000 0.285000 -0.285000 0.000000 -0.285000 0.285000 0.000000 0.000000 0.000000 -0.285000 0.000000 -0.285000 0.000000 0.000000 0.285000 0.000000 -0.285000 -0.285000 0.285000 0.285000 0.285000 0.000000 0.000000 -0.285000 0.285000 -0.285000 0.000000 0.000000 -0.285000 0.285000 0.000000 -0.285000 0.000000 0.000000 0.000000 -0.285000 -0.285000 -0.285000 0.285000 0.000000 -0.285000 -0.285000 0.000000 0.000000 0.285000 -0.285000 0.000000 0.285000 -0.285000 -0.285000 -0.285000 -0.285000 0.285000 0.000000 0.285000 -0.285000 0.285000 0.000000 0.000000 0.000000 -0.285000 -0.285000 -0.285000 0.285000 -0.285000 0.000000 -0.285000 0.285000 0.285000 -0.285000 -0.285000 0.285000 0.285000 0.000000 -0.246100 -0.246100 -0.246100 0.000000 0.246100 0.000000 0.000000 -0.246100 -0.246100 0.246100 -0.246100 0.000000 0.246100 0.000000 -0.246100 0.246100 0.000000 -0.246100 -0.246100 0.246100 0.246100 -0.246100 -0.246100 -0.246100 -0.246100 -0.246100 -0.246100 0.246100 0.246100 0.000000 0.246100 0.246100 0.000000 0.246100 -0.246100 0.000000 0.000000 0.246100 0.246100 -0.246100 0.000000 0.246100 -0.246100 0.246100 -0.246100 0.246100 0.246100 0.000000 0.000000 0.246100 -0.246100 0.000000 -0.246100 0.246100 -0.246100 -0.246100 0.246100 0.000000 0.000000 0.246100 0.000000 0.246100 0.000000 -0.246100 0.000000 0.000000 0.000000 0.246100 0.000000 0.246100 -0.246100 -0.246100 0.246100 0.000000 0.000000 0.000000 -0.246100 0.000000 0.000000 0.246100 0.246100 0.246100 -0.246100 0.246100 -0.243000 -0.243000 0.243000 -0.243000 0.000000 0.243000 -0.243000 -0.243000 0.243000 0.243000 -0.243000 0.243000 0.000000 0.000000 0.000000 0.243000 -0.243000 0.243000 0.000000 0.243000 -0.243000 0.243000 0.243000 0.000000 0.000000 0.243000 0.000000 -0.243000 0.000000 -0.243000 0.243000 0.000000 0.000000 0.243000 0.243000 0.243000 0.000000 -0.243000 0.243000 0.243000 -0.243000 -0.243000 0.000000 0.243000 0.000000 -0.243000 0.243000 -0.243000 0.243000 0.243000 -0.243000 -0.243000 0.243000 0.243000 0.000000 0.243000 -0.243000 -0.243000 0.243000 0.000000 -0.243000 0.000000 -0.243000 0.243000 0.000000 0.243000 0.243000 -0.243000 0.000000 -0.243000 -0.243000 0.243000 0.000000 0.000000 0.000000 0.243000 -0.243000 0.243000 -0.243000 -0.243000 0.000000 0.000000 0.243000 0.000000 -0.233600 0.233600 0.000000 0.000000 0.000000 0.000000 0.233600 -0.233600 -0.233600 0.000000 0.233600 0.233600 0.233600 -0.233600 0.233600 -0.233600 0.233600 0.233600 -0.233600 0.000000 -0.233600 0.000000 0.233600 0.233600 0.233600 0.233600 -0.233600 0.000000 0.233600 0.000000 0.000000 0.000000 -0.233600 -0.233600 0.233600 -0.233600 0.233600 0.000000 -0.233600 -0.233600 0.233600 -0.233600 0.233600 0.233600 0.000000 0.000000 -0.233600 -0.233600 0.000000 0.233600 0.233600 -0.233600 -0.233600 0.000000 0.000000 0.233600 0.233600 0.000000 0.233600 0.000000 0.233600 -0.233600 -0.233600 0.233600 0.000000 0.000000 0.000000 0.233600 -0.233600 0.000000 0.000000 0.000000 0.000000 -0.233600 0.233600 0.000000 0.000000 0.000000 0.000000 -0.233600 -0.233600 0.233600 0.000000 -0.233600 
