0.118400 -0.118400 0.118400 0.000000 0.000000 -0.118400 -0.118400 0.000000 0.118400 0.000000 0.118400 0.118400 -0.118400 0.118400 -0.118400 -0.118400 -0.118400 -0.118400 -0.118400 0.000000 -0.118400 0.118400 0.000000 0.118400 0.000000 0.000000 -0.118400 0.118400 -0.118400 -0.118400 0.000000 0.000000 0.000000 0.000000 0.118400 -0.118400 -0.118400 -0.118400 0.000000 0.118400 0.118400 0.000000 0.118400 -0.118400 0.000000 0.000000 -0.118400 -0.118400 0.000000 -0.118400 0.000000 0.000000 -0.118400 0.118400 0.000000 -0.118400 0.000000 0.118400 -0.118400 0.000000 -0.118400 -0.118400 0.118400 0.000000 -0.118400 0.118400 0.000000 0.000000 0.118400 -0.118400 0.000000 0.000000 0.118400 0.000000 0.118400 0.118400 0.000000 0.000000 -0.118400 -0.118400 0.118400 0.118400 0.118400 0.000000 -0.118400 -0.118400 0.000000 -0.118400 0.118400 -0.118400 0.118400 0.000000 0.118400 0.000000 0.118400 0.118400 -0.118400 -0.118400 0.000000 0.000000 -0.118400 -0.118400 -0.118400 -0.118400 -0.118400 0.000000 0.000000 0.000000 0.000000 0.000000 0.118400 0.000000 0.118400 0.000000 0.118400 0.000000 0.000000 -0.118400 0.000000 0.000000 -0.118400 0.000000 -0.118400 -0.118400 -0.118400 0.000000 -0.118400 0.118400 -0.118400 0.000000 0.000000 0.118400 -0.118400 -0.118400 0.118400 -0.118400 -0.118400 -0.118400 0.000000 0.000000 -0.118400 0.000000 -0.118400 0.000000 0.118400 -0.118400 -0.118400 0.000000 -0.118400 0.000000 0.000000 0.029300 0.000000 -0.029300 0.000000 -0.029300 -0.029300 -0.029300 0.000000 0.029300 0.029300 -0.029300 0.000000 0.000000 0.000000 0.029300 0.029300 0.029300 0.000000 -0.029300 -0.029300 -0.029300 -0.029300 -0.029300 0.000000 -0.029300 0.000000 0.000000 0.000000 0.000000 0.029300 0.029300 0.029300 -0.029300 0.000000 0.000000 0.029300 0.029300 -0.029300 0.000000 0.000000 0.000000 0.029300 0.029300 0.029300 0.000000 0.000000 -0.029300 0.029300 0.029300 0.000000 -0.029300 -0.029300 -0.029300 -0.029300 -0.029300 -0.029300 -0.029300 -0.029300 -0.029300 -0.029300 0.000000 0.000000 -0.029300 0.000000 0.000000 0.029300 0.029300 0.000000 0.000000 0.029300 0.000000 0.029300 -0.029300 0.000000 0.000000 -0.029300 -0.029300 -0.029300 0.029300 0.029300 0.000000 0.000000 0.000000 -0.029300 0.029300 0.000000 -0.029300 0.000000 0.029300 0.029300 0.000000 0.000000 0.029300 0.029300 0.000000 0.029300 0.000000 0.029300 -0.029300 0.029300 -0.029300 -0.029300 0.029300 -0.029300 -0.029300 0.000000 0.029300 -0.029300 0.029300 0.029300 0.029300 0.029300 0.029300 0.029300 0.029300 0.029300 0.029300 0.029300 0.029300 -0.029300 0.000000 0.029300 -0.029300 -0.029300 0.000000 0.029300 0.000000 0.000000 -0.029300 -0.029300 0.000000 0.000000 0.029300 0.000000 0.000000 0.029300 -0.029300 0.000000 -0.029300 0.029300 -0.029300 -0.029300 0.029300 0.029300 -0.029300 0.000000 0.029300 0.029300 0.000000 -0.077200 -0.077200 0.000000 0.000000 -0.077200 -0.077200 0.000000 0.000000 0.077200 -0.077200 0.000000 0.000000 -0.077200 0.077200 -0.077200 0.000000 -0.077200 0.000000 0.077200 -0.077200 0.000000 0.077200 -0.077200 0.000000 0.077200 -0.077200 0.000000 -0.077200 0.077200 0.000000 -0.077200 0.077200 0.000000 0.000000 0.000000 0.077200 0.077200 0.000000 -0.077200 0.000000 0.077200 -0.077200 0.000000 0.077200 0.000000 -0.077200 0.000000 -0.077200 -0.077200 0.077200 0.000000 -0.077200 0.000000 0.077200 0.077200 -0.077200 -0.077200 0.077200 -0.077200 0.000000 0.000000 -0.077200 0.000000 -0.077200 0.000000 0.077200 0.000000 0.000000 0.000000 0.000000 0.077200 -0.077200 -0.077200 -0.077200 0.077200 0.077200 -0.077200 0.077200 0.000000 0.000000 0.077200 0.077200 0.077200 0.000000 0.077200 0.077200 0.000000 0.077200 0.077200 0.077200 0.000000 -0.077200 -0.077200 0.077200 0.077200 -0.077200 0.077200 -0.077200 0.000000 -0.077200 -0.077200 0.077200 0.000000 0.000000 -0.077200 -0.077200 0.077200 -0.077200 0.000000 0.077200 0.000000 -0.077200 0.000000 0.000000 -0.077200 0.000000 0.000000 0.077200 0.000000 0.000000 -0.077200 0.000000 0.000000 0.000000 0.077200 0.000000 0.077200 0.000000 0.077200 0.077200 -0.077200 -0.077200 0.000000 0.000000 0.000000 0.077200 0.077200 -0.077200 -0.077200 0.000000 0.077200 0.000000 0.000000 0.000000 -0.077200 0.000000 -0.077200 -0.077200 0.077200 0.000000 0.000000 0.052000 0.052000 -0.052000 0.052000 0.000000 0.000000 0.000000 0.000000 0.000000 -0.052000 0.052000 0.000000 0.052000 0.052000 -0.052000 -0.052000 -0.052000 0.000000 -0.052000 -0.052000 0.000000 0.000000 -0.052000 0.000000 -0.052000 -0.052000 -0.052000 0.052000 0.000000 -0.052000 0.000000 0.052000 0.052000 0.052000 0.052000 -0.052000 -0.052000 -0.052000 0.052000 0.052000 0.000000 -0.052000 0.052000 0.000000 0.052000 0.052000 0.000000 0.000000 -0.052000 0.052000 -0.052000 0.000000 0.052000 0.052000 0.052000 0.052000 -0.052000 0.000000 0.000000 0.000000 -0.052000 -0.052000 0.052000 -0.052000 0.000000 0.052000 -0.052000 -0.052000 -0.052000 0.000000 0.000000 0.000000 0.052000 0.000000 0.000000 0.052000 0.000000 0.000000 0.052000 0.000000 0.000000 0.000000 0.052000 0.052000 0.052000 0.052000 0.000000 -0.052000 -0.052000 -0.052000 0.000000 0.052000 -0.052000 0.000000 0.000000 0.000000 0.000000 0.000000 0.052000 0.000000 0.052000 0.052000 0.052000 0.000000 -0.052000 -0.052000 -0.052000 -0.052000 -0.052000 0.052000 0.052000 0.052000 0.000000 -0.052000 -0.052000 0.052000 0.000000 -0.052000 0.000000 0.000000 0.052000 0.000000 -0.052000 -0.052000 -0.052000 -0.052000 0.052000 0.000000 0.052000 -0.052000 -0.052000 -0.052000 0.052000 0.000000 0.000000 -0.052000 0.000000 0.052000 0.000000 0.052000 0.000000 0.052000 -0.052000 0.052000 0.000000 0.000000 0.052000 0.052000 0.052000 0.000000 0.000000 0.014800 -0.014800 0.014800 -0.014800 0.014800 0.000000 -0.014800 0.000000 0.014800 -0.014800 -0.014800 0.014800 0.014800 -0.014800 -0.014800 0.014800 0.000000 -0.014800 0.000000 0.014800 -0.014800 0.000000 0.014800 0.014800 -0.014800 -0.014800 -0.014800 0.000000 -0.014800 0.014800 0.014800 0.000000 -0.014800 -0.014800 0.014800 -0.014800 0.000000 0.000000 0.014800 0.000000 -0.014800 0.014800 0.000000 0.014800 0.000000 0.000000 0.000000 0.000000 -0.014800 0.014800 0.014800 -0.014800 -0.014800 -0.014800 0.000000 -0.014800 -0.014800 -0.014800 0.014800 -0.014800 0.014800 0.014800 0.000000 0.014800 0.000000 0.000000 0.000000 0.000000 -0.014800 -0.014800 0.014800 0.000000 0.014800 0.014800 0.014800 0.000000 -0.014800 -0.014800 0.000000 -0.014800 -0.014800 -0.014800 0.014800 -0.014800 -0.014800 0.000000 0.014800 -0.014800 0.000000 0.014800 0.014800 -0.014800 -0.014800 0.000000 -0.014800 0.000000 0.014800 0.000000 0.000000 -0.014800 0.000000 -0.014800 0.014800 0.000000 -0.014800 -0.014800 0.000000 0.000000 0.000000 0.000000 0.014800 -0.014800 -0.014800 0.000000 0.000000 0.014800 -0.014800 0.014800 0.014800 0.014800 0.000000 0.000000 -0.014800 -0.014800 0.014800 -0.014800 0.000000 -0.014800 0.000000 0.000000 -0.014800 -0.014800 0.014800 -0.014800 0.014800 -0.014800 0.014800 0.014800 0.014800 -0.014800 0.000000 0.000000 0.000000 0.000000 0.014800 -0.014800 -0.014800 0.014800 -0.027100 -0.027100 0.027100 0.027100 0.000000 0.000000 0.027100 0.027100 0.027100 -0.027100 0.027100 0.000000 0.000000 0.000000 -0.027100 0.027100 0.000000 0.027100 0.027100 0.000000 0.000000 0.000000 0.000000 -0.027100 -0.027100 -0.027100 0.000000 0.000000 -0.027100 0.000000 0.027100 0.027100 -0.027100 0.000000 0.000000 0.000000 -0.027100 0.000000 0.027100 0.000000 0.027100 -0.027100 0.027100 0.027100 0.027100 0.000000 0.027100 0.000000 0.027100 0.000000 -0.027100 -0.027100 0.000000 -0.027100 0.027100 0.000000 -0.027100 0.000000 0.027100 0.000000 0.000000 -0.027100 -0.027100 -0.027100 0.000000 0.000000 0.027100 0.000000 0.027100 0.027100 -0.027100 0.027100 0.027100 0.027100 0.000000 0.027100 -0.027100 -0.027100 -0.027100 0.000000 0.000000 -0.027100 0.027100 0.027100 0.027100 0.027100 0.000000 -0.027100 -0.027100 -0.027100 0.000000 -0.027100 0.000000 0.027100 0.027100 0.000000 -0.027100 0.027100 0.027100 0.027100 -0.027100 -0.027100 0.027100 0.027100 0.000000 0.027100 -0.027100 0.027100 0.000000 0.000000 -0.027100 0.000000 0.027100 -0.027100 0.000000 0.027100 0.027100 0.027100 0.027100 0.027100 0.027100 0.027100 0.027100 0.027100 -0.027100 0.027100 0.027100 0.027100 0.027100 0.000000 0.027100 0.000000 0.000000 -0.027100 0.000000 0.027100 -0.027100 -0.027100 0.000000 0.000000 -0.027100 0.000000 0.000000 0.000000 -0.027100 0.027100 -0.027100 0.000000 -0.027100 -0.027100 0.005400 0.005400 0.005400 0.000000 0.005400 0.005400 0.000000 -0.005400 0.005400 0.000000 -0.005400 -0.005400 0.000000 0.000000 0.000000 -0.005400 -0.005400 0.000000 0.005400 -0.005400 0.005400 0.005400 0.005400 0.000000 0.005400 -0.005400 0.000000 0.000000 0.005400 -0.005400 0.000000 0.005400 0.005400 0.005400 0.005400 0.000000 0.005400 0.000000 -0.005400 -0.005400 0.005400 -0.005400 0.005400 0.005400 -0.005400 0.005400 0.005400 -0.005400 0.000000 0.000000 0.005400 0.005400 -0.005400 0.000000 0.000000 0.000000 0.005400 0.005400 0.000000 -0.005400 0.000000 0.005400 0.005400 -0.005400 0.000000 0.000000 -0.005400 0.000000 -0.005400 -0.005400 0.000000 -0.005400 -0.005400 0.005400 -0.005400 0.000000 0.000000 0.005400 0.000000 0.000000 -0.005400 0.005400 -0.005400 0.000000 -0.005400 0.005400 0.000000 0.005400 -0.005400 -0.005400 0.000000 0.000000 0.000000 -0.005400 0.005400 -0.005400 0.000000 -0.005400 0.000000 -0.005400 -0.005400 0.000000 0.000000 0.005400 0.005400 -0.005400 0.000000 0.005400 0.005400 -0.005400 0.005400 0.000000 0.005400 0.000000 0.005400 0.000000 0.000000 0.005400 0.005400 0.005400 -0.005400 0.005400 0.005400 0.005400 0.000000 0.005400 -0.005400 0.005400 -0.005400 0.005400 -0.005400 0.000000 0.005400 0.005400 -0.005400 0.000000 -0.005400 -0.005400 0.000000 -0.005400 0.000000 0.005400 0.005400 0.000000 -0.005400 0.005400 0.000000 0.005400 -0.005400 -0.005400 -0.031900 0.031900 0.031900 -0.031900 0.031900 0.031900 -0.031900 -0.031900 0.031900 0.000000 0.031900 0.031900 -0.031900 0.000000 0.000000 0.000000 -0.031900 0.000000 0.000000 0.031900 0.031900 0.031900 0.031900 -0.031900 0.031900 -0.031900 0.031900 0.000000 0.000000 0.000000 -0.031900 0.031900 0.000000 -0.031900 0.031900 0.000000 -0.031900 0.031900 -0.031900 -0.031900 0.031900 0.000000 0.031900 0.031900 -0.031900 0.031900 0.000000 0.000000 0.031900 0.000000 0.031900 0.031900 -0.031900 -0.031900 0.000000 -0.031900 0.031900 0.031900 -0.031900 0.031900 0.000000 -0.031900 0.031900 0.000000 0.000000 -0.031900 -0.031900 -0.031900 0.000000 0.000000 0.000000 -0.031900 0.031900 0.031900 -0.031900 -0.031900 0.000000 -0.031900 -0.031900 0.000000 0.000000 -0.031900 0.000000 0.031900 0.000000 0.000000 0.031900 0.031900 0.031900 0.031900 -0.031900 0.031900 -0.031900 -0.031900 -0.031900 0.000000 0.000000 0.031900 0.031900 -0.031900 0.000000 0.000000 0.031900 0.031900 0.000000 -0.031900 0.000000 0.031900 0.031900 0.031900 -0.031900 0.031900 0.000000 -0.031900 -0.031900 0.000000 0.000000 0.031900 0.031900 -0.031900 0.000000 0.000000 0.000000 0.031900 0.031900 0.031900 0.000000 -0.031900 0.000000 0.000000 -0.031900 0.031900 -0.031900 0.031900 0.000000 0.000000 -0.031900 -0.031900 -0.031900 -0.031900 0.000000 -0.031900 0.000000 -0.031900 0.000000 -0.031900 0.000000 -0.031900 0.000000 0.031900 -0.083600 0.000000 0.083600 0.000000 0.000000 0.083600 0.083600 0.083600 -0.083600 0.000000 0.000000 0.083600 -0.083600 0.083600 0.083600 -0.083600 -0.083600 0.083600 0.083600 0.000000 0.000000 -0.083600 -0.083600 -0.083600 0.000000 0.000000 -0.083600 0.000000 0.000000 0.083600 0.000000 0.000000 0.083600 -0.083600 0.083600 0.083600 0.000000 -0.083600 0.083600 0.083600 0.083600 0.000000 0.083600 0.083600 0.000000 0.000000 0.000000 0.000000 0.000000 -0.083600 0.000000 0.083600 0.000000 0.083600 -0.083600 -0.083600 0.083600 0.083600 -0.083600 0.000000 0.000000 0.000000 -0.083600 0.083600 0.083600 0.083600 0.000000 0.000000 0.083600 -0.083600 -0.083600 -0.083600 -0.083600 0.000000 0.083600 0.000000 0.000000 -0.083600 0.083600 0.000000 0.000000 0.083600 0.000000 0.000000 -0.083600 0.083600 0.000000 0.083600 0.000000 0.000000 -0.083600 0.083600 -0.083600 0.000000 -0.083600 0.000000 -0.083600 0.083600 -0.083600 0.083600 0.083600 0.000000 -0.083600 0.083600 -0.083600 0.000000 0.000000 0.000000 0.083600 0.000000 -0.083600 -0.083600 0.000000 -0.083600 -0.083600 -0.083600 0.083600 0.000000 -0.083600 -0.083600 0.000000 0.000000 0.000000 0.083600 0.083600 -0.083600 -0.083600 0.083600 0.000000 -0.083600 0.083600 0.000000 -0.083600 0.083600 -0.083600 -0.083600 0.083600 0.000000 0.083600 0.083600 0.000000 0.000000 0.083600 0.083600 0.083600 -0.083600 -0.083600 -0.083600 -0.083600 0.083600 -0.048900 -0.048900 0.048900 0.000000 0.000000 0.000000 -0.048900 0.048900 0.048900 0.000000 -0.048900 -0.048900 0.000000 0.048900 0.000000 0.000000 0.000000 0.000000 -0.048900 -0.048900 -0.048900 0.048900 0.000000 0.000000 -0.048900 0.048900 0.000000 0.048900 0.048900 0.048900 0.000000 0.000000 -0.048900 0.048900 -0.048900 0.048900 -0.048900 0.000000 -0.048900 -0.048900 0.000000 0.048900 0.048900 -0.048900 -0.048900 -0.048900 0.000000 0.000000 0.048900 0.000000 0.048900 0.000000 0.048900 0.000000 0.000000 -0.048900 0.048900 0.000000 0.000000 -0.048900 0.048900 -0.048900 0.000000 -0.048900 0.000000 0.000000 0.000000 0.048900 0.000000 0.000000 0.048900 -0.048900 -0.048900 0.048900 0.048900 0.048900 -0.048900 0.000000 0.000000 0.000000 0.048900 0.000000 -0.048900 0.048900 0.048900 -0.048900 -0.048900 0.048900 0.000000 -0.048900 0.000000 0.048900 0.000000 0.000000 -0.048900 0.000000 0.000000 0.000000 0.000000 -0.048900 0.000000 0.048900 0.048900 -0.048900 -0.048900 0.048900 0.000000 -0.048900 -0.048900 0.000000 -0.048900 -0.048900 -0.048900 0.000000 0.048900 -0.048900 -0.048900 0.048900 -0.048900 0.000000 0.048900 -0.048900 -0.048900 0.000000 0.000000 0.048900 0.000000 0.048900 0.000000 0.000000 -0.048900 -0.048900 -0.048900 0.000000 0.000000 -0.048900 -0.048900 0.048900 0.048900 0.000000 -0.048900 -0.048900 0.000000 0.048900 0.048900 -0.048900 0.048900 -0.048900 0.000000 0.000000 0.000000 -0.003500 0.003500 0.003500 0.000000 0.003500 0.003500 0.003500 0.003500 -0.003500 0.003500 -0.003500 0.000000 0.003500 0.000000 0.000000 -0.003500 0.000000 0.003500 0.003500 -0.003500 -0.003500 0.000000 -0.003500 -0.003500 0.000000 -0.003500 0.003500 -0.003500 0.000000 -0.003500 -0.003500 -0.003500 -0.003500 0.003500 0.000000 -0.003500 0.003500 0.003500 -0.003500 -0.003500 0.000000 -0.003500 -0.003500 -0.003500 0.003500 0.000000 -0.003500 0.003500 0.003500 -0.003500 -0.003500 0.000000 0.003500 0.003500 -0.003500 0.000000 0.003500 0.000000 0.000000 0.000000 0.000000 -0.003500 0.000000 -0.003500 0.003500 0.003500 -0.003500 0.003500 0.000000 0.003500 -0.003500 -0.003500 0.003500 -0.003500 0.000000 0.003500 0.000000 0.003500 0.003500 0.000000 -0.003500 -0.003500 0.000000 -0.003500 -0.003500 -0.003500 0.000000 0.000000 0.000000 0.003500 0.000000 0.003500 0.003500 0.003500 -0.003500 0.000000 0.000000 -0.003500 -0.003500 0.000000 0.000000 -0.003500 0.000000 0.003500 0.003500 0.003500 -0.003500 0.003500 -0.003500 0.003500 0.000000 0.000000 -0.003500 0.000000 0.003500 -0.003500 0.000000 0.000000 0.003500 0.003500 0.000000 0.000000 0.000000 0.000000 0.003500 -0.003500 0.000000 -0.003500 -0.003500 -0.003500 -0.003500 -0.003500 0.000000 0.003500 0.003500 0.003500 0.000000 0.003500 -0.003500 0.003500 -0.003500 0.000000 0.000000 0.000000 0.003500 0.003500 -0.003500 0.000000 0.000000 0.000000 -0.004300 -0.004300 0.004300 0.004300 -0.004300 -0.004300 0.004300 0.004300 0.000000 -0.004300 0.004300 0.004300 0.004300 0.000000 0.000000 0.000000 0.000000 0.000000 -0.004300 0.004300 0.004300 0.000000 -0.004300 -0.004300 0.004300 0.000000 -0.004300 -0.004300 -0.004300 0.000000 -0.004300 0.000000 0.000000 0.004300 -0.004300 0.000000 0.004300 -0.004300 0.000000 0.000000 0.000000 0.004300 0.004300 0.004300 0.004300 0.004300 0.004300 0.004300 0.000000 0.004300 0.004300 0.004300 -0.004300 -0.004300 0.000000 -0.004300 0.000000 0.004300 0.000000 0.004300 0.000000 0.000000 0.000000 -0.004300 0.004300 0.004300 0.004300 -0.004300 -0.004300 0.004300 0.000000 0.004300 0.000000 -0.004300 0.004300 0.000000 -0.004300 0.004300 0.004300 0.000000 0.000000 -0.004300 0.004300 0.004300 -0.004300 0.004300 0.000000 0.004300 -0.004300 0.000000 0.004300 -0.004300 0.004300 0.004300 0.000000 0.004300 0.000000 -0.004300 0.004300 0.000000 -0.004300 0.000000 0.004300 0.004300 0.004300 0.004300 0.004300 0.000000 0.004300 -0.004300 0.004300 -0.004300 -0.004300 0.000000 0.000000 -0.004300 0.004300 0.000000 0.000000 -0.004300 0.004300 0.004300 0.000000 -0.004300 0.004300 0.004300 -0.004300 -0.004300 -0.004300 0.000000 -0.004300 0.004300 0.000000 0.000000 -0.004300 0.000000 0.004300 0.000000 -0.004300 0.004300 0.004300 0.000000 -0.004300 0.000000 0.000000 0.000000 0.004300 0.004300 0.004300 0.000000 -0.034900 0.000000 0.000000 -0.034900 0.000000 0.000000 0.034900 -0.034900 0.000000 0.000000 0.000000 0.034900 -0.034900 0.034900 0.000000 -0.034900 -0.034900 -0.034900 0.000000 0.000000 -0.034900 0.034900 -0.034900 0.034900 0.034900 0.000000 0.034900 0.000000 -0.034900 0.000000 0.000000 0.000000 -0.034900 0.034900 0.034900 0.000000 -0.034900 0.034900 -0.034900 0.000000 0.000000 0.034900 -0.034900 0.000000 -0.034900 0.000000 0.034900 0.034900 -0.034900 0.034900 0.000000 0.034900 -0.034900 0.034900 0.034900 -0.034900 0.034900 0.034900 0.000000 -0.034900 0.000000 0.034900 -0.034900 0.034900 0.034900 0.000000 -0.034900 -0.034900 0.034900 0.000000 0.000000 -0.034900 0.034900 0.000000 -0.034900 0.034900 -0.034900 0.000000 0.034900 -0.034900 0.000000 -0.034900 0.000000 -0.034900 0.034900 0.000000 0.034900 0.034900 0.034900 0.034900 0.000000 0.034900 0.000000 -0.034900 -0.034900 -0.034900 -0.034900 0.000000 -0.034900 -0.034900 -0.034900 0.034900 -0.034900 0.000000 0.000000 0.000000 0.034900 0.034900 0.000000 0.000000 -0.034900 0.000000 0.034900 0.034900 -0.034900 0.034900 0.000000 0.034900 -0.034900 -0.034900 0.034900 0.000000 0.000000 -0.034900 0.034900 0.034900 -0.034900 0.000000 -0.034900 0.034900 0.000000 0.000000 -0.034900 0.000000 0.034900 -0.034900 0.034900 0.000000 0.034900 -0.034900 -0.034900 0.000000 0.034900 -0.034900 0.034900 -0.034900 -0.034900 0.000000 -0.034900 -0.006100 -0.006100 -0.006100 -0.006100 0.006100 0.000000 0.000000 -0.006100 0.000000 0.000000 -0.006100 0.000000 -0.006100 0.000000 0.006100 -0.006100 -0.006100 0.000000 0.000000 0.006100 0.006100 0.000000 0.000000 0.006100 0.000000 0.006100 0.006100 0.006100 0.000000 0.006100 0.006100 0.006100 -0.006100 0.000000 0.000000 -0.006100 0.000000 0.006100 0.000000 -0.006100 -0.006100 -0.006100 -0.006100 0.006100 -0.006100 0.006100 0.006100 -0.006100 0.000000 -0.006100 -0.006100 -0.006100 -0.006100 -0.006100 -0.006100 0.006100 0.006100 0.000000 -0.006100 -0.006100 0.006100 0.006100 0.006100 0.006100 0.000000 -0.006100 -0.006100 0.006100 -0.006100 -0.006100 -0.006100 -0.006100 -0.006100 -0.006100 0.000000 0.000000 0.000000 -0.006100 -0.006100 0.006100 0.000000 -0.006100 -0.006100 -0.006100 0.006100 -0.006100 -0.006100 -0.006100 0.000000 0.000000 0.000000 0.000000 0.006100 -0.006100 -0.006100 0.000000 0.006100 0.000000 -0.006100 0.006100 0.006100 0.006100 0.006100 0.000000 -0.006100 0.006100 0.000000 0.006100 0.006100 -0.006100 0.006100 0.000000 -0.006100 -0.006100 -0.006100 0.000000 0.006100 0.006100 0.000000 0.000000 0.000000 0.000000 -0.006100 0.000000 0.000000 0.006100 0.000000 0.006100 0.000000 -0.006100 -0.006100 -0.006100 0.006100 0.000000 0.000000 -0.006100 0.006100 -0.006100 0.006100 -0.006100 -0.006100 0.006100 0.000000 0.000000 -0.006100 0.006100 0.006100 -0.006100 0.006100 -0.006100 0.000000 0.000000 0.000000 0.000000 0.000000 0.009700 0.009700 0.000000 0.009700 0.009700 0.009700 0.000000 0.000000 0.000000 0.000000 0.009700 -0.009700 0.000000 -0.009700 -0.009700 0.000000 -0.009700 0.009700 0.000000 0.009700 -0.009700 0.000000 -0.009700 -0.009700 0.009700 0.000000 0.000000 0.009700 0.009700 0.009700 -0.009700 0.000000 -0.009700 0.009700 0.009700 0.009700 -0.009700 -0.009700 0.009700 0.009700 0.009700 -0.009700 0.000000 0.000000 -0.009700 -0.009700 0.000000 -0.009700 0.009700 0.000000 -0.009700 0.009700 0.000000 0.000000 0.009700 0.000000 0.009700 0.000000 0.009700 -0.009700 -0.009700 0.000000 0.009700 -0.009700 0.009700 0.009700 -0.009700 0.009700 0.009700 -0.009700 0.009700 -0.009700 -0.009700 -0.009700 -0.009700 -0.009700 0.009700 0.000000 0.000000 -0.009700 0.000000 -0.009700 0.009700 0.009700 -0.009700 0.009700 0.000000 -0.009700 0.009700 0.000000 -0.009700 0.009700 0.000000 -0.009700 -0.009700 0.009700 0.009700 0.000000 0.000000 -0.009700 0.000000 0.000000 -0.009700 -0.009700 -0.009700 0.000000 0.009700 0.000000 0.009700 -0.009700 0.009700 -0.009700 0.009700 -0.009700 0.000000 0.000000 -0.009700 -0.009700 -0.009700 -0.009700 -0.009700 0.000000 0.000000 -0.009700 0.000000 0.000000 0.000000 0.009700 0.000000 -0.009700 0.009700 -0.009700 0.009700 0.000000 0.009700 0.000000 -0.009700 0.000000 -0.009700 0.009700 0.009700 -0.009700 0.000000 -0.009700 0.000000 0.000000 -0.005900 0.005900 0.005900 0.000000 0.000000 -0.005900 0.005900 0.005900 0.000000 0.005900 0.000000 0.000000 -0.005900 0.000000 0.005900 -0.005900 -0.005900 -0.005900 0.005900 -0.005900 0.005900 -0.005900 0.005900 0.005900 -0.005900 -0.005900 0.005900 0.000000 0.000000 0.005900 0.005900 0.000000 0.005900 0.005900 0.000000 -0.005900 -0.005900 0.000000 0.000000 0.005900 -0.005900 -0.005900 0.000000 0.000000 -0.005900 0.000000 0.005900 0.005900 0.000000 0.000000 0.005900 0.000000 -0.005900 0.005900 0.000000 0.005900 -0.005900 0.000000 0.000000 0.000000 -0.005900 0.005900 0.005900 0.000000 0.000000 0.000000 -0.005900 -0.005900 -0.005900 -0.005900 -0.005900 -0.005900 0.005900 0.000000 -0.005900 0.000000 0.000000 -0.005900 0.000000 -0.005900 0.000000 0.000000 0.005900 0.005900 -0.005900 0.000000 -0.005900 0.005900 0.000000 0.000000 -0.005900 0.005900 0.005900 -0.005900 0.000000 -0.005900 0.000000 0.000000 0.005900 -0.005900 0.005900 0.005900 0.005900 0.005900 0.005900 0.005900 0.005900 0.005900 0.000000 -0.005900 -0.005900 0.005900 0.000000 0.005900 -0.005900 0.000000 0.005900 0.000000 0.005900 0.000000 0.000000 -0.005900 0.005900 0.005900 0.005900 0.005900 -0.005900 -0.005900 0.005900 -0.005900 0.005900 -0.005900 0.005900 -0.005900 0.005900 0.005900 0.005900 0.000000 0.000000 0.005900 0.005900 0.000000 -0.005900 0.000000 0.005900 0.000000 0.005900 -0.005900 -0.005900 
