-0.229100 0.229100 0.229100 0.000000 -0.229100 -0.229100 0.229100 0.000000 0.229100 0.000000 0.229100 0.229100 -0.229100 0.229100 0.229100 0.229100 0.229100 0.229100 0.000000 0.000000 -0.229100 -0.229100 -0.229100 -0.229100 -0.229100 -0.229100 -0.229100 0.000000 0.229100 -0.229100 0.000000 0.000000 0.000000 0.229100 0.000000 0.000000 -0.229100 -0.229100 0.000000 0.000000 0.000000 0.229100 0.000000 -0.229100 0.000000 0.229100 -0.229100 -0.229100 -0.229100 -0.229100 0.229100 -0.229100 -0.229100 0.229100 0.000000 0.229100 0.229100 -0.229100 -0.229100 -0.229100 0.229100 -0.229100 0.229100 0.000000 -0.229100 -0.229100 0.229100 -0.229100 -0.229100 0.000000 -0.229100 -0.229100 0.000000 -0.229100 -0.229100 0.229100 -0.229100 0.229100 0.229100 0.229100 -0.229100 -0.229100 0.000000 -0.229100 0.229100 -0.229100 0.000000 -0.229100 0.000000 0.000000 0.229100 -0.229100 0.229100 -0.229100 -0.229100 0.229100 0.229100 0.229100 -0.229100 0.000000 -0.229100 0.229100 0.229100 0.000000 0.229100 0.229100 0.229100 0.229100 -0.229100 -0.229100 0.229100 -0.229100 0.229100 0.000000 -0.229100 0.000000 -0.229100 0.229100 -0.229100 0.000000 0.229100 -0.229100 0.229100 0.000000 0.000000 -0.229100 0.000000 0.000000 0.229100 -0.229100 -0.229100 0.229100 0.000000 -0.229100 -0.229100 -0.229100 -0.229100 0.229100 0.000000 -0.229100 0.229100 0.229100 0.000000 0.229100 0.000000 -0.229100 0.229100 -0.229100 0.229100 0.229100 -0.229100 -0.229100 0.000000 0.000000 0.229100 0.000000 0.000000 0.229100 0.229100 0.229100 0.229100 -0.229100 0.229100 0.000000 -0.229100 0.000000 0.000000 0.229100 -0.229100 0.229100 -0.229100 0.229100 0.229100 -0.229100 -0.229100 0.000000 0.000000 -0.229100 0.000000 -0.229100 0.000000 -0.229100 -0.229100 0.000000 0.000000 0.000000 0.229100 0.000000 0.229100 -0.229100 -0.229100 -0.229100 -0.229100 -0.229100 -0.229100 0.229100 -0.229100 -0.229100 0.229100 0.229100 0.000000 0.000000 -0.229100 -0.229100 0.229100 -0.229100 0.000000 -0.229100 0.229100 0.000000 0.000000 0.229100 -0.229100 -0.229100 0.229100 0.000000 -0.229100 -0.229100 -0.229100 0.229100 -0.229100 0.229100 0.000000 -0.229100 0.229100 0.229100 -0.229100 -0.229100 0.000000 -0.229100 0.229100 0.229100 -0.229100 0.000000 -0.229100 0.000000 0.229100 -0.229100 0.229100 -0.229100 0.229100 -0.229100 0.229100 -0.229100 -0.229100 0.229100 -0.229100 0.000000 -0.229100 -0.229100 0.229100 0.000000 0.000000 0.000000 0.000000 -0.229100 0.000000 0.229100 0.229100 -0.229100 -0.229100 -0.229100 0.229100 -0.229100 -0.229100 -0.229100 -0.229100 -0.229100 0.229100 0.229100 0.229100 -0.229100 0.000000 0.229100 0.000000 0.000000 -0.229100 -0.229100 -0.229100 0.000000 0.229100 0.000000 0.229100 -0.229100 -0.229100 0.229100 0.000000 0.000000 0.229100 0.229100 -0.229100 -0.229100 -0.229100 -0.229100 -0.229100 -0.229100 -0.229100 0.000000 -0.229100 -0.229100 0.000000 -0.229100 0.000000 0.229100 0.000000 0.229100 -0.229100 0.000000 0.229100 -0.229100 -0.229100 -0.229100 0.000000 0.000000 0.229100 0.000000 0.000000 -0.229100 0.229100 0.229100 0.000000 0.000000 -0.229100 0.229100 0.229100 -0.229100 0.229100 -0.229100 0.229100 0.229100 0.229100 0.000000 0.229100 0.229100 0.229100 0.229100 0.229100 -0.229100 0.000000 0.229100 0.229100 0.000000 -0.229100 -0.229100 0.000000 0.229100 0.229100 -0.229100 0.229100 -0.229100 -0.229100 0.229100 -0.229100 -0.229100 0.229100 0.229100 0.229100 0.229100 0.229100 0.229100 0.000000 -0.229100 -0.229100 0.000000 0.229100 0.229100 -0.229100 -0.229100 -0.229100 -0.229100 0.000000 0.229100 0.000000 0.000000 -0.229100 -0.229100 0.000000 -0.229100 -0.229100 -0.229100 0.229100 0.229100 -0.229100 0.229100 0.229100 -0.229100 0.000000 -0.229100 0.000000 -0.229100 0.229100 -0.229100 -0.229100 -0.229100 -0.229100 0.000000 0.000000 0.229100 0.229100 0.229100 0.000000 -0.229100 0.000000 0.229100 0.229100 -0.229100 -0.229100 0.229100 0.229100 -0.229100 0.000000 -0.229100 0.000000 0.000000 -0.229100 -0.229100 -0.229100 0.229100 0.229100 0.229100 0.229100 -0.229100 -0.229100 0.000000 0.229100 0.229100 0.229100 0.000000 0.229100 0.229100 0.229100 -0.229100 -0.229100 -0.229100 0.000000 0.229100 -0.229100 -0.229100 -0.229100 -0.229100 0.000000 0.229100 0.000000 0.000000 0.000000 0.229100 0.229100 -0.229100 -0.229100 0.000000 0.000000 -0.229100 -0.229100 0.229100 0.000000 -0.229100 -0.229100 0.000000 0.229100 0.229100 0.000000 0.000000 0.229100 0.229100 0.229100 0.000000 -0.229100 0.229100 0.000000 0.000000 -0.229100 0.000000 0.000000 -0.229100 0.229100 0.000000 0.229100 0.000000 -0.229100 -0.229100 -0.229100 -0.229100 0.000000 -0.229100 0.229100 -0.229100 0.229100 0.229100 -0.229100 0.229100 0.229100 0.229100 -0.229100 0.000000 -0.229100 0.229100 0.229100 0.229100 0.229100 0.000000 0.000000 0.000000 0.229100 0.000000 0.000000 -0.229100 0.000000 0.000000 0.229100 0.229100 -0.229100 -0.229100 -0.229100 -0.229100 0.229100 0.229100 0.229100 -0.229100 -0.229100 0.229100 0.229100 0.000000 0.000000 -0.229100 0.000000 0.000000 0.000000 0.229100 -0.229100 0.000000 0.229100 0.229100 0.000000 0.229100 0.229100 0.229100 -0.229100 -0.229100 -0.229100 -0.229100 -0.229100 0.229100 0.229100 0.000000 -0.229100 -0.229100 -0.229100 0.229100 -0.229100 0.000000 0.229100 0.000000 -0.229100 -0.229100 0.229100 0.000000 0.229100 0.229100 0.229100 0.000000 -0.229100 0.229100 0.000000 -0.229100 0.229100 -0.229100 -0.229100 -0.229100 0.000000 0.000000 -0.229100 0.229100 -0.229100 0.000000 0.229100 0.229100 0.000000 0.229100 0.229100 0.229100 -0.229100 0.000000 -0.229100 0.000000 0.229100 0.000000 0.229100 -0.229100 -0.229100 0.000000 -0.229100 0.229100 0.229100 0.229100 0.229100 -0.229100 -0.229100 -0.229100 0.000000 0.000000 0.000000 0.229100 0.229100 0.229100 0.229100 0.000000 -0.229100 0.000000 -0.229100 -0.229100 0.000000 0.229100 0.229100 0.229100 -0.229100 0.229100 0.229100 0.229100 -0.229100 0.229100 0.000000 0.000000 0.000000 0.000000 -0.229100 0.000000 0.229100 0.229100 0.229100 0.000000 -0.229100 0.000000 0.229100 0.229100 -0.229100 -0.229100 -0.229100 -0.229100 -0.229100 0.000000 0.229100 0.000000 -0.229100 0.229100 0.229100 0.000000 -0.229100 0.000000 0.229100 0.229100 0.000000 0.000000 0.229100 0.229100 0.229100 0.000000 0.229100 -0.229100 0.000000 -0.229100 0.229100 0.229100 -0.229100 -0.229100 0.000000 0.000000 0.000000 0.229100 0.229100 0.229100 0.229100 0.229100 0.000000 -0.229100 -0.229100 0.229100 -0.229100 0.229100 -0.229100 0.000000 0.229100 0.000000 0.000000 0.000000 0.229100 0.229100 -0.229100 0.229100 -0.229100 0.229100 0.229100 -0.229100 0.229100 0.229100 0.229100 0.000000 -0.229100 -0.229100 0.229100 0.229100 0.000000 0.000000 -0.229100 0.000000 -0.229100 0.000000 -0.229100 0.229100 0.000000 0.229100 0.000000 0.229100 -0.229100 -0.229100 0.000000 0.229100 0.229100 0.000000 -0.229100 -0.229100 0.000000 0.000000 0.000000 0.229100 0.000000 0.000000 -0.229100 -0.229100 0.229100 0.000000 -0.229100 0.000000 0.229100 0.229100 0.229100 -0.229100 -0.229100 -0.229100 -0.229100 -0.229100 0.000000 -0.229100 0.229100 0.000000 -0.229100 0.229100 0.000000 -0.229100 0.229100 0.229100 0.229100 -0.229100 -0.229100 0.000000 0.000000 0.000000 0.229100 -0.229100 0.000000 0.229100 0.229100 0.229100 -0.229100 -0.229100 -0.229100 0.000000 -0.229100 -0.229100 0.000000 0.000000 0.000000 0.000000 0.000000 0.229100 -0.229100 -0.229100 0.229100 -0.229100 -0.229100 0.229100 0.229100 -0.229100 0.229100 -0.229100 -0.229100 0.229100 -0.229100 0.000000 -0.229100 -0.229100 0.229100 0.229100 0.000000 -0.229100 -0.229100 0.229100 0.000000 0.229100 -0.229100 -0.229100 -0.229100 -0.229100 0.229100 0.229100 0.229100 0.229100 0.000000 -0.229100 -0.229100 0.229100 0.229100 -0.229100 0.229100 -0.229100 0.229100 0.000000 -0.229100 0.229100 -0.229100 -0.229100 0.000000 0.229100 0.229100 0.229100 -0.229100 0.229100 -0.229100 0.229100 -0.229100 0.229100 -0.229100 0.000000 0.000000 -0.229100 -0.229100 0.000000 0.000000 -0.229100 0.229100 0.229100 0.000000 -0.229100 0.229100 -0.229100 0.000000 0.229100 -0.229100 0.000000 -0.229100 -0.229100 -0.229100 -0.229100 0.000000 0.000000 -0.229100 -0.229100 0.000000 0.229100 0.229100 0.000000 0.229100 0.000000 0.229100 0.000000 -0.229100 0.229100 0.229100 -0.229100 -0.229100 -0.229100 -0.229100 -0.229100 0.000000 0.229100 0.000000 -0.229100 -0.229100 0.000000 0.229100 0.000000 0.000000 -0.229100 0.229100 0.000000 0.229100 -0.229100 -0.229100 0.229100 0.229100 -0.229100 0.229100 0.000000 0.000000 0.229100 0.229100 0.229100 -0.229100 0.229100 -0.229100 -0.229100 0.229100 0.229100 0.000000 0.229100 -0.229100 0.229100 0.229100 -0.229100 -0.229100 0.000000 -0.229100 0.229100 0.229100 -0.229100 -0.229100 0.229100 -0.229100 0.000000 0.000000 0.000000 0.000000 0.229100 -0.229100 -0.229100 0.229100 0.229100 -0.229100 0.229100 0.000000 0.000000 0.000000 0.000000 0.229100 -0.229100 -0.229100 -0.229100 -0.229100 -0.229100 -0.229100 0.000000 0.229100 -0.229100 0.229100 0.000000 -0.229100 0.229100 0.000000 0.000000 -0.229100 0.229100 -0.229100 0.229100 0.229100 0.000000 0.229100 -0.229100 -0.229100 -0.229100 0.229100 -0.229100 -0.229100 0.229100 -0.229100 0.229100 0.229100 -0.229100 0.000000 -0.229100 0.229100 0.229100 0.229100 0.000000 -0.229100 0.000000 0.229100 -0.229100 0.000000 0.229100 -0.229100 -0.229100 -0.229100 0.000000 0.229100 0.229100 -0.229100 -0.229100 -0.229100 -0.229100 0.000000 0.000000 0.000000 0.000000 0.229100 0.000000 -0.229100 0.000000 -0.229100 0.229100 0.229100 0.000000 0.000000 0.229100 -0.229100 0.229100 0.000000 0.000000 -0.229100 0.229100 0.000000 -0.229100 -0.229100 0.229100 0.229100 0.229100 -0.229100 0.229100 -0.229100 -0.229100 -0.229100 0.229100 -0.229100 0.000000 0.229100 -0.229100 0.000000 0.000000 0.229100 0.229100 -0.229100 0.229100 0.229100 0.229100 0.000000 0.229100 -0.229100 -0.229100 0.000000 0.229100 0.229100 0.229100 0.229100 0.229100 -0.229100 -0.229100 0.000000 0.229100 0.000000 -0.229100 -0.229100 0.229100 -0.229100 0.000000 0.000000 0.000000 0.000000 0.229100 -0.229100 -0.229100 -0.229100 0.000000 0.229100 0.229100 0.229100 0.229100 -0.229100 -0.229100 0.000000 -0.229100 -0.229100 0.229100 -0.229100 0.000000 0.229100 0.000000 0.000000 -0.229100 0.229100 0.229100 0.229100 0.229100 0.000000 0.229100 -0.229100 -0.229100 0.000000 0.229100 0.229100 -0.229100 -0.229100 0.000000 0.000000 0.000000 -0.229100 -0.229100 0.229100 0.000000 -0.229100 -0.229100 -0.229100 -0.229100 0.000000 0.000000 0.000000 -0.229100 0.229100 0.229100 0.229100 0.000000 -0.229100 -0.229100 0.000000 0.000000 -0.229100 0.000000 -0.229100 0.000000 -0.229100 0.229100 0.000000 -0.229100 0.000000 0.229100 -0.229100 0.000000 0.229100 0.229100 0.229100 0.000000 -0.229100 -0.229100 -0.229100 0.229100 0.229100 0.229100 0.000000 0.000000 0.229100 0.229100 0.000000 -0.229100 0.000000 0.229100 -0.229100 0.000000 -0.229100 0.229100 -0.229100 -0.229100 -0.229100 0.229100 -0.229100 -0.229100 -0.229100 0.229100 -0.229100 -0.229100 0.229100 -0.229100 0.000000 -0.229100 0.000000 0.229100 0.229100 0.000000 0.000000 0.229100 0.229100 0.000000 0.229100 -0.229100 -0.229100 0.229100 0.000000 -0.229100 -0.229100 0.000000 0.000000 0.229100 0.000000 -0.229100 0.000000 -0.229100 0.000000 -0.229100 -0.229100 0.229100 0.229100 0.229100 0.229100 0.229100 -0.229100 -0.229100 -0.229100 0.229100 0.000000 0.000000 -0.229100 0.000000 -0.229100 -0.229100 0.000000 0.000000 -0.229100 0.229100 -0.229100 0.229100 -0.229100 -0.229100 0.000000 0.229100 0.000000 -0.229100 0.229100 0.229100 0.229100 -0.229100 -0.229100 0.000000 0.229100 0.000000 -0.229100 -0.229100 0.229100 -0.229100 0.000000 0.229100 0.229100 0.229100 0.000000 -0.229100 -0.229100 -0.229100 0.000000 0.000000 0.229100 0.229100 0.229100 0.000000 -0.229100 0.229100 0.000000 -0.229100 -0.229100 0.229100 0.229100 0.000000 0.229100 0.229100 0.000000 0.000000 -0.229100 0.229100 0.000000 -0.229100 -0.229100 -0.229100 0.000000 -0.229100 -0.229100 0.229100 -0.229100 -0.229100 -0.229100 0.000000 -0.229100 -0.229100 0.229100 0.000000 0.000000 0.000000 -0.229100 0.229100 -0.229100 0.000000 0.229100 0.000000 -0.229100 0.000000 0.000000 0.000000 0.229100 0.000000 0.229100 0.000000 0.229100 0.229100 0.229100 0.229100 0.000000 0.229100 -0.229100 0.229100 -0.229100 -0.229100 0.229100 0.229100 -0.229100 0.229100 -0.229100 0.000000 -0.229100 0.229100 0.229100 -0.229100 -0.229100 0.000000 0.000000 0.229100 0.000000 0.229100 0.000000 0.229100 -0.229100 0.229100 0.229100 -0.229100 0.000000 -0.229100 0.000000 0.229100 0.229100 -0.229100 0.229100 0.000000 -0.229100 -0.229100 0.229100 0.000000 0.229100 0.000000 -0.229100 0.229100 -0.229100 0.000000 -0.229100 0.229100 0.229100 0.000000 0.229100 0.000000 0.000000 -0.229100 0.000000 0.229100 0.229100 -0.229100 -0.229100 0.000000 0.229100 0.229100 0.229100 0.000000 -0.229100 0.000000 0.229100 0.000000 -0.229100 0.229100 0.229100 0.229100 -0.229100 0.229100 0.229100 -0.229100 -0.229100 0.000000 0.229100 0.000000 0.000000 0.000000 -0.229100 -0.229100 -0.229100 0.229100 -0.229100 0.229100 0.229100 0.000000 0.000000 0.229100 -0.229100 0.229100 -0.229100 0.229100 0.229100 -0.229100 0.229100 -0.229100 0.000000 0.000000 0.229100 0.229100 0.000000 -0.229100 0.229100 0.000000 0.229100 -0.229100 -0.229100 0.000000 0.000000 0.229100 0.229100 0.000000 0.229100 -0.229100 0.000000 0.000000 -0.229100 0.000000 0.229100 0.000000 0.000000 0.000000 -0.229100 -0.229100 0.229100 0.229100 -0.229100 0.229100 -0.229100 -0.229100 0.229100 0.229100 0.000000 0.000000 -0.229100 0.000000 -0.229100 0.229100 -0.229100 -0.229100 0.229100 0.229100 0.229100 -0.229100 0.229100 0.229100 0.000000 0.000000 -0.229100 0.000000 0.000000 0.000000 0.229100 -0.229100 0.229100 0.000000 0.000000 -0.229100 0.000000 0.000000 -0.229100 0.000000 -0.229100 0.229100 -0.229100 0.000000 0.229100 0.229100 0.000000 0.000000 0.229100 0.229100 0.229100 -0.229100 -0.229100 -0.229100 0.229100 0.000000 0.229100 0.000000 0.000000 0.229100 0.000000 0.229100 0.000000 0.000000 -0.229100 0.229100 0.229100 0.229100 0.229100 -0.229100 0.229100 -0.229100 0.000000 -0.229100 0.229100 0.000000 0.000000 -0.229100 0.229100 0.229100 0.229100 0.000000 0.229100 -0.229100 -0.229100 0.000000 -0.229100 0.000000 -0.229100 -0.229100 0.000000 0.229100 0.229100 -0.229100 0.229100 0.000000 -0.229100 0.000000 -0.229100 0.000000 0.000000 0.000000 -0.229100 0.000000 -0.229100 -0.229100 0.229100 -0.229100 -0.229100 0.000000 -0.229100 0.229100 0.000000 -0.229100 0.229100 0.000000 0.000000 -0.229100 0.000000 -0.229100 0.229100 0.000000 -0.229100 -0.229100 0.229100 0.000000 0.229100 0.000000 -0.229100 0.000000 -0.229100 0.229100 0.229100 0.000000 0.000000 -0.229100 0.000000 -0.229100 0.000000 0.000000 0.229100 0.229100 0.000000 0.229100 0.229100 0.229100 -0.229100 -0.229100 0.000000 0.229100 -0.229100 -0.229100 0.000000 0.229100 0.000000 -0.229100 -0.229100 -0.229100 0.000000 0.000000 -0.229100 0.000000 0.229100 0.229100 -0.229100 0.000000 -0.229100 0.000000 0.000000 0.000000 0.000000 0.229100 0.229100 0.229100 0.229100 0.229100 0.000000 0.229100 -0.229100 0.000000 0.229100 0.229100 -0.229100 0.229100 -0.229100 0.229100 0.229100 0.229100 -0.229100 0.229100 0.229100 0.000000 0.000000 0.229100 -0.229100 -0.229100 0.000000 0.229100 0.229100 -0.229100 -0.229100 0.229100 0.229100 0.000000 -0.229100 0.000000 0.000000 0.000000 -0.229100 -0.229100 0.229100 0.229100 -0.229100 0.229100 0.000000 -0.229100 0.229100 -0.229100 0.000000 -0.229100 -0.229100 -0.229100 0.229100 0.000000 0.000000 0.000000 0.229100 0.000000 0.000000 0.229100 -0.229100 0.229100 -0.229100 0.000000 0.000000 0.229100 -0.229100 -0.229100 -0.229100 0.000000 -0.229100 0.000000 0.229100 0.000000 -0.229100 0.229100 0.000000 0.000000 0.229100 0.000000 0.229100 0.229100 0.000000 0.000000 -0.229100 -0.229100 0.000000 0.229100 0.000000 -0.229100 -0.229100 -0.229100 0.229100 0.229100 0.000000 -0.229100 -0.229100 0.229100 0.000000 0.229100 -0.229100 0.229100 -0.229100 -0.229100 -0.229100 -0.229100 -0.229100 -0.229100 0.000000 -0.229100 0.000000 0.229100 0.229100 0.229100 -0.229100 -0.229100 0.229100 -0.229100 -0.229100 -0.229100 -0.229100 -0.229100 0.000000 -0.229100 0.000000 -0.229100 0.000000 0.229100 0.229100 -0.229100 0.229100 0.000000 -0.229100 -0.229100 0.000000 0.229100 0.229100 0.229100 -0.229100 0.229100 0.000000 0.000000 0.000000 0.000000 0.229100 0.229100 -0.229100 0.229100 0.229100 -0.229100 0.229100 -0.229100 0.229100 -0.229100 0.229100 -0.229100 0.229100 -0.229100 0.000000 0.229100 0.229100 0.229100 0.229100 0.229100 -0.229100 0.000000 0.229100 0.000000 0.229100 0.229100 0.229100 0.000000 -0.229100 -0.229100 0.000000 0.000000 0.229100 0.000000 0.000000 0.000000 0.000000 -0.229100 0.000000 -0.229100 0.229100 0.229100 -0.229100 0.229100 -0.229100 0.229100 0.229100 -0.229100 0.000000 0.229100 -0.229100 0.000000 -0.229100 0.000000 0.000000 0.229100 0.000000 -0.229100 -0.229100 0.229100 0.229100 -0.229100 0.229100 -0.229100 0.000000 -0.229100 -0.229100 0.000000 0.229100 0.000000 0.229100 0.229100 0.000000 0.229100 -0.229100 -0.229100 0.229100 0.000000 -0.229100 0.229100 0.000000 0.229100 -0.229100 0.229100 0.000000 -0.229100 0.000000 0.000000 0.000000 0.229100 0.229100 -0.229100 0.229100 0.229100 0.000000 -0.229100 0.000000 0.000000 0.229100 0.000000 0.229100 0.229100 0.000000 0.000000 -0.229100 0.229100 0.000000 0.000000 0.000000 -0.229100 -0.229100 0.000000 0.229100 0.000000 0.000000 -0.229100 -0.229100 0.000000 0.000000 0.000000 0.229100 -0.229100 -0.229100 -0.229100 0.000000 0.229100 -0.229100 -0.229100 0.229100 0.229100 0.000000 -0.229100 -0.229100 -0.229100 0.229100 -0.229100 -0.229100 0.000000 -0.229100 -0.229100 0.229100 0.229100 0.229100 0.000000 0.229100 -0.229100 0.000000 -0.229100 -0.229100 -0.229100 0.000000 -0.229100 -0.229100 0.000000 0.000000 -0.229100 0.229100 -0.229100 0.229100 0.000000 0.229100 0.229100 0.229100 0.229100 -0.229100 0.229100 0.000000 -0.229100 0.229100 0.000000 0.229100 -0.229100 0.229100 -0.229100 0.229100 0.229100 0.229100 -0.229100 0.229100 0.000000 -0.229100 0.000000 0.229100 0.229100 0.000000 0.229100 0.000000 0.000000 0.229100 -0.229100 -0.229100 0.229100 -0.229100 0.229100 0.229100 0.000000 0.229100 0.229100 -0.229100 -0.229100 -0.229100 0.000000 0.000000 -0.229100 0.229100 -0.229100 0.229100 -0.229100 -0.229100 0.000000 -0.229100 0.000000 -0.229100 -0.229100 0.229100 0.229100 -0.229100 -0.229100 -0.229100 -0.229100 0.000000 0.229100 -0.229100 0.000000 0.229100 -0.229100 0.000000 0.229100 0.229100 0.000000 -0.229100 -0.229100 0.229100 -0.229100 -0.229100 0.000000 -0.229100 0.000000 0.000000 -0.229100 -0.229100 0.000000 0.229100 -0.229100 0.000000 0.229100 0.229100 0.000000 -0.229100 -0.229100 -0.229100 -0.229100 0.229100 0.000000 0.000000 0.229100 -0.229100 -0.229100 0.229100 0.229100 -0.229100 0.229100 0.000000 -0.229100 0.229100 0.000000 -0.229100 -0.229100 0.000000 0.229100 0.000000 0.229100 0.229100 0.000000 0.000000 -0.229100 -0.229100 0.229100 -0.229100 0.000000 -0.229100 -0.229100 0.229100 0.000000 0.000000 0.229100 0.000000 0.000000 0.000000 0.229100 0.229100 -0.229100 0.229100 -0.229100 0.000000 0.229100 -0.229100 0.000000 0.000000 0.000000 0.000000 0.000000 0.229100 0.000000 0.000000 0.000000 -0.229100 0.000000 -0.229100 0.000000 0.000000 0.229100 0.229100 0.000000 0.000000 0.229100 -0.229100 0.229100 0.229100 -0.229100 0.229100 -0.229100 -0.229100 0.229100 0.000000 -0.229100 0.000000 0.229100 0.000000 0.229100 -0.229100 -0.229100 0.000000 -0.229100 -0.229100 0.229100 0.229100 0.229100 0.229100 0.000000 0.229100 0.000000 -0.229100 0.229100 0.000000 0.229100 0.229100 0.229100 -0.229100 0.229100 0.000000 0.229100 0.000000 -0.229100 0.000000 0.000000 -0.229100 -0.229100 0.000000 0.000000 0.229100 0.229100 -0.229100 -0.229100 -0.229100 0.000000 0.000000 -0.229100 0.000000 0.229100 0.229100 -0.229100 0.000000 0.229100 -0.229100 -0.229100 0.229100 -0.229100 0.000000 -0.229100 0.000000 0.229100 0.229100 0.000000 0.229100 0.229100 0.000000 -0.229100 -0.229100 0.000000 0.000000 0.000000 0.229100 -0.229100 0.229100 -0.229100 0.229100 -0.229100 0.229100 0.229100 0.229100 0.229100 -0.229100 0.000000 0.000000 -0.229100 0.229100 -0.229100 0.000000 0.000000 0.229100 0.000000 -0.229100 -0.229100 0.000000 0.000000 0.229100 0.229100 0.000000 0.229100 -0.229100 0.229100 0.000000 0.000000 -0.229100 0.000000 0.000000 0.000000 -0.229100 -0.229100 -0.229100 0.000000 0.000000 0.000000 0.229100 -0.229100 0.229100 0.000000 -0.229100 -0.229100 0.000000 0.000000 0.229100 0.229100 0.229100 0.229100 -0.229100 0.000000 -0.229100 -0.229100 -0.229100 0.229100 -0.229100 -0.229100 0.000000 0.000000 0.229100 0.229100 -0.229100 0.229100 0.000000 -0.229100 -0.229100 -0.229100 0.229100 0.229100 0.000000 0.229100 0.229100 0.000000 -0.229100 -0.229100 0.229100 -0.229100 -0.229100 0.229100 -0.229100 0.000000 0.229100 -0.229100 0.000000 0.000000 0.229100 0.229100 -0.229100 -0.229100 0.229100 0.000000 -0.229100 0.000000 0.229100 0.229100 0.000000 0.229100 -0.229100 0.229100 0.229100 0.000000 0.229100 -0.229100 0.000000 0.000000 -0.229100 -0.229100 0.000000 0.000000 0.229100 -0.229100 -0.229100 0.000000 0.229100 0.229100 0.229100 0.229100 0.229100 0.000000 0.000000 0.229100 0.229100 0.229100 -0.229100 0.229100 0.000000 0.000000 -0.229100 0.000000 0.000000 0.000000 -0.229100 -0.229100 0.229100 0.229100 -0.229100 0.229100 -0.229100 0.229100 0.000000 -0.229100 -0.229100 -0.229100 0.229100 -0.229100 0.229100 0.229100 0.229100 0.229100 0.000000 0.000000 0.229100 0.000000 -0.229100 -0.229100 -0.229100 0.000000 -0.229100 -0.229100 0.229100 -0.229100 0.229100 0.000000 -0.229100 0.229100 0.000000 0.000000 0.000000 0.000000 0.229100 0.000000 0.229100 0.229100 0.229100 -0.229100 0.229100 0.229100 0.000000 0.229100 0.000000 -0.229100 0.000000 0.229100 -0.229100 -0.229100 -0.229100 0.000000 -0.229100 0.000000 0.229100 -0.229100 0.000000 -0.229100 0.000000 0.229100 0.000000 -0.229100 -0.229100 -0.229100 -0.229100 -0.229100 0.229100 0.000000 0.000000 -0.229100 -0.229100 -0.229100 -0.229100 -0.229100 -0.229100 0.000000 0.000000 0.229100 0.229100 0.229100 0.229100 -0.229100 -0.229100 -0.229100 0.229100 0.229100 0.000000 0.000000 0.229100 -0.229100 0.229100 0.000000 -0.229100 0.000000 -0.229100 0.229100 -0.229100 -0.229100 0.229100 -0.229100 -0.229100 0.000000 0.000000 0.000000 0.229100 0.000000 0.229100 0.229100 0.229100 -0.229100 -0.229100 0.229100 -0.229100 -0.229100 -0.229100 0.229100 0.000000 0.229100 0.000000 0.000000 0.000000 0.229100 0.229100 0.000000 0.229100 -0.229100 0.000000 0.229100 -0.229100 0.229100 -0.229100 0.000000 0.229100 0.229100 0.000000 0.000000 -0.229100 -0.229100 -0.229100 0.229100 -0.229100 -0.229100 -0.229100 0.229100 0.229100 -0.229100 -0.229100 -0.229100 0.229100 0.000000 0.000000 0.000000 0.229100 0.229100 0.229100 0.000000 0.229100 0.229100 0.000000 0.000000 -0.229100 -0.229100 0.000000 -0.229100 -0.229100 0.229100 0.229100 0.229100 0.229100 0.000000 -0.229100 -0.229100 0.229100 -0.229100 0.229100 0.229100 0.229100 0.229100 0.229100 -0.229100 0.000000 0.229100 -0.229100 -0.229100 0.229100 -0.229100 -0.229100 0.229100 0.229100 0.229100 -0.229100 0.000000 -0.229100 0.229100 0.229100 -0.229100 -0.229100 -0.229100 -0.229100 0.229100 -0.229100 -0.229100 0.000000 0.000000 -0.229100 0.229100 -0.229100 0.000000 0.000000 -0.229100 0.000000 0.000000 -0.229100 -0.229100 -0.229100 0.229100 -0.229100 0.229100 0.000000 0.000000 0.000000 0.000000 -0.229100 -0.229100 0.229100 0.229100 0.229100 0.229100 0.000000 -0.229100 -0.229100 0.000000 0.229100 -0.229100 0.229100 0.000000 -0.229100 0.229100 0.000000 -0.229100 0.229100 0.000000 0.229100 0.229100 0.000000 0.229100 0.229100 0.229100 0.229100 0.000000 0.229100 0.000000 0.229100 -0.229100 -0.229100 0.229100 -0.229100 0.000000 -0.229100 0.000000 0.000000 0.000000 0.229100 -0.229100 0.000000 0.000000 0.229100 -0.229100 0.000000 -0.229100 0.000000 0.229100 0.229100 0.229100 0.000000 -0.229100 0.000000 0.229100 0.229100 0.229100 -0.229100 -0.229100 0.000000 -0.229100 -0.229100 0.229100 -0.229100 -0.229100 0.000000 -0.229100 -0.229100 -0.229100 0.000000 0.229100 0.229100 0.229100 0.229100 0.229100 -0.229100 0.000000 0.229100 0.000000 -0.229100 -0.229100 0.229100 0.229100 -0.229100 -0.229100 0.229100 -0.229100 0.229100 -0.229100 -0.229100 0.000000 0.000000 -0.229100 -0.229100 0.229100 0.000000 0.000000 0.000000 0.229100 0.229100 0.229100 0.229100 -0.229100 -0.229100 0.229100 0.000000 0.229100 0.000000 -0.229100 0.000000 0.000000 -0.229100 0.229100 0.000000 -0.229100 -0.229100 0.000000 0.229100 -0.229100 0.229100 0.229100 0.229100 -0.229100 -0.229100 -0.229100 0.229100 0.000000 -0.229100 -0.229100 -0.229100 0.000000 0.229100 0.229100 -0.229100 -0.229100 0.000000 -0.229100 0.229100 0.000000 -0.229100 0.229100 0.000000 0.229100 0.229100 0.000000 -0.229100 0.000000 -0.229100 0.000000 0.229100 0.229100 0.229100 0.000000 0.229100 0.229100 0.229100 0.229100 0.229100 0.229100 0.229100 0.000000 0.000000 0.000000 -0.229100 0.000000 -0.229100 0.000000 0.229100 0.229100 0.229100 0.229100 0.229100 0.229100 -0.229100 -0.229100 0.229100 0.000000 0.000000 0.000000 0.229100 -0.229100 0.000000 0.000000 -0.229100 -0.229100 0.000000 -0.229100 0.000000 -0.229100 0.229100 -0.229100 0.000000 0.000000 -0.229100 0.000000 -0.229100 0.229100 0.229100 -0.229100 0.229100 0.000000 0.229100 0.000000 0.000000 -0.229100 0.229100 0.229100 0.000000 0.229100 0.229100 0.000000 0.229100 -0.229100 0.229100 0.229100 0.229100 -0.229100 -0.229100 0.229100 0.229100 0.000000 0.000000 0.000000 -0.229100 0.229100 0.229100 0.229100 0.000000 -0.229100 0.000000 0.229100 0.000000 -0.229100 -0.229100 -0.229100 0.229100 0.000000 0.229100 0.000000 0.229100 0.000000 0.000000 0.000000 0.229100 0.229100 -0.229100 -0.229100 -0.229100 0.229100 0.000000 -0.229100 0.000000 -0.229100 -0.229100 0.000000 0.000000 0.229100 0.000000 0.229100 0.229100 0.229100 0.229100 -0.229100 -0.229100 0.000000 -0.229100 0.229100 0.000000 -0.229100 -0.229100 0.000000 -0.229100 -0.229100 -0.229100 0.229100 0.229100 -0.229100 0.000000 0.229100 0.229100 0.229100 0.229100 -0.229100 0.229100 0.000000 0.000000 -0.229100 -0.229100 0.000000 -0.229100 -0.229100 -0.229100 0.229100 0.229100 0.229100 0.229100 0.000000 0.229100 0.229100 0.000000 -0.229100 -0.229100 0.000000 0.229100 0.000000 -0.229100 -0.229100 0.229100 0.000000 0.229100 -0.229100 0.229100 -0.229100 0.000000 0.229100 0.229100 0.229100 0.229100 -0.229100 -0.229100 -0.229100 0.000000 0.000000 0.229100 0.000000 -0.229100 -0.229100 -0.229100 -0.229100 0.000000 0.000000 0.000000 -0.229100 -0.229100 -0.229100 0.000000 0.000000 0.000000 0.000000 0.000000 0.229100 0.229100 -0.229100 0.000000 0.000000 -0.229100 0.229100 0.229100 0.229100 -0.229100 -0.229100 -0.229100 -0.229100 0.000000 -0.229100 0.229100 -0.229100 0.000000 0.000000 -0.229100 0.000000 0.229100 -0.229100 0.000000 0.000000 -0.229100 -0.229100 0.000000 0.229100 -0.229100 0.000000 0.229100 0.229100 0.229100 0.229100 0.229100 0.000000 0.000000 0.229100 0.000000 0.229100 0.229100 0.000000 -0.229100 0.229100 0.229100 -0.229100 -0.229100 -0.229100 0.229100 0.229100 0.229100 0.000000 -0.229100 0.229100 0.229100 0.229100 0.229100 0.000000 -0.229100 0.229100 0.000000 0.229100 -0.229100 -0.229100 -0.229100 0.229100 0.000000 0.000000 0.229100 -0.229100 0.000000 0.000000 0.229100 0.000000 0.229100 0.000000 0.229100 0.000000 0.229100 0.229100 -0.229100 0.229100 0.229100 0.000000 0.229100 -0.229100 0.229100 -0.229100 -0.229100 -0.229100 0.229100 0.000000 0.229100 0.229100 0.229100 0.229100 -0.229100 0.000000 0.000000 0.229100 -0.229100 0.229100 -0.229100 0.229100 0.000000 -0.229100 0.000000 0.229100 0.000000 0.229100 0.000000 0.229100 0.000000 -0.229100 0.229100 0.000000 0.229100 0.229100 -0.229100 -0.229100 -0.229100 0.229100 -0.229100 0.000000 -0.229100 0.229100 -0.229100 0.000000 0.229100 -0.229100 0.000000 -0.229100 0.000000 -0.229100 0.229100 0.229100 0.229100 0.229100 0.229100 0.000000 -0.229100 -0.229100 0.000000 0.000000 0.229100 0.000000 0.000000 -0.229100 0.229100 -0.229100 0.229100 0.229100 -0.229100 -0.229100 0.000000 0.229100 0.000000 0.000000 0.229100 -0.229100 -0.229100 0.000000 0.229100 0.229100 -0.229100 0.229100 -0.229100 0.229100 -0.229100 0.229100 0.000000 0.000000 -0.229100 0.229100 0.000000 0.229100 0.000000 0.000000 0.000000 -0.229100 0.229100 0.229100 -0.229100 0.229100 0.000000 0.229100 -0.229100 0.000000 0.229100 0.229100 0.000000 -0.229100 -0.229100 0.000000 -0.229100 0.229100 -0.229100 0.229100 -0.229100 -0.229100 0.229100 -0.229100 0.000000 0.000000 0.229100 -0.229100 0.000000 0.000000 0.000000 0.000000 -0.229100 0.229100 -0.229100 0.000000 -0.229100 -0.229100 -0.229100 -0.229100 -0.229100 0.000000 -0.229100 -0.229100 -0.229100 0.229100 0.000000 0.000000 0.000000 0.000000 0.000000 0.229100 -0.229100 0.229100 0.000000 -0.229100 -0.229100 0.000000 0.229100 0.000000 0.000000 -0.229100 0.229100 0.000000 0.229100 0.229100 0.229100 0.000000 0.000000 -0.229100 -0.229100 -0.229100 -0.229100 0.000000 -0.229100 0.000000 0.229100 -0.229100 0.229100 0.000000 0.000000 0.229100 -0.229100 0.000000 -0.229100 0.000000 0.229100 0.000000 0.229100 -0.229100 -0.229100 0.229100 -0.229100 0.229100 0.229100 -0.229100 0.000000 0.000000 0.000000 -0.229100 0.229100 0.000000 -0.229100 0.000000 -0.229100 -0.229100 0.000000 -0.229100 0.000000 -0.229100 0.229100 0.000000 0.000000 -0.229100 0.000000 0.229100 0.000000 0.229100 0.000000 0.000000 0.000000 0.229100 0.229100 0.229100 -0.229100 0.000000 0.229100 0.229100 0.229100 -0.229100 -0.229100 -0.229100 -0.229100 0.229100 0.000000 -0.229100 -0.229100 -0.229100 -0.229100 -0.229100 0.000000 0.000000 -0.229100 0.000000 0.229100 0.000000 0.229100 0.229100 -0.229100 -0.229100 0.000000 -0.229100 -0.229100 0.229100 0.000000 -0.229100 -0.229100 0.229100 0.000000 -0.229100 0.000000 -0.229100 0.229100 -0.229100 0.000000 -0.229100 0.229100 0.229100 0.000000 -0.229100 -0.229100 0.229100 0.229100 0.000000 0.000000 0.229100 0.229100 0.000000 0.000000 -0.229100 0.000000 0.000000 0.000000 0.229100 -0.229100 0.229100 -0.229100 0.000000 -0.229100 -0.229100 0.000000 0.229100 -0.229100 0.000000 0.229100 0.229100 0.000000 -0.229100 0.000000 0.229100 -0.229100 0.000000 -0.229100 -0.229100 0.229100 0.229100 0.229100 0.000000 -0.229100 0.000000 -0.229100 -0.229100 -0.229100 0.000000 -0.229100 -0.229100 -0.229100 -0.229100 -0.229100 0.000000 -0.229100 -0.229100 -0.229100 0.229100 0.229100 -0.229100 -0.229100 -0.229100 -0.229100 0.000000 0.000000 0.229100 -0.229100 -0.229100 0.000000 0.000000 -0.229100 0.229100 -0.229100 0.000000 0.000000 -0.229100 -0.229100 -0.229100 0.000000 0.229100 0.229100 0.000000 0.229100 -0.229100 -0.229100 -0.229100 0.000000 -0.229100 -0.229100 -0.229100 -0.229100 0.000000 0.000000 0.000000 0.229100 0.000000 0.229100 -0.229100 -0.229100 0.000000 -0.229100 -0.229100 -0.229100 -0.229100 0.229100 -0.229100 -0.229100 0.229100 -0.229100 -0.229100 0.000000 -0.229100 0.229100 0.229100 0.000000 0.000000 0.000000 0.229100 0.000000 -0.229100 -0.229100 0.000000 -0.229100 0.229100 0.000000 -0.229100 -0.229100 0.229100 0.229100 0.000000 0.229100 0.229100 0.229100 -0.229100 -0.229100 -0.229100 -0.229100 -0.229100 -0.229100 -0.229100 -0.229100 -0.229100 0.229100 -0.229100 0.000000 0.229100 0.229100 -0.229100 -0.229100 0.229100 0.229100 0.000000 0.229100 0.000000 -0.229100 0.000000 -0.229100 0.000000 0.000000 0.000000 -0.229100 -0.229100 -0.229100 0.229100 -0.229100 -0.229100 -0.229100 -0.229100 0.229100 -0.229100 0.229100 0.229100 0.229100 -0.229100 0.000000 0.229100 0.000000 0.000000 0.000000 -0.229100 0.229100 -0.229100 0.229100 0.000000 -0.229100 0.000000 -0.229100 0.000000 -0.229100 -0.229100 -0.229100 0.000000 0.229100 -0.229100 0.000000 0.000000 -0.229100 0.000000 0.229100 0.000000 0.000000 0.229100 -0.229100 0.229100 0.000000 0.000000 -0.229100 -0.229100 0.000000 0.229100 0.229100 0.229100 0.000000 0.229100 0.000000 -0.229100 0.229100 0.229100 -0.229100 -0.229100 0.000000 -0.229100 0.229100 0.000000 -0.229100 -0.229100 0.000000 -0.229100 0.000000 -0.229100 0.229100 -0.229100 0.229100 0.229100 0.000000 -0.229100 0.000000 0.000000 0.000000 0.000000 -0.229100 -0.229100 -0.229100 0.000000 0.229100 0.000000 -0.229100 0.000000 0.229100 0.229100 0.000000 0.229100 0.229100 0.229100 0.229100 -0.229100 0.000000 0.000000 0.229100 0.000000 0.229100 0.229100 0.229100 0.229100 -0.229100 0.000000 -0.229100 -0.229100 0.000000 0.000000 -0.229100 -0.229100 0.000000 0.000000 -0.229100 -0.229100 0.000000 -0.229100 -0.229100 0.229100 0.229100 0.229100 0.000000 0.229100 0.229100 0.000000 -0.229100 0.229100 0.229100 0.229100 0.000000 0.000000 -0.229100 0.000000 -0.229100 0.229100 0.229100 0.229100 0.229100 0.229100 0.000000 0.000000 -0.229100 -0.229100 0.229100 -0.229100 -0.229100 0.229100 -0.229100 0.000000 0.000000 0.000000 -0.229100 0.229100 -0.229100 -0.229100 -0.229100 -0.229100 0.229100 0.229100 -0.229100 -0.229100 0.000000 0.000000 -0.229100 0.229100 0.000000 -0.229100 -0.229100 0.000000 0.229100 0.000000 0.229100 -0.229100 -0.229100 -0.229100 -0.229100 -0.229100 0.229100 -0.229100 0.229100 0.229100 -0.229100 0.229100 -0.229100 -0.229100 -0.229100 0.229100 0.229100 0.229100 -0.229100 0.229100 0.000000 0.229100 0.229100 0.000000 -0.229100 0.000000 0.000000 0.229100 0.000000 0.000000 -0.229100 0.229100 0.000000 0.229100 -0.229100 -0.229100 -0.229100 0.000000 -0.229100 -0.229100 0.229100 0.000000 -0.229100 0.000000 0.229100 -0.229100 0.000000 0.229100 0.229100 -0.229100 0.229100 0.229100 0.000000 0.000000 0.000000 0.000000 0.229100 0.000000 -0.229100 0.229100 -0.229100 -0.229100 -0.229100 -0.229100 -0.229100 -0.229100 -0.229100 0.000000 -0.229100 0.000000 0.229100 0.000000 -0.229100 0.000000 -0.229100 0.000000 0.000000 0.000000 0.000000 -0.229100 -0.229100 -0.229100 0.229100 0.000000 0.229100 -0.229100 0.000000 -0.229100 0.000000 0.229100 0.000000 0.000000 0.000000 -0.229100 -0.229100 0.000000 0.229100 0.000000 0.000000 -0.229100 -0.229100 0.000000 -0.229100 0.229100 0.000000 -0.229100 0.000000 -0.229100 -0.229100 -0.229100 -0.229100 0.000000 0.229100 -0.229100 0.229100 0.229100 0.000000 0.000000 -0.229100 -0.229100 0.229100 0.229100 -0.229100 0.000000 0.229100 -0.229100 0.000000 -0.229100 0.229100 0.229100 0.229100 0.000000 0.229100 0.000000 -0.229100 0.000000 0.000000 0.000000 -0.229100 0.000000 0.229100 -0.229100 0.229100 0.229100 0.000000 0.229100 -0.229100 0.229100 0.000000 0.000000 0.000000 0.229100 -0.229100 0.000000 0.000000 0.229100 -0.229100 0.229100 0.229100 -0.229100 0.229100 -0.229100 -0.229100 0.229100 -0.229100 -0.229100 -0.229100 0.229100 -0.229100 0.229100 0.229100 0.000000 -0.229100 0.000000 0.229100 -0.229100 0.229100 0.000000 0.000000 -0.229100 -0.229100 0.229100 0.229100 0.229100 -0.229100 0.000000 -0.229100 -0.229100 0.229100 -0.229100 -0.229100 0.000000 0.229100 -0.229100 -0.229100 -0.229100 -0.229100 0.229100 0.229100 0.000000 0.229100 -0.229100 0.229100 0.229100 -0.229100 -0.229100 0.000000 0.229100 0.229100 0.000000 0.229100 0.229100 0.000000 -0.229100 0.229100 0.000000 -0.229100 -0.229100 0.229100 0.000000 0.229100 0.229100 0.000000 0.000000 -0.229100 0.000000 -0.229100 0.229100 0.000000 0.000000 -0.229100 0.229100 0.000000 0.000000 -0.229100 -0.229100 0.000000 0.229100 -0.229100 0.000000 0.000000 0.229100 0.229100 0.000000 0.229100 -0.229100 0.229100 0.229100 0.000000 0.229100 0.229100 -0.229100 -0.229100 0.229100 0.000000 -0.229100 0.000000 -0.229100 -0.229100 -0.229100 0.000000 -0.229100 -0.229100 0.229100 0.000000 0.229100 -0.229100 -0.229100 0.229100 0.229100 0.000000 0.229100 -0.229100 0.229100 0.229100 -0.229100 -0.229100 0.229100 0.000000 0.000000 0.229100 0.000000 0.229100 0.229100 0.000000 -0.229100 0.229100 0.229100 0.229100 0.229100 0.000000 0.000000 -0.229100 -0.229100 0.000000 0.000000 0.229100 0.229100 0.000000 0.000000 -0.229100 -0.229100 0.229100 -0.229100 -0.229100 0.229100 -0.229100 -0.229100 -0.229100 0.000000 0.229100 0.229100 0.000000 -0.229100 0.229100 0.229100 0.229100 -0.229100 -0.229100 -0.229100 0.229100 0.229100 -0.229100 -0.229100 0.000000 -0.229100 -0.229100 -0.229100 0.229100 -0.229100 0.000000 0.000000 -0.229100 -0.229100 0.229100 0.229100 -0.229100 -0.229100 0.000000 -0.229100 0.229100 -0.229100 0.229100 -0.229100 0.229100 0.000000 0.000000 -0.229100 0.229100 0.229100 0.000000 -0.229100 0.000000 0.000000 0.229100 0.000000 0.229100 -0.229100 0.000000 0.229100 0.000000 0.000000 -0.229100 0.000000 -0.229100 0.000000 -0.229100 0.229100 0.229100 0.229100 0.229100 -0.229100 0.229100 0.229100 -0.229100 0.000000 0.229100 0.229100 0.229100 -0.229100 -0.229100 -0.229100 0.229100 0.000000 0.229100 0.229100 0.000000 0.229100 -0.229100 -0.229100 0.000000 -0.229100 -0.229100 -0.229100 0.229100 -0.229100 -0.229100 0.229100 0.000000 -0.229100 0.229100 0.229100 0.000000 0.000000 0.229100 0.229100 0.229100 -0.229100 -0.229100 -0.229100 -0.229100 -0.229100 0.229100 0.000000 0.229100 0.229100 0.229100 -0.229100 -0.229100 0.229100 -0.229100 0.229100 0.229100 0.000000 0.229100 -0.229100 0.229100 0.229100 -0.229100 0.229100 -0.229100 -0.229100 -0.229100 0.229100 -0.229100 -0.229100 0.000000 -0.229100 0.229100 -0.229100 0.229100 -0.229100 -0.229100 -0.229100 0.000000 0.229100 0.000000 0.000000 0.229100 0.229100 0.000000 0.229100 -0.229100 0.000000 0.000000 0.229100 0.000000 0.229100 0.000000 0.229100 0.229100 0.229100 0.229100 -0.229100 -0.229100 0.229100 0.229100 -0.229100 0.229100 0.229100 0.229100 -0.229100 -0.229100 0.229100 0.229100 0.000000 0.000000 -0.229100 0.229100 0.229100 -0.229100 0.000000 -0.229100 0.000000 0.000000 -0.229100 -0.229100 0.000000 0.000000 -0.229100 -0.229100 -0.229100 0.229100 0.000000 0.000000 -0.229100 -0.229100 0.000000 -0.229100 0.000000 0.229100 0.229100 0.229100 0.229100 0.000000 -0.229100 0.229100 0.229100 0.229100 -0.229100 0.000000 0.229100 0.229100 -0.229100 0.000000 0.229100 0.229100 0.229100 -0.229100 -0.229100 0.000000 -0.229100 -0.229100 -0.229100 -0.229100 0.000000 0.229100 0.000000 0.000000 -0.229100 0.229100 0.229100 -0.229100 -0.229100 0.229100 -0.229100 -0.229100 -0.229100 0.229100 0.000000 0.229100 0.000000 0.229100 -0.229100 0.229100 0.229100 0.229100 0.229100 -0.229100 0.229100 -0.229100 0.000000 0.229100 -0.229100 -0.229100 0.229100 0.229100 0.000000 0.000000 -0.229100 -0.229100 0.229100 0.000000 -0.229100 0.000000 0.229100 0.000000 0.229100 0.229100 0.229100 0.000000 0.229100 -0.229100 -0.229100 0.000000 0.229100 0.229100 -0.229100 -0.229100 -0.229100 0.229100 0.000000 -0.229100 -0.229100 -0.229100 -0.229100 -0.229100 0.229100 0.000000 -0.229100 0.229100 0.000000 -0.229100 0.000000 0.000000 0.229100 0.000000 0.229100 -0.229100 0.000000 0.000000 0.000000 -0.229100 0.000000 -0.229100 0.000000 0.229100 -0.229100 -0.229100 0.000000 0.000000 0.229100 0.229100 -0.229100 -0.229100 0.229100 0.000000 0.229100 0.229100 0.000000 0.000000 -0.229100 0.000000 -0.229100 -0.229100 -0.229100 0.000000 -0.229100 -0.229100 0.229100 0.229100 0.229100 0.229100 0.229100 -0.229100 0.000000 0.229100 0.229100 0.000000 -0.229100 0.000000 0.000000 0.229100 -0.229100 -0.229100 -0.229100 0.229100 0.000000 0.229100 0.000000 -0.229100 -0.229100 -0.229100 0.000000 -0.229100 0.229100 0.229100 -0.229100 -0.229100 0.000000 0.000000 -0.229100 0.229100 0.229100 -0.229100 -0.229100 0.000000 -0.229100 0.000000 0.229100 0.000000 0.229100 0.000000 0.229100 0.000000 0.229100 0.229100 0.229100 -0.229100 0.000000 0.229100 0.229100 -0.229100 -0.229100 0.000000 0.000000 -0.229100 0.000000 0.000000 0.229100 0.229100 0.229100 -0.229100 -0.229100 0.000000 0.229100 -0.229100 0.229100 -0.229100 -0.229100 -0.229100 0.229100 0.229100 -0.229100 -0.229100 0.229100 0.000000 -0.229100 0.000000 -0.229100 -0.229100 0.229100 0.000000 0.229100 0.000000 0.000000 -0.229100 0.229100 0.229100 0.229100 0.229100 0.229100 0.000000 0.229100 0.000000 0.229100 0.229100 0.229100 0.000000 0.000000 0.229100 0.000000 -0.229100 0.229100 0.229100 0.000000 0.229100 -0.229100 -0.229100 0.000000 0.229100 -0.229100 0.229100 -0.229100 0.000000 0.229100 -0.229100 0.000000 0.229100 0.229100 0.000000 0.000000 0.229100 0.000000 -0.229100 0.229100 0.229100 0.000000 -0.229100 0.000000 0.229100 0.000000 -0.229100 0.229100 0.000000 -0.229100 -0.229100 0.229100 0.229100 0.229100 0.000000 0.229100 0.000000 0.229100 -0.229100 0.229100 0.229100 -0.229100 0.229100 0.000000 0.229100 0.229100 0.229100 -0.229100 0.000000 -0.229100 0.000000 0.229100 0.000000 0.000000 -0.229100 0.000000 0.000000 0.000000 -0.229100 -0.229100 0.229100 0.229100 0.000000 -0.229100 0.000000 -0.229100 -0.229100 -0.229100 0.229100 0.229100 0.229100 0.229100 -0.229100 0.229100 0.000000 0.229100 -0.229100 -0.229100 0.000000 0.229100 0.229100 0.229100 0.000000 -0.229100 0.000000 0.229100 0.229100 -0.229100 0.000000 0.229100 0.229100 0.229100 0.229100 -0.229100 0.229100 0.229100 0.000000 0.000000 -0.229100 0.229100 0.229100 0.000000 -0.229100 0.000000 0.000000 0.229100 0.229100 -0.229100 -0.229100 -0.229100 -0.229100 0.000000 0.000000 0.229100 0.229100 0.229100 0.000000 0.229100 -0.229100 0.000000 0.229100 0.229100 0.000000 0.229100 -0.229100 0.229100 -0.229100 -0.229100 -0.229100 0.229100 0.229100 0.229100 0.000000 -0.229100 -0.229100 -0.229100 -0.229100 -0.229100 0.229100 0.000000 -0.229100 -0.229100 -0.229100 -0.229100 0.000000 -0.229100 0.229100 0.000000 0.229100 0.229100 -0.229100 0.000000 0.229100 0.229100 0.000000 -0.229100 0.229100 -0.229100 0.229100 -0.229100 0.229100 0.229100 0.229100 0.000000 0.000000 0.000000 0.229100 0.000000 0.000000 0.000000 0.229100 0.000000 0.000000 -0.229100 0.229100 0.229100 0.000000 -0.229100 0.229100 -0.229100 -0.229100 -0.229100 0.000000 0.000000 0.000000 -0.229100 -0.229100 0.229100 0.229100 -0.229100 0.229100 0.229100 -0.229100 0.000000 0.229100 0.229100 -0.229100 -0.229100 -0.229100 0.229100 0.229100 -0.229100 0.229100 -0.229100 0.000000 0.229100 -0.229100 -0.229100 0.229100 0.000000 0.229100 0.229100 0.000000 -0.229100 0.229100 0.000000 -0.229100 -0.229100 0.229100 0.229100 0.229100 -0.229100 0.000000 -0.229100 0.229100 0.229100 0.229100 0.000000 0.000000 -0.229100 0.229100 0.229100 -0.229100 0.229100 0.000000 0.000000 0.229100 0.229100 0.000000 0.229100 -0.229100 -0.229100 0.000000 0.000000 0.229100 -0.229100 0.229100 0.229100 0.229100 -0.229100 0.000000 -0.229100 0.000000 0.000000 0.000000 -0.229100 0.000000 0.000000 0.229100 0.229100 0.000000 0.229100 0.000000 -0.229100 0.229100 0.229100 -0.229100 -0.229100 -0.229100 0.000000 0.229100 -0.229100 0.229100 0.229100 -0.229100 -0.229100 0.000000 0.229100 0.000000 -0.229100 -0.229100 0.229100 0.000000 0.000000 0.229100 0.000000 0.229100 0.229100 -0.229100 0.229100 0.000000 -0.229100 0.000000 0.229100 -0.229100 0.229100 0.229100 0.229100 -0.229100 0.229100 -0.229100 0.229100 0.000000 0.229100 0.229100 -0.229100 0.229100 0.000000 -0.229100 -0.229100 -0.229100 -0.229100 0.000000 -0.229100 -0.229100 -0.229100 0.000000 -0.229100 0.000000 0.229100 0.229100 0.000000 -0.229100 0.229100 0.229100 -0.229100 0.000000 -0.229100 0.229100 0.229100 0.000000 -0.229100 -0.229100 0.229100 0.229100 -0.229100 0.000000 0.229100 0.229100 -0.229100 -0.229100 -0.229100 -0.229100 0.000000 -0.229100 -0.229100 0.229100 0.229100 -0.229100 -0.229100 -0.229100 -0.229100 0.000000 0.229100 0.229100 -0.229100 0.000000 -0.229100 0.229100 -0.229100 0.229100 -0.229100 0.229100 0.229100 -0.229100 0.229100 -0.229100 -0.229100 0.229100 -0.229100 0.000000 0.229100 -0.229100 0.229100 0.000000 0.000000 0.000000 0.000000 0.229100 0.000000 0.000000 0.000000 0.229100 0.000000 -0.229100 0.229100 0.000000 0.229100 -0.229100 0.229100 -0.229100 -0.229100 0.229100 -0.229100 -0.229100 0.000000 -0.229100 -0.229100 -0.229100 0.000000 -0.229100 -0.229100 -0.229100 0.229100 0.229100 -0.229100 -0.229100 0.000000 0.000000 0.000000 0.000000 -0.229100 0.229100 0.000000 0.000000 -0.229100 -0.229100 0.000000 -0.229100 0.000000 -0.229100 -0.229100 -0.229100 -0.229100 0.229100 0.229100 0.000000 0.000000 0.000000 0.000000 0.000000 0.000000 -0.229100 -0.229100 0.000000 -0.229100 0.000000 -0.229100 0.000000 0.229100 0.000000 0.000000 -0.229100 -0.229100 0.000000 0.000000 -0.229100 -0.229100 0.229100 -0.229100 0.000000 0.229100 0.000000 -0.229100 0.229100 0.229100 0.229100 0.000000 0.000000 0.229100 0.229100 0.229100 0.000000 0.000000 -0.229100 0.229100 0.229100 0.000000 -0.229100 -0.229100 0.000000 0.000000 0.229100 0.229100 0.229100 0.000000 0.229100 0.000000 0.229100 -0.229100 -0.229100 0.229100 0.000000 -0.229100 -0.229100 -0.229100 0.229100 0.000000 -0.229100 -0.229100 0.229100 0.000000 -0.229100 0.000000 0.229100 -0.229100 0.000000 0.000000 -0.229100 0.229100 0.000000 -0.229100 -0.229100 0.229100 0.229100 0.229100 -0.229100 0.229100 0.229100 0.229100 0.229100 0.000000 0.000000 0.229100 0.229100 0.229100 0.229100 0.229100 0.000000 0.000000 0.229100 -0.229100 -0.229100 -0.229100 0.229100 -0.229100 -0.229100 0.000000 0.000000 -0.229100 -0.229100 -0.229100 0.229100 0.000000 0.000000 -0.229100 -0.229100 0.229100 0.229100 -0.229100 0.000000 -0.229100 0.000000 -0.229100 0.000000 0.000000 0.229100 0.000000 0.229100 0.229100 0.000000 0.229100 0.229100 0.000000 0.229100 0.229100 0.229100 0.000000 -0.229100 0.000000 0.229100 0.229100 0.229100 0.000000 0.229100 0.000000 0.000000 0.229100 0.229100 0.229100 0.229100 0.229100 0.229100 0.229100 0.000000 0.000000 -0.229100 0.229100 0.000000 -0.229100 0.000000 0.000000 0.000000 0.000000 0.000000 0.229100 0.000000 0.229100 -0.229100 -0.229100 -0.229100 -0.229100 0.000000 0.229100 0.229100 0.229100 0.229100 0.229100 -0.229100 0.229100 -0.229100 0.000000 -0.229100 0.000000 0.229100 0.229100 -0.229100 0.229100 0.000000 0.229100 0.229100 0.229100 0.229100 0.000000 0.229100 0.000000 -0.229100 0.229100 0.000000 0.229100 0.229100 -0.229100 0.229100 0.229100 0.229100 0.229100 -0.229100 0.000000 0.000000 0.000000 0.229100 -0.229100 -0.229100 0.229100 0.000000 0.000000 -0.229100 0.229100 0.000000 -0.229100 0.000000 0.000000 0.000000 -0.229100 -0.229100 0.000000 -0.229100 -0.229100 0.229100 -0.229100 0.000000 0.000000 -0.229100 -0.229100 0.229100 0.000000 0.229100 -0.229100 -0.229100 0.229100 0.000000 -0.229100 0.000000 0.229100 0.229100 -0.229100 0.000000 -0.229100 -0.229100 0.000000 -0.229100 -0.229100 -0.229100 0.000000 -0.229100 0.000000 0.229100 0.000000 -0.229100 -0.229100 0.000000 0.000000 -0.229100 -0.229100 0.229100 0.229100 -0.229100 -0.229100 0.229100 0.000000 0.000000 0.000000 0.229100 0.229100 -0.229100 -0.229100 -0.229100 0.000000 -0.229100 0.229100 0.229100 0.229100 0.000000 0.000000 0.229100 0.229100 0.000000 -0.229100 -0.229100 0.000000 -0.229100 0.000000 0.229100 0.229100 -0.229100 0.229100 0.229100 0.000000 0.000000 0.000000 0.000000 0.229100 0.229100 0.000000 0.229100 0.229100 0.229100 0.229100 0.229100 0.229100 -0.229100 0.229100 0.229100 -0.229100 0.229100 -0.229100 -0.229100 0.000000 0.229100 0.000000 0.229100 0.000000 0.229100 0.229100 -0.229100 0.229100 0.229100 0.000000 0.000000 -0.229100 -0.229100 -0.229100 0.229100 -0.229100 -0.229100 -0.229100 0.229100 0.229100 -0.229100 0.229100 0.000000 0.229100 0.229100 0.229100 0.229100 -0.229100 -0.229100 -0.229100 0.000000 0.229100 0.229100 0.229100 0.000000 0.229100 0.229100 0.229100 0.229100 0.000000 0.000000 0.229100 0.229100 -0.229100 0.229100 -0.229100 0.000000 -0.229100 -0.229100 -0.229100 -0.229100 -0.229100 -0.229100 0.229100 0.229100 0.000000 -0.229100 0.000000 0.000000 0.000000 0.000000 0.229100 -0.229100 0.000000 0.229100 0.229100 0.000000 0.229100 0.229100 0.229100 0.229100 0.000000 0.229100 0.000000 0.000000 0.000000 -0.229100 0.229100 0.000000 0.000000 0.229100 -0.229100 0.000000 0.229100 0.229100 0.229100 0.000000 0.000000 0.229100 -0.229100 -0.229100 -0.229100 0.000000 0.000000 -0.229100 -0.229100 -0.229100 0.229100 0.229100 0.229100 0.229100 0.229100 -0.229100 0.229100 0.229100 0.000000 0.000000 0.000000 0.000000 0.229100 0.000000 0.229100 0.000000 0.000000 0.000000 -0.229100 0.000000 0.229100 0.000000 -0.229100 0.000000 -0.229100 -0.229100 -0.229100 0.000000 -0.229100 0.000000 0.000000 -0.229100 0.000000 -0.229100 -0.229100 0.000000 -0.229100 0.229100 -0.229100 0.229100 -0.229100 0.229100 0.229100 -0.229100 -0.229100 0.229100 -0.229100 0.229100 0.229100 0.229100 -0.229100 0.000000 0.229100 -0.229100 0.229100 0.229100 0.000000 -0.229100 0.229100 0.229100 0.000000 0.229100 0.000000 0.229100 0.229100 -0.229100 0.229100 0.229100 0.229100 0.000000 0.000000 -0.229100 0.229100 -0.229100 0.000000 0.000000 -0.229100 -0.229100 -0.229100 0.229100 0.229100 0.229100 0.000000 0.229100 -0.229100 0.229100 0.229100 0.229100 0.000000 -0.229100 -0.229100 -0.229100 0.229100 0.229100 0.229100 0.000000 -0.229100 -0.229100 -0.229100 0.229100 0.229100 0.229100 -0.229100 -0.229100 -0.229100 -0.229100 -0.229100 -0.229100 0.229100 0.000000 0.229100 0.000000 0.000000 0.229100 -0.229100 -0.229100 -0.229100 0.229100 -0.229100 -0.229100 -0.229100 0.000000 0.229100 -0.229100 -0.229100 0.000000 0.000000 -0.229100 0.229100 -0.229100 -0.229100 0.000000 0.229100 0.000000 -0.229100 -0.229100 -0.229100 -0.229100 0.229100 0.000000 -0.229100 0.229100 0.229100 0.229100 0.000000 0.000000 0.229100 -0.229100 -0.229100 0.229100 0.229100 0.229100 0.229100 -0.229100 0.000000 0.000000 0.229100 0.229100 0.229100 0.229100 0.229100 0.229100 0.000000 0.000000 -0.229100 0.000000 0.000000 0.000000 0.000000 0.000000 -0.229100 0.229100 0.229100 0.000000 0.000000 0.229100 0.000000 0.229100 0.229100 -0.229100 -0.229100 -0.229100 0.229100 -0.229100 -0.229100 -0.229100 0.000000 -0.229100 -0.229100 0.000000 0.000000 -0.229100 -0.229100 -0.229100 -0.229100 0.000000 0.229100 -0.229100 0.000000 -0.229100 0.000000 0.000000 0.229100 0.229100 0.229100 0.229100 0.229100 0.229100 0.229100 0.229100 0.229100 0.000000 0.229100 0.000000 -0.229100 0.229100 0.229100 -0.229100 -0.229100 -0.229100 -0.229100 -0.229100 -0.229100 0.229100 0.000000 -0.229100 0.229100 0.229100 0.229100 -0.229100 -0.229100 -0.229100 0.229100 0.229100 -0.229100 0.229100 0.229100 0.229100 0.229100 0.229100 0.229100 -0.229100 -0.229100 0.000000 0.229100 -0.229100 -0.229100 0.000000 0.000000 -0.229100 -0.229100 0.000000 0.229100 0.229100 0.000000 0.000000 0.000000 0.000000 -0.229100 -0.229100 0.229100 0.229100 0.229100 0.229100 0.229100 -0.229100 -0.229100 0.000000 0.229100 0.000000 -0.229100 0.000000 0.229100 0.000000 0.229100 0.000000 -0.229100 0.000000 0.229100 0.229100 0.000000 -0.229100 0.229100 0.229100 0.229100 0.229100 -0.229100 0.229100 0.229100 -0.229100 -0.229100 0.000000 0.229100 0.229100 -0.229100 -0.229100 -0.229100 0.229100 -0.229100 -0.229100 0.229100 -0.229100 0.000000 -0.229100 0.229100 -0.229100 -0.229100 0.000000 0.229100 0.000000 0.000000 0.229100 0.000000 -0.229100 -0.229100 0.000000 0.229100 0.000000 0.229100 -0.229100 0.000000 0.229100 -0.229100 -0.229100 0.229100 0.000000 0.229100 0.229100 0.000000 0.000000 0.229100 0.229100 0.000000 0.229100 -0.229100 -0.229100 -0.229100 0.000000 0.229100 -0.229100 -0.229100 0.000000 -0.229100 0.229100 -0.229100 0.000000 0.000000 0.000000 0.000000 0.229100 -0.229100 0.000000 0.000000 0.229100 -0.229100 -0.229100 -0.229100 -0.229100 -0.229100 -0.229100 0.229100 0.229100 0.000000 0.000000 -0.229100 0.000000 0.229100 0.000000 0.000000 0.000000 0.229100 0.000000 -0.229100 -0.229100 0.229100 0.000000 0.000000 -0.229100 -0.229100 -0.229100 -0.229100 -0.229100 0.000000 0.229100 -0.229100 0.000000 -0.229100 0.229100 0.229100 0.229100 0.000000 -0.229100 -0.229100 0.229100 -0.229100 -0.229100 -0.229100 -0.229100 0.000000 -0.229100 0.229100 0.229100 0.229100 0.229100 0.000000 0.229100 -0.229100 -0.229100 0.000000 -0.229100 -0.229100 0.229100 0.000000 0.229100 0.229100 0.229100 -0.229100 0.229100 -0.229100 0.229100 -0.229100 0.000000 0.000000 0.000000 0.229100 0.229100 -0.229100 -0.229100 -0.229100 0.229100 0.000000 0.229100 0.000000 -0.229100 0.229100 0.000000 0.229100 -0.229100 -0.229100 0.000000 -0.229100 -0.229100 0.000000 0.000000 -0.229100 0.000000 0.229100 0.000000 0.000000 -0.229100 -0.229100 0.229100 0.229100 0.229100 -0.229100 0.000000 0.229100 0.000000 0.229100 -0.229100 -0.229100 -0.229100 -0.229100 0.229100 -0.229100 -0.229100 -0.229100 -0.229100 0.229100 -0.229100 -0.229100 -0.229100 0.000000 -0.229100 -0.229100 0.229100 0.229100 -0.229100 -0.229100 -0.229100 -0.229100 -0.229100 0.000000 0.000000 -0.229100 -0.229100 0.229100 0.000000 0.000000 0.000000 0.000000 0.229100 0.229100 0.229100 -0.229100 0.229100 0.229100 -0.229100 -0.229100 -0.229100 0.000000 0.229100 -0.229100 -0.229100 0.229100 0.229100 0.000000 0.229100 0.229100 0.000000 0.000000 -0.229100 0.229100 -0.229100 0.000000 0.000000 0.229100 -0.229100 -0.229100 0.229100 -0.229100 0.000000 -0.229100 0.229100 -0.229100 -0.229100 0.000000 0.000000 0.229100 0.000000 0.229100 -0.229100 -0.229100 -0.229100 0.229100 0.229100 -0.229100 -0.229100 0.000000 0.229100 0.000000 0.229100 -0.229100 -0.229100 -0.229100 0.000000 0.000000 -0.229100 -0.229100 0.000000 0.000000 -0.229100 0.000000 -0.229100 0.000000 -0.229100 0.229100 -0.229100 -0.229100 0.000000 -0.229100 -0.229100 0.229100 0.000000 -0.229100 -0.229100 0.000000 0.000000 0.229100 -0.229100 0.229100 -0.229100 0.229100 -0.229100 0.229100 -0.229100 0.000000 0.000000 0.229100 0.229100 0.000000 0.229100 0.000000 -0.229100 0.000000 -0.229100 -0.229100 -0.229100 0.229100 -0.229100 -0.229100 0.229100 -0.229100 0.000000 -0.229100 0.000000 0.229100 0.000000 -0.229100 0.000000 -0.229100 0.229100 -0.229100 -0.229100 0.229100 0.000000 0.229100 0.000000 0.000000 -0.229100 -0.229100 -0.229100 0.229100 0.000000 0.229100 -0.229100 -0.229100 -0.229100 0.000000 -0.229100 0.229100 0.229100 -0.229100 0.229100 0.000000 0.000000 0.229100 0.000000 0.229100 0.229100 -0.229100 0.000000 0.000000 0.229100 -0.229100 -0.229100 -0.229100 -0.229100 -0.229100 0.229100 0.000000 0.000000 0.000000 -0.229100 0.229100 0.000000 0.000000 -0.229100 -0.229100 -0.229100 0.229100 0.229100 0.000000 0.000000 0.229100 0.229100 0.000000 -0.229100 0.000000 -0.229100 -0.229100 0.229100 0.229100 0.229100 0.000000 0.000000 -0.229100 -0.229100 -0.229100 -0.229100 -0.229100 0.000000 0.229100 0.229100 0.229100 0.229100 0.000000 -0.229100 -0.229100 0.229100 0.000000 -0.229100 0.000000 -0.229100 0.229100 0.229100 0.000000 0.229100 0.229100 -0.229100 0.229100 -0.229100 0.229100 -0.229100 0.000000 0.229100 -0.229100 0.229100 0.000000 -0.229100 -0.229100 0.229100 0.229100 0.229100 0.000000 0.229100 0.000000 0.229100 -0.229100 -0.229100 0.000000 0.229100 0.229100 0.000000 -0.229100 -0.229100 0.229100 0.000000 -0.229100 -0.229100 -0.229100 -0.229100 0.000000 0.000000 0.000000 0.229100 0.229100 -0.229100 0.229100 0.229100 -0.229100 0.229100 0.000000 0.000000 0.229100 -0.229100 0.000000 -0.229100 0.229100 -0.229100 0.000000 -0.229100 -0.229100 0.000000 -0.229100 0.229100 0.229100 0.000000 -0.229100 -0.229100 -0.229100 -0.229100 0.229100 -0.229100 -0.229100 -0.229100 0.000000 -0.229100 -0.229100 0.229100 0.000000 0.000000 0.000000 -0.229100 0.000000 0.229100 -0.229100 0.229100 0.000000 0.229100 0.000000 0.229100 0.000000 -0.229100 0.000000 0.000000 -0.229100 0.229100 0.229100 0.229100 0.229100 0.229100 0.229100 -0.229100 0.229100 0.000000 0.229100 0.229100 0.229100 0.000000 -0.229100 0.229100 0.229100 0.229100 0.229100 0.229100 0.000000 -0.229100 0.000000 0.000000 0.000000 0.000000 0.229100 0.000000 0.000000 0.000000 0.229100 -0.229100 -0.229100 -0.229100 -0.229100 0.229100 0.229100 0.000000 0.229100 0.229100 -0.229100 0.229100 0.229100 -0.229100 -0.229100 0.229100 -0.229100 0.000000 -0.229100 -0.229100 0.229100 -0.229100 0.000000 0.229100 -0.229100 -0.229100 0.229100 0.000000 0.229100 0.000000 -0.229100 -0.229100 0.229100 0.000000 -0.229100 0.000000 0.000000 -0.229100 -0.229100 0.000000 0.000000 0.229100 0.229100 -0.229100 0.000000 0.000000 0.229100 -0.229100 0.229100 -0.229100 0.000000 0.229100 0.229100 0.229100 0.000000 0.000000 0.000000 0.000000 0.229100 -0.229100 0.229100 0.000000 0.229100 -0.229100 -0.229100 0.229100 0.229100 -0.229100 -0.229100 0.000000 0.229100 0.229100 -0.229100 -0.229100 0.229100 -0.229100 0.000000 0.229100 0.229100 0.229100 -0.229100 -0.229100 -0.229100 0.229100 0.229100 0.229100 -0.229100 -0.229100 -0.229100 0.229100 0.229100 -0.229100 0.229100 -0.229100 0.000000 -0.229100 0.000000 0.000000 0.229100 0.000000 0.229100 0.229100 -0.229100 0.229100 0.229100 0.229100 0.229100 0.229100 0.000000 0.229100 0.229100 0.000000 0.000000 0.000000 -0.229100 -0.229100 0.000000 -0.229100 0.229100 0.229100 0.000000 0.000000 0.229100 -0.229100 -0.229100 0.229100 0.000000 0.229100 0.229100 0.000000 0.229100 -0.229100 0.229100 0.229100 -0.229100 0.229100 -0.229100 -0.229100 0.229100 0.229100 0.229100 -0.229100 -0.229100 -0.229100 0.229100 -0.229100 -0.229100 -0.229100 -0.229100 -0.229100 0.000000 -0.229100 0.229100 0.229100 -0.229100 0.000000 0.229100 0.229100 0.229100 0.229100 0.000000 0.229100 0.000000 0.229100 -0.229100 0.000000 -0.229100 0.229100 -0.229100 0.229100 0.000000 0.000000 0.229100 0.229100 0.000000 0.229100 0.229100 0.229100 0.229100 0.229100 -0.229100 0.229100 0.229100 0.229100 0.000000 0.229100 -0.229100 0.229100 0.000000 -0.229100 0.000000 0.229100 -0.229100 0.229100 0.000000 -0.229100 0.229100 0.000000 -0.229100 0.229100 -0.229100 0.000000 -0.229100 -0.229100 -0.229100 0.229100 0.229100 -0.229100 -0.229100 0.229100 0.229100 0.229100 0.000000 0.000000 0.229100 0.000000 -0.229100 0.000000 0.229100 0.229100 0.000000 0.000000 0.229100 0.229100 0.229100 -0.229100 -0.229100 0.229100 0.000000 -0.229100 -0.229100 0.000000 0.229100 0.000000 0.229100 0.000000 -0.229100 -0.229100 0.000000 -0.229100 -0.229100 0.229100 -0.229100 0.229100 -0.229100 0.229100 0.000000 -0.229100 0.229100 0.229100 -0.229100 0.000000 0.229100 0.229100 0.000000 0.000000 0.229100 -0.229100 0.229100 -0.229100 0.000000 -0.229100 0.229100 -0.229100 0.000000 0.229100 0.229100 0.229100 -0.229100 0.229100 0.000000 -0.229100 0.000000 0.000000 0.000000 -0.229100 -0.229100 0.229100 0.229100 0.229100 -0.229100 -0.229100 -0.229100 0.229100 0.229100 0.000000 0.000000 0.000000 0.229100 -0.229100 0.000000 -0.229100 -0.229100 -0.229100 0.229100 -0.229100 0.000000 0.229100 0.000000 0.229100 0.229100 -0.229100 0.229100 0.000000 -0.229100 0.229100 0.000000 0.229100 0.000000 -0.229100 0.000000 0.229100 0.000000 -0.229100 0.229100 -0.229100 0.229100 -0.229100 -0.229100 0.000000 0.229100 0.229100 0.229100 0.000000 -0.229100 -0.229100 -0.229100 0.000000 0.000000 0.229100 -0.229100 0.229100 0.000000 0.229100 0.229100 -0.229100 0.229100 0.229100 0.229100 0.000000 -0.229100 -0.229100 0.000000 -0.229100 0.000000 0.000000 0.229100 -0.229100 0.000000 0.229100 -0.229100 -0.229100 0.229100 -0.229100 0.229100 0.229100 0.000000 -0.229100 0.000000 0.229100 0.229100 0.000000 0.000000 0.000000 -0.229100 0.000000 0.229100 0.229100 0.229100 0.000000 -0.229100 -0.229100 0.229100 0.000000 0.229100 -0.229100 -0.229100 -0.229100 -0.229100 0.000000 -0.229100 0.000000 -0.229100 0.229100 0.229100 0.000000 -0.229100 0.000000 -0.229100 0.229100 0.229100 0.229100 -0.229100 -0.229100 -0.229100 -0.229100 -0.229100 0.000000 0.000000 0.229100 0.229100 0.229100 -0.229100 0.229100 -0.229100 0.229100 0.229100 -0.229100 -0.229100 -0.229100 0.000000 0.229100 -0.229100 -0.229100 -0.229100 0.000000 0.000000 -0.229100 0.000000 -0.229100 0.000000 0.229100 0.000000 0.000000 0.000000 -0.229100 -0.229100 0.229100 0.229100 0.229100 0.229100 0.000000 0.229100 -0.229100 0.229100 -0.229100 -0.229100 0.229100 0.229100 0.229100 0.000000 0.000000 0.229100 -0.229100 0.000000 0.000000 0.000000 -0.229100 0.229100 0.000000 0.229100 0.000000 0.229100 0.000000 -0.229100 0.000000 0.000000 0.229100 0.000000 -0.229100 0.229100 0.000000 0.000000 -0.229100 -0.229100 0.229100 0.229100 0.229100 0.229100 -0.229100 0.229100 0.229100 -0.229100 -0.229100 0.229100 0.229100 0.229100 0.000000 -0.229100 0.000000 -0.229100 0.229100 0.000000 0.229100 0.229100 0.000000 0.000000 0.229100 0.229100 0.000000 -0.229100 0.229100 0.000000 0.000000 0.229100 -0.229100 -0.229100 0.000000 -0.229100 0.229100 0.000000 -0.229100 0.229100 0.229100 0.229100 -0.229100 0.229100 0.229100 0.000000 0.000000 0.229100 0.000000 -0.229100 0.229100 -0.229100 0.000000 -0.229100 -0.229100 -0.229100 -0.229100 0.229100 0.229100 0.000000 0.000000 0.000000 0.000000 0.229100 0.229100 0.229100 0.229100 0.000000 0.229100 0.229100 0.000000 0.229100 0.229100 0.229100 0.229100 0.229100 0.229100 0.000000 0.000000 -0.229100 -0.229100 0.000000 -0.229100 -0.229100 -0.229100 0.229100 0.229100 0.229100 0.000000 0.000000 -0.229100 -0.229100 0.000000 0.229100 0.229100 0.000000 0.229100 0.000000 0.229100 0.229100 0.229100 0.229100 0.000000 0.229100 -0.229100 0.229100 0.229100 0.000000 0.229100 0.229100 -0.229100 0.000000 -0.229100 0.229100 -0.229100 0.229100 0.000000 -0.229100 0.000000 0.229100 0.229100 0.229100 0.000000 0.229100 -0.229100 0.229100 0.229100 -0.229100 0.229100 -0.229100 0.229100 0.000000 -0.229100 -0.229100 0.000000 0.000000 -0.229100 -0.229100 -0.229100 0.000000 -0.229100 -0.229100 0.000000 0.000000 0.229100 0.000000 0.000000 0.000000 -0.229100 0.000000 0.000000 -0.229100 0.229100 0.229100 -0.229100 0.229100 0.000000 0.000000 0.000000 0.229100 0.229100 -0.229100 -0.229100 -0.229100 0.229100 -0.229100 -0.229100 -0.229100 -0.229100 0.000000 0.000000 0.229100 0.000000 -0.229100 -0.229100 0.000000 0.229100 -0.229100 -0.229100 0.000000 0.229100 0.229100 0.229100 -0.229100 0.000000 -0.229100 -0.229100 -0.229100 0.229100 0.000000 0.000000 0.229100 0.229100 0.000000 0.000000 0.229100 0.229100 0.000000 0.229100 0.229100 0.229100 -0.229100 0.229100 0.229100 -0.229100 -0.229100 -0.229100 0.000000 -0.229100 -0.229100 -0.229100 -0.229100 -0.229100 0.000000 0.229100 0.000000 -0.229100 0.229100 -0.229100 0.229100 -0.229100 -0.229100 0.229100 0.229100 0.229100 0.229100 0.229100 -0.229100 0.000000 -0.229100 0.229100 0.000000 0.000000 0.229100 -0.229100 0.229100 0.229100 0.229100 0.229100 0.000000 0.000000 0.000000 0.000000 0.000000 0.000000 0.229100 -0.229100 0.000000 0.229100 -0.229100 -0.229100 -0.229100 0.000000 -0.229100 -0.229100 -0.229100 0.000000 0.000000 0.229100 -0.229100 0.000000 0.000000 -0.229100 -0.229100 -0.229100 0.000000 0.229100 0.229100 0.000000 0.229100 0.000000 0.000000 -0.229100 0.229100 0.000000 0.229100 0.229100 -0.229100 -0.229100 -0.229100 -0.229100 -0.229100 0.229100 -0.229100 0.229100 -0.229100 0.000000 0.000000 0.229100 0.229100 -0.229100 0.229100 0.000000 0.229100 0.229100 0.229100 0.000000 0.229100 0.000000 0.229100 0.229100 0.229100 0.229100 -0.229100 0.000000 0.000000 0.229100 -0.229100 -0.229100 -0.229100 0.000000 0.229100 0.000000 0.000000 -0.229100 -0.229100 -0.229100 -0.229100 0.229100 0.229100 -0.229100 0.000000 0.229100 -0.229100 -0.229100 0.000000 0.000000 0.229100 0.000000 -0.229100 -0.229100 0.000000 0.229100 0.229100 0.229100 0.000000 0.000000 0.000000 0.000000 -0.229100 -0.229100 -0.229100 0.229100 0.229100 0.229100 -0.229100 -0.229100 0.000000 -0.229100 0.229100 0.000000 0.229100 -0.229100 -0.229100 -0.229100 0.229100 0.229100 -0.229100 -0.229100 -0.229100 0.229100 0.000000 -0.229100 0.000000 -0.229100 0.000000 0.229100 -0.229100 0.000000 -0.229100 -0.229100 -0.229100 -0.229100 0.229100 0.000000 0.000000 -0.229100 -0.229100 0.000000 0.229100 0.229100 -0.229100 0.000000 0.229100 0.000000 0.000000 0.229100 0.000000 0.229100 0.000000 0.229100 0.000000 0.000000 0.000000 0.000000 0.229100 0.000000 0.229100 0.229100 0.000000 0.229100 0.229100 0.229100 0.229100 0.000000 -0.229100 -0.229100 -0.229100 -0.229100 0.000000 0.000000 0.229100 0.229100 0.000000 0.229100 0.229100 0.229100 0.229100 0.229100 0.000000 -0.229100 0.229100 0.229100 0.229100 0.229100 0.000000 0.000000 0.000000 -0.229100 -0.229100 0.229100 0.000000 0.229100 0.000000 -0.229100 -0.229100 0.229100 -0.229100 0.000000 -0.229100 -0.229100 -0.229100 -0.229100 -0.229100 0.000000 -0.229100 -0.229100 -0.229100 0.000000 0.229100 0.000000 -0.229100 -0.229100 -0.229100 0.229100 0.000000 -0.229100 0.000000 0.229100 0.229100 0.000000 -0.229100 -0.229100 0.229100 0.000000 -0.229100 -0.229100 0.229100 0.229100 0.000000 0.229100 -0.229100 -0.229100 0.229100 0.229100 -0.229100 0.000000 -0.229100 -0.229100 0.000000 0.229100 0.229100 -0.229100 -0.229100 0.229100 -0.229100 0.229100 0.229100 0.000000 0.229100 -0.229100 -0.229100 0.229100 0.229100 -0.229100 0.000000 0.229100 0.229100 -0.229100 -0.229100 0.229100 -0.229100 -0.229100 -0.229100 0.000000 0.000000 0.229100 -0.229100 -0.229100 -0.229100 0.000000 -0.229100 -0.229100 0.000000 0.000000 -0.229100 0.229100 -0.229100 0.229100 0.000000 0.000000 0.000000 0.229100 -0.229100 0.000000 0.000000 -0.229100 -0.229100 0.000000 0.229100 -0.229100 0.000000 0.000000 0.000000 0.229100 -0.229100 -0.229100 0.229100 0.229100 0.000000 0.229100 0.000000 0.000000 -0.229100 0.000000 0.000000 0.229100 0.000000 0.229100 0.000000 -0.229100 0.000000 0.229100 0.229100 0.000000 0.000000 0.229100 0.229100 -0.229100 -0.229100 0.229100 -0.229100 0.000000 0.229100 -0.229100 -0.229100 0.000000 0.229100 0.229100 -0.229100 -0.229100 0.000000 0.000000 0.000000 0.000000 0.229100 0.229100 0.229100 0.229100 -0.229100 0.000000 0.000000 0.229100 0.229100 0.000000 0.000000 0.000000 0.229100 -0.229100 -0.229100 0.229100 0.229100 0.229100 -0.229100 0.229100 -0.229100 0.000000 0.229100 -0.229100 0.000000 0.229100 0.000000 0.229100 0.000000 -0.229100 -0.229100 -0.229100 0.000000 0.229100 0.229100 0.000000 0.229100 0.229100 0.000000 0.229100 0.229100 -0.229100 0.229100 -0.229100 -0.229100 0.000000 0.000000 0.229100 0.000000 0.229100 -0.229100 0.000000 0.000000 0.000000 -0.229100 0.229100 0.000000 0.000000 -0.229100 -0.229100 -0.229100 -0.229100 0.000000 0.000000 0.229100 -0.229100 -0.229100 0.229100 0.000000 0.000000 0.229100 0.229100 0.229100 0.229100 -0.229100 0.229100 -0.229100 -0.229100 0.000000 -0.229100 -0.229100 0.229100 0.000000 -0.229100 0.229100 -0.229100 0.000000 0.229100 0.229100 -0.229100 0.229100 0.229100 0.229100 0.229100 0.000000 -0.229100 0.229100 0.000000 0.229100 -0.229100 0.000000 -0.229100 0.000000 -0.229100 -0.229100 0.000000 -0.229100 0.229100 0.000000 -0.229100 0.000000 -0.229100 0.229100 0.229100 0.229100 -0.229100 0.229100 0.000000 0.229100 -0.229100 0.000000 0.000000 -0.229100 -0.229100 -0.229100 0.000000 0.229100 -0.229100 0.000000 0.229100 0.229100 -0.229100 0.229100 -0.229100 -0.229100 0.000000 -0.229100 0.229100 0.000000 0.229100 -0.229100 0.229100 -0.229100 -0.229100 0.229100 0.229100 0.000000 -0.229100 -0.229100 -0.229100 -0.229100 0.229100 0.229100 0.229100 0.229100 -0.229100 0.000000 0.000000 -0.229100 -0.229100 -0.229100 -0.229100 0.229100 0.229100 -0.229100 0.000000 0.000000 -0.229100 0.000000 0.000000 -0.229100 0.000000 0.229100 0.000000 -0.229100 0.229100 0.229100 0.000000 0.229100 0.000000 0.229100 -0.229100 0.000000 -0.229100 0.229100 0.229100 0.229100 -0.229100 -0.229100 0.000000 0.229100 0.000000 0.229100 -0.229100 -0.229100 0.229100 0.000000 0.229100 -0.229100 0.229100 -0.229100 0.000000 0.229100 0.229100 -0.229100 0.229100 0.229100 -0.229100 0.000000 0.000000 0.229100 0.000000 -0.229100 -0.229100 0.229100 0.229100 -0.229100 0.229100 0.000000 0.229100 0.000000 0.000000 0.000000 0.229100 0.000000 0.229100 0.229100 -0.229100 0.000000 0.000000 0.000000 -0.229100 0.000000 -0.229100 0.000000 -0.229100 0.229100 -0.229100 0.000000 0.000000 0.000000 0.000000 -0.229100 0.000000 0.229100 0.229100 -0.229100 -0.229100 0.000000 0.229100 0.000000 -0.229100 -0.229100 0.229100 0.000000 0.000000 -0.229100 0.000000 0.000000 0.000000 0.229100 0.229100 -0.229100 0.000000 -0.229100 -0.229100 0.000000 -0.229100 -0.229100 -0.229100 0.000000 0.000000 0.000000 0.229100 -0.229100 -0.229100 -0.229100 -0.229100 0.000000 0.229100 -0.229100 0.229100 0.229100 0.000000 0.229100 0.000000 0.000000 0.229100 -0.229100 0.000000 -0.229100 0.229100 -0.229100 -0.229100 -0.229100 -0.229100 0.229100 0.229100 -0.229100 -0.229100 -0.229100 -0.229100 -0.229100 -0.229100 -0.229100 0.000000 0.000000 0.229100 -0.229100 -0.229100 -0.229100 0.229100 0.000000 -0.229100 -0.229100 0.229100 -0.229100 0.000000 0.229100 0.000000 0.000000 -0.229100 0.000000 0.000000 0.229100 0.229100 -0.229100 0.229100 0.000000 0.000000 0.000000 -0.229100 0.229100 0.229100 0.229100 -0.229100 0.229100 0.000000 -0.229100 -0.229100 -0.229100 -0.229100 -0.229100 -0.229100 0.229100 -0.229100 -0.229100 -0.229100 -0.229100 0.000000 0.000000 -0.229100 0.229100 0.229100 -0.229100 -0.229100 0.000000 0.000000 0.229100 -0.229100 0.229100 -0.229100 -0.229100 0.229100 0.000000 -0.229100 0.000000 0.000000 -0.229100 -0.229100 0.229100 -0.229100 0.000000 0.000000 0.229100 0.229100 -0.229100 0.000000 -0.229100 -0.229100 0.229100 0.229100 -0.229100 0.000000 0.229100 -0.229100 0.000000 -0.229100 -0.229100 -0.229100 -0.229100 0.000000 0.000000 -0.229100 -0.229100 0.229100 -0.229100 -0.229100 0.229100 0.000000 -0.229100 0.000000 0.000000 0.000000 0.229100 0.000000 -0.229100 -0.229100 0.000000 0.229100 0.000000 -0.229100 0.229100 -0.229100 0.229100 0.229100 0.229100 -0.229100 0.000000 -0.229100 0.229100 0.229100 0.000000 0.000000 0.229100 -0.229100 0.000000 -0.229100 -0.229100 0.000000 0.000000 -0.229100 0.229100 0.229100 -0.229100 -0.229100 0.000000 0.000000 0.000000 0.000000 0.229100 0.000000 -0.229100 0.229100 -0.229100 0.000000 0.229100 0.229100 0.229100 0.000000 -0.229100 -0.229100 0.229100 0.229100 -0.229100 -0.229100 0.000000 0.000000 0.229100 0.229100 0.229100 -0.229100 0.229100 0.229100 -0.229100 -0.229100 -0.229100 0.229100 -0.229100 0.000000 -0.229100 0.229100 0.229100 0.000000 -0.229100 0.000000 -0.229100 0.229100 -0.229100 -0.229100 0.229100 -0.229100 0.229100 -0.229100 -0.229100 -0.229100 0.229100 -0.229100 0.000000 -0.229100 0.229100 -0.229100 0.229100 -0.229100 0.229100 -0.229100 0.229100 0.229100 -0.229100 0.229100 -0.229100 0.000000 0.000000 -0.229100 0.000000 -0.229100 0.000000 0.000000 0.000000 0.000000 0.000000 -0.229100 -0.229100 -0.229100 0.000000 0.229100 0.229100 0.000000 0.000000 0.000000 0.000000 0.229100 0.229100 -0.229100 0.000000 0.000000 -0.229100 -0.229100 0.229100 0.229100 0.000000 -0.229100 0.229100 -0.229100 0.229100 0.229100 0.229100 0.229100 0.229100 -0.229100 0.000000 0.229100 0.000000 0.229100 0.000000 -0.229100 -0.229100 0.000000 0.229100 0.000000 -0.229100 0.000000 0.229100 -0.229100 0.229100 -0.229100 0.229100 -0.229100 0.229100 0.229100 -0.229100 0.229100 0.229100 -0.229100 0.229100 0.000000 0.229100 0.229100 -0.229100 -0.229100 0.229100 0.229100 -0.229100 0.000000 -0.229100 0.000000 -0.229100 0.000000 0.229100 0.000000 0.000000 0.229100 -0.229100 0.229100 -0.229100 0.229100 -0.229100 -0.229100 0.229100 -0.229100 0.229100 0.000000 0.000000 0.000000 -0.229100 0.000000 0.229100 0.229100 -0.229100 0.000000 0.229100 -0.229100 0.000000 0.229100 0.000000 0.000000 0.000000 0.000000 0.229100 -0.229100 0.229100 -0.229100 0.229100 -0.229100 -0.229100 0.229100 0.229100 0.000000 0.229100 0.000000 -0.229100 -0.229100 0.000000 0.229100 0.000000 -0.229100 -0.229100 0.000000 0.000000 0.229100 0.000000 -0.229100 0.000000 -0.229100 0.229100 0.000000 0.229100 0.229100 0.229100 0.000000 -0.229100 0.000000 -0.229100 -0.229100 0.000000 0.000000 0.229100 0.000000 -0.229100 -0.229100 0.229100 0.229100 0.000000 0.229100 0.000000 0.229100 0.229100 0.229100 0.229100 0.000000 -0.229100 -0.229100 -0.229100 -0.229100 -0.229100 0.229100 0.229100 -0.229100 0.229100 0.000000 0.229100 0.229100 -0.229100 0.229100 0.000000 -0.229100 0.229100 0.000000 0.229100 -0.229100 -0.229100 0.000000 0.000000 -0.229100 0.000000 0.229100 0.229100 0.229100 0.229100 -0.229100 0.229100 0.229100 0.000000 -0.229100 0.000000 0.229100 -0.229100 -0.229100 0.229100 0.000000 0.229100 0.229100 -0.229100 0.229100 0.229100 0.229100 0.229100 0.229100 0.000000 0.000000 0.229100 0.000000 0.000000 0.229100 0.000000 0.229100 -0.229100 -0.229100 0.229100 -0.229100 -0.229100 0.000000 0.229100 -0.229100 0.229100 0.229100 -0.229100 0.229100 0.000000 0.229100 0.000000 -0.229100 0.229100 -0.229100 -0.229100 0.229100 0.229100 -0.229100 -0.229100 0.229100 0.229100 0.229100 0.229100 0.000000 0.229100 0.229100 0.229100 0.229100 0.229100 0.229100 -0.229100 0.000000 -0.229100 0.000000 0.229100 0.229100 -0.229100 0.000000 0.000000 0.000000 0.229100 -0.229100 0.229100 0.229100 -0.229100 -0.229100 0.000000 -0.229100 -0.229100 0.000000 0.000000 0.229100 0.000000 0.000000 0.000000 -0.229100 -0.229100 0.229100 0.000000 0.000000 0.000000 0.229100 0.000000 0.000000 0.229100 0.229100 0.000000 0.000000 -0.229100 -0.229100 0.000000 0.229100 0.229100 0.229100 0.000000 -0.229100 -0.229100 -0.229100 -0.229100 -0.229100 0.229100 0.000000 -0.229100 0.229100 0.000000 0.229100 0.000000 0.229100 -0.229100 0.229100 -0.229100 0.229100 -0.229100 0.000000 -0.229100 0.000000 -0.229100 -0.229100 0.000000 0.229100 0.229100 -0.229100 0.229100 0.229100 0.000000 0.229100 0.000000 -0.229100 0.229100 -0.229100 0.229100 0.229100 0.229100 -0.229100 -0.229100 0.000000 0.229100 -0.229100 0.229100 -0.229100 -0.229100 -0.229100 -0.229100 0.000000 -0.229100 0.229100 -0.229100 0.000000 0.000000 -0.229100 0.000000 0.000000 0.229100 -0.229100 -0.229100 0.000000 0.000000 0.229100 -0.229100 0.000000 0.000000 0.229100 -0.229100 0.000000 -0.229100 0.000000 -0.229100 -0.229100 -0.229100 0.229100 -0.229100 0.000000 0.000000 -0.229100 -0.229100 0.229100 0.000000 0.000000 0.000000 0.229100 0.000000 -0.229100 0.229100 0.229100 -0.229100 0.000000 0.000000 0.229100 0.229100 0.000000 -0.229100 0.000000 -0.229100 0.000000 0.229100 0.000000 -0.229100 0.229100 0.229100 -0.229100 0.229100 0.000000 -0.229100 0.000000 0.000000 0.000000 0.229100 -0.229100 -0.229100 0.000000 0.229100 -0.229100 -0.229100 0.229100 0.229100 0.229100 0.229100 0.229100 0.000000 0.000000 0.229100 -0.229100 0.229100 0.229100 0.229100 -0.229100 -0.229100 0.000000 0.000000 0.000000 -0.229100 -0.229100 0.229100 0.229100 0.229100 -0.229100 0.000000 -0.229100 0.229100 0.229100 0.000000 -0.229100 0.229100 0.229100 0.229100 -0.229100 0.229100 0.000000 0.229100 0.000000 -0.229100 0.229100 -0.229100 0.229100 -0.229100 -0.229100 -0.229100 0.229100 0.000000 0.229100 0.000000 -0.229100 -0.229100 -0.229100 -0.229100 0.229100 0.229100 0.229100 -0.229100 -0.229100 0.229100 0.229100 0.000000 -0.229100 0.000000 0.229100 -0.229100 0.000000 -0.229100 0.000000 -0.229100 -0.229100 -0.229100 -0.229100 0.229100 -0.229100 0.229100 -0.229100 0.229100 0.000000 0.229100 0.000000 0.229100 0.000000 0.000000 -0.229100 -0.229100 -0.229100 -0.229100 0.229100 0.000000 0.000000 -0.229100 -0.229100 0.000000 0.000000 0.229100 0.000000 -0.229100 0.229100 0.229100 0.229100 0.229100 0.000000 0.229100 0.229100 0.000000 -0.229100 0.229100 0.229100 0.229100 0.000000 -0.229100 -0.229100 0.000000 0.000000 -0.229100 0.229100 -0.229100 0.000000 0.229100 0.000000 -0.229100 0.000000 0.000000 -0.229100 0.229100 0.229100 -0.229100 0.229100 0.229100 0.000000 0.000000 0.229100 0.229100 -0.229100 -0.229100 0.000000 0.229100 0.229100 -0.229100 -0.229100 -0.229100 0.229100 0.229100 -0.229100 -0.229100 0.000000 0.229100 0.229100 0.229100 0.229100 -0.229100 -0.229100 -0.229100 -0.229100 -0.229100 -0.229100 0.000000 0.229100 0.229100 -0.229100 0.229100 0.000000 0.000000 -0.229100 0.000000 0.000000 0.000000 0.229100 0.229100 0.229100 0.229100 0.229100 0.000000 0.229100 -0.229100 -0.229100 0.229100 0.229100 -0.229100 -0.229100 -0.229100 0.229100 0.000000 -0.229100 -0.229100 0.000000 0.000000 0.000000 0.000000 0.000000 -0.229100 -0.229100 -0.229100 -0.229100 0.229100 0.229100 0.000000 -0.229100 0.000000 -0.229100 -0.229100 0.229100 -0.229100 0.229100 0.229100 0.000000 0.000000 0.229100 0.000000 -0.229100 -0.229100 -0.229100 0.229100 -0.229100 0.000000 -0.229100 0.229100 0.229100 0.000000 0.000000 0.229100 0.229100 0.000000 0.000000 0.000000 -0.229100 0.000000 -0.229100 0.000000 -0.229100 -0.229100 -0.229100 -0.229100 0.000000 -0.229100 -0.229100 -0.229100 -0.229100 -0.229100 -0.229100 -0.229100 0.229100 0.000000 0.229100 -0.229100 -0.229100 0.229100 -0.229100 0.229100 0.229100 0.229100 0.000000 0.000000 0.000000 -0.229100 -0.229100 -0.229100 0.229100 0.229100 -0.229100 0.000000 0.229100 0.000000 -0.229100 0.229100 -0.229100 0.229100 0.000000 0.000000 -0.229100 -0.229100 0.000000 0.000000 -0.229100 0.000000 0.229100 -0.229100 0.000000 0.229100 0.229100 -0.229100 -0.229100 -0.229100 -0.229100 0.000000 -0.229100 -0.229100 0.229100 0.000000 0.000000 -0.229100 -0.229100 0.229100 0.229100 0.000000 -0.229100 -0.229100 -0.229100 0.229100 -0.229100 0.229100 0.000000 -0.229100 -0.229100 0.229100 0.229100 0.229100 -0.229100 0.000000 -0.229100 0.229100 0.229100 0.229100 -0.229100 0.000000 -0.229100 0.000000 0.229100 -0.229100 -0.229100 -0.229100 0.229100 0.000000 0.229100 0.000000 0.229100 0.000000 -0.229100 0.229100 0.229100 0.000000 -0.229100 -0.229100 -0.229100 0.229100 0.000000 0.229100 0.000000 0.229100 0.000000 0.000000 -0.229100 0.000000 0.229100 0.229100 -0.229100 0.000000 0.229100 -0.229100 -0.229100 0.000000 0.229100 -0.229100 0.000000 -0.229100 -0.229100 0.229100 0.229100 -0.229100 -0.229100 0.229100 -0.229100 0.229100 -0.229100 0.000000 0.229100 -0.229100 0.229100 0.229100 -0.229100 0.000000 0.000000 0.000000 0.229100 0.229100 0.229100 0.229100 -0.229100 0.000000 0.000000 0.000000 -0.229100 0.229100 -0.229100 -0.229100 0.229100 -0.229100 -0.229100 -0.229100 -0.229100 -0.229100 -0.229100 -0.229100 0.000000 0.000000 -0.229100 0.000000 0.000000 0.229100 -0.229100 -0.229100 -0.229100 0.000000 -0.229100 -0.229100 0.229100 0.229100 0.229100 -0.229100 -0.229100 -0.229100 0.000000 0.000000 -0.229100 -0.229100 0.000000 0.229100 0.000000 0.229100 0.229100 0.229100 -0.229100 -0.229100 0.229100 -0.229100 -0.229100 0.000000 0.229100 0.000000 -0.229100 0.229100 0.000000 0.229100 -0.229100 0.000000 0.229100 -0.229100 0.000000 -0.229100 0.000000 -0.229100 -0.229100 0.229100 -0.229100 0.000000 -0.229100 0.229100 0.229100 -0.229100 0.229100 0.000000 0.229100 -0.229100 0.000000 0.229100 0.229100 -0.229100 -0.229100 0.000000 0.229100 0.229100 0.229100 0.000000 0.229100 -0.229100 -0.229100 -0.229100 -0.229100 0.000000 -0.229100 0.229100 0.000000 0.229100 -0.229100 -0.229100 0.229100 -0.229100 0.229100 0.000000 0.000000 0.000000 0.229100 -0.229100 -0.229100 0.229100 -0.229100 0.229100 -0.229100 0.229100 0.229100 0.000000 0.000000 -0.229100 -0.229100 -0.229100 0.000000 0.000000 0.229100 0.229100 -0.229100 0.229100 -0.229100 -0.229100 0.229100 0.229100 0.000000 -0.229100 -0.229100 0.229100 0.229100 0.229100 0.000000 -0.229100 -0.229100 0.000000 0.000000 0.000000 0.229100 0.000000 0.000000 -0.229100 -0.229100 -0.229100 0.000000 0.229100 0.000000 -0.229100 0.000000 -0.229100 0.000000 -0.229100 0.229100 0.229100 -0.229100 -0.229100 0.229100 0.229100 0.000000 -0.229100 -0.229100 0.229100 -0.229100 0.000000 0.229100 0.229100 0.000000 -0.229100 -0.229100 0.229100 -0.229100 0.229100 0.229100 -0.229100 0.000000 -0.229100 0.000000 0.229100 0.000000 -0.229100 0.000000 0.229100 -0.229100 -0.229100 -0.229100 0.000000 -0.229100 0.000000 0.000000 -0.229100 0.229100 -0.229100 0.000000 0.229100 -0.229100 0.229100 0.229100 0.229100 -0.229100 0.229100 0.229100 0.229100 0.000000 0.000000 0.229100 -0.229100 0.000000 -0.229100 0.229100 -0.229100 -0.229100 0.000000 0.229100 0.000000 -0.229100 0.229100 0.229100 0.229100 0.229100 0.000000 0.229100 -0.229100 -0.229100 0.000000 0.229100 0.229100 -0.229100 -0.229100 -0.229100 0.000000 0.229100 -0.229100 0.000000 -0.229100 -0.229100 0.000000 0.000000 0.000000 0.229100 0.000000 -0.229100 -0.229100 -0.229100 -0.229100 0.229100 0.000000 -0.229100 0.229100 0.229100 0.229100 0.000000 0.229100 0.000000 0.000000 0.229100 0.229100 0.229100 0.229100 0.000000 -0.229100 0.000000 0.229100 -0.229100 0.000000 0.000000 0.000000 0.229100 -0.229100 0.000000 0.000000 -0.229100 0.229100 0.000000 -0.229100 -0.229100 0.000000 0.000000 -0.229100 0.000000 -0.229100 0.229100 -0.229100 -0.229100 0.000000 0.000000 0.000000 0.229100 0.229100 0.000000 0.229100 0.000000 0.229100 -0.229100 0.000000 0.000000 0.229100 -0.229100 0.000000 0.000000 -0.229100 0.229100 0.000000 -0.229100 -0.229100 -0.229100 -0.229100 -0.229100 0.000000 0.229100 0.229100 0.229100 -0.229100 0.229100 0.229100 0.229100 0.000000 0.229100 0.229100 -0.229100 0.229100 0.000000 -0.229100 0.000000 0.229100 -0.229100 -0.229100 0.229100 0.229100 0.229100 0.229100 -0.229100 0.229100 0.000000 0.000000 -0.229100 0.000000 0.229100 -0.229100 -0.229100 0.000000 0.000000 -0.229100 0.229100 0.229100 -0.229100 -0.229100 -0.229100 0.000000 -0.229100 0.229100 0.000000 0.229100 0.000000 0.229100 0.229100 -0.229100 -0.229100 0.000000 -0.229100 0.000000 0.229100 0.229100 -0.229100 0.000000 -0.229100 -0.229100 0.229100 0.000000 0.229100 0.000000 0.229100 0.229100 -0.229100 -0.229100 -0.229100 0.229100 0.229100 0.229100 0.000000 0.000000 0.000000 0.000000 0.229100 0.000000 0.000000 -0.229100 -0.229100 0.000000 0.000000 -0.229100 0.000000 0.000000 0.000000 0.229100 0.000000 -0.229100 0.229100 0.000000 0.000000 0.000000 -0.229100 0.000000 -0.229100 0.229100 0.229100 0.229100 0.229100 0.229100 0.229100 0.229100 -0.229100 0.000000 0.229100 0.229100 0.000000 0.229100 0.000000 0.000000 0.229100 0.229100 0.229100 0.000000 0.000000 -0.229100 0.229100 0.229100 0.000000 -0.229100 -0.229100 0.000000 -0.229100 0.000000 -0.229100 -0.229100 -0.229100 -0.229100 -0.229100 0.000000 0.000000 -0.229100 -0.229100 -0.229100 0.229100 0.000000 0.000000 -0.229100 -0.229100 0.229100 -0.229100 0.000000 0.000000 -0.229100 -0.229100 -0.229100 0.229100 0.000000 -0.229100 0.229100 0.229100 -0.229100 0.229100 -0.229100 0.229100 0.229100 -0.229100 -0.229100 -0.229100 -0.229100 -0.229100 0.229100 0.229100 0.000000 0.000000 -0.229100 -0.229100 0.000000 0.000000 -0.229100 -0.229100 -0.229100 -0.229100 0.229100 0.229100 0.229100 -0.229100 -0.229100 -0.229100 0.229100 0.229100 -0.229100 0.000000 0.000000 -0.229100 0.229100 0.229100 -0.229100 -0.229100 -0.229100 0.229100 -0.229100 0.000000 0.229100 -0.229100 -0.229100 -0.229100 0.229100 0.000000 0.000000 0.229100 0.000000 0.229100 0.000000 0.000000 0.000000 0.229100 -0.229100 0.000000 0.229100 0.000000 -0.229100 0.229100 -0.229100 0.000000 0.229100 0.229100 0.000000 0.229100 -0.229100 0.000000 -0.229100 0.000000 -0.229100 -0.229100 0.000000 0.229100 -0.229100 -0.229100 -0.229100 0.229100 0.229100 0.229100 -0.229100 0.000000 0.229100 -0.229100 0.000000 0.229100 0.229100 0.229100 0.229100 0.229100 -0.229100 0.000000 0.229100 -0.229100 0.000000 -0.229100 -0.229100 -0.229100 -0.229100 -0.229100 -0.229100 0.229100 0.229100 0.229100 0.000000 0.000000 0.000000 0.229100 0.000000 0.229100 -0.229100 0.000000 -0.229100 -0.229100 -0.229100 0.229100 -0.229100 -0.229100 0.000000 -0.229100 0.229100 0.000000 -0.229100 0.000000 -0.229100 0.229100 0.000000 -0.229100 0.229100 0.229100 0.229100 0.000000 -0.229100 0.229100 0.000000 -0.229100 0.000000 0.000000 0.000000 0.000000 0.000000 -0.229100 0.000000 -0.229100 0.000000 -0.229100 -0.229100 0.000000 -0.229100 -0.229100 0.000000 0.229100 0.229100 0.229100 0.229100 0.229100 0.229100 0.000000 0.229100 -0.229100 0.000000 0.000000 0.000000 0.229100 0.229100 -0.229100 0.000000 0.229100 -0.229100 0.229100 0.000000 0.229100 0.000000 -0.229100 0.229100 0.229100 0.229100 0.000000 -0.229100 0.000000 -0.229100 0.000000 -0.229100 -0.229100 -0.229100 0.000000 0.000000 -0.229100 0.000000 0.000000 0.229100 0.000000 0.229100 0.000000 0.000000 0.000000 0.000000 0.229100 -0.229100 -0.229100 0.229100 0.229100 -0.229100 0.000000 -0.229100 0.000000 0.000000 0.000000 0.229100 -0.229100 0.229100 -0.229100 -0.229100 0.229100 0.229100 -0.229100 -0.229100 0.229100 0.229100 0.229100 -0.229100 -0.229100 0.000000 -0.229100 0.229100 -0.229100 -0.229100 0.000000 -0.229100 0.000000 -0.229100 0.229100 0.000000 0.000000 0.229100 -0.229100 0.000000 0.229100 -0.229100 0.000000 0.000000 0.229100 -0.229100 0.229100 0.229100 0.229100 -0.229100 0.229100 0.000000 0.229100 -0.229100 0.000000 0.229100 0.229100 0.229100 0.229100 -0.229100 -0.229100 0.000000 -0.229100 -0.229100 0.000000 0.229100 0.229100 -0.229100 0.229100 -0.229100 0.229100 0.000000 0.229100 0.000000 -0.229100 0.229100 -0.229100 0.229100 -0.229100 0.229100 0.229100 0.000000 -0.229100 0.229100 0.229100 -0.229100 0.229100 -0.229100 0.229100 0.229100 -0.229100 -0.229100 -0.229100 0.000000 -0.229100 -0.229100 -0.229100 0.229100 -0.229100 -0.229100 0.000000 -0.229100 -0.229100 0.229100 0.229100 0.229100 0.229100 0.229100 0.229100 0.229100 0.229100 0.229100 0.229100 0.000000 -0.229100 -0.229100 0.229100 0.000000 0.000000 0.000000 0.000000 0.229100 0.229100 0.229100 0.229100 -0.229100 -0.229100 -0.229100 -0.229100 0.000000 -0.229100 0.229100 -0.229100 -0.229100 0.229100 -0.229100 0.000000 0.000000 0.229100 0.229100 0.000000 0.000000 -0.229100 -0.229100 0.229100 -0.229100 0.000000 0.229100 0.000000 0.229100 0.000000 -0.229100 0.229100 0.229100 0.229100 0.000000 -0.229100 -0.229100 0.000000 0.000000 -0.229100 -0.229100 0.229100 0.229100 0.229100 -0.229100 -0.229100 0.229100 0.229100 0.000000 -0.229100 0.000000 -0.229100 0.000000 -0.229100 0.000000 0.000000 0.229100 0.229100 0.000000 0.000000 -0.229100 0.000000 0.229100 0.229100 0.000000 0.000000 -0.229100 -0.229100 0.000000 0.229100 0.000000 0.000000 -0.229100 0.000000 0.000000 0.229100 -0.229100 -0.229100 0.229100 0.229100 -0.229100 -0.229100 0.229100 0.229100 0.229100 -0.229100 0.229100 0.229100 -0.229100 -0.229100 0.000000 0.000000 -0.229100 0.000000 0.000000 0.229100 0.000000 -0.229100 0.000000 0.229100 0.229100 -0.229100 0.000000 -0.229100 0.229100 0.000000 0.000000 0.000000 0.229100 0.000000 0.229100 0.000000 -0.229100 0.000000 -0.229100 -0.229100 -0.229100 -0.229100 0.000000 0.000000 0.229100 -0.229100 -0.229100 0.229100 0.000000 0.229100 0.000000 0.229100 0.229100 0.229100 0.000000 0.000000 0.229100 -0.229100 0.000000 0.229100 0.229100 0.000000 -0.229100 0.229100 0.000000 -0.229100 -0.229100 0.229100 0.000000 0.229100 -0.229100 0.229100 -0.229100 0.000000 -0.229100 -0.229100 0.000000 -0.229100 0.229100 0.000000 -0.229100 -0.229100 0.229100 -0.229100 0.229100 0.229100 0.229100 0.229100 0.000000 0.000000 -0.229100 -0.229100 -0.229100 0.000000 -0.229100 0.229100 -0.229100 -0.229100 -0.229100 0.229100 0.229100 -0.229100 0.000000 -0.229100 -0.229100 0.229100 0.229100 0.229100 -0.229100 -0.229100 0.000000 -0.229100 0.229100 0.229100 -0.229100 0.229100 0.229100 0.229100 -0.229100 0.229100 -0.229100 0.229100 -0.229100 0.000000 0.229100 -0.229100 0.229100 0.229100 0.000000 0.000000 0.000000 0.229100 0.000000 -0.229100 -0.229100 -0.229100 0.229100 -0.229100 -0.229100 -0.229100 -0.229100 0.000000 0.229100 0.229100 0.000000 0.000000 -0.229100 0.229100 0.000000 0.000000 0.000000 0.229100 0.000000 0.000000 0.229100 0.229100 0.229100 0.000000 -0.229100 0.000000 0.000000 0.229100 -0.229100 0.000000 0.000000 -0.229100 0.229100 0.229100 0.229100 -0.229100 0.000000 -0.229100 0.229100 -0.229100 -0.229100 0.000000 0.229100 0.000000 -0.229100 0.000000 -0.229100 0.000000 0.000000 -0.229100 0.000000 0.229100 0.229100 0.000000 0.229100 -0.229100 -0.229100 0.000000 0.229100 0.229100 0.000000 -0.229100 -0.229100 0.229100 0.229100 -0.229100 -0.229100 -0.229100 0.229100 0.000000 0.000000 0.000000 0.229100 0.229100 0.000000 0.229100 0.000000 -0.229100 -0.229100 0.229100 -0.229100 0.000000 -0.229100 -0.229100 0.000000 0.229100 -0.229100 0.000000 -0.229100 0.000000 -0.229100 0.229100 0.229100 -0.229100 0.000000 0.229100 0.000000 0.000000 0.229100 -0.229100 -0.229100 0.000000 -0.229100 0.229100 0.229100 -0.229100 -0.229100 0.229100 0.229100 0.229100 0.229100 0.229100 0.229100 -0.229100 0.000000 0.229100 0.229100 -0.229100 -0.229100 -0.229100 0.229100 0.000000 -0.229100 -0.229100 -0.229100 -0.229100 -0.229100 -0.229100 -0.229100 0.229100 0.229100 0.229100 0.229100 0.229100 0.229100 0.229100 0.229100 0.000000 -0.229100 0.229100 -0.229100 0.000000 -0.229100 -0.229100 0.229100 -0.229100 0.000000 -0.229100 -0.229100 -0.229100 0.000000 -0.229100 -0.229100 0.229100 0.229100 -0.229100 0.229100 0.229100 -0.229100 0.229100 -0.229100 0.229100 0.000000 0.000000 0.229100 0.000000 -0.229100 -0.229100 -0.229100 0.229100 0.000000 0.000000 0.000000 -0.229100 0.000000 0.229100 0.000000 0.229100 0.229100 -0.229100 0.229100 0.000000 -0.229100 -0.229100 0.000000 -0.229100 -0.229100 0.000000 0.229100 0.000000 0.000000 0.229100 0.229100 -0.229100 -0.229100 0.229100 0.000000 0.000000 0.000000 0.000000 -0.229100 0.229100 0.000000 0.000000 0.229100 -0.229100 0.000000 0.229100 0.229100 0.229100 0.000000 -0.229100 -0.229100 0.000000 0.229100 -0.229100 0.000000 -0.229100 -0.229100 0.000000 0.229100 0.229100 0.000000 -0.229100 -0.229100 0.229100 -0.229100 -0.229100 0.229100 0.000000 -0.229100 -0.229100 -0.229100 0.000000 0.229100 0.000000 0.229100 0.229100 0.000000 0.229100 0.229100 0.000000 0.229100 0.229100 0.229100 0.000000 0.229100 0.229100 0.229100 0.229100 0.229100 0.229100 0.000000 -0.229100 0.000000 0.000000 0.229100 0.000000 0.229100 0.229100 -0.229100 -0.229100 0.229100 0.000000 0.229100 -0.229100 0.000000 0.000000 0.000000 -0.229100 0.000000 0.229100 0.229100 -0.229100 -0.229100 0.000000 0.229100 0.000000 0.229100 0.229100 0.000000 -0.229100 -0.229100 0.229100 0.229100 0.000000 0.000000 0.229100 0.000000 0.229100 0.229100 -0.229100 -0.229100 0.229100 0.229100 0.229100 0.229100 -0.229100 -0.229100 -0.229100 -0.229100 0.000000 -0.229100 0.229100 -0.229100 0.000000 0.229100 0.229100 -0.229100 -0.229100 0.229100 0.000000 -0.229100 -0.229100 -0.229100 0.229100 0.000000 0.229100 0.229100 -0.229100 -0.229100 -0.229100 0.000000 0.229100 0.000000 0.229100 -0.229100 0.000000 0.229100 0.000000 0.000000 0.229100 0.000000 -0.229100 0.229100 0.000000 0.229100 0.229100 0.229100 0.229100 -0.229100 0.229100 0.229100 0.229100 -0.229100 0.000000 0.000000 0.229100 0.229100 -0.229100 -0.229100 0.229100 0.229100 0.000000 -0.229100 0.000000 -0.229100 -0.229100 0.229100 0.000000 0.000000 -0.229100 0.229100 0.000000 0.229100 0.229100 0.229100 0.229100 0.229100 0.229100 0.229100 0.229100 0.229100 0.229100 0.000000 -0.229100 0.000000 0.000000 -0.229100 0.000000 0.229100 0.229100 0.229100 0.000000 0.229100 0.000000 0.229100 -0.229100 -0.229100 -0.229100 0.229100 0.000000 -0.229100 -0.229100 -0.229100 0.229100 -0.229100 -0.229100 -0.229100 0.229100 -0.229100 -0.229100 -0.229100 0.229100 0.229100 0.000000 -0.229100 -0.229100 0.229100 0.229100 -0.229100 -0.229100 0.229100 0.229100 0.229100 -0.229100 -0.229100 -0.229100 -0.229100 0.229100 0.229100 0.000000 -0.229100 0.000000 0.229100 0.229100 0.000000 0.229100 0.000000 -0.229100 -0.229100 0.000000 0.229100 0.229100 0.229100 -0.229100 -0.229100 -0.229100 -0.229100 0.000000 -0.229100 0.000000 -0.229100 -0.229100 -0.229100 0.000000 0.229100 0.000000 0.229100 -0.229100 0.229100 0.229100 0.000000 -0.229100 0.229100 -0.229100 0.000000 0.229100 0.229100 0.000000 -0.229100 0.000000 0.000000 0.229100 -0.229100 0.000000 0.229100 0.000000 -0.229100 0.000000 0.229100 -0.229100 0.000000 0.229100 0.000000 0.229100 -0.229100 -0.229100 -0.229100 -0.229100 -0.229100 0.229100 0.000000 -0.229100 -0.229100 -0.229100 0.229100 -0.229100 -0.229100 -0.229100 0.000000 -0.229100 0.229100 0.229100 0.229100 0.229100 0.229100 -0.229100 0.229100 0.229100 -0.229100 0.229100 0.229100 0.229100 0.229100 0.229100 0.000000 0.229100 0.229100 0.229100 0.000000 0.229100 0.000000 -0.229100 0.000000 -0.229100 -0.229100 -0.229100 -0.229100 0.229100 0.229100 0.229100 0.000000 0.000000 0.229100 -0.229100 0.229100 -0.229100 -0.229100 0.000000 0.229100 -0.229100 0.000000 -0.229100 0.000000 0.000000 0.000000 0.000000 0.229100 -0.229100 0.000000 0.229100 0.000000 -0.229100 -0.229100 0.000000 0.229100 -0.229100 -0.229100 0.229100 -0.229100 0.229100 0.000000 0.229100 -0.229100 -0.229100 0.000000 -0.229100 0.000000 0.229100 0.229100 0.000000 0.229100 -0.229100 0.229100 0.000000 -0.229100 0.000000 0.229100 0.000000 0.229100 0.229100 0.229100 0.229100 -0.229100 -0.229100 0.229100 -0.229100 -0.229100 0.229100 -0.229100 -0.229100 0.000000 0.000000 0.000000 0.229100 0.000000 0.229100 -0.229100 -0.229100 0.229100 0.229100 0.229100 0.000000 0.229100 0.229100 -0.229100 0.229100 -0.229100 0.229100 0.000000 0.000000 -0.229100 -0.229100 0.000000 -0.229100 0.000000 0.229100 -0.229100 -0.229100 -0.229100 0.000000 0.229100 0.229100 0.000000 -0.229100 -0.229100 0.229100 0.229100 0.000000 -0.229100 0.000000 0.229100 -0.229100 -0.229100 0.229100 -0.229100 0.229100 0.000000 0.000000 -0.229100 0.229100 0.229100 -0.229100 0.229100 -0.229100 -0.229100 0.000000 0.000000 -0.229100 -0.229100 -0.229100 -0.229100 -0.229100 0.000000 -0.229100 0.229100 -0.229100 -0.229100 -0.229100 0.000000 0.000000 0.000000 0.229100 -0.229100 -0.229100 0.000000 0.229100 0.229100 0.229100 0.229100 0.000000 0.000000 -0.229100 -0.229100 0.229100 0.229100 -0.229100 -0.229100 -0.229100 0.229100 -0.229100 -0.229100 0.229100 0.229100 0.000000 0.229100 -0.229100 0.229100 0.229100 -0.229100 -0.229100 -0.229100 0.000000 0.229100 -0.229100 0.000000 0.000000 0.229100 -0.229100 0.000000 -0.229100 -0.229100 0.229100 -0.229100 -0.229100 0.000000 0.000000 0.229100 0.000000 -0.229100 0.000000 0.000000 -0.229100 0.229100 0.000000 -0.229100 0.000000 -0.229100 -0.229100 0.229100 -0.229100 0.229100 -0.229100 -0.229100 0.229100 0.229100 0.229100 0.229100 0.229100 0.229100 -0.229100 0.000000 0.000000 -0.229100 0.229100 0.229100 -0.229100 0.000000 -0.229100 -0.229100 0.000000 -0.229100 0.000000 0.000000 -0.229100 -0.229100 0.229100 0.229100 0.000000 -0.229100 0.000000 -0.229100 -0.229100 0.000000 -0.229100 -0.229100 0.000000 -0.229100 0.000000 0.000000 0.229100 0.229100 -0.229100 -0.229100 0.229100 0.229100 -0.229100 0.229100 0.229100 0.229100 0.229100 0.000000 0.229100 0.229100 -0.229100 0.000000 -0.229100 -0.229100 -0.229100 0.000000 0.229100 -0.229100 -0.229100 -0.229100 0.229100 -0.229100 0.229100 0.000000 -0.229100 0.229100 -0.229100 -0.229100 0.000000 0.000000 0.229100 0.000000 -0.229100 -0.229100 -0.229100 -0.229100 0.229100 0.229100 0.229100 -0.229100 -0.229100 -0.229100 0.229100 -0.229100 0.229100 -0.229100 0.000000 0.000000 -0.229100 -0.229100 0.229100 0.229100 0.000000 0.229100 -0.229100 -0.229100 -0.229100 0.229100 0.229100 -0.229100 -0.229100 0.000000 -0.229100 -0.229100 0.229100 0.000000 -0.229100 0.000000 -0.229100 0.000000 -0.229100 0.000000 0.000000 0.000000 -0.229100 0.229100 0.000000 0.229100 -0.229100 -0.229100 0.000000 -0.229100 0.000000 -0.229100 0.229100 0.000000 0.229100 -0.229100 0.229100 0.000000 -0.229100 0.229100 0.000000 0.000000 0.229100 0.229100 0.229100 0.000000 0.229100 0.000000 -0.229100 0.000000 0.229100 -0.229100 0.000000 -0.229100 0.229100 0.000000 0.229100 -0.229100 -0.229100 0.229100 0.000000 -0.229100 0.229100 0.000000 -0.229100 0.000000 -0.229100 0.229100 -0.229100 0.229100 0.000000 -0.229100 0.000000 0.000000 -0.229100 0.000000 -0.229100 -0.229100 0.229100 -0.229100 -0.229100 -0.229100 -0.229100 0.229100 0.229100 0.229100 0.000000 0.229100 0.000000 -0.229100 -0.229100 -0.229100 0.229100 0.000000 0.229100 -0.229100 0.229100 0.229100 -0.229100 0.000000 -0.229100 -0.229100 -0.229100 0.000000 -0.229100 0.000000 0.000000 0.000000 0.229100 0.229100 0.229100 -0.229100 0.229100 0.000000 0.229100 -0.229100 0.229100 0.000000 -0.229100 0.000000 0.229100 0.000000 -0.229100 0.000000 -0.229100 0.229100 0.000000 0.229100 0.229100 0.229100 -0.229100 0.000000 0.000000 -0.229100 -0.229100 -0.229100 0.229100 0.229100 -0.229100 -0.229100 -0.229100 0.229100 0.000000 0.000000 0.000000 -0.229100 0.000000 -0.229100 0.000000 -0.229100 -0.229100 0.000000 0.000000 0.229100 0.229100 0.000000 -0.229100 -0.229100 0.000000 0.000000 0.229100 -0.229100 -0.229100 0.000000 0.000000 0.229100 -0.229100 -0.229100 -0.229100 -0.229100 -0.229100 0.229100 0.229100 0.229100 -0.229100 -0.229100 -0.229100 -0.229100 0.229100 0.229100 -0.229100 0.000000 -0.229100 0.229100 0.229100 0.000000 0.000000 0.000000 -0.229100 0.229100 0.229100 -0.229100 0.229100 0.000000 -0.229100 0.229100 0.229100 -0.229100 -0.229100 0.229100 0.229100 0.229100 -0.229100 -0.229100 0.000000 0.229100 -0.229100 0.000000 -0.229100 0.000000 -0.229100 0.229100 0.000000 0.000000 0.000000 0.229100 0.000000 0.000000 0.000000 -0.229100 -0.229100 0.000000 0.000000 0.000000 -0.229100 0.229100 0.229100 0.229100 -0.229100 -0.229100 0.000000 -0.229100 0.229100 -0.229100 0.000000 -0.229100 0.000000 -0.229100 -0.229100 0.229100 0.229100 0.000000 -0.229100 -0.229100 0.229100 0.229100 0.000000 -0.229100 0.000000 -0.229100 -0.229100 0.229100 -0.229100 0.000000 0.000000 0.229100 0.000000 0.000000 -0.229100 0.000000 -0.229100 0.000000 0.229100 -0.229100 0.000000 0.000000 0.229100 0.229100 -0.229100 0.229100 0.229100 0.229100 0.229100 0.229100 0.229100 -0.229100 0.229100 0.229100 -0.229100 0.000000 0.229100 0.229100 0.000000 -0.229100 0.229100 0.000000 0.000000 0.000000 -0.229100 0.000000 0.229100 0.229100 -0.229100 0.000000 0.000000 0.000000 0.229100 0.000000 0.000000 0.000000 -0.229100 0.000000 0.000000 -0.229100 0.229100 0.000000 0.000000 -0.229100 0.229100 0.000000 -0.229100 -0.229100 0.229100 0.229100 0.229100 0.000000 0.229100 0.229100 0.229100 0.229100 0.229100 0.229100 -0.229100 -0.229100 -0.229100 0.000000 0.229100 -0.229100 0.229100 -0.229100 0.229100 0.000000 -0.229100 -0.229100 0.000000 0.000000 -0.229100 0.000000 -0.229100 -0.229100 -0.229100 0.000000 0.229100 -0.229100 0.229100 0.000000 -0.229100 0.000000 0.229100 0.229100 0.000000 0.229100 0.229100 0.229100 0.000000 -0.229100 0.229100 0.000000 -0.229100 0.000000 -0.229100 -0.229100 -0.229100 -0.229100 0.000000 0.229100 -0.229100 0.000000 0.229100 0.229100 0.229100 0.000000 -0.229100 0.229100 0.000000 0.000000 -0.229100 -0.229100 0.229100 -0.229100 0.229100 0.229100 0.229100 0.229100 0.229100 0.229100 0.229100 -0.229100 -0.229100 0.000000 -0.229100 0.000000 0.229100 -0.229100 0.229100 0.000000 0.000000 0.000000 0.229100 0.229100 0.000000 0.000000 0.000000 0.229100 -0.229100 0.229100 -0.229100 -0.229100 0.000000 0.229100 0.000000 0.229100 0.000000 -0.229100 -0.229100 -0.229100 0.229100 0.229100 0.000000 -0.229100 0.229100 0.229100 0.229100 0.229100 0.000000 0.000000 0.229100 0.229100 0.229100 0.229100 -0.229100 -0.229100 0.000000 0.229100 0.229100 0.229100 0.229100 0.000000 -0.229100 -0.229100 -0.229100 -0.229100 -0.229100 -0.229100 -0.229100 0.000000 -0.229100 -0.229100 0.229100 -0.229100 0.000000 -0.229100 0.000000 0.229100 0.229100 0.229100 0.000000 -0.229100 0.229100 0.000000 0.229100 0.229100 0.229100 -0.229100 -0.229100 -0.229100 0.229100 0.229100 -0.229100 0.229100 -0.229100 0.229100 0.229100 0.000000 -0.229100 -0.229100 0.229100 -0.229100 0.000000 0.000000 0.000000 -0.229100 0.000000 -0.229100 0.229100 0.229100 0.229100 0.000000 0.000000 -0.229100 0.000000 0.229100 0.229100 0.000000 -0.229100 -0.229100 0.229100 -0.229100 0.000000 0.229100 -0.229100 0.000000 -0.229100 -0.229100 -0.229100 -0.229100 0.229100 0.229100 0.229100 0.000000 0.000000 0.229100 0.229100 0.229100 0.229100 -0.229100 0.229100 -0.229100 -0.229100 0.229100 0.229100 0.229100 0.000000 -0.229100 0.229100 0.229100 0.000000 -0.229100 0.000000 0.229100 -0.229100 0.229100 0.229100 0.229100 0.000000 0.000000 0.000000 0.000000 0.229100 0.229100 -0.229100 0.229100 0.000000 0.229100 0.000000 -0.229100 0.229100 0.000000 -0.229100 0.229100 -0.229100 -0.229100 0.000000 0.000000 0.000000 -0.229100 -0.229100 0.000000 0.229100 0.000000 0.229100 0.000000 0.229100 -0.229100 0.000000 0.229100 0.229100 -0.229100 0.229100 0.000000 -0.229100 -0.229100 0.229100 0.229100 0.000000 0.000000 0.229100 0.000000 0.229100 0.229100 0.000000 -0.229100 -0.229100 0.229100 -0.229100 -0.229100 0.229100 -0.229100 0.229100 0.229100 0.229100 0.000000 0.000000 -0.229100 -0.229100 -0.229100 0.000000 0.000000 0.229100 0.000000 0.229100 0.229100 0.229100 -0.229100 0.229100 0.000000 -0.229100 0.000000 0.229100 0.229100 -0.229100 0.229100 0.229100 0.000000 0.000000 -0.229100 0.000000 0.000000 -0.229100 0.000000 0.229100 -0.229100 -0.229100 -0.229100 0.000000 -0.229100 -0.229100 -0.229100 0.229100 -0.229100 0.000000 0.000000 0.000000 0.000000 -0.229100 -0.229100 -0.229100 0.000000 0.229100 -0.229100 0.000000 0.229100 -0.229100 -0.229100 -0.229100 0.000000 0.000000 0.229100 0.000000 -0.229100 0.000000 0.000000 0.229100 0.000000 -0.229100 -0.229100 0.000000 0.229100 0.229100 0.229100 -0.229100 0.000000 0.229100 -0.229100 -0.229100 0.000000 -0.229100 -0.229100 -0.229100 0.229100 0.229100 0.000000 0.229100 0.000000 0.229100 0.229100 -0.229100 -0.229100 0.229100 0.229100 0.000000 -0.229100 -0.229100 -0.229100 