-0.308000 0.567600 0.407700 0.149000 -0.408100 0.024500 -0.247100 0.467800 -0.837800 0.470500 -0.442300 0.858200 0.398100 -0.986300 -0.792500 0.265800 0.583900 0.220400 -0.982700 0.933300 -0.717600 0.728300 -0.132400 -0.300200 -0.426600 -0.931300 0.996000 -0.117600 0.134700 0.973600 -0.136800 0.769700 0.597200 -0.621000 0.033500 0.136700 -0.515300 0.085500 0.279300 -0.274400 -0.237000 -0.342200 -0.652400 0.581000 0.426600 0.077300 0.804300 0.048200 0.119500 0.753600 0.176100 0.529900 -0.977100 0.205100 -0.648300 0.477700 0.105200 0.034900 -0.575400 0.310900 0.333000 0.532400 0.329100 -0.913100 0.857600 -0.398000 0.537000 -0.601800 -0.342100 0.818100 0.274000 -0.907400 0.411600 0.650000 -0.496600 -0.277600 0.285700 -0.493700 0.381800 0.490000 0.731100 -0.177700 -0.008800 0.778000 -0.999400 -0.160600 -0.361500 -0.589300 0.568100 0.281000 -0.123300 0.607800 -0.257300 0.793900 -0.224000 -0.767100 0.158500 -0.103900 0.279100 -0.622800 -0.665700 -0.732800 -0.464800 0.239900 -0.999100 -0.554400 0.397500 -0.597800 0.179700 0.179000 0.330700 -0.652800 0.029600 0.214200 -0.178600 -0.243400 0.997100 0.438800 -0.332900 -0.258200 
