-0.016444 -0.122400 0.035067 -0.011496 0.031194 0.038428 0.100340 0.098858 -0.084933 -0.123640 0.108940 0.049143 0.131150 -0.012749 0.045734 -0.097144 0.019272 -0.052825 0.075608 0.062305 0.005119 -0.123730 0.006486 0.060739 -0.049357 -0.081267 0.110630 -0.101880 -0.001489 -0.085878 0.157260 -0.047830 -0.066254 0.101380 -0.150470 0.060289 0.011465 -0.042115 0.031793 -0.021969 0.073141 -0.174530 0.032120 0.075555 0.059892 0.109940 -0.059177 0.033708 -0.055697 -0.079837 -0.031150 0.104640 0.023995 -0.029979 0.078870 0.060821 0.062230 -0.042074 0.021411 -0.026111 -0.039972 -0.066237 -0.170460 0.089378 -0.059019 0.064907 -0.063408 0.047551 0.086101 0.034855 0.024805 -0.020677 0.107640 -0.140560 -0.065085 0.171200 -0.046606 0.006097 0.025695 -0.000395 0.120130 -0.011253 0.038203 0.126070 -0.058353 -0.065357 0.074628 0.097976 -0.099546 0.018638 -0.007641 0.036981 0.035803 0.009116 0.077079 0.057826 -0.002341 -0.011802 -0.070283 0.019089 -0.004084 -0.027028 -0.087941 0.015527 0.005024 0.008364 0.023696 0.028150 -0.147780 -0.033228 -0.136330 0.122880 -0.122650 0.127450 -0.140680 -0.075103 0.018341 -0.018557 -0.098756 -0.155950 -0.007102 0.038733 -0.080792 0.021367 -0.015424 -0.112590 -0.000635 0.090072 0.033428 0.095146 -0.013009 0.000528 0.072643 0.038491 0.021874 -0.024876 0.023748 -0.020494 -0.176680 0.006276 -0.104040 0.058719 0.060396 0.002852 0.055841 0.047974 0.073940 0.011781 -0.024238 -0.119630 -0.053090 -0.051532 0.044625 0.012269 -0.110920 0.076094 0.180940 0.017209 -0.091561 0.168980 -0.047078 0.097938 -0.042740 -0.079485 0.071539 0.028285 0.050047 -0.077510 -0.061829 0.043123 0.125750 -0.076394 -0.131480 0.069174 0.027212 -0.067063 0.019009 -0.042627 -0.070859 0.111900 -0.041642 -0.021266 0.020577 -0.049906 -0.050262 0.121920 -0.001611 -0.043794 0.074503 -0.080280 -0.059768 -0.045171 -0.030778 -0.000518 -0.088256 -0.007932 -0.074633 -0.005244 0.008025 0.138730 0.022434 0.026753 0.087015 -0.051818 -0.011773 0.028104 0.027192 0.170960 -0.028724 0.118440 0.002012 -0.019823 -0.066811 -0.014090 -0.123980 0.018367 0.043817 0.094552 0.021536 -0.029602 0.080565 0.059599 0.022554 0.014743 -0.021605 -0.001447 -0.054616 0.020856 -0.026833 0.149950 -0.008982 -0.015535 -0.006048 -0.099098 0.004080 0.081302 0.099245 0.069110 0.090038 0.049756 -0.044261 -0.049007 -0.009669 0.031940 -0.144580 0.077302 -0.061622 -0.013688 -0.049021 0.067737 0.062983 -0.000226 0.017558 0.115440 -0.000178 0.136290 0.080461 0.004917 0.077666 -0.089859 -0.054359 -0.005802 -0.058049 0.070703 -0.078943 -0.111770 -0.017543 0.079972 -0.070152 0.102470 -0.051776 -0.038228 -0.015817 0.045003 -0.068399 -0.042631 -0.117720 0.011698 0.101110 -0.012969 0.227740 -0.064561 0.039586 0.079554 0.086556 0.034530 -0.071514 0.036141 -0.039239 -0.010488 -0.081089 0.014969 -0.046045 -0.034351 -0.028448 0.024814 0.040509 -0.074662 -0.074343 -0.015644 0.080991 0.072635 -0.047687 0.156870 -0.034481 -0.084937 -0.061276 0.051144 -0.050086 0.046234 -0.030092 -0.161700 0.005721 -0.060428 -0.005670 -0.051653 0.028361 -0.066136 -0.045770 -0.023554 -0.075719 -0.057374 -0.007554 0.023508 -0.040132 0.041547 -0.002986 0.030583 -0.121120 0.088427 -0.089349 0.045774 -0.115360 0.108160 0.133090 0.059371 0.067846 0.005197 0.018861 -0.023299 -0.001948 0.043298 0.038493 -0.003420 -0.058011 0.157570 -0.055673 0.008990 0.033666 -0.134810 -0.037730 -0.040246 -0.047565 0.048220 0.001415 0.014577 -0.069460 -0.050323 0.077005 -0.063446 0.014174 -0.037940 -0.115950 -0.003276 0.039912 0.032236 0.057180 -0.023667 -0.123280 -0.053989 0.113350 -0.021164 0.066909 -0.142240 0.082277 0.059366 0.020781 0.102710 0.003436 -0.042678 -0.145150 -0.048912 -0.012200 -0.014116 -0.031415 -0.024217 0.002495 -0.062289 0.031698 0.044876 0.031674 -0.094493 -0.060620 0.070393 -0.044290 -0.042528 -0.097557 0.017906 -0.101320 -0.010701 -0.076516 -0.063265 -0.017053 0.013904 -0.069956 -0.021785 -0.039403 -0.068497 0.004060 -0.178460 -0.146930 0.046278 -0.039998 -0.042612 -0.051758 0.035537 0.031955 -0.037251 0.061076 0.023314 -0.031670 -0.053002 0.029026 0.030672 0.038309 0.002510 0.012462 0.000470 0.018353 0.045821 0.080565 -0.066711 0.021220 0.114520 0.071341 0.100770 -0.007147 -0.026164 -0.141420 -0.002378 0.059041 -0.001613 0.012455 0.094093 0.101680 -0.068802 0.041344 0.014377 0.015984 0.012170 0.106620 -0.029566 -0.077032 0.025384 0.084836 -0.083650 -0.006665 -0.054254 0.107090 0.058028 -0.115970 0.033368 0.109980 0.017921 -0.070861 0.011128 0.068374 0.026253 0.150740 -0.184390 -0.006409 -0.040419 0.004490 0.046896 -0.077220 -0.017593 -0.206270 -0.011918 0.151990 -0.024616 0.038075 0.014161 0.141670 -0.026453 -0.014888 -0.086998 0.030606 0.067439 0.040269 -0.025282 0.004941 0.068763 -0.073091 -0.136330 -0.081157 -0.074211 0.060734 -0.068663 0.013627 0.046988 0.139190 -0.012339 0.033606 -0.069951 0.019966 0.001156 -0.078084 0.031941 0.151160 -0.077374 -0.166250 0.046712 0.132740 0.062840 -0.022167 0.007786 -0.035628 0.056946 0.016741 -0.195460 -0.064011 0.013536 -0.010673 0.116870 -0.131390 0.065472 -0.090528 -0.079091 -0.007529 -0.039633 0.080135 0.005678 -0.084660 0.131410 -0.106900 -0.149860 -0.116400 -0.084933 -0.043474 -0.122200 -0.001275 0.050182 0.101610 0.139220 0.052578 -0.128510 -0.090383 -0.048214 -0.023350 -0.086721 -0.012965 -0.018981 0.034352 0.027235 0.034257 -0.072365 0.075729 0.002716 0.009286 -0.115600 -0.047280 0.003075 0.000340 -0.047889 -0.076526 0.070699 -0.047430 0.204950 0.045247 0.072764 -0.064044 -0.051268 -0.153210 -0.079285 0.044405 -0.004763 -0.010711 -0.033307 0.040167 -0.000501 -0.034456 -0.097505 -0.079713 -0.022892 0.107890 -0.097528 -0.045013 -0.029098 -0.051817 0.082048 0.018238 0.013788 0.076381 0.001321 0.132120 0.045717 0.045222 -0.083257 -0.109860 -0.023701 0.034105 0.015358 0.094404 -0.082336 0.121090 -0.146810 0.049215 0.018854 -0.031884 0.203840 0.094786 0.065849 0.030530 -0.073722 -0.018792 -0.098209 -0.134700 0.011497 -0.049509 -0.012061 0.053121 -0.008844 0.077762 0.014043 0.099524 -0.054469 0.041732 0.014490 0.150200 -0.056998 0.032246 0.061694 0.015043 0.007002 -0.012451 0.089289 0.064588 0.047542 0.094815 0.023550 0.009511 0.050207 0.039406 -0.052162 0.104940 0.021913 -0.131940 0.055740 -0.023821 0.068123 0.129380 -0.076181 -0.016309 0.044291 -0.135720 -0.087502 0.062546 -0.028278 0.064434 -0.083960 -0.073734 -0.110350 0.060284 0.069817 0.006093 -0.053593 0.046108 0.022264 0.021925 0.011016 0.113620 -0.022599 -0.021250 0.027469 0.021777 -0.099087 -0.057608 -0.067252 -0.018837 0.085527 0.057376 -0.088521 -0.024911 -0.174720 0.006254 0.029035 -0.021300 0.086046 -0.108380 0.050544 0.045745 -0.068508 0.040493 0.094483 -0.048863 0.063266 0.034405 0.049951 -0.093189 -0.027074 -0.204030 0.007020 -0.138310 -0.057275 0.171270 -0.105110 0.054579 0.040987 -0.065112 0.169430 0.044626 0.023888 0.052223 -0.039008 0.073568 0.034284 0.147300 -0.046726 -0.012479 -0.014149 -0.103060 0.009296 -0.034100 -0.057544 -0.027243 0.084397 -0.101510 0.062923 0.054028 0.028466 -0.098675 -0.054822 -0.001545 0.090275 -0.037280 -0.024090 -0.024115 -0.061927 0.076887 0.080874 0.014879 0.000526 0.070033 -0.043798 -0.012953 0.045006 0.100750 -0.087508 -0.039484 -0.100800 0.070013 -0.104460 0.008135 -0.023999 0.015504 -0.097573 0.138900 -0.044430 -0.002291 -0.062298 -0.034905 -0.026456 -0.008152 -0.010088 0.032340 0.041294 0.092329 0.053656 -0.044377 0.112760 -0.062263 -0.056899 0.114630 -0.075181 0.042286 -0.073307 -0.208460 0.131360 0.085498 -0.016844 0.013532 0.046012 0.017172 0.020993 0.059814 -0.008211 0.069835 -0.048554 0.223260 -0.089676 -0.107880 -0.125620 0.127650 -0.012443 0.062285 0.056050 -0.072277 0.013778 -0.028347 -0.002578 0.058218 0.127240 0.003984 -0.192030 0.061288 -0.013331 -0.023371 0.080150 0.036517 -0.115560 0.062646 -0.131590 0.096323 0.049748 -0.048671 0.139680 0.121890 0.007866 0.012749 0.067384 0.074335 0.027190 0.004853 -0.096914 0.050602 -0.124500 0.106600 -0.071693 -0.079328 0.177800 -0.038987 -0.037905 0.041510 -0.061512 -0.114290 -0.120640 0.119460 -0.014620 0.148290 -0.106150 -0.120370 -0.063922 0.000714 -0.103900 -0.066333 0.122960 0.053754 -0.061426 -0.053325 -0.087180 -0.050796 0.034235 -0.050170 0.019354 -0.127900 -0.034164 -0.075999 0.028635 0.071842 0.208120 0.001081 -0.032553 0.096671 -0.060946 0.039050 0.037654 0.037254 0.045985 -0.092647 -0.064730 0.003494 -0.066560 0.155160 -0.077949 0.013026 -0.112300 -0.089825 -0.026418 -0.005994 -0.000917 -0.166800 -0.021885 -0.007930 -0.116300 -0.068507 0.037684 0.045003 -0.072569 -0.017457 0.035253 0.039367 -0.078973 -0.014759 0.038078 -0.006058 0.032995 0.005870 0.068035 0.132100 -0.190780 0.004535 0.036324 -0.050036 0.113320 -0.182500 0.061416 0.085480 -0.020904 -0.102970 -0.030508 -0.094293 -0.029255 -0.007884 0.013539 0.158550 0.034481 0.059723 0.024423 0.148080 0.035764 -0.092237 0.070470 -0.065915 0.002179 0.066821 -0.087476 0.016298 0.055736 0.039940 0.014918 0.086083 0.026398 -0.010045 0.129300 0.034428 0.111960 -0.098222 0.036408 0.111330 0.041287 0.120030 0.027394 0.054587 -0.048416 0.100010 0.002659 0.168600 -0.123610 -0.146170 0.013911 -0.100790 -0.034119 -0.018942 0.153990 0.028448 0.033951 -0.027288 -0.009988 -0.002030 -0.117220 -0.105480 -0.033631 -0.131820 -0.065473 -0.047940 0.017795 -0.142990 -0.195960 -0.018437 0.005114 0.040353 -0.069719 0.027570 -0.044678 -0.043337 -0.021109 0.030722 0.009113 -0.006245 0.008194 -0.011510 -0.060496 0.103360 -0.138870 0.072665 0.024276 0.065012 -0.049245 -0.098899 -0.081675 0.012941 -0.039535 -0.003056 0.024067 0.032054 0.041606 -0.044477 0.034079 -0.065635 0.108080 0.036441 -0.068422 0.024735 -0.051266 0.004506 0.035917 -0.038945 0.033485 0.135150 0.014899 -0.039255 0.021004 -0.084747 -0.000822 -0.089775 -0.063999 0.017476 0.075064 0.016865 0.064530 0.013045 0.117680 0.033798 -0.103840 0.032159 0.030478 -0.045595 -0.046498 0.149110 -0.010369 -0.058371 0.051113 -0.084369 -0.040307 0.047945 0.040172 -0.038706 0.019214 0.154450 0.015097 -0.028319 -0.047154 -0.058216 0.008141 0.034312 -0.094392 0.048572 0.134200 0.048655 -0.052618 0.062462 0.100950 -0.147380 -0.025237 -0.087359 -0.012892 0.048628 -0.091957 0.017499 -0.099557 -0.073819 -0.031034 0.144690 0.129610 -0.140890 0.077190 -0.058651 -0.044348 -0.007983 0.013020 -0.073045 0.011299 0.098054 0.045931 0.055183 0.057147 -0.152470 0.105400 0.219790 0.050849 -0.193280 0.004475 -0.062385 -0.136600 -0.041743 -0.118700 0.049905 0.010770 -0.097323 -0.062856 -0.031423 -0.035386 -0.043378 -0.054896 -0.070999 0.032219 -0.043452 -0.001192 0.026701 0.017452 0.005506 -0.044608 0.024166 -0.004770 0.076974 -0.026831 -0.040932 -0.042278 0.030548 0.004419 -0.024238 -0.028351 -0.048871 -0.029440 -0.004113 -0.083906 -0.159180 -0.112610 0.048067 0.121590 0.114340 0.097497 0.065998 0.004934 0.056930 -0.068898 0.023725 -0.001712 -0.057447 -0.058711 -0.029370 -0.032389 -0.007598 0.070032 0.056016 -0.108810 0.022715 0.081354 -0.003159 -0.004251 0.064250 -0.101100 0.013877 0.069403 -0.027301 0.060995 -0.039414 -0.084198 -0.036438 0.080407 0.079412 0.094795 -0.076142 -0.062977 0.049860 0.082769 -0.012502 -0.095403 0.018755 0.024172 -0.004359 0.126720 -0.066264 -0.013683 0.071264 -0.062706 0.005770 -0.014606 -0.111260 0.067902 0.004956 -0.001746 0.094026 0.130450 -0.040411 0.052276 0.188280 -0.080154 0.049238 0.089724 0.006030 0.005444 -0.108120 -0.015748 0.084633 0.017828 -0.005410 -0.023150 0.045697 -0.115060 0.047497 0.027748 -0.183880 0.045984 -0.093261 0.044663 0.009213 0.080251 0.011313 -0.163350 0.056383 -0.049008 -0.021950 -0.154860 0.102910 -0.129650 -0.281320 0.030205 0.386170 0.021993 0.604180 0.055604 -0.031085 -0.559150 0.046279 0.056972 0.113620 -0.015659 0.118970 0.046154 -0.117300 0.161000 0.035191 -0.184700 0.068674 0.049639 -0.176140 0.220240 -0.132150 -0.016405 0.081643 -0.059175 0.162900 -0.591860 -0.139510 -0.155090 0.111800 -0.422420 -0.165800 -0.114110 -0.156150 -0.017671 0.060632 -0.012293 0.097060 -0.051770 -0.085762 -0.089292 0.151370 -0.195970 -0.136400 0.007984 0.200180 0.025566 0.149730 -0.068415 -0.110300 0.163140 -0.006616 -0.007959 -0.084946 -0.065331 -0.132400 0.086206 -0.035266 -0.257160 0.026447 0.301140 -0.071156 0.366630 -0.093215 0.191440 0.186470 0.232620 -0.089884 -0.218840 -0.121180 0.046226 0.066362 0.348100 -0.035355 -0.039667 -0.088478 -0.090072 0.120180 -0.054314 0.214570 0.043666 0.143310 -0.135110 -0.560020 0.089445 -0.026234 -0.019792 0.225510 0.134280 0.020495 -0.070825 -0.020378 -0.121840 0.088794 0.028690 -0.013848 -0.038775 -0.034045 0.027634 -0.088743 0.037713 -0.085741 0.163210 -0.016185 0.081007 0.044132 -0.107410 0.003682 0.040989 -0.008113 0.070112 0.082921 0.056190 -0.089616 -0.117640 -0.036249 0.077720 0.054604 0.137600 0.064911 -0.098951 -0.048242 -0.022356 -0.046983 -0.054888 -0.064183 -0.056276 0.061189 -0.048431 0.015333 -0.022239 0.081676 0.087771 0.025360 0.037691 0.036726 -0.024941 0.066476 0.055452 0.110550 -0.086436 -0.011948 0.032082 0.088871 0.194220 0.068749 0.052544 0.216060 -0.002804 0.014924 -0.004244 0.054630 -0.100750 -0.043962 0.071639 -0.047852 0.023552 0.047065 -0.027548 -0.034326 0.102710 -0.003283 0.042603 0.065333 0.052161 -0.034715 -0.163070 -0.030381 -0.025694 0.052517 0.008013 -0.092184 0.109790 -0.097074 0.072941 -0.059858 0.027320 -0.079384 0.020790 -0.038657 -0.062866 -0.004825 0.025550 0.116610 0.040453 0.035975 -0.036599 0.225500 0.029805 0.046112 0.028063 0.024072 -0.032564 -0.024479 0.041994 -0.065153 0.123910 -0.022989 -0.079735 0.041428 0.018428 -0.040201 -0.131880 -0.042233 -0.029609 0.025202 0.009147 -0.033119 0.104750 -0.145090 0.056548 0.060622 -0.171170 0.047491 -0.087908 -0.044477 0.002566 -0.011844 -0.060996 0.015493 0.112020 0.005833 0.032418 -0.014349 0.065821 -0.018764 -0.075585 0.019055 -0.081385 0.100280 -0.023979 0.100540 0.017627 0.158440 0.004522 0.169370 -0.018571 0.060760 0.096067 0.067067 0.054090 0.093421 0.008856 -0.019706 -0.081039 -0.015159 -0.050275 0.082082 -0.084447 -0.033933 -0.116920 0.029487 0.141260 0.107770 -0.011595 -0.002344 0.025916 0.037175 0.062019 0.062745 -0.102680 0.014137 -0.156360 0.013142 -0.064382 0.079715 0.091343 -0.085456 0.044985 0.089443 0.003570 0.066813 -0.043165 -0.022521 -0.041572 0.039257 0.088907 0.007181 -0.059148 -0.059912 -0.083756 -0.057209 0.107980 0.067616 0.084556 -0.091004 0.014068 -0.058410 -0.029626 -0.056006 0.177890 -0.011188 0.060364 -0.149460 -0.001860 0.027058 0.120060 -0.006463 0.058154 0.041807 0.028196 0.072614 -0.037278 -0.055639 -0.066966 0.101650 -0.017552 0.023798 -0.056972 -0.022917 -0.048635 -0.011085 0.083942 -0.012411 0.083897 0.047846 0.014307 -0.052977 0.158040 0.088930 -0.010517 0.094180 0.039517 -0.014051 0.095944 0.013702 -0.224260 0.162000 0.019819 -0.097155 -0.159830 0.024837 0.112960 -0.013223 -0.010288 -0.088588 0.059542 0.008808 -0.237150 0.068890 -0.048131 0.134600 -0.014171 -0.036751 -0.026506 0.016572 0.007833 0.016044 -0.058284 -0.023957 -0.084990 -0.001610 -0.029249 -0.055956 -0.120960 -0.107380 0.054322 -0.113170 -0.112520 0.044438 0.025244 -0.056261 -0.039106 0.024327 0.007407 0.140380 0.025887 0.005063 0.061887 -0.063755 0.075338 0.071781 0.133020 -0.034495 -0.040910 -0.019369 0.079167 -0.006731 -0.014759 -0.050561 0.039588 -0.005955 0.082449 -0.037090 -0.134220 0.014110 -0.066207 -0.046532 0.034656 -0.030432 -0.006953 -0.050396 0.021839 0.028899 0.083311 0.127530 -0.073463 -0.020921 -0.115560 0.059712 -0.031301 -0.074128 -0.173750 -0.040524 0.042745 0.139620 0.085020 0.075320 0.069283 0.034121 0.014999 0.127990 -0.025112 0.008322 -0.007770 0.053901 -0.128960 -0.009573 -0.017319 0.090038 0.012277 0.031963 -0.056896 -0.005599 0.010045 0.009667 0.036313 0.022610 0.053694 0.006105 -0.052127 0.046577 0.056116 0.097098 0.151700 0.133590 0.051156 0.035667 0.003588 -0.011064 -0.037156 0.022191 0.138090 0.183090 0.027848 0.054893 0.104810 -0.082768 0.134290 0.039327 -0.140600 0.042658 0.084351 0.136960 0.167770 0.072688 0.016109 -0.002860 0.005745 0.134880 -0.033139 0.079345 0.022582 0.028340 -0.077114 0.046755 0.083212 0.030561 -0.114520 -0.146560 0.001835 -0.046457 -0.002583 0.025612 -0.129480 0.024758 -0.033855 -0.083393 -0.070106 0.172900 -0.010925 -0.057721 -0.193990 0.023373 0.093334 0.070655 0.070682 -0.147230 0.067069 -0.117900 0.033976 -0.017885 -0.010223 0.020168 0.046485 0.058755 0.102510 -0.004275 -0.055245 0.004283 0.026412 0.013630 -0.008662 0.049778 0.022614 0.043190 0.085775 0.008483 0.091564 -0.103710 -0.089957 -0.011192 0.034331 0.162730 0.096274 0.071661 -0.038359 0.191040 -0.010669 -0.025667 0.163040 0.034876 -0.039361 -0.012533 -0.089957 0.026870 0.108490 -0.017158 0.044747 0.076449 -0.107040 0.036296 -0.030485 -0.145070 -0.124000 0.014740 -0.000808 0.164730 -0.001757 -0.085379 0.003437 -0.021226 -0.047948 0.023224 0.015246 -0.113070 0.051553 -0.015339 -0.092211 0.048287 -0.047845 -0.008980 -0.043330 0.068321 0.001471 -0.018826 -0.037713 -0.006159 0.061493 -0.011499 -0.075712 -0.087571 0.081134 -0.042715 -0.008219 0.139140 -0.132150 -0.120730 -0.038004 0.042416 -0.113590 0.035517 0.009513 0.009520 -0.047441 -0.003665 0.134740 -0.049536 0.024761 0.079223 0.034959 -0.048288 -0.159940 -0.009781 -0.054877 0.024659 0.080465 -0.040615 -0.013401 0.123200 -0.030362 -0.139000 -0.012132 -0.019789 -0.011932 0.085834 -0.034929 0.059325 -0.086488 -0.094720 0.078422 -0.090932 0.056086 0.051637 -0.062107 0.154950 -0.057288 -0.025336 -0.113340 0.080045 -0.056797 -0.012974 -0.063111 -0.036282 -0.072782 -0.103280 -0.019259 0.004708 0.018649 -0.010009 -0.015856 -0.056489 0.034611 0.109010 -0.060726 -0.035762 -0.069113 -0.126530 0.153320 -0.043782 0.055915 -0.015012 0.020096 0.010139 -0.016448 -0.025512 0.130400 0.020466 0.135240 0.016888 -0.058327 0.041233 -0.199610 -0.020168 -0.085563 -0.041424 0.012100 -0.000262 0.012186 0.047633 -0.026291 0.003560 0.128640 0.159120 -0.033569 0.161890 0.010413 -0.069808 -0.050686 -0.022655 0.035452 -0.034965 0.061037 0.060738 0.069324 -0.082156 0.068859 -0.127700 -0.008558 0.020350 0.018900 0.057807 -0.061963 -0.111340 -0.074641 0.036956 -0.028196 0.125110 -0.080644 -0.068981 -0.079515 0.031004 -0.025536 0.060197 0.018953 -0.075050 0.031880 0.088173 -0.117800 -0.046949 0.027031 -0.203270 -0.049454 -0.099698 -0.018959 0.006675 -0.009071 -0.144680 -0.065299 0.033014 0.138120 0.003936 0.027051 0.034257 0.028815 0.015009 0.003164 -0.031648 -0.003138 0.009246 0.032757 -0.061802 0.123280 0.089145 0.026217 0.084035 0.002486 -0.059049 -0.073819 0.012113 0.149270 0.056761 0.031680 -0.034772 -0.015541 -0.011149 0.054230 -0.082614 -0.004677 0.141690 -0.116270 -0.070504 0.118260 0.064503 -0.037370 0.018399 -0.024194 -0.019096 -0.016704 -0.001971 0.111770 -0.161770 0.036388 -0.076331 0.072374 0.112410 0.011014 -0.084480 0.080300 0.030453 0.018465 0.126180 0.061960 -0.022322 0.170730 -0.109470 -0.087106 0.148300 0.064736 0.025926 0.035785 -0.117620 -0.017518 0.078736 -0.121330 -0.039660 0.023676 0.008316 0.013683 0.027269 -0.011279 -0.071807 0.102900 0.007225 -0.065583 -0.091060 -0.079217 -0.057319 0.144140 0.027730 0.035790 -0.060210 -0.042012 -0.004374 -0.003037 -0.079357 -0.048300 -0.092104 0.011540 0.062046 0.128440 0.095951 0.067300 -0.091629 0.048709 0.002517 -0.008982 -0.042556 0.007539 -0.001715 0.068540 0.072126 0.025532 -0.102570 -0.032262 -0.034487 -0.085275 -0.055555 -0.052660 -0.085185 0.074554 -0.018049 -0.009757 0.035201 -0.069133 -0.063253 -0.061559 -0.070234 0.081795 -0.097640 0.008576 -0.164840 -0.031387 -0.092036 -0.028838 -0.116660 0.011717 -0.065318 0.084889 0.201180 0.082028 -0.012400 0.031546 -0.013135 -0.044491 0.050998 0.057050 -0.024000 -0.066923 -0.076576 -0.038821 0.047775 -0.091941 -0.012120 0.175830 -0.027252 -0.091527 0.070906 0.070121 -0.094441 0.058801 -0.000494 -0.104370 0.071098 -0.002069 0.106320 0.121530 -0.125890 -0.082668 -0.021971 0.051318 0.095456 -0.043923 0.055487 0.123140 0.017271 -0.000325 0.032211 0.049278 -0.139630 0.013954 0.018547 -0.113250 0.190580 -0.171190 0.040352 0.093359 -0.093767 0.029412 0.008918 0.005295 0.115850 -0.003309 0.166120 0.004733 -0.005645 0.015964 0.026613 0.023363 0.088447 -0.124330 -0.021518 -0.199020 -0.045710 0.155700 -0.084414 0.098694 0.036292 -0.114900 -0.136810 -0.066030 -0.029578 0.010933 0.043715 -0.055201 -0.058919 -0.026370 -0.048763 -0.014782 0.064103 -0.030081 -0.000785 -0.105180 0.058016 -0.160700 -0.141110 0.056482 0.023649 0.027160 0.042483 0.210530 0.041947 -0.006871 -0.060443 -0.040260 -0.074732 -0.062079 -0.140200 -0.011977 -0.101050 -0.108010 0.016113 -0.065636 -0.174720 -0.112640 -0.017108 0.001236 -0.016417 0.025769 0.050069 0.153770 -0.016203 0.017480 -0.021088 -0.072673 0.057375 -0.012346 -0.050861 0.080882 -0.057478 -0.123510 0.025180 0.040266 -0.093798 0.060889 -0.074927 -0.078043 0.002399 -0.043272 -0.050685 -0.065939 0.046277 -0.006864 -0.002096 -0.015302 -0.075807 0.070619 -0.000259 0.109680 0.046161 -0.085767 -0.088478 -0.039335 0.031335 0.032018 0.082850 -0.018723 0.022042 -0.037966 0.009770 -0.013642 0.011242 0.064386 -0.047673 -0.084085 0.081088 -0.019802 0.047705 0.114880 0.022489 0.024984 0.080051 0.063333 -0.006775 0.095647 0.088354 0.044261 0.062031 -0.007445 -0.080112 -0.007379 -0.111170 -0.047165 0.066109 0.037012 -0.013369 0.041307 0.028332 -0.059473 -0.039364 -0.039191 -0.204480 -0.045812 -0.015658 0.014209 0.027289 -0.004556 0.007612 -0.015717 0.008380 -0.008472 0.053556 -0.065744 0.074675 0.042974 0.019620 -0.021591 -0.028123 -0.074202 -0.132740 0.025803 0.065492 0.079680 -0.049211 0.111820 -0.083113 -0.027371 -0.039993 0.032003 -0.024205 0.096319 -0.072649 0.113820 -0.044808 -0.032498 -0.034340 0.049242 -0.000941 0.039123 0.034695 -0.056860 -0.014037 0.012683 0.025855 0.008473 0.011648 0.026484 -0.034477 0.043430 -0.004632 0.033673 -0.047909 0.084410 0.043493 -0.003919 -0.055135 -0.042144 0.066581 0.018027 0.023701 0.026105 0.070364 -0.037072 -0.033859 -0.031119 -0.116460 0.087456 -0.108580 -0.069687 0.115810 0.047796 0.056836 -0.083239 -0.102750 0.097727 -0.141570 -0.048225 0.082683 0.043814 0.005406 0.027271 0.087929 0.049494 0.062079 0.148720 0.038623 -0.017252 -0.000895 -0.113870 -0.066923 0.063136 0.097720 0.084451 -0.102730 0.021143 0.071845 0.053657 0.140070 -0.038004 0.156430 0.018537 -0.113580 0.017660 -0.054631 0.016282 0.102470 -0.159990 -0.164410 0.036758 0.066565 0.063814 -0.040423 -0.018315 -0.019677 0.041112 -0.109230 -0.010695 0.143560 -0.058665 -0.046509 -0.094014 -0.094520 0.006602 0.036996 0.044333 -0.042393 -0.030802 -0.168040 0.039738 -0.053796 0.002112 0.040826 0.007334 0.043196 0.002148 0.033323 -0.107270 0.036556 0.027557 0.076507 -0.096665 -0.169240 -0.087279 -0.000532 -0.021697 -0.080370 0.073066 -0.008131 -0.074895 -0.019845 0.043660 0.005286 0.058359 -0.048864 -0.077022 0.005111 -0.144940 -0.054031 -0.005775 0.040925 0.067662 0.084114 -0.062602 0.019449 -0.086067 -0.032291 0.057019 -0.033030 -0.062067 -0.029165 0.076618 0.012781 0.002112 0.125680 -0.100840 -0.004967 -0.012035 0.094480 0.042869 0.012446 -0.033615 0.209540 0.031823 -0.009539 -0.067325 0.071819 -0.046009 0.036279 -0.064767 0.001143 0.048556 0.000754 0.014332 -0.080358 -0.018883 0.087645 0.007315 0.115360 0.148090 0.087244 -0.009339 -0.028180 -0.085470 0.102850 0.029690 -0.007123 0.024553 0.012985 -0.012521 0.077743 -0.009972 -0.139700 0.035078 -0.056882 -0.011025 -0.208000 0.010244 -0.150440 0.002056 0.008320 -0.033065 0.056353 -0.097293 0.119450 -0.037588 0.041575 -0.030009 0.137380 0.009324 0.033071 -0.036082 -0.097604 0.038120 -0.093881 0.004037 -0.037795 -0.007147 0.013457 0.086684 -0.024335 -0.024958 0.143490 0.011785 0.023064 -0.038443 -0.123910 -0.004928 0.132510 0.035797 0.025790 0.040469 0.050054 -0.050862 0.017896 0.026212 -0.023924 0.013297 0.046193 0.106680 -0.013234 0.026080 -0.051482 0.074821 -0.058158 0.077780 -0.061392 0.035283 0.057430 0.003777 -0.030472 -0.063929 0.001049 0.029215 0.024357 -0.052097 -0.012261 0.075106 -0.009333 -0.126480 0.008239 0.078142 -0.055348 0.072451 -0.026191 0.249340 -0.011670 -0.001038 -0.021839 -0.018702 -0.118930 0.105730 -0.132870 0.046099 0.129380 -0.040261 -0.007476 -0.164550 -0.051615 -0.024657 0.011412 0.064714 0.053213 -0.005442 0.030606 0.037693 0.078630 -0.047513 -0.113300 0.022486 0.138700 0.060248 0.028868 0.046277 -0.048795 -0.096636 -0.116510 -0.105570 0.026882 -0.052778 -0.053019 0.109640 0.022016 0.058492 0.022997 0.040991 -0.151900 0.058773 0.040766 0.005455 -0.081405 0.099546 0.135900 -0.159220 -0.097482 0.051207 -0.052058 0.093304 0.129990 -0.030246 0.021071 0.024507 0.083377 -0.068215 -0.046383 0.100880 -0.004518 -0.031521 0.006881 0.084984 0.080101 0.101620 -0.122440 0.071629 -0.026595 0.069085 0.018307 0.029076 -0.017510 -0.046379 -0.006955 -0.048623 -0.045310 0.016353 -0.097362 -0.054778 0.142340 0.069430 0.007304 -0.016502 -0.167920 0.030440 -0.064200 0.089698 0.037556 0.043481 0.007474 -0.077940 0.060499 -0.065643 0.133980 -0.183690 -0.065865 -0.131200 -0.072316 0.070802 0.098375 -0.004504 0.018755 -0.041209 -0.024998 0.069760 0.001760 0.082797 -0.073556 -0.173700 0.070757 -0.132620 0.051963 -0.053840 0.078574 0.022862 0.037232 0.014460 -0.039399 -0.089798 -0.156180 -0.031253 -0.003544 -0.116750 0.005554 0.063993 0.016388 0.036580 0.101480 0.011680 0.005215 -0.042960 0.119530 0.051279 0.111660 -0.036613 -0.002482 -0.109010 0.000474 -0.076806 -0.018861 0.026269 0.128570 0.078685 -0.071076 0.059057 -0.074877 -0.118570 0.175020 0.241320 0.137940 -0.053765 0.099378 -0.056305 -0.013107 -0.020196 0.044307 -0.079190 0.004874 0.002309 -0.160280 0.037137 -0.093298 -0.100490 0.005698 -0.085340 0.034195 0.073514 0.043053 -0.075486 -0.060901 0.028289 0.099593 0.027981 -0.021501 0.089021 0.051520 0.059935 0.043323 -0.170220 -0.057051 0.067850 -0.078398 0.074078 -0.146060 -0.063099 -0.136860 -0.179770 0.074799 0.005631 -0.038370 -0.027269 -0.022374 0.027121 -0.008497 0.036338 -0.058788 0.059635 0.007841 0.014134 -0.064302 0.120810 -0.057391 -0.053138 -0.051682 -0.108330 0.055372 0.009618 0.101000 -0.052257 0.092494 0.037626 0.133140 0.076827 -0.080435 0.136290 -0.013750 -0.065739 0.134280 -0.044395 -0.056089 0.037893 -0.032187 0.068729 0.209560 0.076453 -0.011105 -0.040769 0.146070 -0.060411 0.077931 0.035864 0.061928 -0.110150 -0.024592 -0.102400 0.002268 0.189330 -0.133230 -0.069860 -0.005106 -0.038856 0.001229 -0.041328 0.104780 0.011908 0.038134 -0.014892 -0.015256 0.023085 0.038448 0.038282 -0.094323 0.041617 -0.056071 -0.147360 -0.060857 0.048754 -0.057730 0.102960 -0.083252 0.077980 0.051297 0.048325 -0.057043 0.263220 0.079072 -0.026343 0.335440 0.096384 -0.906410 -0.351650 0.019542 -0.071775 -0.523330 -0.018436 -0.051794 -0.030142 -0.105050 0.047206 0.092208 -0.335920 0.019737 -0.050497 0.048238 0.002220 -0.012144 0.227690 0.038777 0.001299 -0.078922 0.451150 -0.110850 -0.153020 -0.011367 0.574190 0.094578 -0.063069 0.025648 0.036009 -0.061284 -0.023380 0.371590 0.040812 -0.043501 0.164820 0.106090 -0.100660 0.055382 0.163420 -0.099487 0.195390 -0.002171 -0.072386 -0.114980 -0.073244 -0.185530 0.073495 0.032037 0.193000 0.088949 -0.050505 -0.020087 -0.061996 0.038322 -0.011163 0.132910 0.088421 -0.416350 -0.083817 0.041489 0.109350 -0.111280 0.272600 0.005588 0.128350 -0.046855 0.083748 -0.071749 0.034666 -0.043003 0.106150 -0.184950 0.251300 0.123340 -0.063026 0.156340 -0.082100 0.084696 0.154060 0.151240 0.505730 0.147040 -0.067905 -0.004810 0.019973 -0.041093 0.035463 0.047692 0.024907 -0.038309 0.052151 -0.119740 -0.012178 0.214730 0.038129 0.205390 0.042208 -0.027914 -0.147670 0.045553 -0.124010 0.043579 -0.086901 0.065906 0.024609 0.095180 -0.104910 0.080962 -0.011444 -0.009330 0.079927 0.015549 0.023088 -0.021967 -0.043130 0.033315 0.121370 -0.025652 -0.062139 -0.056689 0.137620 -0.115760 0.104650 0.002110 -0.095094 -0.045075 0.164670 -0.058417 -0.040507 0.003939 0.008952 -0.008801 0.081417 -0.034339 -0.042890 -0.018737 0.010741 -0.068347 0.043897 0.117160 0.064789 -0.009594 -0.124340 -0.042768 -0.000414 0.032126 -0.002609 0.102120 0.038855 0.003086 0.077879 0.027345 -0.128110 0.064991 0.150790 0.030692 -0.123550 0.029903 -0.012481 0.096864 0.058486 -0.090560 -0.119470 0.039282 -0.071817 -0.000191 0.019041 -0.105730 0.085977 0.000717 0.037692 0.041700 -0.013046 -0.029043 -0.110330 -0.085868 0.112370 0.024654 -0.230120 -0.003596 -0.176700 0.036257 0.013770 -0.002564 -0.039054 0.056921 -0.047450 -0.015248 0.082652 -0.059593 -0.030015 -0.103170 0.043647 0.021792 0.073644 0.061443 0.223230 -0.115740 0.089732 -0.008037 0.015950 -0.078118 0.123170 -0.018006 -0.052249 0.054589 -0.101940 -0.046454 0.199150 0.049177 -0.104020 -0.067793 0.120980 0.029450 -0.083742 -0.028027 0.053576 -0.065746 0.019157 0.044582 -0.052492 0.040883 -0.062673 -0.031453 0.120100 0.002984 0.038826 -0.070027 -0.084286 -0.133790 -0.097616 -0.001545 -0.037077 -0.012456 0.128780 0.090592 -0.072407 -0.022361 0.065634 0.005241 0.062201 0.050921 -0.015988 -0.053044 0.066497 -0.088750 -0.006591 -0.046849 -0.126930 -0.010257 0.032839 -0.043635 -0.008844 -0.071137 -0.065195 0.071468 -0.034825 0.008608 -0.036388 -0.074856 -0.045699 -0.019618 0.078389 -0.006140 -0.043094 -0.059060 -0.054082 -0.014079 -0.171360 0.068136 0.116540 -0.002195 -0.072725 0.090241 0.080813 0.009460 -0.015080 -0.125070 0.064245 -0.008837 0.130430 0.068982 0.020977 -0.020601 -0.027272 0.051391 -0.002898 -0.023312 -0.024890 0.071683 0.017732 -0.080665 -0.039120 -0.118450 -0.054654 -0.045420 0.042606 0.018977 0.025819 -0.080794 0.095467 -0.171500 -0.052423 0.049640 -0.100700 0.020316 0.056452 0.027426 -0.003835 0.107360 0.083987 0.077022 0.048134 0.032182 0.075597 0.033335 0.154160 0.032704 0.094687 -0.017006 0.030672 0.033627 -0.010831 0.075429 -0.023482 0.001151 -0.024727 -0.064640 0.121560 0.024568 -0.012883 -0.028315 0.031301 -0.061854 0.093412 -0.000940 -0.008369 0.005045 -0.009144 0.076318 0.098561 0.015384 0.125060 -0.232010 0.063323 -0.025446 -0.016816 -0.031943 -0.026934 0.032082 0.038140 -0.184080 -0.142120 0.031619 0.082951 -0.056720 -0.032063 -0.150600 0.090946 -0.125840 -0.103510 -0.080972 0.240410 0.005785 -0.008831 0.124780 -0.003817 0.048127 0.014346 0.063109 -0.009319 -0.062714 0.019653 -0.116500 0.108370 0.111900 0.117720 -0.035490 0.050028 0.074505 -0.006294 0.054193 -0.087427 -0.064699 -0.157080 -0.120570 -0.087640 0.034386 0.061552 0.096710 -0.042440 -0.079038 -0.054580 0.101860 -0.021879 -0.006473 -0.052981 0.003374 -0.033989 0.022488 -0.055459 0.080979 -0.059914 -0.094689 -0.054800 -0.044111 -0.016863 0.101570 0.046391 0.033138 -0.077008 0.034604 -0.011138 0.075685 0.024706 -0.023939 -0.021892 0.035992 0.093470 0.021401 -0.020275 0.014289 0.166790 0.033344 -0.058454 -0.141980 -0.034747 -0.058211 0.031332 -0.060994 -0.076975 0.121810 -0.027737 -0.150840 0.005886 -0.006722 -0.113600 -0.083217 -0.047534 -0.037161 0.103160 0.014625 -0.021092 0.056527 0.037533 0.065605 -0.009524 0.099860 -0.019686 0.054298 0.024565 0.017281 -0.088546 0.064731 0.090437 0.041569 -0.000112 0.120120 -0.079119 -0.033016 0.059641 0.001213 -0.013720 0.039765 -0.128790 0.085756 -0.039558 0.026062 -0.086006 0.044745 -0.084249 -0.003079 0.015666 0.053916 -0.052063 0.090376 -0.025662 -0.000570 -0.092479 0.086199 -0.000550 0.009775 0.045412 -0.153820 -0.041827 -0.014294 0.002145 0.022579 0.002395 0.016174 0.029747 0.034826 -0.143750 0.028220 -0.038249 0.032371 -0.046747 0.016961 0.001198 -0.235080 -0.059611 -0.122120 0.037491 0.005826 -0.022696 0.120220 0.001388 0.057563 -0.121080 0.026529 -0.035950 0.080389 0.010841 0.017206 0.098906 -0.003570 0.179490 -0.079830 -0.032178 -0.067358 0.008893 -0.079170 0.024683 0.052734 0.086745 0.110850 -0.076556 -0.071863 -0.093229 0.050265 0.156430 0.034525 -0.023737 0.017567 -0.080799 -0.105530 -0.032472 0.060619 -0.000213 -0.061955 -0.011058 0.007793 0.097992 0.151490 0.020742 -0.026814 0.010988 -0.050036 0.037829 -0.044009 -0.039824 -0.004832 -0.006295 -0.032596 -0.056224 0.018964 -0.006967 0.041613 -0.055655 0.186690 -0.038338 -0.002220 0.025647 0.052047 0.057647 -0.082072 0.062992 0.026962 0.170400 -0.082204 0.011670 0.048204 -0.064004 -0.032146 0.018881 -0.172460 0.139320 0.121030 0.041774 0.105450 -0.058182 -0.037695 -0.048215 -0.001680 0.146420 -0.095791 -0.094715 -0.014594 0.006223 0.036800 -0.022410 0.168220 -0.110910 -0.105740 -0.009007 -0.026547 -0.071249 0.124200 -0.135330 0.027617 -0.077689 -0.009379 -0.150970 -0.108790 -0.052875 -0.005374 -0.013476 -0.047594 0.017085 0.081563 0.169200 0.070896 -0.022997 0.126910 -0.069427 -0.020458 -0.121080 0.033801 -0.000852 -0.050179 -0.101170 -0.029214 0.176180 0.032567 0.048949 0.024046 0.113740 0.030955 0.115750 -0.134010 0.018711 0.096102 0.095701 -0.073018 0.058759 0.073065 0.116610 0.088147 -0.050928 -0.013375 -0.049504 -0.003149 0.003405 0.039505 0.056584 -0.059964 0.033445 0.034005 -0.130200 -0.097076 0.085961 -0.019423 -0.035272 -0.140980 -0.157560 0.172020 -0.085323 0.075134 0.047039 -0.147320 -0.013052 -0.051367 -0.048228 0.061155 0.137000 0.135160 -0.060522 0.235290 -0.066849 0.022006 -0.019326 0.019716 -0.046656 0.001941 -0.116500 -0.022995 -0.112260 -0.035949 -0.145870 0.152520 -0.119490 -0.225030 0.052346 -0.043489 -0.008013 -0.020555 0.007611 -0.124520 -0.199000 -0.219990 0.121410 -0.015565 -0.030501 -0.002678 0.096969 -0.034354 0.036546 -0.055501 0.082342 0.018862 -0.070423 -0.069435 0.005706 0.098703 0.136490 -0.232730 -0.084222 0.175290 -0.012056 -0.025326 -0.003185 0.068609 -0.005687 0.097775 -0.023585 -0.029780 -0.032967 0.062499 0.078870 0.095272 -0.013738 0.090496 0.067359 0.080903 0.107780 -0.049180 -0.017419 -0.089491 0.050350 -0.027600 0.024381 -0.091774 -0.079059 -0.096856 -0.015286 -0.051218 -0.040315 0.019249 -0.089526 0.021395 0.116300 -0.027280 -0.047867 -0.010348 0.125680 -0.060324 0.088988 0.095257 0.095105 -0.080010 -0.011329 -0.033351 0.013047 0.091319 -0.130270 0.002081 -0.204510 -0.059766 -0.008183 -0.036831 0.046407 0.007825 -0.034922 0.084252 -0.014291 0.057651 0.013296 -0.132480 -0.109420 -0.135470 -0.053337 0.039134 0.026840 0.071770 0.033670 0.023658 0.128240 -0.051037 0.017325 -0.014573 -0.008500 0.063762 0.065760 0.057694 0.017077 -0.076514 -0.031553 0.083456 0.017967 0.071374 0.003601 -0.055221 -0.050110 0.058344 -0.084095 0.002833 0.161330 0.096694 -0.011003 0.040871 -0.176960 -0.078274 -0.149930 -0.040228 -0.079099 -0.078804 0.165970 -0.074206 0.133800 -0.004291 -0.033522 -0.019834 0.110520 0.067258 -0.028482 0.007195 -0.114720 0.006611 0.007637 -0.103780 0.027635 -0.074315 -0.027716 -0.038307 0.096153 -0.075961 -0.100520 -0.155570 0.055868 -0.001036 -0.002510 0.009989 -0.032645 -0.099507 -0.043271 -0.013716 -0.054203 -0.128920 -0.031353 -0.072782 0.089620 0.053998 -0.026347 0.088306 -0.046147 0.036242 -0.011825 0.064128 0.004584 -0.071278 -0.139220 0.053054 0.060178 -0.114470 0.005067 -0.064806 0.052268 -0.075176 -0.035094 -0.080240 -0.054140 -0.064894 0.041198 -0.085955 0.033637 -0.001638 0.006799 -0.107400 -0.067953 0.003992 -0.008685 -0.066976 0.068035 0.014580 -0.008472 -0.044054 0.062124 0.008278 0.036826 -0.046851 -0.037270 0.123450 0.156880 -0.077156 -0.051386 0.095089 -0.130400 0.078988 0.009498 0.031936 -0.006785 -0.031150 -0.051331 -0.025303 -0.041021 -0.048409 -0.109780 0.037447 0.011849 0.082222 0.066538 0.009597 -0.138420 0.019259 -0.051778 0.045169 -0.051849 -0.073071 0.017614 -0.135220 0.084102 -0.000016 -0.043861 -0.035561 0.004505 0.148500 -0.058291 0.081763 -0.026747 0.034803 0.087803 0.061719 0.081845 0.001662 0.039817 -0.131980 -0.121080 -0.043275 -0.006850 -0.019373 -0.054400 -0.002565 -0.071055 -0.079630 -0.041485 -0.135300 0.000847 0.080864 -0.020313 0.069060 -0.138750 0.068255 0.026338 -0.056065 0.127630 0.055567 0.008722 -0.134350 0.049121 -0.045821 0.093782 -0.086493 0.007719 0.011608 0.050040 -0.090362 0.043479 -0.156430 0.045769 0.052728 0.021275 -0.118060 -0.134400 -0.084500 -0.031827 0.022298 -0.041379 -0.013075 -0.058348 -0.008906 -0.107370 -0.088181 0.072017 -0.088635 0.078254 0.057971 0.017320 0.037031 0.163200 -0.145490 0.096899 0.097022 -0.140240 0.044241 -0.073575 0.016321 -0.080218 -0.018592 0.053007 0.032065 -0.018114 0.132930 0.042413 -0.101880 0.135380 -0.042073 0.006633 -0.041220 -0.002777 0.125770 -0.113170 0.164840 -0.035942 0.021201 -0.080688 0.032710 -0.002582 0.014442 0.004659 0.058187 -0.131170 0.065956 0.017048 0.039405 -0.036354 -0.022716 0.059177 -0.058314 -0.034606 0.057155 0.017290 -0.056143 -0.017239 0.029162 0.101850 0.042309 -0.023371 -0.076973 0.010960 0.073077 -0.034292 -0.085831 -0.060504 -0.017576 -0.027496 -0.015156 -0.011705 -0.040597 -0.078177 0.003358 -0.008887 -0.041029 -0.034846 -0.016818 0.033349 -0.161410 -0.106780 0.038494 0.064807 0.008007 -0.042332 -0.190810 0.068611 0.020670 -0.131730 -0.007621 -0.084852 -0.133690 0.060373 -0.008038 0.030655 -0.098689 -0.088562 0.036418 0.025136 0.061966 0.078116 0.093114 0.111770 -0.073051 -0.228260 0.091637 -0.270640 -0.255100 0.083232 0.318960 0.029756 -0.402000 -0.008802 0.672790 -0.462510 0.032966 -0.162410 -0.135400 0.099865 0.036625 -0.164080 -0.091931 0.004666 0.058319 -0.078664 0.078088 -0.194760 0.103220 -0.202110 -0.020107 -0.111470 0.091091 0.044832 0.193610 0.198650 -0.107190 -0.122940 -0.130440 -0.005574 -0.007874 0.042681 0.079380 0.016993 0.096751 0.043117 -0.394670 0.110970 0.020489 0.042162 -0.070566 0.116370 -0.297560 0.139290 0.076777 0.304430 0.153780 -0.082033 -0.042708 0.048858 0.029480 0.078881 0.143390 -0.014572 0.068985 0.025283 -0.010732 0.019880 0.023190 -0.458900 0.145220 -0.364680 0.055234 0.098583 0.079469 -0.125800 -0.123970 -0.059445 -0.014808 0.175500 0.210640 0.192560 -0.369080 -0.048051 -0.028588 -0.137470 -0.033894 -0.020714 0.060457 0.189410 0.084700 0.041611 0.034828 0.013386 0.063103 0.297230 0.121900 -0.006779 0.001676 0.134020 0.126040 0.031000 0.193600 0.029650 -0.070569 0.127480 0.124480 0.004159 0.220910 -0.065564 -0.008877 -0.076724 -0.128280 0.007086 -0.022747 0.072150 0.098251 -0.087663 0.012878 0.234960 0.058902 0.146150 -0.127180 -0.068987 -0.037674 -0.005284 0.022401 0.030722 0.009756 0.032065 -0.008111 0.035858 -0.044782 -0.061616 0.102080 -0.051569 -0.014668 0.089271 0.017628 -0.008334 0.010757 -0.165900 -0.018707 0.085069 -0.063288 -0.066182 -0.031550 0.082833 -0.077284 0.140120 0.055895 0.067348 0.051460 0.060076 -0.078023 0.062196 0.008323 0.124340 -0.025609 0.033134 0.034341 -0.076289 -0.009644 0.004664 0.052458 0.041280 0.113350 0.084402 -0.051027 -0.090596 -0.022402 0.047547 -0.040352 -0.053299 -0.011019 0.024323 -0.074794 -0.052034 0.013518 0.045194 -0.093295 0.150340 0.017817 0.023869 -0.032015 -0.044144 -0.019683 0.002321 0.108580 0.130640 -0.088033 -0.017471 0.046510 0.051241 -0.071964 -0.000183 0.024578 -0.046736 0.026437 0.120990 0.097158 -0.099991 -0.068424 0.118240 -0.015842 -0.018835 -0.010793 -0.039788 0.108210 0.031835 -0.118320 0.057690 0.025400 -0.054745 0.009844 -0.005280 -0.059416 -0.121410 0.105690 0.085127 0.011314 -0.048879 0.069422 -0.054356 0.060632 -0.062023 -0.041693 -0.069324 0.024779 -0.008393 0.174920 0.018872 -0.004730 0.115090 -0.036746 -0.097375 -0.075380 0.055111 0.032090 -0.112450 0.085287 0.022216 -0.003408 0.036446 0.106630 0.015887 -0.012469 -0.021904 -0.167090 -0.062678 -0.017896 -0.069629 -0.083447 -0.005257 -0.043179 0.038241 0.057177 -0.189850 -0.062851 -0.008609 0.002531 0.094361 0.076275 -0.127030 -0.133370 -0.117520 0.041883 0.011729 -0.056359 -0.023311 -0.082570 -0.064551 -0.059286 -0.108270 -0.074930 -0.026178 0.127490 -0.019463 0.058975 0.030002 0.145880 -0.086190 0.022317 -0.030550 -0.008382 -0.056657 -0.057283 -0.003590 -0.074905 0.053984 -0.075840 0.143530 0.156060 0.032351 -0.041184 -0.156580 0.127040 0.070480 -0.133420 0.060522 -0.013435 0.072095 0.042842 0.015722 0.240350 -0.087185 0.036594 0.028096 -0.127270 -0.064199 0.040241 -0.078280 0.026668 0.074425 0.047990 -0.071905 0.057778 -0.022080 -0.011916 0.036000 0.120590 0.006497 -0.107120 0.056496 0.032792 -0.070058 0.037845 -0.082188 0.084910 -0.102860 0.114370 -0.246930 -0.076565 0.056006 0.017439 -0.106810 0.147870 -0.080425 -0.020168 -0.080358 -0.061401 -0.093375 0.048270 -0.050787 -0.044187 -0.114410 -0.114080 -0.121680 0.013646 0.018269 0.049592 0.014395 -0.049918 -0.081474 0.061066 -0.133710 0.023797 0.021805 0.181090 -0.009264 0.038484 0.151470 -0.007895 0.030262 0.038536 0.055517 -0.079337 -0.123280 -0.010250 -0.091748 0.025089 0.114450 -0.073737 -0.141960 0.053521 -0.049530 0.000363 -0.110230 -0.169720 0.038007 0.124100 0.009269 0.024179 0.003991 -0.022153 -0.038677 0.116640 -0.051869 -0.111580 0.085561 0.033944 -0.024261 -0.035951 -0.052132 0.004262 -0.073467 0.023180 0.154300 -0.085718 0.096521 -0.052200 0.036943 0.076467 0.021437 -0.018423 0.177530 0.019042 -0.022808 -0.175190 0.024899 0.083314 0.105520 -0.009612 -0.088556 -0.056920 0.120270 0.034124 0.028305 0.055704 -0.024321 0.052721 -0.104430 0.135880 -0.001798 0.068243 0.046265 -0.163710 -0.103850 0.064795 0.009453 0.066679 0.083994 0.001438 0.112270 -0.083512 0.036711 -0.080865 -0.072065 0.049457 -0.053418 0.190300 -0.146350 -0.056598 -0.087632 0.138620 -0.048521 0.046196 -0.033197 -0.010689 0.089836 0.005917 0.011324 0.068249 -0.136300 -0.004819 -0.037734 0.020401 0.010572 0.011275 0.102080 -0.041688 0.054799 -0.077026 -0.119860 0.029108 0.002434 -0.096588 -0.031329 0.091066 -0.028024 0.145340 0.076211 0.017838 0.017572 0.114770 -0.026385 0.037610 -0.030333 -0.049469 0.089148 -0.142210 0.024929 0.020292 0.031241 0.026362 0.028412 0.019130 -0.132790 0.055768 0.117050 -0.018674 -0.123580 -0.130220 0.117200 -0.004743 -0.022999 -0.058643 -0.087757 -0.005949 -0.082513 -0.105490 0.001421 -0.009548 0.068411 0.024257 -0.043359 -0.028378 0.023722 0.038532 0.116610 0.079059 -0.007353 0.016815 -0.006856 0.147300 0.038032 -0.122770 -0.001468 0.067257 -0.003426 -0.069860 0.052286 -0.106350 -0.009343 -0.004060 -0.061981 0.007904 0.205870 0.109520 -0.087405 0.004895 -0.053952 0.072915 -0.046414 0.017178 0.055193 0.025608 -0.005779 0.050193 -0.120830 -0.050905 -0.040486 -0.157080 0.020732 -0.129410 -0.029688 -0.024011 0.093403 -0.049287 0.016128 -0.022511 -0.038215 -0.115410 0.055310 -0.019623 -0.010135 -0.013489 0.000942 -0.012744 0.031680 0.033871 -0.019553 0.037374 -0.006641 -0.111720 0.010172 -0.043947 -0.109360 -0.017307 0.085481 0.032666 0.031130 0.074611 0.005047 0.006614 -0.161760 -0.090631 -0.084163 -0.060498 -0.043472 -0.120550 0.034179 -0.001466 -0.019353 0.051557 -0.008319 0.077714 -0.031186 0.041296 -0.051259 -0.158930 0.006496 -0.006334 0.073345 -0.128060 0.055015 -0.082257 0.065339 0.095157 -0.050486 -0.091425 -0.031520 -0.083256 0.157510 0.022937 -0.024156 0.016320 0.008607 -0.064332 0.030423 0.029536 0.122490 0.035652 -0.133580 -0.039027 0.113050 0.023045 0.118230 0.033426 -0.067998 -0.026941 -0.030769 -0.035802 -0.023193 0.048306 0.024898 0.004465 -0.036262 0.059618 -0.009949 -0.118820 -0.081681 0.126710 0.108800 -0.083674 -0.034902 0.053409 0.095574 -0.043478 -0.047086 0.133530 0.038319 0.083850 0.089419 -0.097294 0.039541 0.087565 -0.040566 -0.018054 0.023497 0.083003 0.187310 -0.051723 -0.036893 0.034651 -0.104700 0.098896 -0.027893 0.086618 0.093705 -0.044413 0.029842 0.013951 -0.047470 0.008873 0.067064 -0.044071 0.067919 -0.032543 -0.016630 -0.072084 0.056548 0.046198 0.071573 -0.042524 0.021186 -0.107190 0.002489 -0.006775 -0.028897 0.012615 0.115010 -0.034824 -0.048134 -0.104930 0.096136 0.060584 0.039644 -0.042685 -0.061313 0.010456 0.009437 -0.131880 -0.004454 0.068032 0.062805 -0.074354 0.023337 0.039175 0.038096 0.016024 0.042497 -0.004855 -0.123350 -0.093195 0.002215 -0.104740 0.101640 -0.018185 0.026541 0.024590 -0.054216 -0.028895 -0.007565 -0.034609 -0.003496 -0.078147 0.067899 -0.006204 0.090172 0.004788 -0.063001 -0.073874 0.037450 0.124590 -0.190080 -0.082118 -0.120540 -0.048309 0.037815 0.123910 0.147430 0.121700 0.104120 -0.047139 0.137920 -0.119880 -0.008331 -0.015244 0.074525 -0.028182 -0.061390 -0.080466 0.101780 -0.040856 0.129500 -0.008723 -0.044730 0.001136 0.026752 -0.079399 -0.112560 0.009943 -0.013003 0.142750 0.027907 -0.014275 -0.052538 -0.126920 0.018374 0.002890 -0.082666 -0.019719 0.091427 -0.102230 -0.034241 0.000317 -0.021361 -0.043777 -0.125530 -0.020305 -0.104220 0.022134 -0.039879 -0.116890 0.095861 0.156190 -0.153790 -0.062365 -0.077329 0.018749 -0.113330 0.040555 -0.071843 0.132120 0.070279 0.077444 -0.074449 -0.077614 0.019029 -0.025234 0.006441 -0.019532 -0.021255 -0.054896 -0.036123 -0.021463 -0.004881 -0.096361 -0.005544 -0.107380 0.029200 -0.049911 0.037359 -0.033170 -0.047023 0.051391 -0.088243 0.088206 -0.002123 0.000503 0.012873 -0.108070 -0.174460 -0.021343 -0.082527 -0.120200 0.056050 0.158650 -0.080612 0.145880 -0.050267 -0.067020 -0.102550 -0.090929 -0.132980 0.054893 0.096228 0.044926 -0.025724 0.050603 -0.005430 0.099528 -0.012020 -0.133950 -0.055329 0.114280 -0.043642 0.186960 -0.011903 -0.050851 -0.176810 -0.048371 -0.042399 -0.056515 -0.031465 -0.053506 -0.040578 0.091294 -0.076327 0.021472 -0.038608 0.154300 0.147240 0.026470 -0.064323 0.047996 -0.142340 -0.046801 0.110400 -0.000989 -0.044132 0.115670 -0.014046 -0.103310 0.135310 0.096432 -0.095477 -0.110990 -0.080379 -0.049165 -0.015508 0.011475 -0.016845 0.007039 -0.090257 0.044179 -0.070129 0.052071 -0.010865 -0.077463 -0.009636 0.061626 -0.017271 -0.061515 0.077209 0.017511 0.004285 -0.145310 -0.053797 0.028699 -0.158450 0.117280 0.214500 -0.126240 -0.034673 0.062851 0.013638 0.107660 -0.141300 0.058106 0.097414 0.083789 -0.090874 0.136950 -0.028684 -0.092144 -0.057113 -0.169680 0.157880 0.029579 -0.035212 -0.043264 -0.021058 0.072473 -0.036063 0.060417 -0.016363 0.001489 -0.178910 -0.082445 0.024397 -0.023800 -0.148290 0.078389 0.093051 0.162390 -0.091101 0.095426 0.001231 -0.024983 -0.027277 -0.030893 -0.067844 -0.074171 0.036708 -0.027276 0.027290 -0.064960 0.157990 -0.086084 -0.263430 0.063427 0.008953 -0.031582 0.091206 0.010735 -0.032179 0.002481 0.065929 0.068352 -0.177290 0.097786 0.086118 -0.034783 0.084220 0.038577 -0.181790 0.137920 -0.175710 -0.012943 -0.078404 -0.008642 0.070933 0.034516 -0.003661 -0.004595 -0.059888 0.034528 0.256090 -0.157080 0.036693 0.059182 -0.012921 0.053698 0.136590 0.079012 0.174000 -0.051841 0.099466 -0.026530 -0.000469 -0.082983 -0.061455 -0.004230 -0.020701 -0.024086 -0.034466 0.080182 -0.120620 -0.025436 -0.021119 0.056143 -0.029098 -0.010651 0.102630 0.008969 -0.057831 0.032609 -0.058336 0.039183 -0.002871 -0.122510 0.054800 -0.079476 -0.072585 -0.046348 -0.079199 -0.038946 -0.081523 0.032188 -0.046759 -0.194690 -0.048807 0.038593 -0.034308 0.033315 -0.068792 -0.018330 0.002712 -0.003677 -0.008095 -0.018588 -0.131170 0.008063 0.182110 0.025183 -0.038074 -0.144860 -0.159290 0.012939 0.086961 -0.001193 0.060135 0.005467 0.084979 -0.007065 0.018337 -0.096793 0.042046 -0.197220 0.087753 0.030892 -0.044855 -0.096131 0.011604 -0.079557 0.053920 -0.059973 -0.077796 -0.058460 0.083408 0.016140 0.024077 0.020017 0.027793 0.104850 0.040508 0.191920 -0.082350 0.009708 0.076794 -0.052522 0.052579 -0.063156 0.052580 -0.089983 0.123330 0.078767 -0.026329 0.057539 0.004895 0.038943 -0.147980 -0.050101 0.087946 -0.022535 -0.003635 0.050686 0.113160 -0.056331 -0.015904 -0.009451 -0.047245 -0.026808 -0.070620 -0.062588 0.065484 -0.008705 -0.107950 0.066765 0.015030 -0.021571 -0.036722 -0.055477 0.067158 0.061218 -0.002211 0.009333 -0.017643 -0.010945 0.028764 -0.132020 -0.070789 0.017938 -0.049890 -0.026233 0.030912 0.053932 -0.084538 -0.027718 -0.026872 -0.078826 -0.063098 -0.073257 -0.007729 -0.021384 0.000019 0.070536 0.030881 0.064605 -0.105450 0.019561 0.002054 0.061803 0.010056 0.008436 0.086916 0.113280 0.081498 -0.059220 0.036342 -0.010285 0.069937 -0.013627 0.019837 -0.029796 -0.085054 -0.073198 0.033307 -0.123060 0.070818 -0.054382 0.047944 -0.040700 0.008025 0.109690 -0.053600 -0.102740 -0.119990 0.099315 0.080678 -0.008665 -0.077968 -0.006610 -0.227330 0.069517 0.051850 -0.043903 0.000924 0.016073 -0.060215 -0.066379 0.052142 0.036582 -0.081549 -0.079280 -0.101190 -0.057711 -0.024004 -0.057625 0.131270 -0.037001 0.124070 0.004525 0.038047 0.131700 0.095017 0.073145 0.020524 -0.060549 -0.117210 -0.015199 0.154830 0.064197 -0.065377 -0.015097 0.173840 -0.202210 -0.068041 -0.176500 0.115620 -0.012921 0.012605 -0.042119 -0.014894 0.094097 -0.080519 -0.004387 0.170390 0.080555 -0.012378 0.018547 0.088339 -0.008898 0.038784 0.113170 -0.045455 -0.119060 0.009853 0.075965 0.105840 -0.054538 -0.046893 0.007705 0.101980 0.049649 0.029668 -0.047535 -0.022499 -0.028477 -0.105050 -0.044087 -0.012335 -0.023521 -0.120290 0.102450 0.008589 0.023422 -0.072444 -0.071615 -0.042458 -0.012222 -0.053127 -0.096039 0.018949 -0.053438 -0.155720 0.038320 0.036078 -0.137360 0.034061 -0.027070 -0.085978 -0.079176 0.106840 0.042357 -0.043361 0.037296 -0.127440 0.153930 -0.027082 -0.046151 -0.086736 -0.015409 -0.015668 0.001353 -0.054591 0.032109 -0.075552 -0.033139 0.038462 0.028077 0.128040 -0.005394 0.078219 0.008620 0.014806 0.008167 -0.062283 0.087207 0.022066 -0.010217 -0.015433 0.043740 -0.025778 0.033971 -0.020338 -0.002647 -0.019687 0.116980 -0.000877 0.057992 0.052905 0.025401 -0.040034 0.009239 -0.053027 0.060823 0.158470 -0.051469 -0.000363 -0.016355 -0.004873 -0.146040 -0.035959 -0.091415 -0.011536 0.064107 0.020981 0.047224 -0.053352 -0.021555 0.128070 0.017939 -0.010581 -0.043955 0.143020 -0.158280 0.016884 0.158360 0.021515 0.112300 -0.087908 0.019900 -0.025617 0.048763 -0.028602 -0.030067 0.098852 -0.002149 0.018005 0.006881 -0.036369 0.048810 -0.055262 -0.016756 0.041115 0.024407 -0.030517 -0.067376 -0.170720 -0.009023 0.115510 -0.020713 -0.102310 0.026000 -0.204580 -0.010286 0.008055 0.110770 0.001278 -0.087953 -0.039252 0.053939 -0.016869 -0.095993 0.007085 0.036593 -0.038621 0.177980 -0.026567 0.104560 0.028340 -0.088047 -0.069045 0.046432 -0.191660 -0.095684 -0.067318 0.020415 -0.064736 0.038323 -0.102370 0.002751 -0.049312 0.061490 0.217900 -0.014062 0.084207 -0.060885 0.019353 -0.065549 -0.005016 0.124680 -0.098483 -0.011450 0.033645 -0.068119 -0.150390 0.027869 -0.051839 0.068555 0.025447 -0.065758 0.054210 -0.005129 -0.054636 -0.041715 -0.084455 0.018340 0.016803 0.008642 -0.032054 -0.003419 -0.055325 0.100530 0.104900 -0.014799 0.064226 -0.065081 -0.039081 0.161950 -0.037790 0.038184 -0.071168 0.132320 0.033573 -0.093571 0.122460 -0.138050 -0.141730 -0.019210 -0.020351 0.040501 0.206040 0.088326 -0.019080 0.033230 -0.008663 -0.005412 -0.119290 0.041877 -0.026935 -0.048351 -0.036029 0.118600 0.001723 -0.012896 0.070999 -0.001563 -0.106640 0.030997 0.064232 -0.020682 0.113420 -0.086752 0.067511 0.011922 -0.156570 -0.081437 -0.077620 0.094126 0.190150 0.017106 -0.061304 0.079414 0.164350 0.064083 0.030091 0.006279 0.006992 0.827110 -0.109820 0.171340 -0.033542 -0.082678 -0.022042 0.228620 0.094479 -0.110930 0.057069 -0.127120 -0.006611 -0.107180 0.013315 0.091795 0.141440 0.009017 0.122410 -0.020052 0.124420 0.132110 -0.105870 -0.089450 -0.017371 0.058902 -0.110520 0.056378 -0.174460 0.264460 -0.057694 0.077164 0.208730 0.215530 0.241380 0.121210 0.163230 -0.063046 -0.039878 0.028001 -0.149230 -0.070434 -0.054669 0.014886 -0.008346 0.198530 -0.079961 -0.032442 0.020096 0.043589 0.019767 0.209410 0.118340 -0.132980 -0.054239 -0.014174 0.112700 0.203050 -0.498110 -0.188790 -0.342150 -0.083317 0.140720 0.216350 -0.110980 0.016636 0.220860 0.128230 -0.025668 0.018982 0.069641 -0.005403 -0.192330 0.081612 -0.350970 -0.126340 0.116460 0.070098 0.034646 0.024796 0.008217 0.433540 -0.041102 0.008950 -0.664680 -0.105520 -0.150440 0.145060 -0.030936 -0.076060 -0.024448 0.004270 0.061996 0.228600 0.175700 -0.001402 0.020119 -0.004816 0.054705 -0.020196 -0.089908 -0.090353 0.073898 -0.066100 0.078849 0.083246 0.054637 -0.024324 0.040604 0.198130 -0.053376 0.029735 -0.038643 0.070121 0.074097 -0.023716 -0.049336 0.058060 -0.021372 0.124660 -0.023949 -0.105860 0.119740 -0.112550 -0.010157 -0.030230 0.018798 0.038582 -0.100520 0.025973 -0.005350 0.072429 0.036828 0.055609 -0.074659 0.015127 -0.036890 -0.014937 -0.047919 0.041017 -0.082998 -0.063207 0.026220 0.054821 0.048841 0.102590 -0.110760 0.025161 -0.042680 -0.069122 -0.000681 0.054913 0.028406 0.013650 0.127870 0.049624 -0.048099 -0.027609 0.110970 0.008400 0.085823 -0.073212 0.093594 -0.063735 0.027747 0.055368 0.033689 -0.019628 -0.122380 0.030386 -0.089185 -0.117010 0.049828 0.098579 0.004481 -0.072388 -0.006235 0.028399 0.030614 -0.082679 -0.071842 -0.043872 -0.047598 0.092256 -0.017291 0.020123 -0.037446 0.044773 -0.096531 -0.048439 0.033966 -0.005672 0.045597 0.010102 0.068617 -0.031864 0.124830 -0.014415 0.041008 0.009919 -0.048457 -0.131900 0.015116 -0.043748 -0.092481 -0.084214 -0.046401 -0.019879 0.007136 0.054725 -0.096927 0.051906 0.038596 -0.014433 0.055416 0.096329 -0.061269 -0.055727 -0.058045 0.086982 -0.108030 0.079091 0.050608 -0.006689 0.013103 0.043798 0.015675 -0.007595 -0.012840 0.010398 -0.002460 0.095519 0.085254 -0.034260 -0.001193 -0.097197 0.042140 0.000731 -0.048149 0.019996 -0.015575 0.044239 0.015134 0.066111 -0.023463 0.020590 -0.082014 -0.054155 -0.004409 -0.040734 -0.048820 -0.039540 -0.051382 -0.037957 -0.053145 0.035942 -0.008954 -0.039196 -0.001910 0.007941 -0.082788 -0.056871 -0.052819 -0.139030 0.023065 0.045718 0.009654 0.086512 0.041843 -0.060168 -0.001163 0.136830 -0.039413 -0.007631 0.127530 -0.065289 -0.035408 -0.049347 -0.009323 0.101950 0.090776 0.061272 0.032187 0.034117 0.063608 -0.044022 -0.064594 0.043408 0.085730 -0.106020 0.059885 -0.011316 -0.006672 0.074654 -0.020110 0.040475 -0.096786 -0.079380 -0.041109 0.106970 -0.001586 -0.029389 -0.026877 0.005816 0.023295 -0.031881 -0.058420 -0.089870 -0.013272 -0.032967 -0.050591 0.050623 -0.129380 0.048824 -0.073649 -0.059208 0.068200 0.042327 0.070850 0.047475 0.014505 0.024107 0.087481 -0.024164 -0.046248 0.065855 -0.063357 -0.064562 -0.034115 -0.084571 0.072478 -0.048410 -0.024187 0.085131 0.034524 -0.089256 0.035085 0.006907 -0.075329 0.096893 0.020583 -0.042883 -0.033916 0.090637 0.135330 0.022142 0.023576 -0.080852 0.029970 -0.067534 0.061075 -0.034550 0.062213 -0.099281 0.037757 -0.012275 0.021680 -0.391850 -0.033139 0.668420 0.000716 -0.000047 0.014704 0.594400 0.202390 -0.010408 -0.084501 -0.154740 0.045704 0.047110 0.085735 0.279960 -0.004756 -0.005949 -0.312950 0.171940 0.357530 0.123530 0.016334 0.077849 -0.003558 -0.077880 -0.225220 -0.181700 0.314090 0.072953 0.164950 0.026921 0.683110 -0.031602 0.005742 0.104580 -0.032758 0.036978 -0.008410 -0.015030 -0.065486 -0.068245 -0.033562 -0.142950 -0.281560 0.109790 -0.100160 -0.168120 -0.314290 -0.143480 0.045826 0.015111 -0.044135 -0.064407 -0.171230 0.036965 -0.129840 -0.094664 -0.030815 -0.170580 0.110450 -0.011684 0.054004 0.009917 -0.046426 -0.047692 0.108140 0.111730 0.123080 -0.065145 0.452550 0.107710 -0.321520 -0.088927 -0.292000 -0.151500 -0.029778 0.087603 0.159180 0.049457 0.057675 -0.085313 -0.175020 0.022975 0.084130 -0.383020 0.010812 0.077237 -0.293080 -0.064603 -0.010585 -0.067340 -0.081488 0.037758 -0.260050 -0.113200 -0.124400 0.068510 0.006818 0.245940 0.163270 0.022295 0.096751 0.025676 -0.305990 -0.059027 0.128350 -0.073535 0.002047 -0.028441 -0.028646 -0.150690 -0.103280 -0.109260 0.001885 0.046078 -0.102650 0.051242 -0.013526 0.096170 0.202990 0.030234 -0.064647 0.003125 -0.061407 -0.124360 -0.014660 -0.107120 -0.057612 -0.190060 -0.047371 -0.063050 0.082452 0.117500 -0.010276 -0.032373 0.124420 0.030549 0.002168 -0.118540 0.027986 0.018330 0.089131 0.109150 0.003927 -0.038061 -0.002624 0.166280 -0.044880 0.055341 -0.084946 -0.048893 -0.022161 -0.010332 0.047534 0.082980 0.064547 -0.028752 0.135330 0.029887 -0.069371 0.094677 0.068906 0.058961 0.008304 -0.102300 0.047097 -0.059816 0.137920 -0.165380 -0.016030 0.028453 0.035611 0.028046 -0.143830 -0.040976 0.069915 -0.178870 0.068780 -0.167040 -0.100300 0.204540 0.102050 -0.079409 0.102670 -0.068728 -0.041095 -0.137860 -0.082708 0.041598 -0.028495 0.095975 0.033073 0.031476 -0.072292 -0.108530 0.038236 0.076873 -0.172780 -0.092385 0.026972 -0.058132 -0.082527 -0.072347 0.054998 -0.016850 0.013518 0.001219 -0.072409 -0.009943 0.166690 0.020472 -0.002938 0.111630 -0.020536 0.104000 0.053880 0.004937 0.037366 0.130720 -0.057079 -0.030343 -0.003809 -0.062393 -0.013528 -0.031570 0.086609 -0.097446 0.039920 -0.009638 0.042357 -0.051980 -0.053638 -0.054652 -0.107190 -0.038875 0.051129 -0.077301 -0.027513 0.145900 0.016118 -0.086397 0.096326 -0.084210 -0.001967 0.130200 -0.068310 0.048168 -0.077453 -0.014859 0.163630 -0.084545 -0.070905 0.000678 -0.090746 0.080303 -0.066832 0.151750 0.069996 -0.041592 -0.034636 0.105880 -0.020478 0.019694 -0.010152 0.041646 -0.002008 0.104990 0.019283 -0.059685 0.124490 0.031466 -0.034153 0.006740 0.020213 -0.027925 0.086496 0.083388 0.075959 0.084569 0.124030 -0.004447 -0.001679 0.010175 -0.021325 -0.123510 0.063529 -0.036686 -0.054723 -0.070451 -0.035372 0.021420 0.089094 -0.005940 -0.097259 0.073261 0.050341 0.008495 -0.007253 0.049006 -0.130250 0.111010 0.059448 0.049083 -0.180050 0.136650 0.001816 -0.060738 0.151660 -0.207970 0.036164 -0.089845 0.046062 -0.102450 0.074654 -0.062987 -0.003479 -0.073507 -0.128630 0.013973 -0.065876 -0.165900 -0.034115 -0.020241 0.097935 -0.061098 -0.093771 0.079027 -0.036798 0.042876 0.035157 -0.009710 0.106350 -0.153060 0.043533 -0.097345 -0.102560 -0.003458 0.040899 -0.147680 -0.069239 0.108790 -0.071042 -0.094102 0.142820 -0.024297 -0.056138 -0.085937 0.122160 -0.023852 -0.012175 -0.006569 0.019655 0.125270 0.007786 0.045738 0.126250 0.130400 0.023437 0.137100 0.037480 -0.050370 -0.023383 -0.085389 0.074803 0.150510 -0.091655 0.002226 0.116920 0.025815 0.001343 0.091348 0.073132 0.088780 -0.068750 -0.037386 0.120530 0.212860 0.029685 0.001478 -0.036985 0.209530 0.110890 0.003912 -0.035996 -0.019317 0.015007 0.087121 0.036585 -0.216710 -0.012244 0.022688 0.067967 0.069521 -0.010326 -0.082826 0.144270 0.065159 -0.163710 0.025898 0.066419 0.042898 -0.050956 -0.008069 0.094006 -0.099129 -0.037542 0.085798 -0.052724 0.004169 0.115560 0.027287 -0.041009 0.019015 -0.208490 0.005523 0.007979 -0.032204 0.046847 0.145480 0.090732 -0.017833 0.068326 0.182890 -0.005912 0.094350 0.107330 0.037271 0.082093 -0.175200 -0.047045 0.007191 0.016343 0.016411 -0.016819 0.063812 0.030768 -0.063814 -0.077252 -0.136180 -0.075193 -0.191310 -0.102430 -0.091645 -0.013522 -0.114230 -0.126930 0.011377 -0.022842 -0.019832 0.066137 0.034074 -0.044788 0.057595 0.161130 -0.075524 -0.126620 0.010111 0.000288 0.019959 0.153050 -0.075019 0.004024 -0.020149 -0.003814 -0.029443 -0.184590 0.041625 -0.050268 0.201340 -0.125330 -0.025055 0.107530 0.019102 0.004990 -0.050129 0.026093 0.058066 -0.116060 -0.023323 -0.056579 0.034215 0.104780 -0.023017 0.091457 0.049642 0.086059 0.104870 0.017325 0.015162 0.037261 0.043457 0.036304 -0.023074 0.013487 0.034816 -0.144020 -0.027407 -0.116390 0.033061 -0.083625 -0.057548 -0.035298 -0.087113 0.058139 -0.159860 0.032556 -0.037659 -0.081187 0.104870 -0.122530 -0.018210 -0.022206 -0.014235 -0.026019 -0.079835 0.023039 0.028558 -0.058067 -0.093629 -0.065735 -0.046038 0.054320 0.020367 -0.046667 -0.002149 -0.038532 0.019029 0.121860 0.029967 0.013232 -0.012649 0.034255 0.121900 -0.031269 0.178110 -0.080823 0.048304 0.005417 -0.155930 -0.064032 0.040734 0.116470 -0.019398 0.104720 -0.062944 0.039713 -0.032169 -0.031109 -0.104070 0.119290 -0.049528 -0.061455 -0.001826 0.074243 -0.113810 -0.024279 -0.001756 -0.008502 -0.000378 0.028172 -0.009063 0.050665 0.066755 0.008957 0.079419 -0.098327 -0.031950 0.121330 0.074668 -0.039873 0.025049 0.080362 0.008490 0.042334 0.010844 0.030287 0.054505 -0.051692 -0.017937 0.034686 -0.005022 -0.048708 -0.070423 -0.036541 0.008148 -0.097397 0.014353 0.128690 0.030461 0.174010 0.056779 0.001027 0.129780 0.029674 0.055553 0.143310 -0.012824 -0.024938 0.154870 -0.087598 0.024757 0.063691 0.024555 0.008553 0.045594 0.084598 0.040369 0.162530 -0.032426 -0.070073 -0.054091 -0.016042 -0.021120 -0.053129 0.175930 -0.023308 -0.043190 0.000473 -0.016315 -0.053340 -0.035873 0.011717 0.079270 0.156500 -0.031462 -0.044407 0.199510 -0.074498 -0.050029 -0.012071 0.059603 0.030473 0.077235 0.012645 -0.027374 -0.014798 -0.024691 0.063589 0.024126 -0.107970 -0.027716 0.119090 -0.004466 -0.064769 -0.015232 -0.030518 -0.121120 0.032339 0.114400 0.037461 0.167140 0.051729 -0.102670 -0.048298 0.087842 0.056210 0.148930 0.101170 -0.258510 -0.024188 -0.007550 0.014717 -0.092944 0.106780 0.012495 0.035381 0.096120 -0.020573 -0.110460 -0.047270 -0.006857 0.094121 0.043167 -0.032363 -0.115150 -0.043154 -0.127050 -0.040522 -0.024047 -0.041757 0.033759 -0.001682 -0.002901 -0.048163 -0.105660 0.024418 0.044149 -0.011819 0.055642 -0.012611 -0.113840 -0.042113 0.024941 -0.000754 -0.013336 -0.072746 -0.007410 -0.062989 0.055446 -0.073263 0.068444 -0.041720 0.096789 0.035598 0.039231 0.080653 -0.112820 -0.061160 -0.069303 0.014076 0.078738 0.039656 -0.057042 0.023695 0.051003 0.039677 -0.005589 -0.032181 0.048467 0.060217 -0.002801 0.072151 -0.098554 0.083513 0.110230 0.046811 0.060161 -0.009099 -0.018353 -0.064915 0.035633 -0.088593 0.000679 -0.004863 -0.015997 -0.047269 -0.059707 -0.017402 -0.076631 -0.059011 0.042473 -0.104370 -0.084700 0.015951 0.144740 0.087611 0.067767 0.058037 0.122760 -0.074653 0.078252 -0.049255 0.001046 0.003649 0.003020 0.036867 -0.015290 -0.060842 0.117710 0.047880 -0.065595 0.113590 -0.035454 -0.110530 -0.087607 0.044637 0.020472 -0.198160 0.003449 -0.131410 -0.054373 0.008915 -0.054139 0.047025 0.033282 0.082577 0.028621 -0.000293 0.002249 0.015905 0.018682 -0.042622 0.108910 0.102410 -0.048961 -0.034824 0.055145 0.004824 0.000843 0.157250 0.051905 0.062723 -0.055522 0.119520 -0.047759 0.034368 0.026624 -0.014751 0.034088 0.025843 -0.006730 -0.014793 -0.118680 -0.079602 -0.084198 -0.050198 -0.083276 -0.013425 0.014782 -0.113200 -0.022688 0.019922 0.014876 0.086557 0.003398 -0.017010 0.005838 0.002930 -0.011913 0.024859 0.076716 0.011251 -0.011023 -0.035669 -0.029824 0.083884 -0.195310 -0.000420 -0.090509 -0.092889 0.101780 -0.058250 0.070717 -0.040531 -0.003419 -0.041141 -0.014678 0.016620 0.037419 -0.013126 -0.098871 0.085183 -0.061402 0.027274 0.002227 -0.021559 0.014611 -0.005174 0.074295 0.001654 0.060505 0.041590 0.059317 -0.054614 -0.054926 0.019610 -0.011715 -0.012329 0.002581 -0.049014 -0.027299 0.149740 -0.087942 -0.030926 -0.136020 -0.098535 -0.083500 0.120610 -0.127010 0.133780 -0.010991 0.097327 0.011222 0.071862 -0.043367 0.018785 0.032527 0.008092 -0.014318 -0.015753 0.055326 -0.061359 -0.155860 -0.017356 -0.058876 0.059601 -0.116020 -0.041791 0.004155 0.018141 -0.069367 0.086007 0.005901 -0.000425 -0.018869 0.082839 -0.040100 0.014287 -0.140640 0.000371 0.074167 0.092294 -0.070808 -0.106520 0.002352 -0.020676 -0.044460 -0.024360 -0.002190 -0.072897 -0.047815 -0.138160 0.103390 0.052514 -0.040639 0.195750 0.057383 0.006683 -0.102120 -0.132140 0.150460 0.079940 0.004833 0.165120 0.003879 -0.038903 -0.156300 -0.084786 0.002316 -0.069263 0.118200 0.069042 0.052149 -0.162890 -0.151370 0.192030 -0.132610 -0.178530 -0.067710 -0.021700 0.076386 0.037991 0.064073 0.000323 -0.005790 -0.028717 -0.121800 -0.038492 0.013719 0.234770 -0.157230 0.010630 0.186880 -0.026632 0.091910 -0.217140 -0.006691 -0.026898 -0.025473 -0.058019 0.201890 -0.055561 0.011422 0.039628 -0.059954 -0.246440 0.153040 -0.158390 0.129260 0.053513 0.207930 0.094078 -0.068376 -0.058228 0.104470 -0.107500 -0.116020 -0.026630 0.070926 0.056617 -0.029037 0.325120 -0.118390 -0.105770 -0.119520 -0.057332 -0.045545 0.062168 0.253790 -0.030075 -0.032295 0.165490 0.103780 0.127240 -0.088030 0.126380 0.133870 -0.006130 0.065316 -0.124690 0.100600 0.123970 0.222280 0.154330 -0.057232 -0.324630 0.116140 -0.073662 0.150770 -0.175300 0.012515 0.068954 -0.222600 -0.076665 0.147600 -0.045338 -0.013909 -0.063528 -0.084089 0.369090 -0.050822 -0.115510 -0.262040 -0.091444 -0.170470 -0.016631 -0.180280 -0.027649 0.096441 0.074967 0.129350 -0.013882 0.143030 0.032731 0.070995 0.074167 -0.045992 -0.008146 0.081887 -0.238430 -0.063260 -0.088466 -0.237100 0.081153 0.031781 -0.003731 0.184460 0.532230 0.542450 0.043145 0.090709 -0.115490 0.044683 0.207760 0.066980 0.113600 0.092786 -0.046800 0.053897 0.019137 0.014962 0.104800 0.008714 0.346540 -0.045242 0.098568 0.210560 0.206310 0.221090 -0.256880 -0.282940 -0.050404 0.095576 -0.231920 0.059745 0.176880 0.057463 -0.096869 0.026109 -0.112870 0.031461 0.157790 -0.006946 0.088117 0.120910 -0.186960 0.211690 0.004055 0.115400 -0.001948 -0.010396 0.094514 0.052761 0.008615 -0.026799 0.091377 -0.079175 0.081172 -0.063317 0.004410 0.095708 0.022373 -0.008521 0.034763 0.083595 -0.039287 0.063178 0.015160 -0.173080 0.107180 0.128340 0.160250 -0.004821 -0.035777 0.072682 0.129630 -0.222770 0.001894 -0.087328 -0.124920 -0.069302 0.004510 -0.024957 -0.082596 -0.129840 -0.016061 -0.026566 0.023557 0.060890 -0.170500 -0.027798 0.030865 0.023421 0.024758 -0.042211 0.044712 0.011960 0.120410 0.010120 -0.037479 0.000488 0.035840 0.089046 0.134110 -0.067050 -0.125460 -0.006723 -0.078569 0.044451 0.065025 -0.104860 -0.064628 -0.043173 -0.070016 -0.025487 0.005297 -0.059933 -0.129370 -0.052099 -0.064346 -0.051948 0.015283 0.033560 0.057369 0.111340 -0.123630 0.030057 -0.103100 -0.048894 0.140380 0.066034 0.054388 0.026147 0.082673 0.003620 0.046095 -0.011980 -0.070247 -0.022129 -0.025227 0.122030 -0.016712 0.046818 0.181320 0.094326 0.066074 -0.082519 -0.098053 -0.093337 -0.172600 0.038620 0.029006 -0.117480 -0.011677 0.004595 0.077998 0.027600 0.026308 -0.063618 0.004372 -0.005224 -0.074737 -0.090786 -0.031546 -0.034248 0.000330 -0.001453 0.025066 0.057400 0.038988 0.018746 0.068189 -0.009993 -0.162770 -0.102560 0.140950 -0.003809 -0.108060 -0.129900 0.013070 -0.020022 0.122250 0.064515 0.047939 -0.078039 -0.065845 0.045333 0.005991 0.019399 0.019898 0.005016 0.127910 0.050516 0.012481 -0.036307 0.185950 -0.060008 -0.046272 -0.007456 0.010341 -0.036835 -0.005055 -0.088260 0.012272 -0.047887 -0.030303 -0.049785 -0.041323 0.011456 -0.038485 -0.143000 -0.113990 -0.101270 -0.019192 -0.043706 -0.023403 0.021873 -0.075115 0.080186 -0.036277 0.013330 0.060204 0.037015 -0.063167 -0.048002 0.017548 -0.019727 0.025924 0.026860 -0.085488 -0.052254 0.093587 -0.017211 -0.029490 -0.076142 0.005628 -0.000519 -0.175120 -0.119680 0.003982 -0.047610 -0.123260 -0.032129 -0.014693 -0.044294 -0.010581 -0.103680 -0.093214 -0.044845 -0.029087 0.137470 -0.037288 0.124180 -0.014460 0.216390 0.044183 0.149080 -0.091150 0.010059 0.032800 -0.000214 0.025386 0.078244 0.003793 -0.021290 -0.019559 -0.078415 -0.142600 -0.069328 -0.094444 0.124470 -0.106140 -0.063630 0.057939 0.061463 -0.070235 -0.064598 -0.031675 0.106510 0.100180 0.033208 -0.134230 0.001154 0.021444 0.013871 -0.012881 -0.089666 0.010565 0.048162 0.070123 -0.059550 0.052350 0.011977 -0.018039 0.020550 -0.014876 0.004201 -0.061525 -0.005504 -0.048604 -0.070434 -0.023047 0.029884 0.009513 0.020422 -0.096904 0.088695 -0.065013 0.022519 -0.120510 0.003604 0.069783 0.050439 0.000119 0.001579 -0.044404 0.118490 0.035893 0.073589 0.057029 0.169080 0.072391 -0.016641 -0.017579 -0.104750 0.026257 -0.056958 -0.062130 -0.204120 0.098446 0.020241 0.047589 0.021828 0.016317 0.014255 0.023821 0.142600 0.060594 -0.038402 -0.083376 0.026036 0.142010 -0.147480 -0.044475 0.107260 0.113150 -0.033456 0.073189 -0.075902 -0.136210 0.009450 -0.051823 -0.110080 0.102770 -0.176370 0.106310 0.079359 -0.189200 0.052134 -0.056624 -0.054181 -0.134320 -0.054440 0.012424 0.075544 0.040990 0.146240 0.038650 0.143300 -0.061499 0.000025 -0.013136 -0.190000 -0.077922 0.004805 0.110190 0.062208 0.050016 0.032851 -0.085363 -0.009067 0.043700 0.025862 0.004724 0.114760 0.002417 -0.043974 0.090464 0.091612 0.030181 0.039701 0.000119 0.043270 0.054264 -0.232260 0.061297 -0.093453 -0.024251 0.126260 -0.135230 -0.052367 0.042729 0.022053 -0.092295 0.001103 0.115740 -0.065202 -0.072645 -0.078386 -0.027582 -0.041865 -0.047603 -0.078692 -0.044316 0.172930 -0.063419 0.015149 -0.046736 0.034382 0.094894 0.041308 -0.118400 0.030836 0.133520 -0.088791 0.031653 -0.032093 -0.104520 0.062890 -0.021057 0.023928 -0.066485 -0.014998 0.001134 -0.018386 -0.040366 -0.047386 0.039634 -0.038511 -0.075203 0.038801 0.120200 -0.098744 -0.141070 -0.106010 0.116270 0.023440 0.025975 0.135390 -0.013883 -0.105380 -0.002089 0.163770 0.075271 0.093109 0.044226 0.050085 -0.206610 0.097428 0.104860 0.012676 -0.045559 0.054272 -0.104350 0.129570 0.060848 0.011729 0.099900 0.074149 0.146690 -0.083198 0.049587 -0.046270 -0.035482 -0.108560 -0.003067 -0.059434 -0.019926 0.138980 -0.051268 -0.031546 -0.074736 0.111810 -0.035146 -0.004615 0.020195 -0.013971 0.117380 -0.006701 -0.004419 0.102710 0.070651 -0.008727 0.053903 -0.032944 0.102500 0.034902 -0.052193 0.019690 -0.064810 -0.070332 -0.162210 -0.076819 0.140310 0.082581 0.059435 -0.020262 -0.065042 -0.107740 -0.208030 -0.064890 0.028150 0.074185 0.136980 -0.050193 0.173840 -0.007673 -0.060339 0.206090 -0.055766 -0.045692 -0.045100 0.022141 -0.023187 0.046881 0.058137 0.008662 -0.091430 -0.026928 0.122060 -0.168100 0.034661 -0.004317 -0.191310 0.031050 -0.082584 -0.034224 0.027716 -0.086885 0.066712 0.045862 -0.081041 0.141160 0.067365 -0.025530 0.029175 0.064968 -0.070250 0.052843 0.110270 -0.045951 0.013884 0.068720 0.109360 -0.021267 0.033219 -0.050299 0.186090 0.025033 0.096383 0.041687 -0.041749 0.069644 -0.057620 0.070741 0.075632 -0.095707 0.110970 -0.084810 -0.170760 0.100760 0.039367 -0.055439 -0.007303 -0.041378 0.031900 0.099216 -0.012494 0.028122 0.027981 -0.006797 0.006227 -0.091002 -0.010847 0.069544 -0.018047 -0.125370 0.211250 0.071285 0.011057 0.004583 -0.035553 0.007990 -0.089005 -0.123610 -0.093553 -0.143890 -0.107950 0.022372 -0.040240 -0.001948 -0.069253 -0.018855 0.078449 -0.032646 0.017976 0.035357 -0.102740 -0.142680 0.024445 0.042655 0.053563 -0.112790 0.020085 0.032082 0.031004 0.121360 0.024890 -0.056407 0.008854 -0.117590 -0.065738 -0.105180 0.156610 -0.019232 0.020722 0.012762 0.023030 -0.136240 -0.034887 0.009529 0.102960 0.180790 0.090257 -0.034396 -0.127940 -0.033951 0.074378 0.112480 0.023800 0.006145 -0.042777 0.004056 -0.177900 -0.092929 0.189320 -0.041570 -0.058778 -0.048407 -0.037036 -0.022744 -0.145580 -0.144270 -0.107670 0.092646 -0.003173 -0.021224 -0.013924 0.036590 0.106600 0.024319 -0.040387 0.100880 0.074039 -0.070247 -0.033358 0.128500 0.077373 0.016735 0.082893 0.039041 -0.022362 -0.006690 -0.075463 0.051638 -0.007112 0.122330 0.120610 0.121560 0.073146 -0.141500 -0.049792 0.028951 -0.014772 0.077024 0.089626 -0.034718 0.068323 -0.045035 -0.007715 -0.030571 -0.081270 -0.148360 -0.008342 -0.067885 0.018830 -0.080702 -0.043499 0.086771 -0.091713 -0.024269 0.007912 0.049917 -0.123550 0.143290 -0.031771 -0.001664 0.017734 0.062866 -0.136520 -0.012425 0.138560 0.038429 0.010433 0.021466 0.083496 -0.008498 0.034008 0.011443 0.028964 0.020151 -0.046631 -0.045439 0.131470 -0.045297 0.069153 0.027460 -0.095121 0.052238 -0.134730 -0.118190 0.027907 -0.099094 -0.079731 -0.067214 -0.023393 0.090969 0.065822 -0.068644 -0.098155 0.034961 -0.069437 0.057343 -0.132530 -0.001600 0.076230 -0.083844 -0.027453 -0.053956 -0.042361 0.068380 -0.110540 0.032241 0.083058 0.103110 -0.018530 -0.075829 -0.044423 0.092023 0.302920 -0.022388 -0.094462 0.280300 0.091036 0.126620 0.194090 0.248340 -0.293620 0.000270 0.005927 0.151490 -0.007190 -0.063267 0.017114 -0.020276 -0.032411 -0.043528 -0.331740 -0.202450 -0.067223 0.179330 0.003112 0.177950 0.079107 -0.183660 -0.023562 -0.195700 0.417790 0.149480 0.132340 0.104030 -0.768150 0.276380 0.036964 0.094478 -0.143670 -0.006619 0.030454 0.198310 0.072492 -0.029407 0.141020 0.015815 -0.077074 0.247510 -0.146060 -0.142130 0.217090 -0.200600 0.181350 0.239120 -0.081821 0.013882 -0.046732 -0.005321 0.004916 -0.134850 -0.046974 0.065230 0.228980 0.006637 -0.171860 0.108750 0.047642 -0.208900 -0.075056 -0.092337 -0.117710 -0.004188 -0.581240 0.038884 -0.230080 -0.235000 -0.027383 -0.056111 -0.039277 -0.047102 0.035974 0.030458 -0.119120 -0.045054 -0.213090 0.099384 -0.075791 -0.227430 -0.018692 0.018077 0.057564 -0.297130 -0.079166 0.033430 -0.056957 -0.030572 -0.167660 0.034241 -0.059500 -0.057652 0.066990 -0.003384 0.092141 0.199810 -0.038271 0.085288 0.085199 0.024493 0.003892 -0.035799 0.004120 -0.077947 -0.094973 0.037285 -0.006679 -0.269860 0.048256 -0.012532 -0.035763 0.028908 0.051689 0.037434 -0.073454 0.043121 -0.068211 -0.028723 0.182330 0.015406 0.008251 0.033544 -0.011789 -0.084714 0.118780 -0.119270 0.077615 -0.075557 0.104930 0.142150 0.048058 0.014048 0.028706 0.044577 -0.070362 -0.008596 -0.069645 -0.124680 0.038732 -0.025131 -0.043278 0.214370 -0.058494 0.065920 -0.069737 -0.039337 0.001756 0.010310 -0.011655 0.094128 0.157200 -0.001894 0.096802 0.011564 -0.224430 -0.006874 0.059531 0.067619 -0.163180 0.105630 -0.107400 -0.093406 0.010223 0.018098 -0.037990 0.106960 -0.069272 -0.088628 0.052181 0.010828 -0.014657 0.177020 0.059286 -0.049307 0.051485 0.023602 0.036332 -0.070761 0.026244 0.040105 0.115230 0.028368 -0.028567 0.055551 -0.006031 0.044001 -0.035290 0.047449 0.031943 -0.149060 0.036606 0.094921 -0.056960 0.096879 0.030579 -0.030215 -0.016970 -0.030409 -0.081815 -0.051097 -0.046119 -0.080403 0.008197 -0.035530 0.006468 -0.146440 0.008370 0.006257 0.057566 0.062712 -0.130610 0.018105 0.094823 0.013334 -0.012940 0.006558 0.083392 0.064892 0.026465 0.009501 0.021481 -0.018578 -0.041030 0.099315 -0.083254 0.162230 0.003935 -0.049606 0.042095 -0.036106 -0.071773 -0.059708 0.008528 -0.072066 0.024844 -0.101180 0.039209 0.058966 0.060255 0.025207 0.031141 -0.014972 0.102430 -0.032411 0.045464 -0.084246 0.041198 0.028462 0.076303 0.019967 0.113710 0.057079 0.130370 -0.059327 -0.020373 0.004165 0.020488 -0.121330 -0.103180 -0.037730 -0.062296 0.022982 -0.044996 0.006590 -0.060806 0.047554 -0.029750 -0.099515 0.003829 0.001031 -0.079472 0.041330 -0.032622 -0.084661 -0.101710 0.132040 -0.116980 0.042311 0.053776 0.070004 -0.063407 0.005936 -0.062057 0.120340 0.067166 0.022351 -0.025432 0.088055 -0.096336 0.055793 0.078320 -0.088239 -0.082386 0.017598 0.044897 0.080041 0.103140 0.073175 -0.104450 -0.093328 -0.088205 0.059088 -0.010279 -0.093277 0.080099 -0.055976 -0.017863 -0.003108 0.043558 -0.002790 -0.006277 0.011391 -0.017003 0.039136 -0.084992 0.098703 0.095713 0.080882 -0.068504 -0.067103 -0.028007 -0.079044 -0.037723 -0.125790 0.041352 0.006326 0.158930 0.095688 0.038186 0.027800 0.026394 0.030969 -0.080193 -0.049609 0.052554 0.126200 -0.032625 -0.039078 0.120110 -0.126510 -0.172980 0.093011 0.080499 -0.002554 0.028035 -0.022417 -0.074332 0.082073 -0.072546 -0.046722 0.116670 0.092792 0.048233 0.023149 0.072050 -0.079943 0.040548 -0.003446 0.062657 -0.172360 -0.059855 -0.078844 -0.007356 0.096278 -0.030006 0.113670 -0.085810 0.039233 0.005988 -0.134670 -0.043492 -0.096026 -0.076105 0.026123 0.132860 0.055258 -0.056561 -0.113470 -0.005515 -0.046171 0.030573 -0.088134 -0.075155 0.047128 -0.002085 0.026141 0.002503 -0.004490 0.017431 -0.116130 -0.056697 -0.039723 0.107480 -0.092276 0.028945 -0.021293 -0.093138 -0.001148 -0.020318 0.019826 -0.121340 0.014052 -0.011431 0.074426 -0.050600 -0.117170 0.064217 -0.077850 0.132420 0.068770 -0.077157 0.026586 0.041482 -0.059595 0.077106 0.034957 -0.023903 0.048220 0.089080 -0.067203 0.027780 0.036515 -0.018955 -0.001624 0.097570 -0.016840 -0.004204 0.006966 0.005177 -0.059607 0.123700 0.058500 -0.010085 -0.075479 0.049830 -0.010400 -0.152960 0.022927 -0.015634 0.079408 -0.115600 -0.066473 -0.001749 0.086074 -0.003472 0.104090 0.018859 -0.013077 0.047204 0.031765 0.051934 0.030179 -0.061697 -0.106800 0.021346 -0.095174 0.021778 0.122700 0.003891 0.059846 -0.028757 0.095514 -0.068432 -0.036369 -0.055406 -0.042611 0.131450 0.039943 0.044206 -0.049613 -0.168430 0.045944 -0.010402 -0.218820 -0.054690 0.061338 -0.068819 -0.023268 0.006392 0.078611 -0.023563 0.031586 0.082007 0.084024 0.181470 -0.069796 0.042981 0.065572 -0.016847 -0.089281 0.044994 0.189390 0.071639 0.028234 -0.139940 -0.023724 0.007529 -0.008342 -0.019302 0.144710 0.062334 0.014729 0.012748 0.076379 0.062496 -0.096667 -0.000006 0.013298 -0.141200 0.113550 -0.139250 0.059223 0.011977 -0.120420 -0.089908 -0.046016 -0.059269 0.055422 0.073768 0.089179 -0.053690 0.027331 -0.087853 -0.096827 0.095629 0.034678 -0.013839 0.034758 -0.151320 -0.060518 -0.013440 -0.032128 0.169280 0.112480 -0.096185 -0.016340 -0.090126 -0.098135 0.096308 -0.070800 0.049484 0.064438 -0.013953 -0.024318 -0.015252 -0.013796 0.025628 -0.037825 0.018286 0.026737 -0.096903 -0.081813 0.079209 -0.101390 -0.030395 0.035821 0.084830 0.059856 -0.040931 0.104750 -0.044524 0.084128 0.054056 0.072923 0.133240 -0.018277 -0.111080 0.068407 -0.074115 -0.056386 0.016853 -0.049755 -0.099667 0.027311 0.047852 0.220680 0.031904 -0.032417 0.028334 0.088832 -0.115200 0.166810 0.068667 0.047610 0.007297 -0.120250 -0.177520 -0.023282 -0.030058 -0.029077 -0.126340 0.023789 -0.053798 -0.121440 -0.098923 0.062111 -0.061379 0.015324 0.097232 0.035181 0.016413 0.122050 0.048924 -0.095276 -0.068897 -0.109130 -0.032773 -0.114240 -0.013732 -0.056971 0.016520 0.033771 0.091584 0.021173 -0.158180 0.031977 0.006716 -0.024945 0.015633 0.124460 -0.048233 -0.018306 -0.054980 0.011608 -0.050215 -0.057828 -0.081160 0.018548 -0.047005 0.078296 0.039332 0.148740 -0.024448 0.063064 -0.008450 0.065472 0.069047 0.035527 0.001857 0.061313 -0.208920 0.080869 0.110040 0.050375 0.047806 0.083686 -0.019853 -0.093671 0.049597 0.060784 -0.042235 0.154310 0.011883 -0.004901 0.060682 -0.076997 0.061476 -0.030793 0.109880 0.016619 0.179710 -0.078088 -0.092158 -0.136530 0.047806 0.015180 -0.025120 -0.009068 -0.027250 0.033351 0.038986 0.127070 0.004600 0.121500 -0.009595 0.011731 -0.049649 -0.120080 -0.028354 -0.041365 -0.023450 0.077942 0.013330 0.050466 -0.122190 0.075433 -0.037810 -0.023785 0.089769 0.044985 -0.101300 0.061479 -0.015415 0.001775 0.002444 0.132660 0.125280 0.109040 -0.041092 0.038551 -0.030749 -0.062876 0.063716 -0.012169 0.051873 0.117040 -0.025983 -0.131200 -0.031117 0.041237 0.080056 -0.013275 0.025929 -0.095218 -0.108930 -0.038585 0.000621 0.071314 0.123660 -0.104920 0.069231 -0.030166 0.150510 -0.065085 0.054275 -0.020116 0.006316 0.042886 0.105220 0.049931 -0.067058 -0.033158 -0.009997 0.041840 0.029560 -0.130720 0.068548 -0.045931 -0.016662 -0.024956 -0.006861 0.074712 -0.021546 0.019782 -0.006225 0.012208 -0.005946 -0.066008 -0.020085 -0.091848 0.051197 -0.017876 -0.100240 0.067134 -0.049080 0.007724 0.033669 -0.005740 0.036164 0.056700 -0.159180 -0.103990 -0.075467 0.124400 -0.059263 0.054690 -0.001280 0.036942 0.049297 0.013297 0.004844 0.180580 -0.177570 -0.036039 0.073388 -0.013324 -0.056233 0.014114 -0.039953 -0.030216 -0.060073 0.062465 0.051032 -0.021378 0.017459 0.055008 -0.052888 0.002766 -0.041608 -0.099803 -0.046144 -0.065218 -0.003500 -0.002606 -0.084500 0.072316 0.092748 0.127260 -0.071559 -0.056020 -0.038127 0.011275 -0.006078 -0.091303 0.098419 0.089766 0.146660 0.040851 -0.124130 0.058427 -0.002075 0.100290 -0.125230 -0.047620 0.067923 -0.027401 -0.079826 0.028592 0.078532 -0.011237 -0.112400 0.078647 -0.053610 0.027207 -0.061812 0.156010 0.129670 0.155790 0.047076 -0.004594 -0.086224 -0.081067 -0.004025 -0.030433 -0.083240 0.111420 0.013353 -0.012492 -0.087229 0.020035 -0.006341 0.074748 0.074272 -0.021659 0.042727 -0.040714 -0.115290 0.046205 0.046793 -0.027000 0.091573 0.088530 -0.079071 -0.073263 -0.154300 -0.045409 -0.000511 0.092845 0.089799 0.064220 -0.002533 -0.011949 0.007815 0.052980 0.031209 0.102570 0.036689 0.020857 -0.081589 -0.060448 -0.019213 0.114910 -0.115900 0.005731 0.008967 0.054027 0.051278 0.027615 -0.059312 -0.165000 -0.028234 0.134820 -0.070204 -0.051623 -0.071768 -0.025593 -0.045452 -0.100240 -0.100970 -0.080502 -0.093488 0.050507 0.079669 0.015476 -0.092954 0.016931 -0.175680 -0.053683 0.013338 -0.013091 0.078282 -0.031552 -0.048819 -0.002353 -0.020747 0.117630 0.143970 -0.052175 0.011335 -0.005808 0.034862 -0.134030 0.026519 -0.065505 0.018118 -0.057459 -0.026972 -0.048524 0.069875 0.035713 0.040542 0.175170 -0.088463 -0.009681 -0.068309 -0.034844 -0.162530 0.008887 0.080582 0.075208 0.046957 -0.032280 0.008987 -0.007329 -0.000901 0.081801 0.001930 -0.053386 0.025471 0.029641 0.027759 -0.046464 0.015416 0.022534 0.046539 -0.040851 0.053014 -0.126150 -0.120320 -0.070611 0.088149 0.012824 0.038999 0.012558 -0.012655 0.000613 0.116700 -0.006763 -0.067121 -0.073275 -0.004658 0.064304 0.063000 -0.014446 -0.013317 0.004568 0.081505 -0.055365 -0.152540 -0.009294 0.053419 0.001117 0.105110 -0.140970 0.108630 -0.008290 0.138540 -0.042710 0.087548 0.029914 0.105630 -0.115070 -0.098121 0.013599 0.051024 0.002595 0.067643 0.033840 0.072182 0.065894 0.061458 -0.138680 0.018088 0.123530 0.022908 0.148430 0.091129 -0.011517 -0.050934 -0.060683 -0.107290 0.107960 -0.020367 0.090833 0.036270 0.161570 0.017861 0.061912 0.152590 -0.059032 -0.031626 -0.089152 -0.053211 0.002952 0.033308 -0.042500 -0.008101 -0.164900 0.079688 -0.106690 0.061633 -0.011713 0.088565 0.131940 -0.054339 0.058034 0.033399 0.060917 -0.110690 0.045846 -0.090182 -0.123340 -0.043012 -0.079669 -0.045954 -0.035649 -0.169610 -0.059011 0.071255 0.078938 0.028414 0.113940 0.052424 -0.252120 0.082899 0.003887 0.025737 -0.097305 -0.138460 0.139700 0.156780 0.040683 -0.079247 0.067603 0.121900 -0.059164 -0.042617 -0.011487 0.057529 0.076055 0.006373 0.052591 0.014274 -0.137070 -0.080467 0.043090 -0.008594 -0.112790 0.155530 -0.043128 0.324850 0.043193 -0.083047 -0.100490 -0.230010 0.077240 0.135600 0.157890 -0.072473 -0.281070 0.078135 0.180750 -0.464160 -0.143950 0.061532 0.160240 0.126310 -0.230770 0.217190 -0.220250 0.144820 -0.025214 -0.099216 0.077642 -0.055625 0.141040 -0.049427 -0.015548 0.176810 0.135590 0.127560 -0.022167 -0.132610 -0.092515 0.000878 -0.050746 -0.115590 0.153350 0.055903 0.062231 -0.164780 0.061036 0.205220 -0.271350 -0.115380 0.256960 0.031665 -0.113490 0.272730 0.073192 -0.048231 -0.097401 -0.694060 -0.220330 0.280230 -0.019704 0.055758 -0.041282 -0.077361 -0.060642 0.061729 0.026882 -0.042676 -0.147390 -0.210860 0.062204 -0.236580 0.093582 0.178690 0.226560 -0.156930 0.000976 0.086951 -0.054895 0.186120 0.082090 0.014602 0.075050 -0.027777 0.200650 -0.097042 0.022377 0.020443 -0.427660 -0.039361 0.008103 -0.229960 0.027205 0.245580 0.383670 0.068075 0.102870 0.151980 -0.072108 -0.217520 0.096741 -0.044073 0.013218 -0.221030 -0.187050 -0.134560 -0.013608 0.109100 -0.349480 -0.023763 -0.014470 0.124650 0.078482 0.127950 -0.039891 -0.017214 -0.066710 -0.005873 0.010561 -0.025095 0.046487 0.012430 -0.199200 -0.350970 0.072778 -0.107060 0.073932 0.021562 -0.023095 0.057692 -0.020457 0.084899 -0.016282 -0.080948 -0.028013 0.110660 -0.021748 -0.063118 -0.056721 -0.189840 0.030998 -0.065215 0.040750 0.108030 -0.003198 -0.089535 -0.033023 -0.065111 -0.040698 0.006651 0.073211 0.022662 0.086772 -0.095727 0.093664 -0.061365 0.030070 0.022422 -0.107080 -0.058338 -0.010399 -0.040867 0.017251 0.063763 -0.065664 -0.125340 0.059548 -0.037792 0.105070 0.182880 0.039356 -0.021836 -0.075571 -0.056544 -0.006208 -0.053730 -0.067518 0.014756 -0.083491 -0.027026 -0.028534 -0.135810 -0.033244 0.076895 0.035424 0.050038 0.057329 0.116520 -0.091453 0.046050 -0.094767 -0.020177 -0.092527 -0.045076 0.047323 -0.037800 -0.006968 0.065574 -0.008757 0.067126 0.034103 0.032401 -0.064753 0.080211 -0.015554 -0.085579 -0.008203 -0.021996 0.027063 -0.088997 0.036445 0.233900 -0.020150 -0.032522 -0.027131 0.048957 0.047223 0.092515 -0.015800 -0.086551 0.026113 0.013217 0.039060 -0.104570 0.001047 -0.032089 0.057245 -0.056261 0.078870 -0.085811 -0.065875 0.034752 -0.116240 -0.019002 -0.025074 0.065956 -0.051535 0.087247 0.007439 0.088891 0.111990 -0.064112 0.010358 0.006409 0.038535 0.014133 0.090421 -0.031030 0.054909 -0.078122 0.089314 0.111210 0.005304 0.043084 -0.098442 0.045257 0.090966 -0.003750 0.041389 0.044246 -0.038121 -0.025822 -0.021264 -0.141650 0.008627 0.051398 0.088230 0.084447 -0.030499 -0.048786 -0.009496 0.007671 0.125440 -0.109040 0.116290 -0.020326 -0.131890 0.045377 -0.067224 0.105490 -0.059025 -0.098816 -0.054619 -0.139670 0.032849 0.027472 0.017320 0.203010 0.068622 -0.080790 -0.045390 -0.051934 0.080447 -0.024567 -0.085370 0.009151 -0.114660 0.010122 0.109610 -0.037530 0.019963 -0.039390 -0.039302 -0.035097 0.012569 -0.009128 0.109010 0.157820 -0.000920 -0.009360 -0.043630 -0.090566 -0.036486 0.054711 0.050057 -0.008922 0.015620 0.048957 -0.128010 0.041456 -0.033701 -0.056001 -0.175650 0.056072 -0.054354 -0.043406 -0.016817 0.033544 0.070700 -0.019347 -0.067229 0.038011 0.025543 0.153940 -0.090474 -0.077966 0.018265 0.016381 0.130980 -0.061366 -0.002684 0.060221 -0.000863 -0.056234 -0.120170 0.010417 -0.077264 -0.052881 -0.048133 -0.089496 0.077930 0.177460 -0.000292 -0.063645 0.103610 -0.000187 -0.039164 -0.102330 -0.053892 0.079598 0.019428 0.009298 -0.062450 -0.058510 -0.118670 -0.010080 -0.173950 0.050492 -0.065967 0.062638 0.099372 0.055054 -0.009298 -0.004906 -0.007788 -0.035958 -0.074903 -0.045404 -0.117180 -0.071161 -0.054810 -0.071522 0.028755 -0.042226 0.156210 0.066311 0.034847 0.078157 0.006619 -0.014177 -0.075645 0.054153 0.177260 0.108740 0.039700 -0.018702 -0.013548 0.044606 -0.066531 -0.026875 0.040132 -0.033963 -0.036916 0.013382 -0.058046 0.016486 0.136090 -0.042814 0.037908 -0.003882 0.098842 0.005897 -0.113490 0.076264 -0.023968 0.045931 -0.033862 -0.087015 -0.107370 -0.000642 0.022670 0.177910 -0.097618 0.027185 0.002828 0.044552 0.008402 0.012339 0.010722 0.092020 0.054076 0.026166 -0.097278 -0.155560 0.016098 0.021495 0.124400 0.018842 0.037844 -0.144610 0.045513 -0.169210 -0.006748 -0.113980 -0.056550 0.033403 -0.059301 0.103500 -0.061957 -0.101690 0.020662 0.058814 -0.099260 -0.089365 -0.035008 -0.055902 0.082712 -0.010959 0.030946 0.112120 0.007081 0.031558 -0.091170 -0.111520 0.051539 -0.048808 -0.067701 0.026321 0.145420 -0.145910 -0.019853 -0.002180 -0.004435 0.082490 -0.005058 0.109230 -0.110570 -0.003262 0.016611 -0.031065 -0.118600 -0.044331 0.132560 -0.072116 -0.095619 -0.078563 -0.032262 -0.015071 -0.075176 -0.022462 0.085220 -0.021127 0.024538 0.065622 0.055313 0.156280 0.080076 0.041835 -0.069678 -0.075394 -0.028509 0.065665 0.038239 -0.110590 0.037159 -0.001726 0.072321 -0.017042 0.007721 -0.019621 0.071932 0.051375 0.096695 0.055624 0.039252 0.031662 -0.085573 0.040507 0.077649 -0.053499 -0.030806 0.048318 0.011872 -0.024923 0.051411 -0.161400 -0.052015 -0.080699 0.044408 0.096913 -0.126980 -0.026307 -0.007582 0.082956 0.111500 -0.001570 0.038775 -0.003452 -0.090490 -0.044410 0.058276 0.089900 0.076374 0.088125 0.044663 -0.038702 -0.086998 -0.005317 0.083843 -0.030219 0.020044 0.005658 0.006694 -0.018202 -0.101740 -0.055033 0.027647 -0.011825 0.278560 -0.077367 -0.122230 0.037694 0.060666 -0.148740 0.030104 -0.153490 -0.077140 -0.046583 -0.062216 0.028955 0.127490 0.060377 -0.090769 -0.087008 0.071311 0.018892 0.107260 0.135460 -0.051716 0.152030 0.009694 0.000546 -0.028662 -0.204860 0.029235 0.067540 0.012240 -0.043047 0.101990 0.099711 -0.040864 -0.088899 -0.065126 0.127990 -0.019449 0.050320 0.058711 0.069627 0.004437 0.054707 0.091851 -0.141850 0.130700 0.105090 0.072226 0.079620 -0.012598 -0.132930 -0.065963 -0.098088 0.056782 0.020606 0.094557 -0.013468 -0.103430 -0.003699 -0.078758 0.118450 -0.029325 -0.044166 -0.070376 0.085941 0.021894 0.138050 0.056858 0.044295 -0.039074 0.080933 0.017330 0.050141 -0.054232 -0.030886 0.099292 -0.127310 -0.043423 -0.055702 -0.013700 -0.036609 0.042431 0.028071 0.043319 -0.042539 -0.024653 -0.100100 -0.072906 -0.047086 0.005044 -0.061740 -0.068629 -0.114360 0.057290 -0.110520 0.117770 0.049312 0.019118 -0.070824 0.038006 0.122940 0.066808 -0.111950 0.030967 0.011140 -0.030810 -0.163980 -0.078760 0.048679 -0.007509 0.037548 0.015661 0.069983 -0.119740 -0.104450 0.046121 0.048826 -0.085530 0.010989 -0.025254 0.002284 -0.036152 0.000233 0.009669 -0.057380 0.072373 0.068607 0.020618 -0.015642 -0.073694 0.043421 -0.037121 -0.004499 0.123240 0.163410 0.051579 0.088419 -0.038204 0.119320 -0.059017 -0.033434 -0.026932 0.020976 -0.024800 -0.129740 0.233020 0.178250 0.064706 0.009081 -0.024195 -0.000724 0.105890 0.141920 0.011259 0.029933 0.028772 0.077141 -0.107050 -0.106110 0.062406 0.006039 0.067982 0.111550 -0.015348 0.032332 -0.170600 -0.128450 0.110580 0.035332 0.046875 -0.101830 -0.081952 0.146170 -0.027062 -0.012386 0.013437 0.066562 0.094230 -0.013024 0.071919 0.077562 -0.088935 -0.170920 0.002213 0.031082 -0.015133 0.122000 -0.081477 -0.030401 -0.024220 0.088121 0.061396 0.056771 0.028745 -0.004538 -0.063354 -0.021026 0.018689 -0.042990 -0.053506 -0.047826 -0.040498 -0.007130 -0.027812 -0.030361 -0.043138 -0.067634 -0.087545 0.127120 0.001635 -0.295930 0.062131 -0.000107 -0.056751 0.030561 -0.104840 0.028694 0.015511 -0.094516 0.041164 -0.054009 0.125080 -0.168010 -0.067069 0.106050 0.008451 0.111290 0.077861 0.040338 0.120440 -0.106880 0.055626 -0.030154 -0.043053 -0.120140 0.159180 -0.128140 -0.030954 -0.051259 -0.016451 0.159750 0.101850 -0.028538 -0.049183 0.045293 0.049791 -0.006637 0.171900 0.099655 0.109000 -0.039532 0.181120 -0.060734 0.054870 0.060111 -0.042657 -0.007548 -0.008542 0.106600 0.030276 0.070960 -0.089978 0.071012 0.051902 -0.103960 0.203280 0.103490 0.080633 -0.097465 0.015742 -0.004779 0.134350 -0.061206 0.128890 -0.027029 0.166100 0.016203 -0.014053 -0.011238 -0.016363 -0.067391 0.082826 -0.099546 0.116930 -0.059126 -0.066738 -0.077413 0.086350 -0.091734 -0.127310 -0.027738 0.057448 0.050474 0.015377 -0.054486 0.192470 0.097115 0.081012 -0.041861 -0.031969 0.033638 -0.028492 0.051315 -0.086743 0.069927 -0.126100 -0.144670 -0.071224 0.134930 0.072454 0.156290 -0.029108 -0.106300 0.012665 0.005102 0.092924 -0.051605 0.001911 -0.141270 -0.014828 -0.059055 -0.057646 0.142310 0.090984 0.031690 -0.046460 -0.036336 -0.088745 -0.031837 -0.014087 0.011192 0.063405 -0.088568 0.088851 -0.068883 0.019408 0.134370 -0.016658 -0.015161 -0.178810 -0.026551 -0.118400 0.027248 0.065472 0.033104 -0.156720 0.014411 -0.010383 -0.048807 -0.004694 0.007905 0.032331 0.059795 0.049683 0.036981 -0.036210 -0.069559 0.062284 -0.000150 -0.070922 0.057540 -0.163080 -0.084735 0.010579 0.111980 -0.095349 0.062841 -0.027234 -0.083357 0.074175 0.038893 0.022293 0.063595 0.023796 -0.035180 -0.048903 -0.067500 -0.136960 0.096249 0.015855 -0.105610 -0.029841 -0.021722 -0.040876 0.192410 0.093481 -0.045018 0.059763 -0.009315 0.082815 0.082781 0.027485 -0.049286 -0.082299 0.109300 -0.016427 0.190650 -0.019019 0.042469 0.005796 -0.033336 0.105510 0.008743 -0.053056 0.007288 -0.002563 0.020841 -0.063088 0.155180 0.113440 0.109950 0.098483 0.040652 -0.129980 0.011739 -0.063080 0.067086 -0.027944 0.044228 -0.047575 -0.116710 -0.063461 0.027238 0.151540 -0.133270 -0.081200 -0.073075 -0.041635 0.049541 0.012962 0.029468 -0.002236 0.047309 -0.009552 0.043933 0.014144 0.030179 -0.024974 -0.002886 -0.008309 0.101640 -0.118150 -0.016490 -0.044024 0.026062 0.045618 -0.006422 -0.004586 0.040531 -0.066000 0.038896 -0.032281 0.252070 -0.079187 -0.137270 -0.054630 0.039414 0.152000 -0.100690 -0.090890 -0.037439 -0.009015 -0.113840 -0.050785 -0.030390 -0.079148 0.041408 0.009109 -0.031376 -0.124280 0.016735 0.014378 0.078331 0.037287 -0.054611 0.063355 0.015370 0.039524 -0.119720 0.034864 -0.076025 0.137060 0.024886 0.047487 0.052820 -0.033758 -0.183600 0.010611 -0.035804 -0.057074 0.005657 -0.020536 0.031163 -0.064083 0.015415 -0.041744 0.010488 -0.081196 -0.084466 -0.053139 -0.009353 0.089906 -0.040940 0.023438 0.145450 -0.138640 0.089703 -0.085611 -0.139070 -0.076356 -0.055446 0.016710 0.017119 -0.141270 -0.118740 -0.112660 0.010215 -0.034396 0.013778 0.011619 -0.084568 -0.088960 -0.024846 0.062645 0.005858 0.059579 0.009831 0.082634 0.028450 -0.163430 -0.011169 0.067066 -0.204010 0.182740 -0.039848 0.825740 -0.015617 0.100630 0.050404 -0.443880 0.206380 0.044728 -0.129910 -0.207170 -0.071754 0.090662 -0.172810 0.057473 0.041392 -0.052387 -0.009671 0.087894 0.080438 -0.146640 -0.138470 0.071070 -0.121590 0.017085 -0.086897 -0.250290 0.679500 -0.101070 -0.156140 0.082343 -0.884890 -0.067643 0.235910 -0.001221 0.138380 -0.022920 -0.032375 -0.256400 -0.015049 -0.006769 0.044026 0.061111 -0.029934 -0.062026 0.073150 -0.027133 -0.487040 -0.058606 -0.096699 -0.062053 0.104970 0.109490 0.004803 -0.126410 -0.177670 0.020365 0.070819 -0.176150 -0.166160 -0.117680 0.246290 0.122860 -0.321410 0.075148 0.037586 -0.269920 -0.128630 0.032301 0.021881 -0.016002 0.141390 0.051611 -0.000269 -0.000115 0.073357 -0.094691 -0.210650 0.043202 0.059473 -0.003248 -0.012794 -0.146700 0.108340 0.305850 0.000160 0.046820 0.007662 0.070988 0.059340 -0.030432 -0.024702 0.002582 0.246320 0.013550 0.117490 -0.058835 -0.028161 0.075449 -0.068226 -0.135380 0.013480 0.124180 -0.025697 -0.051332 -0.036819 0.032182 -0.002918 0.020390 -0.058835 -0.171930 0.015346 -0.027568 0.068729 -0.082335 0.085355 -0.054641 0.018172 -0.013850 0.068656 -0.006102 0.056994 -0.031917 0.045188 0.027507 -0.055376 0.045625 -0.033598 -0.062219 -0.181980 0.058830 -0.043077 0.013198 -0.011770 0.069536 -0.027890 0.001527 -0.011014 0.005445 0.057071 0.066390 0.058537 0.057685 0.101540 0.064325 0.061151 0.014895 -0.076386 -0.088313 0.064340 0.057819 0.006749 -0.113770 -0.003498 -0.079770 -0.096930 -0.139060 0.023873 -0.084081 -0.102140 -0.097018 0.015228 0.017605 -0.011209 -0.055018 -0.043102 -0.009004 -0.077548 0.029521 -0.075334 0.036418 0.125580 0.001257 0.090883 0.072089 0.055977 0.053173 0.014352 -0.174040 0.044522 0.047847 -0.035793 -0.043323 0.003099 -0.083649 0.026143 0.085107 0.094039 0.026164 0.008697 0.010653 0.023214 0.077629 -0.094692 -0.017263 -0.124700 -0.133290 0.118890 -0.103080 -0.016762 0.027469 0.105140 0.078653 -0.115800 0.057866 0.019405 -0.075969 0.093453 -0.016422 0.112940 -0.019225 0.073669 0.072699 -0.085815 0.078179 -0.025742 0.016971 -0.001359 0.104750 -0.038670 0.076665 -0.049363 0.042750 0.130940 -0.048643 0.172420 0.071084 -0.021190 -0.025342 -0.090239 -0.152130 -0.060700 0.012888 0.032224 -0.028830 -0.027009 -0.065210 0.087913 -0.028697 -0.054863 0.122520 -0.129180 -0.079620 0.154160 0.020202 0.038696 -0.018713 -0.012986 -0.033013 0.054505 -0.155640 0.004115 0.011857 -0.023803 0.048544 0.051664 0.054388 -0.056534 0.034837 -0.003598 -0.054654 0.086504 0.149810 0.114570 0.050607 -0.008643 0.046590 0.028618 -0.043231 -0.106640 0.078987 -0.085551 0.043571 0.047479 0.060163 -0.027938 0.138050 -0.016750 -0.041523 0.016052 -0.076629 0.053469 -0.018135 0.068572 0.164720 0.071706 0.145160 -0.071471 -0.125460 0.020303 0.016538 0.030969 -0.062371 0.020200 -0.041300 0.061828 0.064612 0.016437 0.133770 0.061981 0.108950 0.039728 -0.044577 -0.011773 0.054825 -0.052241 0.081172 -0.022812 0.084818 -0.038342 -0.181800 -0.163750 -0.062412 0.000315 -0.024778 0.015619 -0.075782 -0.128930 0.004980 0.046546 -0.052089 0.066716 -0.054002 0.021345 0.039908 0.053982 0.022644 0.210650 0.103680 0.081308 -0.003762 -0.062755 -0.029998 -0.071344 0.098704 0.096166 0.028929 -0.055162 0.142330 0.017969 0.048938 -0.047308 0.012974 0.066452 0.050020 -0.003052 -0.005753 -0.037590 0.027821 0.014519 0.102640 -0.125830 0.146820 0.056273 0.086209 -0.041083 0.045622 -0.012925 0.027999 0.121530 0.016432 -0.170270 -0.072205 0.035837 -0.010452 -0.022692 -0.030679 -0.107100 -0.023151 -0.055639 -0.071213 -0.062732 0.044538 -0.015672 -0.118520 -0.005952 -0.085195 -0.045933 0.053595 -0.073678 0.034589 -0.043741 0.105280 -0.101800 -0.000032 -0.155650 -0.071656 0.063649 -0.072673 -0.032371 -0.052544 -0.023400 -0.035307 -0.044926 0.008487 -0.093052 0.123740 0.046810 -0.015995 0.196620 -0.073106 -0.110690 0.089240 0.046307 0.089759 -0.056023 -0.086181 0.025271 -0.192030 -0.118030 -0.028130 -0.006877 -0.159970 -0.065874 0.047041 -0.007094 -0.032105 0.159490 0.013384 -0.032513 0.016788 -0.040585 0.152900 0.091330 0.110860 -0.064657 -0.049622 -0.075283 0.042489 0.062215 0.020845 -0.071653 -0.034851 -0.100570 -0.083424 -0.083384 0.029235 -0.044832 -0.004585 -0.042471 0.025963 0.001307 -0.036266 0.031233 -0.017119 -0.048759 -0.082149 -0.049250 0.214250 -0.108650 0.012491 -0.029439 0.019755 0.186710 -0.114950 -0.098720 0.005311 -0.061969 -0.006489 -0.046237 -0.043725 0.056501 -0.028906 -0.016820 -0.064795 0.013221 0.040045 0.011548 0.062131 -0.014436 -0.011950 0.077656 0.066544 -0.111800 
