-0.013465 -0.001766 0.003410 0.007545 0.012188 -0.048069 0.001940 -0.021242 0.041277 -0.068182 0.066728 -0.043620 -0.014858 0.000877 -0.043831 0.000058 -0.018621 -0.006213 -0.051197 0.030155 -0.000088 -0.007824 0.020915 0.106940 -0.011273 0.012441 0.056301 -0.049715 -0.038102 -0.022113 0.017086 -0.040481 -0.083859 0.040621 -0.051202 0.017122 -0.021134 -0.067607 -0.004191 0.004297 0.030624 -0.004649 0.019706 0.040304 0.019213 0.058670 -0.017320 0.195030 -0.021512 -0.034662 -0.011660 -0.034285 -0.026142 -0.002800 0.026516 -0.117060 0.022041 0.034218 -0.022521 0.028298 -0.064472 -0.019425 -0.122280 -0.038267 0.022407 -0.006147 -0.003528 -0.009523 -0.002636 0.016202 0.009571 -0.099521 -0.007459 0.022207 0.025836 0.053457 0.009444 0.035299 0.040206 -0.035025 -0.025483 0.022395 0.032687 0.027303 -0.020856 -0.019304 -0.007193 -0.043081 -0.010482 -0.032020 -0.003879 -0.017524 0.028113 -0.032569 -0.061813 -0.019735 -0.021581 -0.033319 -0.010243 0.015955 0.018112 -0.026484 -0.032731 -0.006533 -0.007405 -0.013429 0.000759 0.106260 0.001709 -0.038802 0.048945 -0.018090 0.011079 -0.035718 0.037007 -0.022970 0.156680 0.038260 -0.016110 0.007667 -0.034537 -0.010086 -0.001352 -0.016037 0.034197 -0.003938 -0.034806 0.013742 -0.081423 0.046917 -0.050404 0.054119 0.000072 0.051268 0.004323 -0.041609 0.014739 0.020498 -0.019345 0.001769 -0.001356 0.032711 0.018994 0.067606 -0.001649 0.000188 0.087131 0.008936 -0.016257 -0.021464 -0.026840 0.003334 0.001819 0.005386 0.022381 0.013502 -0.029945 0.020576 0.028144 0.025208 -0.059750 0.014465 0.021081 0.014589 -0.025048 -0.013603 0.040966 0.022585 0.032498 -0.040472 -0.025009 -0.011405 -0.001794 -0.030298 0.042723 0.040211 0.040031 -0.029117 0.140380 -0.016870 0.038714 0.004464 -0.057393 -0.034631 -0.027797 -0.024409 -0.050605 0.020684 0.000301 0.000802 0.014263 0.098424 -0.029558 0.006005 0.019688 -0.017284 -0.003171 -0.042976 0.081157 -0.062903 -0.002984 -0.012010 0.003462 -0.014056 -0.032276 -0.042682 0.021807 -0.018963 0.053548 0.001883 -0.023298 0.040688 -0.096243 0.043251 -0.071453 -0.037514 -0.013846 -0.000885 0.048771 -0.031640 -0.023014 -0.015396 0.039893 -0.058075 0.019620 -0.020489 0.005763 0.030761 -0.085930 -0.057855 0.015205 -0.057664 0.022193 -0.014233 0.024687 -0.049047 -0.020749 0.011843 -0.027486 0.055343 -0.011707 -0.009604 0.045328 0.042039 0.010798 0.043042 -0.018033 -0.046167 -0.106630 0.003218 0.034437 0.014687 0.021202 -0.034761 -0.023250 -0.018584 -0.003796 -0.039220 0.019906 0.036233 0.055671 -0.001593 0.085101 -0.029997 -0.038184 -0.019429 -0.024805 0.004040 -0.001505 -0.009594 -0.030474 0.017205 -0.024642 -0.016455 0.021941 -0.076315 -0.031246 -0.012014 0.071653 -0.054745 -0.009383 -0.020816 0.033510 -0.030469 0.008956 0.017654 -0.046505 -0.022248 0.028026 -0.042746 0.024803 0.001271 0.042167 -0.016186 -0.022421 0.067517 0.060487 0.043113 -0.063617 0.015912 -0.004963 0.017209 0.014413 -0.016414 0.009464 0.035153 -0.024235 0.042880 -0.005959 -0.005914 -0.004496 0.045685 -0.010687 -0.020656 0.161720 -0.018017 0.000567 -0.031015 -0.032565 0.000143 -0.007999 0.037466 0.019047 -0.063742 0.038345 -0.017971 0.050717 0.051898 0.006902 0.028769 -0.026799 -0.021134 -0.104220 0.013902 0.032939 0.017999 0.010144 -0.030593 -0.003661 -0.035397 0.009025 -0.031191 0.013120 -0.021085 0.009391 -0.036025 -0.130610 -0.056806 0.009652 -0.011390 0.005437 -0.006619 -0.007148 0.014233 -0.053674 -0.011870 -0.003345 0.004265 0.013887 0.137120 0.000176 0.000772 0.035588 -0.013329 0.000827 -0.021913 0.012899 -0.019041 -0.009201 0.043107 -0.018165 0.004239 -0.011574 -0.026745 0.001214 -0.019069 0.027354 -0.033225 -0.013347 0.046097 -0.010670 0.063106 -0.029176 -0.161930 -0.008582 -0.012028 0.011736 -0.065195 -0.004648 -0.006603 0.007324 -0.013441 0.017513 0.025681 -0.029457 0.033106 -0.035050 -0.013472 0.082505 -0.035895 0.011029 -0.040759 -0.018421 0.013812 -0.022021 0.016269 0.046961 -0.034504 -0.020265 0.022618 0.040243 0.043748 0.012352 0.047849 0.005041 -0.009342 0.107820 0.003231 0.038620 0.004305 -0.006448 -0.016880 0.011806 -0.012507 -0.028411 -0.068764 -0.030050 0.016772 0.084283 -0.037773 -0.091152 -0.063163 -0.022951 -0.005589 -0.028628 -0.001904 -0.003050 0.009854 -0.028461 0.015470 -0.029025 -0.025609 -0.015825 -0.113860 -0.004350 0.030162 0.043418 -0.060407 -0.046000 -0.010266 0.018484 -0.021580 0.005337 0.024239 -0.042818 0.016083 -0.017744 -0.003802 -0.015436 -0.036632 0.040956 -0.001448 0.000016 0.009391 0.174470 0.038385 -0.017299 0.002458 -0.009982 0.004938 0.021858 -0.009752 -0.025446 -0.003473 0.026878 0.032702 -0.044016 0.006473 -0.004733 0.005934 -0.020607 -0.042207 -0.030620 -0.033184 0.038201 -0.002238 0.002747 0.011525 -0.002212 0.011713 0.004202 0.033760 -0.038650 -0.000369 0.004220 0.023760 0.033558 -0.002897 0.022490 -0.034076 -0.104830 -0.011164 0.025955 0.031908 -0.008817 0.008861 -0.021225 -0.033638 -0.042506 -0.035878 0.024159 -0.009734 0.049532 -0.035932 -0.145470 -0.050623 -0.024515 -0.011575 -0.018474 0.011740 0.030289 -0.042653 -0.040661 0.011918 -0.008421 -0.009503 -0.014121 0.041997 -0.000066 0.001526 0.028793 -0.045792 0.011621 -0.021694 0.041577 -0.004059 -0.118920 0.016708 -0.003453 -0.002997 0.001469 -0.004749 -0.007733 -0.033027 0.062994 0.004999 -0.001254 0.018940 -0.041599 0.022644 -0.029444 0.015539 -0.042890 0.020406 0.040078 -0.001199 -0.010643 0.011429 0.006749 0.084870 0.018545 0.022052 -0.015472 0.040179 -0.026872 -0.044664 -0.221290 -0.042419 0.019728 0.011659 -0.049487 -0.004006 0.028762 0.004737 0.040224 -0.047249 -0.036138 -0.022207 -0.009282 0.024700 -0.008811 0.035291 -0.032161 -0.003143 -0.078218 -0.020478 0.021242 0.002681 -0.003717 0.000205 0.000918 -0.049683 -0.047406 -0.020143 0.014997 0.017817 0.036451 -0.029543 0.077794 -0.076676 0.010209 0.016223 -0.021626 -0.015337 0.007291 -0.053988 -0.030741 -0.023949 0.004046 -0.031964 -0.015017 0.140380 -0.001702 0.008212 0.024805 -0.014128 -0.023990 -0.030825 -0.007801 -0.018184 0.013698 0.032753 -0.013250 0.012995 -0.042601 -0.006797 -0.002325 -0.010898 0.037431 -0.013127 -0.013205 0.003171 0.082060 0.043155 -0.026349 -0.004028 0.000583 0.013601 0.012465 -0.005778 -0.001244 0.023080 0.016404 0.041217 0.002248 0.023480 0.013698 0.029431 -0.049345 -0.029861 0.180600 -0.015205 0.048926 -0.012228 -0.024304 0.024616 -0.000852 0.014825 0.011465 0.137700 -0.043789 -0.014805 -0.002661 0.033100 0.019205 0.026589 0.033114 -0.067844 0.043414 -0.010209 0.060865 0.009682 -0.007705 -0.014881 -0.006411 -0.027592 0.008228 -0.036026 -0.020583 0.004344 0.054457 -0.064548 0.015124 -0.058460 0.001210 -0.037098 -0.048822 0.032039 0.020546 0.030349 -0.033371 0.001668 -0.010209 -0.047747 0.011290 -0.107010 -0.009433 0.008915 0.034309 -0.045203 -0.025525 -0.043480 0.032023 -0.035064 -0.005569 0.007963 0.000039 0.000157 -0.022273 -0.015385 0.005686 -0.005479 0.029423 -0.026359 -0.002432 0.008698 -0.054611 0.035816 -0.023093 -0.002232 -0.025262 0.032828 0.031093 0.010384 0.045167 0.007694 0.018809 -0.011589 0.002642 -0.005574 0.000466 0.019352 -0.036195 -0.025020 0.024512 -0.003784 0.046527 -0.031743 0.000342 0.001809 0.002365 0.013267 -0.006650 0.050528 -0.014237 0.032572 -0.003614 0.013877 0.017236 0.001169 0.031344 -0.035793 0.051047 0.010968 0.025812 0.016922 0.001910 -0.016235 -0.005862 -0.038325 0.027033 -0.041667 0.022088 0.018310 0.038478 -0.028850 0.057422 -0.023765 -0.007216 -0.035329 -0.054799 -0.008916 0.007145 0.011279 -0.015497 0.028245 -0.010470 0.006007 0.026016 0.054321 -0.009049 0.015121 0.056690 -0.020081 -0.018931 -0.051687 0.041354 -0.033540 0.018554 0.039677 -0.005771 0.007009 -0.021528 -0.021432 -0.001432 -0.046035 0.034113 -0.000085 -0.013385 0.030172 0.101080 0.039294 -0.032261 -0.107390 -0.002598 0.034469 -0.007668 -0.005785 0.029389 0.015243 0.013541 0.039694 0.011256 0.003953 -0.009679 0.037049 -0.000444 -0.029024 0.044564 -0.030686 0.021412 -0.017363 -0.007733 -0.020896 0.001631 0.033389 -0.008541 -0.045930 -0.003315 0.016871 0.034228 0.033850 0.029863 0.012124 0.017446 -0.019710 0.144610 0.012314 0.023548 0.030495 
