0.000000 0.673700 0.000000 0.673700 -0.673700 0.673700 -0.000000 -0.673700 -0.000000 -0.673700 -0.673700 -0.673700 -0.000000 -0.673700 -0.000000 -0.673700 -0.673700 -0.673700 -0.673700 0.673700 -0.673700 -0.673700 0.673700 0.000000 0.673700 -0.673700 0.673700 0.673700 -0.673700 -0.673700 0.000000 0.000000 0.000000 0.673700 0.673700 0.000000 0.000000 0.673700 -0.673700 0.673700 -0.673700 -0.673700 -0.673700 -0.673700 -0.673700 -0.673700 -0.673700 -0.673700 -0.000000 -0.673700 -0.000000 -0.673700 -0.673700 0.000000 0.000000 -0.673700 -0.673700 -0.000000 0.000000 0.673700 -0.673700 0.673700 0.673700 0.000000 0.673700 -0.673700 -0.000000 0.673700 0.000000 -0.673700 0.000000 0.673700 0.673700 0.673700 0.673700 0.673700 0.673700 0.673700 0.673700 0.000000 -0.673700 0.673700 0.673700 0.673700 0.673700 -0.673700 -0.673700 -0.673700 0.673700 0.673700 -0.673700 -0.673700 -0.673700 -0.673700 -0.000000 -0.673700 -0.673700 -0.000000 -0.000000 -0.673700 -0.673700 -0.000000 0.673700 0.673700 -0.673700 0.000000 0.000000 0.673700 0.000000 0.673700 0.673700 0.673700 0.000000 0.673700 -0.673700 -0.673700 0.673700 0.000000 0.673700 -0.673700 -0.673700 -0.673700 -0.000000 -0.673700 -0.673700 0.673700 -0.000000 -0.673700 -0.000000 -0.673700 -0.000000 0.673700 0.000000 0.000000 0.000000 -0.673700 0.673700 0.673700 0.000000 0.000000 -0.673700 0.673700 0.673700 0.000000 0.000000 -0.000000 -0.673700 0.673700 0.673700 -0.000000 0.000000 
